~o
<STREAMINFO> 1 39
<VECSIZE> 39<NULLD><MFCC_E_D_A><DIAGC>
~t "T_ng^"
<TRANSP> 5
 0.000000e+000 1.000000e+000 0.000000e+000 0.000000e+000 0.000000e+000
 0.000000e+000 8.189256e-001 1.810745e-001 0.000000e+000 0.000000e+000
 0.000000e+000 0.000000e+000 5.814815e-001 4.185185e-001 0.000000e+000
 0.000000e+000 0.000000e+000 0.000000e+000 6.803859e-001 3.196141e-001
 0.000000e+000 0.000000e+000 0.000000e+000 0.000000e+000 0.000000e+000
~t "T_h"
<TRANSP> 5
 0.000000e+000 1.000000e+000 0.000000e+000 0.000000e+000 0.000000e+000
 0.000000e+000 6.860881e-001 3.139119e-001 0.000000e+000 0.000000e+000
 0.000000e+000 0.000000e+000 5.667527e-001 4.332473e-001 0.000000e+000
 0.000000e+000 0.000000e+000 0.000000e+000 6.545256e-001 3.454744e-001
 0.000000e+000 0.000000e+000 0.000000e+000 0.000000e+000 0.000000e+000
~t "T_k"
<TRANSP> 5
 0.000000e+000 1.000000e+000 0.000000e+000 0.000000e+000 0.000000e+000
 0.000000e+000 8.870497e-001 1.129502e-001 0.000000e+000 0.000000e+000
 0.000000e+000 0.000000e+000 8.015019e-001 1.984980e-001 0.000000e+000
 0.000000e+000 0.000000e+000 0.000000e+000 5.839854e-001 4.160146e-001
 0.000000e+000 0.000000e+000 0.000000e+000 0.000000e+000 0.000000e+000
~t "T_n"
<TRANSP> 5
 0.000000e+000 1.000000e+000 0.000000e+000 0.000000e+000 0.000000e+000
 0.000000e+000 5.630202e-001 4.369798e-001 0.000000e+000 0.000000e+000
 0.000000e+000 0.000000e+000 3.955241e-001 6.044759e-001 0.000000e+000
 0.000000e+000 0.000000e+000 0.000000e+000 5.461728e-001 4.538272e-001
 0.000000e+000 0.000000e+000 0.000000e+000 0.000000e+000 0.000000e+000
~t "T_s"
<TRANSP> 5
 0.000000e+000 1.000000e+000 0.000000e+000 0.000000e+000 0.000000e+000
 0.000000e+000 8.312277e-001 1.687723e-001 0.000000e+000 0.000000e+000
 0.000000e+000 0.000000e+000 5.282102e-001 4.717898e-001 0.000000e+000
 0.000000e+000 0.000000e+000 0.000000e+000 6.272105e-001 3.727895e-001
 0.000000e+000 0.000000e+000 0.000000e+000 0.000000e+000 0.000000e+000
~t "T_v"
<TRANSP> 5
 0.000000e+000 1.000000e+000 0.000000e+000 0.000000e+000 0.000000e+000
 0.000000e+000 5.603434e-001 4.396567e-001 0.000000e+000 0.000000e+000
 0.000000e+000 0.000000e+000 7.145379e-001 2.854621e-001 0.000000e+000
 0.000000e+000 0.000000e+000 0.000000e+000 7.424592e-001 2.575408e-001
 0.000000e+000 0.000000e+000 0.000000e+000 0.000000e+000 0.000000e+000
~t "T_@@"
<TRANSP> 5
 0.000000e+000 1.000000e+000 0.000000e+000 0.000000e+000 0.000000e+000
 0.000000e+000 7.772090e-001 2.227910e-001 0.000000e+000 0.000000e+000
 0.000000e+000 0.000000e+000 6.438094e-001 3.561906e-001 0.000000e+000
 0.000000e+000 0.000000e+000 0.000000e+000 6.295647e-001 3.704354e-001
 0.000000e+000 0.000000e+000 0.000000e+000 0.000000e+000 0.000000e+000
~t "T_aa"
<TRANSP> 5
 0.000000e+000 1.000000e+000 0.000000e+000 0.000000e+000 0.000000e+000
 0.000000e+000 7.985537e-001 2.014463e-001 0.000000e+000 0.000000e+000
 0.000000e+000 0.000000e+000 6.436471e-001 3.563529e-001 0.000000e+000
 0.000000e+000 0.000000e+000 0.000000e+000 6.744673e-001 3.255327e-001
 0.000000e+000 0.000000e+000 0.000000e+000 0.000000e+000 0.000000e+000
~t "T_k^"
<TRANSP> 5
 0.000000e+000 1.000000e+000 0.000000e+000 0.000000e+000 0.000000e+000
 0.000000e+000 4.485290e-001 5.514710e-001 0.000000e+000 0.000000e+000
 0.000000e+000 0.000000e+000 3.417662e-001 6.582339e-001 0.000000e+000
 0.000000e+000 0.000000e+000 0.000000e+000 5.069921e-001 4.930080e-001
 0.000000e+000 0.000000e+000 0.000000e+000 0.000000e+000 0.000000e+000
~t "T_m^"
<TRANSP> 5
 0.000000e+000 1.000000e+000 0.000000e+000 0.000000e+000 0.000000e+000
 0.000000e+000 6.567892e-001 3.432108e-001 0.000000e+000 0.000000e+000
 0.000000e+000 0.000000e+000 6.004984e-001 3.995015e-001 0.000000e+000
 0.000000e+000 0.000000e+000 0.000000e+000 6.095542e-001 3.904458e-001
 0.000000e+000 0.000000e+000 0.000000e+000 0.000000e+000 0.000000e+000
~t "T_n^"
<TRANSP> 5
 0.000000e+000 1.000000e+000 0.000000e+000 0.000000e+000 0.000000e+000
 0.000000e+000 6.484565e-001 3.515435e-001 0.000000e+000 0.000000e+000
 0.000000e+000 0.000000e+000 5.623868e-001 4.376132e-001 0.000000e+000
 0.000000e+000 0.000000e+000 0.000000e+000 8.140187e-001 1.859813e-001
 0.000000e+000 0.000000e+000 0.000000e+000 0.000000e+000 0.000000e+000
~t "T_t^"
<TRANSP> 5
 0.000000e+000 1.000000e+000 0.000000e+000 0.000000e+000 0.000000e+000
 0.000000e+000 8.809850e-001 1.190150e-001 0.000000e+000 0.000000e+000
 0.000000e+000 0.000000e+000 9.345720e-001 6.542806e-002 0.000000e+000
 0.000000e+000 0.000000e+000 0.000000e+000 9.056550e-001 9.434502e-002
 0.000000e+000 0.000000e+000 0.000000e+000 0.000000e+000 0.000000e+000
~t "T_uu"
<TRANSP> 5
 0.000000e+000 1.000000e+000 0.000000e+000 0.000000e+000 0.000000e+000
 0.000000e+000 6.849309e-001 3.150690e-001 0.000000e+000 0.000000e+000
 0.000000e+000 0.000000e+000 7.621710e-001 2.378290e-001 0.000000e+000
 0.000000e+000 0.000000e+000 0.000000e+000 6.807793e-001 3.192207e-001
 0.000000e+000 0.000000e+000 0.000000e+000 0.000000e+000 0.000000e+000
~t "T_w^"
<TRANSP> 5
 0.000000e+000 1.000000e+000 0.000000e+000 0.000000e+000 0.000000e+000
 0.000000e+000 8.425581e-001 1.574419e-001 0.000000e+000 0.000000e+000
 0.000000e+000 0.000000e+000 7.766938e-001 2.233062e-001 0.000000e+000
 0.000000e+000 0.000000e+000 0.000000e+000 7.866815e-001 2.133186e-001
 0.000000e+000 0.000000e+000 0.000000e+000 0.000000e+000 0.000000e+000
~h "uu-k+oo"
<BEGINHMM>
<NUMSTATES> 5
<STATE> 2
<MEAN> 39
 2.172244e+000 -1.578513e+001 8.185262e+000 -1.116135e+001 -1.527478e+001 -8.200158e+000 -2.225933e+000 -4.219731e+000 -6.460244e+000 1.200605e+000 -1.848645e+001 -1.336971e+001 1.705305e+001 3.720177e-001 7.754529e-001 8.672073e-002 7.073398e-001 -2.661445e-001 8.879793e-001 1.280900e-001 -1.304230e-001 -7.316153e-001 5.039368e-001 -3.989353e-001 -6.972617e-001 -1.432523e-001 -1.355857e-002 -3.957219e-002 -1.619385e-001 7.661115e-002 -8.756397e-002 -6.937352e-002 -9.405224e-002 -1.643608e-001 -1.022618e-001 -1.596989e-001 8.764748e-003 -6.241335e-002 1.256276e-002
<VARIANCE> 39
 1.423472e+001 6.583935e+001 7.928397e+001 2.796919e+001 4.706121e+000 3.273373e+001 4.216981e+001 4.359154e+001 5.763951e+001 2.822896e+001 8.393976e+001 5.183652e+001 6.219899e+000 2.449874e-001 4.194479e-001 1.664306e+000 7.608140e-001 6.032178e-001 3.573457e+000 2.081165e+000 1.912471e+000 3.562183e+000 2.595445e+000 3.374648e+000 3.779877e+000 1.772022e-002 2.813727e-002 9.983242e-002 4.492445e-001 2.032417e-001 1.628645e-001 4.212245e-001 4.810723e-001 4.350598e-001 4.080847e-001 7.438451e-001 3.653704e-001 7.878791e-001 4.651948e-003
<GCONST> 9.690588e+001
<STATE> 3
<MEAN> 39
 3.642137e+000 -6.792856e+000 -2.136325e+000 -6.035655e+000 -1.727745e+001 -3.321902e+000 5.474153e-001 -4.238495e+000 -8.587377e+000 3.120201e+000 -9.029569e+000 -1.226156e+001 1.474387e+001 2.933287e-001 6.702313e-001 -7.148633e-001 1.902958e-001 -4.722605e-001 1.349273e+000 -7.406467e-001 -7.750834e-001 -4.610382e-001 2.304257e-001 -3.640285e-001 -1.458224e+000 -1.096892e-001 -2.721883e-002 2.077454e-001 1.839505e-001 1.909055e-001 1.202234e-001 -6.671910e-001 -5.885714e-001 3.542159e-002 4.166088e-001 -2.753190e-001 -2.731928e-001 -9.446391e-002 -2.367735e-002
<VARIANCE> 39
 4.289684e+001 7.909275e+001 6.991425e+001 3.787012e+001 1.889628e+001 3.845185e+001 8.816962e+001 7.522849e+001 2.021373e+002 1.846240e+001 1.099041e+002 9.067219e+001 9.046863e+000 6.790924e-002 6.081198e-001 1.513101e+000 1.193112e+000 1.513079e+000 1.684019e+000 1.866052e+000 9.976883e-001 3.817879e+000 3.232815e+000 1.383012e+000 9.114155e-001 1.829125e-002 2.416199e-002 1.937469e-001 3.886935e-001 5.043273e-001 1.677127e-001 3.211526e-001 4.863203e-001 5.284576e-001 1.139818e+000 1.110158e-001 1.443830e-001 4.443812e-001 6.568764e-004
<GCONST> 9.699873e+001
<STATE> 4
<MEAN> 39
 -1.581830e+000 3.141734e+000 -4.247900e+000 2.864297e+000 -1.625660e+001 -1.353792e+001 -1.470807e+001 -3.586812e+000 -5.569566e+000 1.039751e+000 9.903436e-001 -4.064829e+000 1.110564e+001 -8.955922e-001 4.690348e-001 4.320148e-001 1.013750e+000 -3.381975e-001 -7.913942e-001 -5.284149e-001 2.224238e-001 8.082420e-002 9.175359e-002 1.089171e-001 -2.289890e-001 -3.374577e-001 -8.866366e-002 -1.047020e-001 -2.389681e-001 -7.966375e-002 6.236871e-002 -4.037192e-002 -7.750335e-003 1.508907e-001 1.832429e-001 3.855622e-003 8.849076e-002 1.442841e-001 -2.136361e-003
<VARIANCE> 39
 4.534272e+001 3.709063e+001 3.979317e+001 4.812015e+001 1.563064e+001 5.061723e+001 5.239401e+001 2.538799e+001 4.820861e+001 1.812328e+001 8.901059e+001 5.381656e+001 8.353175e+000 7.700365e-001 6.477609e-001 1.954484e+000 3.461568e+000 2.179650e+000 1.007676e+000 1.993809e+000 2.185503e+000 4.132847e+000 3.657675e+000 1.875344e+000 3.613925e+000 7.023380e-002 1.157443e-001 1.197912e-001 2.957949e-001 6.316103e-001 3.432553e-001 3.180223e-001 3.793292e-001 3.783452e-001 5.827124e-001 9.640353e-001 3.568886e-001 9.840971e-001 1.055181e-002
<GCONST> 1.070603e+002
~t "T_k"
<ENDHMM>
~h "s-a+j^"
<BEGINHMM>
<NUMSTATES> 5
<STATE> 2
<MEAN> 39
 -1.787993e+000 -2.147619e+001 -1.469586e+001 2.153914e+000 1.644827e+001 -7.345950e+000 1.757874e+000 7.858919e+000 2.321292e+000 3.429497e+000 -4.265204e+000 3.066233e+000 1.752786e+001 7.140404e-002 2.523807e-001 -1.001546e+000 -1.628477e-001 -6.663902e-001 -4.133255e-001 -1.080562e+000 -6.667064e-001 2.229245e-002 -1.079911e+000 1.560683e-001 -3.605012e-001 7.949179e-003 -7.754600e-002 2.303329e-003 6.047618e-002 -3.188417e-001 5.435044e-002 2.967498e-002 -1.734325e-001 -4.924133e-001 -1.923321e-001 -4.253334e-001 5.758217e-002 -1.284906e-001 5.431800e-002
<VARIANCE> 39
 1.935259e+001 4.304486e+001 1.420460e+002 1.488879e+002 1.273588e+002 8.866813e+001 7.990598e+001 1.279797e+002 4.417686e+001 1.921288e+002 1.226864e+002 2.752783e+001 4.168774e-001 2.411114e+000 1.934075e+000 1.755081e+000 5.433370e+000 7.963768e+000 9.316434e+000 5.681352e+000 1.330822e+001 7.233786e+000 1.967240e+001 1.465889e+001 2.232177e+000 6.765405e-002 4.296750e-001 2.727968e-001 4.951791e-001 9.661359e-001 1.485749e+000 2.285348e+000 1.311237e+000 1.185294e+000 1.564724e+000 3.514647e+000 3.176406e+000 5.476966e-001 1.256157e-002
<GCONST> 1.380658e+002
<STATE> 3
<MEAN> 39
 -3.434400e+000 -1.493762e+001 -5.956334e+000 -1.361427e+001 6.357726e+000 -1.015065e+001 -7.817458e+000 -1.000224e+001 9.572651e-001 -1.813229e+001 -9.637610e+000 2.196790e+000 1.881799e+001 3.623349e-002 -1.260599e+000 9.187894e-001 -1.353709e+000 -4.882012e-001 -1.895286e-001 -7.229867e-002 1.094055e-001 -1.569640e+000 -2.328055e+000 8.915351e-001 -6.255383e-001 7.096764e-001 -6.705415e-001 -2.760366e-001 2.750001e-001 -1.516027e-001 7.504985e-001 1.751178e-001 1.085505e+000 2.295462e-001 4.952435e-001 5.496711e-001 9.235758e-001 -3.669754e-001 9.259377e-002
<VARIANCE> 39
 1.638636e+001 7.811781e+001 2.423667e+002 1.508112e+002 2.062860e+002 1.702232e+002 1.432020e+002 1.999256e+002 4.841122e+001 8.558054e+001 5.897895e+001 2.745931e+001 1.548189e+000 2.364796e+000 5.429890e-001 3.080082e+000 2.670381e+000 4.655630e+000 5.418375e+000 2.092279e+001 1.100433e+001 2.812263e+000 8.709408e+000 8.469446e+000 3.174944e+000 1.289903e-001 8.340519e-002 3.763138e-001 3.530920e-001 4.728639e-001 1.768428e-001 7.159967e-001 1.332950e+000 4.521651e+000 4.489537e-001 1.575332e+000 4.524871e-001 1.692439e-001 1.715516e-002
<GCONST> 1.291865e+002
<STATE> 4
<MEAN> 39
 -5.564336e+000 -1.816299e+001 -1.140139e-001 -1.921091e+001 2.566704e+000 -6.663156e+000 7.591320e-001 -6.606629e+000 8.890661e-002 -1.447559e+001 -8.997405e+000 -2.794399e+000 2.025144e+001 -1.125679e+000 -8.837689e-001 5.145432e-001 -9.909877e-001 -3.226573e-001 3.586413e-001 2.213302e+000 1.879093e-001 4.716614e-001 -1.778258e-001 2.077855e+000 -1.234943e+000 6.074343e-001 -4.648778e-001 3.589252e-001 -1.039975e-001 -2.531145e-001 2.872244e-001 -3.432217e-001 5.409405e-002 -1.016355e+000 9.342280e-001 4.588982e-001 2.053578e-001 6.793810e-002 -1.367772e-001
<VARIANCE> 39
 2.862396e+001 1.002492e+002 2.041159e+002 1.365256e+002 2.901483e+002 2.426295e+002 1.121647e+002 1.162717e+002 6.753879e+001 1.216746e+002 1.205701e+002 3.113708e+001 2.266155e+000 2.033268e+000 3.816146e-001 1.703464e+000 2.328382e+000 4.822275e+000 3.360222e+000 6.211763e+000 8.312630e+000 1.398259e+000 8.467981e-001 1.881380e+000 2.136332e+000 1.323716e-001 7.713689e-002 2.687335e-002 4.218596e-001 7.671109e-002 2.454791e-001 1.916798e-001 1.563499e+000 6.531026e-001 4.222475e-001 1.552358e+000 1.158024e+000 4.601164e-001 9.013996e-003
<GCONST> 1.175603e+002
<TRANSP> 5
 0.000000e+000 1.000000e+000 0.000000e+000 0.000000e+000 0.000000e+000
 0.000000e+000 7.922191e-001 2.077809e-001 0.000000e+000 0.000000e+000
 0.000000e+000 0.000000e+000 3.767424e-001 6.232576e-001 0.000000e+000
 0.000000e+000 0.000000e+000 0.000000e+000 2.468550e-019 1.000000e+000
 0.000000e+000 0.000000e+000 0.000000e+000 0.000000e+000 0.000000e+000
<ENDHMM>
~h "m^-w+i"
<BEGINHMM>
<NUMSTATES> 5
<STATE> 2
<MEAN> 39
 -5.837781e+000 1.274385e-001 1.327365e+001 -3.496311e+001 -5.030514e+000 -7.499574e+000 -8.174188e+000 -1.908770e+001 4.208086e+000 -7.191387e+000 -9.940681e+000 5.479493e+000 1.897786e+001 3.521160e-001 4.496416e-001 -3.048382e-001 2.018438e-001 -2.241964e-001 4.661953e-001 -6.467654e-001 3.054181e-001 1.341641e-001 -3.452019e-002 -1.075628e-001 1.962670e-001 -1.935706e-001 3.591922e-002 -2.614291e-002 -4.582091e-002 8.776318e-002 -6.915393e-002 -7.113283e-003 -9.771309e-003 -3.579231e-003 -3.032900e-002 7.119530e-003 3.183153e-002 1.903760e-002 -1.530380e-002
<VARIANCE> 39
 3.581247e+001 6.059159e+001 7.740382e+001 7.237383e+001 8.118153e+001 8.282566e+001 8.699444e+001 8.142316e+001 4.175416e+001 1.231422e+002 8.161498e+001 1.191405e+002 5.718717e+000 5.271807e-001 1.068429e+000 1.426382e+000 2.163711e+000 2.016277e+000 3.641053e+000 2.913716e+000 3.603962e+000 2.824571e+000 2.098516e+000 2.522183e+000 2.456788e+000 3.900187e-002 6.095805e-002 1.399765e-001 2.367713e-001 3.254295e-001 3.667935e-001 7.396311e-001 5.491475e-001 6.093128e-001 4.952976e-001 3.915414e-001 4.161865e-001 4.404837e-001 3.992884e-003
<GCONST> 1.118115e+002
<STATE> 3
<MEAN> 39
 2.508191e-001 1.161610e+001 7.633420e-001 -1.504358e+001 -1.789524e+001 -6.241586e-001 -2.269992e+001 -1.063276e+001 5.339426e+000 -5.880686e+000 -7.145130e+000 4.177185e+000 1.292983e+001 -5.447406e-001 -3.244955e-002 -6.460847e-001 1.192621e+000 -1.222388e-001 -2.758061e-001 1.192090e-001 3.551586e-001 -3.598771e-001 -1.976723e-001 5.608050e-001 -2.822670e-001 -2.776303e-001 -1.759622e-001 -9.182590e-002 2.267899e-002 6.908137e-002 2.359056e-001 -9.372962e-002 2.999486e-001 2.279576e-002 -3.944558e-002 -1.519427e-002 -2.446542e-002 -7.659988e-003 1.170538e-002
<VARIANCE> 39
 2.867352e+001 3.567591e+001 7.056696e+001 1.219710e+002 4.847842e+001 5.257961e+001 4.782710e+001 9.233282e+001 7.812629e+001 4.702389e+001 7.345194e+001 8.825021e+001 6.141340e+000 1.159688e+000 1.719934e+000 2.043998e+000 3.131786e+000 3.634616e+000 3.867661e+000 4.965552e+000 3.530816e+000 4.296015e+000 4.074491e+000 4.006117e+000 2.870778e+000 1.004338e-001 1.624602e-001 2.989660e-001 3.759972e-001 5.559625e-001 7.039070e-001 9.003488e-001 5.991505e-001 4.686547e-001 7.715018e-001 7.963746e-001 6.904428e-001 5.135559e-001 2.254175e-002
<GCONST> 1.221335e+002
<STATE> 4
<MEAN> 39
 -8.546566e+000 2.371391e+000 -5.181302e+000 -1.118921e+001 -3.205042e+000 -2.638986e+001 -7.840489e+000 -5.495721e+000 1.284966e+001 -8.623528e+000 -7.016663e+000 2.743351e+000 1.559103e+001 -1.797620e-001 -1.634682e-001 -4.142114e-001 4.371428e-001 5.894323e-001 -2.036648e+000 3.907208e-001 2.033465e-001 9.588369e-001 -5.348399e-002 -2.040768e-001 -2.905998e-001 3.515867e-001 -4.702980e-002 1.367743e-001 3.438541e-002 -7.774329e-002 -1.272399e-001 9.738067e-003 -6.475777e-002 -2.223066e-003 3.394452e-003 1.551054e-002 1.640178e-001 -1.840009e-003 4.396883e-002
<VARIANCE> 39
 1.096468e+002 6.325394e+001 8.078886e+001 1.524019e+002 1.155990e+002 2.403878e+002 1.055906e+002 7.283807e+001 1.386955e+002 7.691194e+001 1.439736e+002 5.619912e+001 1.088834e+001 1.047279e+001 4.536399e+000 5.927550e+000 1.414484e+001 8.090690e+000 1.050926e+001 1.156636e+001 6.265977e+000 1.001019e+001 8.698706e+000 1.057883e+001 5.100559e+000 8.490511e-001 1.696237e+000 7.344650e-001 1.289865e+000 2.282454e+000 1.148707e+000 1.852518e+000 1.899635e+000 1.243124e+000 2.163239e+000 1.735180e+000 1.568711e+000 8.977304e-001 1.427341e-001
<GCONST> 1.577211e+002
<TRANSP> 5
 0.000000e+000 1.000000e+000 0.000000e+000 0.000000e+000 0.000000e+000
 0.000000e+000 9.690698e-001 3.093017e-002 0.000000e+000 0.000000e+000
 0.000000e+000 0.000000e+000 9.381610e-001 6.183908e-002 0.000000e+000
 0.000000e+000 0.000000e+000 0.000000e+000 9.502158e-001 4.978414e-002
 0.000000e+000 0.000000e+000 0.000000e+000 0.000000e+000 0.000000e+000
<ENDHMM>
~h "a-j^+z"
<BEGINHMM>
<NUMSTATES> 5
<STATE> 2
<MEAN> 39
 -1.280878e+001 -2.293025e+001 2.804733e+000 -2.227604e+001 1.121297e+000 -1.241600e+001 8.933213e+000 -1.364761e+001 -4.022213e+000 -1.231484e+001 -1.764517e-001 -3.141964e+000 2.201997e+001 -7.898628e-001 5.489291e-001 1.062917e+000 -1.663500e+000 -8.713138e-001 8.425004e-001 1.419862e+000 3.756992e-001 -2.064254e-001 1.604019e+000 -6.428741e-001 -6.802774e-002 3.154126e-001 -2.154521e-001 5.285321e-001 2.486129e-001 7.911335e-001 1.994176e-002 3.558388e-002 -2.541661e-001 2.867153e-001 2.055356e-001 -1.886020e-001 2.769547e-001 3.759112e-002 -2.286483e-001
<VARIANCE> 39
 1.787991e+001 1.385136e+001 5.063981e+001 7.742697e+001 6.112538e+001 8.224303e+001 6.156186e+001 6.369688e+001 1.118868e+002 4.176909e+001 5.266409e+001 2.915221e+001 8.752230e-001 4.239183e-001 1.425929e+000 8.384739e-001 3.429406e+000 1.104681e+000 3.289436e+000 2.807811e+000 5.479365e+000 4.444781e+000 4.397641e+000 2.557209e+000 2.146638e+000 7.246393e-002 2.054541e-001 2.509053e-001 4.695534e-001 4.347293e-001 6.886738e-001 5.637314e-001 6.742735e-001 1.019721e+000 4.687459e-001 9.319461e-001 6.268224e-001 5.290018e-001 8.146166e-003
<GCONST> 1.119232e+002
<STATE> 3
<MEAN> 39
 -1.520368e+001 -1.874818e+001 4.940211e+000 -2.614843e+001 -3.833025e+000 -1.181565e+001 1.092792e+001 -1.540644e+001 -1.392436e+000 -1.068479e+001 -1.912604e+000 -5.341121e+000 2.219907e+001 -1.515621e-001 1.726329e-001 1.120817e-001 -1.319911e-001 -1.490988e-001 8.393633e-002 5.373223e-002 1.822375e-001 2.910847e-001 2.801383e-001 -7.287060e-002 -9.730681e-002 1.534161e-002 9.930086e-002 -1.954363e-001 -1.549487e-001 4.841188e-001 2.137816e-001 -1.758110e-001 -7.913352e-002 1.479718e-002 -9.945793e-002 -2.216812e-001 2.668883e-001 7.216553e-002 -3.869646e-002
<VARIANCE> 39
 7.401994e+000 1.350059e+001 3.489662e+001 3.089264e+001 2.603370e+001 5.848971e+001 5.422902e+001 3.852403e+001 9.720992e+001 3.896277e+001 6.348963e+001 3.520604e+001 8.568070e-001 2.814336e-001 6.793599e-001 5.743986e-001 2.416003e+000 1.122766e+000 1.735114e+000 1.329429e+000 2.403496e+000 1.804269e+000 1.592134e+000 1.986276e+000 1.604528e+000 1.077792e-002 7.086362e-002 1.146029e-001 1.048441e-001 1.669326e-001 2.065657e-001 3.197134e-001 2.923994e-001 6.133239e-001 4.459912e-001 3.741157e-001 3.067065e-001 4.031338e-001 3.325312e-003
<GCONST> 8.933832e+001
<STATE> 4
<MEAN> 39
 -1.363960e+001 -2.159224e+001 2.223075e+000 -2.069031e+001 -1.545049e+000 -1.001752e+001 1.128220e+001 -1.431543e+001 -3.093534e+000 -1.065463e+001 -6.839737e-001 -2.319761e+000 2.189964e+001 3.481141e-001 -7.324170e-001 -6.113355e-001 1.259067e+000 4.900682e-001 -7.893685e-001 -5.898012e-001 1.047855e-001 -6.684063e-001 -7.507820e-001 -7.654087e-002 3.199499e-001 -5.295300e-002 6.273630e-002 3.488115e-002 -1.812468e-002 2.897476e-002 -5.596048e-002 -1.639790e-001 -2.719551e-001 1.005395e-001 6.033443e-003 -2.061204e-001 -3.158156e-001 -1.143703e-001 -2.707654e-002
<VARIANCE> 39
 9.335447e+000 1.856751e+001 3.508036e+001 3.845591e+001 3.781565e+001 5.514168e+001 5.358696e+001 5.853698e+001 8.806199e+001 3.225488e+001 5.711958e+001 3.134830e+001 8.690025e-001 4.987136e-001 8.078933e-001 9.164788e-001 1.894839e+000 2.177849e+000 2.860919e+000 2.152422e+000 3.530945e+000 2.840387e+000 3.099012e+000 3.413409e+000 2.290564e+000 1.590351e-002 7.904711e-002 1.727359e-001 1.586980e-001 2.316341e-001 1.714257e-001 2.690627e-001 3.430215e-001 5.681199e-001 6.002069e-001 3.193668e-001 3.353271e-001 3.750808e-001 2.904119e-003
<GCONST> 9.674998e+001
<TRANSP> 5
 0.000000e+000 1.000000e+000 0.000000e+000 0.000000e+000 0.000000e+000
 0.000000e+000 4.704135e-001 5.295865e-001 0.000000e+000 0.000000e+000
 0.000000e+000 0.000000e+000 8.146248e-001 1.853752e-001 0.000000e+000
 0.000000e+000 0.000000e+000 0.000000e+000 7.539694e-001 2.460306e-001
 0.000000e+000 0.000000e+000 0.000000e+000 0.000000e+000 0.000000e+000
<ENDHMM>
~h "uu-h+u"
<BEGINHMM>
<NUMSTATES> 5
<STATE> 2
<MEAN> 39
 -3.163223e+000 -1.345135e+001 -2.040710e+001 -2.690770e+001 1.413337e+001 5.892632e+000 -9.523029e-001 -3.287189e+000 2.217795e+000 -7.137329e+000 -4.246274e+000 -1.517888e+000 1.893911e+001 -4.725138e-002 7.888146e-001 2.063846e-002 1.064766e+000 -5.169159e-002 6.498854e-001 7.410800e-002 2.277989e-001 -7.338278e-001 -1.885253e+000 -1.010441e+000 -1.062379e+000 -1.393284e-001 4.707677e-001 4.020557e-001 4.923311e-001 4.623572e-001 1.398439e-002 -1.775170e-001 -4.389131e-001 -1.836713e-002 -3.435164e-001 -3.253089e-001 -9.281421e-001 -4.645061e-001 -4.658646e-002
<VARIANCE> 39
 2.424445e+001 8.363313e+001 6.901894e+001 5.625309e+001 2.005273e+002 4.372064e+002 4.579408e+001 1.744604e+002 8.228424e+001 1.622015e+001 1.496933e+002 4.611405e+001 1.394304e+000 1.039466e+000 1.241335e+000 9.280100e-001 2.353688e+000 1.117810e+000 3.915232e-001 3.276421e-001 1.023331e+000 2.390899e-001 5.119665e-001 3.925490e+000 1.745436e+000 6.018178e-002 8.095411e-002 5.065408e-001 2.612124e-001 2.014140e-001 6.062481e-001 8.051700e-001 9.000767e-002 8.374627e-001 1.333325e-001 5.478652e-001 1.308140e+000 4.086915e-001 7.241287e-003
<GCONST> 1.028105e+002
<STATE> 3
<MEAN> 39
 -2.375087e-001 -8.989842e+000 -2.368620e+001 -2.235009e+001 9.467897e+000 4.977590e+000 2.093628e+000 -1.018229e+001 5.241017e+000 -1.065409e+001 -6.174686e+000 -6.404150e+000 1.913050e+001 8.729058e-001 7.182983e-001 8.337278e-001 1.374712e+000 -5.441799e-001 8.346371e-001 -3.199582e-001 7.605160e-001 -1.089108e+000 -1.137959e+000 -2.021149e+000 -1.801057e+000 -1.189493e-001 3.316154e-001 1.101035e-001 5.423350e-002 2.454936e-001 8.918527e-002 1.007266e-001 -3.114026e-001 -9.510575e-002 -1.876913e-001 2.177129e-001 -2.074444e-001 -1.311195e-001 -4.895019e-002
<VARIANCE> 39
 3.225020e+001 6.575166e+001 1.097551e+002 5.818841e+001 1.211703e+002 3.549264e+002 7.989050e+001 1.128311e+002 1.114560e+002 2.723838e+001 1.413962e+002 2.700674e+001 1.556551e+000 5.821718e-001 2.566994e+000 6.141198e-001 6.306233e-001 1.613968e+000 2.262324e+000 6.467352e-001 2.127712e+000 1.099840e+000 6.417118e-001 1.454885e+000 1.590183e+000 2.839961e-002 1.336755e-001 2.640896e-001 2.062192e-001 5.725493e-001 2.823259e-001 1.229354e-001 6.637536e-002 6.557167e-001 1.871967e-001 2.151550e-002 1.031672e+000 5.280895e-001 1.018729e-002
<GCONST> 9.989496e+001
<STATE> 4
<MEAN> 39
 3.978422e+000 -8.894253e+000 -1.562524e+001 -2.237588e+001 1.165636e+001 1.729641e+001 -7.462470e+000 -5.345757e+000 -2.898828e+000 -1.025828e+001 -1.490396e+001 -1.182427e+001 1.793232e+001 1.398793e+000 1.660535e+000 -1.153418e-001 2.418767e+000 -3.063940e-001 4.467068e-001 -7.487676e-001 -1.454673e+000 -1.828966e+000 -1.402252e+000 -1.195975e+000 -9.607749e-001 -2.045003e-001 -6.314196e-002 -4.919232e-001 -3.099808e-001 -2.395631e-002 -3.045656e-001 -2.748043e-001 7.925732e-002 -7.757749e-002 -2.212190e-002 2.997869e-001 8.078265e-001 1.094998e+000 5.809705e-003
<VARIANCE> 39
 3.457156e+001 3.181059e+001 7.284019e+001 4.845484e+001 1.445842e+002 5.628695e+002 5.175579e+001 8.180863e+001 1.070957e+002 2.653581e+001 1.073896e+002 9.181798e+001 1.316290e+000 5.349969e-001 1.405595e+000 1.967398e+000 1.361885e+000 7.611086e-001 3.899612e+000 1.178196e+000 7.149184e+000 1.155439e+000 1.011106e+000 2.693893e+000 7.854233e+000 4.728877e-002 1.263945e-001 1.863019e-001 2.841851e-001 4.863004e-001 2.114550e-001 1.252595e+000 3.550150e-001 9.132676e-001 2.871577e-001 2.214948e-001 4.619571e-001 7.239565e-001 1.212729e-002
<GCONST> 1.115603e+002
~t "T_h"
<ENDHMM>
~h "j^-th+@@"
<BEGINHMM>
<NUMSTATES> 5
<STATE> 2
<MEAN> 39
 -5.658281e+000 -2.567331e+001 1.127842e+000 -9.622497e+000 4.740515e+000 -7.071999e+000 -4.291905e+000 -6.201451e+000 -1.539158e+001 -1.413368e+001 -1.087414e+001 4.551959e+000 1.913740e+001 1.772631e-002 3.316515e-002 -1.392314e+000 1.510619e+000 -9.430261e-001 5.654332e-005 -9.714198e-002 -9.301106e-001 2.012102e+000 -4.528181e-001 9.175757e-001 -3.240663e-001 -2.492127e-001 -3.689284e-001 4.876527e-001 -7.413065e-001 8.144104e-002 -3.846008e-001 -2.157273e-001 1.117009e-001 -1.015253e+000 4.303336e-001 -5.451407e-001 2.305640e-001 3.391479e-002 3.459802e-002
<VARIANCE> 39
 1.468445e+001 4.317802e+001 1.151902e+001 5.875714e+001 5.778534e+001 1.703228e+002 2.491935e+002 2.404337e+001 9.692781e+001 2.573649e+001 5.880175e+001 5.129826e+001 1.350155e+000 6.039744e-001 7.696018e-001 2.413538e+000 1.455712e+000 9.106175e-001 1.706712e+000 8.104063e+000 6.215397e+000 1.069452e+001 1.376640e-001 6.435458e+000 4.988065e+000 1.226105e-002 2.255268e-001 3.187698e-001 2.466118e-001 2.526097e-001 1.223778e-001 4.404027e-001 1.257232e+000 2.320264e-001 5.300529e-001 1.948429e-001 1.605439e+000 3.399258e-001 8.314748e-003
<GCONST> 1.057515e+002
<STATE> 3
<MEAN> 39
 -6.822898e+000 -2.172346e+001 -1.386931e+000 -1.057628e+001 2.558519e+000 -1.370921e+001 7.961010e-001 -1.083250e+001 -7.473492e+000 -1.390606e+001 -6.193533e+000 6.755688e-001 1.908041e+001 -7.880210e-001 8.938329e-001 -1.622068e+000 2.012154e+000 -8.576110e-001 -6.346651e-001 -1.645275e+000 -2.014489e+000 1.224664e-001 -2.170096e+000 -1.055762e+000 -1.269433e+000 -1.715318e-001 -3.312681e-001 6.474354e-001 -6.009718e-001 -9.286166e-002 -1.770630e-001 -2.707271e-001 -3.796494e-002 -3.677053e-001 7.271261e-002 -2.606067e-001 -4.182493e-001 1.353470e-001 3.384066e-002
<VARIANCE> 39
 1.799261e+001 2.646862e+001 1.587469e+001 6.016184e+001 4.817908e+001 5.293881e+001 1.374895e+002 4.222112e+001 7.590729e+001 1.350030e+001 2.099815e+001 7.105703e+001 2.346087e+000 1.501756e+000 3.438262e+000 1.955457e+000 3.451817e-001 1.408743e+000 4.718250e+000 1.097490e+001 3.908335e+000 7.677817e+000 2.306842e+000 3.905747e+000 3.141960e+000 2.644696e-002 2.353417e-001 2.795066e-001 5.021095e-001 7.418188e-001 6.530189e-002 4.050471e-001 1.365644e+000 6.946239e-001 5.034981e-001 2.409267e-001 7.879245e-001 4.932234e-001 1.455014e-002
<GCONST> 1.102796e+002
<STATE> 4
<MEAN> 39
 -8.337888e+000 -1.979866e+001 -3.039005e+000 -6.958817e+000 -1.040619e+000 -1.291875e+001 -1.374925e+000 -1.527752e+001 -1.021459e+001 -2.124313e+001 -8.671547e+000 3.862967e-001 1.896097e+001 -1.134248e+000 1.856622e+000 -2.634337e+000 1.770882e+000 -9.351673e-001 -5.211826e-001 -1.148973e+000 -1.952885e+000 8.729964e-001 -1.260004e+000 -6.868739e-001 -4.380466e-001 -1.422162e-001 -1.155550e-001 3.661539e-001 -3.738999e-001 -3.669744e-001 2.142968e-001 -1.137389e-001 5.271848e-001 3.903319e-001 2.803925e-001 3.172306e-001 7.243001e-002 2.602716e-001 5.218098e-002
<VARIANCE> 39
 2.669149e+001 2.545806e+001 1.669143e+001 4.360312e+001 3.545865e+001 3.341842e+001 8.380441e+001 2.889893e+001 1.222932e+002 8.352541e+000 1.634344e+001 7.036192e+001 1.852702e+000 2.827955e+000 4.838677e+000 8.404583e-001 2.728105e+000 8.118703e-001 4.427392e+000 8.933281e+000 2.007889e+000 2.526270e+000 2.139099e+000 3.593237e+000 4.669977e-001 7.471095e-002 1.135567e-001 1.574828e-001 5.224845e-001 6.030825e-001 2.147951e-001 4.235211e-001 1.218289e+000 9.137729e-001 8.660960e-001 1.481179e-001 1.093495e+000 5.775563e-001 6.797059e-003
<GCONST> 1.065013e+002
<TRANSP> 5
 0.000000e+000 1.000000e+000 0.000000e+000 0.000000e+000 0.000000e+000
 0.000000e+000 3.821971e-001 6.178030e-001 0.000000e+000 0.000000e+000
 0.000000e+000 0.000000e+000 4.615822e-018 1.000000e+000 0.000000e+000
 0.000000e+000 0.000000e+000 0.000000e+000 8.335857e-017 1.000000e+000
 0.000000e+000 0.000000e+000 0.000000e+000 0.000000e+000 0.000000e+000
<ENDHMM>
~h "uua-n^+j"
<BEGINHMM>
<NUMSTATES> 5
<STATE> 2
<MEAN> 39
 -1.156678e+001 -8.000973e-001 -9.349393e+000 -6.608412e+000 -9.935540e+000 -1.124302e+001 5.617535e+000 4.079671e-001 -6.041745e+000 -1.612778e+001 -5.936293e+000 4.296330e+000 1.334041e+001 -6.409038e-001 9.902114e-001 1.143184e+000 -1.360689e+000 -3.359981e-001 -5.119215e-001 3.126526e-001 -8.223640e-001 1.839472e+000 1.274460e+000 -5.007091e-002 -6.699996e-001 1.212569e-001 1.248609e-001 -1.021132e-001 1.370757e-001 -1.171785e-001 -7.810058e-002 -5.977429e-002 -1.590761e-001 6.165629e-002 4.126626e-002 1.733759e-001 -7.650638e-002 -3.235692e-002 4.063103e-002
<VARIANCE> 39
 1.616937e+002 9.442390e+001 2.185387e+002 6.977956e+001 9.273273e+001 3.294397e+001 9.116764e+001 4.519384e+002 8.642957e+001 1.578331e+002 2.550042e+001 5.869712e+001 1.393204e+001 7.466545e+000 1.378847e+000 7.994081e+000 4.275707e+000 7.215379e+000 6.052223e+000 1.491249e+001 1.814810e+001 5.700184e+000 7.007275e+000 3.265256e+000 4.259133e+000 8.009607e-001 9.234706e-001 4.465492e-001 1.015317e+000 4.961118e-001 1.193347e+000 1.309080e+000 2.150378e+000 2.378520e+000 1.215215e+000 1.521648e+000 4.852153e-001 8.460414e-001 1.146672e-001
<GCONST> 1.484639e+002
<STATE> 3
<MEAN> 39
 -1.143170e+001 4.012911e-001 2.004424e+001 -2.918798e+001 -1.599517e+001 -1.993657e+001 -2.000630e+000 -2.041492e+001 2.711761e+000 2.132452e+000 -9.741024e+000 -3.675814e+000 1.944678e+001 2.556287e-001 -1.648135e+000 -9.476959e-002 -1.392490e-001 -8.204740e-001 -9.022903e-001 1.707398e+000 1.926905e+000 -6.538548e-001 1.010840e-001 3.905710e-001 5.342616e-001 3.093814e-001 -1.691582e-001 -2.393571e-001 -4.407960e-001 3.540982e-001 4.557601e-001 2.248578e-001 3.406783e-001 1.733018e-001 -3.096516e-001 -1.438455e-001 6.531112e-002 -4.730533e-002 -1.319203e-003
<VARIANCE> 39
 1.859967e+001 1.182739e+002 1.535837e+002 6.623760e+001 9.890542e+001 1.613338e+001 5.955843e+001 2.376174e+001 7.927607e+001 1.775146e+002 3.158311e+001 1.862989e+001 1.379177e+000 8.935290e-001 3.050710e+000 6.203518e+000 2.825957e+000 3.503522e+000 3.012681e+000 5.206929e+000 2.524256e+000 1.061340e+001 6.897081e+000 2.802249e+000 1.650134e+000 5.336129e-002 3.846504e-001 4.473808e-001 2.902214e-001 2.631422e-001 9.476305e-001 2.796355e-001 1.033837e+000 6.718357e-001 3.985426e-001 6.429430e-001 1.038332e+000 3.539480e-001 1.102874e-002
<GCONST> 1.182806e+002
<STATE> 4
<MEAN> 39
 -4.276286e+000 -1.264485e+001 -6.438718e-001 -2.034203e+001 -6.575797e+000 -2.641750e+001 5.967310e+000 -1.489937e+001 1.142959e+001 -1.289573e+001 -8.019073e+000 4.073090e+000 1.910839e+001 -1.631153e-001 -1.668988e-001 -1.401236e-001 -9.107446e-001 6.365448e-001 -5.446588e-001 4.958525e-001 9.856141e-001 4.615303e-001 2.122898e-001 6.496485e-003 1.013008e+000 1.852507e-001 -9.028231e-002 -6.967751e-002 -2.572727e-002 1.519445e-001 3.496084e-001 4.383061e-001 -3.257588e-001 -3.879111e-001 -5.607088e-001 -6.051834e-002 3.410102e-002 -1.343924e-001 -2.093513e-002
<VARIANCE> 39
 5.917017e+000 1.881693e+001 4.445182e+001 8.692416e+000 5.193928e+001 3.480386e+001 6.359628e+001 5.367389e+001 1.820126e+002 8.660389e+001 2.093993e+001 4.566123e+001 3.425019e-001 8.987134e-001 1.308222e+000 2.294267e+000 1.969013e+000 2.303563e+000 2.582770e+000 3.605835e+000 4.374671e+000 4.722539e+000 6.273397e+000 5.473795e+000 2.106462e+000 4.588836e-002 8.679058e-002 8.829907e-002 2.313705e-001 2.483197e-001 2.486024e-001 4.361449e-001 8.541512e-001 1.003105e+000 1.467058e+000 9.886502e-001 5.493183e-001 4.329299e-001 5.476376e-003
<GCONST> 1.060264e+002
~t "T_n^"
<ENDHMM>
~h "uu-m+a"
<BEGINHMM>
<NUMSTATES> 5
<STATE> 2
<MEAN> 39
 1.106436e+000 -1.409277e+001 -9.512336e+000 -2.144386e+001 9.625671e+000 -2.214683e+001 -6.941354e+000 -7.859662e+000 -1.302186e+001 -7.500553e+000 -8.645185e+000 -9.310078e+000 1.799823e+001 5.843890e-001 4.146244e-001 -6.272810e-001 1.079686e+000 -3.921769e-001 9.409338e-001 -5.629926e-001 -6.017739e-001 -3.853043e-001 9.975531e-001 -8.971443e-001 -3.234841e-001 -1.951010e-001 -4.499135e-002 -1.520500e-002 -1.710879e-001 1.423647e-001 7.407597e-002 1.010603e-001 3.980359e-002 1.234011e-001 1.654341e-001 3.706473e-002 1.828338e-002 1.872768e-001 3.889697e-003
<VARIANCE> 39
 3.011329e+001 1.576899e+001 2.834607e+001 2.475186e+001 1.627661e+001 4.500195e+001 2.335811e+001 2.618849e+001 4.899275e+001 3.924581e+001 5.234470e+001 2.148920e+001 5.417483e-001 6.844820e-001 8.011263e-001 1.396276e+000 1.213827e+000 1.750944e+000 2.316431e+000 1.917802e+000 2.131483e+000 1.898263e+000 2.330952e+000 4.039456e+000 3.089036e+000 1.418353e-002 1.103435e-001 8.904423e-002 2.148968e-001 2.138664e-001 3.890064e-001 7.317005e-001 3.941144e-001 4.292024e-001 3.912586e-001 6.063215e-001 9.947660e-001 6.704730e-001 4.307799e-003
<GCONST> 9.584338e+001
<STATE> 3
<MEAN> 39
 -2.652200e+000 -1.454655e+001 -1.232661e+001 -2.157133e+001 1.087685e+001 -1.319080e+001 -5.684284e+000 -8.674746e+000 -6.197040e+000 -4.577462e-001 -6.935992e+000 -7.672641e+000 1.870103e+001 -5.544764e-001 -5.125259e-001 2.721335e-001 -1.908061e+000 8.295848e-001 1.243407e+000 9.784369e-001 1.115411e-001 7.932082e-001 4.708185e-001 6.918393e-001 -6.721224e-002 4.786423e-001 -7.238970e-003 1.064775e-002 3.985156e-001 -1.870953e-001 -2.316096e-001 2.543830e-001 3.242833e-002 1.231580e-002 -1.594259e-001 -2.203033e-001 3.090279e-002 -1.393323e-001 5.155931e-002
<VARIANCE> 39
 7.026738e+001 3.220917e+001 7.602402e+001 1.336577e+002 3.693574e+001 1.631754e+002 5.121141e+001 4.859087e+001 4.272372e+001 5.304047e+001 6.341811e+001 1.180649e+001 3.204090e+000 2.249562e+000 1.959151e+000 4.800631e+000 1.156566e+001 3.337977e+000 1.211525e+001 4.575066e+000 5.119550e+000 7.623483e+000 8.140557e+000 3.241757e+000 2.412032e+000 1.705807e-001 3.497320e-001 4.266301e-001 5.087410e-001 2.657143e+000 5.431064e-001 2.301026e+000 1.162689e+000 1.234803e+000 1.588075e+000 1.550000e+000 5.191221e-001 3.562618e-001 3.979008e-002
<GCONST> 1.324023e+002
<STATE> 4
<MEAN> 39
 -4.546266e+000 -1.745224e+001 -9.249676e+000 -3.292248e+001 1.059858e+001 6.774591e-001 -4.071261e+000 -5.502711e+000 -5.122447e+000 -2.528454e+000 -2.007415e+000 -3.882843e+000 2.058450e+001 2.065574e-001 -1.605484e-001 -3.455615e-002 2.669373e-001 -1.135048e-001 -3.811309e-002 -2.116717e-001 1.046141e-001 -2.308166e-001 -2.043329e-001 -9.062591e-002 2.822944e-001 -6.296243e-002 4.186186e-002 -2.237096e-002 -6.415702e-002 6.498569e-002 -2.625525e-002 -1.014823e-001 5.520445e-002 4.015402e-002 7.816289e-002 2.867377e-002 -7.297913e-002 -1.536711e-002 -1.624960e-002
<VARIANCE> 39
 1.203122e+001 1.938563e+001 1.425844e+001 8.484714e+001 6.637323e+001 1.353114e+002 2.301515e+001 2.832684e+001 9.540359e+001 3.224225e+001 4.288228e+001 1.610118e+001 1.433455e+000 3.592034e-001 8.337688e-001 6.215027e-001 1.474776e+000 1.298860e+000 2.822867e+000 1.770158e+000 2.216365e+000 2.417772e+000 1.316289e+000 2.422550e+000 1.552398e+000 2.017565e-002 4.208695e-002 1.003977e-001 1.397240e-001 1.802661e-001 1.878781e-001 3.036384e-001 3.623281e-001 4.198871e-001 4.158500e-001 2.653682e-001 3.824028e-001 2.903717e-001 4.091956e-003
<GCONST> 9.089595e+001
<TRANSP> 5
 0.000000e+000 1.000000e+000 0.000000e+000 0.000000e+000 0.000000e+000
 0.000000e+000 8.136362e-001 1.863638e-001 0.000000e+000 0.000000e+000
 0.000000e+000 0.000000e+000 7.922760e-001 2.077239e-001 0.000000e+000
 0.000000e+000 0.000000e+000 0.000000e+000 9.386259e-001 6.137410e-002
 0.000000e+000 0.000000e+000 0.000000e+000 0.000000e+000 0.000000e+000
<ENDHMM>
~h "uu-n+a"
<BEGINHMM>
<NUMSTATES> 5
<STATE> 2
<MEAN> 39
 -1.101161e+001 5.166210e+000 1.606592e-001 3.705260e+000 -6.970477e+000 -6.074843e+000 -6.566677e+000 -6.035765e+000 3.332796e+000 -2.529220e+000 -5.664631e+000 1.711461e+000 1.034205e+001 -8.157990e-001 -2.575222e+000 -1.695622e+000 1.308455e+000 2.971769e+000 -1.646019e+000 2.260731e+000 7.385075e-001 2.033138e-001 -1.035343e+000 1.961307e-001 2.056055e+000 5.297809e-001 3.577701e-001 -1.879033e-001 -2.528660e-001 -2.934634e-001 3.035212e-001 -3.761034e-001 3.737704e-001 -2.176601e-001 -1.658415e-002 -9.914763e-002 2.275074e-001 -1.331461e-002 2.487525e-001
<VARIANCE> 39
 3.140896e+001 9.689426e+001 3.579766e+001 2.768185e+002 1.290312e+002 1.021405e+002 7.031693e+001 6.061123e+001 3.943850e+001 6.694838e+001 1.136507e+002 4.312734e+001 1.261640e+001 8.356741e-001 4.013187e+000 1.722907e+000 3.925752e+000 5.137733e+000 1.183838e+001 1.437088e+001 3.061399e+000 1.459972e+000 4.794189e+000 1.086985e+000 4.333519e+000 8.831898e-001 1.683951e-001 2.199163e-001 2.172149e-001 1.704321e+000 3.335889e-001 2.256186e+000 2.275838e+000 1.025522e+000 2.927092e-001 5.015538e-001 3.981302e-002 1.151774e+000 4.439528e-002
<GCONST> 1.281973e+002
<STATE> 3
<MEAN> 39
 -9.461946e+000 -1.230970e+001 -7.450193e+000 -1.144840e+001 9.351239e+000 -1.458828e+001 6.423354e+000 -8.916396e+000 6.858245e+000 -2.458182e+000 -4.451781e+000 3.078355e-001 1.718184e+001 7.390205e-001 -8.560874e-001 2.648076e-001 -3.316015e+000 7.874643e-001 1.313207e+000 -1.257696e+000 -8.568841e-001 3.305750e-001 9.515091e-001 -2.778402e-001 -2.377648e+000 4.626952e-001 1.028749e-001 3.730207e-001 3.794321e-001 4.342335e-001 -3.259438e-001 4.619177e-001 -6.997383e-001 1.927758e-001 -2.395006e-001 -2.240004e-001 -2.578687e-001 -4.595847e-002 -2.140658e-001
<VARIANCE> 39
 2.712031e+001 2.300330e+002 1.102743e+002 3.255175e+002 2.917999e+002 1.955502e+002 9.536068e+001 4.753157e+001 4.800897e+001 8.343133e+001 1.091250e+002 1.264057e+002 1.919235e+001 9.937702e-001 6.670604e+000 9.601099e+000 1.988907e+001 3.973724e+000 3.670038e+000 9.579498e+000 4.922084e+000 1.051036e+000 3.250150e+000 1.367654e+000 8.148729e+000 6.529697e-001 3.507785e-001 8.397186e-001 2.220061e+000 2.924587e+000 1.240888e+000 1.821453e+000 3.015996e+000 8.997829e-001 3.700225e-001 1.142411e+000 4.243037e-001 2.987233e+000 5.292869e-002
<GCONST> 1.468463e+002
<STATE> 4
<MEAN> 39
 -5.188080e+000 5.774795e+000 7.768149e-001 -4.022233e+000 -1.442786e+000 2.598773e+000 -7.047091e-001 -6.023327e+000 7.666003e+000 5.146216e+000 -4.429424e+000 -1.778259e+000 1.246014e+001 3.832953e-001 -1.196807e+000 -8.031031e-001 1.021801e-001 1.953758e-001 2.469768e-001 -1.885081e-001 4.453426e-001 -1.120012e+000 -1.627958e+000 -1.284875e+000 2.736674e-001 -1.786718e-001 -4.085599e-001 -5.557464e-001 -4.047965e-002 -5.133203e-001 -1.818343e-001 1.816640e-002 1.775791e-001 -3.762162e-001 -3.851321e-001 -3.532430e-001 -5.928599e-001 5.104154e-001 3.313418e-002
<VARIANCE> 39
 1.841303e+001 1.786325e+002 2.498435e+001 3.461821e+002 1.966812e+002 1.147254e+002 5.591984e+001 1.378976e+002 7.076299e+001 9.425953e+001 2.185460e+002 2.347042e+001 1.993001e+001 1.462882e+000 4.600170e+000 1.341410e+000 5.589235e+000 5.780685e+000 5.725829e+000 6.114999e+000 3.462850e+000 6.339384e-001 6.015923e+000 1.215084e+001 1.920185e+000 1.236860e-001 6.569396e-001 3.497621e-001 2.759030e-001 6.532760e-001 6.510787e-001 4.271873e-001 6.195554e-001 5.983560e-001 1.012220e+000 1.790622e+000 2.108510e+000 4.648637e-001 1.597923e-002
<GCONST> 1.320097e+002
~t "T_n"
<ENDHMM>
~h "n^-j+aa"
<BEGINHMM>
<NUMSTATES> 5
<STATE> 2
<MEAN> 39
 -6.508188e+000 -2.099251e+001 -8.340270e+000 -2.366059e+001 6.556428e+000 -1.054393e+001 3.804798e+000 4.099725e+000 4.156783e-001 1.379400e+000 -1.252328e+001 3.926799e+000 1.911552e+001 -6.012049e-002 -7.765526e-002 1.029926e-001 -6.470903e-002 1.051626e-001 2.020694e-001 -1.178450e-001 5.199921e-002 1.434329e-001 1.914406e-001 1.302055e-002 -1.437053e-001 7.778042e-003 8.603867e-003 8.989760e-002 9.055020e-002 -1.266664e-002 -1.832240e-001 -3.902622e-002 -1.203696e-002 -1.064954e-001 -3.143630e-002 -1.131985e-002 4.438195e-002 -4.020338e-002 -4.858319e-003
<VARIANCE> 39
 2.079597e+001 2.161660e+001 1.141949e+002 2.547221e+001 4.383386e+001 4.858483e+001 4.743993e+001 4.931380e+001 5.669822e+001 9.014454e+001 1.605978e+002 4.323785e+001 1.912238e+000 1.593772e+000 2.191602e+000 3.979418e+000 2.577552e+000 4.377345e+000 3.325074e+000 2.518805e+000 3.330347e+000 4.443009e+000 4.302286e+000 1.285714e+001 4.433417e+000 7.400499e-002 2.265952e-001 3.116795e-001 5.020886e-001 5.196148e-001 3.835284e-001 5.227496e-001 3.939459e-001 5.149802e-001 5.940893e-001 9.121154e-001 2.273802e+000 7.159540e-001 1.006534e-002
<GCONST> 1.200686e+002
<STATE> 3
<MEAN> 39
 -7.642126e+000 -1.905796e+001 2.991661e+000 -2.189364e+001 1.997795e+000 -2.597082e+001 7.764070e+000 -6.423822e+000 -1.568214e+000 -1.768522e+001 -6.926206e+000 5.846384e+000 2.034702e+001 1.391310e-001 2.308481e-003 -1.779646e-001 2.750694e-001 -8.481739e-002 4.689249e-001 3.663394e-001 1.664781e-001 -3.306360e-001 -1.167824e-002 -1.862209e-001 -1.114722e-001 -6.608415e-002 3.707824e-002 9.158866e-003 -5.956433e-002 6.560088e-002 -9.947537e-003 3.751656e-002 1.294473e-002 6.204811e-002 3.736678e-002 3.915408e-002 2.026968e-002 1.128282e-002 -1.775901e-002
<VARIANCE> 39
 1.015016e+001 1.413576e+001 1.927778e+001 1.482113e+001 2.851089e+001 4.883374e+001 4.969500e+001 4.033027e+001 3.470889e+001 4.140924e+001 4.483045e+001 3.539447e+001 1.912363e+000 4.812020e-001 9.364355e-001 1.240039e+000 1.033838e+000 1.328124e+000 2.169468e+000 2.301779e+000 2.875027e+000 4.269934e+000 3.600356e+000 2.072077e+000 2.201952e+000 5.830013e-002 7.494596e-002 1.132171e-001 2.488101e-001 2.028249e-001 2.597124e-001 4.563142e-001 4.033896e-001 5.770536e-001 9.619357e-001 7.166388e-001 4.554801e-001 3.515821e-001 3.636449e-003
<GCONST> 9.706926e+001
<STATE> 4
<MEAN> 39
 -1.144862e+001 -4.165760e+000 2.152547e+001 -3.205659e+001 -2.820203e+001 -1.346623e+001 -1.260092e+000 -9.726789e+000 5.505909e+000 1.563884e+001 -1.018385e+001 1.921523e+000 1.790326e+001 3.020183e-002 4.181423e-001 -3.227840e-001 4.838945e-001 -5.588858e-001 1.544106e-001 -6.869907e-001 -2.793731e-001 3.180819e-001 4.901491e-001 2.772352e-001 1.185110e-001 -2.485381e-001 -1.641932e-002 -3.565776e-003 -4.283064e-002 3.565302e-002 1.438601e-002 -2.495131e-002 -5.496530e-003 7.986042e-003 -1.217489e-002 1.687492e-003 2.852500e-002 4.941999e-003 -6.051506e-003
<VARIANCE> 39
 1.237152e+001 6.644743e+001 9.869002e+001 1.085761e+002 1.295391e+002 1.218181e+001 1.345271e+002 6.066928e+001 5.187566e+001 1.261767e+002 2.074715e+001 1.603093e+001 1.026372e+001 6.361741e-001 7.389055e-001 2.059764e+000 2.290398e+000 2.068087e+000 7.761043e-001 2.215473e+000 3.047814e+000 3.061632e+000 2.837549e+000 2.389098e+000 1.438794e+000 6.420616e-002 1.093754e-001 8.755685e-002 2.103250e-001 1.847398e-001 3.609763e-001 1.784712e-001 4.289941e-001 5.899088e-001 5.931368e-001 5.407695e-001 3.840990e-001 2.708441e-001 2.323162e-003
<GCONST> 1.033144e+002
<TRANSP> 5
 0.000000e+000 1.000000e+000 0.000000e+000 0.000000e+000 0.000000e+000
 0.000000e+000 9.191543e-001 8.084567e-002 0.000000e+000 0.000000e+000
 0.000000e+000 0.000000e+000 9.462675e-001 5.373254e-002 0.000000e+000
 0.000000e+000 0.000000e+000 0.000000e+000 8.993365e-001 1.006635e-001
 0.000000e+000 0.000000e+000 0.000000e+000 0.000000e+000 0.000000e+000
<ENDHMM>
~h "a-j^+ph"
<BEGINHMM>
<NUMSTATES> 5
<STATE> 2
<MEAN> 39
 -7.896350e+000 -1.670899e+001 1.823503e+000 -1.930218e+001 7.943848e-001 -1.088815e+001 4.297166e+000 -7.818106e+000 5.647985e-001 -1.636600e+001 -5.063952e+000 -3.832164e+000 2.058871e+001 -1.255801e+000 2.292680e-001 -4.612978e-002 -1.569603e+000 -3.760627e-001 -1.398661e+000 1.193800e+000 -1.912511e+000 2.178802e+000 3.345365e-002 7.582440e-001 -2.003740e-001 2.424695e-001 2.064333e-001 3.401254e-001 -7.289855e-002 1.521038e-001 1.167859e-001 -4.446423e-001 -7.557991e-001 -2.057068e-001 4.556968e-001 4.429088e-001 -5.558731e-001 4.230605e-001 -1.985782e-001
<VARIANCE> 39
 1.454408e+001 7.683940e+001 1.089238e+002 1.176423e+002 2.809784e+002 2.827583e+002 5.963789e+001 1.029604e+002 3.840446e+001 7.723470e+001 6.266146e+001 2.748842e+001 2.525491e+000 1.052477e+000 9.090273e-001 1.071559e+000 1.111235e+000 2.185713e+000 2.726540e+000 2.309892e+000 8.196289e+000 3.165745e+000 2.180246e+000 3.314940e+000 1.209446e+000 2.599317e-002 2.751254e-001 3.903739e-002 1.963912e-001 1.890337e-001 2.194198e-001 2.669602e-001 1.408108e+000 4.141398e-001 5.658832e-001 3.430817e-001 5.700209e-001 7.802612e-001 9.891028e-003
<GCONST> 1.107901e+002
<STATE> 3
<MEAN> 39
 -7.075032e+000 -8.974764e+000 4.088182e+000 -2.536147e+001 -7.863781e+000 -1.579647e+001 2.280282e+000 -1.636270e+001 8.696129e+000 -1.136289e+001 -8.499162e+000 -4.657775e+000 1.929325e+001 -2.463670e-001 2.669396e-001 1.695640e-001 -1.022055e+000 -1.417236e-002 5.295501e-001 -3.834480e-001 -5.766010e-001 1.047929e+000 1.370650e+000 7.808163e-001 3.115455e-001 -4.618107e-002 5.231258e-002 -8.418410e-002 -8.656197e-002 2.259759e-001 1.063090e-001 9.079798e-002 -8.537190e-002 7.023267e-003 -4.257095e-001 2.440247e-001 2.426692e-001 2.439670e-001 -5.186917e-002
<VARIANCE> 39
 4.818487e+000 5.024332e+001 4.405996e+001 4.956036e+001 1.491684e+002 1.514661e+002 3.437604e+001 2.370504e+001 2.184077e+001 3.366586e+001 3.564761e+001 1.958750e+001 1.639705e+000 2.776016e-001 6.158950e-001 1.102328e+000 1.175148e+000 9.623718e-001 2.252402e+000 1.646225e+000 2.092635e+000 2.170106e+000 1.408488e+000 3.019283e+000 2.275264e+000 6.383045e-003 8.648927e-002 2.011880e-002 1.610533e-001 2.688101e-001 1.889740e-001 4.389653e-001 2.743933e-001 5.316885e-001 4.897404e-001 9.568194e-002 3.361918e-001 2.397351e-001 9.279706e-003
<GCONST> 8.955374e+001
<STATE> 4
<MEAN> 39
 -8.236142e+000 -2.117125e+001 -1.576560e+000 -1.615313e+001 1.386128e+001 -1.528197e+001 -1.968002e+000 -6.143300e-001 7.749361e-001 -1.322308e+001 -3.386866e+000 1.220714e+000 1.958167e+001 4.321310e-001 2.402057e-001 -1.712140e-002 4.524308e-001 -2.098633e-001 -3.982912e-002 -9.057733e-002 3.763901e-002 -4.398023e-001 3.565117e-001 2.421782e-002 -1.954125e-002 -2.041983e-001 8.509355e-002 4.424696e-002 -3.656642e-002 1.704148e-001 -7.853647e-002 4.410778e-002 4.009540e-002 -2.033857e-002 -6.328483e-002 -2.208630e-002 -4.673312e-002 6.532545e-003 -1.769383e-002
<VARIANCE> 39
 8.856050e+000 3.476570e+001 7.880309e+001 3.023537e+001 6.100441e+001 2.722821e+002 4.540582e+001 7.934525e+001 3.136440e+001 7.777264e+001 3.013784e+001 4.145044e+001 1.897873e+000 4.414879e-001 7.398494e-001 8.514194e-001 1.294911e+000 1.660804e+000 2.126110e+000 1.739685e+000 4.492120e+000 2.858508e+000 2.394758e+000 2.817153e+000 2.525295e+000 7.931422e-002 4.255497e-002 1.281886e-001 1.235784e-001 2.497431e-001 2.794894e-001 3.825590e-001 3.207563e-001 7.552484e-001 6.418142e-001 4.783118e-001 3.150290e-001 3.892528e-001 1.041629e-002
<GCONST> 1.021214e+002
<TRANSP> 5
 0.000000e+000 1.000000e+000 0.000000e+000 0.000000e+000 0.000000e+000
 0.000000e+000 2.857277e-001 7.142723e-001 0.000000e+000 0.000000e+000
 0.000000e+000 0.000000e+000 6.875583e-001 3.124417e-001 0.000000e+000
 0.000000e+000 0.000000e+000 0.000000e+000 9.121846e-001 8.781542e-002
 0.000000e+000 0.000000e+000 0.000000e+000 0.000000e+000 0.000000e+000
<ENDHMM>
~h "a-j^+th"
<BEGINHMM>
<NUMSTATES> 5
<STATE> 2
<MEAN> 39
 -1.222725e+001 -2.242441e+001 4.208358e+000 -1.901727e+001 -1.233181e+000 -1.299187e+001 9.475377e+000 -1.259719e+001 -3.746801e+000 -9.675244e+000 -1.754942e+000 -2.286535e+000 2.161454e+001 -9.153668e-001 8.055750e-001 9.410430e-001 -1.940153e+000 3.367153e-002 4.244837e-001 1.498735e+000 1.339469e+000 4.020604e-001 1.061497e+000 -4.550485e-001 -8.709449e-001 3.725540e-001 -2.853550e-001 5.074240e-001 3.174837e-001 5.619900e-001 -2.183258e-001 2.894127e-001 1.786279e-002 3.594377e-001 -8.577079e-002 -5.671032e-001 4.561265e-001 -1.536167e-001 -2.164573e-001
<VARIANCE> 39
 1.598142e+001 1.160135e+001 4.052337e+001 1.399936e+001 6.652665e+001 1.309857e+002 4.843392e+001 8.297942e+001 1.463165e+002 1.452422e+001 3.625082e+001 3.615017e+001 7.527821e-001 1.197134e+000 9.044873e-001 7.429397e-001 7.103834e-001 9.519392e-001 2.042284e+000 1.858500e+000 7.785192e+000 5.115231e-001 4.852224e+000 1.710536e+000 3.315120e+000 2.807551e-002 2.517191e-001 2.790284e-001 5.526787e-001 2.687094e-001 6.217292e-001 1.070109e-001 4.130286e-001 1.171328e+000 3.069541e-001 4.612585e-001 4.031151e-001 6.920171e-001 8.106257e-003
<GCONST> 1.009708e+002
<STATE> 3
<MEAN> 39
 -1.436704e+001 -2.046041e+001 6.466335e+000 -2.570786e+001 -4.456084e+000 -1.106143e+001 1.341374e+001 -1.370453e+001 -4.484441e+000 -8.508647e+000 -3.011199e+000 -4.849389e+000 2.212281e+001 1.628774e-001 -2.041619e-001 -1.229723e-001 -2.229698e-001 2.498594e-001 4.343269e-001 1.542603e-001 -1.489217e-001 -7.341781e-001 -1.651475e-001 1.027470e-001 3.064547e-001 1.647598e-002 1.226375e-001 -1.413006e-001 -1.703684e-001 4.552236e-001 2.072100e-001 -1.696064e-001 -3.078144e-001 -2.246696e-002 -1.062635e-001 -1.428701e-001 8.356550e-002 3.772632e-002 -4.142368e-002
<VARIANCE> 39
 6.223807e+000 1.343999e+001 2.989195e+001 3.639952e+001 4.598549e+001 6.995137e+001 1.547043e+002 5.228209e+001 1.278447e+002 3.410271e+001 4.425006e+001 5.236536e+001 5.444337e-001 4.423555e-001 9.430200e-001 1.465155e+000 2.126343e+000 1.622079e+000 1.800438e+000 1.307364e+000 2.804832e+000 3.271799e+000 2.565694e+000 1.974838e+000 1.451579e+000 4.015577e-002 1.013419e-001 2.154260e-001 2.268687e-001 1.632052e-001 2.460991e-001 3.380840e-001 1.767260e-001 8.322574e-001 7.636127e-001 5.751545e-001 5.573667e-001 4.382035e-001 4.809158e-003
<GCONST> 9.919600e+001
<STATE> 4
<MEAN> 39
 -8.237137e+000 -2.409235e+001 8.519164e-001 -1.389118e+001 7.682292e+000 -1.307007e+001 -1.729094e+000 -6.833298e+000 -1.079330e+001 -1.725362e+001 -6.744380e+000 -2.616326e+000 2.066102e+001 2.020274e-001 3.790195e-002 -6.893311e-002 4.502909e-001 4.484308e-002 -6.498005e-002 -3.792176e-001 2.094953e-001 -2.395338e-001 -1.895592e-001 -2.804974e-001 2.808307e-001 -9.864198e-002 -1.676494e-002 1.806446e-002 3.103567e-002 3.607329e-003 -5.817913e-002 2.418915e-002 1.352453e-002 6.972298e-003 2.507432e-002 3.025535e-002 -3.529082e-002 -3.339228e-002 -7.781245e-003
<VARIANCE> 39
 2.238270e+001 2.988680e+001 2.733703e+001 3.840733e+001 5.819180e+001 1.445025e+002 8.060362e+001 3.329583e+001 5.987371e+001 3.522514e+001 6.252976e+001 4.354405e+001 1.225544e+000 4.450471e-001 9.487832e-001 9.803618e-001 1.349530e+000 1.797654e+000 2.191670e+000 2.348467e+000 2.091320e+000 2.177280e+000 2.527579e+000 2.647339e+000 2.886909e+000 8.356726e-002 9.725688e-002 1.524003e-001 1.963716e-001 2.164371e-001 2.532522e-001 3.299977e-001 4.331703e-001 3.724399e-001 4.135355e-001 4.424619e-001 4.791535e-001 5.215206e-001 1.165165e-002
<GCONST> 1.022620e+002
<TRANSP> 5
 0.000000e+000 1.000000e+000 0.000000e+000 0.000000e+000 0.000000e+000
 0.000000e+000 5.029776e-001 4.970224e-001 0.000000e+000 0.000000e+000
 0.000000e+000 0.000000e+000 8.589060e-001 1.410940e-001 0.000000e+000
 0.000000e+000 0.000000e+000 0.000000e+000 9.530113e-001 4.698872e-002
 0.000000e+000 0.000000e+000 0.000000e+000 0.000000e+000 0.000000e+000
<ENDHMM>
~h "uu-s+a"
<BEGINHMM>
<NUMSTATES> 5
<STATE> 2
<MEAN> 39
 -7.585914e+000 -2.631831e+001 -6.334223e+000 -1.785343e+001 9.540538e+000 7.375119e+000 -5.225762e+000 -9.990625e-001 1.427590e+000 -8.294987e+000 -6.469974e+000 1.684418e+000 2.117794e+001 -5.909130e-002 -4.395607e-001 -2.886752e-002 3.030914e-001 -1.853178e-001 -2.352287e-001 7.181621e-002 2.530125e-002 5.844578e-001 3.185767e-001 2.608255e-001 -2.949599e-001 -5.463690e-002 1.584964e-002 1.904499e-002 4.095129e-002 5.189620e-002 -5.407463e-002 -2.248521e-001 1.261444e-001 7.467408e-002 2.122202e-002 9.175549e-002 -2.018599e-001 -3.418874e-002 -2.345646e-002
<VARIANCE> 39
 1.603984e+001 5.767342e+001 1.296965e+001 6.670742e+001 1.793164e+001 4.432957e+001 1.433377e+001 2.272223e+001 6.595512e+001 2.052748e+001 2.849755e+001 3.139327e+001 7.398888e-001 5.304627e-001 9.521456e-001 1.013439e+000 1.583464e+000 7.360384e-001 1.935052e+000 8.773094e-001 2.889878e+000 1.653342e+000 1.265682e+000 1.511769e+000 1.686357e+000 1.116924e-002 9.431456e-002 1.470152e-001 1.324714e-001 1.914963e-001 1.332348e-001 3.720831e-001 2.370286e-001 2.592165e-001 5.278944e-001 2.503662e-001 4.387623e-001 3.668562e-001 7.792843e-003
<GCONST> 8.724227e+001
<STATE> 3
<MEAN> 39
 -1.676981e+000 -1.558193e+001 -7.364565e+000 -2.946069e+001 9.756923e+000 -6.226673e+000 -4.615161e+000 -8.739208e+000 2.069457e+001 -5.372374e+000 -6.684206e+000 -2.213434e+000 2.018565e+001 -3.262851e-001 -1.631392e+000 2.057867e+000 3.196525e+000 -1.736449e+000 -3.882136e+000 1.594854e+000 5.870059e-001 -1.430950e-001 1.069150e+000 -2.406442e+000 2.508681e-001 -1.386034e-001 1.238864e-001 4.137787e-001 4.288462e-001 1.175610e-001 -4.852240e-001 6.519090e-002 5.384323e-002 3.066205e-001 -1.389896e+000 -3.884266e-001 8.757849e-003 4.925833e-001 -2.437876e-002
<VARIANCE> 39
 1.152620e+001 7.176479e+001 2.606215e+001 1.065830e+002 7.491733e+001 9.365170e+001 3.824844e+001 1.264706e+002 6.710506e+001 3.976521e+001 1.127539e+002 9.151926e+001 1.060354e+000 5.882816e-001 2.299292e+000 1.973564e+000 7.406730e+000 4.550442e+000 7.524656e+000 2.385650e+000 4.773391e+000 2.716095e+000 1.546463e+000 5.169500e+000 2.420930e+000 4.581888e-002 1.654166e-001 5.338233e-001 4.330786e-001 4.884576e-001 1.027424e+000 1.050468e+000 6.094665e-001 1.790360e+000 7.759287e-001 1.489598e-001 1.148025e+000 6.652046e-001 2.281082e-002
<GCONST> 1.206589e+002
<STATE> 4
<MEAN> 39
 6.396178e-001 -1.489028e+001 -2.334111e+000 -2.166525e+001 2.298867e-001 -9.132062e+000 -1.109826e+001 -1.041831e+001 1.091810e+001 -4.858667e+000 -1.537024e+001 3.638139e+000 1.835740e+001 4.787497e-001 -1.760449e-001 3.631800e-001 1.639545e+000 -1.410469e+000 5.553965e-002 -4.301777e-001 1.025120e-001 -2.948689e+000 -3.533340e-001 6.469862e-001 1.715668e+000 -2.671254e-001 -1.630970e-001 -4.278183e-002 -6.081297e-001 -3.694603e-001 4.053704e-001 6.000869e-001 2.025055e-001 1.309649e-001 1.901567e-001 8.597104e-003 7.957448e-001 5.221411e-002 5.590779e-002
<VARIANCE> 39
 1.685365e+001 4.792978e+001 3.004632e+001 2.504226e+001 8.619850e+001 6.348387e+001 1.080310e+002 1.249928e+002 6.591246e+001 4.596222e+001 1.057642e+002 5.465509e+001 2.271132e+000 6.489345e-001 1.766722e+000 4.976239e+000 6.735671e-001 5.362630e+000 6.087812e+000 3.689026e+000 4.441701e+000 7.435109e+000 1.467280e+000 4.589894e+000 3.408041e+000 1.141908e-001 3.141438e-001 3.750707e-001 6.384757e-001 5.682753e-001 1.711772e-001 2.725933e+000 9.705975e-001 9.609640e-001 3.656113e+000 6.358535e-001 1.130135e+000 1.974507e-001 5.084623e-003
<GCONST> 1.212876e+002
~t "T_s"
<ENDHMM>
~h "a-l+aa"
<BEGINHMM>
<NUMSTATES> 5
<STATE> 2
<MEAN> 39
 -2.998944e+000 -1.774081e+001 4.830486e-001 -1.923792e+001 2.439946e+000 -1.144351e+001 5.843954e+000 -3.751971e+000 -1.610772e+000 -6.235518e+000 -2.022564e+000 4.005032e+000 1.977200e+001 -5.623317e-001 1.028936e+000 1.222865e+000 -1.877936e-001 5.336400e-001 -6.381451e-001 3.745251e-001 3.698309e-001 -2.530597e+000 -5.956461e-001 2.584404e-002 -8.130373e-001 7.178444e-002 -7.977586e-002 1.363605e-001 -1.396359e-001 -1.072573e-001 -3.952873e-001 -1.223811e-001 -3.988449e-001 -2.332512e-002 1.468087e+000 1.927934e-001 -1.409435e-001 3.477077e-002 -3.936722e-002
<VARIANCE> 39
 1.822137e+001 5.150516e+001 5.727507e+001 6.228067e+001 3.266851e+002 1.963046e+002 1.642282e+002 9.628587e+001 7.386614e+001 3.496686e+001 1.745251e+002 7.674878e+001 1.656945e+000 7.956771e-001 6.761439e-001 1.332863e+000 1.630123e+000 5.987362e-001 1.140501e+000 9.790313e+000 8.298991e+000 8.616896e-001 3.059436e+000 2.608781e+000 2.565495e+000 3.373709e-002 2.703907e-002 9.921778e-002 9.728769e-002 1.997790e-001 5.489442e-001 4.558704e-001 1.166406e+000 5.053391e-001 3.613403e-001 9.169371e-002 1.299222e+000 1.195781e+000 1.345403e-002
<GCONST> 1.099053e+002
<STATE> 3
<MEAN> 39
 -3.694156e+000 -1.649183e+001 2.718005e+000 -2.137707e+001 2.407026e+000 -1.516539e+001 8.223401e+000 -2.817302e+000 -1.286096e-001 -6.628018e+000 -1.297019e+000 4.446877e+000 1.984179e+001 -6.125934e-001 5.133440e-001 8.896334e-001 -5.568165e-001 -7.708548e-001 -1.271967e+000 3.818625e-001 -1.158940e-001 -3.657378e-001 -3.892915e-001 -9.554248e-002 -8.429842e-001 6.477135e-002 2.167016e-002 -1.005403e-001 -3.014182e-001 4.274508e-002 -5.223620e-001 2.897963e-001 -6.617042e-002 -3.450761e-001 1.474647e+000 4.683980e-001 -1.423108e-001 7.218337e-002 -3.549817e-002
<VARIANCE> 39
 1.337922e+001 3.665874e+001 6.622709e+001 8.409901e+001 3.724265e+002 1.785131e+002 2.640312e+002 8.116570e+001 7.207238e+001 7.954155e+000 1.431296e+002 5.358236e+001 2.031646e+000 6.434880e-001 4.812654e-001 7.328778e-001 1.536496e+000 8.631593e-001 1.612375e+000 4.578768e+000 5.653133e+000 1.797905e-001 2.953249e+000 1.216160e+000 4.703143e+000 2.088723e-002 1.070250e-002 1.477034e-001 2.881150e-001 5.906927e-002 4.559695e-001 3.524755e-001 1.466577e+000 1.001493e+000 5.006359e-001 2.213163e-001 7.481125e-001 4.986428e-001 6.346628e-003
<GCONST> 1.031402e+002
<STATE> 4
<MEAN> 39
 -4.495294e+000 -1.519052e+001 3.344358e+000 -1.928602e+001 1.831585e+000 -1.391908e+001 7.305768e+000 -2.560686e+000 -5.519704e-001 -7.076627e+000 -2.395148e+000 3.864572e+000 1.994690e+001 -3.712511e-001 2.267438e-001 5.446545e-001 -4.915453e-001 -1.079315e+000 -3.579161e-001 9.471567e-001 -3.010414e-001 1.668576e+000 3.725516e-001 -2.102287e-001 -8.062891e-001 1.974844e-002 1.458522e-001 -1.893827e-001 -2.595068e-001 9.402064e-002 -1.857906e-001 5.159823e-001 3.027797e-002 -3.977121e-001 9.842264e-001 4.213376e-001 -1.416562e-001 9.597710e-002 -4.558693e-002
<VARIANCE> 39
 1.417210e+001 5.413564e+001 6.002945e+001 6.858286e+001 3.118862e+002 1.873226e+002 2.627714e+002 5.846869e+001 3.458642e+001 7.047766e+000 1.074729e+002 1.670408e+001 1.885936e+000 3.345557e-001 8.283433e-001 1.066838e+000 7.981188e-001 1.695002e+000 4.987632e-001 6.813415e-001 2.942294e+000 1.526634e+000 2.553827e+000 2.263802e+000 7.413022e+000 1.843338e-002 4.637609e-002 6.641106e-002 1.460717e-001 1.793634e-001 1.791207e-001 6.707880e-001 1.453965e+000 1.207499e+000 2.496539e-001 6.325508e-001 4.940287e-002 2.804116e-001 2.864352e-003
<GCONST> 9.719107e+001
<TRANSP> 5
 0.000000e+000 1.000000e+000 0.000000e+000 0.000000e+000 0.000000e+000
 0.000000e+000 1.133487e-028 1.000000e+000 0.000000e+000 0.000000e+000
 0.000000e+000 0.000000e+000 2.310997e-018 1.000000e+000 0.000000e+000
 0.000000e+000 0.000000e+000 0.000000e+000 4.984762e-002 9.501524e-001
 0.000000e+000 0.000000e+000 0.000000e+000 0.000000e+000 0.000000e+000
<ENDHMM>
~h "a-l+ee"
<BEGINHMM>
<NUMSTATES> 5
<STATE> 2
<MEAN> 39
 -7.598773e-001 -7.722480e+000 -1.515895e+001 -1.687506e+001 6.271886e+000 -1.568658e+001 -1.019770e+001 9.368065e+000 2.325248e+000 -4.872126e+000 -6.298853e+000 -1.275548e+000 1.807402e+001 -3.732232e-001 -2.149144e-001 -5.453882e-001 1.586089e+000 1.123061e+000 4.729947e-001 -8.749719e-001 1.049118e+000 2.009672e-001 -9.554853e-001 -7.920123e-001 5.494946e-001 -4.518636e-002 6.552847e-003 2.616567e-001 4.181130e-001 -8.653451e-001 -2.499299e-001 3.389090e-001 4.242327e-001 -6.652651e-001 3.448498e-001 -5.034465e-002 5.100675e-001 3.792135e-001 3.135578e-002
<VARIANCE> 39
 3.770464e+001 7.300213e+001 7.853044e+001 6.321449e+001 1.250265e+002 1.802692e+002 3.788968e+001 3.314150e+001 1.877821e+002 1.499616e+002 5.438455e+001 8.372254e+001 1.446950e+000 2.439862e+000 2.208948e+000 7.619181e+000 3.219775e-001 1.872551e+000 1.072550e+000 1.202860e+000 1.164235e+000 2.031362e+000 1.168362e+001 2.091779e+000 2.829608e+000 7.422139e-002 1.012760e-001 3.389364e-001 9.142947e-001 4.564025e-001 5.032169e-001 9.093034e-001 5.934605e-001 6.219525e-001 1.057319e+000 2.910903e-001 4.716142e-001 2.129142e+000 1.649989e-002
<GCONST> 1.189620e+002
<STATE> 3
<MEAN> 39
 3.660108e+000 -6.318698e+000 -1.772433e+001 -1.441450e+001 1.390850e+000 -1.462458e+001 -9.214327e+000 7.114818e+000 -2.315453e-004 -9.098809e+000 -5.890436e+000 2.791662e+000 1.782552e+001 -8.681704e-002 9.122562e-001 -2.007235e-001 -1.655695e+000 2.137208e-001 1.692294e+000 3.290808e-001 -4.731755e-001 1.255602e+000 3.278476e-001 4.480955e-002 -5.543233e-002 2.608714e-001 -1.408637e-001 2.326115e-001 5.443960e-001 -1.013896e+000 -3.781435e-001 1.033382e-001 2.030730e-001 -8.220474e-001 2.959610e-001 -3.502913e-002 3.095270e-001 -7.683525e-003 2.591553e-002
<VARIANCE> 39
 7.016023e+001 3.643848e+001 4.038023e+001 6.033984e+001 1.923413e+002 8.534789e+001 1.665661e+001 4.150191e+001 1.510394e+002 7.513316e+001 3.150676e+001 3.816886e+001 1.164384e+000 1.534714e+000 3.016018e+000 6.606234e+000 7.411298e+000 1.717793e+000 2.269308e+000 5.084177e+000 2.730807e+000 3.140042e+000 7.992217e+000 7.495380e-001 4.989868e+000 1.439782e-001 9.597655e-002 4.305142e-002 2.814873e-001 5.636752e-001 4.585504e-001 8.673988e-001 7.627996e-001 5.434365e-001 6.991609e-001 2.784633e-001 3.293933e-001 8.626846e-001 1.557065e-002
<GCONST> 1.159766e+002
<STATE> 4
<MEAN> 39
 -1.046007e+000 -6.100692e+000 -1.362006e+001 -1.883173e+001 7.653922e+000 -1.117991e+001 -1.132399e+001 7.893551e+000 4.249937e+000 -6.712721e+000 -6.524693e+000 -1.617678e+000 1.837190e+001 -5.797529e-001 3.311607e-001 1.015677e+000 -1.254526e+000 -8.586655e-001 2.320506e-001 -9.697726e-001 -7.560629e-001 1.748390e+000 -2.275291e-001 1.141650e+000 3.916591e-001 3.921248e-002 1.811654e-001 1.916494e-001 9.618130e-002 -6.444686e-002 -3.463139e-002 -7.489318e-001 1.995019e-001 -3.343803e-001 -2.877547e-001 2.042382e-001 2.271483e-001 -4.672467e-002 -2.684638e-002
<VARIANCE> 39
 6.725863e+001 6.790610e+001 2.573545e+001 5.924276e+001 1.506357e+002 1.230303e+002 2.386943e+001 5.863288e+001 1.891647e+002 3.239393e+001 4.270992e+001 2.027228e+001 8.870548e-001 6.661116e-001 2.333600e+000 8.365950e+000 4.341952e+000 1.035026e+000 3.525291e+000 3.767502e+000 6.024403e+000 4.924760e+000 3.891447e+000 1.999961e+000 1.132663e+001 1.381070e-002 1.208687e-001 3.895302e-001 4.110071e-001 9.130133e-001 7.710527e-001 2.850987e-001 9.945370e-001 5.860155e-002 1.223635e+000 1.172309e+000 5.500535e-002 4.686764e-001 2.284449e-002
<GCONST> 1.146404e+002
<TRANSP> 5
 0.000000e+000 1.000000e+000 0.000000e+000 0.000000e+000 0.000000e+000
 0.000000e+000 2.746074e-011 1.000000e+000 0.000000e+000 0.000000e+000
 0.000000e+000 0.000000e+000 3.725767e-001 6.274233e-001 0.000000e+000
 0.000000e+000 0.000000e+000 0.000000e+000 3.339120e-003 9.966608e-001
 0.000000e+000 0.000000e+000 0.000000e+000 0.000000e+000 0.000000e+000
<ENDHMM>
~h "oo-t^+f"
<BEGINHMM>
<NUMSTATES> 5
<STATE> 2
<MEAN> 39
 -6.693318e+000 -1.435498e+001 -8.039468e+000 -1.463323e+001 3.835187e+000 -1.836255e+001 9.739755e-001 -1.031813e+001 -2.125603e+000 -1.900139e+001 -5.471439e+000 -4.131195e+000 1.955683e+001 6.664875e-002 3.217083e-002 -1.612540e-001 2.878822e-001 -1.443950e-001 8.679061e-002 -1.229636e-001 -4.814549e-002 1.442839e-001 -2.723520e-002 3.777743e-002 -1.600944e-001 -3.661663e-002 6.046057e-004 1.897670e-002 2.892765e-002 5.308524e-002 -2.891201e-002 -2.244165e-002 2.490715e-002 2.253552e-002 2.666016e-003 2.705255e-002 4.217235e-003 1.228124e-002 -5.838954e-003
<VARIANCE> 39
 3.049867e+001 5.295979e+001 7.128127e+001 8.118877e+001 6.880589e+001 6.947073e+001 4.448034e+001 6.555704e+001 6.031528e+001 8.134756e+001 5.634911e+001 5.568411e+001 2.851764e+000 2.548352e+000 3.638592e+000 2.405576e+000 3.787783e+000 2.622989e+000 2.928391e+000 2.276435e+000 4.860868e+000 6.283037e+000 4.600627e+000 4.949524e+000 2.749390e+000 2.210758e-001 4.121563e-001 5.898737e-001 3.302360e-001 6.407448e-001 4.914481e-001 4.515891e-001 4.888550e-001 8.393605e-001 1.218705e+000 7.317559e-001 9.123543e-001 4.875924e-001 4.365944e-002
<GCONST> 1.257009e+002
<STATE> 3
<MEAN> 39
 -5.124768e+000 -1.595293e+001 -5.261514e+000 -1.240592e+001 1.132979e+001 -1.791352e+001 8.335165e-001 -1.939075e+000 -6.458206e+000 -1.087958e+001 -1.105483e+000 -5.464223e+000 2.006035e+001 -5.645862e-002 -8.170431e-002 2.362988e-001 9.431612e-002 -1.562211e-001 5.926719e-002 4.841907e-001 -1.293126e-001 -1.991832e-001 2.657198e-002 2.328297e-001 6.815457e-002 1.067217e-002 1.424362e-002 5.250976e-002 -1.803860e-002 -1.415201e-002 -6.379703e-002 1.199668e-002 9.758150e-002 -4.170854e-002 5.521968e-002 3.722111e-002 -1.276496e-002 3.285414e-002 -1.463540e-002
<VARIANCE> 39
 1.684058e+001 3.388792e+001 2.416549e+001 2.883603e+001 6.544370e+001 3.237282e+001 4.232779e+001 4.040437e+001 5.109872e+001 4.437389e+001 7.868776e+001 4.149584e+001 2.001250e+000 7.459551e-001 1.365573e+000 1.166241e+000 1.411588e+000 2.465670e+000 2.179479e+000 2.396801e+000 4.573793e+000 2.807739e+000 1.656841e+000 2.329923e+000 2.689273e+000 1.177187e-001 1.097886e-001 1.922676e-001 1.955429e-001 2.505030e-001 4.227990e-001 3.761578e-001 2.370685e-001 8.647155e-001 5.010233e-001 2.639007e-001 3.647667e-001 4.652174e-001 1.792369e-002
<GCONST> 1.038944e+002
<STATE> 4
<MEAN> 39
 -7.603536e+000 -1.972468e+001 -3.435139e+000 -9.833735e+000 7.214500e-001 -1.224777e+001 9.320229e+000 -1.060968e+001 -1.357554e+000 -1.200741e+001 -9.821843e+000 -6.450073e+000 1.925453e+001 -3.536058e-001 8.520197e-001 -2.332037e-001 -2.255969e-001 -2.867149e-002 3.257685e-001 -5.060886e-001 7.942048e-001 3.698887e-001 6.198783e-001 -1.796220e-001 3.588524e-002 -3.236103e-001 -5.191112e-002 3.771573e-002 -1.604461e-001 1.364477e-001 1.633721e-001 -2.417348e-001 -4.783074e-001 2.332351e-001 1.625250e-001 -1.136231e-001 3.821209e-002 -1.899812e-001 -2.236966e-002
<VARIANCE> 39
 2.196814e+001 2.945094e+001 3.703306e+001 3.737460e+001 6.981505e+001 4.014401e+001 1.170966e+002 2.245086e+001 6.389664e+001 7.582077e+001 1.656678e+002 3.356734e+001 3.192502e+000 1.504823e+000 7.817178e-001 2.568051e+000 3.872700e+000 3.142350e+000 5.184483e+000 5.436060e+000 3.154523e+000 2.263215e+000 6.427302e+000 2.867088e+000 3.520849e+000 7.107198e-002 2.842661e-001 1.983157e-001 4.777013e-001 5.588624e-001 3.755082e-001 8.149903e-001 1.151537e+000 4.966836e-001 4.231595e-001 7.145811e-001 9.203068e-001 2.490927e-001 2.089634e-002
<GCONST> 1.174259e+002
~t "T_t^"
<ENDHMM>
~h "n-@@+n^"
<BEGINHMM>
<NUMSTATES> 5
<STATE> 2
<MEAN> 39
 -7.544414e+000 -3.463516e+000 -1.599223e+001 -2.367734e+001 3.030570e+000 -1.420177e+001 -1.195934e+001 -1.328589e+001 4.914271e+000 -1.680927e+001 -3.386657e+000 -9.336395e+000 1.913423e+001 5.429083e-001 4.059876e-001 -1.218127e-001 -6.350108e-001 1.962276e-001 1.332105e+000 -1.375918e-001 1.136042e+000 1.157495e+000 4.706257e-001 5.346740e-001 -9.299877e-002 -3.896400e-002 -2.384124e-001 -8.970735e-002 -4.079088e-002 7.904639e-002 -1.517613e-001 5.243767e-002 9.926700e-001 8.066168e-002 4.349329e-001 5.216435e-001 3.329065e-001 2.513050e-001 2.725302e-002
<VARIANCE> 39
 8.120269e-001 6.605854e+001 2.822612e+001 1.230648e+002 5.447643e+001 8.017247e+001 8.387067e+001 3.377047e+001 4.774816e+001 7.324255e+001 2.963140e+001 1.514997e+001 1.406433e+000 5.835628e-002 5.048768e-001 1.174866e+000 1.224972e+000 1.279953e+000 1.315106e+000 1.949901e+000 1.903739e+000 1.670991e+000 3.752481e+000 1.782150e+000 1.260974e+000 2.301043e-002 5.630154e-002 1.808339e-001 3.781293e-001 5.196016e-001 2.848411e-001 8.537530e-001 4.641380e-001 2.901804e-001 7.023242e-001 1.533517e+000 5.414169e-001 1.330845e-001 2.799426e-003
<GCONST> 9.422876e+001
<STATE> 3
<MEAN> 39
 -6.711502e+000 -4.860267e-001 -1.906733e+001 -2.610296e+001 2.464034e+000 -7.269946e+000 -1.317969e+001 -1.396464e+001 8.984655e+000 -1.432771e+001 -1.377889e-001 -8.858849e+000 1.865217e+001 4.226496e-001 -1.193687e+000 -8.944605e-001 -6.508223e-001 3.774217e-001 2.097257e+000 1.881753e+000 5.856471e-001 1.105683e+000 9.235662e-001 7.861279e-002 3.413345e-002 1.485894e-001 -1.432241e-001 -9.014612e-001 2.665685e-001 9.959914e-001 4.686667e-002 -6.371029e-001 4.220149e-001 1.888105e-001 -2.507240e-001 -5.770144e-001 -7.168449e-001 -5.669987e-002 6.290234e-002
<VARIANCE> 39
 3.095997e+000 7.130613e+001 3.205440e+001 1.628193e+002 4.694545e+001 1.094643e+002 3.488256e+001 1.788694e+001 2.522533e+001 6.385276e+001 4.831621e+001 8.452051e+000 1.791663e+000 1.850737e-001 2.385646e+000 3.458684e+000 2.689782e+000 2.583295e+000 2.168098e+000 3.784569e+000 2.253962e+000 2.067759e+000 6.411248e+000 3.158781e+000 1.537909e+000 2.545622e-002 3.104925e-002 6.015340e-001 7.952926e-001 7.451611e-001 6.744491e-001 7.913850e-001 8.327557e-001 3.083355e-001 2.588281e-001 7.462802e-001 6.741840e-001 3.820814e-001 4.374268e-003
<GCONST> 1.054448e+002
<STATE> 4
<MEAN> 39
 -7.098927e+000 -1.095413e+001 -1.584187e+001 -2.716017e+001 7.873486e+000 -5.398194e+000 -6.695332e+000 -9.819522e+000 1.428469e+001 -1.045055e+001 -2.515905e+000 -1.098748e+001 1.999595e+001 -3.446027e-001 -3.517318e+000 1.362831e+000 3.629042e+000 -1.345264e-001 -2.184201e+000 1.873762e+000 1.804495e+000 -5.748037e-001 -2.749880e+000 -2.550806e+000 1.009914e+000 1.723078e-001 -1.987868e-001 1.265795e-001 6.902357e-001 4.247521e-001 -1.016045e+000 -1.159418e+000 2.348187e-001 -2.447495e-001 -1.280231e+000 -8.085309e-001 3.589276e-001 8.651169e-001 -5.887932e-002
<VARIANCE> 39
 4.975471e+000 5.996070e+001 6.153163e+001 1.643845e+002 5.644727e+001 1.298679e+002 2.056521e+001 3.526565e+001 2.280979e+001 9.035713e+001 6.856155e+001 1.413506e+001 1.512420e+000 2.219961e-001 5.660375e+000 1.424495e+000 3.584693e+000 2.884690e+000 3.057930e+000 1.465443e+000 1.242538e+000 7.018148e+000 5.930303e+000 2.698804e+000 3.858506e+000 1.403578e-002 4.203852e-002 6.097109e-001 4.244411e-001 1.518314e+000 6.177196e-001 4.050463e-001 6.977642e-001 5.672447e-001 3.674048e-001 1.493780e+000 1.094652e+000 3.272586e-001 2.447650e-003
<GCONST> 1.093906e+002
~t "T_@@"
<ENDHMM>
~h "m^-ph+a"
<BEGINHMM>
<NUMSTATES> 5
<STATE> 2
<MEAN> 39
 -1.224710e+001 -1.640877e+001 -8.220257e+000 -1.822972e+001 2.115466e+001 -2.044595e+000 3.589163e-001 -1.318559e+001 8.900793e+000 -1.461681e+001 -5.800054e+000 -4.987232e-001 1.845389e+001 1.997169e+000 3.046627e-001 -1.916449e-002 -2.480420e+000 -2.688662e+000 -1.443772e-001 -1.472428e-001 -9.304103e-001 -4.017563e-001 8.500552e-001 -6.540278e-003 -3.042572e-001 4.305652e-001 6.235310e-001 2.002895e-002 -8.475608e-001 9.382308e-001 -9.846876e-001 3.852756e-001 -4.580824e-001 2.910817e-001 4.132466e-001 6.870125e-001 -2.752793e-001 6.191668e-002 -5.073292e-002
<VARIANCE> 39
 3.247816e+001 5.303437e+001 2.283228e+001 4.959855e+001 1.441569e+002 3.175518e+002 3.434569e+001 4.658089e+001 1.041399e+002 4.015450e+001 1.304926e+002 2.202515e+001 4.166235e+000 4.886688e+000 2.083794e+000 2.060237e+000 5.284013e-001 6.894663e+000 7.653072e-001 3.463308e+000 6.820906e-001 4.281379e+000 8.322458e-001 3.347378e+000 1.108529e+000 1.508991e-001 2.283020e+000 7.522050e-001 8.447297e-001 6.498768e-001 1.238405e+000 3.515799e-001 7.283329e-001 4.923840e-001 1.646751e+000 8.351082e-001 3.275726e-001 2.662915e-001 8.949087e-002
<GCONST> 1.211681e+002
<STATE> 3
<MEAN> 39
 -9.536749e+000 -1.618923e+001 -9.232831e+000 -2.019267e+001 1.359497e+001 -8.225653e+000 -1.554986e+000 -1.323133e+001 4.682418e+000 -1.479542e+001 -5.676839e+000 -3.720086e+000 1.976362e+001 1.313007e+000 -3.696946e-001 -1.888766e-001 -1.631184e+000 -2.339896e+000 5.156816e-001 -1.171416e-001 -2.027233e-001 6.065528e-001 1.774140e+000 -1.143275e+000 1.627448e-002 4.176347e-001 -4.804613e-002 -4.165067e-002 -1.627338e-001 7.944201e-001 -8.385855e-002 2.581044e-001 -5.642118e-001 4.407355e-001 -9.505194e-003 4.906377e-001 -5.653170e-002 2.014437e-001 -1.542612e-001
<VARIANCE> 39
 5.159592e+001 6.543583e+001 6.589165e+001 5.455031e+001 1.542030e+002 2.655882e+002 2.240848e+001 4.544173e+001 1.205859e+002 7.618865e+001 1.510242e+002 2.175372e+001 3.248501e+000 4.750521e+000 5.399879e-001 2.437500e+000 2.090249e+000 6.989299e+000 6.317723e-001 7.111388e+000 3.226000e+000 2.609416e+000 4.306449e+000 3.269108e-001 3.681982e+000 1.873682e-001 1.205869e+000 9.672084e-001 2.053926e-001 2.396255e-001 1.680246e-001 1.630293e-001 2.579184e-001 3.894559e-001 1.677766e+000 4.651800e-001 3.019913e-001 6.978201e-002 6.260685e-002
<GCONST> 1.164226e+002
<STATE> 4
<MEAN> 39
 -5.788210e+000 -4.657495e+000 4.285088e+000 -2.015294e+001 -1.221851e+001 -3.226219e+001 3.148550e-001 -7.199327e+000 5.342806e+000 -2.037351e+001 7.520003e+000 1.009199e+001 1.816281e+001 3.799015e-001 -1.360062e-003 4.738706e-001 9.157996e-002 -6.649557e-001 -3.584009e-001 -2.835669e-001 -7.356812e-002 1.985670e-001 -2.832340e-002 -8.914621e-001 -4.637044e-002 1.884117e-002 3.511308e-002 -1.664801e-003 9.248027e-003 1.685722e-001 4.306687e-002 1.037789e-001 -1.451528e-001 5.959336e-002 -2.137416e-001 -4.800463e-002 3.315987e-002 -6.211531e-002 -3.001404e-002
<VARIANCE> 39
 1.599328e+001 5.420152e+001 6.054994e+001 1.577849e+001 1.609262e+002 2.222504e+002 2.123120e+001 3.027848e+001 4.645186e+001 4.758104e+001 8.628009e+001 4.272505e+001 1.569360e+000 1.159980e+000 1.495565e+000 9.701686e-001 1.023081e+000 1.790034e+000 1.145437e+000 3.063626e+000 1.891009e+000 3.230096e+000 2.411579e+000 1.368859e+000 1.189664e+000 7.493494e-002 1.890451e-001 1.894529e-001 1.502169e-001 2.136429e-001 2.867866e-001 2.566229e-001 5.081461e-001 2.191287e-001 4.832629e-001 3.943075e-001 3.273323e-001 2.048864e-001 1.611335e-002
<GCONST> 1.015255e+002
<TRANSP> 5
 0.000000e+000 1.000000e+000 0.000000e+000 0.000000e+000 0.000000e+000
 0.000000e+000 2.857034e-001 7.142966e-001 0.000000e+000 0.000000e+000
 0.000000e+000 0.000000e+000 1.257556e-010 1.000000e+000 0.000000e+000
 0.000000e+000 0.000000e+000 0.000000e+000 8.275928e-001 1.724073e-001
 0.000000e+000 0.000000e+000 0.000000e+000 0.000000e+000 0.000000e+000
<ENDHMM>
~h "a-w^+th"
<BEGINHMM>
<NUMSTATES> 5
<STATE> 2
<MEAN> 39
 -2.498446e+000 -1.526199e+001 -1.240282e+001 -2.580641e+001 1.306944e+001 -8.024253e+000 -6.969158e-001 -8.374622e+000 8.164838e+000 -8.821254e+000 -9.737415e+000 8.097249e+000 1.891894e+001 4.572963e-001 3.682600e-001 -5.082855e-001 5.981727e-001 -7.252286e-001 -7.990557e-002 -4.574673e-001 7.163790e-001 5.553913e-001 2.332584e-001 5.506196e-001 8.700430e-001 -1.866195e-001 8.049931e-002 1.117432e-001 5.701888e-002 3.846857e-001 5.550595e-002 -1.776534e-001 -1.588259e-001 -3.056159e-001 -7.356593e-002 1.196669e-001 -6.788389e-002 -7.517231e-002 -1.009843e-002
<VARIANCE> 39
 1.068347e+001 2.554536e+000 4.811071e+001 1.571594e+002 9.709637e+001 1.035573e+002 2.738274e+001 1.081384e+002 6.295669e+001 2.408582e+001 3.729467e+001 1.295244e+001 1.962348e+000 1.903982e-001 6.814650e-001 9.158289e-001 1.299379e+000 1.654380e+000 8.969355e-001 2.093771e+000 2.932627e+000 5.120561e+000 3.097776e+000 8.019471e-001 6.154879e-001 1.879851e-002 6.213877e-002 2.063700e-001 1.784259e-001 2.492620e-001 2.079081e-001 1.634887e-001 5.154086e-001 3.363579e-001 3.784921e-001 5.778440e-001 2.023103e-001 2.184611e-001 3.881556e-003
<GCONST> 9.093331e+001
<STATE> 3
<MEAN> 39
 1.123816e+000 -1.013362e+001 -2.220477e+001 -1.603112e+001 1.989476e+001 -5.698218e-001 -1.287899e+000 -1.374036e+001 1.341284e+001 -7.023261e+000 -1.143891e+001 7.516776e+000 1.772825e+001 3.124494e-001 2.680796e-001 -6.738200e-001 1.692669e+000 -4.625153e-001 2.744254e-001 2.602178e-002 3.204610e-001 9.831058e-001 -6.011060e-002 5.663786e-001 -5.089397e-001 -1.198263e-001 -1.334229e-001 -2.743496e-001 8.794008e-002 4.356116e-002 -1.853943e-001 -3.047427e-001 -1.313271e-002 -1.532794e-001 -2.796389e-001 -5.251278e-001 2.583364e-002 9.579903e-003 1.575888e-002
<VARIANCE> 39
 1.598804e+001 1.613534e+001 1.037989e+002 1.228514e+002 1.049838e+002 1.152730e+002 3.695208e+001 1.299044e+002 7.963824e+001 2.461757e+001 3.972420e+001 2.908013e+001 1.100823e+000 5.509546e-001 1.122793e+000 9.181963e-001 1.104231e+000 1.475523e+000 6.227484e+000 3.717777e+000 6.848599e+000 4.540452e+000 6.806922e+000 1.241716e+000 1.357093e+000 2.244731e-002 8.588635e-002 3.778938e-001 2.210295e-001 2.357184e-001 4.755511e-001 8.201632e-001 1.072995e+000 1.609230e+000 9.112959e-001 4.812320e-001 1.932809e-001 5.626798e-001 3.744635e-003
<GCONST> 1.090268e+002
<STATE> 4
<MEAN> 39
 -4.119503e-002 -1.509034e+001 -1.964657e+001 -5.775971e+000 1.115827e+001 -4.743443e+000 -2.641551e+000 -7.652924e+000 1.085990e+001 -1.666368e+001 -7.432757e+000 1.012490e+001 1.728466e+001 -4.128473e-001 -1.836857e+000 3.603756e-001 7.511870e-001 -1.433340e+000 -6.370846e-001 4.208294e-001 1.547102e+000 -1.665563e+000 -5.361425e-001 4.768810e-001 2.338136e-001 -1.189693e-001 -4.242550e-002 -2.384904e-001 1.460788e-001 -3.297403e-001 5.196767e-002 6.738300e-001 1.627081e-001 2.012091e-001 -2.544815e-001 5.360166e-001 -4.383973e-002 -3.760295e-001 1.099125e-002
<VARIANCE> 39
 2.241974e+001 1.975469e+001 1.409711e+002 2.199783e+002 6.691062e+001 8.830880e+001 3.701301e+001 1.553499e+002 1.670124e+002 2.283029e+002 3.447165e+001 2.632454e+001 1.724297e+000 3.225682e-001 1.873237e+000 1.482915e+000 1.476873e+000 3.474443e+000 5.522300e+000 3.144576e+000 5.941632e+000 7.378724e+000 5.445122e+000 1.156133e+000 5.891928e+000 5.403523e-002 3.892521e-002 2.435103e-001 1.655673e-001 3.161556e-001 3.340467e-001 3.462702e-001 1.466952e-001 1.362730e+000 2.183346e+000 1.549493e+000 3.347609e-001 5.285644e-001 3.429119e-003
<GCONST> 1.146498e+002
~t "T_w^"
<ENDHMM>
~h "iia-w^+ph"
<BEGINHMM>
<NUMSTATES> 5
<STATE> 2
<MEAN> 39
 -2.543638e+000 -1.984848e+001 -1.585244e+001 -2.813050e+001 1.056392e+001 3.782602e+000 -5.232202e+000 -5.846798e-001 5.216279e+000 -9.759006e-001 -3.404544e+000 -3.610929e+000 1.903505e+001 7.096466e-001 4.149396e-001 -5.462485e-001 -4.648327e-001 -5.114599e-001 8.709182e-001 -8.964728e-001 1.189760e+000 4.918632e-001 5.271333e-001 1.112221e-001 -2.462418e-001 -1.533621e-001 3.824553e-002 8.692645e-003 7.081517e-003 8.323196e-002 1.076781e-003 -5.024396e-002 -7.312986e-002 2.223213e-002 -7.842823e-002 1.199952e-001 -6.203169e-002 -7.992337e-002 1.232998e-002
<VARIANCE> 39
 1.415218e+001 2.422439e+001 2.436031e+001 1.591423e+002 6.821703e+001 1.399329e+002 1.801175e+002 1.547615e+002 2.768593e+002 1.111851e+002 3.204995e+001 6.800638e+001 5.458429e-001 5.845444e-001 6.601360e-001 1.248365e+000 2.009149e+000 1.545056e+000 1.564906e+000 2.019200e+000 2.381982e+000 2.765083e+000 1.908678e+000 1.304822e+000 1.178958e+000 2.138326e-002 7.704539e-002 6.436552e-002 1.481178e-001 2.038939e-001 3.274203e-001 3.115413e-001 2.544603e-001 4.566710e-001 4.478728e-001 2.531883e-001 2.974628e-001 2.170666e-001 2.857120e-003
<GCONST> 9.924618e+001
<STATE> 3
<MEAN> 39
 1.063763e+001 -8.012750e+000 -2.719956e+001 -1.116103e+001 1.077618e+001 1.949418e+000 -4.177643e+000 1.060667e+001 1.184221e+001 9.160614e+000 -1.952246e+000 2.888469e+000 1.712429e+001 5.335256e-001 9.473343e-001 -5.484548e-001 4.134154e-001 -3.540152e-001 5.422663e-001 4.905438e-002 2.271850e-001 -1.841317e-001 1.122180e-001 1.470798e-002 -2.762291e-001 -1.171955e-001 -7.863745e-002 8.325853e-003 1.150459e-001 4.502241e-002 1.262095e-001 -6.777027e-002 -5.474069e-002 -1.871178e-001 -1.300066e-001 -3.083720e-001 -9.990369e-002 -9.195154e-002 -8.650586e-003
<VARIANCE> 39
 1.947762e+001 5.655636e+001 3.820944e+001 8.980983e+001 1.919074e+002 7.689941e+001 8.473257e+001 8.382027e+001 6.747294e+001 5.586402e+001 4.775326e+001 6.806403e+001 9.170716e-001 3.305033e-001 7.302385e-001 1.396187e+000 1.720961e+000 2.613124e+000 3.197549e+000 2.352217e+000 4.815307e+000 4.099984e+000 3.836183e+000 2.883802e+000 2.829693e+000 1.844667e-002 4.377743e-002 1.352141e-001 1.661421e-001 3.823173e-001 4.173371e-001 5.418046e-001 4.704461e-001 9.006280e-001 8.074370e-001 5.001127e-001 4.510309e-001 3.188869e-001 3.529634e-003
<GCONST> 1.076679e+002
<STATE> 4
<MEAN> 39
 3.025084e+000 -1.962048e+000 -2.537673e+001 -1.426318e+001 -7.017449e-001 6.519632e+000 -1.056131e+001 5.877119e+000 1.203437e+000 -3.502522e+000 -1.979466e-001 -3.809520e+000 1.346821e+001 -8.114771e-001 4.637734e-001 4.724532e-001 1.341102e+000 -2.026538e-001 -1.395811e-001 5.772738e-001 -1.696534e-001 -2.826720e-001 -9.142574e-002 1.360154e-001 2.015221e-001 -3.735904e-001 -1.891888e-001 -3.404925e-002 8.545028e-002 -4.562234e-002 -5.378769e-002 5.171222e-003 2.300261e-001 1.769694e-001 1.635863e-001 1.764415e-001 1.944888e-001 1.912030e-001 9.027983e-003
<VARIANCE> 39
 7.873039e+001 3.447728e+001 6.279623e+001 2.362467e+002 7.066398e+001 4.655207e+001 1.157711e+002 6.169302e+001 3.755509e+001 4.836575e+001 4.732263e+001 3.076119e+001 1.005855e+001 1.477684e+000 1.408855e+000 2.828111e+000 2.807144e+000 2.345385e+000 2.496410e+000 4.649093e+000 5.314392e+000 4.720452e+000 7.216985e+000 3.918282e+000 2.660412e+000 9.301497e-002 2.232870e-001 2.736394e-001 2.875263e-001 5.496649e-001 4.110843e-001 4.909762e-001 5.786482e-001 7.553351e-001 7.246768e-001 1.248181e+000 7.663515e-001 5.467869e-001 1.958628e-002
<GCONST> 1.225626e+002
~t "T_w^"
<ENDHMM>
~h "iia-w^+th"
<BEGINHMM>
<NUMSTATES> 5
<STATE> 2
<MEAN> 39
 -2.814900e+000 -1.318384e+001 -5.635921e+000 -2.710759e+001 4.666491e+000 -1.736778e+001 3.493192e-001 -1.138909e+001 4.214327e+000 -9.926003e+000 -8.189241e+000 -3.171700e+000 1.939410e+001 5.108804e-001 4.226111e-001 -4.120195e-001 -3.189545e-001 -2.587023e-001 -2.319138e-001 -5.435796e-001 3.809060e-001 -3.661724e-001 7.117875e-001 1.909617e-001 8.430122e-001 -1.511097e-001 2.158220e-002 -6.042506e-002 -7.485746e-003 1.295553e-001 -3.701625e-002 -5.249732e-002 1.888932e-001 1.461331e-001 1.571306e-001 1.285454e-001 2.868616e-002 1.614534e-001 2.083525e-002
<VARIANCE> 39
 5.345262e+000 1.332355e+001 4.749629e+001 1.484890e+001 2.497085e+001 5.046387e+001 3.960701e+001 6.428619e+001 6.911694e+001 9.417075e+001 1.890976e+001 2.003660e+001 5.480508e-001 9.691196e-002 1.045262e+000 4.878162e-001 1.935225e+000 1.294804e+000 2.548356e+000 2.258689e+000 1.930961e+000 2.354428e+000 3.839177e+000 1.305825e+000 1.863926e+000 5.570920e-002 3.928854e-002 1.742269e-001 6.550433e-002 3.522287e-001 2.685059e-001 5.636289e-001 4.742759e-001 4.366710e-001 5.895748e-001 9.873828e-001 6.035089e-001 5.337597e-001 6.928895e-003
<GCONST> 9.326038e+001
<STATE> 3
<MEAN> 39
 6.452128e+000 -3.740677e+000 -1.073418e+001 -2.240950e+001 6.511767e+000 -8.817222e+000 1.456063e+000 -8.049641e+000 5.694572e+000 6.154716e+000 -1.186651e+001 5.162194e+000 1.846722e+001 8.383170e-001 8.549811e-001 -6.032209e-001 2.719730e-001 1.203928e-001 6.647182e-001 2.589140e-001 9.879574e-001 5.165462e-002 1.282034e+000 -2.447992e-002 4.866821e-002 -1.394402e-002 -5.021943e-002 1.600811e-002 8.912175e-003 2.614418e-002 -1.616060e-002 -1.174847e-001 -5.517057e-002 4.662989e-002 -2.990881e-001 -3.990127e-001 8.389241e-002 -1.284152e-001 9.178880e-003
<VARIANCE> 39
 3.761243e+001 6.985957e+001 3.096612e+001 2.813244e+001 1.757940e+001 7.924564e+001 2.265861e+001 4.435852e+001 8.937965e+001 5.237222e+001 2.821981e+001 2.487389e+001 4.542442e-001 7.799966e-001 2.102873e+000 4.515903e-001 3.330343e+000 2.406044e+000 2.927864e+000 3.823251e+000 2.190601e+000 7.432668e+000 4.185301e+000 2.891575e+000 2.239434e+000 3.152538e-002 1.598284e-001 5.535131e-001 1.128881e-001 6.525452e-001 6.226709e-001 4.527995e-001 5.601423e-001 3.699942e-001 1.558738e+000 1.062714e+000 5.981855e-001 4.708116e-001 8.491550e-003
<GCONST> 1.081136e+002
<STATE> 4
<MEAN> 39
 6.399537e+000 -3.397184e+000 -1.353409e+001 -2.372197e+001 4.238866e+000 -1.415185e+001 3.284786e+000 1.137551e-001 6.276197e-001 3.795470e+000 -6.640456e+000 8.462256e-001 1.891269e+001 -4.560945e-002 9.814489e-001 -1.270938e-001 2.220581e-001 -9.243764e-001 -1.061580e-001 2.382999e-001 6.001899e-001 -2.833036e+000 -2.720683e+000 1.102629e+000 -4.696774e-001 -9.924319e-002 -2.757071e-001 3.012373e-001 1.194291e-001 -2.427260e-002 -2.075800e-001 1.057217e-001 -1.153340e-001 -3.462425e-001 2.114236e-001 -3.617622e-001 1.356395e-001 1.539705e-001 -5.208975e-002
<VARIANCE> 39
 3.516659e+001 1.180229e+002 4.921514e+001 2.840104e+001 2.365587e+001 1.325149e+002 4.575520e+001 7.629559e+001 1.186589e+002 1.682145e+002 9.517599e+000 1.718042e+001 5.161316e-001 1.001148e+000 2.241158e+000 6.740752e-001 2.589431e+000 4.320693e+000 1.370001e+000 3.440350e+000 3.181686e+000 7.203580e+000 5.728886e+000 4.958424e+000 5.524322e-001 2.518329e-002 1.072720e-001 2.710879e-001 4.216416e-001 7.528091e-001 1.195208e+000 2.236386e-001 1.776633e-001 1.775676e-001 3.233162e+000 2.473861e+000 6.910663e-001 2.334762e-001 5.526781e-003
<GCONST> 1.099746e+002
~t "T_w^"
<ENDHMM>
~h "b-aa+n^"
<BEGINHMM>
<NUMSTATES> 5
<STATE> 2
<MEAN> 39
 -6.582787e+000 -8.301435e+000 -7.177451e+000 -1.327053e+001 -3.822796e+000 -8.840025e+000 7.051690e+000 -1.403758e+000 1.408831e+000 -1.189804e+001 -1.064141e+000 3.703847e+000 1.698564e+001 -1.106668e-001 6.119637e-001 4.651355e-001 -3.524030e-001 -9.189151e-001 7.516234e-002 -1.829734e-001 6.708741e-002 -5.964444e-001 -2.782098e-001 -7.675722e-001 2.109504e-001 5.000375e-002 2.583733e-001 -2.078783e-002 6.415967e-001 3.496141e-001 3.128296e-001 -7.868061e-001 -1.114312e-001 1.924357e-001 4.521672e-002 -2.554092e-001 1.937094e-001 9.258506e-002 1.114208e-001
<VARIANCE> 39
 4.810086e+001 1.451743e+002 1.418525e+002 1.752500e+002 6.225875e+001 1.380473e+002 6.011426e+000 8.698288e+001 2.432668e+001 1.257542e+002 1.392796e+002 3.820279e+001 6.814310e+000 5.100468e-001 5.986325e-001 1.772105e+000 2.392424e-001 2.650756e-001 9.737147e+000 4.043852e+000 4.817925e-001 2.700567e+000 1.143865e+000 1.681001e+000 1.006368e+000 1.921700e-002 1.724087e-002 7.788078e-002 1.037713e+000 2.962322e-001 1.341262e-001 5.379311e-001 3.657823e-001 3.817015e-001 1.345288e-001 4.689198e-001 3.851568e-001 6.869197e-001 9.843167e-003
<GCONST> 1.006600e+002
<STATE> 3
<MEAN> 39
 -5.817714e+000 -7.997416e+000 -3.179479e+000 -1.544945e+001 -3.629680e+000 -1.225623e+001 5.368355e+000 -3.454314e+000 -1.800492e+000 -1.654652e+001 -6.170156e+000 3.409230e+000 1.745007e+001 9.637593e-002 9.483052e-001 1.249966e+000 -4.435365e-001 -2.375688e-001 -6.725072e-001 -1.108460e-001 8.848366e-001 -3.519747e-001 -6.677384e-001 -4.113204e-001 -2.700464e-001 1.258784e-001 6.882912e-002 -1.383249e-001 -1.782926e-001 2.795935e-001 3.067098e-001 -3.976776e-001 2.754039e-001 4.062928e-002 2.379658e-001 1.778624e-001 4.717089e-001 -1.893980e-001 2.596114e-002
<VARIANCE> 39
 4.458532e+001 1.116709e+002 2.019748e+002 1.798435e+002 5.252187e+001 2.090025e+002 6.753194e+000 8.986168e+001 3.126088e+001 1.649066e+002 1.417048e+002 2.565553e+001 4.344828e+000 2.361958e-001 3.593389e-001 3.610778e+000 8.872393e-001 3.502659e-001 7.692778e+000 2.744877e+000 1.904349e+000 2.995537e+000 1.554304e+000 1.955186e+000 2.103461e+000 4.904644e-002 2.159477e-001 7.116695e-002 9.713275e-001 3.760271e-001 3.637075e-001 1.226735e+000 6.868762e-001 4.517488e-001 2.567640e-001 1.284345e-001 9.541912e-002 1.296118e-001 3.104990e-003
<GCONST> 1.051582e+002
<STATE> 4
<MEAN> 39
 -5.217321e+000 -5.212604e+000 -2.730558e+000 -1.325520e+001 -3.786737e+000 -8.429442e+000 6.390556e+000 7.035289e-001 -3.691162e+000 -1.419272e+001 -3.424605e+000 2.199062e+000 1.722409e+001 2.730126e-001 5.744794e-001 2.170476e-001 3.286864e-001 2.574562e-001 -4.689721e-001 3.063997e-001 3.009073e-001 -8.914983e-002 -1.936975e-002 7.456890e-001 -7.332469e-001 7.992290e-002 -2.238328e-001 -5.829933e-001 -3.844042e-001 1.953202e-001 3.997315e-001 -4.787980e-001 6.642150e-001 -7.050540e-001 3.621645e-001 3.856410e-001 1.308785e-001 -9.141650e-002 4.379043e-002
<VARIANCE> 39
 5.506851e+001 1.477384e+002 1.946622e+002 2.383529e+002 7.587990e+001 3.033521e+002 1.788860e+001 7.727063e+001 5.191671e+001 2.245092e+002 1.775136e+002 5.421682e+001 4.785758e+000 1.304512e-001 4.396977e-001 3.147706e+000 2.014410e+000 1.954717e+000 2.829917e-001 1.874680e+000 2.228317e+000 1.059439e+000 2.053757e+000 1.032368e+000 1.376092e+000 3.907255e-002 7.514500e-001 2.851635e-001 9.806281e-001 2.191715e-001 9.315678e-001 1.824227e+000 8.317211e-001 5.868846e-001 1.129634e+000 1.995589e-001 2.576190e-001 1.507364e-001 4.073917e-003
<GCONST> 1.130091e+002
~t "T_aa"
<ENDHMM>
~h "@@-n^+d"
<BEGINHMM>
<NUMSTATES> 5
<STATE> 2
<MEAN> 39
 -7.652139e+000 -1.314984e+001 -1.563267e+001 -1.420623e+001 2.540481e+001 -3.716906e+000 -1.159912e+001 7.410786e-002 7.272699e+000 -9.677016e+000 8.643417e-001 7.254012e-001 1.771804e+001 -3.267226e-001 1.982305e-001 5.633975e-001 -1.633989e+000 -4.531808e-001 -7.459516e-002 -8.807924e-001 -1.587895e+000 -8.216817e-001 -2.280610e+000 6.454508e-001 -9.911520e-001 4.141535e-001 1.323435e-001 -1.080866e-001 6.510060e-002 -1.284129e-002 -8.857729e-002 -3.107542e-001 2.164044e-001 -2.348708e-001 -4.672987e-001 2.424090e-001 -6.901702e-001 9.492860e-002 3.808245e-002
<VARIANCE> 39
 3.029499e+001 1.278265e+001 1.037414e+002 9.296796e+001 1.344547e+002 8.117251e+001 1.280374e+002 1.157096e+002 1.185627e+002 1.011504e+002 4.945642e+001 5.428942e+001 2.581679e+000 4.201352e+000 1.240701e+000 2.350912e+000 5.287152e+000 4.792500e+000 4.110999e+000 1.271485e+001 9.248235e+000 1.157280e+001 5.593332e+000 9.406571e+000 5.195788e+000 1.996047e-001 7.796081e-001 1.279925e-001 4.976089e-001 9.921436e-001 9.726245e-001 5.856542e-001 1.639176e+000 1.299106e+000 2.416693e+000 8.894091e-001 8.734137e-001 8.929611e-001 2.389744e-002
<GCONST> 1.362799e+002
<STATE> 3
<MEAN> 39
 -4.103764e+000 -1.294958e+001 -3.241064e+000 -2.550125e+001 4.715895e+000 -1.000377e+001 4.293899e+000 -1.467254e+001 -2.419986e+000 -6.088607e+000 -1.115260e+001 -4.079003e+000 1.900906e+001 -2.005797e-001 2.715309e-001 4.267895e-001 -1.251557e-001 -7.818897e-001 -6.132308e-001 9.948372e-001 -7.877109e-001 -7.170469e-001 4.011130e-001 -1.066589e+000 -7.140472e-001 1.654112e-002 2.105814e-001 3.503792e-001 2.460662e-002 6.623123e-001 1.222353e-001 -5.213360e-002 -1.006458e+000 4.347627e-001 -2.527426e-002 2.445494e-001 7.553940e-002 2.577409e-001 -1.776900e-001
<VARIANCE> 39
 6.326883e+000 7.365314e+000 1.721996e+002 5.252019e+001 2.531994e+002 5.542670e+001 1.881840e+002 1.787532e+002 2.803074e+001 9.678158e+001 5.619310e+001 6.493808e+001 3.966482e+000 6.150931e-001 6.120908e-001 3.221589e-001 3.207530e+000 1.123178e+000 1.485410e+000 3.122365e+000 4.511572e+000 2.827285e+000 2.146167e+000 6.053453e-001 2.119820e+000 1.143519e-001 1.109794e-001 1.244021e-001 4.115070e-001 5.076236e-001 5.891258e-001 3.615559e-001 7.529746e-001 6.227297e-001 7.981484e-001 6.275405e-001 3.751516e-001 9.446731e-001 7.851346e-003
<GCONST> 1.094559e+002
<STATE> 4
<MEAN> 39
 -4.472298e+000 -1.434252e+001 -6.811106e+000 -1.802762e+001 8.374586e+000 -1.681685e+001 1.585039e+000 -9.719556e+000 2.059680e+000 -7.744403e+000 -2.701371e+000 1.978598e+000 1.899427e+001 8.361682e-002 1.751303e-001 4.257370e-001 -6.537025e-002 -1.102420e+000 -2.932223e-002 3.382056e-001 -3.743839e-001 1.927410e-001 5.171760e-001 9.210739e-002 5.511624e-003 -9.564131e-002 1.545724e-002 4.268574e-002 5.910571e-002 -2.840224e-002 -4.985981e-002 8.320929e-002 -6.586718e-002 -6.761073e-002 -7.522862e-002 4.120507e-002 5.475415e-002 -4.270278e-002 4.299406e-003
<VARIANCE> 39
 1.375321e+001 1.768333e+001 5.369129e+001 3.780241e+001 1.837520e+002 5.257307e+001 5.132031e+001 6.252205e+001 4.941165e+001 1.079399e+002 2.900542e+001 9.813008e+001 2.526087e+000 8.216054e-001 1.593449e+000 1.668849e+000 2.054719e+000 3.354949e+000 3.261802e+000 3.610637e+000 1.832838e+000 4.598470e+000 5.936054e+000 1.402331e+000 3.829205e+000 9.577095e-002 9.001118e-002 2.870872e-001 2.760920e-001 2.870325e-001 5.294524e-001 5.761270e-001 6.474898e-001 2.812261e-001 1.059117e+000 9.053693e-001 2.635030e-001 6.470889e-001 1.212134e-002
<GCONST> 1.126190e+002
~t "T_n^"
<ENDHMM>
~h "@@-n^+f"
<BEGINHMM>
<NUMSTATES> 5
<STATE> 2
<MEAN> 39
 -3.570388e+000 -7.384358e+000 -1.107207e+001 -1.912426e+001 1.363977e+001 -6.120163e+000 -1.093644e+001 -1.641038e+001 -6.552104e+000 -4.200689e+000 -7.429150e+000 -1.869563e+000 1.702017e+001 -1.021192e+000 5.681009e-001 6.360016e-001 -3.347929e-001 -3.334148e-001 -2.298024e+000 7.599329e-001 -1.500081e-002 8.223257e-001 -2.665981e-001 7.568062e-001 6.217420e-001 6.085016e-002 3.673943e-002 4.771594e-002 2.011547e-001 8.062184e-001 -6.699600e-001 2.032533e-001 7.514867e-001 3.477145e-002 3.529823e-001 9.295080e-002 -3.183308e-001 -3.238774e-003 -8.728831e-002
<VARIANCE> 39
 4.394378e+001 2.319478e+002 1.209868e+002 2.207863e+002 2.499813e+002 4.138344e+001 1.501283e+002 5.099424e+002 1.182239e+002 6.972752e+001 1.068070e+002 1.830781e+001 1.609042e+001 2.233858e-001 3.923807e+000 2.916369e+000 7.720313e+000 1.158792e+000 2.988343e+000 1.047433e+000 3.495701e+000 5.060246e+000 2.457553e+000 3.606695e+000 1.931012e+000 1.959293e-001 3.352045e-001 3.038707e-001 2.674732e-001 1.910277e+000 2.813145e-001 3.522857e-001 9.007260e-001 5.982549e-001 1.603194e-001 9.451352e-001 2.978317e-001 2.497414e-001 3.374931e-002
<GCONST> 1.255572e+002
<STATE> 3
<MEAN> 39
 -6.217954e+000 -1.471458e+001 -7.420720e+000 -1.607068e+001 4.911493e+000 -1.287543e+001 3.412737e+000 -6.174862e+000 3.959868e+000 -9.876104e+000 -5.871821e+000 9.805098e-001 1.916016e+001 2.087348e-001 4.632176e-001 9.019158e-001 7.212061e-001 -2.487664e+000 -9.480276e-001 2.257913e+000 3.020236e-001 -2.196239e-001 -1.533779e-002 -5.687631e-002 1.053050e+000 -1.214402e-001 5.349939e-001 2.568499e-001 2.730727e-001 -3.657021e-001 1.409172e-001 3.624458e-001 -7.865282e-001 -4.837469e-001 -6.580217e-001 6.582257e-001 4.143800e-003 -3.237924e-001 -2.401662e-002
<VARIANCE> 39
 6.847039e+001 2.480274e+002 6.660335e+001 4.648961e+001 1.991152e+002 8.320987e+001 2.144305e+002 2.944887e+002 1.566707e+002 6.399150e+001 6.819332e+001 2.553912e+001 1.654489e+001 1.231130e+000 1.681023e+000 3.616993e+000 6.190184e+000 1.871854e+000 1.938568e+000 8.849722e+000 1.956752e+000 7.285975e+000 5.609207e+000 3.713048e+000 1.447956e+000 9.554665e-002 2.879148e-001 3.496290e-001 1.835976e-001 5.999308e-001 1.078318e+000 2.958153e-001 1.595879e+000 7.371188e-001 1.438119e+000 6.477660e-001 2.716639e-001 4.097892e-001 1.213652e-002
<GCONST> 1.285660e+002
<STATE> 4
<MEAN> 39
 -4.084297e+000 -1.351375e+001 -2.342858e+000 -1.854627e+001 4.711102e+000 -1.968790e+001 5.302485e+000 -1.285343e+001 -3.480183e+000 -1.058326e+001 -7.462440e+000 4.316792e+000 1.869094e+001 9.693093e-002 6.319227e-001 1.902491e-001 -3.217536e-001 1.154945e-001 -1.140107e-001 -2.606773e-001 -8.787730e-001 -6.917148e-002 1.149696e+000 1.860390e-001 -1.973222e-001 -7.182062e-002 -5.164671e-002 -2.106534e-001 4.898813e-002 7.786382e-002 -1.519470e-001 7.592960e-002 -6.005142e-002 -2.422594e-002 3.786397e-001 2.863523e-002 -8.959434e-002 -4.679407e-001 9.458014e-002
<VARIANCE> 39
 3.093722e+001 1.154682e+002 5.416394e+001 4.503317e+001 1.235587e+002 1.153893e+002 1.546030e+002 1.906557e+002 1.025236e+002 4.977789e+001 3.658786e+001 1.157149e+001 7.965149e+000 1.677469e+000 7.085863e-001 1.420928e+000 1.825432e+000 3.500175e+000 1.325144e+000 2.613917e+000 2.898964e+000 2.632512e+000 4.333273e+000 2.331078e+000 2.183529e+000 1.158974e-001 1.972320e-001 7.311232e-002 7.320567e-001 6.513765e-001 8.594524e-001 4.977726e-002 3.046497e-001 5.638545e-001 1.501802e+000 3.757776e-001 4.004701e-001 4.150556e-001 2.397195e-003
<GCONST> 1.124740e+002
~t "T_n^"
<ENDHMM>
~h "@@-n^+l"
<BEGINHMM>
<NUMSTATES> 5
<STATE> 2
<MEAN> 39
 -9.320477e+000 -1.252707e+001 -1.069026e+001 -1.194281e+001 1.436923e+001 -6.275034e+000 -7.642806e+000 -1.090295e+001 2.686898e+000 -2.356115e+001 -7.755470e+000 -2.189183e+000 1.850756e+001 -1.300538e+000 -6.903535e-001 1.049715e+000 -3.087877e-001 -9.320988e-001 -1.175128e+000 1.288221e+000 -5.538511e-001 5.370714e-001 -1.193380e+000 1.138776e-001 1.428210e+000 4.446083e-001 3.013891e-001 1.954228e-001 -8.708105e-002 8.611092e-002 -3.676480e-001 -1.141614e-001 -7.353488e-002 1.477419e-001 -2.655742e-001 4.923826e-001 1.794418e-001 -1.095165e-001 -2.686884e-002
<VARIANCE> 39
 4.454475e+001 1.125193e+002 4.954516e+001 7.227740e+001 2.440182e+002 6.126231e+001 4.239521e+002 5.185728e+001 9.429588e+001 1.238658e+002 5.151377e+001 5.192574e+001 3.818267e+000 8.249969e+000 1.763313e+000 1.657611e+000 4.280291e+000 4.166640e+000 4.210091e+000 7.272515e+000 4.307850e+000 1.621905e+001 8.235972e+000 4.906374e+000 2.957181e+000 2.497438e-001 8.345658e-001 6.385747e-001 3.717768e-001 6.879488e-001 9.924179e-001 4.909967e-001 1.048015e+000 3.576020e-001 3.038163e+000 1.460719e+000 1.317445e+000 5.991509e-001 5.100793e-002
<GCONST> 1.383006e+002
<STATE> 3
<MEAN> 39
 -1.282937e+001 -1.848269e+001 -5.777801e+000 -1.432063e+001 3.627079e+000 -1.367223e+001 6.621161e+000 -7.044586e+000 3.779985e+000 -1.722981e+001 -7.257900e+000 2.230398e+000 2.020549e+001 -2.246221e-002 3.201759e-001 1.057140e+000 -3.602077e-001 -2.426318e+000 -1.226241e+000 7.538114e-001 3.092755e-001 -4.318495e-001 1.077595e+000 1.641273e+000 -4.688440e-001 -1.831775e-001 4.500426e-001 4.798171e-001 -4.557420e-001 -5.031714e-001 1.273443e-001 3.343568e-001 -7.935140e-001 -5.269490e-002 1.648872e-001 4.217974e-001 1.028441e-001 -7.536383e-001 -1.933955e-001
<VARIANCE> 39
 6.822604e+001 1.602149e+002 4.685248e+001 5.763460e+001 8.536382e+001 1.091567e+002 8.411269e+001 4.017928e+001 9.074451e+001 1.193743e+002 3.372705e+001 5.293378e+001 1.173758e+000 5.455002e-001 1.445180e+000 9.807328e-001 2.562325e+000 3.634327e+000 1.843257e+000 7.493186e+000 1.740085e+000 4.007144e+000 2.478873e+000 2.071355e+000 2.230136e+000 1.196789e-001 1.809397e-001 4.079564e-001 2.678573e-001 3.563038e-001 1.125030e+000 5.116447e-001 8.034568e-001 6.683922e-001 8.009276e-001 1.295656e+000 5.137681e-001 6.568440e-001 1.152973e-002
<GCONST> 1.182959e+002
<STATE> 4
<MEAN> 39
 -8.746007e+000 -2.205802e+001 -3.441213e+000 -1.240376e+001 6.124044e+000 -1.597053e+001 1.665931e+000 -4.926902e+000 -2.466949e+000 -1.354972e+001 -3.737015e+000 3.513234e-001 1.909516e+001 2.624000e-001 3.496651e-001 6.685937e-002 6.056102e-001 6.961713e-002 1.327871e-001 -4.971992e-001 -1.328284e-001 -8.458586e-002 2.832406e-001 -1.856662e-002 9.748933e-002 -1.721145e-001 3.343965e-002 1.023807e-002 -3.394382e-002 8.858091e-002 5.946307e-002 5.520984e-002 1.609669e-002 4.591168e-003 2.889701e-002 -1.753997e-002 -9.628229e-002 1.160921e-001 1.055898e-002
<VARIANCE> 39
 3.643972e+001 5.837116e+001 5.137882e+001 9.068501e+001 7.564292e+001 4.686595e+001 5.017483e+001 4.850055e+001 6.542506e+001 4.764725e+001 7.405785e+001 4.414038e+001 2.510790e+000 1.383451e+000 1.229240e+000 1.360829e+000 1.670649e+000 2.662805e+000 1.990104e+000 2.979666e+000 2.848640e+000 4.056318e+000 3.784972e+000 3.520370e+000 2.375222e+000 1.541851e-001 1.254248e-001 1.860251e-001 2.611970e-001 3.748353e-001 4.446569e-001 3.672265e-001 4.460156e-001 4.301165e-001 7.211329e-001 6.663843e-001 6.887129e-001 3.361181e-001 1.392687e-002
<GCONST> 1.129432e+002
~t "T_n^"
<ENDHMM>
~h "@@-n^+n"
<BEGINHMM>
<NUMSTATES> 5
<STATE> 2
<MEAN> 39
 -1.391547e+001 -5.155734e+000 -1.453171e+001 -1.819893e+001 3.279073e+000 -1.497131e+001 2.187902e+000 -1.244403e+001 4.496974e+000 -1.106359e+001 -5.315560e+000 -9.862277e+000 1.981734e+001 -1.195020e+000 2.150983e+000 -2.938623e+000 9.688888e-001 -1.470824e+000 1.260992e+000 1.010388e+000 1.701979e-001 1.994819e+000 -2.587925e-002 1.465163e+000 -1.789180e+000 4.076779e-002 3.741004e-001 -2.327923e-001 1.496324e-002 -2.701880e-001 3.931030e-001 -2.158612e-002 -6.742920e-001 -2.365178e-001 -1.660291e-001 6.175209e-003 -2.490252e-001 4.009164e-001 9.082048e-002
<VARIANCE> 39
 2.055546e+001 2.205176e+001 3.135630e+001 7.580995e+000 5.631069e+001 2.013873e+001 7.310905e+001 1.347938e+001 5.502584e+001 4.704338e+001 2.780152e+001 1.438219e+001 8.980355e-001 6.415576e+000 6.363828e+000 2.030096e+000 5.387044e+000 1.926369e+000 2.196888e+000 4.652050e+000 2.775616e+000 8.475186e+000 4.753290e+000 2.522672e+000 1.217711e+000 3.023720e-001 2.622470e-001 5.302883e-001 4.637516e-001 2.403561e-001 5.767074e-001 6.244206e-001 7.572312e-001 6.988462e-001 1.944890e+000 1.517341e+000 6.811532e-001 3.334748e-001 1.435580e-002
<GCONST> 1.141901e+002
<STATE> 3
<MEAN> 39
