~o  
<STREAMINFO> 1 39  
<VECSIZE> 39<NULLD><MFCC_E_D_A><DIAGC>  
~h "uu"  
<BEGINHMM>  
<NUMSTATES> 5  
<STATE> 2  
<MEAN> 39  
 -7.090371e+000 -1.085877e+001 -7.320781e+000 -1.561413e+001 1.511577e+000 -5.580400e+000 1.317853e-001 -7.017353e+000 2.880223e+000 -6.229183e+000 -4.892569e+000 -1.874573e+000 1.764912e+001 -9.015313e-004 -1.978527e-003 -1.689612e-003 2.359149e-003 2.490710e-003 3.540317e-003 2.631013e-003 1.425448e-003 -6.362345e-004 9.337462e-004 -1.707367e-004 -2.076458e-003 -5.834095e-004 -2.532097e-004 3.289929e-004 3.791402e-004 5.394081e-004 7.547972e-005 4.883115e-004 1.805700e-004 -7.472878e-004 -7.309223e-004 -1.903620e-004 -1.562283e-004 1.791899e-004 -5.898491e-005  
<VARIANCE> 39  
 9.194190e+001 1.825427e+002 1.892352e+002 2.098743e+002 1.929334e+002 2.378330e+002 1.324284e+002 1.359887e+002 1.194855e+002 1.048530e+002 1.039313e+002 7.562720e+001 1.338993e+001 2.633843e+000 3.069566e+000 3.764181e+000 5.139837e+000 4.695316e+000 5.781982e+000 5.567688e+000 5.138504e+000 4.942906e+000 4.776853e+000 4.700289e+000 3.458348e+000 2.893153e-001 3.687597e-001 3.923995e-001 5.573512e-001 7.183904e-001 7.590158e-001 8.997423e-001 8.954960e-001 8.635501e-001 8.579813e-001 8.451956e-001 8.071050e-001 6.101217e-001 3.564244e-002  
<GCONST> 1.420939e+002  
<STATE> 3  
<MEAN> 39  
 -7.090371e+000 -1.085877e+001 -7.320781e+000 -1.561413e+001 1.511577e+000 -5.580400e+000 1.317853e-001 -7.017353e+000 2.880223e+000 -6.229183e+000 -4.892569e+000 -1.874573e+000 1.764912e+001 -9.015313e-004 -1.978527e-003 -1.689612e-003 2.359149e-003 2.490710e-003 3.540317e-003 2.631013e-003 1.425448e-003 -6.362345e-004 9.337462e-004 -1.707367e-004 -2.076458e-003 -5.834095e-004 -2.532097e-004 3.289929e-004 3.791402e-004 5.394081e-004 7.547972e-005 4.883115e-004 1.805700e-004 -7.472878e-004 -7.309223e-004 -1.903620e-004 -1.562283e-004 1.791899e-004 -5.898491e-005  
<VARIANCE> 39  
 9.194190e+001 1.825427e+002 1.892352e+002 2.098743e+002 1.929334e+002 2.378330e+002 1.324284e+002 1.359887e+002 1.194855e+002 1.048530e+002 1.039313e+002 7.562720e+001 1.338993e+001 2.633843e+000 3.069566e+000 3.764181e+000 5.139837e+000 4.695316e+000 5.781982e+000 5.567688e+000 5.138504e+000 4.942906e+000 4.776853e+000 4.700289e+000 3.458348e+000 2.893153e-001 3.687597e-001 3.923995e-001 5.573512e-001 7.183904e-001 7.590158e-001 8.997423e-001 8.954960e-001 8.635501e-001 8.579813e-001 8.451956e-001 8.071050e-001 6.101217e-001 3.564244e-002  
<GCONST> 1.420939e+002  
<STATE> 4  
<MEAN> 39  
 -7.090371e+000 -1.085877e+001 -7.320781e+000 -1.561413e+001 1.511577e+000 -5.580400e+000 1.317853e-001 -7.017353e+000 2.880223e+000 -6.229183e+000 -4.892569e+000 -1.874573e+000 1.764912e+001 -9.015313e-004 -1.978527e-003 -1.689612e-003 2.359149e-003 2.490710e-003 3.540317e-003 2.631013e-003 1.425448e-003 -6.362345e-004 9.337462e-004 -1.707367e-004 -2.076458e-003 -5.834095e-004 -2.532097e-004 3.289929e-004 3.791402e-004 5.394081e-004 7.547972e-005 4.883115e-004 1.805700e-004 -7.472878e-004 -7.309223e-004 -1.903620e-004 -1.562283e-004 1.791899e-004 -5.898491e-005  
<VARIANCE> 39  
 9.194190e+001 1.825427e+002 1.892352e+002 2.098743e+002 1.929334e+002 2.378330e+002 1.324284e+002 1.359887e+002 1.194855e+002 1.048530e+002 1.039313e+002 7.562720e+001 1.338993e+001 2.633843e+000 3.069566e+000 3.764181e+000 5.139837e+000 4.695316e+000 5.781982e+000 5.567688e+000 5.138504e+000 4.942906e+000 4.776853e+000 4.700289e+000 3.458348e+000 2.893153e-001 3.687597e-001 3.923995e-001 5.573512e-001 7.183904e-001 7.590158e-001 8.997423e-001 8.954960e-001 8.635501e-001 8.579813e-001 8.451956e-001 8.071050e-001 6.101217e-001 3.564244e-002  
<GCONST> 1.420939e+002  
<TRANSP> 5  
 0.000000e+000 1.000000e+000 0.000000e+000 0.000000e+000 0.000000e+000  
 0.000000e+000 6.000000e-001 4.000000e-001 0.000000e+000 0.000000e+000  
 0.000000e+000 0.000000e+000 6.000000e-001 4.000000e-001 0.000000e+000  
 0.000000e+000 0.000000e+000 0.000000e+000 6.000000e-001 4.000000e-001  
 0.000000e+000 0.000000e+000 0.000000e+000 0.000000e+000 0.000000e+000  
<ENDHMM>  
