~o
<STREAMINFO> 1 39
<VECSIZE> 39<NULLD><MFCC_E_D_A><DIAGC>
~t "T_ng^"
<TRANSP> 5
 0.000000e+000 1.000000e+000 0.000000e+000 0.000000e+000 0.000000e+000
 0.000000e+000 8.156918e-001 1.843082e-001 0.000000e+000 0.000000e+000
 0.000000e+000 0.000000e+000 5.173787e-001 4.826213e-001 0.000000e+000
 0.000000e+000 0.000000e+000 0.000000e+000 6.970277e-001 3.029723e-001
 0.000000e+000 0.000000e+000 0.000000e+000 0.000000e+000 0.000000e+000
~t "T_h"
<TRANSP> 5
 0.000000e+000 1.000000e+000 0.000000e+000 0.000000e+000 0.000000e+000
 0.000000e+000 6.472620e-001 3.527380e-001 0.000000e+000 0.000000e+000
 0.000000e+000 0.000000e+000 5.904657e-001 4.095343e-001 0.000000e+000
 0.000000e+000 0.000000e+000 0.000000e+000 6.443368e-001 3.556632e-001
 0.000000e+000 0.000000e+000 0.000000e+000 0.000000e+000 0.000000e+000
~t "T_k"
<TRANSP> 5
 0.000000e+000 1.000000e+000 0.000000e+000 0.000000e+000 0.000000e+000
 0.000000e+000 8.978834e-001 1.021166e-001 0.000000e+000 0.000000e+000
 0.000000e+000 0.000000e+000 7.800372e-001 2.199628e-001 0.000000e+000
 0.000000e+000 0.000000e+000 0.000000e+000 4.991051e-001 5.008948e-001
 0.000000e+000 0.000000e+000 0.000000e+000 0.000000e+000 0.000000e+000
~t "T_n"
<TRANSP> 5
 0.000000e+000 1.000000e+000 0.000000e+000 0.000000e+000 0.000000e+000
 0.000000e+000 4.467682e-001 5.532318e-001 0.000000e+000 0.000000e+000
 0.000000e+000 0.000000e+000 3.117442e-001 6.882558e-001 0.000000e+000
 0.000000e+000 0.000000e+000 0.000000e+000 5.501450e-001 4.498549e-001
 0.000000e+000 0.000000e+000 0.000000e+000 0.000000e+000 0.000000e+000
~t "T_s"
<TRANSP> 5
 0.000000e+000 1.000000e+000 0.000000e+000 0.000000e+000 0.000000e+000
 0.000000e+000 8.442161e-001 1.557839e-001 0.000000e+000 0.000000e+000
 0.000000e+000 0.000000e+000 3.777741e-001 6.222260e-001 0.000000e+000
 0.000000e+000 0.000000e+000 0.000000e+000 5.705147e-001 4.294853e-001
 0.000000e+000 0.000000e+000 0.000000e+000 0.000000e+000 0.000000e+000
~t "T_v"
<TRANSP> 5
 0.000000e+000 1.000000e+000 0.000000e+000 0.000000e+000 0.000000e+000
 0.000000e+000 5.640607e-001 4.359393e-001 0.000000e+000 0.000000e+000
 0.000000e+000 0.000000e+000 7.071145e-001 2.928855e-001 0.000000e+000
 0.000000e+000 0.000000e+000 0.000000e+000 7.726619e-001 2.273381e-001
 0.000000e+000 0.000000e+000 0.000000e+000 0.000000e+000 0.000000e+000
~t "T_@@"
<TRANSP> 5
 0.000000e+000 1.000000e+000 0.000000e+000 0.000000e+000 0.000000e+000
 0.000000e+000 8.102380e-001 1.897620e-001 0.000000e+000 0.000000e+000
 0.000000e+000 0.000000e+000 5.794852e-001 4.205148e-001 0.000000e+000
 0.000000e+000 0.000000e+000 0.000000e+000 6.538141e-001 3.461859e-001
 0.000000e+000 0.000000e+000 0.000000e+000 0.000000e+000 0.000000e+000
~t "T_aa"
<TRANSP> 5
 0.000000e+000 1.000000e+000 0.000000e+000 0.000000e+000 0.000000e+000
 0.000000e+000 7.780653e-001 2.219347e-001 0.000000e+000 0.000000e+000
 0.000000e+000 0.000000e+000 6.203713e-001 3.796287e-001 0.000000e+000
 0.000000e+000 0.000000e+000 0.000000e+000 6.669815e-001 3.330186e-001
 0.000000e+000 0.000000e+000 0.000000e+000 0.000000e+000 0.000000e+000
~t "T_k^"
<TRANSP> 5
 0.000000e+000 1.000000e+000 0.000000e+000 0.000000e+000 0.000000e+000
 0.000000e+000 4.026167e-001 5.973833e-001 0.000000e+000 0.000000e+000
 0.000000e+000 0.000000e+000 2.720957e-001 7.279043e-001 0.000000e+000
 0.000000e+000 0.000000e+000 0.000000e+000 4.535263e-001 5.464738e-001
 0.000000e+000 0.000000e+000 0.000000e+000 0.000000e+000 0.000000e+000
~t "T_m^"
<TRANSP> 5
 0.000000e+000 1.000000e+000 0.000000e+000 0.000000e+000 0.000000e+000
 0.000000e+000 6.690490e-001 3.309510e-001 0.000000e+000 0.000000e+000
 0.000000e+000 0.000000e+000 5.679982e-001 4.320017e-001 0.000000e+000
 0.000000e+000 0.000000e+000 0.000000e+000 5.401908e-001 4.598092e-001
 0.000000e+000 0.000000e+000 0.000000e+000 0.000000e+000 0.000000e+000
~t "T_n^"
<TRANSP> 5
 0.000000e+000 1.000000e+000 0.000000e+000 0.000000e+000 0.000000e+000
 0.000000e+000 6.133761e-001 3.866239e-001 0.000000e+000 0.000000e+000
 0.000000e+000 0.000000e+000 5.144583e-001 4.855417e-001 0.000000e+000
 0.000000e+000 0.000000e+000 0.000000e+000 8.155151e-001 1.844849e-001
 0.000000e+000 0.000000e+000 0.000000e+000 0.000000e+000 0.000000e+000
~t "T_t^"
<TRANSP> 5
 0.000000e+000 1.000000e+000 0.000000e+000 0.000000e+000 0.000000e+000
 0.000000e+000 8.835454e-001 1.164546e-001 0.000000e+000 0.000000e+000
 0.000000e+000 0.000000e+000 9.362034e-001 6.379656e-002 0.000000e+000
 0.000000e+000 0.000000e+000 0.000000e+000 9.100271e-001 8.997284e-002
 0.000000e+000 0.000000e+000 0.000000e+000 0.000000e+000 0.000000e+000
~t "T_uu"
<TRANSP> 5
 0.000000e+000 1.000000e+000 0.000000e+000 0.000000e+000 0.000000e+000
 0.000000e+000 6.566235e-001 3.433765e-001 0.000000e+000 0.000000e+000
 0.000000e+000 0.000000e+000 7.403159e-001 2.596841e-001 0.000000e+000
 0.000000e+000 0.000000e+000 0.000000e+000 6.316019e-001 3.683981e-001
 0.000000e+000 0.000000e+000 0.000000e+000 0.000000e+000 0.000000e+000
~t "T_w^"
<TRANSP> 5
 0.000000e+000 1.000000e+000 0.000000e+000 0.000000e+000 0.000000e+000
 0.000000e+000 8.329285e-001 1.670715e-001 0.000000e+000 0.000000e+000
 0.000000e+000 0.000000e+000 7.774133e-001 2.225867e-001 0.000000e+000
 0.000000e+000 0.000000e+000 0.000000e+000 7.822746e-001 2.177255e-001
 0.000000e+000 0.000000e+000 0.000000e+000 0.000000e+000 0.000000e+000
~h "uu-k+oo"
<BEGINHMM>
<NUMSTATES> 5
<STATE> 2
<MEAN> 39
 2.241656e+000 -1.577383e+001 7.304055e+000 -1.125679e+001 -1.550353e+001 -8.738092e+000 -1.559366e+000 -4.791656e+000 -7.235884e+000 4.211797e-001 -1.769080e+001 -1.325231e+001 1.705420e+001 3.916137e-001 7.430786e-001 -6.499242e-002 5.468183e-001 -2.809308e-001 1.036331e+000 1.851075e-001 -1.193037e-001 -7.293389e-001 7.128292e-001 -3.099721e-001 -6.990721e-001 -1.476447e-001 -2.730522e-002 -3.061519e-002 -1.526096e-001 9.684412e-003 -6.299298e-002 -8.165588e-002 -1.021062e-001 -1.600771e-001 -2.728114e-002 -6.034806e-002 3.151172e-002 -2.247854e-002 1.260625e-002
<VARIANCE> 39
 1.422407e+001 6.204568e+001 8.103115e+001 2.936007e+001 8.168702e+000 4.573524e+001 5.003851e+001 4.252645e+001 6.199989e+001 3.026559e+001 8.506797e+001 5.479739e+001 5.722320e+000 2.725058e-001 6.150109e-001 1.862680e+000 1.069846e+000 6.788606e-001 3.694497e+000 1.981843e+000 1.802746e+000 3.313000e+000 2.937619e+000 3.475953e+000 3.842576e+000 2.175011e-002 2.824531e-002 9.199151e-002 4.279487e-001 1.588674e-001 1.811672e-001 3.818085e-001 5.379955e-001 4.342112e-001 4.823469e-001 7.632742e-001 4.119688e-001 7.734422e-001 4.335993e-003
<GCONST> 9.933431e+001
<STATE> 3
<MEAN> 39
 3.229606e+000 -4.025805e+000 -4.484900e+000 -6.164700e+000 -1.669334e+001 -6.461130e+000 -4.877162e+000 -9.804617e-001 -2.107317e+000 2.617472e+000 -7.503930e+000 -8.094790e+000 1.417898e+001 1.541911e-001 1.065295e+000 -8.113123e-002 2.111930e-001 -3.317482e-001 1.165478e+000 -6.533543e-001 -1.322661e+000 -9.879391e-001 -3.379453e-001 -5.837622e-001 -1.263932e+000 -1.547263e-001 -5.138156e-002 -2.600870e-002 1.052963e-001 5.983933e-001 -6.547893e-003 -5.296938e-001 -4.268590e-001 -2.025627e-001 -5.184429e-002 -2.797728e-001 -1.475490e-001 -2.259157e-001 -2.031104e-002
<VARIANCE> 39
 4.880140e+001 9.085549e+001 1.087206e+002 4.439756e+001 2.017963e+001 4.295714e+001 1.260526e+002 6.086900e+001 1.278768e+002 2.519861e+001 1.380006e+002 6.460489e+001 1.055814e+001 1.170874e-001 7.364426e-001 1.470520e+000 2.227274e+000 1.173020e+000 1.232605e+000 9.491687e-001 5.839518e-001 4.516845e+000 2.930564e+000 1.089214e+000 1.207271e+000 2.105184e-002 3.613669e-002 2.511036e-001 3.018391e-001 5.516785e-001 2.026409e-001 3.907604e-001 4.769993e-001 3.958716e-001 8.109925e-001 2.289293e-001 1.778015e-001 5.104209e-001 3.844972e-003
<GCONST> 1.009648e+002
<STATE> 4
<MEAN> 39
 -2.051383e+000 2.986792e+000 -4.247349e+000 3.163539e+000 -1.603791e+001 -1.361761e+001 -1.403306e+001 -3.619072e+000 -5.471392e+000 1.711354e+000 1.220940e+000 -3.876134e+000 1.103187e+001 -9.084699e-001 3.510687e-001 3.099829e-001 9.830872e-001 -2.122281e-001 -6.297698e-001 -5.232268e-001 1.240994e-001 2.560639e-002 1.407050e-001 2.325540e-001 -8.092684e-002 -3.324131e-001 -5.487966e-002 -8.633176e-002 -2.053075e-001 -1.234059e-001 3.990945e-002 -5.805234e-002 -8.655929e-002 1.498682e-001 2.050468e-001 -2.067748e-002 2.983664e-002 6.670187e-002 8.640852e-003
<VARIANCE> 39
 4.559441e+001 4.300557e+001 3.724230e+001 4.210755e+001 1.538885e+001 5.786171e+001 6.949568e+001 3.035275e+001 5.308432e+001 2.229840e+001 9.276626e+001 5.150939e+001 8.916421e+000 6.818209e-001 4.659120e-001 1.918995e+000 3.616797e+000 2.301439e+000 1.324951e+000 2.063643e+000 1.741885e+000 2.871515e+000 3.528781e+000 1.734695e+000 3.613450e+000 6.955426e-002 1.121735e-001 1.251931e-001 3.509657e-001 5.414654e-001 3.613075e-001 4.542525e-001 3.357814e-001 3.968851e-001 7.014046e-001 9.674384e-001 3.800730e-001 9.067817e-001 7.650608e-003
<GCONST> 1.073939e+002
~t "T_k"
<ENDHMM>
~h "s-a+j^"
<BEGINHMM>
<NUMSTATES> 5
<STATE> 2
<MEAN> 39
 -1.773969e+000 -2.113311e+001 -1.561912e+001 1.966475e+000 1.518816e+001 -8.027760e+000 -9.890007e-002 7.177843e+000 1.894852e+000 2.111309e+000 -3.636935e+000 2.459010e+000 1.747031e+001 -3.340542e-002 1.815535e-001 -1.056261e+000 -4.473371e-001 -3.737937e-001 -2.129863e-001 -8.287175e-001 -7.518862e-001 -1.219422e-001 -1.583346e+000 -2.824869e-002 -5.562414e-001 4.894412e-002 -9.982762e-002 -1.621568e-002 1.827734e-001 -2.772298e-001 1.230104e-001 2.661042e-001 -2.504080e-003 -5.086201e-001 -1.011191e-001 -5.052149e-001 -1.297467e-001 -6.598913e-002 5.734533e-002
<VARIANCE> 39
 2.101937e+001 4.788321e+001 1.420118e+002 1.617363e+002 1.224856e+002 9.531357e+001 5.611866e+001 1.346732e+002 4.775740e+001 2.151992e+002 1.239609e+002 2.421648e+001 3.888279e-001 2.576613e+000 2.146950e+000 1.788854e+000 4.946466e+000 8.534103e+000 9.654053e+000 6.567310e+000 1.396719e+001 8.484717e+000 1.867780e+001 1.539126e+001 2.464024e+000 8.336469e-002 4.728277e-001 2.981196e-001 3.289008e-001 1.046474e+000 1.566179e+000 1.988967e+000 1.323867e+000 1.310201e+000 1.600533e+000 3.808673e+000 3.077871e+000 5.295228e-001 1.465637e-002
<GCONST> 1.390009e+002
<STATE> 3
<MEAN> 39
 -3.804955e+000 -1.463040e+001 -8.756150e+000 -1.429411e+001 7.700101e+000 -9.357558e+000 -7.383393e+000 -1.230363e+001 1.510854e+000 -1.703584e+001 -8.806581e+000 1.369445e+000 1.874509e+001 2.411332e-001 -1.167618e+000 9.483148e-001 -1.596941e+000 -7.893685e-001 3.069478e-001 -5.339040e-001 -2.005033e-001 -1.320080e+000 -2.564683e+000 2.488242e-001 -3.026552e-001 7.114174e-001 -6.402770e-001 -2.497072e-001 3.760656e-001 1.476586e-003 6.771837e-001 2.378339e-001 9.036183e-001 3.376921e-001 6.081629e-001 5.034695e-001 8.074334e-001 -2.345879e-001 7.580725e-002
<VARIANCE> 39
 1.841366e+001 8.672342e+001 2.443319e+002 1.653851e+002 2.273944e+002 1.865288e+002 1.567411e+002 1.750771e+002 5.746078e+001 9.454811e+001 6.608187e+001 2.662691e+001 1.823648e+000 2.540956e+000 1.098501e+000 3.364295e+000 3.095827e+000 4.884835e+000 3.901787e+000 2.299939e+001 1.425464e+001 2.644874e+000 9.635843e+000 7.606377e+000 2.929504e+000 1.530292e-001 1.620792e-001 4.185363e-001 4.035055e-001 3.501003e-001 2.629620e-001 7.249012e-001 1.754150e+000 4.825157e+000 3.883885e-001 1.817809e+000 5.499387e-001 1.247659e-001 1.592140e-002
<GCONST> 1.324466e+002
<STATE> 4
<MEAN> 39
 -5.795730e+000 -1.840510e+001 -6.491737e-001 -1.873310e+001 3.057159e+000 -6.011570e+000 5.240843e-001 -7.060013e+000 2.530515e-001 -1.431781e+001 -8.710993e+000 -2.664725e+000 2.031982e+001 -1.064497e+000 -8.351722e-001 5.524188e-001 -1.034809e+000 -2.816943e-001 3.601843e-001 2.090449e+000 2.360865e-001 4.161410e-001 -1.862515e-001 2.034431e+000 -1.200858e+000 6.006703e-001 -4.704544e-001 3.454497e-001 -9.759942e-002 -2.500583e-001 2.867831e-001 -3.488825e-001 6.129663e-002 -9.596735e-001 9.239808e-001 4.893860e-001 1.968303e-001 5.017088e-002 -1.442828e-001
<VARIANCE> 39
 2.915191e+001 9.752007e+001 2.024632e+002 1.366421e+002 2.841364e+002 2.507621e+002 1.162117e+002 1.169070e+002 6.512842e+001 1.241818e+002 1.172365e+002 3.038681e+001 2.316694e+000 2.043375e+000 4.887328e-001 1.682313e+000 2.273551e+000 4.640884e+000 3.224183e+000 6.275461e+000 8.027489e+000 1.466166e+000 9.073358e-001 1.904819e+000 2.080187e+000 1.318689e-001 7.945183e-002 2.990209e-002 4.071391e-001 8.464175e-002 2.408930e-001 1.884564e-001 1.604235e+000 7.696226e-001 4.214082e-001 1.526986e+000 1.127706e+000 4.497516e-001 1.047371e-002
<GCONST> 1.181960e+002
<TRANSP> 5
 0.000000e+000 1.000000e+000 0.000000e+000 0.000000e+000 0.000000e+000
 0.000000e+000 7.687598e-001 2.312402e-001 0.000000e+000 0.000000e+000
 0.000000e+000 0.000000e+000 2.981518e-001 7.018482e-001 0.000000e+000
 0.000000e+000 0.000000e+000 0.000000e+000 4.327440e-002 9.567255e-001
 0.000000e+000 0.000000e+000 0.000000e+000 0.000000e+000 0.000000e+000
<ENDHMM>
~h "m^-w+i"
<BEGINHMM>
<NUMSTATES> 5
<STATE> 2
<MEAN> 39
 -5.177494e+000 1.218413e+000 1.309392e+001 -3.327282e+001 -6.685005e+000 -6.653105e+000 -9.439895e+000 -1.920615e+001 3.737806e+000 -7.273270e+000 -1.039079e+001 5.070210e+000 1.862742e+001 3.043588e-001 4.821768e-001 -3.494672e-001 3.198102e-001 -1.842882e-001 4.068257e-001 -6.975520e-001 2.058232e-001 8.200713e-002 -1.373106e-001 -3.086968e-002 1.197083e-001 -1.720758e-001 4.090538e-002 -2.377657e-002 -6.626201e-002 7.731441e-002 -5.451128e-002 -2.919208e-002 -2.398619e-002 2.855657e-002 -5.047489e-003 2.525985e-002 3.598184e-002 1.342528e-002 -1.675294e-002
<VARIANCE> 39
 3.821604e+001 7.460719e+001 7.800387e+001 1.054945e+002 9.799860e+001 8.751319e+001 1.085386e+002 7.672827e+001 4.286425e+001 1.175481e+002 8.346899e+001 1.159098e+002 6.882514e+000 5.519231e-001 1.043260e+000 1.436987e+000 2.720505e+000 2.177995e+000 3.477240e+000 2.720660e+000 3.565689e+000 2.958674e+000 2.447012e+000 2.403208e+000 2.428725e+000 4.758309e-002 6.684476e-002 1.490933e-001 2.485221e-001 3.664254e-001 3.789511e-001 6.836753e-001 5.169947e-001 5.939996e-001 5.029777e-001 4.340095e-001 3.851448e-001 4.089256e-001 5.224920e-003
<GCONST> 1.140096e+002
<STATE> 3
<MEAN> 39
 -1.467033e+000 1.046817e+001 -2.599174e+000 -1.347950e+001 -1.645586e+001 -1.139766e+000 -2.080044e+001 -8.189527e+000 5.575639e+000 -4.918942e+000 -3.892668e+000 4.801452e+000 1.217394e+001 -1.098355e+000 -2.955541e-001 -4.996659e-001 1.096074e+000 3.597724e-001 -3.646547e-001 9.231885e-001 7.738661e-001 -2.591740e-001 5.717029e-002 5.944777e-001 -3.022628e-001 -2.690496e-001 -2.071543e-001 -7.529465e-002 8.406825e-002 1.270200e-001 3.017195e-001 -2.350682e-001 3.845980e-001 4.906504e-002 8.973183e-002 -4.965382e-002 -4.610708e-002 -3.656186e-002 5.141946e-002
<VARIANCE> 39
 5.219019e+001 3.604661e+001 3.216970e+001 1.144946e+002 5.574974e+001 5.359230e+001 7.531163e+001 8.357002e+001 8.354408e+001 3.740986e+001 5.476006e+001 8.164291e+001 7.372864e+000 1.988495e+000 1.906522e+000 2.342870e+000 3.057045e+000 4.912956e+000 5.928688e+000 7.479693e+000 3.482933e+000 4.751338e+000 3.954262e+000 4.590720e+000 3.156792e+000 1.395391e-001 3.948087e-001 3.728323e-001 5.695715e-001 6.919120e-001 9.567590e-001 1.340012e+000 8.116947e-001 5.213901e-001 1.151626e+000 7.634255e-001 8.774324e-001 6.311832e-001 3.594435e-002
<GCONST> 1.286951e+002
<STATE> 4
<MEAN> 39
 -9.248228e+000 2.589182e+000 -5.054060e+000 -1.069561e+001 -2.913014e+000 -2.937401e+001 -7.347066e+000 -5.309414e+000 1.455111e+001 -8.446754e+000 -7.427155e+000 1.852802e+000 1.614279e+001 -1.241696e-001 -3.684456e-002 -3.362122e-001 1.341534e-001 3.507443e-001 -1.993284e+000 4.294330e-002 8.629438e-002 1.078497e+000 -7.092865e-002 -2.378846e-001 -2.530476e-001 4.566842e-001 3.570098e-002 1.134262e-001 4.170384e-002 -1.557253e-001 -1.643869e-001 1.915217e-001 -1.372088e-001 -4.287296e-002 -1.582936e-001 2.283838e-002 6.716195e-002 1.026069e-001 6.705545e-003
<VARIANCE> 39
 1.130833e+002 6.368945e+001 9.021310e+001 1.532696e+002 1.104143e+002 1.796437e+002 9.912308e+001 7.340075e+001 1.283792e+002 8.023177e+001 1.416091e+002 5.523597e+001 8.296736e+000 1.121651e+001 4.801103e+000 6.491012e+000 1.448050e+001 7.688826e+000 1.054951e+001 1.024011e+001 6.299924e+000 9.854340e+000 9.369493e+000 1.142241e+001 5.182485e+000 9.018946e-001 1.699683e+000 7.733886e-001 1.270649e+000 2.297839e+000 9.964319e-001 1.690506e+000 1.859632e+000 1.331062e+000 1.963811e+000 1.877937e+000 1.544884e+000 8.943400e-001 1.466760e-001
<GCONST> 1.572784e+002
<TRANSP> 5
 0.000000e+000 1.000000e+000 0.000000e+000 0.000000e+000 0.000000e+000
 0.000000e+000 9.730391e-001 2.696097e-002 0.000000e+000 0.000000e+000
 0.000000e+000 0.000000e+000 9.299539e-001 7.004607e-002 0.000000e+000
 0.000000e+000 0.000000e+000 0.000000e+000 9.464689e-001 5.353108e-002
 0.000000e+000 0.000000e+000 0.000000e+000 0.000000e+000 0.000000e+000
<ENDHMM>
~h "a-j^+z"
<BEGINHMM>
<NUMSTATES> 5
<STATE> 2
<MEAN> 39
 -1.236924e+001 -2.335778e+001 1.276304e+000 -2.218929e+001 2.104937e+000 -1.257533e+001 8.811149e+000 -1.315613e+001 -2.536539e+000 -1.371042e+001 4.050493e-001 -3.428161e+000 2.185383e+001 -6.494965e-001 1.182630e-001 9.877714e-001 -1.478357e+000 -1.306932e+000 4.015243e-001 1.564399e+000 5.293540e-001 7.269492e-002 1.252871e+000 -7.356962e-001 -1.271034e-001 3.367664e-001 -3.426794e-001 6.518819e-001 4.074308e-001 7.774696e-001 6.997855e-002 1.787845e-001 -1.124289e-001 4.719009e-001 2.229191e-002 3.940330e-002 4.560190e-001 1.004715e-001 -2.203818e-001
<VARIANCE> 39
 1.815405e+001 1.334702e+001 4.704136e+001 7.148559e+001 6.890977e+001 8.213992e+001 5.335712e+001 7.250511e+001 9.470257e+001 4.599736e+001 4.741417e+001 3.029248e+001 8.464219e-001 5.777218e-001 1.628031e+000 1.033018e+000 6.245108e+000 2.818603e+000 4.555061e+000 3.365715e+000 5.266690e+000 4.787935e+000 8.024909e+000 3.266710e+000 2.588581e+000 1.284338e-001 3.201163e-001 2.452623e-001 4.377172e-001 5.364385e-001 9.627841e-001 5.603938e-001 6.229056e-001 8.299317e-001 7.010822e-001 1.003424e+000 6.405872e-001 6.282043e-001 8.806482e-003
<GCONST> 1.173694e+002
<STATE> 3
<MEAN> 39
 -1.477390e+001 -2.019339e+001 5.832854e+000 -2.467765e+001 -3.250011e+000 -1.122151e+001 1.076653e+001 -1.410166e+001 -3.424812e+000 -9.493556e+000 -2.591461e+000 -3.914174e+000 2.226743e+001 -1.427056e-001 3.356585e-001 2.744164e-001 -4.899626e-001 -1.116400e-001 4.144121e-001 3.333592e-002 7.194566e-002 -2.782331e-003 4.492924e-001 -4.158043e-001 1.822549e-002 3.834283e-002 1.197858e-001 -1.113191e-001 -1.672155e-001 4.086457e-001 2.253102e-001 -1.468784e-001 -2.121800e-001 -9.775034e-002 -6.468400e-002 -2.852027e-001 1.575899e-001 7.541297e-002 -5.628724e-002
<VARIANCE> 39
 9.427782e+000 1.764100e+001 3.048602e+001 3.740487e+001 2.488386e+001 6.735671e+001 5.756443e+001 3.867142e+001 1.307025e+002 3.756010e+001 6.293041e+001 3.376427e+001 9.162780e-001 4.447719e-001 8.098345e-001 6.884533e-001 2.135002e+000 1.211295e+000 1.727024e+000 1.618408e+000 3.313571e+000 2.634822e+000 1.934774e+000 1.851028e+000 1.615698e+000 1.585574e-002 7.357357e-002 1.626601e-001 1.079472e-001 2.239790e-001 2.146331e-001 3.183892e-001 3.501297e-001 6.998563e-001 4.881415e-001 4.141578e-001 3.625374e-001 3.859890e-001 4.962787e-003
<GCONST> 9.428841e+001
<STATE> 4
<MEAN> 39
 -1.296840e+001 -2.043923e+001 3.494794e+000 -2.127484e+001 -7.860825e-001 -7.983604e+000 1.025196e+001 -1.290789e+001 -3.504119e+000 -1.114464e+001 -2.763708e+000 -2.736804e+000 2.177099e+001 3.513360e-001 -1.440828e-001 -1.307640e-001 6.579306e-001 1.284910e-001 -1.072180e-001 -4.455269e-001 -4.124736e-001 -5.343041e-001 -4.137421e-001 4.487232e-002 3.534692e-001 -1.002894e-001 7.221884e-002 -1.989823e-001 -2.023923e-001 1.163066e-001 3.025607e-002 -3.415731e-001 -1.612492e-001 -6.844656e-003 -5.160017e-002 -1.753370e-001 7.604963e-002 -3.717941e-002 -2.270399e-002
<VARIANCE> 39
 1.800792e+001 3.128961e+001 4.872449e+001 7.231831e+001 3.709005e+001 6.750720e+001 4.989684e+001 7.433762e+001 7.094433e+001 3.353963e+001 7.624422e+001 3.698072e+001 1.652255e+000 5.460533e-001 6.371664e-001 8.786101e-001 1.316004e+000 2.453382e+000 2.417797e+000 2.474742e+000 2.736230e+000 2.571729e+000 2.152989e+000 1.978210e+000 2.952147e+000 3.750117e-002 5.347761e-002 1.241258e-001 1.201532e-001 3.229232e-001 2.584187e-001 2.169422e-001 4.638789e-001 6.422247e-001 2.799539e-001 3.530535e-001 3.166924e-001 3.053069e-001 2.638419e-003
<GCONST> 9.847443e+001
<TRANSP> 5
 0.000000e+000 1.000000e+000 0.000000e+000 0.000000e+000 0.000000e+000
 0.000000e+000 3.785469e-001 6.214531e-001 0.000000e+000 0.000000e+000
 0.000000e+000 0.000000e+000 8.094817e-001 1.905183e-001 0.000000e+000
 0.000000e+000 0.000000e+000 0.000000e+000 9.496265e-002 9.050374e-001
 0.000000e+000 0.000000e+000 0.000000e+000 0.000000e+000 0.000000e+000
<ENDHMM>
~h "uu-h+u"
<BEGINHMM>
<NUMSTATES> 5
<STATE> 2
<MEAN> 39
 -2.669498e+000 -1.230575e+001 -2.066004e+001 -2.583124e+001 1.315171e+001 5.155725e+000 -1.179539e+000 -4.394953e+000 2.684328e+000 -7.696863e+000 -4.579006e+000 -2.798324e+000 1.899595e+001 7.365505e-002 8.496974e-001 2.887599e-001 9.580890e-001 7.349964e-003 7.417805e-001 1.386776e-001 4.222771e-001 -7.444047e-001 -1.786843e+000 -1.390956e+000 -1.141414e+000 -1.421403e-001 4.587813e-001 3.286572e-001 4.175243e-001 3.452355e-001 -4.537129e-002 -1.301301e-001 -4.036367e-001 -3.124887e-002 -2.948390e-001 -2.124678e-001 -7.985832e-001 -3.933967e-001 -5.063765e-002
<VARIANCE> 39
 2.633295e+001 8.696037e+001 7.185601e+001 6.901003e+001 2.026334e+002 4.714599e+002 4.958780e+001 1.828991e+002 8.026038e+001 1.820929e+001 1.341567e+002 5.048759e+001 1.252690e+000 9.177849e-001 1.201960e+000 7.165020e-001 2.459097e+000 1.460918e+000 5.572451e-001 4.652396e-001 1.199755e+000 3.482305e-001 6.314922e-001 4.455703e+000 1.518640e+000 5.490291e-002 9.143366e-002 5.233263e-001 2.350211e-001 2.841831e-001 4.407077e-001 6.510173e-001 1.018065e-001 8.570583e-001 1.273084e-001 4.160385e-001 1.160595e+000 5.994964e-001 8.643461e-003
<GCONST> 1.047214e+002
<STATE> 3
<MEAN> 39
 -1.936074e+000 -1.018191e+001 -1.939648e+001 -2.308656e+001 1.068594e+001 3.387609e+000 -1.527610e+000 -7.725018e+000 2.380155e+000 -1.008901e+001 -8.124368e+000 -5.484105e+000 1.880910e+001 7.007668e-001 1.309805e+000 8.001831e-001 1.410268e+000 -2.201796e-001 6.892838e-001 -2.078182e-001 3.618771e-001 -1.548936e+000 -1.360853e+000 -2.321614e+000 -1.999172e+000 -1.862803e-001 4.876467e-001 8.776050e-002 4.957798e-002 2.114251e-001 -1.742733e-001 1.044391e-001 -3.037165e-001 -1.595994e-002 -1.153886e-001 1.498217e-001 -1.266207e-001 -1.233595e-001 -5.143748e-002
<VARIANCE> 39
 3.436201e+001 8.549784e+001 9.346831e+001 9.271370e+001 1.651166e+002 4.587986e+002 6.514361e+001 1.363517e+002 1.198021e+002 3.330219e+001 1.703384e+002 3.467523e+001 1.751111e+000 6.318168e-001 2.010737e+000 6.679447e-001 1.103659e+000 1.512526e+000 2.579293e+000 9.080858e-001 2.456003e+000 6.173640e-001 7.182211e-001 1.899436e+000 2.343769e+000 3.609483e-002 1.079083e-001 4.294545e-001 2.270502e-001 8.852503e-001 2.186617e-001 1.941145e-001 8.654987e-002 5.667068e-001 1.569254e-001 3.145679e-002 1.272596e+000 7.083021e-001 1.160690e-002
<GCONST> 1.053269e+002
<STATE> 4
<MEAN> 39
 -2.631134e-001 -8.507383e+000 -1.879192e+001 -2.282156e+001 9.545954e+000 5.214551e+000 -2.479039e+000 -6.032032e+000 7.948173e-001 -9.780485e+000 -9.309407e+000 -6.965501e+000 1.868872e+001 1.323131e+000 1.481080e+000 2.898128e-001 1.311619e+000 -5.639300e-001 1.129076e+000 -4.150916e-001 3.032248e-002 -9.926698e-001 -1.207443e+000 -2.046828e+000 -1.944167e+000 -2.160580e-001 3.009689e-001 -2.701862e-001 -1.457682e-001 1.711622e-001 -8.485079e-002 2.052196e-002 -1.572967e-001 -1.857906e-001 -1.454087e-001 1.156876e-001 3.613831e-001 3.723892e-001 -2.927637e-002
<VARIANCE> 39
 4.978240e+001 5.835468e+001 8.340828e+001 8.741115e+001 1.850475e+002 5.312548e+002 4.872286e+001 8.340730e+001 9.436646e+001 3.092180e+001 1.570871e+002 4.312083e+001 1.568729e+000 7.454672e-001 2.617588e+000 9.747118e-001 2.114938e+000 4.804604e-001 2.951736e+000 3.205988e-001 2.835684e+000 6.553980e-001 1.135063e+000 2.415791e+000 5.936389e+000 5.255810e-002 8.082346e-002 2.850531e-001 2.528081e-001 8.255207e-001 2.955516e-001 3.166101e-001 2.124976e-001 6.999987e-001 1.128929e-001 4.974500e-002 6.196918e-001 2.690928e-001 8.263025e-003
<GCONST> 1.052874e+002
~t "T_h"
<ENDHMM>
~h "j^-th+@@"
<BEGINHMM>
<NUMSTATES> 5
<STATE> 2
<MEAN> 39
 -6.100737e+000 -2.379976e+001 -6.902350e-001 -1.088773e+001 2.675925e+000 -9.253051e+000 7.603004e-001 -6.905869e+000 -1.014988e+001 -1.352492e+001 -6.543238e+000 5.038264e+000 1.915344e+001 -2.886091e-001 1.879828e-001 -1.548757e+000 1.672265e+000 -8.706946e-001 -2.331487e-001 1.336138e-001 -1.215365e+000 1.628400e+000 -3.199472e-001 1.269196e+000 -3.751247e-001 -1.879785e-001 -4.571521e-001 6.184719e-001 -5.492515e-001 1.156617e-001 -1.784145e-001 -4.125263e-001 -2.662437e-001 -9.737077e-001 2.630613e-002 -5.954276e-001 -3.999983e-001 -2.969738e-001 4.001134e-002
<VARIANCE> 39
 1.844233e+001 4.818457e+001 1.121773e+001 7.764671e+001 5.394535e+001 1.640903e+002 2.470866e+002 3.496236e+001 5.345404e+001 1.563014e+001 2.706803e+001 6.289121e+001 1.842221e+000 5.780320e-001 1.409666e+000 3.347574e+000 1.765494e+000 1.238938e+000 2.268847e+000 9.879775e+000 8.690003e+000 1.132506e+001 4.221984e-001 7.097701e+000 5.010914e+000 1.032090e-002 2.321818e-001 3.814541e-001 2.845841e-001 2.855974e-001 1.050947e-001 4.196277e-001 1.180606e+000 2.953909e-001 2.532181e-001 1.913339e-001 7.880149e-001 3.774019e-001 9.821792e-003
<GCONST> 1.078167e+002
<STATE> 3
<MEAN> 39
 -7.127192e+000 -2.154981e+001 -1.742987e+000 -1.042243e+001 1.954005e+000 -1.353563e+001 1.817572e+000 -1.191480e+001 -7.795710e+000 -1.483956e+001 -6.484247e+000 1.406386e+000 1.911833e+001 -7.837804e-001 1.029434e+000 -1.607484e+000 1.971397e+000 -8.220735e-001 -8.452514e-001 -1.471587e+000 -1.861094e+000 2.220451e-001 -2.029611e+000 -9.118697e-001 -1.341691e+000 -1.485301e-001 -2.969764e-001 5.548446e-001 -4.814410e-001 -1.212302e-001 -8.755966e-002 -2.418558e-001 -1.577507e-001 -2.977193e-001 -1.242071e-002 -3.030206e-001 -4.898296e-001 -3.787969e-002 3.147697e-002
<VARIANCE> 39
 2.049585e+001 2.607524e+001 1.251174e+001 7.048300e+001 5.151414e+001 5.427046e+001 1.492526e+002 4.795819e+001 7.262868e+001 1.904366e+001 2.573363e+001 6.965780e+001 2.340058e+000 1.716284e+000 4.200848e+000 2.735678e+000 7.843060e-001 1.432448e+000 3.941046e+000 1.073951e+001 4.969986e+000 7.409696e+000 2.180766e+000 3.274482e+000 3.304668e+000 2.505952e-002 2.106641e-001 2.483869e-001 3.799690e-001 7.140099e-001 8.731353e-002 4.525197e-001 1.414117e+000 7.348067e-001 4.742707e-001 2.363321e-001 8.456569e-001 4.575989e-001 1.359701e-002
<GCONST> 1.121670e+002
<STATE> 4
<MEAN> 39
 -8.437101e+000 -1.911767e+001 -3.368984e+000 -7.322482e+000 -6.768960e-001 -1.364270e+001 -4.243551e-001 -1.466654e+001 -9.336605e+000 -2.012702e+001 -8.033938e+000 7.307163e-001 1.899662e+001 -1.092350e+000 1.688364e+000 -2.355019e+000 1.625617e+000 -8.465711e-001 -8.594575e-001 -1.267600e+000 -1.779640e+000 4.814710e-001 -1.480137e+000 -1.086772e+000 -8.179433e-001 -1.248735e-001 -8.941790e-002 2.400683e-001 -2.949832e-001 -3.677447e-001 2.060021e-001 1.571398e-003 3.473401e-001 3.469839e-001 1.884875e-001 2.531507e-001 -2.919023e-003 2.133391e-001 3.994570e-002
<VARIANCE> 39
 2.604385e+001 2.913341e+001 1.955414e+001 5.779336e+001 4.303845e+001 4.272091e+001 8.789415e+001 3.597738e+001 1.060479e+002 1.584825e+001 1.720351e+001 6.658485e+001 1.979961e+000 2.899679e+000 5.105229e+000 1.961055e+000 2.903860e+000 8.308591e-001 4.276513e+000 9.701152e+000 2.175487e+000 3.765062e+000 2.192390e+000 3.381217e+000 1.467613e+000 7.014542e-002 1.286251e-001 1.592155e-001 5.390587e-001 6.447968e-001 2.706656e-001 3.878266e-001 1.166710e+000 1.011856e+000 7.745942e-001 2.191057e-001 1.105526e+000 4.788578e-001 8.481162e-003
<GCONST> 1.116628e+002
<TRANSP> 5
 0.000000e+000 1.000000e+000 0.000000e+000 0.000000e+000 0.000000e+000
 0.000000e+000 1.743773e-001 8.256226e-001 0.000000e+000 0.000000e+000
 0.000000e+000 0.000000e+000 4.450038e-004 9.995550e-001 0.000000e+000
 0.000000e+000 0.000000e+000 0.000000e+000 4.780291e-004 9.995220e-001
 0.000000e+000 0.000000e+000 0.000000e+000 0.000000e+000 0.000000e+000
<ENDHMM>
~h "uua-n^+j"
<BEGINHMM>
<NUMSTATES> 5
<STATE> 2
<MEAN> 39
 -1.159051e+001 1.563412e-001 -7.286143e+000 -8.647449e+000 -1.073949e+001 -1.207635e+001 4.843240e+000 -1.521080e+000 -4.431927e+000 -1.464712e+001 -6.612748e+000 3.290337e+000 1.370009e+001 -5.367508e-001 6.848993e-001 1.228314e+000 -1.386898e+000 -2.422066e-001 -4.575062e-001 1.334085e-001 -5.782850e-001 1.630244e+000 1.301569e+000 -3.788127e-002 -5.100787e-001 1.759270e-001 2.078114e-003 -1.540562e-001 1.476578e-001 -2.114577e-002 6.025577e-002 5.433541e-002 -8.495511e-002 2.690575e-002 -4.019548e-002 1.428173e-001 -1.723635e-003 1.701736e-002 4.239107e-002
<VARIANCE> 39
 1.508591e+002 1.017245e+002 2.637650e+002 1.161927e+002 8.517236e+001 4.347845e+001 9.459599e+001 4.708253e+002 1.103915e+002 1.748737e+002 2.822673e+001 6.090777e+001 1.463747e+001 7.161202e+000 2.497581e+000 7.478590e+000 4.077188e+000 6.780505e+000 5.663708e+000 1.431665e+001 1.796964e+001 6.078733e+000 6.871420e+000 2.984013e+000 4.366828e+000 7.670817e-001 1.046401e+000 4.862140e-001 9.416456e-001 6.030728e-001 1.266176e+000 1.252565e+000 2.150889e+000 2.291212e+000 1.216303e+000 1.424074e+000 5.559781e-001 7.665501e-001 1.068222e-001
<GCONST> 1.503769e+002
<STATE> 3
<MEAN> 39
 -1.008737e+001 -3.191792e+000 1.570840e+001 -2.585902e+001 -1.270651e+001 -2.095600e+001 -2.277339e+000 -1.999986e+001 5.689304e+000 -3.204615e-001 -8.957765e+000 -3.443356e+000 1.927638e+001 7.559302e-002 -6.047404e-001 5.181332e-001 -7.893308e-001 -1.227182e+000 -9.016268e-001 1.640511e+000 8.965790e-001 3.533157e-001 1.587959e+000 8.259218e-001 -6.099544e-002 3.232064e-001 -1.480595e-002 -2.276241e-002 -3.945747e-001 1.721627e-001 9.199453e-002 2.265554e-001 2.690748e-001 -2.146801e-001 -4.803937e-001 -2.264645e-001 2.326454e-001 9.497435e-002 -2.262181e-002
<VARIANCE> 39
 2.708774e+001 1.166534e+002 2.409113e+002 8.277174e+001 8.048391e+001 3.052304e+001 4.933906e+001 2.297599e+001 7.576560e+001 1.768145e+002 2.906044e+001 2.823217e+001 9.575629e-001 9.320961e-001 1.189760e+000 2.906011e+000 2.032143e+000 2.070532e+000 1.955464e+000 2.851468e+000 2.877970e+000 1.180983e+001 4.036692e+000 2.001833e+000 1.295130e+000 3.325998e-002 1.361523e-001 3.498854e-001 3.091122e-001 1.272680e-001 4.361985e-001 3.946016e-001 7.718850e-001 9.504889e-001 8.870926e-001 6.832821e-001 6.197833e-001 3.460305e-001 9.566245e-003
<GCONST> 1.124026e+002
<STATE> 4
<MEAN> 39
 -4.105730e+000 -1.005228e+001 -8.656622e-001 -2.177456e+001 -8.541870e+000 -2.606286e+001 6.436967e+000 -1.723487e+001 1.459803e+001 -1.040503e+001 -8.521576e+000 4.244358e+000 1.905828e+001 -1.429063e-001 -5.765554e-002 -1.247100e-001 -5.215146e-001 5.589477e-001 -7.417907e-001 8.903025e-001 1.108690e+000 2.631485e-001 -7.248406e-001 -4.685932e-001 1.440950e+000 1.092245e-001 -1.030577e-001 -2.008264e-001 -9.769675e-002 1.988017e-001 2.215111e-001 3.713314e-001 6.998837e-002 -4.008717e-002 -3.722299e-001 -2.343051e-001 -2.268304e-003 -1.866302e-001 -1.619833e-002
<VARIANCE> 39
 6.795728e+000 2.504029e+001 8.477029e+001 1.755036e+001 5.675838e+001 2.795579e+001 6.404421e+001 4.878354e+001 1.641409e+002 1.043624e+002 2.245353e+001 5.257166e+001 3.220664e-001 7.569168e-001 9.178434e-001 1.583534e+000 1.112555e+000 1.686501e+000 2.047633e+000 4.788389e+000 3.986008e+000 4.045756e+000 4.644196e+000 3.497133e+000 1.707071e+000 4.484032e-002 4.362152e-002 7.562646e-002 2.764816e-001 2.336607e-001 2.002640e-001 4.291250e-001 6.703519e-001 1.068101e+000 1.128754e+000 1.064664e+000 5.227045e-001 4.680579e-001 4.235159e-003
<GCONST> 1.033001e+002
~t "T_n^"
<ENDHMM>
~h "uu-m+a"
<BEGINHMM>
<NUMSTATES> 5
<STATE> 2
<MEAN> 39
 -3.235341e-001 -1.421774e+001 -8.108745e+000 -2.111911e+001 8.528614e+000 -2.078424e+001 -6.693375e+000 -7.533496e+000 -1.090534e+001 -7.570055e+000 -8.300271e+000 -8.673039e+000 1.797135e+001 5.244879e-001 3.541570e-001 -6.921818e-001 7.509922e-001 -3.759196e-001 7.513122e-001 -6.757281e-001 -6.401231e-001 -5.776674e-001 7.692330e-001 -7.150927e-001 -2.066774e-001 -1.991341e-001 -5.391638e-002 -5.132433e-002 -1.322663e-001 1.685724e-001 1.742077e-001 9.984693e-002 1.195204e-002 2.144039e-002 8.639324e-002 1.868333e-002 8.404995e-003 9.590037e-002 1.887891e-002
<VARIANCE> 39
 4.367792e+001 1.532787e+001 4.462943e+001 2.516939e+001 2.445172e+001 4.490763e+001 2.768820e+001 2.366692e+001 6.137989e+001 3.521144e+001 5.576690e+001 2.385696e+001 5.042884e-001 6.070575e-001 7.235522e-001 1.325256e+000 1.709661e+000 1.817850e+000 2.099772e+000 1.611180e+000 2.368177e+000 1.859038e+000 2.351702e+000 3.493282e+000 2.833303e+000 1.774628e-002 1.009582e-001 1.039094e-001 2.134141e-001 2.130124e-001 4.390289e-001 7.254903e-001 3.700433e-001 4.248463e-001 4.462201e-001 5.097447e-001 8.366901e-001 5.678769e-001 5.811931e-003
<GCONST> 9.727564e+001
<STATE> 3
<MEAN> 39
 -2.339171e+000 -1.448932e+001 -1.295100e+001 -2.011688e+001 1.112373e+001 -1.399671e+001 -5.675815e+000 -8.767177e+000 -6.009300e+000 -4.833422e-001 -7.039176e+000 -7.298698e+000 1.851846e+001 -6.189612e-001 -6.180136e-001 2.648243e-001 -2.335424e+000 7.686855e-001 1.124098e+000 1.210149e+000 3.080114e-001 1.089840e+000 6.567281e-001 8.092660e-001 -5.602587e-002 5.181744e-001 -3.049802e-002 6.828073e-003 4.939764e-001 -3.800900e-001 -3.356632e-001 2.664872e-001 3.250359e-002 6.817642e-003 -2.182871e-001 -2.583912e-001 -2.049010e-003 -2.421157e-001 7.007477e-002
<VARIANCE> 39
 7.192409e+001 3.197007e+001 7.811949e+001 1.207599e+002 3.585449e+001 1.737906e+002 5.548130e+001 5.211982e+001 4.055736e+001 5.536341e+001 6.631590e+001 1.095587e+001 2.821708e+000 2.517531e+000 2.119010e+000 4.942367e+000 1.164335e+001 3.589892e+000 1.362794e+001 4.418236e+000 5.391988e+000 7.725088e+000 8.591502e+000 2.914533e+000 2.612096e+000 1.761674e-001 3.571395e-001 4.424389e-001 4.922278e-001 2.646602e+000 4.916401e-001 2.368297e+000 1.239405e+000 1.327540e+000 1.562586e+000 1.636206e+000 5.303445e-001 2.804522e-001 3.583291e-002
<GCONST> 1.326691e+002
<STATE> 4
<MEAN> 39
 -4.173130e+000 -1.783728e+001 -9.142778e+000 -3.213787e+001 1.056203e+001 -2.841972e-001 -4.085158e+000 -5.369934e+000 -5.349003e+000 -2.721799e+000 -2.603848e+000 -3.923690e+000 2.047217e+001 2.014346e-001 -1.938425e-001 -4.105278e-002 4.824534e-001 -1.726731e-001 -1.245652e-003 -2.302710e-002 2.012381e-001 -1.715532e-002 -2.149545e-001 -1.764151e-001 2.973002e-001 -7.373232e-002 1.648657e-002 9.936832e-004 -7.030760e-002 1.456281e-001 -1.602593e-002 -6.090643e-002 8.983300e-002 4.509972e-002 5.255848e-002 -2.423023e-004 -5.065442e-003 1.872383e-002 -1.978810e-002
<VARIANCE> 39
 1.509014e+001 1.909311e+001 1.520493e+001 9.123233e+001 7.665969e+001 1.298906e+002 2.361460e+001 2.912738e+001 9.999216e+001 3.166076e+001 4.348608e+001 1.677189e+001 1.753756e+000 3.827509e-001 7.820115e-001 9.178382e-001 2.091869e+000 1.343405e+000 3.381623e+000 2.643208e+000 2.321529e+000 3.087972e+000 1.699481e+000 2.437452e+000 1.505614e+000 2.531613e-002 5.432492e-002 1.073896e-001 1.386992e-001 2.886663e-001 2.560329e-001 3.234493e-001 3.818425e-001 4.257856e-001 5.231380e-001 2.951609e-001 3.897778e-001 3.212927e-001 4.973304e-003
<GCONST> 9.566570e+001
<TRANSP> 5
 0.000000e+000 1.000000e+000 0.000000e+000 0.000000e+000 0.000000e+000
 0.000000e+000 8.559402e-001 1.440598e-001 0.000000e+000 0.000000e+000
 0.000000e+000 0.000000e+000 7.610808e-001 2.389191e-001 0.000000e+000
 0.000000e+000 0.000000e+000 0.000000e+000 9.460316e-001 5.396846e-002
 0.000000e+000 0.000000e+000 0.000000e+000 0.000000e+000 0.000000e+000
<ENDHMM>
~h "uu-n+a"
<BEGINHMM>
<NUMSTATES> 5
<STATE> 2
<MEAN> 39
 -1.109728e+001 2.992917e+000 9.477060e-002 3.912241e+000 -5.608478e+000 -7.368474e+000 -5.772952e+000 -5.855087e+000 3.691540e+000 -3.239273e+000 -6.564068e+000 2.386534e+000 1.091915e+001 -6.985980e-001 -2.539638e+000 -1.697608e+000 1.087175e+000 3.055679e+000 -2.300414e+000 2.645589e+000 1.029467e+000 4.303666e-001 -6.761487e-001 3.949936e-001 2.273800e+000 6.439151e-001 4.775032e-001 -5.357483e-002 -3.296951e-001 -5.330933e-001 4.191370e-001 4.336730e-002 6.808909e-001 -3.252532e-001 1.402367e-001 4.132271e-002 2.609172e-001 -6.637331e-002 2.668045e-001
<VARIANCE> 39
 3.882981e+001 9.052968e+001 4.273339e+001 3.312799e+002 1.458222e+002 1.117628e+002 8.184534e+001 7.305962e+001 4.390887e+001 7.725787e+001 1.313942e+002 5.071191e+001 1.377622e+001 9.888369e-001 4.880766e+000 2.100479e+000 4.597711e+000 6.409328e+000 1.120567e+001 1.639919e+001 3.277342e+000 1.455497e+000 4.795543e+000 1.106286e+000 5.037844e+000 1.006088e+000 1.053669e-001 1.402612e-001 2.309447e-001 1.744757e+000 3.308178e-001 1.803675e+000 2.228552e+000 1.129847e+000 2.211539e-001 4.900492e-001 4.957664e-002 1.390293e+000 5.194085e-002
<GCONST> 1.305478e+002
<STATE> 3
<MEAN> 39
 -9.422138e+000 -1.229548e+001 -7.438720e+000 -1.137264e+001 9.415606e+000 -1.469681e+001 6.353674e+000 -8.994610e+000 6.641698e+000 -2.683121e+000 -4.450899e+000 2.747179e-001 1.718856e+001 7.211269e-001 -8.726719e-001 2.491047e-001 -3.380316e+000 7.609850e-001 1.334263e+000 -1.202816e+000 -8.200569e-001 3.621596e-001 9.702218e-001 -3.018979e-001 -2.378092e+000 4.634066e-001 9.004133e-002 3.581924e-001 3.683501e-001 4.229547e-001 -3.173585e-001 4.665812e-001 -6.903037e-001 1.971547e-001 -2.123410e-001 -2.000561e-001 -2.569192e-001 -4.284195e-002 -2.133465e-001
<VARIANCE> 39
 2.727346e+001 2.305891e+002 1.108801e+002 3.237146e+002 2.877665e+002 1.934139e+002 9.550084e+001 4.945199e+001 4.144767e+001 7.894961e+001 1.098747e+002 1.268031e+002 1.918563e+001 1.060791e+000 6.680229e+000 9.632843e+000 1.932613e+001 3.964842e+000 3.657165e+000 9.479645e+000 4.871109e+000 1.189199e+000 3.358822e+000 1.364088e+000 8.153771e+000 6.530730e-001 3.361118e-001 8.355737e-001 2.215622e+000 2.931283e+000 1.250655e+000 1.814420e+000 3.006791e+000 8.939449e-001 3.208891e-001 1.118155e+000 4.315976e-001 2.993042e+000 5.322531e-002
<GCONST> 1.466548e+002
<STATE> 4
<MEAN> 39
 -5.277397e+000 1.793675e+000 1.400156e+000 -1.149864e+001 -2.985613e+000 -3.789418e-001 -1.745471e+000 -1.024943e+001 8.448074e+000 3.801359e+000 -8.645459e+000 -2.602724e+000 1.410900e+001 7.287809e-001 -2.256350e-001 -5.926293e-001 1.053959e+000 1.109978e+000 1.265664e+000 -2.527656e-001 5.114219e-002 -8.084398e-001 -4.525243e-001 8.720271e-002 3.353772e-001 -1.887430e-001 3.897286e-002 -4.057092e-001 -1.441749e-001 -9.857412e-002 -1.486316e-001 3.514556e-002 -4.816143e-002 -1.368557e-001 -2.285962e-001 -6.862479e-001 -4.264154e-001 2.989977e-001 -3.280503e-003
<VARIANCE> 39
 2.677389e+001 2.124032e+002 3.258355e+001 3.398761e+002 2.816876e+002 1.438033e+002 7.983391e+001 1.270769e+002 9.343882e+001 1.122103e+002 2.425179e+002 2.634185e+001 2.078908e+001 8.274824e-001 2.855075e+000 1.286167e+000 2.860137e+000 3.640720e+000 4.644396e+000 7.555461e+000 3.819122e+000 5.999022e-001 1.883024e+000 4.135325e+000 2.115835e+000 1.730215e-001 2.533796e-001 4.100150e-001 3.289584e-001 5.420365e-001 7.653351e-001 5.458321e-001 7.123097e-001 6.020988e-001 8.889999e-001 1.746434e+000 2.339264e+000 4.714078e-001 6.543743e-003
<GCONST> 1.292132e+002
~t "T_n"
<ENDHMM>
~h "n^-j+aa"
<BEGINHMM>
<NUMSTATES> 5
<STATE> 2
<MEAN> 39
 -6.604947e+000 -2.005499e+001 -6.580430e+000 -2.358685e+001 4.503217e+000 -1.156290e+001 4.678913e+000 2.459426e+000 5.645201e-002 4.482603e-001 -1.228936e+001 3.559863e+000 1.920762e+001 -4.431789e-002 -3.530256e-001 -7.303675e-002 1.323866e-002 1.115887e-001 2.266584e-001 5.347372e-002 2.008584e-001 -1.046362e-002 1.802322e-002 1.202145e-001 -1.581500e-001 2.705296e-002 7.499686e-003 6.702439e-002 3.329938e-002 -1.162699e-002 -7.891417e-002 -2.053370e-002 -1.193419e-001 -8.805416e-002 2.420129e-002 2.181233e-002 2.607922e-002 -6.766216e-002 -8.139474e-003
<VARIANCE> 39
 2.099196e+001 3.191056e+001 1.424626e+002 2.693176e+001 8.755246e+001 5.693882e+001 5.151625e+001 7.606249e+001 6.390427e+001 1.072975e+002 1.491382e+002 4.161963e+001 1.861184e+000 1.523711e+000 3.039965e+000 4.636819e+000 2.995814e+000 4.714993e+000 3.201314e+000 2.874635e+000 4.006791e+000 4.960299e+000 4.862350e+000 1.298275e+001 4.361176e+000 7.121742e-002 2.051824e-001 3.094824e-001 4.889312e-001 4.928510e-001 5.409530e-001 5.202665e-001 5.267904e-001 6.031270e-001 7.266105e-001 8.808940e-001 2.198050e+000 6.892817e-001 9.312076e-003
<GCONST> 1.240104e+002
<STATE> 3
<MEAN> 39
 -7.619821e+000 -1.905460e+001 3.048989e+000 -2.179115e+001 1.923257e+000 -2.593013e+001 7.571059e+000 -6.367477e+000 -1.427699e+000 -1.771993e+001 -6.805088e+000 5.875693e+000 2.031083e+001 1.158895e-001 1.385860e-002 -2.296654e-001 2.461888e-001 -3.857339e-002 4.788733e-001 3.156070e-001 2.262141e-001 -3.144239e-001 1.177044e-002 -1.714330e-001 -5.496313e-002 -6.475382e-002 4.507275e-002 1.855419e-002 -5.579160e-002 7.038253e-002 -3.064846e-003 5.039380e-002 -4.647457e-003 3.622558e-002 -1.000187e-002 2.702124e-002 -2.290076e-002 1.732758e-002 -2.014996e-002
<VARIANCE> 39
 1.005780e+001 1.380195e+001 1.892744e+001 1.524364e+001 2.972078e+001 4.995619e+001 5.070162e+001 4.179877e+001 3.574894e+001 4.459179e+001 4.174860e+001 3.651259e+001 1.910589e+000 4.908955e-001 8.142120e-001 1.253251e+000 1.141980e+000 1.348628e+000 2.059829e+000 2.358260e+000 2.731697e+000 4.105085e+000 3.518185e+000 2.104971e+000 2.081876e+000 5.885898e-002 7.637215e-002 1.152747e-001 2.488685e-001 2.032068e-001 2.502428e-001 4.458858e-001 4.272013e-001 5.425059e-001 9.720645e-001 7.373425e-001 4.465324e-001 3.495620e-001 3.757845e-003
<GCONST> 9.708263e+001
<STATE> 4
<MEAN> 39
 -1.140806e+001 -4.082171e+000 2.154518e+001 -3.203188e+001 -2.856174e+001 -1.356551e+001 -1.541257e+000 -9.851354e+000 5.631233e+000 1.578650e+001 -1.025389e+001 1.852419e+000 1.785227e+001 1.994796e-002 4.329624e-001 -3.441089e-001 4.877522e-001 -5.463150e-001 1.594055e-001 -6.804254e-001 -2.918672e-001 3.642927e-001 4.923288e-001 2.418115e-001 1.361329e-001 -2.517715e-001 -1.808770e-002 5.535707e-003 -3.510901e-002 3.076453e-002 2.375344e-002 -8.801573e-003 1.189300e-002 -1.465637e-002 -3.227821e-002 1.771746e-004 2.030708e-002 -5.594976e-004 -3.618076e-003
<VARIANCE> 39
 1.296243e+001 6.771136e+001 1.030891e+002 1.130963e+002 1.200060e+002 1.225244e+001 1.308050e+002 6.034471e+001 5.007755e+001 1.258961e+002 2.308774e+001 1.191353e+001 1.030767e+001 6.427177e-001 5.856108e-001 2.082653e+000 2.278242e+000 2.025790e+000 7.776637e-001 2.279521e+000 3.019666e+000 3.034089e+000 2.812027e+000 2.319555e+000 1.451595e+000 6.473686e-002 1.102614e-001 8.330806e-002 2.096551e-001 1.868478e-001 3.527236e-001 1.702236e-001 4.374233e-001 5.614957e-001 5.514403e-001 5.491496e-001 3.820968e-001 2.583143e-001 2.248571e-003
<GCONST> 1.026139e+002
<TRANSP> 5
 0.000000e+000 1.000000e+000 0.000000e+000 0.000000e+000 0.000000e+000
 0.000000e+000 9.276397e-001 7.236025e-002 0.000000e+000 0.000000e+000
 0.000000e+000 0.000000e+000 9.482046e-001 5.179546e-002 0.000000e+000
 0.000000e+000 0.000000e+000 0.000000e+000 8.979528e-001 1.020472e-001
 0.000000e+000 0.000000e+000 0.000000e+000 0.000000e+000 0.000000e+000
<ENDHMM>
~h "a-j^+ph"
<BEGINHMM>
<NUMSTATES> 5
<STATE> 2
<MEAN> 39
 -8.153997e+000 -1.758711e+001 1.240734e+000 -1.887799e+001 2.628555e+000 -9.738315e+000 3.566626e+000 -7.449015e+000 8.895171e-001 -1.605928e+001 -4.222524e+000 -3.596864e+000 2.078675e+001 -1.183711e+000 5.338173e-002 -9.496790e-002 -1.623152e+000 -3.169083e-001 -1.345945e+000 9.926539e-001 -1.553971e+000 1.921329e+000 2.635704e-001 8.757912e-001 -1.573326e-001 2.225023e-001 1.898471e-001 3.003999e-001 -1.309215e-001 1.920535e-001 6.760668e-002 -3.826014e-001 -6.599325e-001 -2.169621e-001 3.924908e-001 3.975250e-001 -5.878243e-001 3.837700e-001 -2.030318e-001
<VARIANCE> 39
 1.478432e+001 7.619798e+001 1.156164e+002 1.141866e+002 2.831527e+002 3.129633e+002 6.294607e+001 9.708444e+001 3.769596e+001 8.085777e+001 6.343855e+001 2.875231e+001 2.509813e+000 1.135809e+000 8.097906e-001 1.022105e+000 1.129472e+000 2.099205e+000 2.815031e+000 2.746377e+000 8.336933e+000 3.401220e+000 2.399839e+000 2.705144e+000 1.378647e+000 3.135177e-002 2.543375e-001 5.706089e-002 1.925192e-001 2.029891e-001 2.104088e-001 3.438353e-001 1.321126e+000 3.593402e-001 6.800184e-001 3.586608e-001 5.560206e-001 7.898992e-001 1.074288e-002
<GCONST> 1.120607e+002
<STATE> 3
<MEAN> 39
 -7.344947e+000 -1.008631e+001 4.161207e+000 -2.521681e+001 -6.983957e+000 -1.718357e+001 2.720441e+000 -1.534991e+001 8.183570e+000 -1.188997e+001 -8.061371e+000 -4.476390e+000 1.946080e+001 -2.286587e-001 2.658638e-001 1.846429e-001 -9.021211e-001 1.124078e-001 4.759648e-001 -3.291203e-001 -5.948924e-001 1.084694e+000 1.261742e+000 5.498440e-001 2.868071e-001 -4.806741e-002 9.308663e-002 -6.466915e-002 -5.943316e-002 2.820704e-001 1.418413e-001 1.663674e-001 -1.122672e-001 6.327005e-002 -4.538847e-001 1.762385e-001 2.005981e-001 1.939124e-001 -5.222678e-002
<VARIANCE> 39
 5.508478e+000 6.437168e+001 4.450417e+001 4.390499e+001 1.522595e+002 1.655949e+002 3.661017e+001 3.728688e+001 2.311523e+001 3.512591e+001 3.695597e+001 1.832915e+001 1.968457e+000 2.691759e-001 6.769677e-001 1.139743e+000 1.267383e+000 1.412095e+000 2.097583e+000 1.532079e+000 2.371476e+000 2.122350e+000 1.369606e+000 3.128412e+000 2.264209e+000 8.391323e-003 9.473354e-002 2.604447e-002 1.483720e-001 2.812169e-001 1.919372e-001 5.364143e-001 3.077720e-001 5.363958e-001 5.478314e-001 1.486515e-001 3.239240e-001 2.586561e-001 7.192602e-003
<GCONST> 9.248209e+001
<STATE> 4
<MEAN> 39
 -7.277167e+000 -2.077049e+001 -2.676565e+000 -1.519905e+001 1.359607e+001 -1.525143e+001 -2.663259e+000 -1.156504e+000 2.823838e-001 -1.278357e+001 -3.460563e+000 7.879615e-001 1.935638e+001 5.184026e-001 2.411817e-001 -1.293835e-001 5.922762e-001 -3.139509e-001 1.826711e-002 -1.825078e-001 9.053830e-002 -4.088679e-001 4.120815e-001 -2.564416e-002 1.673107e-002 -2.026140e-001 5.133365e-002 5.946738e-002 -3.324653e-002 1.217495e-001 -5.044711e-002 -4.384532e-003 1.965317e-002 -3.263823e-002 -4.189747e-002 -1.834356e-002 1.070512e-003 3.830571e-002 -1.124940e-002
<VARIANCE> 39
 1.813407e+001 3.626747e+001 9.090070e+001 3.620583e+001 5.905942e+001 2.624853e+002 4.594215e+001 8.055262e+001 3.314679e+001 7.423710e+001 3.128185e+001 4.340530e+001 1.819579e+000 4.851910e-001 8.371622e-001 1.034661e+000 1.357203e+000 1.631350e+000 2.078637e+000 2.011388e+000 4.320907e+000 2.769260e+000 2.717864e+000 2.767388e+000 2.362322e+000 8.043482e-002 5.660555e-002 1.355282e-001 1.380526e-001 2.348372e-001 2.937257e-001 3.712788e-001 3.608660e-001 7.751016e-001 5.643293e-001 4.664422e-001 3.354369e-001 4.024907e-001 9.631732e-003
<GCONST> 1.041790e+002
<TRANSP> 5
 0.000000e+000 1.000000e+000 0.000000e+000 0.000000e+000 0.000000e+000
 0.000000e+000 3.168031e-001 6.831969e-001 0.000000e+000 0.000000e+000
 0.000000e+000 0.000000e+000 7.094154e-001 2.905846e-001 0.000000e+000
 0.000000e+000 0.000000e+000 0.000000e+000 9.166295e-001 8.337054e-002
 0.000000e+000 0.000000e+000 0.000000e+000 0.000000e+000 0.000000e+000
<ENDHMM>
~h "a-j^+th"
<BEGINHMM>
<NUMSTATES> 5
<STATE> 2
<MEAN> 39
 -1.155433e+001 -2.304814e+001 1.825975e+000 -1.914884e+001 2.324611e-002 -1.220883e+001 9.936542e+000 -1.429438e+001 -1.265577e+000 -9.720213e+000 -1.308448e+000 -1.643704e+000 2.136090e+001 -9.953126e-001 4.185598e-001 8.991002e-001 -2.113320e+000 1.627986e-001 1.391789e-001 1.856943e+000 1.709243e+000 6.478660e-001 1.218936e+000 -9.602377e-002 -3.071695e-001 4.457738e-001 -4.870079e-001 6.909778e-001 6.055796e-001 5.751220e-001 -2.761244e-001 2.397323e-001 1.741627e-001 5.783963e-001 -6.163944e-002 -4.531145e-001 4.962046e-001 -3.993607e-001 -2.223700e-001
<VARIANCE> 39
 1.906238e+001 1.285491e+001 3.950838e+001 1.522378e+001 8.177928e+001 1.315051e+002 5.615291e+001 8.206754e+001 1.552024e+002 2.076258e+001 3.481771e+001 3.400144e+001 7.509846e-001 1.452067e+000 7.477228e-001 1.037830e+000 8.295470e-001 9.675707e-001 1.755669e+000 2.220411e+000 7.790009e+000 5.108472e-001 5.778630e+000 1.541028e+000 3.140062e+000 2.303638e-002 1.649423e-001 2.618771e-001 4.783970e-001 3.795742e-001 7.770162e-001 1.095124e-001 4.367918e-001 1.077411e+000 3.670577e-001 4.429407e-001 4.266095e-001 6.676398e-001 1.085646e-002
<GCONST> 1.027049e+002
<STATE> 3
<MEAN> 39
 -1.434381e+001 -2.063660e+001 6.604321e+000 -2.491372e+001 -4.397515e+000 -1.131473e+001 1.271956e+001 -1.331121e+001 -5.157808e+000 -8.653572e+000 -3.174573e+000 -4.606489e+000 2.213419e+001 8.826451e-002 -2.825667e-002 2.654135e-003 -3.404821e-001 2.117135e-001 4.763580e-001 1.721336e-001 -1.527911e-001 -7.182601e-001 -1.316850e-001 -5.423656e-002 7.270574e-002 3.828635e-002 1.326042e-001 -1.156252e-001 -1.730138e-001 4.496247e-001 1.711336e-001 -1.174680e-001 -3.061757e-001 -2.899728e-002 -1.086611e-001 -1.961819e-001 9.564900e-002 8.050501e-002 -5.715571e-002
<VARIANCE> 39
 6.230104e+000 1.355070e+001 2.843092e+001 3.860620e+001 4.401290e+001 7.754375e+001 1.457475e+002 5.312483e+001 1.288982e+002 3.139727e+001 4.280409e+001 5.192420e+001 5.265343e-001 5.184703e-001 1.124737e+000 1.416583e+000 2.103048e+000 1.618814e+000 1.890022e+000 1.340062e+000 3.187816e+000 3.078859e+000 2.691860e+000 2.106317e+000 1.890238e+000 3.802689e-002 1.072663e-001 2.112841e-001 2.244158e-001 1.578858e-001 2.512439e-001 3.399610e-001 1.725093e-001 8.405974e-001 7.085333e-001 5.841832e-001 5.583465e-001 4.266863e-001 6.563409e-003
<GCONST> 1.000630e+002
<STATE> 4
<MEAN> 39
 -8.169871e+000 -2.420627e+001 1.014706e+000 -1.377237e+001 7.750860e+000 -1.281468e+001 -2.038092e+000 -6.755706e+000 -1.107720e+001 -1.721148e+001 -6.989302e+000 -2.586489e+000 2.062625e+001 2.088153e-001 3.252268e-002 -1.103216e-001 4.631774e-001 1.803190e-002 -4.280685e-002 -3.588190e-001 2.147765e-001 -1.478855e-001 -1.867391e-001 -2.553617e-001 3.083285e-001 -1.062274e-001 -2.166362e-002 2.141178e-002 2.830905e-003 7.739383e-003 -7.227150e-002 2.301141e-002 4.279691e-002 -1.222868e-002 5.644347e-002 2.307248e-002 1.235704e-002 -1.494401e-002 -6.002302e-003
<VARIANCE> 39
 2.195065e+001 3.014882e+001 2.740938e+001 4.014171e+001 5.734313e+001 1.465772e+002 8.545905e+001 3.301779e+001 6.448618e+001 3.601524e+001 6.633174e+001 4.354819e+001 1.249628e+000 4.466483e-001 9.322735e-001 9.894813e-001 1.331016e+000 1.788845e+000 2.155201e+000 2.292376e+000 2.012542e+000 2.437919e+000 2.471476e+000 2.657898e+000 2.830348e+000 8.441314e-002 9.728075e-002 1.543348e-001 2.223407e-001 2.183101e-001 2.625199e-001 3.278793e-001 4.480830e-001 3.912741e-001 4.469636e-001 4.449241e-001 5.337985e-001 5.168195e-001 1.148589e-002
<GCONST> 1.029311e+002
<TRANSP> 5
 0.000000e+000 1.000000e+000 0.000000e+000 0.000000e+000 0.000000e+000
 0.000000e+000 2.684663e-001 7.315337e-001 0.000000e+000 0.000000e+000
 0.000000e+000 0.000000e+000 8.706236e-001 1.293763e-001 0.000000e+000
 0.000000e+000 0.000000e+000 0.000000e+000 9.536543e-001 4.634568e-002
 0.000000e+000 0.000000e+000 0.000000e+000 0.000000e+000 0.000000e+000
<ENDHMM>
~h "uu-s+a"
<BEGINHMM>
<NUMSTATES> 5
<STATE> 2
<MEAN> 39
 -7.587193e+000 -2.632386e+001 -6.362966e+000 -1.789345e+001 9.540526e+000 7.385052e+000 -5.224753e+000 -9.478077e-001 1.415841e+000 -8.287393e+000 -6.522207e+000 1.711603e+000 2.118064e+001 -6.483750e-002 -4.715675e-001 -2.509340e-002 3.035513e-001 -1.647598e-001 -2.012874e-001 6.691097e-002 2.563523e-002 5.513916e-001 3.267404e-001 2.790696e-001 -2.805386e-001 -4.432594e-002 1.511541e-002 2.379932e-002 4.062720e-002 5.644176e-002 -5.771950e-002 -2.368608e-001 1.308318e-001 6.491170e-002 2.677170e-002 9.232015e-002 -2.083042e-001 -4.688181e-002 -2.435134e-002
<VARIANCE> 39
 1.641357e+001 5.795535e+001 1.267632e+001 6.586215e+001 1.863186e+001 4.541743e+001 1.436779e+001 2.366843e+001 6.557149e+001 1.999128e+001 2.805956e+001 3.080320e+001 7.225603e-001 5.218638e-001 9.663298e-001 1.007202e+000 1.549650e+000 7.637073e-001 1.847824e+000 8.640216e-001 2.856820e+000 2.015393e+000 1.283922e+000 1.480738e+000 1.766058e+000 1.566278e-002 9.317202e-002 1.431861e-001 1.272608e-001 1.917615e-001 1.231338e-001 3.907535e-001 2.466021e-001 2.594999e-001 5.149252e-001 2.550369e-001 4.434900e-001 3.841933e-001 7.627268e-003
<GCONST> 8.772290e+001
<STATE> 3
<MEAN> 39
 -1.524138e+000 -1.562436e+001 -7.822707e+000 -2.949304e+001 9.551862e+000 -4.810845e+000 -5.242063e+000 -8.340865e+000 2.026634e+001 -5.484780e+000 -6.380370e+000 -1.553994e+000 2.011594e+001 -3.396450e-001 -1.678049e+000 1.929261e+000 2.995635e+000 -1.385063e+000 -3.772017e+000 1.554824e+000 5.362134e-001 -2.772502e-002 1.137016e+000 -2.398471e+000 6.129836e-002 -1.237699e-001 1.173724e-001 3.996920e-001 4.405827e-001 2.385656e-001 -4.741089e-001 -1.088506e-001 9.276722e-002 2.528396e-001 -1.362074e+000 -3.709767e-001 -1.394835e-001 4.376716e-001 -2.932844e-002
<VARIANCE> 39
 1.203885e+001 7.395525e+001 2.633761e+001 1.191495e+002 8.143739e+001 7.947008e+001 4.043602e+001 1.300219e+002 7.055917e+001 4.604616e+001 1.139152e+002 9.036404e+001 9.883295e-001 6.483324e-001 2.403434e+000 1.995799e+000 7.276288e+000 3.995085e+000 8.061485e+000 2.395886e+000 5.090678e+000 2.828329e+000 1.549917e+000 5.386272e+000 2.338977e+000 5.721942e-002 1.572370e-001 4.806152e-001 4.640509e-001 3.685969e-001 1.044768e+000 1.057067e+000 6.114174e-001 1.745639e+000 7.835976e-001 1.805086e-001 9.224338e-001 6.500445e-001 2.174806e-002
<GCONST> 1.209400e+002
<STATE> 4
<MEAN> 39
 5.588514e-001 -1.501826e+001 -2.547656e+000 -2.203191e+001 9.314785e-001 -9.272306e+000 -1.084839e+001 -1.014947e+001 1.192072e+001 -4.273323e+000 -1.537879e+001 2.830814e+000 1.846539e+001 4.693628e-001 -1.867565e-001 5.725322e-001 1.865089e+000 -1.454811e+000 -1.481560e-001 -4.096111e-001 -1.075657e-002 -3.057977e+000 -2.523047e-001 2.625307e-001 1.639834e+000 -2.646406e-001 -1.092873e-001 1.028352e-002 -5.911033e-001 -3.286765e-001 3.197441e-001 6.743992e-001 1.189311e-001 1.164152e-001 2.955905e-002 -9.437539e-002 7.833051e-001 1.423661e-001 4.569301e-002
<VARIANCE> 39
 1.579265e+001 4.618773e+001 3.221574e+001 2.882876e+001 9.496523e+001 6.381517e+001 9.631207e+001 1.267822e+002 7.386494e+001 4.160780e+001 1.065823e+002 5.852259e+001 2.274243e+000 6.996282e-001 1.964613e+000 4.687291e+000 1.664231e+000 5.137275e+000 7.544208e+000 3.748252e+000 4.176702e+000 6.942190e+000 1.686947e+000 4.799625e+000 3.513423e+000 1.239097e-001 2.920297e-001 3.688488e-001 6.897758e-001 4.818444e-001 2.647559e-001 2.482175e+000 8.979273e-001 1.122977e+000 3.489456e+000 5.879212e-001 1.106401e+000 2.539834e-001 5.137691e-003
<GCONST> 1.232280e+002
~t "T_s"
<ENDHMM>
~h "a-l+aa"
<BEGINHMM>
<NUMSTATES> 5
<STATE> 2
<MEAN> 39
 -2.996659e+000 -1.799647e+001 6.494722e-001 -1.927014e+001 2.636359e+000 -1.156859e+001 6.439970e+000 -4.272665e+000 -8.494052e-001 -6.178765e+000 -1.974103e+000 4.039335e+000 1.977598e+001 -5.134842e-001 9.671273e-001 1.235473e+000 -3.843448e-001 5.641957e-001 -6.211991e-001 5.061347e-001 2.675331e-001 -2.559967e+000 -6.122820e-001 8.654303e-002 -7.750550e-001 5.476565e-002 -9.132891e-002 1.730950e-001 -1.953013e-001 -1.267091e-001 -2.814774e-001 -1.488000e-001 -4.368387e-001 8.562393e-002 1.384851e+000 2.258722e-001 -1.374347e-001 1.262961e-002 -3.738807e-002
<VARIANCE> 39
 1.822139e+001 5.041938e+001 5.685990e+001 6.143202e+001 3.340016e+002 1.974356e+002 1.644468e+002 1.013188e+002 7.982283e+001 2.971765e+001 1.718517e+002 7.780498e+001 1.664150e+000 8.103902e-001 6.219991e-001 1.253971e+000 1.737877e+000 6.666722e-001 1.093038e+000 9.229534e+000 7.319734e+000 1.203872e+000 2.952914e+000 2.877367e+000 2.661749e+000 3.420532e-002 2.638719e-002 8.723994e-002 9.460915e-002 1.815929e-001 6.340136e-001 4.910881e-001 1.130910e+000 5.312191e-001 3.923293e-001 1.035043e-001 1.270196e+000 1.163426e+000 1.183612e-002
<GCONST> 1.101129e+002
<STATE> 3
<MEAN> 39
 -3.720912e+000 -1.653751e+001 2.777216e+000 -2.099459e+001 1.978896e+000 -1.420121e+001 7.854889e+000 -3.413553e+000 -7.505432e-001 -6.561572e+000 -1.808119e+000 4.363918e+000 1.982121e+001 -6.460550e-001 6.155168e-001 7.819966e-001 -6.032216e-001 -6.089967e-001 -1.156882e+000 3.802423e-001 7.509948e-002 -6.269814e-001 -3.491140e-001 -7.974759e-002 -6.860500e-001 4.430106e-002 1.226195e-002 -9.356321e-002 -3.069438e-001 5.617585e-002 -4.278074e-001 1.801904e-001 -6.983062e-002 -2.096733e-001 1.491778e+000 4.600714e-001 -1.369018e-001 3.983309e-002 -2.823362e-002
<VARIANCE> 39
 1.377572e+001 3.697087e+001 6.579444e+001 8.274846e+001 3.665998e+002 1.608788e+002 2.620381e+002 7.707847e+001 6.677565e+001 7.545856e+000 1.375198e+002 5.240150e+001 1.994723e+000 6.281506e-001 6.532452e-001 7.468996e-001 1.406279e+000 1.234703e+000 1.356861e+000 4.629591e+000 6.679999e+000 9.284657e-001 2.938292e+000 1.416208e+000 4.717452e+000 2.066278e-002 1.136536e-002 1.312198e-001 2.741108e-001 6.920466e-002 3.955380e-001 3.374765e-001 1.440363e+000 7.981470e-001 5.240244e-001 2.464529e-001 7.245033e-001 5.473573e-001 6.562690e-003
<GCONST> 1.049903e+002
<STATE> 4
<MEAN> 39
 -4.649092e+000 -1.551649e+001 2.886372e+000 -1.974455e+001 1.877527e+000 -1.436945e+001 6.877303e+000 -2.586287e+000 -2.873859e-001 -6.802806e+000 -2.270445e+000 4.009416e+000 1.993777e+001 -3.799255e-001 2.901476e-001 5.499065e-001 -3.575610e-001 -1.093315e+000 -5.550681e-001 8.762417e-001 1.473012e-001 1.433848e+000 4.750099e-001 -2.015075e-001 -7.117536e-001 2.196546e-002 1.317136e-001 -1.956585e-001 -2.139112e-001 1.237009e-001 -2.473224e-001 5.138767e-001 7.574276e-002 -4.406195e-001 1.044465e+000 4.267082e-001 -1.780384e-001 -5.975195e-003 -3.310636e-002
<VARIANCE> 39
 1.364267e+001 5.543144e+001 5.300936e+001 7.907021e+001 3.193548e+002 1.969866e+002 2.592494e+002 5.906587e+001 3.736302e+001 5.319064e+000 1.134201e+002 1.475525e+001 1.939131e+000 3.327405e-001 8.586655e-001 9.508318e-001 9.580262e-001 1.450502e+000 1.009876e+000 6.416757e-001 3.269352e+000 1.882717e+000 2.486263e+000 2.471998e+000 7.328154e+000 1.793478e-002 4.303292e-002 7.013021e-002 1.798271e-001 1.279969e-001 2.576024e-001 5.892627e-001 1.400549e+000 1.129831e+000 2.694214e-001 6.506960e-001 5.752411e-002 2.808976e-001 3.599887e-003
<GCONST> 9.841063e+001
<TRANSP> 5
 0.000000e+000 1.000000e+000 0.000000e+000 0.000000e+000 0.000000e+000
 0.000000e+000 3.481201e-004 9.996519e-001 0.000000e+000 0.000000e+000
 0.000000e+000 0.000000e+000 1.561227e-004 9.998439e-001 0.000000e+000
 0.000000e+000 0.000000e+000 0.000000e+000 1.616146e-002 9.838386e-001
 0.000000e+000 0.000000e+000 0.000000e+000 0.000000e+000 0.000000e+000
<ENDHMM>
~h "a-l+ee"
<BEGINHMM>
<NUMSTATES> 5
<STATE> 2
<MEAN> 39
 -1.401867e-001 -7.225334e+000 -1.517606e+001 -1.662971e+001 5.805048e+000 -1.530388e+001 -1.027391e+001 8.595198e+000 1.451798e+000 -4.567624e+000 -5.834907e+000 -1.126831e+000 1.803258e+001 -4.099391e-001 -1.826241e-001 -5.962443e-001 1.253324e+000 1.038607e+000 5.716131e-001 -7.801547e-001 9.441645e-001 8.212251e-002 -1.154540e+000 -8.032587e-001 5.874457e-001 -1.586098e-003 -5.315372e-002 2.443988e-001 4.444219e-001 -9.544679e-001 -2.508805e-001 3.819654e-001 4.675110e-001 -6.469323e-001 3.870941e-001 -9.117695e-002 4.807530e-001 4.161181e-001 3.713333e-002
<VARIANCE> 39
 4.603778e+001 6.735866e+001 7.707897e+001 6.459021e+001 1.367033e+002 1.744739e+002 3.748252e+001 4.303397e+001 1.891724e+002 1.407608e+002 5.509916e+001 8.427361e+001 1.525960e+000 2.163068e+000 2.328631e+000 7.660196e+000 9.250386e-001 2.088572e+000 8.344971e-001 1.320210e+000 9.872456e-001 2.073230e+000 9.762014e+000 2.002362e+000 2.623417e+000 9.711323e-002 1.113941e-001 3.087386e-001 8.925138e-001 5.343754e-001 4.884661e-001 9.756746e-001 6.717532e-001 6.058030e-001 9.900731e-001 3.324174e-001 4.778602e-001 2.041348e+000 1.770849e-002
<GCONST> 1.205602e+002
<STATE> 3
<MEAN> 39
 3.848912e+000 -5.526557e+000 -1.787000e+001 -1.579233e+001 1.299438e+000 -1.399448e+001 -8.412024e+000 6.839537e+000 4.035169e-001 -8.636780e+000 -6.194841e+000 2.081202e+000 1.803952e+001 -1.947120e-001 9.910663e-001 1.386590e-001 -1.887264e+000 7.018297e-002 1.794258e+000 2.816933e-001 -8.849810e-001 1.173563e+000 1.798270e-001 -5.604342e-002 -8.317421e-002 2.380916e-001 -1.102468e-001 1.646269e-001 5.451483e-001 -7.232741e-001 -4.249709e-001 -9.174886e-002 -1.279322e-002 -7.491390e-001 1.961282e-001 -5.962725e-002 2.828135e-001 3.825954e-002 -1.531147e-002
<VARIANCE> 39
 7.155840e+001 3.910688e+001 4.061409e+001 6.939490e+001 1.894257e+002 8.768378e+001 1.841213e+001 4.551377e+001 1.475633e+002 7.279615e+001 3.010345e+001 3.521469e+001 1.031078e+000 1.265349e+000 3.134867e+000 6.675929e+000 7.583222e+000 2.120987e+000 1.998008e+000 5.054689e+000 3.518799e+000 3.445956e+000 7.789463e+000 9.060027e-001 5.027841e+000 1.393396e-001 9.278914e-002 6.971421e-002 2.741385e-001 1.076496e+000 4.276733e-001 8.208537e-001 7.310929e-001 5.838060e-001 7.871035e-001 3.067355e-001 3.369676e-001 8.663465e-001 2.076221e-002
<GCONST> 1.180592e+002
<STATE> 4
<MEAN> 39
 -2.174186e-001 -5.214805e+000 -1.368628e+001 -1.995400e+001 5.814588e+000 -1.093225e+001 -1.085297e+001 6.043312e+000 4.142162e+000 -7.801267e+000 -6.636997e+000 -1.069663e+000 1.845233e+001 -5.219492e-001 3.833115e-001 1.135975e+000 -9.013717e-001 -8.892324e-001 -1.298064e-001 -1.071123e+000 -7.520075e-001 1.495414e+000 -3.319885e-001 9.614666e-001 3.240739e-001 -1.586996e-003 1.850902e-001 1.000378e-001 -4.156649e-002 1.227015e-001 7.320836e-002 -7.002481e-001 2.081152e-001 -1.490710e-001 -2.872681e-001 2.205485e-001 2.123036e-001 -6.893062e-003 -3.963532e-002
<VARIANCE> 39
 7.466992e+001 7.498754e+001 2.159494e+001 7.129012e+001 1.917937e+002 1.173573e+002 2.619017e+001 9.498564e+001 1.790950e+002 3.882554e+001 3.977348e+001 2.147499e+001 9.091082e-001 6.943351e-001 2.134009e+000 8.051523e+000 3.187454e+000 1.144939e+000 3.302532e+000 3.760584e+000 5.168072e+000 5.426625e+000 3.772393e+000 2.365268e+000 1.080740e+001 1.475839e-002 1.128828e-001 4.776871e-001 4.233341e-001 1.373716e+000 7.350537e-001 2.565343e-001 8.339981e-001 3.483772e-001 1.183276e+000 1.034396e+000 5.676398e-002 4.699797e-001 2.388662e-002
<GCONST> 1.174461e+002
<TRANSP> 5
 0.000000e+000 1.000000e+000 0.000000e+000 0.000000e+000 0.000000e+000
 0.000000e+000 1.249887e-002 9.875012e-001 0.000000e+000 0.000000e+000
 0.000000e+000 0.000000e+000 3.795679e-001 6.204321e-001 0.000000e+000
 0.000000e+000 0.000000e+000 0.000000e+000 5.960345e-002 9.403965e-001
 0.000000e+000 0.000000e+000 0.000000e+000 0.000000e+000 0.000000e+000
<ENDHMM>
~h "oo-t^+f"
<BEGINHMM>
<NUMSTATES> 5
<STATE> 2
<MEAN> 39
 -6.671863e+000 -1.468533e+001 -7.774884e+000 -1.486158e+001 4.204043e+000 -1.830702e+001 8.923644e-001 -1.002944e+001 -2.167968e+000 -1.881666e+001 -5.583347e+000 -4.204633e+000 1.962748e+001 2.997350e-002 -5.761539e-002 -1.334948e-001 1.828602e-001 6.464475e-003 1.474893e-001 -1.004291e-001 -2.020497e-002 1.126247e-001 -8.805688e-002 5.847225e-002 -2.446656e-001 -4.363872e-004 -7.444567e-003 7.562628e-002 2.283151e-002 8.272416e-002 -6.746282e-002 -2.380881e-002 -9.992408e-003 1.172577e-002 1.684856e-002 4.176865e-002 4.034555e-002 -7.460319e-003 -1.444380e-002
<VARIANCE> 39
 2.907982e+001 5.274795e+001 7.092504e+001 7.792588e+001 6.913438e+001 6.752634e+001 4.539769e+001 6.407286e+001 6.053249e+001 7.885164e+001 5.747220e+001 5.492315e+001 2.821785e+000 2.483302e+000 3.724781e+000 2.306221e+000 3.856291e+000 3.051500e+000 2.991104e+000 2.242340e+000 4.686685e+000 6.190828e+000 4.651261e+000 4.769813e+000 2.885171e+000 2.355196e-001 4.141012e-001 6.468849e-001 3.822637e-001 6.416627e-001 5.327605e-001 4.485896e-001 5.331225e-001 8.184667e-001 1.202717e+000 7.016435e-001 9.197620e-001 4.942598e-001 4.481980e-002
<GCONST> 1.260827e+002
<STATE> 3
<MEAN> 39
 -5.257121e+000 -1.611769e+001 -5.008452e+000 -1.222774e+001 1.114888e+001 -1.796541e+001 1.397496e+000 -2.039665e+000 -6.443527e+000 -1.064271e+001 -1.520821e+000 -5.353022e+000 2.008405e+001 -3.035524e-002 -4.008036e-002 2.288645e-001 8.793942e-002 -2.874411e-001 9.326953e-002 5.135201e-001 -2.379300e-001 -2.167107e-001 6.327218e-002 2.084474e-001 1.406641e-001 -1.274570e-002 2.639687e-002 5.134765e-002 -3.711064e-002 5.227444e-003 -6.177212e-002 2.354479e-002 4.521826e-002 -3.525165e-002 1.941533e-002 9.196933e-003 -3.871076e-002 2.213166e-002 -1.892766e-002
<VARIANCE> 39
 1.768836e+001 3.551267e+001 2.591064e+001 2.802431e+001 6.652540e+001 3.219203e+001 4.416208e+001 4.108675e+001 5.230798e+001 4.311998e+001 9.416437e+001 4.000406e+001 2.030776e+000 7.496957e-001 1.362064e+000 1.168890e+000 1.416319e+000 2.150002e+000 2.270224e+000 2.481497e+000 4.494096e+000 2.760977e+000 1.660929e+000 2.337820e+000 2.435704e+000 1.091558e-001 1.073943e-001 1.862639e-001 2.073949e-001 2.516426e-001 4.300000e-001 3.890922e-001 3.051589e-001 8.609588e-001 4.542223e-001 2.632192e-001 3.816805e-001 4.394401e-001 1.738154e-002
<GCONST> 1.041626e+002
<STATE> 4
<MEAN> 39
 -8.514183e+000 -1.798002e+001 -3.317406e+000 -7.673892e+000 9.786109e-001 -1.128996e+001 6.306231e+000 -1.038371e+001 -5.384462e-001 -1.396256e+001 -9.104170e+000 -8.941545e+000 1.875582e+001 -4.505394e-001 9.813308e-001 -8.575553e-002 8.263642e-002 1.375102e-001 8.856146e-002 -9.470906e-001 9.363248e-001 1.709742e-001 4.175147e-001 5.608618e-001 -4.904483e-002 -3.010356e-001 -4.190614e-002 3.333081e-002 -8.818492e-002 4.668652e-002 1.419182e-001 -3.116762e-001 -1.580472e-001 1.180124e-001 -7.503550e-002 -8.105079e-002 3.130433e-002 -3.856224e-002 7.916364e-004
<VARIANCE> 39
 2.849281e+001 3.520471e+001 3.811189e+001 5.029996e+001 6.782796e+001 3.079942e+001 1.506572e+002 2.412846e+001 5.379253e+001 8.548310e+001 1.255223e+002 6.663837e+001 2.926179e+000 1.287197e+000 9.329495e-001 2.780762e+000 4.037398e+000 2.842299e+000 4.741248e+000 4.288460e+000 2.594762e+000 2.920787e+000 6.378039e+000 5.604362e+000 3.520979e+000 7.308201e-002 2.739395e-001 2.004854e-001 4.407245e-001 5.196606e-001 2.756649e-001 6.758459e-001 1.185352e+000 5.469024e-001 7.105064e-001 7.471482e-001 9.986317e-001 2.982948e-001 1.682914e-002
<GCONST> 1.190124e+002
~t "T_t^"
<ENDHMM>
~h "n-@@+n^"
<BEGINHMM>
<NUMSTATES> 5
<STATE> 2
<MEAN> 39
 -7.676933e+000 -3.467237e+000 -1.676968e+001 -2.462877e+001 4.911366e+000 -1.361617e+001 -1.127202e+001 -1.224963e+001 5.906661e+000 -1.523723e+001 -2.808634e+000 -9.787327e+000 1.915652e+001 6.594819e-001 2.527352e-001 -2.377872e-001 -5.876048e-001 4.101209e-001 1.259522e+000 -8.110848e-002 1.189408e+000 1.120088e+000 -2.527523e-001 4.799332e-001 -1.933561e-002 -3.871794e-002 -2.287704e-001 -1.205085e-001 5.353017e-002 2.747720e-001 -2.690312e-001 -1.748690e-001 8.616180e-001 7.058089e-002 4.210839e-001 2.790697e-001 8.260299e-002 2.421132e-001 3.632125e-002
<VARIANCE> 39
 1.747628e+000 4.939417e+001 3.074389e+001 1.398992e+002 5.062799e+001 5.991280e+001 6.137107e+001 3.058931e+001 5.982164e+001 8.308504e+001 3.959684e+001 1.918559e+001 1.432714e+000 1.715857e-001 6.425485e-001 1.601557e+000 1.879328e+000 1.239228e+000 2.119659e+000 3.296124e+000 1.622823e+000 1.759904e+000 4.643683e+000 1.905206e+000 1.438766e+000 2.165513e-002 6.528863e-002 2.089414e-001 3.325301e-001 5.953283e-001 3.331217e-001 9.118115e-001 5.254813e-001 3.666925e-001 6.308779e-001 1.436813e+000 6.141626e-001 1.543136e-001 3.253228e-003
<GCONST> 9.944167e+001
<STATE> 3
<MEAN> 39
 -7.145879e+000 -2.156341e+000 -1.814445e+001 -2.378244e+001 3.324929e+000 -1.188047e+001 -1.374713e+001 -1.286909e+001 8.178440e+000 -1.590619e+001 -2.064909e+000 -9.822092e+000 1.875541e+001 4.208725e-001 -2.535428e-001 -7.238421e-001 -8.697436e-001 3.733554e-001 1.614383e+000 1.682802e+000 9.389499e-001 1.236121e+000 5.398623e-001 2.489296e-001 4.829180e-001 5.074466e-002 -1.144772e-001 -5.462974e-001 7.357442e-002 4.838994e-001 -4.703474e-002 -3.828050e-001 7.659147e-001 7.758345e-002 -1.807580e-001 -1.510679e-001 -2.573775e-001 1.236713e-001 6.374314e-002
<VARIANCE> 39
 3.606932e+000 6.880813e+001 2.763514e+001 1.459671e+002 6.147543e+001 7.678120e+001 5.273498e+001 2.019831e+001 2.488783e+001 9.308862e+001 4.536769e+001 8.408457e+000 2.110671e+000 1.783277e-001 1.237322e+000 2.897556e+000 1.935387e+000 1.606637e+000 2.435683e+000 3.872691e+000 2.124459e+000 2.685059e+000 6.574822e+000 3.260615e+000 1.173568e+000 2.637235e-002 2.919154e-002 2.901866e-001 7.645876e-001 7.553021e-001 8.258248e-001 1.022830e+000 7.751865e-001 2.928724e-001 5.064206e-001 1.172693e+000 6.231143e-001 2.131287e-001 4.804569e-003
<GCONST> 1.047758e+002
<STATE> 4
<MEAN> 39
 -6.871931e+000 -7.586661e+000 -1.684440e+001 -2.806453e+001 6.853244e+000 -4.062722e+000 -7.845834e+000 -1.129244e+001 1.317604e+001 -1.107761e+001 -1.048188e+000 -9.886732e+000 1.968468e+001 -1.792447e-001 -3.274940e+000 9.667090e-001 2.776679e+000 -2.005611e-001 -1.139931e+000 1.848704e+000 1.289945e+000 -1.749325e-001 -1.657117e+000 -1.910561e+000 6.312254e-001 1.945033e-001 -2.084506e-001 -2.534778e-001 6.641666e-001 6.964117e-001 -8.147226e-001 -1.057676e+000 1.585044e-001 -1.091951e-001 -9.760526e-001 -7.619618e-001 -5.939810e-003 5.598474e-001 -3.492210e-002
<VARIANCE> 39
 4.406842e+000 9.927272e+001 5.865804e+001 1.645624e+002 5.322593e+001 1.250021e+002 2.692171e+001 3.937535e+001 2.972446e+001 7.234330e+001 6.409077e+001 1.582292e+001 1.803887e+000 3.141094e-001 4.993642e+000 2.523306e+000 6.334579e+000 3.602306e+000 6.402929e+000 2.514168e+000 2.205527e+000 5.271060e+000 9.175986e+000 4.046587e+000 3.946491e+000 1.517195e-002 3.614207e-002 1.058858e+000 4.812689e-001 1.510816e+000 7.336334e-001 5.006666e-001 6.349701e-001 5.172415e-001 5.622754e-001 1.366338e+000 1.500297e+000 6.614368e-001 4.759364e-003
<GCONST> 1.171058e+002
~t "T_@@"
<ENDHMM>
~h "m^-ph+a"
<BEGINHMM>
<NUMSTATES> 5
<STATE> 2
<MEAN> 39
 -1.203928e+001 -1.641172e+001 -8.378629e+000 -1.799752e+001 2.077141e+001 -2.561276e+000 1.627286e-001 -1.316757e+001 8.800323e+000 -1.467587e+001 -5.320982e+000 -5.012122e-001 1.850397e+001 1.957042e+000 1.456693e-001 1.441273e-002 -2.550731e+000 -2.581929e+000 -1.862157e-001 -1.003660e-001 -9.743472e-001 -3.587363e-001 8.116841e-001 -7.484843e-002 -2.842290e-001 4.874943e-001 5.368567e-001 2.824075e-002 -7.890779e-001 9.371054e-001 -9.290942e-001 4.138808e-001 -4.219732e-001 2.837559e-001 3.492662e-001 6.652819e-001 -3.108805e-001 5.465225e-002 -6.120418e-002
<VARIANCE> 39
 3.438300e+001 5.486574e+001 2.561753e+001 4.980347e+001 1.508918e+002 3.257905e+002 3.633831e+001 4.783680e+001 1.026924e+002 4.115866e+001 1.374636e+002 2.153800e+001 3.914771e+000 4.713278e+000 2.191638e+000 2.263307e+000 9.278207e-001 7.126463e+000 8.332117e-001 3.290084e+000 7.419283e-001 4.213212e+000 8.132955e-001 3.263044e+000 1.069922e+000 2.003505e-001 2.377839e+000 8.089196e-001 8.688076e-001 6.825722e-001 1.323228e+000 4.179477e-001 8.017071e-001 5.086785e-001 1.699113e+000 8.834457e-001 3.380486e-001 2.865019e-001 9.097221e-002
<GCONST> 1.232832e+002
<STATE> 3
<MEAN> 39
 -9.732874e+000 -1.636163e+001 -8.995043e+000 -1.995723e+001 1.392284e+001 -8.239901e+000 -1.556907e+000 -1.296221e+001 4.556383e+000 -1.510281e+001 -5.651030e+000 -3.324108e+000 1.973712e+001 1.298231e+000 -3.681678e-001 -1.321393e-001 -1.685401e+000 -2.226562e+000 4.851162e-001 -1.076629e-001 -2.632076e-001 4.777739e-001 1.638863e+000 -1.088046e+000 2.546884e-002 4.271484e-001 -3.551520e-002 2.003435e-002 -1.987969e-001 8.045672e-001 -1.273830e-001 2.822823e-001 -5.368082e-001 4.165350e-001 -3.674210e-003 4.845498e-001 -6.890745e-002 1.615812e-001 -1.634309e-001
<VARIANCE> 39
 5.116030e+001 6.590524e+001 5.919436e+001 5.532998e+001 1.534301e+002 2.755945e+002 2.493611e+001 4.015310e+001 1.171057e+002 7.172404e+001 1.569889e+002 2.376745e+001 3.437615e+000 4.506503e+000 1.073904e+000 2.219537e+000 2.237234e+000 6.353671e+000 6.471302e-001 6.626045e+000 3.262187e+000 2.948923e+000 4.543996e+000 5.897478e-001 3.379137e+000 1.725842e-001 1.225547e+000 9.056533e-001 2.810945e-001 3.477589e-001 2.787056e-001 1.888990e-001 3.402575e-001 3.800966e-001 1.706199e+000 5.064002e-001 3.045055e-001 1.004679e-001 7.017151e-002
<GCONST> 1.196449e+002
<STATE> 4
<MEAN> 39
 -5.968240e+000 -5.698890e+000 3.401363e+000 -2.086311e+001 -1.023026e+001 -3.094830e+001 1.817912e-001 -7.594215e+000 4.899085e+000 -1.931238e+001 6.858584e+000 8.586724e+000 1.835026e+001 4.369505e-001 1.593943e-001 4.579829e-001 9.796309e-002 -6.857403e-001 -3.018663e-001 -3.116013e-001 3.545167e-002 3.792837e-001 5.634681e-002 -9.620388e-001 -1.407262e-002 -2.153503e-002 5.235013e-002 3.814929e-003 -3.866064e-002 2.328542e-001 1.024691e-001 1.416761e-001 -9.581612e-002 9.466277e-002 -1.498920e-001 -9.629416e-002 -4.020547e-002 3.235872e-002 -3.652015e-002
<VARIANCE> 39
 1.518945e+001 6.797972e+001 5.852945e+001 1.834819e+001 2.049594e+002 2.150954e+002 2.148909e+001 3.199571e+001 4.671331e+001 5.974419e+001 9.802660e+001 7.778489e+001 2.201302e+000 1.236176e+000 1.484035e+000 9.269427e-001 1.185539e+000 1.920824e+000 1.296728e+000 3.123739e+000 1.804020e+000 2.726645e+000 2.448721e+000 1.373501e+000 1.311165e+000 9.993074e-002 1.701870e-001 1.978811e-001 1.929756e-001 2.225968e-001 2.884774e-001 2.939795e-001 5.477483e-001 2.341351e-001 4.902269e-001 3.808666e-001 3.357697e-001 3.486101e-001 1.931136e-002
<GCONST> 1.051818e+002
<TRANSP> 5
 0.000000e+000 1.000000e+000 0.000000e+000 0.000000e+000 0.000000e+000
 0.000000e+000 2.676165e-001 7.323835e-001 0.000000e+000 0.000000e+000
 0.000000e+000 0.000000e+000 1.085221e-002 9.891478e-001 0.000000e+000
 0.000000e+000 0.000000e+000 0.000000e+000 8.327941e-001 1.672058e-001
 0.000000e+000 0.000000e+000 0.000000e+000 0.000000e+000 0.000000e+000
<ENDHMM>
~h "a-w^+th"
<BEGINHMM>
<NUMSTATES> 5
<STATE> 2
<MEAN> 39
 -2.553311e+000 -1.530368e+001 -1.235427e+001 -2.571972e+001 1.316398e+001 -7.917128e+000 -6.739296e-001 -8.408878e+000 8.216619e+000 -8.786536e+000 -9.835590e+000 8.029509e+000 1.892166e+001 4.577899e-001 3.471224e-001 -5.236400e-001 5.862354e-001 -7.353826e-001 -9.171343e-002 -4.419223e-001 7.536559e-001 5.647625e-001 2.496241e-001 5.684120e-001 8.750275e-001 -1.855327e-001 8.162428e-002 1.025663e-001 6.244668e-002 3.823241e-001 3.494660e-002 -1.845251e-001 -1.742904e-001 -2.892478e-001 -7.422678e-002 1.147607e-001 -4.972474e-002 -5.485380e-002 -1.021564e-002
<VARIANCE> 39
 1.078347e+001 2.629629e+000 4.859714e+001 1.603233e+002 9.756052e+001 1.052138e+002 2.807946e+001 1.106269e+002 6.414902e+001 2.325998e+001 3.736651e+001 1.309705e+001 2.004586e+000 1.988696e-001 6.724215e-001 9.338624e-001 1.321850e+000 1.664849e+000 8.829581e-001 2.088380e+000 2.903487e+000 5.132283e+000 3.155761e+000 8.079625e-001 6.604549e-001 1.851306e-002 6.274591e-002 2.080138e-001 1.815915e-001 2.525097e-001 1.990450e-001 1.644729e-001 5.068307e-001 3.433350e-001 3.844670e-001 5.670934e-001 2.001745e-001 2.076814e-001 3.975526e-003
<GCONST> 9.119064e+001
<STATE> 3
<MEAN> 39
 1.176190e+000 -1.008044e+001 -2.248481e+001 -1.578981e+001 1.974311e+001 -9.679896e-001 -1.521130e+000 -1.395944e+001 1.346162e+001 -7.854368e+000 -1.116312e+001 7.509356e+000 1.773925e+001 2.963603e-001 1.876233e-001 -6.144626e-001 1.707337e+000 -5.503796e-001 1.331306e-001 9.414556e-003 3.608305e-001 8.635104e-001 -2.610543e-001 5.183191e-001 -3.538438e-001 -1.217518e-001 -1.291683e-001 -2.956717e-001 1.027581e-001 5.440173e-002 -1.683356e-001 -2.574512e-001 2.092344e-002 -1.034647e-001 -3.094701e-001 -4.427063e-001 4.216242e-003 1.939267e-002 1.384985e-002
<VARIANCE> 39
 1.540627e+001 1.582135e+001 1.046440e+002 1.258071e+002 1.014209e+002 1.126514e+002 3.631419e+001 1.268315e+002 7.755267e+001 4.045441e+001 3.923428e+001 2.786198e+001 1.068116e+000 5.291626e-001 1.355094e+000 9.227939e-001 1.067103e+000 1.666059e+000 6.501884e+000 3.567645e+000 6.651701e+000 4.675899e+000 7.451654e+000 1.212001e+000 1.729365e+000 2.202114e-002 8.174197e-002 4.023852e-001 2.212854e-001 2.285957e-001 4.641375e-001 8.167129e-001 1.044066e+000 1.637995e+000 8.977651e-001 6.045448e-001 1.923290e-001 5.661197e-001 3.614237e-003
<GCONST> 1.099440e+002
<STATE> 4
<MEAN> 39
 -2.632876e-001 -1.595665e+001 -1.870715e+001 -6.167493e+000 9.885046e+000 -5.215517e+000 -1.950240e+000 -5.908916e+000 9.804357e+000 -1.582100e+001 -7.121253e+000 9.962432e+000 1.724562e+001 -4.420115e-001 -1.806945e+000 3.547603e-001 6.007519e-001 -1.337121e+000 -3.760005e-001 5.727051e-001 1.660616e+000 -1.408524e+000 1.042544e-002 5.332805e-001 -9.558337e-002 -1.161819e-001 -2.464952e-002 -1.593892e-001 1.587958e-001 -3.810338e-001 6.524424e-002 5.947946e-001 6.878651e-002 5.089232e-002 -1.388579e-001 4.570088e-001 -1.310205e-001 -3.874711e-001 3.033855e-002
<VARIANCE> 39
 2.161422e+001 1.684162e+001 1.287530e+002 2.266512e+002 6.614600e+001 1.016627e+002 3.727921e+001 1.426180e+002 1.667907e+002 2.251417e+002 3.700381e+001 2.822617e+001 1.816519e+000 3.614284e-001 1.956832e+000 1.562039e+000 1.360263e+000 4.393947e+000 5.060900e+000 3.391705e+000 8.241347e+000 8.199260e+000 3.992353e+000 1.146907e+000 5.405303e+000 5.431224e-002 4.338934e-002 1.704147e-001 1.950119e-001 3.052396e-001 3.422130e-001 5.820162e-001 2.207936e-001 1.246975e+000 2.211679e+000 1.505470e+000 5.479468e-001 5.130534e-001 8.128178e-003
<GCONST> 1.170586e+002
~t "T_w^"
<ENDHMM>
~h "iia-w^+ph"
<BEGINHMM>
<NUMSTATES> 5
<STATE> 2
<MEAN> 39
 -3.110851e+000 -2.023899e+001 -1.482069e+001 -2.817410e+001 1.126952e+001 1.779281e+000 -5.974000e+000 -9.337549e-001 4.703826e+000 -2.066021e+000 -2.795262e+000 -3.842916e+000 1.924728e+001 6.471021e-001 3.816225e-001 -5.423052e-001 -5.628946e-001 -4.276508e-001 8.952236e-001 -7.765987e-001 9.697890e-001 3.863133e-001 3.544922e-001 1.033479e-001 -1.453072e-001 -1.584684e-001 4.165434e-002 4.349453e-002 -2.346014e-002 6.408023e-002 -4.271037e-002 -5.913330e-002 -7.447977e-002 3.552699e-003 -8.782604e-002 7.928153e-002 -7.677527e-002 -1.189802e-001 2.291151e-003
<VARIANCE> 39
 1.295956e+001 2.140019e+001 2.686119e+001 1.445186e+002 6.871450e+001 1.870494e+002 1.712960e+002 1.441792e+002 2.551455e+002 1.146753e+002 3.223525e+001 5.940891e+001 6.827092e-001 4.942989e-001 6.018119e-001 1.199158e+000 1.870682e+000 1.565868e+000 1.622855e+000 1.954235e+000 2.580582e+000 2.906859e+000 1.516519e+000 1.283048e+000 1.179740e+000 2.356334e-002 7.005780e-002 6.844497e-002 1.434275e-001 1.858475e-001 2.781811e-001 2.775938e-001 2.252469e-001 3.886314e-001 4.312844e-001 2.590555e-001 2.633446e-001 1.941786e-001 3.583340e-003
<GCONST> 9.814006e+001
<STATE> 3
<MEAN> 39
 1.018759e+001 -8.291183e+000 -2.668319e+001 -1.145568e+001 1.130553e+001 1.078761e+000 -4.350130e+000 1.010661e+001 1.168374e+001 8.519340e+000 -1.897044e+000 2.594851e+000 1.718599e+001 6.011767e-001 9.731852e-001 -5.584267e-001 4.238484e-001 -4.100714e-001 4.984009e-001 -3.710386e-002 2.868283e-001 -1.804037e-001 2.676886e-001 -7.396637e-003 -2.795450e-001 -1.230990e-001 -6.763129e-002 4.382048e-003 1.123703e-001 5.576579e-002 1.329761e-001 -1.913130e-002 -3.401246e-002 -1.467208e-001 -1.541311e-001 -2.783478e-001 -1.080572e-001 -8.438168e-002 -5.544893e-003
<VARIANCE> 39
 2.260344e+001 5.450554e+001 4.321322e+001 9.014832e+001 1.887711e+002 8.134769e+001 8.429442e+001 8.575887e+001 7.162254e+001 6.491277e+001 4.513416e+001 8.017761e+001 9.786101e-001 3.967180e-001 7.227394e-001 1.333058e+000 1.655055e+000 2.494616e+000 3.053408e+000 2.442050e+000 4.695092e+000 4.019326e+000 4.146736e+000 2.835206e+000 2.717771e+000 1.906567e-002 4.856449e-002 1.278977e-001 1.657001e-001 3.695426e-001 4.382898e-001 5.314345e-001 4.666656e-001 8.904631e-001 8.149169e-001 5.011299e-001 4.113418e-001 3.056868e-001 3.491034e-003
<GCONST> 1.082741e+002
<STATE> 4
<MEAN> 39
 2.954631e+000 -2.511509e+000 -2.519728e+001 -1.470403e+001 -3.874643e-001 6.871521e+000 -1.021989e+001 6.007228e+000 8.046537e-001 -3.021383e+000 -4.246184e-001 -4.157645e+000 1.359423e+001 -7.894601e-001 4.010181e-001 4.352412e-001 1.398740e+000 -1.867732e-001 -2.411140e-001 5.757565e-001 -6.167913e-003 -2.398610e-001 -1.446805e-001 2.405085e-001 2.437130e-001 -3.655523e-001 -1.811071e-001 -5.434167e-002 8.587573e-002 -7.762979e-003 -7.499377e-002 -3.199995e-002 2.262363e-001 1.743751e-001 1.480792e-001 1.577616e-001 2.032396e-001 2.074946e-001 9.838386e-003
<VARIANCE> 39
 7.730472e+001 4.469557e+001 6.268027e+001 2.367036e+002 7.210571e+001 5.074923e+001 1.157864e+002 6.219317e+001 4.348758e+001 5.456466e+001 4.878577e+001 3.434379e+001 1.025114e+001 1.438118e+000 1.601020e+000 2.797649e+000 2.925585e+000 2.339477e+000 3.285099e+000 4.514749e+000 6.202037e+000 4.642840e+000 7.089636e+000 4.425797e+000 2.813417e+000 9.222262e-002 2.215046e-001 2.833771e-001 2.807199e-001 5.878882e-001 4.373205e-001 5.397246e-001 5.682455e-001 8.095128e-001 7.155835e-001 1.223207e+000 7.988799e-001 5.472990e-001 1.903213e-002
<GCONST> 1.242676e+002
~t "T_w^"
<ENDHMM>
~h "iia-w^+th"
<BEGINHMM>
<NUMSTATES> 5
<STATE> 2
<MEAN> 39
 -1.517551e+000 -1.455144e+001 -2.628862e+000 -2.750015e+001 5.784537e+000 -1.625519e+001 -1.691124e+000 -5.874458e+000 3.416515e-001 -3.434355e+000 -8.041772e+000 -4.926096e-001 1.944544e+001 5.810032e-001 2.764190e-001 -2.836362e-001 -9.502067e-001 -2.032636e-001 -5.650370e-001 -1.175407e+000 7.634919e-001 6.975421e-002 1.178517e+000 4.551496e-001 1.470078e+000 -1.140058e-001 6.400623e-003 -9.164397e-002 -1.002642e-002 2.162888e-001 -7.678889e-002 1.136240e-001 3.619458e-001 7.257540e-002 2.100997e-001 1.094440e-001 -1.712766e-001 -4.431572e-002 1.109604e-002
<VARIANCE> 39
 6.036850e+000 2.642095e+001 4.003258e+001 1.715429e+001 3.732869e+001 9.510089e+001 5.241511e+001 8.487386e+001 8.179237e+001 1.291584e+002 1.668136e+001 1.562872e+001 6.213851e-001 8.263551e-002 1.216388e+000 5.899155e-001 1.631994e+000 2.076732e+000 2.568846e+000 2.590305e+000 1.300944e+000 2.258343e+000 3.436667e+000 7.898493e-001 1.704954e+000 6.831149e-002 4.487383e-002 1.987469e-001 7.595634e-002 4.117269e-001 2.604136e-001 5.146636e-001 4.687821e-001 4.651301e-001 7.924060e-001 9.566051e-001 3.392364e-001 4.832634e-001 5.072807e-003
<GCONST> 9.533931e+001
<STATE> 3
<MEAN> 39
 6.465266e+000 -3.368920e+000 -1.162577e+001 -2.245606e+001 6.177543e+000 -1.010563e+001 1.708365e+000 -7.498875e+000 5.640675e+000 5.902168e+000 -1.125047e+001 4.342987e+000 1.850562e+001 7.377947e-001 8.673542e-001 -5.097733e-001 2.910405e-001 -2.184056e-003 4.142719e-001 3.220845e-001 9.247341e-001 -4.459473e-001 7.899382e-001 1.104651e-001 2.385929e-003 -2.260588e-002 -5.989269e-002 5.031234e-002 2.818743e-002 1.775557e-003 -6.292794e-002 -3.621045e-002 -1.360317e-002 1.631862e-002 -3.315691e-001 -4.599030e-001 7.457215e-002 -9.193541e-002 2.700701e-003
<VARIANCE> 39
 3.776135e+001 6.578014e+001 3.263858e+001 2.664944e+001 1.885635e+001 1.002554e+002 2.182852e+001 5.502233e+001 8.031708e+001 8.589557e+001 2.868976e+001 2.596225e+001 4.039389e-001 7.607175e-001 2.071230e+000 5.411699e-001 3.290513e+000 2.267958e+000 3.208786e+000 3.498302e+000 2.090122e+000 8.941779e+000 6.148328e+000 3.177346e+000 2.070898e+000 3.331060e-002 1.471165e-001 5.405137e-001 1.144864e-001 6.022080e-001 7.563037e-001 4.791327e-001 5.083095e-001 3.612162e-001 1.540162e+000 1.266163e+000 6.034035e-001 4.404975e-001 8.549103e-003
<GCONST> 1.096041e+002
<STATE> 4
<MEAN> 39
 4.817527e+000 -5.850100e+000 -1.125356e+001 -2.474819e+001 3.476684e+000 -1.428622e+001 2.869764e+000 6.301447e-001 -1.472320e+000 -3.734672e-001 -5.906821e+000 1.596673e+000 1.898299e+001 -8.512632e-002 1.167995e+000 -2.372219e-001 2.666348e-001 -1.047123e+000 4.024858e-001 -1.603937e-002 3.710248e-001 -1.756727e+000 -2.358806e+000 1.026145e+000 -3.239462e-001 -1.434254e-001 -2.989294e-001 3.019630e-001 7.773527e-002 6.518297e-002 6.690013e-002 7.291460e-002 -2.409882e-001 -3.476439e-001 8.093518e-001 2.988878e-001 7.791137e-002 3.454892e-002 -3.689240e-002
<VARIANCE> 39
 3.605877e+001 1.528339e+002 5.575407e+001 3.862610e+001 2.016877e+001 1.119732e+002 6.826393e+001 6.641396e+001 1.512560e+002 9.376133e+001 1.109815e+001 1.997300e+001 7.027251e-001 1.606795e+000 2.578581e+000 5.727984e-001 2.052499e+000 6.214089e+000 9.263589e-001 4.972230e+000 4.797956e+000 7.435454e+000 6.621058e+000 5.472563e+000 6.051006e-001 2.474280e-002 1.508880e-001 1.184172e-001 5.862397e-001 9.797590e-001 9.081836e-001 2.912464e-001 2.293675e-001 2.322595e-001 3.362278e+000 2.161194e+000 8.367316e-001 3.044493e-001 7.172712e-003
<GCONST> 1.134536e+002
~t "T_w^"
<ENDHMM>
~h "b-aa+n^"
<BEGINHMM>
<NUMSTATES> 5
<STATE> 2
<MEAN> 39
 -5.720922e+000 -7.674757e+000 -6.066454e+000 -1.373355e+001 -3.181459e+000 -8.247098e+000 6.811312e+000 -2.538415e-001 1.821513e+000 -1.126451e+001 -2.402549e+000 4.283929e+000 1.682866e+001 -1.000833e-001 7.432715e-001 1.755105e-001 -3.018270e-001 -8.643199e-001 8.030111e-001 -4.981457e-003 -1.940688e-002 -7.586867e-001 -6.880084e-002 -4.517300e-001 -1.048301e-001 5.311824e-002 2.467006e-001 -2.840102e-002 3.307587e-001 4.425194e-001 2.421768e-001 -7.063699e-001 -1.860705e-002 1.555746e-001 5.287190e-002 -1.289606e-001 3.517374e-001 -6.511798e-002 1.106129e-001
<VARIANCE> 39
 4.858488e+001 1.585838e+002 1.708009e+002 2.000080e+002 7.263993e+001 1.533783e+002 6.367338e+000 8.459904e+001 2.560700e+001 1.403103e+002 1.774739e+002 4.069629e+001 7.375810e+000 5.711568e-001 5.501623e-001 1.347827e+000 2.479789e-001 3.252106e-001 7.533900e+000 4.904514e+000 4.817355e-001 2.940638e+000 9.420312e-001 1.427796e+000 9.447157e-001 2.174008e-002 1.877810e-002 8.824364e-002 1.038559e+000 2.486809e-001 1.621243e-001 5.594461e-001 3.407949e-001 4.173088e-001 1.622924e-001 4.674669e-001 3.393484e-001 6.467721e-001 1.139135e-002
<GCONST> 1.020578e+002
<STATE> 3
<MEAN> 39
 -5.484716e+000 -8.073450e+000 -4.114290e+000 -1.459680e+001 -3.120487e+000 -1.043695e+001 6.144948e+000 -3.539916e+000 -2.500772e+000 -1.567448e+001 -4.889554e+000 2.873146e+000 1.737285e+001 1.863440e-001 8.168268e-001 8.173413e-001 -3.597617e-001 -2.648198e-001 -5.794778e-001 -6.174817e-002 5.872406e-001 -4.596218e-001 -5.548615e-001 -3.372720e-001 -3.136039e-001 1.129678e-001 3.191734e-002 -1.372334e-001 1.372506e-001 1.979177e-001 2.317852e-001 -7.319935e-001 1.839539e-001 1.059000e-001 3.224811e-001 6.993569e-002 3.016018e-001 -2.990250e-002 3.949585e-002
<VARIANCE> 39
 4.287562e+001 1.168467e+002 2.067167e+002 1.846319e+002 5.098572e+001 1.812902e+002 6.876786e+000 9.445464e+001 3.038588e+001 1.607589e+002 1.440320e+002 2.763274e+001 4.364296e+000 1.831646e-001 5.695481e-001 2.783729e+000 8.198078e-001 4.092535e-001 6.981020e+000 2.498560e+000 1.028497e+000 2.639547e+000 1.462471e+000 1.988352e+000 1.801038e+000 5.128187e-002 2.054281e-001 8.192573e-002 1.301825e+000 4.261668e-001 3.411388e-001 8.779356e-001 8.231806e-001 4.342695e-001 1.716306e-001 2.731335e-001 2.141576e-001 2.607513e-001 3.341144e-003
<GCONST> 1.062698e+002
<STATE> 4
<MEAN> 39
 -4.722694e+000 -5.178041e+000 -4.069959e+000 -1.299516e+001 -3.219067e+000 -7.469979e+000 6.777133e+000 2.206481e-001 -3.297292e+000 -1.348263e+001 -3.089547e+000 1.717016e+000 1.717479e+001 9.401463e-002 6.042246e-001 4.923600e-001 9.058115e-002 -4.169466e-002 -1.115988e+000 1.323837e-001 3.688938e-001 3.724013e-002 -1.261697e-001 4.695028e-001 -6.517856e-001 1.081740e-001 -2.770509e-001 -4.565111e-001 -6.866804e-002 1.361295e-001 3.121356e-001 -5.981416e-001 5.716985e-001 -4.757091e-001 4.838126e-001 3.385262e-001 1.747028e-001 -9.168852e-003 3.267156e-002
<VARIANCE> 39
 4.806382e+001 1.476674e+002 1.869916e+002 2.356118e+002 6.480687e+001 2.622179e+002 1.987986e+001 8.550526e+001 5.345248e+001 2.067662e+002 1.733822e+002 5.115160e+001 4.646662e+000 1.710093e-001 5.320413e-001 4.472494e+000 2.469627e+000 2.235431e+000 2.579427e+000 2.214479e+000 2.743820e+000 1.255141e+000 2.548287e+000 1.957515e+000 1.837077e+000 3.829819e-002 6.758168e-001 2.947484e-001 6.841943e-001 1.621248e-001 7.026325e-001 1.343081e+000 9.473130e-001 5.039037e-001 8.594576e-001 2.705965e-001 2.678188e-001 1.288545e-001 4.678561e-003
<GCONST> 1.162954e+002
~t "T_aa"
<ENDHMM>
~h "@@-n^+d"
<BEGINHMM>
<NUMSTATES> 5
<STATE> 2
<MEAN> 39
 -7.932737e+000 -1.279154e+001 -1.468542e+001 -1.464064e+001 2.466333e+001 -3.247478e+000 -1.200352e+001 -8.308948e-001 7.835935e+000 -1.018961e+001 1.279427e+000 4.783911e-001 1.767017e+001 -2.179138e-001 1.003078e-001 7.083265e-001 -1.401230e+000 -6.374414e-001 -2.441767e-001 -8.754893e-001 -1.925605e+000 -1.047885e+000 -2.242003e+000 3.419679e-001 -7.750621e-001 4.133699e-001 2.657714e-001 -1.096832e-001 -3.111290e-002 -5.867076e-003 -6.686522e-002 -2.827602e-001 3.209360e-001 -1.220099e-001 -5.513290e-001 2.956751e-001 -8.374564e-001 1.127612e-001 4.219526e-002
<VARIANCE> 39
 3.084635e+001 1.095739e+001 1.134675e+002 9.440306e+001 1.663237e+002 8.979522e+001 1.365987e+002 1.181875e+002 1.189406e+002 9.483981e+001 5.524827e+001 5.877690e+001 2.297001e+000 4.337088e+000 1.236043e+000 2.097070e+000 5.375632e+000 5.010709e+000 3.975324e+000 1.236853e+001 8.943745e+000 1.157827e+001 5.783025e+000 7.780581e+000 5.159573e+000 2.123742e-001 7.546812e-001 1.552104e-001 4.736097e-001 1.082399e+000 1.056160e+000 6.263054e-001 1.691737e+000 1.341142e+000 2.669218e+000 8.141873e-001 8.260027e-001 9.756694e-001 2.445839e-002
<GCONST> 1.369176e+002
<STATE> 3
<MEAN> 39
 -3.391378e+000 -1.243147e+001 -1.690560e+000 -2.539585e+001 2.442893e+000 -9.805419e+000 6.251137e+000 -1.564538e+001 -2.545052e+000 -5.118661e+000 -1.250353e+001 -4.099604e+000 1.867004e+001 -7.949339e-002 3.211153e-001 1.977498e-001 -1.429911e-001 -5.384052e-001 -2.158330e-001 1.056972e+000 -6.239278e-001 -1.010802e+000 2.428454e-001 -1.138942e+000 -7.352650e-001 6.630803e-002 1.596812e-001 3.326154e-001 -2.089135e-003 6.122736e-001 6.125491e-002 -1.272910e-001 -1.022875e+000 4.794301e-001 -1.130036e-001 3.358435e-001 8.741335e-002 2.001259e-001 -1.675227e-001
<VARIANCE> 39
 3.953509e+000 7.215014e+000 1.817722e+002 6.018933e+001 2.389006e+002 6.270291e+001 1.847034e+002 1.991952e+002 2.839263e+001 9.767817e+001 5.374865e+001 6.616460e+001 3.854764e+000 7.897863e-001 6.820120e-001 7.743956e-001 3.864399e+000 8.798985e-001 1.156045e+000 3.848932e+000 5.263065e+000 3.427005e+000 2.154149e+000 7.484860e-001 3.136895e+000 1.689127e-001 1.956684e-001 1.464732e-001 4.287527e-001 6.262372e-001 5.995202e-001 4.333529e-001 7.413538e-001 7.460681e-001 7.260100e-001 6.452295e-001 3.691355e-001 7.215496e-001 7.902851e-003
<GCONST> 1.127575e+002
<STATE> 4
<MEAN> 39
 -4.542390e+000 -1.430128e+001 -7.059304e+000 -1.818543e+001 8.834548e+000 -1.639013e+001 1.256039e+000 -9.549384e+000 1.976775e+000 -7.758214e+000 -2.802655e+000 1.571208e+000 1.905877e+001 1.059699e-001 1.681870e-001 3.799588e-001 -5.223440e-002 -1.076018e+000 -8.027442e-002 3.027671e-001 -3.604445e-001 1.876134e-001 5.542628e-001 5.408740e-002 1.646128e-002 -9.987156e-002 1.343813e-002 4.340718e-002 5.957787e-002 -7.918688e-004 -4.458965e-002 6.877217e-002 -1.056052e-001 -7.412098e-002 -4.796152e-002 4.065655e-002 7.491184e-002 -2.294084e-002 -6.535260e-003
<VARIANCE> 39
 1.376615e+001 1.734452e+001 5.509290e+001 3.799311e+001 1.911230e+002 5.391404e+001 5.587803e+001 6.250501e+001 5.118642e+001 1.091702e+002 2.793637e+001 9.723547e+001 2.616391e+000 7.715403e-001 1.560189e+000 1.485018e+000 1.985030e+000 3.222585e+000 3.338732e+000 3.433183e+000 1.782338e+000 4.476127e+000 5.896584e+000 1.442913e+000 3.540080e+000 8.919147e-002 9.079790e-002 2.775933e-001 2.685494e-001 3.026347e-001 5.307422e-001 5.720215e-001 6.465880e-001 2.866604e-001 1.079825e+000 9.076328e-001 2.538335e-001 6.962047e-001 1.369246e-002
<GCONST> 1.125233e+002
~t "T_n^"
<ENDHMM>
~h "@@-n^+f"
<BEGINHMM>
<NUMSTATES> 5
<STATE> 2
<MEAN> 39
 -1.829133e+000 -7.609228e+000 -1.128631e+001 -1.291710e+001 5.603819e+000 -6.474700e+000 -7.285278e+000 -8.360389e+000 -3.826438e+000 -7.301225e+000 -6.242787e+000 -7.310732e-001 1.635715e+001 -9.863330e-001 1.682547e-001 5.901560e-001 -3.848713e-001 -9.815143e-001 -1.293607e+000 1.313283e+000 6.854233e-001 1.560787e+000 -6.235215e-001 6.742110e-001 1.226795e+000 -1.461495e-002 3.149456e-001 1.216340e-001 2.809419e-001 3.919198e-001 -4.942529e-001 2.775833e-001 3.526305e-001 -3.517773e-001 1.747769e-001 6.301116e-001 1.720723e-003 -5.772964e-002 1.795768e-003
<VARIANCE> 39
 6.865047e+001 2.652514e+002 1.801665e+002 1.641901e+002 2.911051e+002 6.541035e+001 1.621667e+002 5.434349e+002 9.881146e+001 8.520646e+001 1.024068e+002 2.215513e+001 1.207699e+001 3.999233e-001 2.027356e+000 4.987158e+000 8.108871e+000 6.755443e-001 2.840752e+000 1.431447e+000 4.604064e+000 5.691939e+000 3.268858e+000 4.119127e+000 2.285097e+000 9.079211e-002 3.528430e-001 4.870069e-001 3.026781e-001 9.591102e-001 2.978666e-001 4.648645e-001 1.181086e+000 6.416805e-001 1.350940e-001 1.040253e+000 2.824963e-001 2.969199e-001 2.424490e-002
<GCONST> 1.276606e+002
<STATE> 3
<MEAN> 39
 -6.136196e+000 -1.448036e+001 -7.483256e+000 -1.656945e+001 5.456912e+000 -1.257230e+001 2.685890e+000 -6.393990e+000 3.965683e+000 -9.632407e+000 -5.854481e+000 7.785072e-001 1.909546e+001 1.215020e-001 3.966613e-001 8.445808e-001 8.634723e-001 -2.445203e+000 -1.002198e+000 2.363310e+000 3.046326e-001 6.087166e-002 -4.664707e-002 -3.149731e-002 1.021465e+000 -1.025195e-001 5.368767e-001 2.591612e-001 2.608736e-001 -2.585759e-001 4.216021e-002 3.688886e-001 -6.866695e-001 -4.496430e-001 -6.383456e-001 6.436390e-001 1.132313e-003 -3.052671e-001 -2.951060e-002
<VARIANCE> 39
 6.931837e+001 2.500773e+002 6.773466e+001 6.033885e+001 2.060570e+002 8.280383e+001 2.083345e+002 3.017249e+002 1.596987e+002 6.475817e+001 7.098248e+001 2.799504e+001 1.665740e+001 1.170713e+000 1.646614e+000 3.521988e+000 6.798846e+000 1.992137e+000 2.157948e+000 8.119568e+000 1.996136e+000 6.859747e+000 5.446085e+000 3.667029e+000 1.504872e+000 9.151727e-002 2.934329e-001 3.557009e-001 2.065236e-001 7.730598e-001 1.007138e+000 2.961739e-001 1.703642e+000 7.840791e-001 1.475370e+000 6.871740e-001 2.782884e-001 4.466330e-001 1.401813e-002
<GCONST> 1.298577e+002
<STATE> 4
<MEAN> 39
 -4.196737e+000 -1.373832e+001 -2.296913e+000 -1.854417e+001 4.570233e+000 -1.970368e+001 5.659584e+000 -1.264655e+001 -3.261578e+000 -1.067139e+001 -7.282741e+000 4.230875e+000 1.877957e+001 1.383262e-001 6.590466e-001 2.579797e-001 -3.290381e-001 6.095863e-002 -1.338691e-001 -3.020529e-001 -8.563676e-001 -1.857326e-001 1.162568e+000 1.896586e-001 -1.737914e-001 -8.163954e-002 -4.619606e-002 -2.027487e-001 4.935290e-002 5.378783e-002 -1.028181e-001 7.633384e-002 -1.042772e-001 -4.109759e-002 3.592150e-001 3.818057e-002 -9.612921e-002 -4.619712e-001 9.054827e-002
<VARIANCE> 39
 3.064855e+001 1.148340e+002 5.281949e+001 4.384736e+001 1.213498e+002 1.126032e+002 1.551357e+002 1.872108e+002 1.020474e+002 4.878389e+001 3.718396e+001 1.157769e+001 8.062642e+000 1.707774e+000 7.257383e-001 1.557642e+000 1.789270e+000 3.527883e+000 1.306072e+000 2.636845e+000 2.841964e+000 3.132865e+000 4.233569e+000 2.268643e+000 2.173546e+000 1.182653e-001 1.931722e-001 7.489996e-002 7.147868e-001 6.586024e-001 9.386646e-001 5.034903e-002 3.839704e-001 5.596551e-001 1.475761e+000 3.697443e-001 3.921722e-001 4.064167e-001 2.990023e-003
<GCONST> 1.130486e+002
~t "T_n^"
<ENDHMM>
~h "@@-n^+l"
<BEGINHMM>
<NUMSTATES> 5
<STATE> 2
<MEAN> 39
 -1.018701e+001 -1.240549e+001 -9.797895e+000 -1.086720e+001 1.280714e+001 -6.322926e+000 -4.579741e+000 -9.565411e+000 1.781599e+000 -2.186243e+001 -6.661919e+000 -2.557983e+000 1.840928e+001 -1.302694e+000 -6.958781e-001 1.107667e+000 -4.537815e-001 -7.898978e-001 -1.229126e+000 5.529864e-001 -8.979138e-001 1.928016e-001 -1.696792e+000 5.873986e-001 1.035547e+000 4.573236e-001 3.356555e-001 2.893128e-001 -1.405997e-001 -1.592159e-001 -2.058568e-001 -4.634108e-002 -3.940350e-001 1.250860e-002 -6.017728e-002 5.143656e-001 8.039004e-002 -1.385210e-001 -3.038182e-002
<VARIANCE> 39
 4.848545e+001 1.176333e+002 6.520557e+001 7.826812e+001 2.443460e+002 7.603308e+001 4.614454e+002 4.908632e+001 8.548892e+001 1.193225e+002 5.859496e+001 4.734974e+001 3.384909e+000 8.637931e+000 2.410211e+000 1.970123e+000 4.353126e+000 5.016207e+000 4.669159e+000 5.839440e+000 3.478580e+000 1.756031e+001 8.416606e+000 6.199148e+000 3.693723e+000 2.846405e-001 9.042544e-001 7.312823e-001 3.979433e-001 5.585820e-001 8.785311e-001 6.161597e-001 9.930356e-001 4.281423e-001 3.075973e+000 1.568678e+000 1.404348e+000 6.743762e-001 4.693065e-002
<GCONST> 1.403933e+002
<STATE> 3
<MEAN> 39
 -1.202999e+001 -1.717983e+001 -6.865941e+000 -1.469172e+001 6.421920e+000 -1.486099e+001 3.154586e+000 -9.020024e+000 4.091045e+000 -2.080491e+001 -6.813587e+000 9.785671e-001 2.025007e+001 -4.110468e-002 2.682751e-001 1.111212e+000 1.057783e-002 -1.961189e+000 -1.316397e+000 1.099501e+000 3.373292e-001 -1.265822e-001 7.540792e-001 1.236397e+000 -2.610389e-001 -1.354198e-001 4.141943e-001 4.688043e-001 -3.901924e-001 -3.925500e-001 -9.349546e-002 4.396592e-001 -6.065382e-001 -1.803595e-002 3.572687e-002 5.764100e-001 1.863491e-002 -6.269258e-001 -1.852305e-001
<VARIANCE> 39
 6.607440e+001 1.466020e+002 6.510799e+001 5.697640e+001 1.449031e+002 8.387614e+001 1.945716e+002 5.039203e+001 5.772880e+001 1.006474e+002 3.740634e+001 3.593452e+001 9.471359e-001 7.231412e-001 1.400317e+000 8.977078e-001 2.306223e+000 4.934275e+000 1.882440e+000 9.263232e+000 2.013100e+000 5.382452e+000 2.978461e+000 2.362290e+000 2.600273e+000 1.433685e-001 1.904600e-001 3.872579e-001 3.270394e-001 5.945718e-001 1.324085e+000 5.308536e-001 1.208739e+000 7.131454e-001 1.101853e+000 9.337041e-001 5.745919e-001 6.747684e-001 1.075703e-002
<GCONST> 1.218324e+002
<STATE> 4
<MEAN> 39
 -8.224256e+000 -2.087300e+001 -4.810283e+000 -1.205226e+001 4.696843e+000 -1.482986e+001 1.147524e+000 -5.490287e+000 -2.149178e+000 -1.361005e+001 -3.565654e+000 1.367058e-001 1.880658e+001 2.930640e-001 3.607483e-001 -1.776845e-002 4.762971e-001 -7.121345e-002 1.221762e-001 -4.744650e-001 -3.560222e-002 -5.797641e-002 4.236449e-001 -1.132088e-002 1.062050e-001 -1.862963e-001 2.360370e-002 2.785022e-002 -6.044923e-002 2.543329e-003 6.543020e-002 1.602841e-002 1.766289e-003 7.996268e-003 4.329723e-002 -1.893113e-002 -1.341905e-001 8.558788e-002 1.055548e-002
<VARIANCE> 39
 3.332104e+001 8.017934e+001 6.730838e+001 8.422207e+001 7.942543e+001 6.475942e+001 5.486183e+001 6.470022e+001 5.245172e+001 6.145971e+001 6.442111e+001 4.850006e+001 2.775379e+000 1.168323e+000 1.132468e+000 1.282079e+000 1.829032e+000 2.447057e+000 2.279906e+000 3.140214e+000 2.645363e+000 3.940860e+000 3.232979e+000 3.571328e+000 2.607190e+000 1.280369e-001 1.256627e-001 2.053686e-001 2.543446e-001 4.227053e-001 3.918121e-001 4.349816e-001 4.853475e-001 4.806241e-001 7.913695e-001 6.851420e-001 7.089295e-001 4.860880e-001 1.393083e-002
<GCONST> 1.147021e+002
~t "T_n^"
<ENDHMM>
~h "@@-n^+n"
<BEGINHMM>
<NUMSTATES> 5
<STATE> 2
<MEAN> 39
 -1.585441e+001 -3.601285e+000 -1.488320e+001 -1.765044e+001 3.341609e+000 -1.558113e+001 5.171314e+000 -1.229680e+001 6.221323e+000 -1.074150e+001 -4.758086e+000 -9.630664e+000 2.016105e+001 -4.046188e-001 1.354311e+000 -2.516170e+000 4.590251e-001 -1.268065e+000 1.464421e+000 3.507357e-001 5.868827e-001 1.940908e+000 3.465940e-001 1.395294e+000 -1.959285e+000 -5.392050e-002 5.771721e-001 -2.172209e-001 1.294161e-001 -3.982406e-001 4.649613e-001 -2.772342e-001 -1.056084e+000 -3.562371e-001 -2.524876e-001 -6.892917e-002 -2.669361e-001 3.877811e-001 5.293432e-002
<VARIANCE> 39
 1.298960e+001 1.814584e+001 3.567710e+001 8.529904e+000 5.607048e+001 2.266473e+001 5.828164e+001 1.669033e+001 6.366603e+001 5.692233e+001 3.166881e+001 1.945490e+001 7.953560e-001 6.789935e+000 5.454178e+000 1.795198e+000 5.573077e+000 2.092126e+000 2.188030e+000 5.007365e+000 2.484092e+000 9.667657e+000 5.157332e+000 3.105969e+000 1.477620e+000 3.743059e-001 1.456566e-001 6.235029e-001 5.359808e-001 2.849464e-001 6.112148e-001 5.623795e-001 5.259582e-001 8.683755e-001 2.296670e+000 2.102740e+000 8.913366e-001 4.119865e-001 1.422328e-002
<GCONST> 1.158729e+002
<STATE> 3
<MEAN> 39
