~o
<STREAMINFO> 1 39
<VECSIZE> 39<NULLD><MFCC_E_D_A><DIAGC>
~h "@"
<BEGINHMM>
<NUMSTATES> 5
<STATE> 2
<MEAN> 39
 -5.789538e+000 -1.058111e+001 -1.036075e+001 -1.182068e+001 8.959123e+000 -9.642616e+000 -4.361002e+000 -6.787956e+000 2.721990e+000 -6.325678e+000 -6.402285e+000 -1.068004e+000 1.810783e+001 -4.741020e-003 1.185391e-001 6.611177e-002 -5.468321e-002 -6.458577e-002 -6.231868e-002 -4.676737e-002 -5.437730e-002 -1.387884e-002 -2.481623e-002 -1.808067e-002 -2.642643e-002 -1.402220e-003 5.768983e-004 9.874110e-004 1.472273e-003 -2.406629e-003 -1.267607e-003 1.253714e-003 4.201837e-005 -8.056824e-004 4.172281e-004 2.889702e-004 -3.599317e-004 5.395071e-004 3.893425e-005
<VARIANCE> 39
 8.431846e+001 1.681498e+002 1.672630e+002 2.555748e+002 1.854403e+002 3.059063e+002 1.029035e+002 1.119190e+002 1.642399e+002 1.041171e+002 1.050296e+002 7.823533e+001 8.150446e+000 3.211832e+000 3.043218e+000 3.808532e+000 5.425745e+000 5.084721e+000 5.034496e+000 5.700895e+000 4.556783e+000 5.139539e+000 4.478213e+000 4.909238e+000 3.462115e+000 2.067390e-001 4.579147e-001 4.330280e-001 5.491282e-001 7.036158e-001 7.722039e-001 7.208239e-001 1.003188e+000 8.203177e-001 8.954428e-001 8.105468e-001 7.760671e-001 6.285879e-001 2.645325e-002
<GCONST> 1.412367e+002
<STATE> 3
<MEAN> 39
 -5.804470e+000 -1.007826e+001 -1.006851e+001 -1.208399e+001 8.666100e+000 -9.899108e+000 -4.563797e+000 -7.026649e+000 2.662176e+000 -6.417861e+000 -6.490316e+000 -1.182474e+000 1.810243e+001 -2.417247e-003 1.222078e-001 7.206640e-002 -6.404289e-002 -6.990663e-002 -5.710477e-002 -4.652763e-002 -5.723286e-002 -1.197270e-002 -2.358184e-002 -1.939069e-002 -2.389650e-002 -1.321608e-003 6.027434e-004 7.550832e-004 1.350681e-003 -2.286447e-003 -1.231416e-003 1.396861e-003 4.055933e-005 -7.686788e-004 5.070958e-004 3.755158e-004 -3.478836e-004 6.728951e-004 2.698256e-005
<VARIANCE> 39
 8.480718e+001 1.702189e+002 1.713730e+002 2.573647e+002 1.883580e+002 3.058571e+002 1.038593e+002 1.114287e+002 1.651201e+002 1.045280e+002 1.047654e+002 7.995561e+001 8.193495e+000 3.238678e+000 3.091435e+000 3.867602e+000 5.466713e+000 5.079799e+000 5.078948e+000 5.757965e+000 4.572607e+000 5.116382e+000 4.493152e+000 4.904760e+000 3.477185e+000 2.098953e-001 4.619707e-001 4.415379e-001 5.629343e-001 7.063338e-001 7.701790e-001 7.263336e-001 1.013275e+000 8.247199e-001 8.887862e-001 8.145368e-001 7.763805e-001 6.308841e-001 2.689352e-002
<GCONST> 1.415209e+002
<STATE> 4
<MEAN> 39
 -5.809853e+000 -9.561885e+000 -9.752313e+000 -1.238351e+001 8.350490e+000 -1.013432e+001 -4.765249e+000 -7.275095e+000 2.611181e+000 -6.504862e+000 -6.582841e+000 -1.285280e+000 1.809707e+001 -1.401973e-005 1.249421e-001 7.743315e-002 -7.275305e-002 -7.503974e-002 -5.144676e-002 -4.621267e-002 -5.997737e-002 -9.641045e-003 -2.204510e-002 -2.050733e-002 -2.080826e-002 -1.267062e-003 6.083694e-004 5.270756e-004 1.206592e-003 -2.087962e-003 -1.178066e-003 1.490627e-003 4.678136e-005 -7.495128e-004 5.955297e-004 4.337363e-004 -2.897070e-004 8.010582e-004 2.068368e-005
<VARIANCE> 39
 8.530463e+001 1.719312e+002 1.756634e+002 2.590031e+002 1.912574e+002 3.054310e+002 1.047723e+002 1.110914e+002 1.657075e+002 1.048685e+002 1.043678e+002 8.171865e+001 8.243310e+000 3.263705e+000 3.138978e+000 3.930429e+000 5.502257e+000 5.076256e+000 5.124935e+000 5.815768e+000 4.587885e+000 5.093674e+000 4.508511e+000 4.893556e+000 3.490478e+000 2.130847e-001 4.656875e-001 4.497581e-001 5.768980e-001 7.083804e-001 7.687270e-001 7.323195e-001 1.023540e+000 8.289678e-001 8.826568e-001 8.186432e-001 7.756721e-001 6.327783e-001 2.733150e-002
<GCONST> 1.417929e+002
<TRANSP> 5
 0.000000e+000 1.000000e+000 0.000000e+000 0.000000e+000 0.000000e+000
 0.000000e+000 7.601271e-001 2.398729e-001 0.000000e+000 0.000000e+000
 0.000000e+000 0.000000e+000 7.601271e-001 2.398729e-001 0.000000e+000
 0.000000e+000 0.000000e+000 0.000000e+000 7.601282e-001 2.398718e-001
 0.000000e+000 0.000000e+000 0.000000e+000 0.000000e+000 0.000000e+000
<ENDHMM>
~h "a"
<BEGINHMM>
<NUMSTATES> 5
<STATE> 2
<MEAN> 39
 -6.694064e+000 -1.184265e+001 -6.270176e+000 -1.374831e+001 3.135020e+000 -7.745047e+000 -5.779623e-001 -6.903721e+000 4.206116e-001 -8.094893e+000 -5.273759e+000 -1.629256e+000 1.794927e+001 6.966526e-003 -6.441997e-003 1.953310e-002 -1.740620e-002 -1.206214e-002 -4.999800e-003 1.218426e-002 -1.577698e-002 -1.713450e-003 -7.646040e-003 -4.369395e-003 6.929538e-004 6.779110e-003 6.337883e-005 -1.037763e-003 -1.973607e-003 -4.925636e-004 -1.363016e-004 2.539024e-004 -8.395054e-004 9.288458e-006 6.115936e-004 -1.003366e-005 1.873414e-004 -6.839018e-004 -1.246370e-004
<VARIANCE> 39
 8.983046e+001 1.728541e+002 1.705419e+002 1.830906e+002 1.791435e+002 2.197381e+002 1.316483e+002 1.224517e+002 1.299142e+002 1.096212e+002 1.040612e+002 6.933326e+001 1.138733e+001 2.704955e+000 3.216612e+000 4.026687e+000 4.652659e+000 4.684577e+000 5.282703e+000 5.560169e+000 5.211401e+000 5.132519e+000 4.902335e+000 4.421677e+000 3.410197e+000 2.480012e-001 4.082238e-001 4.220322e-001 6.158941e-001 6.834549e-001 7.482358e-001 8.528320e-001 9.227959e-001 8.954213e-001 9.096163e-001 8.579562e-001 7.725747e-001 6.185442e-001 3.133183e-002
<GCONST> 1.413252e+002
<STATE> 3
<MEAN> 39
 -6.669586e+000 -1.188047e+001 -6.218301e+000 -1.382632e+001 3.088201e+000 -7.768976e+000 -5.443205e-001 -6.975157e+000 4.175690e-001 -8.130525e+000 -5.291379e+000 -1.632818e+000 1.797500e+001 5.437039e-003 -9.408497e-003 1.144680e-002 -1.775103e-002 -1.104474e-002 -6.884252e-003 7.073706e-003 -1.655606e-002 -1.158333e-003 -8.331859e-003 -4.529403e-003 -2.232553e-003 5.972360e-003 -3.054927e-004 -4.858122e-004 -1.954535e-003 6.495522e-005 3.919875e-004 -4.633279e-004 -1.282320e-003 -1.690142e-004 1.791914e-004 -1.034744e-004 -6.266370e-005 -6.812055e-004 -1.987102e-004
<VARIANCE> 39
 8.962885e+001 1.721760e+002 1.706048e+002 1.824131e+002 1.792348e+002 2.199696e+002 1.318522e+002 1.219856e+002 1.301233e+002 1.092713e+002 1.036712e+002 6.957214e+001 1.123411e+001 2.701359e+000 3.209692e+000 4.013520e+000 4.649667e+000 4.676220e+000 5.234440e+000 5.512283e+000 5.200547e+000 5.117660e+000 4.855422e+000 4.402273e+000 3.412795e+000 2.459026e-001 4.070988e-001 4.197408e-001 6.141958e-001 6.820920e-001 7.452947e-001 8.442508e-001 9.135096e-001 8.915555e-001 9.056253e-001 8.500582e-001 7.671852e-001 6.184121e-001 3.105833e-002
<GCONST> 1.411747e+002
<STATE> 4
<MEAN> 39
 -6.652314e+000 -1.192454e+001 -6.194927e+000 -1.389850e+001 3.047938e+000 -7.806230e+000 -5.328323e-001 -7.049169e+000 4.101374e-001 -8.166924e+000 -5.315388e+000 -1.644367e+000 1.799643e+001 4.111204e-003 -1.005982e-002 4.794753e-003 -1.583941e-002 -8.970305e-003 -9.889868e-003 1.841161e-003 -1.693883e-002 -1.922058e-003 -8.169584e-003 -5.945732e-003 -3.844704e-003 4.962675e-003 -2.141984e-004 3.315728e-005 -1.563161e-003 5.510312e-004 5.944397e-004 -6.743366e-004 -1.234641e-003 -4.589008e-005 -1.149494e-004 1.210602e-004 -3.204604e-004 -3.026785e-004 -2.394903e-004
<VARIANCE> 39
 8.949894e+001 1.711865e+002 1.703121e+002 1.812558e+002 1.793901e+002 2.200777e+002 1.317403e+002 1.214663e+002 1.304236e+002 1.090654e+002 1.032520e+002 6.977647e+001 1.110209e+001 2.696642e+000 3.196175e+000 4.002994e+000 4.643649e+000 4.673871e+000 5.211902e+000 5.470985e+000 5.185831e+000 5.108159e+000 4.810997e+000 4.387929e+000 3.416850e+000 2.437804e-001 4.055020e-001 4.172502e-001 6.124374e-001 6.808651e-001 7.439094e-001 8.399397e-001 9.054226e-001 8.881424e-001 9.030931e-001 8.425678e-001 7.633027e-001 6.189545e-001 3.077584e-002
<GCONST> 1.410370e+002
<TRANSP> 5
 0.000000e+000 1.000000e+000 0.000000e+000 0.000000e+000 0.000000e+000
 0.000000e+000 7.602217e-001 2.397783e-001 0.000000e+000 0.000000e+000
 0.000000e+000 0.000000e+000 7.602240e-001 2.397759e-001 0.000000e+000
 0.000000e+000 0.000000e+000 0.000000e+000 7.602233e-001 2.397767e-001
 0.000000e+000 0.000000e+000 0.000000e+000 0.000000e+000 0.000000e+000
<ENDHMM>
~h "b"
<BEGINHMM>
<NUMSTATES> 5
<STATE> 2
<MEAN> 39
 -9.292436e+000 -8.648213e+000 -5.932229e+000 -1.696361e+001 -4.452021e+000 -2.282187e+000 1.661260e+000 -4.378092e+000 9.905059e-001 -6.181737e+000 -4.742443e+000 8.996369e-001 1.636746e+001 -1.031395e-001 -2.458088e-002 -6.909396e-002 1.282796e-001 1.073103e-001 1.129704e-001 2.793481e-002 1.649236e-001 -4.161847e-002 -1.101491e-001 -4.451305e-002 3.378233e-002 -3.685939e-002 9.577835e-004 1.272606e-002 -2.481727e-003 5.865404e-003 -5.015180e-003 -5.560082e-003 -5.845858e-003 -1.293544e-002 -1.533954e-003 -2.801290e-004 6.215665e-003 -6.640086e-003 -1.871388e-003
<VARIANCE> 39
 9.914758e+001 1.807056e+002 2.543099e+002 2.856181e+002 1.770253e+002 2.407564e+002 1.390886e+002 1.377936e+002 1.017725e+002 1.713202e+002 7.782276e+001 5.710369e+001 2.240456e+001 1.377288e+000 2.122805e+000 2.937588e+000 3.824926e+000 4.721688e+000 4.267231e+000 4.772851e+000 4.107624e+000 4.880819e+000 4.278977e+000 3.262831e+000 2.921611e+000 1.632878e-001 1.907718e-001 2.864776e-001 3.810527e-001 5.449064e-001 6.852345e-001 6.365587e-001 8.510411e-001 6.991761e-001 8.526558e-001 7.500588e-001 5.811132e-001 5.198877e-001 2.129169e-002
<GCONST> 1.360912e+002
<STATE> 3
<MEAN> 39
 -9.704608e+000 -8.735903e+000 -6.249307e+000 -1.644787e+001 -3.960642e+000 -1.838125e+000 1.717629e+000 -3.707570e+000 8.348513e-001 -6.647054e+000 -4.910087e+000 1.018175e+000 1.621785e+001 -1.000774e-001 3.061689e-002 -7.898871e-002 1.582862e-001 8.301647e-002 8.349068e-002 3.137935e-003 1.096334e-001 -4.343633e-002 -1.112688e-001 -1.848809e-002 4.528183e-003 -4.544041e-002 2.616804e-004 1.502512e-002 3.322645e-003 5.114374e-003 -6.435755e-003 -8.959143e-003 -9.767107e-003 -1.924411e-002 1.058782e-003 4.390533e-003 9.758553e-003 -7.904190e-003 -2.105922e-003
<VARIANCE> 39
 9.577786e+001 1.774494e+002 2.609081e+002 2.950197e+002 1.673837e+002 2.403368e+002 1.408014e+002 1.383012e+002 9.751502e+001 1.670356e+002 7.857069e+001 5.823903e+001 2.267027e+001 1.363842e+000 2.150717e+000 2.932594e+000 3.642584e+000 4.325750e+000 4.109377e+000 4.763674e+000 4.244490e+000 4.778442e+000 4.176639e+000 3.149339e+000 2.886636e+000 1.615634e-001 1.903354e-001 2.894076e-001 3.799933e-001 5.224326e-001 6.427304e-001 6.271631e-001 8.375407e-001 7.171161e-001 8.445362e-001 7.383444e-001 5.530881e-001 5.064057e-001 2.127305e-002
<GCONST> 1.355739e+002
<STATE> 4
<MEAN> 39
 -1.010670e+001 -8.582740e+000 -6.608786e+000 -1.578153e+001 -3.585717e+000 -1.542074e+000 1.671159e+000 -3.271865e+000 6.903833e-001 -7.118590e+000 -4.970348e+000 1.006176e+000 1.602895e+001 -9.875113e-002 9.432107e-002 -6.677118e-002 1.832177e-001 5.476728e-002 4.416722e-002 -3.533670e-002 3.244798e-002 -3.562191e-002 -9.364455e-002 2.092132e-002 -2.974602e-002 -5.472955e-002 1.605564e-003 1.581566e-002 8.331666e-003 6.933903e-004 -5.862868e-003 -9.232957e-003 -1.190807e-002 -1.951290e-002 2.337330e-003 9.072374e-003 1.202066e-002 -8.650088e-003 -1.756647e-003
<VARIANCE> 39
 9.291711e+001 1.718504e+002 2.670576e+002 3.006472e+002 1.598605e+002 2.382057e+002 1.455942e+002 1.373313e+002 9.517584e+001 1.611505e+002 7.938712e+001 5.976939e+001 2.303497e+001 1.377373e+000 2.203006e+000 2.957046e+000 3.529045e+000 3.936179e+000 3.973181e+000 4.770558e+000 4.421709e+000 4.678181e+000 4.074297e+000 3.062951e+000 2.870190e+000 1.599514e-001 1.932672e-001 2.956378e-001 3.820682e-001 5.117928e-001 6.007511e-001 6.250262e-001 8.271500e-001 7.392433e-001 8.364228e-001 7.250277e-001 5.316345e-001 4.967632e-001 2.132549e-002
<GCONST> 1.352368e+002
<TRANSP> 5
 0.000000e+000 1.000000e+000 0.000000e+000 0.000000e+000 0.000000e+000
 0.000000e+000 7.597446e-001 2.402554e-001 0.000000e+000 0.000000e+000
 0.000000e+000 0.000000e+000 7.597451e-001 2.402549e-001 0.000000e+000
 0.000000e+000 0.000000e+000 0.000000e+000 7.597456e-001 2.402544e-001
 0.000000e+000 0.000000e+000 0.000000e+000 0.000000e+000 0.000000e+000
<ENDHMM>
~h "d"
<BEGINHMM>
<NUMSTATES> 5
<STATE> 2
<MEAN> 39
 -4.666042e+000 -9.150695e+000 -6.133723e+000 -1.511678e+001 -4.503184e-001 -9.957433e+000 -1.003316e+000 -4.369067e+000 2.342293e+000 -5.556362e+000 -6.306190e+000 -2.166106e+000 1.754795e+001 -2.186560e-002 2.336962e-002 6.018588e-002 -1.266793e-002 -1.234787e-002 4.567405e-003 1.643753e-002 -5.246499e-002 1.167741e-002 -2.024095e-002 -6.153212e-003 -1.271840e-002 4.125196e-003 1.158135e-004 -5.454763e-004 3.573873e-004 6.069121e-004 6.796599e-004 1.960205e-004 -4.403903e-004 -3.008768e-004 -3.568675e-004 -9.337929e-004 5.261004e-005 2.955291e-004 9.000036e-005
<VARIANCE> 39
 7.936293e+001 1.429498e+002 2.190511e+002 1.598492e+002 2.302159e+002 2.584597e+002 1.154027e+002 1.506486e+002 1.594257e+002 1.065581e+002 9.949347e+001 7.525283e+001 1.040835e+001 3.176728e+000 3.745488e+000 4.342256e+000 5.449367e+000 5.250730e+000 7.070827e+000 5.700930e+000 5.590755e+000 6.031571e+000 4.783496e+000 5.246966e+000 3.919303e+000 2.981666e-001 4.861002e-001 5.041913e-001 7.074664e-001 8.637571e-001 8.737043e-001 1.075933e+000 9.354417e-001 9.538564e-001 1.065945e+000 8.369325e-001 8.927770e-001 6.726552e-001 4.043745e-002
<GCONST> 1.452237e+002
<STATE> 3
<MEAN> 39
 -4.753260e+000 -9.066755e+000 -5.893533e+000 -1.514440e+001 -4.877946e-001 -9.923376e+000 -9.415988e-001 -4.581951e+000 2.380703e+000 -5.653190e+000 -6.334906e+000 -2.212410e+000 1.756321e+001 -2.153141e-002 2.079468e-002 6.093919e-002 -1.008731e-002 -9.273165e-003 5.150753e-003 1.465508e-002 -5.331507e-002 1.034275e-002 -2.415814e-002 -5.994837e-003 -1.127403e-002 4.467301e-003 1.123764e-004 -6.242566e-004 1.807035e-004 6.504406e-004 6.874770e-004 2.186880e-004 -3.891751e-004 -1.441168e-004 -3.547990e-004 -8.768344e-004 1.945960e-005 3.120311e-004 7.131949e-005
<VARIANCE> 39
 7.827239e+001 1.443766e+002 2.184533e+002 1.603698e+002 2.295913e+002 2.591881e+002 1.145348e+002 1.494318e+002 1.591595e+002 1.076389e+002 1.005796e+002 7.599887e+001 1.044930e+001 3.160095e+000 3.737925e+000 4.298259e+000 5.463897e+000 5.221684e+000 7.021521e+000 5.648955e+000 5.577719e+000 5.989513e+000 4.756199e+000 5.249111e+000 3.922096e+000 2.974035e-001 4.823779e-001 5.005723e-001 7.001756e-001 8.634547e-001 8.675374e-001 1.065659e+000 9.252645e-001 9.531530e-001 1.056802e+000 8.320677e-001 8.921840e-001 6.724572e-001 4.029986e-002
<GCONST> 1.451120e+002
<STATE> 4
<MEAN> 39
 -4.839712e+000 -8.994673e+000 -5.653041e+000 -1.516094e+001 -5.115390e-001 -9.888778e+000 -8.873376e-001 -4.796658e+000 2.414043e+000 -5.766374e+000 -6.363074e+000 -2.251516e+000 1.757973e+001 -2.115101e-002 1.794996e-002 6.096629e-002 -7.333375e-003 -6.239529e-003 5.613773e-003 1.293514e-002 -5.356622e-002 8.988586e-003 -2.773462e-002 -5.913510e-003 -9.715615e-003 4.722239e-003 1.339535e-004 -6.853752e-004 4.482473e-006 6.821500e-004 6.639513e-004 2.224657e-004 -4.052637e-004 -1.820509e-006 -3.678724e-004 -7.934934e-004 1.099669e-005 3.486614e-004 4.637600e-005
<VARIANCE> 39
 7.714830e+001 1.458774e+002 2.173629e+002 1.608400e+002 2.286904e+002 2.596658e+002 1.137488e+002 1.479832e+002 1.588829e+002 1.087009e+002 1.015711e+002 7.676437e+001 1.048148e+001 3.141418e+000 3.731175e+000 4.255035e+000 5.472634e+000 5.191472e+000 6.966108e+000 5.596828e+000 5.562705e+000 5.942781e+000 4.728630e+000 5.247969e+000 3.925388e+000 2.965132e-001 4.783485e-001 4.971220e-001 6.928515e-001 8.621076e-001 8.609504e-001 1.054648e+000 9.149955e-001 9.522156e-001 1.046827e+000 8.269427e-001 8.913487e-001 6.725178e-001 4.014469e-002
<GCONST> 1.449823e+002
<TRANSP> 5
 0.000000e+000 1.000000e+000 0.000000e+000 0.000000e+000 0.000000e+000
 0.000000e+000 7.601885e-001 2.398114e-001 0.000000e+000 0.000000e+000
 0.000000e+000 0.000000e+000 7.601889e-001 2.398111e-001 0.000000e+000
 0.000000e+000 0.000000e+000 0.000000e+000 7.601898e-001 2.398102e-001
 0.000000e+000 0.000000e+000 0.000000e+000 0.000000e+000 0.000000e+000
<ENDHMM>
~h "f"
<BEGINHMM>
<NUMSTATES> 5
<STATE> 2
<MEAN> 39
 -3.929138e+000 -8.467891e+000 -8.513035e+000 -1.535768e+001 2.197241e+000 -9.964449e+000 -4.160321e+000 -6.073485e+000 2.785429e+000 -6.477899e+000 -6.384602e+000 -1.958897e+000 1.776239e+001 1.595092e-002 -2.647012e-002 -7.750320e-003 1.279507e-003 8.349457e-003 -4.459837e-003 2.520804e-003 7.960127e-003 -2.676035e-002 -1.889687e-002 -2.042663e-003 4.237164e-003 4.425994e-003 -5.719014e-005 4.545758e-004 1.675896e-004 5.704728e-005 -6.540026e-004 3.040580e-004 -9.267010e-005 7.870846e-005 -4.335651e-005 1.531988e-004 1.419479e-004 3.539138e-004 -2.109445e-004
<VARIANCE> 39
 8.795065e+001 1.619938e+002 1.614563e+002 1.664491e+002 1.805111e+002 2.703726e+002 1.269564e+002 1.275239e+002 1.406154e+002 1.045243e+002 1.039504e+002 7.814650e+001 9.434860e+000 3.188273e+000 3.822286e+000 4.082655e+000 5.396533e+000 5.331240e+000 6.995043e+000 5.670750e+000 5.220137e+000 5.365181e+000 4.708447e+000 5.414166e+000 3.813903e+000 2.709028e-001 4.628299e-001 5.437436e-001 6.388616e-001 8.159674e-001 8.624353e-001 1.040649e+000 9.260508e-001 8.961968e-001 9.357297e-001 8.322023e-001 9.297434e-001 6.830024e-001 3.819510e-002
<GCONST> 1.440260e+002
<STATE> 3
<MEAN> 39
 -3.869883e+000 -8.568379e+000 -8.538319e+000 -1.534906e+001 2.219994e+000 -9.991373e+000 -4.147428e+000 -6.039456e+000 2.679309e+000 -6.559764e+000 -6.387617e+000 -1.935738e+000 1.777799e+001 1.543517e-002 -2.420580e-002 -7.165068e-003 1.537860e-003 5.549866e-003 -3.523936e-003 2.159550e-003 8.467938e-003 -2.656989e-002 -1.805594e-002 -1.238344e-003 5.590991e-003 3.539705e-003 -1.405941e-004 6.440114e-004 1.426604e-004 1.459030e-004 -7.427220e-004 2.672586e-004 -1.192802e-004 1.781641e-004 7.990798e-005 2.284634e-004 1.872123e-004 3.372045e-004 -2.505002e-004
<VARIANCE> 39
 8.786462e+001 1.616458e+002 1.612397e+002 1.655776e+002 1.791950e+002 2.666593e+002 1.271139e+002 1.271411e+002 1.403370e+002 1.044327e+002 1.029158e+002 7.786990e+001 9.361262e+000 3.161028e+000 3.807475e+000 4.079805e+000 5.359923e+000 5.299963e+000 6.953321e+000 5.677587e+000 5.214038e+000 5.348198e+000 4.692829e+000 5.374863e+000 3.809281e+000 2.688175e-001 4.582846e-001 5.419716e-001 6.374434e-001 8.125348e-001 8.583879e-001 1.034806e+000 9.256329e-001 8.953500e-001 9.331937e-001 8.279108e-001 9.242998e-001 6.821555e-001 3.788954e-002
<GCONST> 1.438603e+002
<STATE> 4
<MEAN> 39
 -3.813899e+000 -8.657799e+000 -8.561707e+000 -1.533922e+001 2.231064e+000 -1.001552e+001 -4.136015e+000 -6.002679e+000 2.575371e+000 -6.637223e+000 -6.386392e+000 -1.907521e+000 1.778990e+001 1.457616e-002 -2.115770e-002 -6.663776e-003 2.189841e-003 2.485640e-003 -2.665346e-003 1.680448e-003 9.319713e-003 -2.595894e-002 -1.690770e-002 -2.554954e-004 6.827033e-003 2.503555e-003 -2.404576e-004 8.336838e-004 1.292285e-004 2.325672e-004 -7.899785e-004 2.264581e-004 -1.514462e-004 2.486041e-004 1.833757e-004 2.929744e-004 2.330752e-004 3.099384e-004 -2.833810e-004
<VARIANCE> 39
 8.783427e+001 1.613094e+002 1.612589e+002 1.647682e+002 1.778792e+002 2.629082e+002 1.273539e+002 1.268699e+002 1.400433e+002 1.043121e+002 1.018843e+002 7.763448e+001 9.297210e+000 3.133309e+000 3.789819e+000 4.076921e+000 5.320781e+000 5.266497e+000 6.909792e+000 5.685900e+000 5.207924e+000 5.332542e+000 4.676679e+000 5.334760e+000 3.804361e+000 2.666788e-001 4.537686e-001 5.396826e-001 6.359981e-001 8.086759e-001 8.539833e-001 1.028871e+000 9.254830e-001 8.945017e-001 9.308764e-001 8.236470e-001 9.185829e-001 6.811891e-001 3.756556e-002
<GCONST> 1.436941e+002
<TRANSP> 5
 0.000000e+000 1.000000e+000 0.000000e+000 0.000000e+000 0.000000e+000
 0.000000e+000 7.600815e-001 2.399185e-001 0.000000e+000 0.000000e+000
 0.000000e+000 0.000000e+000 7.600819e-001 2.399181e-001 0.000000e+000
 0.000000e+000 0.000000e+000 0.000000e+000 7.600832e-001 2.399168e-001
 0.000000e+000 0.000000e+000 0.000000e+000 0.000000e+000 0.000000e+000
<ENDHMM>
~h "h"
<BEGINHMM>
<NUMSTATES> 5
<STATE> 2
<MEAN> 39
 -9.446822e+000 -1.390812e+001 -5.875868e+000 -1.147865e+001 3.778776e+000 -6.495664e+000 1.221535e+000 -6.864954e+000 -1.634377e+000 -1.024920e+001 -3.961562e+000 -1.520581e+000 1.779835e+001 -1.916323e-004 -1.915026e-002 6.746077e-002 8.382372e-003 3.850401e-002 -4.027235e-002 -4.104469e-003 -2.008225e-002 -3.833399e-002 1.183623e-002 -9.122535e-003 2.853722e-003 1.833001e-002 2.088758e-003 -1.588274e-003 2.180325e-003 -8.173586e-003 -3.133119e-003 -1.921965e-004 6.897812e-003 -3.800307e-004 -7.145857e-004 -5.465354e-003 -2.193623e-003 1.876226e-003 2.478290e-003
<VARIANCE> 39
 9.329299e+001 1.624153e+002 1.312597e+002 1.605490e+002 1.431133e+002 2.101230e+002 1.173120e+002 1.066591e+002 1.161203e+002 1.019615e+002 1.072088e+002 6.144865e+001 1.661555e+001 2.574732e+000 2.680430e+000 3.873297e+000 4.297975e+000 3.786225e+000 5.147468e+000 5.490194e+000 5.012919e+000 4.535460e+000 4.896592e+000 4.134833e+000 3.166154e+000 2.401700e-001 4.026091e-001 3.715311e-001 6.039748e-001 6.451134e-001 6.175691e-001 8.289608e-001 9.300464e-001 8.778909e-001 8.219486e-001 8.311274e-001 7.365577e-001 5.891855e-001 2.882078e-002
<GCONST> 1.387848e+002
<STATE> 3
<MEAN> 39
 -9.387051e+000 -1.399802e+001 -5.596253e+000 -1.153334e+001 3.911191e+000 -6.604629e+000 1.285922e+000 -6.938942e+000 -1.736057e+000 -1.022530e+001 -4.018980e+000 -1.492784e+000 1.789460e+001 1.366684e-002 -2.616096e-002 6.527465e-002 -1.790519e-002 2.926726e-002 -2.828983e-002 1.948345e-002 -1.734401e-002 -2.172909e-002 1.550598e-003 -1.229111e-002 6.525858e-003 2.414726e-002 3.453553e-003 -2.055890e-003 -8.664055e-004 -5.856817e-003 -2.504550e-003 3.328416e-003 4.864924e-003 2.361985e-004 3.827062e-003 -1.529968e-003 -8.323826e-004 9.997444e-004 1.056939e-003
<VARIANCE> 39
 9.305256e+001 1.636860e+002 1.316707e+002 1.640402e+002 1.424084e+002 2.106629e+002 1.193820e+002 1.057307e+002 1.135721e+002 1.010889e+002 1.085872e+002 6.229380e+001 1.600144e+001 2.619497e+000 2.776793e+000 3.871542e+000 4.365067e+000 3.819965e+000 5.040819e+000 5.535268e+000 5.122283e+000 4.508559e+000 4.869605e+000 4.127550e+000 3.183228e+000 2.435959e-001 4.123644e-001 3.818537e-001 6.013986e-001 6.523405e-001 6.223682e-001 8.050479e-001 9.384409e-001 8.970904e-001 8.188869e-001 8.337153e-001 7.347795e-001 5.942835e-001 2.946495e-002
<GCONST> 1.389656e+002
<STATE> 4
<MEAN> 39
 -9.286284e+000 -1.412490e+001 -5.367952e+000 -1.166919e+001 4.006103e+000 -6.659167e+000 1.397840e+000 -7.011506e+000 -1.757851e+000 -1.021748e+001 -4.061050e+000 -1.472606e+000 1.799799e+001 2.304847e-002 -3.587745e-002 5.126524e-002 -3.615704e-002 1.984328e-002 -1.447761e-002 2.744642e-002 -1.840779e-002 -4.279625e-003 -1.463175e-004 -9.405844e-003 3.993422e-003 2.493420e-002 2.127123e-003 -2.469301e-003 -3.789470e-003 -4.129460e-003 -2.257720e-003 3.457276e-003 1.177207e-003 -5.285170e-004 3.862734e-003 -3.789338e-005 5.105012e-004 -8.598435e-004 1.287742e-005
<VARIANCE> 39
 9.194575e+001 1.635404e+002 1.327035e+002 1.664393e+002 1.416525e+002 2.108049e+002 1.214970e+002 1.054090e+002 1.122845e+002 9.988241e+001 1.090256e+002 6.301552e+001 1.534765e+001 2.632501e+000 2.836927e+000 3.826876e+000 4.421190e+000 3.784966e+000 4.838038e+000 5.522617e+000 5.167152e+000 4.454178e+000 4.792515e+000 4.071465e+000 3.185061e+000 2.431935e-001 4.169396e-001 3.865620e-001 5.946192e-001 6.557130e-001 6.125487e-001 7.689938e-001 9.356525e-001 9.009770e-001 8.062356e-001 8.280922e-001 7.214236e-001 5.948147e-001 2.964428e-002
<GCONST> 1.387993e+002
<TRANSP> 5
 0.000000e+000 1.000000e+000 0.000000e+000 0.000000e+000 0.000000e+000
 0.000000e+000 7.603475e-001 2.396524e-001 0.000000e+000 0.000000e+000
 0.000000e+000 0.000000e+000 7.603475e-001 2.396525e-001 0.000000e+000
 0.000000e+000 0.000000e+000 0.000000e+000 7.603480e-001 2.396520e-001
 0.000000e+000 0.000000e+000 0.000000e+000 0.000000e+000 0.000000e+000
<ENDHMM>
~h "i"
<BEGINHMM>
<NUMSTATES> 5
<STATE> 2
<MEAN> 39
 -6.787003e+000 -8.700984e+000 -6.585009e+000 -1.625757e+001 2.567125e+000 -1.113858e+001 -2.957983e+000 -8.565631e+000 4.107275e+000 -7.462924e+000 -5.058466e+000 -4.736907e-001 1.828860e+001 5.146152e-002 -6.286024e-002 -1.257221e-001 3.520531e-002 4.538710e-002 6.131027e-002 1.950093e-002 6.787174e-002 -6.474670e-003 1.248149e-002 -6.505694e-003 1.257639e-002 -3.843556e-003 -2.631985e-004 7.343550e-004 3.124279e-004 1.864109e-003 5.233561e-005 2.545076e-004 -5.846851e-004 2.506654e-003 -2.515783e-003 -3.902536e-004 1.039831e-003 6.597618e-004 -5.769069e-004
<VARIANCE> 39
 8.374252e+001 1.822896e+002 1.458274e+002 1.474231e+002 1.894347e+002 2.422722e+002 1.250029e+002 9.580600e+001 1.002768e+002 9.621162e+001 9.725250e+001 8.062534e+001 8.551671e+000 3.002156e+000 3.531584e+000 3.568226e+000 5.117803e+000 4.864539e+000 6.225492e+000 5.316696e+000 4.019182e+000 4.789972e+000 4.518806e+000 4.977217e+000 3.673066e+000 2.280332e-001 4.457218e-001 4.608415e-001 5.585749e-001 7.651892e-001 7.648952e-001 9.267515e-001 8.739560e-001 7.219990e-001 8.753464e-001 8.160678e-001 8.440576e-001 6.623829e-001 3.249183e-002
<GCONST> 1.403577e+002
<STATE> 3
<MEAN> 39
 -6.584399e+000 -8.977646e+000 -7.110228e+000 -1.611225e+001 2.768924e+000 -1.087910e+001 -2.885580e+000 -8.256631e+000 4.057454e+000 -7.415432e+000 -5.064574e+000 -4.134111e-001 1.827368e+001 5.003709e-002 -6.254648e-002 -1.222484e-001 3.875441e-002 4.650395e-002 6.062808e-002 1.839495e-002 7.612914e-002 -1.654936e-002 9.889115e-003 -1.680607e-003 1.430111e-002 -5.091922e-003 -5.497246e-004 7.376110e-004 1.025285e-003 8.077769e-004 -2.278367e-004 -2.774273e-004 -2.192375e-004 1.830929e-003 -2.199084e-003 -3.460291e-004 1.375866e-003 3.044331e-004 -3.672767e-004
<VARIANCE> 39
 8.357964e+001 1.815877e+002 1.426891e+002 1.469093e+002 1.890042e+002 2.413838e+002 1.253699e+002 9.725850e+001 1.013982e+002 9.574471e+001 9.638728e+001 8.002171e+001 8.445669e+000 2.969322e+000 3.512726e+000 3.546341e+000 5.062025e+000 4.823605e+000 6.200630e+000 5.326714e+000 4.027421e+000 4.773160e+000 4.514436e+000 5.005042e+000 3.688954e+000 2.241066e-001 4.405329e-001 4.577211e-001 5.536445e-001 7.602279e-001 7.602257e-001 9.215742e-001 8.684375e-001 7.209514e-001 8.702019e-001 8.182922e-001 8.537977e-001 6.653926e-001 3.202768e-002
<GCONST> 1.402071e+002
<STATE> 4
<MEAN> 39
 -6.388213e+000 -9.261295e+000 -7.609730e+000 -1.596648e+001 2.975044e+000 -1.063019e+001 -2.812817e+000 -7.922204e+000 3.968151e+000 -7.381865e+000 -5.051167e+000 -3.499697e-001 1.825684e+001 4.761829e-002 -6.158892e-002 -1.154866e-001 3.848860e-002 4.544146e-002 5.749613e-002 1.864431e-002 8.149824e-002 -2.493360e-002 7.688654e-003 3.952575e-003 1.451098e-002 -5.733499e-003 -7.817252e-004 7.963552e-004 1.767482e-003 -1.686456e-004 -7.147730e-004 -8.804270e-004 9.213400e-005 1.123481e-003 -1.777533e-003 -2.753298e-004 1.569407e-003 -7.633371e-005 -1.873695e-004
<VARIANCE> 39
 8.350008e+001 1.801251e+002 1.394415e+002 1.466093e+002 1.877751e+002 2.403047e+002 1.258419e+002 9.890149e+001 1.033221e+002 9.558736e+001 9.624734e+001 7.951226e+001 8.418269e+000 2.936518e+000 3.488982e+000 3.529143e+000 5.016887e+000 4.793739e+000 6.181097e+000 5.344238e+000 4.054874e+000 4.766588e+000 4.531238e+000 5.041666e+000 3.708366e+000 2.213871e-001 4.354764e-001 4.553460e-001 5.500458e-001 7.562987e-001 7.575782e-001 9.179176e-001 8.649163e-001 7.233018e-001 8.669049e-001 8.243299e-001 8.640703e-001 6.685782e-001 3.168083e-002
<GCONST> 1.401329e+002
<TRANSP> 5
 0.000000e+000 1.000000e+000 0.000000e+000 0.000000e+000 0.000000e+000
 0.000000e+000 7.601649e-001 2.398351e-001 0.000000e+000 0.000000e+000
 0.000000e+000 0.000000e+000 7.601656e-001 2.398344e-001 0.000000e+000
 0.000000e+000 0.000000e+000 0.000000e+000 7.601660e-001 2.398340e-001
 0.000000e+000 0.000000e+000 0.000000e+000 0.000000e+000 0.000000e+000
<ENDHMM>
~h "j"
<BEGINHMM>
<NUMSTATES> 5
<STATE> 2
<MEAN> 39
 -7.639669e+000 -1.253834e+001 -7.546597e-001 -1.813466e+001 -3.623987e+000 -1.356544e+001 4.671371e+000 -6.312112e+000 3.546848e-001 -9.587460e+000 -5.584452e+000 2.647018e+000 1.844485e+001 -2.307039e-002 6.629527e-002 4.518682e-002 -5.233282e-002 -7.812301e-002 7.378215e-003 2.987118e-002 6.586418e-005 2.444972e-002 1.082229e-002 2.152443e-002 -2.408866e-002 -3.776604e-003 -6.551672e-004 7.214521e-004 5.624169e-004 -5.909665e-004 7.130448e-004 7.582886e-004 -2.299834e-004 -1.133618e-003 1.315339e-003 3.692356e-005 1.748530e-004 -8.011599e-004 1.750525e-004
<VARIANCE> 39
 6.901092e+001 1.168489e+002 1.978477e+002 1.378035e+002 1.677037e+002 1.281201e+002 8.653880e+001 1.649958e+002 1.125850e+002 1.757838e+002 9.380204e+001 5.899743e+001 1.021746e+001 2.308863e+000 2.458614e+000 3.837758e+000 3.599666e+000 4.326470e+000 4.395579e+000 5.054731e+000 4.865061e+000 5.102128e+000 4.764405e+000 4.519917e+000 3.124237e+000 2.272845e-001 2.978985e-001 3.138514e-001 4.119831e-001 5.155210e-001 6.818283e-001 7.506227e-001 8.624824e-001 8.110078e-001 9.041765e-001 8.571476e-001 8.274192e-001 5.660244e-001 2.812446e-002
<GCONST> 1.365989e+002
<STATE> 3
<MEAN> 39
 -7.736459e+000 -1.226098e+001 -5.585881e-001 -1.836161e+001 -3.939899e+000 -1.352991e+001 4.784136e+000 -6.325325e+000 4.663722e-001 -9.523267e+000 -5.496316e+000 2.539070e+000 1.843040e+001 -2.523559e-002 6.907167e-002 4.686851e-002 -5.445623e-002 -7.492944e-002 1.049512e-002 2.868895e-002 -4.206585e-003 2.909358e-002 1.074409e-002 2.208401e-002 -2.730167e-002 -3.126706e-003 -5.567785e-004 6.513409e-004 4.919292e-004 -6.346236e-004 7.872300e-004 6.689719e-004 -2.541408e-004 -1.117063e-003 1.215937e-003 -1.654455e-005 9.359116e-005 -7.984972e-004 1.858169e-004
<VARIANCE> 39
 6.939287e+001 1.181083e+002 2.013274e+002 1.385921e+002 1.680853e+002 1.292670e+002 8.792027e+001 1.654262e+002 1.122541e+002 1.804007e+002 9.399088e+001 5.942553e+001 1.031522e+001 2.315534e+000 2.458764e+000 3.855811e+000 3.586790e+000 4.344421e+000 4.414540e+000 5.097943e+000 4.859526e+000 5.125205e+000 4.777014e+000 4.479434e+000 3.111789e+000 2.280279e-001 2.987447e-001 3.146249e-001 4.130005e-001 5.114107e-001 6.827179e-001 7.529476e-001 8.709251e-001 8.083300e-001 9.115778e-001 8.604355e-001 8.187936e-001 5.625323e-001 2.821109e-002
<GCONST> 1.367359e+002
<STATE> 4
<MEAN> 39
 -7.840492e+000 -1.197312e+001 -3.584793e-001 -1.859596e+001 -4.240767e+000 -1.348114e+001 4.891221e+000 -6.353998e+000 5.943654e-001 -9.460402e+000 -5.406557e+000 2.418235e+000 1.841839e+001 -2.712397e-002 7.153150e-002 4.827731e-002 -5.676621e-002 -7.122186e-002 1.334957e-002 2.740527e-002 -8.329628e-003 3.356157e-002 1.046292e-002 2.229681e-002 -3.047981e-002 -2.411195e-003 -4.548412e-004 5.901014e-004 4.314957e-004 -6.546117e-004 8.991003e-004 5.977705e-004 -3.199626e-004 -1.091868e-003 1.182320e-003 -5.451854e-005 2.062022e-005 -7.620915e-004 1.929679e-004
<VARIANCE> 39
 6.973117e+001 1.194516e+002 2.046830e+002 1.395443e+002 1.683889e+002 1.305394e+002 8.939942e+001 1.657007e+002 1.120431e+002 1.848779e+002 9.415681e+001 5.985802e+001 1.041144e+001 2.321281e+000 2.463287e+000 3.872339e+000 3.578758e+000 4.364287e+000 4.433907e+000 5.144214e+000 4.854617e+000 5.148592e+000 4.788935e+000 4.436337e+000 3.102403e+000 2.287769e-001 2.996113e-001 3.159599e-001 4.140369e-001 5.079247e-001 6.841047e-001 7.550251e-001 8.797102e-001 8.060634e-001 9.188922e-001 8.636608e-001 8.097073e-001 5.598127e-001 2.830949e-002
<GCONST> 1.368813e+002
<TRANSP> 5
 0.000000e+000 1.000000e+000 0.000000e+000 0.000000e+000 0.000000e+000
 0.000000e+000 7.602161e-001 2.397840e-001 0.000000e+000 0.000000e+000
 0.000000e+000 0.000000e+000 7.602161e-001 2.397839e-001 0.000000e+000
 0.000000e+000 0.000000e+000 0.000000e+000 7.602170e-001 2.397831e-001
 0.000000e+000 0.000000e+000 0.000000e+000 0.000000e+000 0.000000e+000
<ENDHMM>
~h "k"
<BEGINHMM>
<NUMSTATES> 5
<STATE> 2
<MEAN> 39
 -5.735105e+000 -1.082912e+001 -9.141275e+000 -1.356445e+001 3.308284e+000 -7.970311e+000 -1.305484e+000 -6.284041e+000 -2.408790e-001 -6.727370e+000 -6.181841e+000 -1.316112e+000 1.769625e+001 -4.074112e-002 7.498363e-002 -1.795192e-002 6.177848e-002 4.927707e-003 -5.226894e-002 -2.814912e-002 3.427073e-003 -4.789088e-002 -1.756929e-002 5.119608e-002 -1.189181e-002 -9.595075e-003 9.719427e-004 1.901329e-003 6.452268e-004 -4.394328e-003 -5.471411e-004 -8.538536e-004 -1.237449e-003 -1.651818e-003 1.832772e-003 4.299017e-004 -1.217813e-004 1.889332e-004 6.425026e-004
<VARIANCE> 39
 9.987863e+001 1.673275e+002 1.575009e+002 1.975968e+002 2.073999e+002 2.705858e+002 1.388534e+002 9.557771e+001 1.453952e+002 9.356062e+001 1.157282e+002 7.894761e+001 1.074547e+001 2.763046e+000 2.842336e+000 3.540670e+000 4.813266e+000 4.996090e+000 5.646850e+000 5.799901e+000 4.834910e+000 5.176165e+000 4.335554e+000 4.535536e+000 3.332532e+000 2.328802e-001 3.716685e-001 3.669915e-001 5.236712e-001 6.744860e-001 7.792917e-001 8.858908e-001 9.351690e-001 8.673304e-001 9.222029e-001 7.764355e-001 7.443009e-001 5.929152e-001 2.778685e-002
<GCONST> 1.407794e+002
<STATE> 3
<MEAN> 39
 -5.909472e+000 -1.049787e+001 -9.199293e+000 -1.333363e+001 3.331552e+000 -8.196035e+000 -1.427742e+000 -6.286324e+000 -4.332158e-001 -6.798212e+000 -5.970725e+000 -1.371428e+000 1.766294e+001 -3.562781e-002 8.130941e-002 -1.560754e-002 4.215436e-002 2.803287e-003 -5.494563e-002 -3.391486e-002 -3.416271e-003 -4.042906e-002 -1.590467e-002 5.028434e-002 -1.072368e-002 -6.795769e-003 1.764687e-003 1.209442e-003 4.535428e-004 -5.255042e-003 -7.303153e-004 1.067801e-004 -1.453924e-003 -1.717091e-003 2.080945e-003 2.828348e-004 -6.519310e-004 1.727549e-004 6.391328e-004
<VARIANCE> 39
 1.038444e+002 1.713812e+002 1.581291e+002 1.952938e+002 2.033762e+002 2.676653e+002 1.398044e+002 9.550381e+001 1.461020e+002 9.394619e+001 1.163198e+002 7.855419e+001 1.096539e+001 2.793184e+000 2.839541e+000 3.563755e+000 4.819748e+000 4.919762e+000 5.678414e+000 5.863391e+000 4.837281e+000 5.231701e+000 4.335080e+000 4.530332e+000 3.333407e+000 2.381997e-001 3.748075e-001 3.678685e-001 5.292798e-001 6.756862e-001 7.685302e-001 8.922197e-001 9.433228e-001 8.678163e-001 9.328861e-001 7.767627e-001 7.452729e-001 5.928977e-001 2.829073e-002
<GCONST> 1.409479e+002
<STATE> 4
<MEAN> 39
 -6.057436e+000 -1.014703e+001 -9.249276e+000 -1.319062e+001 3.346113e+000 -8.428918e+000 -1.577063e+000 -6.316389e+000 -5.947379e-001 -6.862418e+000 -5.764997e+000 -1.419913e+000 1.764176e+001 -2.715636e-002 8.458137e-002 -1.415275e-002 1.928924e-002 -2.601235e-004 -5.344197e-002 -4.054987e-002 -1.024611e-002 -3.203966e-002 -1.484945e-002 4.714558e-002 -9.603345e-003 -4.123987e-003 2.401878e-003 3.727874e-004 2.940488e-004 -5.746871e-003 -9.610402e-004 1.233258e-003 -1.484661e-003 -1.582000e-003 2.103238e-003 1.264548e-004 -1.126922e-003 1.144238e-004 5.708210e-004
<VARIANCE> 39
 1.073721e+002 1.757287e+002 1.587356e+002 1.937042e+002 1.988299e+002 2.639976e+002 1.403029e+002 9.576139e+001 1.468711e+002 9.428033e+001 1.166048e+002 7.800428e+001 1.113749e+001 2.826391e+000 2.835518e+000 3.582059e+000 4.826289e+000 4.839252e+000 5.711062e+000 5.924854e+000 4.842692e+000 5.294392e+000 4.341557e+000 4.530132e+000 3.335608e+000 2.427197e-001 3.787269e-001 3.686812e-001 5.347742e-001 6.770808e-001 7.575833e-001 8.993737e-001 9.515791e-001 8.680928e-001 9.441033e-001 7.782333e-001 7.476055e-001 5.933723e-001 2.872215e-002
<GCONST> 1.411027e+002
<TRANSP> 5
 0.000000e+000 1.000000e+000 0.000000e+000 0.000000e+000 0.000000e+000
 0.000000e+000 7.599985e-001 2.400015e-001 0.000000e+000 0.000000e+000
 0.000000e+000 0.000000e+000 7.599988e-001 2.400012e-001 0.000000e+000
 0.000000e+000 0.000000e+000 0.000000e+000 7.600008e-001 2.399991e-001
 0.000000e+000 0.000000e+000 0.000000e+000 0.000000e+000 0.000000e+000
<ENDHMM>
~h "l"
<BEGINHMM>
<NUMSTATES> 5
<STATE> 2
<MEAN> 39
 -5.856363e+000 -8.565870e+000 -7.671798e+000 -1.505088e+001 2.294615e+000 -9.125946e+000 -7.590581e-001 -6.924949e+000 9.329469e-001 -7.134208e+000 -5.219112e+000 -6.774626e-001 1.791921e+001 7.821866e-003 6.953061e-003 3.162039e-003 -4.427831e-002 9.143432e-003 -8.577546e-003 -1.782403e-002 -7.585245e-003 -2.006825e-002 -2.683142e-003 -5.122171e-003 1.289615e-003 6.036471e-003 3.650642e-004 -1.615975e-003 5.654603e-004 -7.978663e-004 -1.484610e-004 3.303825e-004 5.211148e-004 -3.649227e-004 2.373200e-004 -9.072521e-005 -6.952803e-004 -5.947026e-004 3.280427e-004
<VARIANCE> 39
 9.917503e+001 2.025731e+002 1.538764e+002 2.169875e+002 1.825220e+002 1.910046e+002 1.347426e+002 1.288434e+002 1.547317e+002 1.052410e+002 1.054024e+002 7.172026e+001 1.071430e+001 2.854004e+000 3.508967e+000 3.575094e+000 4.752402e+000 4.756362e+000 5.512160e+000 5.919280e+000 4.874243e+000 5.627108e+000 4.495257e+000 4.298170e+000 3.340018e+000 2.489851e-001 3.875121e-001 4.438084e-001 5.364708e-001 6.710441e-001 7.614020e-001 9.204527e-001 9.640843e-001 8.476017e-001 9.791646e-001 8.017402e-001 7.518392e-001 6.152839e-001 3.051696e-002
<GCONST> 1.416503e+002
<STATE> 3
<MEAN> 39
 -5.819387e+000 -8.547527e+000 -7.657975e+000 -1.524759e+001 2.332650e+000 -9.153257e+000 -8.293798e-001 -6.954954e+000 8.533971e-001 -7.137479e+000 -5.246135e+000 -6.700860e-001 1.794550e+001 9.201349e-003 -3.012673e-004 5.578271e-003 -4.678191e-002 8.681008e-003 -6.650780e-003 -1.556835e-002 -8.949586e-003 -1.900946e-002 -2.936759e-003 -7.927328e-003 -1.321342e-003 7.289528e-003 3.806246e-004 -1.687103e-003 4.426555e-004 -4.482596e-004 -1.869999e-004 4.468864e-004 5.511408e-004 -3.186023e-004 2.356513e-004 -4.002778e-005 -6.443000e-004 -6.124088e-004 2.526279e-004
<VARIANCE> 39
 9.994555e+001 2.025824e+002 1.517238e+002 2.155294e+002 1.807309e+002 1.918880e+002 1.330348e+002 1.285182e+002 1.548286e+002 1.053324e+002 1.056448e+002 7.178252e+001 1.056997e+001 2.870918e+000 3.510100e+000 3.561420e+000 4.766640e+000 4.790933e+000 5.506706e+000 5.857586e+000 4.884161e+000 5.632884e+000 4.500388e+000 4.317490e+000 3.355318e+000 2.481369e-001 3.887516e-001 4.425955e-001 5.342333e-001 6.733550e-001 7.664636e-001 9.192819e-001 9.520400e-001 8.485526e-001 9.811530e-001 8.018435e-001 7.558625e-001 6.178972e-001 3.045686e-002
<GCONST> 1.416222e+002
<STATE> 4
<MEAN> 39
 -5.777481e+000 -8.561878e+000 -7.633484e+000 -1.545114e+001 2.369364e+000 -9.170382e+000 -8.899541e-001 -6.990142e+000 7.785104e-001 -7.141510e+000 -5.284440e+000 -6.743345e-001 1.797655e+001 1.057377e-002 -7.730922e-003 7.511192e-003 -4.776302e-002 7.996697e-003 -4.340446e-003 -1.322292e-002 -1.015967e-002 -1.788378e-002 -3.079309e-003 -1.044780e-002 -4.009233e-003 8.215030e-003 3.782278e-004 -1.680842e-003 2.963662e-004 -8.209973e-005 -2.362882e-004 5.384499e-004 5.458856e-004 -2.478006e-004 2.489204e-004 2.411122e-007 -5.516154e-004 -5.910815e-004 1.596978e-004
<VARIANCE> 39
 1.005014e+002 2.023399e+002 1.498597e+002 2.138823e+002 1.790590e+002 1.930426e+002 1.312475e+002 1.282075e+002 1.549149e+002 1.053670e+002 1.058412e+002 7.192461e+001 1.039038e+001 2.890811e+000 3.509456e+000 3.548590e+000 4.779731e+000 4.824832e+000 5.499493e+000 5.797104e+000 4.892819e+000 5.636002e+000 4.507082e+000 4.340178e+000 3.371831e+000 2.467895e-001 3.905180e-001 4.411860e-001 5.320265e-001 6.754223e-001 7.713299e-001 9.176895e-001 9.403526e-001 8.491152e-001 9.824989e-001 8.025037e-001 7.603488e-001 6.206071e-001 3.036114e-002
<GCONST> 1.415871e+002
<TRANSP> 5
 0.000000e+000 1.000000e+000 0.000000e+000 0.000000e+000 0.000000e+000
 0.000000e+000 7.600497e-001 2.399503e-001 0.000000e+000 0.000000e+000
 0.000000e+000 0.000000e+000 7.600505e-001 2.399494e-001 0.000000e+000
 0.000000e+000 0.000000e+000 0.000000e+000 7.600515e-001 2.399485e-001
 0.000000e+000 0.000000e+000 0.000000e+000 0.000000e+000 0.000000e+000
<ENDHMM>
~h "m"
<BEGINHMM>
<NUMSTATES> 5
<STATE> 2
<MEAN> 39
 -4.016125e+000 -1.128236e+001 -9.507568e+000 -1.792042e+001 4.867685e+000 -8.176287e+000 -4.207434e+000 -6.590167e+000 -1.078286e+000 -7.729532e+000 -5.690123e+000 -4.257429e+000 1.820585e+001 4.737792e-003 -1.201149e-002 -8.977124e-003 8.233927e-003 -3.613824e-002 1.191614e-002 4.034458e-002 -4.807687e-003 2.296271e-002 6.735082e-003 -3.877678e-003 2.801779e-003 -5.358848e-003 -1.468851e-003 -1.466736e-003 1.920719e-003 3.268250e-003 -7.160582e-004 -1.720277e-003 1.167160e-003 6.656622e-004 -2.006768e-003 -1.534272e-003 3.358227e-004 3.414942e-004 -1.979829e-005
<VARIANCE> 39
 1.006593e+002 1.212071e+002 1.676852e+002 1.609312e+002 1.568731e+002 2.512924e+002 1.360062e+002 9.011026e+001 1.180810e+002 1.063979e+002 1.142251e+002 7.185381e+001 8.828846e+000 2.603952e+000 2.771616e+000 3.866150e+000 4.823619e+000 4.633601e+000 6.292399e+000 5.888297e+000 4.801903e+000 4.870682e+000 4.836054e+000 4.319188e+000 3.657298e+000 2.372445e-001 3.642649e-001 3.652058e-001 5.593197e-001 7.055063e-001 7.408643e-001 9.700245e-001 9.649813e-001 8.667246e-001 8.094139e-001 8.124881e-001 7.508782e-001 6.881815e-001 2.961925e-002
<GCONST> 1.399573e+002
<STATE> 3
<MEAN> 39
 -4.024669e+000 -1.135295e+001 -9.518475e+000 -1.785600e+001 4.704505e+000 -8.147140e+000 -4.016218e+000 -6.614633e+000 -9.940903e-001 -7.722067e+000 -5.695560e+000 -4.225386e+000 1.818442e+001 -1.956433e-003 -1.752415e-002 -5.794814e-004 2.203267e-002 -3.900701e-002 4.884182e-003 4.532410e-002 -2.037813e-003 1.415748e-002 4.897782e-004 -2.336140e-003 4.468366e-003 -5.363080e-003 -1.831503e-003 -1.040724e-003 1.982816e-003 3.168130e-003 -6.570944e-004 -1.733351e-003 1.145141e-003 7.375546e-004 -2.092666e-003 -1.259849e-003 6.565734e-004 3.068391e-004 2.366089e-006
<VARIANCE> 39
 1.008151e+002 1.193988e+002 1.682848e+002 1.600156e+002 1.574473e+002 2.511186e+002 1.372798e+002 8.849429e+001 1.178895e+002 1.064228e+002 1.124669e+002 7.106496e+001 9.059214e+000 2.576766e+000 2.725887e+000 3.870137e+000 4.795733e+000 4.669134e+000 6.168842e+000 5.893546e+000 4.820884e+000 4.832600e+000 4.819250e+000 4.275645e+000 3.629865e+000 2.397633e-001 3.591265e-001 3.586230e-001 5.560081e-001 7.018797e-001 7.443521e-001 9.510089e-001 9.656758e-001 8.707071e-001 8.054600e-001 8.098580e-001 7.423218e-001 6.833133e-001 2.975127e-002
<GCONST> 1.398005e+002
<STATE> 4
<MEAN> 39
 -4.063134e+000 -1.144382e+001 -9.492940e+000 -1.773290e+001 4.529852e+000 -8.147127e+000 -3.803431e+000 -6.627458e+000 -9.481556e-001 -7.739155e+000 -5.694626e+000 -4.185544e+000 1.816334e+001 -1.004550e-002 -2.115367e-002 7.935858e-003 3.519164e-002 -4.153319e-002 -2.193699e-003 5.023360e-002 9.342138e-004 5.189256e-003 -4.358313e-003 5.135712e-004 5.981198e-003 -5.225617e-003 -2.123513e-003 -5.117285e-004 1.984521e-003 2.875249e-003 -5.759385e-004 -1.808603e-003 1.132117e-003 6.921529e-004 -2.035269e-003 -9.034909e-004 9.184193e-004 3.360650e-004 5.753270e-005
<VARIANCE> 39
 1.013584e+002 1.177605e+002 1.689437e+002 1.588763e+002 1.579824e+002 2.499043e+002 1.386669e+002 8.705776e+001 1.177526e+002 1.062581e+002 1.105590e+002 7.021504e+001 9.291719e+000 2.553827e+000 2.675721e+000 3.875219e+000 4.766643e+000 4.700515e+000 6.038315e+000 5.895566e+000 4.839092e+000 4.800268e+000 4.790105e+000 4.232800e+000 3.600806e+000 2.419157e-001 3.546792e-001 3.514093e-001 5.532756e-001 6.983378e-001 7.466783e-001 9.313180e-001 9.653069e-001 8.745285e-001 8.028491e-001 8.058699e-001 7.335764e-001 6.780134e-001 2.984428e-002
<GCONST> 1.396284e+002
<TRANSP> 5
 0.000000e+000 1.000000e+000 0.000000e+000 0.000000e+000 0.000000e+000
 0.000000e+000 7.600933e-001 2.399067e-001 0.000000e+000 0.000000e+000
 0.000000e+000 0.000000e+000 7.600940e-001 2.399059e-001 0.000000e+000
 0.000000e+000 0.000000e+000 0.000000e+000 7.600949e-001 2.399051e-001
 0.000000e+000 0.000000e+000 0.000000e+000 0.000000e+000 0.000000e+000
<ENDHMM>
~h "n"
<BEGINHMM>
<NUMSTATES> 5
<STATE> 2
<MEAN> 39
 -7.385297e+000 -1.227653e+001 -4.788671e+000 -1.427233e+001 3.804621e+000 -8.718542e+000 -9.779061e-001 -7.931460e+000 1.702489e+000 -7.719752e+000 -5.779217e+000 -8.508019e-001 1.813130e+001 2.338441e-003 1.361676e-002 1.482651e-002 -1.203519e-002 -2.497590e-003 7.166457e-003 -1.147031e-002 -9.330835e-003 2.661407e-002 1.605520e-002 -8.184416e-003 3.587779e-003 -4.501208e-004 1.920050e-004 4.194206e-005 -3.546973e-004 2.853105e-004 -3.950179e-004 -3.357732e-004 5.436776e-006 4.839464e-004 4.594103e-005 -1.054398e-004 -1.565554e-004 -1.861934e-004 -1.481350e-006
<VARIANCE> 39
 6.349637e+001 1.628636e+002 1.888917e+002 1.687742e+002 1.864756e+002 2.118250e+002 1.282793e+002 1.090614e+002 1.160180e+002 1.102973e+002 9.545521e+001 8.011451e+001 9.998640e+000 2.608684e+000 3.285128e+000 4.301162e+000 5.018466e+000 4.835098e+000 5.183446e+000 5.580224e+000 4.830405e+000 5.060318e+000 4.742256e+000 4.305712e+000 3.738265e+000 2.686582e-001 3.968077e-001 4.059994e-001 6.272527e-001 7.432814e-001 7.745149e-001 8.233660e-001 8.819005e-001 8.321452e-001 9.017612e-001 8.436689e-001 7.638721e-001 6.587099e-001 3.452326e-002
<GCONST> 1.408260e+002
<STATE> 3
<MEAN> 39
 -7.374893e+000 -1.222180e+001 -4.736744e+000 -1.432010e+001 3.792099e+000 -8.700450e+000 -1.020347e+000 -7.964659e+000 1.814336e+000 -7.651242e+000 -5.812972e+000 -8.395049e-001 1.812994e+001 3.092473e-003 1.360446e-002 1.326563e-002 -1.090644e-002 -4.099129e-003 5.851602e-003 -1.128753e-002 -7.482430e-003 2.675103e-002 1.557000e-002 -8.852869e-003 2.769958e-003 -4.466822e-004 1.903980e-004 -3.565236e-005 -3.876738e-004 2.519508e-004 -3.822781e-004 -3.626431e-004 1.088167e-004 4.642072e-004 -1.442896e-005 -1.283027e-004 -1.394318e-004 -2.144587e-004 1.621502e-005
<VARIANCE> 39
 6.351368e+001 1.638920e+002 1.896145e+002 1.689722e+002 1.860125e+002 2.118229e+002 1.282147e+002 1.088063e+002 1.157434e+002 1.102202e+002 9.529949e+001 8.021659e+001 1.003622e+001 2.602864e+000 3.274344e+000 4.300485e+000 5.012615e+000 4.828273e+000 5.170571e+000 5.558457e+000 4.819673e+000 5.050055e+000 4.736599e+000 4.320625e+000 3.732154e+000 2.680480e-001 3.956726e-001 4.047963e-001 6.269333e-001 7.410561e-001 7.735071e-001 8.214368e-001 8.783141e-001 8.320535e-001 8.990231e-001 8.432482e-001 7.659065e-001 6.592044e-001 3.443027e-002
<GCONST> 1.407920e+002
<STATE> 4
<MEAN> 39
 -7.361513e+000 -1.216777e+001 -4.691516e+000 -1.436364e+001 3.772975e+000 -8.687641e+000 -1.061619e+000 -7.990679e+000 1.926485e+000 -7.584875e+000 -5.849281e+000 -8.316669e-001 1.812866e+001 3.779680e-003 1.333020e-002 1.164968e-002 -1.000535e-002 -5.679497e-003 4.366453e-003 -1.074608e-002 -5.689429e-003 2.664211e-002 1.501596e-002 -9.379163e-003 1.888163e-003 -3.664689e-004 1.661222e-004 -9.736929e-005 -4.017095e-004 1.902803e-004 -3.799530e-004 -4.077041e-004 2.032180e-004 4.400214e-004 -7.867476e-005 -1.506248e-004 -1.174146e-004 -2.320121e-004 3.429509e-005
<VARIANCE> 39
 6.359357e+001 1.648962e+002 1.902050e+002 1.691642e+002 1.856002e+002 2.120390e+002 1.280997e+002 1.086275e+002 1.157117e+002 1.100978e+002 9.522022e+001 8.032333e+001 1.007201e+001 2.599464e+000 3.265821e+000 4.301919e+000 5.009013e+000 4.825734e+000 5.161563e+000 5.536102e+000 4.810439e+000 5.042024e+000 4.733505e+000 4.338403e+000 3.725582e+000 2.675230e-001 3.948644e-001 4.039235e-001 6.269380e-001 7.391838e-001 7.729699e-001 8.201997e-001 8.748909e-001 8.322874e-001 8.966138e-001 8.433466e-001 7.684029e-001 6.597177e-001 3.435937e-002
<GCONST> 1.407751e+002
<TRANSP> 5
 0.000000e+000 1.000000e+000 0.000000e+000 0.000000e+000 0.000000e+000
 0.000000e+000 7.602439e-001 2.397561e-001 0.000000e+000 0.000000e+000
 0.000000e+000 0.000000e+000 7.602447e-001 2.397553e-001 0.000000e+000
 0.000000e+000 0.000000e+000 0.000000e+000 7.602454e-001 2.397546e-001
 0.000000e+000 0.000000e+000 0.000000e+000 0.000000e+000 0.000000e+000
<ENDHMM>
~h "r"
<BEGINHMM>
<NUMSTATES> 5
<STATE> 2
<MEAN> 39
 -5.806590e+000 -9.035205e+000 -9.413728e+000 -1.271530e+001 8.013905e+000 -1.034753e+001 -4.965771e+000 -7.535336e+000 2.569953e+000 -6.587649e+000 -6.679779e+000 -1.374674e+000 1.809167e+001 2.333619e-003 1.268319e-001 8.222207e-002 -8.069989e-002 -7.974873e-002 -4.542954e-002 -4.602753e-002 -6.269298e-002 -7.068984e-003 -2.043783e-002 -2.151246e-002 -1.732242e-002 -1.257378e-003 6.144521e-004 3.249576e-004 1.063625e-003 -1.879427e-003 -1.093526e-003 1.533687e-003 2.811493e-005 -6.650834e-004 6.557786e-004 4.570723e-004 -2.282031e-004 9.210739e-004 1.136965e-005
<VARIANCE> 39
 8.578448e+001 1.732384e+002 1.800553e+002 2.604472e+002 1.940798e+002 3.046797e+002 1.056561e+002 1.108615e+002 1.659936e+002 1.051163e+002 1.038531e+002 8.352422e+001 8.299842e+000 3.286810e+000 3.185010e+000 3.995902e+000 5.532650e+000 5.073322e+000 5.172403e+000 5.873797e+000 4.601593e+000 5.071466e+000 4.524358e+000 4.876438e+000 3.501869e+000 2.162700e-001 4.690157e-001 4.576245e-001 5.908808e-001 7.098454e-001 7.677117e-001 7.387008e-001 1.033932e+000 8.329250e-001 8.770298e-001 8.228661e-001 7.740459e-001 6.342991e-001 2.776141e-002
<GCONST> 1.420489e+002
<STATE> 3
<MEAN> 39
 -5.792833e+000 -8.502621e+000 -9.057469e+000 -1.307653e+001 7.657254e+000 -1.053602e+001 -5.164021e+000 -7.802015e+000 2.541054e+000 -6.662896e+000 -6.778368e+000 -1.448019e+000 1.808600e+001 4.857397e-003 1.277783e-001 8.628307e-002 -8.758928e-002 -8.440594e-002 -3.929828e-002 -4.560732e-002 -6.487332e-002 -4.127381e-003 -1.866805e-002 -2.216860e-002 -1.330515e-002 -1.278014e-003 6.402876e-004 8.122514e-005 8.776991e-004 -1.655841e-003 -1.070835e-003 1.596295e-003 7.731991e-005 -5.695992e-004 7.358161e-004 5.058624e-004 -1.768093e-004 9.996819e-004 -1.740617e-006
<VARIANCE> 39
 8.628429e+001 1.741116e+002 1.845161e+002 2.615789e+002 1.967780e+002 3.036059e+002 1.064980e+002 1.108142e+002 1.659671e+002 1.052845e+002 1.032293e+002 8.537582e+001 8.359745e+000 3.307649e+000 3.229795e+000 4.062848e+000 5.557998e+000 5.071780e+000 5.222614e+000 5.930217e+000 4.614754e+000 5.049640e+000 4.539562e+000 4.853700e+000 3.511493e+000 2.193927e-001 4.719569e-001 4.650968e-001 6.046917e-001 7.108021e-001 7.672896e-001 7.457361e-001 1.044004e+000 8.365963e-001 8.720390e-001 8.271272e-001 7.715083e-001 6.353926e-001 2.817882e-002
<GCONST> 1.422883e+002
<STATE> 4
<MEAN> 39
 -5.769127e+000 -7.967899e+000 -8.686140e+000 -1.346263e+001 7.281731e+000 -1.069952e+001 -5.359582e+000 -8.075614e+000 2.525471e+000 -6.731233e+000 -6.878579e+000 -1.504121e+000 1.807995e+001 7.377096e-003 1.277472e-001 8.943620e-002 -9.354106e-002 -8.853389e-002 -3.278485e-002 -4.508903e-002 -6.680823e-002 -9.502774e-004 -1.675186e-002 -2.267483e-002 -9.045585e-003 -1.370195e-003 6.367819e-004 -1.674801e-004 6.630836e-004 -1.405701e-003 -9.100147e-004 1.674826e-003 9.048278e-005 -4.920020e-004 7.377890e-004 5.230292e-004 -1.625047e-004 1.050479e-003 -1.974149e-005
<VARIANCE> 39
 8.676730e+001 1.745585e+002 1.889521e+002 2.623575e+002 1.992995e+002 3.022532e+002 1.073123e+002 1.109128e+002 1.656136e+002 1.053650e+002 1.025091e+002 8.725967e+001 8.424729e+000 3.325619e+000 3.273193e+000 4.130849e+000 5.578166e+000 5.070461e+000 5.274688e+000 5.984869e+000 4.626021e+000 5.028806e+000 4.553972e+000 4.826257e+000 3.519037e+000 2.223936e-001 4.744358e-001 4.721894e-001 6.183195e-001 7.112743e-001 7.672228e-001 7.530617e-001 1.053688e+000 8.398859e-001 8.676870e-001 8.313624e-001 7.682126e-001 6.360662e-001 2.857126e-002
<GCONST> 1.425074e+002
<TRANSP> 5
 0.000000e+000 1.000000e+000 0.000000e+000 0.000000e+000 0.000000e+000
 0.000000e+000 7.601242e-001 2.398758e-001 0.000000e+000 0.000000e+000
 0.000000e+000 0.000000e+000 7.601243e-001 2.398757e-001 0.000000e+000
 0.000000e+000 0.000000e+000 0.000000e+000 7.601256e-001 2.398744e-001
 0.000000e+000 0.000000e+000 0.000000e+000 0.000000e+000 0.000000e+000
<ENDHMM>
~h "s"
<BEGINHMM>
<NUMSTATES> 5
<STATE> 2
<MEAN> 39
 -5.354383e+000 -9.081811e+000 -8.932199e+000 -1.558325e+001 3.543460e+000 -8.586298e+000 -2.237983e+000 -7.647993e+000 9.131637e-001 -7.327291e+000 -5.541179e+000 -1.710429e+000 1.803157e+001 -1.253772e-002 -1.229070e-002 1.208878e-002 9.096218e-003 -2.479575e-002 1.027166e-002 1.619704e-002 1.008669e-002 2.515961e-003 6.537982e-003 -1.500340e-003 1.163371e-002 -6.058913e-003 -5.987845e-004 5.311232e-004 1.244572e-004 -1.385038e-004 3.334446e-004 -9.754772e-004 2.260659e-005 1.164714e-003 -4.579988e-005 -3.862845e-004 7.578183e-005 6.353162e-004 -8.590185e-005
<VARIANCE> 39
 9.042783e+001 1.781496e+002 1.613911e+002 1.969433e+002 1.743054e+002 2.239501e+002 1.271609e+002 1.120046e+002 1.344921e+002 9.750703e+001 9.860961e+001 7.211288e+001 1.045628e+001 2.893052e+000 3.510384e+000 3.576932e+000 4.719525e+000 4.527449e+000 5.897455e+000 5.877127e+000 4.702394e+000 5.267018e+000 4.465343e+000 4.790703e+000 3.417573e+000 2.213950e-001 4.060061e-001 4.755808e-001 5.343861e-001 6.736540e-001 7.425412e-001 9.165762e-001 9.573405e-001 8.166596e-001 9.255600e-001 8.041803e-001 8.393862e-001 6.197013e-001 2.963367e-002
<GCONST> 1.409941e+002
<STATE> 3
<MEAN> 39
 -5.409069e+000 -9.132849e+000 -8.879113e+000 -1.555467e+001 3.439316e+000 -8.545568e+000 -2.168926e+000 -7.605237e+000 9.230472e-001 -7.299399e+000 -5.545521e+000 -1.663761e+000 1.800775e+001 -1.454375e-002 -1.005456e-002 1.220275e-002 7.933658e-003 -2.275178e-002 6.698643e-003 1.592270e-002 1.494805e-002 2.192764e-003 4.927181e-003 -1.629585e-003 1.414752e-002 -6.362239e-003 -2.319193e-004 6.416865e-004 -2.289006e-004 -3.885925e-004 4.892864e-004 -6.459323e-004 -5.287422e-005 1.394884e-003 -3.743140e-004 -5.378771e-004 -1.379206e-004 3.574000e-004 -7.748183e-005
<VARIANCE> 39
 9.061916e+001 1.777158e+002 1.617475e+002 1.979117e+002 1.754565e+002 2.246964e+002 1.286524e+002 1.125361e+002 1.340974e+002 9.830202e+001 9.909074e+001 7.213898e+001 1.064086e+001 2.877098e+000 3.493040e+000 3.575812e+000 4.722650e+000 4.566628e+000 5.910787e+000 5.903616e+000 4.710793e+000 5.268325e+000 4.480692e+000 4.782660e+000 3.409943e+000 2.214254e-001 4.044354e-001 4.746391e-001 5.343001e-001 6.736863e-001 7.479841e-001 9.190096e-001 9.624778e-001 8.180458e-001 9.255957e-001 8.068969e-001 8.372403e-001 6.175191e-001 2.961585e-002
<GCONST> 1.410698e+002
<STATE> 4
<MEAN> 39
 -5.470190e+000 -9.174349e+000 -8.827534e+000 -1.553338e+001 3.346721e+000 -8.517395e+000 -2.102816e+000 -7.541922e+000 9.309192e-001 -7.278353e+000 -5.551936e+000 -1.606908e+000 1.798288e+001 -1.500861e-002 -7.377900e-003 1.077372e-002 5.937976e-003 -2.006126e-002 4.481146e-003 1.524578e-002 2.072584e-002 5.139285e-004 2.685541e-003 -2.595535e-003 1.554932e-002 -6.663057e-003 8.256586e-005 7.558783e-004 -5.797466e-004 -3.979982e-004 5.263725e-004 -2.589967e-004 -7.668342e-005 1.426511e-003 -6.626143e-004 -6.607122e-004 -2.940277e-004 9.725412e-006 -7.882079e-005
<VARIANCE> 39
 9.085872e+001 1.774370e+002 1.620111e+002 1.991107e+002 1.758756e+002 2.255466e+002 1.301438e+002 1.132371e+002 1.335789e+002 9.894678e+001 9.961031e+001 7.211153e+001 1.081665e+001 2.859552e+000 3.473368e+000 3.571095e+000 4.722703e+000 4.601591e+000 5.920912e+000 5.926387e+000 4.720627e+000 5.268012e+000 4.492069e+000 4.770371e+000 3.399722e+000 2.218183e-001 4.025718e-001 4.732305e-001 5.336942e-001 6.733996e-001 7.528686e-001 9.210293e-001 9.667055e-001 8.197757e-001 9.254288e-001 8.089398e-001 8.339995e-001 6.148663e-001 2.963714e-002
<GCONST> 1.411282e+002
<TRANSP> 5
 0.000000e+000 1.000000e+000 0.000000e+000 0.000000e+000 0.000000e+000
 0.000000e+000 7.599747e-001 2.400254e-001 0.000000e+000 0.000000e+000
 0.000000e+000 0.000000e+000 7.599747e-001 2.400253e-001 0.000000e+000
 0.000000e+000 0.000000e+000 0.000000e+000 7.599761e-001 2.400239e-001
 0.000000e+000 0.000000e+000 0.000000e+000 0.000000e+000 0.000000e+000
<ENDHMM>
~h "t"
<BEGINHMM>
<NUMSTATES> 5
<STATE> 2
<MEAN> 39
 -3.483688e+000 -4.424621e+000 -1.203749e+001 -1.817802e+001 2.942526e+000 -8.185189e+000 -3.979294e+000 -7.564260e+000 -1.848756e-001 -5.451983e+000 -4.715742e+000 -2.581352e+000 1.783308e+001 3.001291e-002 -5.112067e-002 1.756497e-003 -3.201397e-002 -3.576760e-002 6.415366e-002 4.418991e-003 -2.660721e-002 9.270810e-003 1.254186e-002 -2.383185e-002 -3.022058e-002 2.202313e-004 -2.029249e-003 -2.525276e-003 -7.447119e-005 4.669879e-003 3.946584e-004 2.587468e-003 2.146941e-003 6.342230e-004 -4.557362e-004 5.804574e-004 -8.239605e-004 4.849128e-004 -6.080771e-004
<VARIANCE> 39
 1.176016e+002 1.783746e+002 1.351659e+002 2.148596e+002 1.566208e+002 2.114890e+002 1.184626e+002 1.076741e+002 1.469984e+002 7.603537e+001 1.008036e+002 6.244907e+001 1.030761e+001 3.171406e+000 3.759133e+000 2.937349e+000 4.837973e+000 4.417465e+000 6.453853e+000 6.102697e+000 4.697467e+000 6.138033e+000 4.114857e+000 4.955127e+000 3.433346e+000 2.168286e-001 3.979518e-001 4.948754e-001 4.611586e-001 6.709380e-001 7.510812e-001 1.035078e+000 9.561628e-001 8.245629e-001 1.067003e+000 7.461939e-001 8.617924e-001 6.337971e-001 2.860208e-002
<GCONST> 1.408670e+002
<STATE> 3
<MEAN> 39
 -3.361435e+000 -4.659603e+000 -1.202584e+001 -1.828969e+001 2.793709e+000 -7.905597e+000 -3.950555e+000 -7.671736e+000 -1.526256e-001 -5.401121e+000 -4.820500e+000 -2.708438e+000 1.783086e+001 2.076253e-002 -6.029360e-002 1.443749e-003 -1.174086e-002 -3.453292e-002 7.390568e-002 1.376120e-002 -2.392420e-002 7.722095e-003 1.487353e-002 -2.662355e-002 -2.770172e-002 -2.333216e-003 -2.810835e-003 -2.108576e-003 1.967904e-004 5.291895e-003 8.523394e-004 1.335549e-003 2.073927e-003 5.725810e-004 -6.039794e-005 4.348310e-004 -4.971494e-004 1.203943e-003 -5.341194e-004
<VARIANCE> 39
 1.136700e+002 1.786993e+002 1.366573e+002 2.162894e+002 1.608518e+002 2.147895e+002 1.163946e+002 1.066433e+002 1.467122e+002 7.677981e+001 9.955771e+001 6.249639e+001 1.046645e+001 3.171707e+000 3.767864e+000 2.968446e+000 4.814241e+000 4.422634e+000 6.463135e+000 6.041977e+000 4.667360e+000 6.069741e+000 4.160550e+000 4.979891e+000 3.432155e+000 2.116436e-001 4.005010e-001 4.958099e-001 4.663816e-001 6.686088e-001 7.499950e-001 1.033862e+000 9.534276e-001 8.162180e-001 1.053026e+000 7.531518e-001 8.681129e-001 6.334484e-001 2.811628e-002
<GCONST> 1.408393e+002
<STATE> 4
<MEAN> 39
 -3.281265e+000 -4.926965e+000 -1.201530e+001 -1.831377e+001 2.648130e+000 -7.589654e+000 -3.881213e+000 -7.767979e+000 -1.253986e-001 -5.340915e+000 -4.934119e+000 -2.822840e+000 1.781787e+001 8.496195e-003 -6.766894e-002 2.297338e-003 1.046586e-002 -3.142617e-002 7.857739e-002 2.253400e-002 -2.147208e-002 7.848307e-003 1.656621e-002 -2.800528e-002 -2.216546e-002 -4.532811e-003 -3.218294e-003 -1.643976e-003 3.841189e-004 5.286445e-003 1.261591e-003 1.555025e-005 1.716870e-003 6.327962e-004 3.539101e-004 1.671910e-004 -2.025500e-004 1.983885e-003 -4.583318e-004
<VARIANCE> 39
 1.104667e+002 1.789871e+002 1.378574e+002 2.183009e+002 1.662821e+002 2.186272e+002 1.149802e+002 1.052114e+002 1.462265e+002 7.770947e+001 9.841651e+001 6.249399e+001 1.071692e+001 3.169802e+000 3.779123e+000 3.004519e+000 4.794817e+000 4.444323e+000 6.481261e+000 6.003656e+000 4.634729e+000 5.993727e+000 4.201005e+000 4.988670e+000 3.427503e+000 2.069213e-001 4.027626e-001 4.977204e-001 4.717998e-001 6.667875e-001 7.515586e-001 1.033355e+000 9.539511e-001 8.083515e-001 1.038024e+000 7.587602e-001 8.714915e-001 6.322525e-001 2.766201e-002
<GCONST> 1.408455e+002
<TRANSP> 5
 0.000000e+000 1.000000e+000 0.000000e+000 0.000000e+000 0.000000e+000
 0.000000e+000 7.597136e-001 2.402864e-001 0.000000e+000 0.000000e+000
 0.000000e+000 0.000000e+000 7.597134e-001 2.402866e-001 0.000000e+000
 0.000000e+000 0.000000e+000 0.000000e+000 7.597162e-001 2.402838e-001
 0.000000e+000 0.000000e+000 0.000000e+000 0.000000e+000 0.000000e+000
<ENDHMM>
~h "u"
<BEGINHMM>
<NUMSTATES> 5
<STATE> 2
<MEAN> 39
 -3.557621e+000 -2.601455e+000 -1.554992e+001 -1.775883e+001 9.286986e+000 -3.155038e+000 -3.931552e+000 -8.425953e+000 -1.257446e+000 -8.402509e+000 -4.675860e+000 -3.580047e+000 1.805820e+001 -7.238126e-002 -3.251870e-002 5.921691e-002 5.406077e-002 8.246228e-003 -9.869444e-002 1.688659e-002 5.517894e-002 3.684346e-002 -1.717991e-002 1.793522e-002 3.748293e-002 1.412118e-003 -4.005968e-004 -2.052681e-003 1.754336e-003 -3.597679e-004 9.358092e-006 -3.905482e-003 5.449852e-006 -3.802601e-004 1.422630e-003 -1.036066e-003 8.872175e-005 4.229333e-004 7.093844e-004
<VARIANCE> 39
 1.102016e+002 1.672113e+002 9.885965e+001 2.292926e+002 1.148732e+002 2.950130e+002 1.215608e+002 1.154776e+002 1.357688e+002 5.632182e+001 7.979704e+001 5.914260e+001 1.025773e+001 3.497618e+000 4.778669e+000 3.682648e+000 4.553872e+000 3.775450e+000 5.690487e+000 7.693566e+000 5.217186e+000 5.649101e+000 3.923121e+000 4.793063e+000 3.247481e+000 2.269360e-001 4.810753e-001 7.183060e-001 5.707601e-001 5.883318e-001 7.213770e-001 8.115385e-001 1.232299e+000 9.168419e-001 1.027477e+000 7.762615e-001 8.708846e-001 6.238768e-001 3.120364e-002
<GCONST> 1.411226e+002
<STATE> 3
<MEAN> 39
 -3.852475e+000 -2.759612e+000 -1.529579e+001 -1.754119e+001 9.331922e+000 -3.583062e+000 -3.862251e+000 -8.194935e+000 -1.101822e+000 -8.483785e+000 -4.615370e+000 -3.410385e+000 1.807049e+001 -7.358371e-002 -4.222176e-002 6.607534e-002 5.346461e-002 8.120266e-003 -1.130333e-001 1.697950e-002 5.336552e-002 4.215027e-002 -2.130881e-002 1.792067e-002 3.885046e-002 4.301434e-003 2.584291e-005 -2.427640e-003 1.426276e-003 -2.351464e-004 1.494411e-004 -3.294118e-003 6.576136e-007 -6.998245e-004 1.167934e-003 -9.337029e-004 -1.839668e-004 1.924090e-004 7.238178e-004
<VARIANCE> 39
 1.081024e+002 1.724557e+002 9.770464e+001 2.284199e+002 1.132798e+002 2.941831e+002 1.221324e+002 1.173575e+002 1.373941e+002 5.686717e+001 8.006738e+001 5.923405e+001 1.039551e+001 3.487057e+000 4.860793e+000 3.643816e+000 4.538235e+000 3.776586e+000 5.672438e+000 7.687338e+000 5.274237e+000 5.710684e+000 3.961186e+000 4.777787e+000 3.250188e+000 2.283599e-001 4.814548e-001 7.344627e-001 5.629382e-001 5.795106e-001 7.261218e-001 8.061452e-001 1.229978e+000 9.305181e-001 1.040485e+000 7.853947e-001 8.661116e-001 6.239233e-001 3.166454e-002
<GCONST> 1.412345e+002
<STATE> 4
<MEAN> 39
 -4.149863e+000 -2.963327e+000 -1.501474e+001 -1.732155e+001 9.375186e+000 -4.062331e+000 -3.792651e+000 -7.972175e+000 -9.267063e-001 -8.581064e+000 -4.557217e+000 -3.236670e+000 1.809423e+001 -7.295969e-002 -5.335029e-002 7.158247e-002 5.349103e-002 8.398835e-003 -1.247938e-001 1.698242e-002 5.025179e-002 4.641088e-002 -2.488030e-002 1.659396e-002 3.925519e-002 7.139954e-003 4.936687e-004 -2.699495e-003 1.045214e-003 -6.270219e-005 1.759610e-004 -2.572312e-003 -2.748096e-006 -1.025575e-003 8.989172e-004 -7.373398e-004 -5.253357e-004 -1.113577e-005 6.885423e-004
<VARIANCE> 39
 1.056738e+002 1.782400e+002 9.635350e+001 2.269594e+002 1.118301e+002 2.925634e+002 1.224568e+002 1.189952e+002 1.390108e+002 5.749526e+001 8.033328e+001 5.928716e+001 1.049650e+001 3.474936e+000 4.937158e+000 3.598368e+000 4.516380e+000 3.771738e+000 5.637849e+000 7.655668e+000 5.322603e+000 5.770634e+000 3.993420e+000 4.753466e+000 3.250581e+000 2.290400e-001 4.812312e-001 7.488497e-001 5.544192e-001 5.701412e-001 7.288312e-001 7.995384e-001 1.223777e+000 9.429057e-001 1.053349e+000 7.926096e-001 8.592940e-001 6.233346e-001 3.202959e-002
<GCONST> 1.412831e+002
<TRANSP> 5
 0.000000e+000 1.000000e+000 0.000000e+000 0.000000e+000 0.000000e+000
 0.000000e+000 7.598152e-001 2.401848e-001 0.000000e+000 0.000000e+000
 0.000000e+000 0.000000e+000 7.598160e-001 2.401840e-001 0.000000e+000
 0.000000e+000 0.000000e+000 0.000000e+000 7.598174e-001 2.401826e-001
 0.000000e+000 0.000000e+000 0.000000e+000 0.000000e+000 0.000000e+000
<ENDHMM>
~h "v"
<BEGINHMM>
<NUMSTATES> 5
<STATE> 2
<MEAN> 39
 -4.003924e+000 -7.501385e+000 -9.275760e+000 -1.659708e+001 2.262151e+000 -1.031114e+001 -3.916919e+000 -6.015166e+000 3.353244e+000 -6.384033e+000 -6.264912e+000 -1.869815e+000 1.786338e+001 1.053837e-002 -1.708965e-002 8.344901e-004 -5.890871e-003 -8.190528e-003 6.164091e-003 1.203682e-002 1.393836e-003 -2.028284e-002 -1.213054e-002 -4.069405e-003 3.457532e-003 1.536811e-003 -1.167540e-004 9.780539e-004 -9.153658e-005 5.971041e-004 -8.458151e-004 1.580805e-004 -4.120749e-004 5.003426e-004 2.466738e-004 3.335988e-004 2.813974e-004 4.693353e-004 -3.425036e-004
<VARIANCE> 39
 8.846380e+001 1.570003e+002 1.581882e+002 1.579668e+002 1.669923e+002 2.757405e+002 1.263287e+002 1.187972e+002 1.403528e+002 9.814436e+001 1.011689e+002 8.289335e+001 9.328643e+000 3.280096e+000 3.697949e+000 4.049978e+000 5.454372e+000 5.174647e+000 7.205630e+000 5.848196e+000 4.877107e+000 5.253262e+000 4.322858e+000 5.254467e+000 3.840525e+000 2.652183e-001 4.633410e-001 5.182347e-001 6.248491e-001 8.304492e-001 8.369877e-001 1.031510e+000 9.450879e-001 8.488152e-001 9.205914e-001 7.729999e-001 9.002911e-001 6.783782e-001 3.815227e-002
<GCONST> 1.433049e+002
<STATE> 3
<MEAN> 39
 -3.966717e+000 -7.559399e+000 -9.271301e+000 -1.661364e+001 2.218970e+000 -1.029881e+001 -3.870480e+000 -6.007046e+000 3.273632e+000 -6.437115e+000 -6.275249e+000 -1.848983e+000 1.786707e+001 9.954682e-003 -1.281885e-002 2.235694e-004 -3.432593e-003 -1.147486e-002 6.692687e-003 1.030061e-002 3.464070e-003 -1.914679e-002 -1.067043e-002 -2.707416e-003 5.149838e-003 1.564512e-004 -1.861378e-004 1.104643e-003 -1.531407e-004 6.599553e-004 -8.038473e-004 9.587833e-005 -4.485886e-004 5.263660e-004 3.180999e-004 3.638480e-004 3.171417e-004 4.063809e-004 -3.570460e-004
<VARIANCE> 39
 8.837521e+001 1.568982e+002 1.586868e+002 1.568515e+002 1.659267e+002 2.713504e+002 1.269073e+002 1.191399e+002 1.398344e+002 9.821132e+001 1.006298e+002 8.270367e+001 9.287262e+000 3.248084e+000 3.673883e+000 4.043414e+000 5.409352e+000 5.148707e+000 7.155890e+000 5.862394e+000 4.883776e+000 5.240262e+000 4.308935e+000 5.219663e+000 3.831657e+000 2.630115e-001 4.588586e-001 5.148510e-001 6.234198e-001 8.257181e-001 8.335277e-001 1.025951e+000 9.465045e-001 8.497682e-001 9.189474e-001 7.698358e-001 8.956088e-001 6.763442e-001 3.777706e-002
<GCONST> 1.431566e+002
<STATE> 4
<MEAN> 39
 -3.932373e+000 -7.598879e+000 -9.270181e+000 -1.662007e+001 2.162992e+000 -1.028466e+001 -3.831281e+000 -5.990276e+000 3.199268e+000 -6.483798e+000 -6.279040e+000 -1.822234e+000 1.786525e+001 9.101135e-003 -8.142686e-003 -5.550073e-004 -7.288418e-004 -1.458441e-002 6.996543e-003 8.442935e-003 5.701166e-003 -1.768719e-002 -9.086544e-003 -1.227437e-003 6.551945e-003 -1.253497e-003 -2.635540e-004 1.185753e-003 -1.736445e-004 7.121519e-004 -7.446127e-004 1.365495e-005 -4.675177e-004 5.684791e-004 4.109109e-004 3.840884e-004 3.424437e-004 3.296570e-004 -3.539430e-004
<VARIANCE> 39
 8.839587e+001 1.568943e+002 1.593752e+002 1.558820e+002 1.648643e+002 2.672433e+002 1.275329e+002 1.196059e+002 1.393498e+002 9.829195e+001 1.001448e+002 8.253819e+001 9.264623e+000 3.217910e+000 3.650249e+000 4.036926e+000 5.365605e+000 5.122750e+000 7.110475e+000 5.877017e+000 4.892305e+000 5.231013e+000 4.296847e+000 5.188786e+000 3.823301e+000 2.609892e-001 4.547692e-001 5.114272e-001 6.220540e-001 8.211267e-001 8.301561e-001 1.021214e+000 9.480995e-001 8.510501e-001 9.178376e-001 7.671642e-001 8.913023e-001 6.743902e-001 3.742129e-002
<GCONST> 1.430263e+002
<TRANSP> 5
 0.000000e+000 1.000000e+000 0.000000e+000 0.000000e+000 0.000000e+000
 0.000000e+000 7.600245e-001 2.399755e-001 0.000000e+000 0.000000e+000
 0.000000e+000 0.000000e+000 7.600250e-001 2.399749e-001 0.000000e+000
 0.000000e+000 0.000000e+000 0.000000e+000 7.600266e-001 2.399734e-001
 0.000000e+000 0.000000e+000 0.000000e+000 0.000000e+000 0.000000e+000
<ENDHMM>
~h "w"
<BEGINHMM>
<NUMSTATES> 5
<STATE> 2
<MEAN> 39
 -4.056941e+000 -2.331457e+000 -4.495513e+000 -1.970834e+001 -5.498917e-001 -9.797879e+000 -6.560540e+000 -9.329450e+000 5.701670e+000 -6.403821e+000 -6.847031e+000 4.393711e-001 1.765164e+001 1.772352e-002 -5.012416e-002 -5.829841e-002 2.074412e-002 -1.376535e-002 1.469422e-003 5.719581e-002 9.164414e-002 3.396882e-002 1.912708e-002 2.492969e-002 1.912855e-003 -8.265360e-004 1.811093e-004 -1.651649e-003 -1.968143e-003 1.230433e-003 1.123967e-003 -6.220930e-004 1.687175e-003 1.689317e-003 -6.106428e-004 2.001412e-004 -2.184431e-005 -9.026403e-004 1.715696e-004
<VARIANCE> 39
 8.509206e+001 1.474778e+002 1.847363e+002 1.906609e+002 1.784655e+002 3.228402e+002 1.341824e+002 1.422724e+002 1.076824e+002 8.297620e+001 8.593609e+001 9.781974e+001 1.005150e+001 3.695268e+000 3.818955e+000 4.652862e+000 5.846729e+000 5.017619e+000 8.153247e+000 6.498199e+000 4.685782e+000 5.155256e+000 4.511271e+000 5.092665e+000 3.682406e+000 2.859572e-001 5.538234e-001 5.430600e-001 7.546999e-001 8.289567e-001 7.928655e-001 1.136802e+000 1.106317e+000 8.175233e-001 9.861269e-001 8.757629e-001 8.630176e-001 6.575698e-001 3.994124e-002
<GCONST> 1.449403e+002
<STATE> 3
<MEAN> 39
 -3.981597e+000 -2.563659e+000 -4.767852e+000 -1.962064e+001 -5.971217e-001 -9.796860e+000 -6.312370e+000 -8.936191e+000 5.835351e+000 -6.331507e+000 -6.744025e+000 4.449849e-001 1.765032e+001 1.858127e-002 -5.655868e-002 -6.599966e-002 2.518824e-002 -9.321174e-003 -1.073073e-003 6.373993e-002 9.807984e-002 3.126338e-002 1.997344e-002 2.448674e-002 -1.718416e-003 -1.243700e-004 2.281319e-004 -1.458149e-003 -1.804848e-003 1.015938e-003 1.022343e-003 -5.162347e-004 1.570087e-003 1.444126e-003 -6.969258e-004 2.145328e-004 -1.238088e-004 -8.669369e-004 1.620258e-004
<VARIANCE> 39
 8.477334e+001 1.484367e+002 1.818115e+002 1.868564e+002 1.778331e+002 3.251629e+002 1.354735e+002 1.441624e+002 1.068052e+002 8.214790e+001 8.572109e+001 9.581852e+001 1.001339e+001 3.710017e+000 3.845455e+000 4.632946e+000 5.845806e+000 5.048459e+000 8.282727e+000 6.510066e+000 4.695764e+000 5.184021e+000 4.514713e+000 5.146341e+000 3.700398e+000 2.877841e-001 5.580271e-001 5.476375e-001 7.542196e-001 8.368775e-001 7.987980e-001 1.155139e+000 1.107828e+000 8.181661e-001 9.949757e-001 8.759787e-001 8.771049e-001 6.614949e-001 4.053437e-002
<GCONST> 1.450450e+002
<STATE> 4
<MEAN> 39
 -3.902620e+000 -2.821160e+000 -5.069758e+000 -1.951734e+001 -6.269898e-001 -9.805539e+000 -6.038820e+000 -8.518679e+000 5.956773e+000 -6.255758e+000 -6.644077e+000 4.360936e-001 1.765178e+001 1.952889e-002 -6.217262e-002 -7.295909e-002 2.880036e-002 -5.472573e-003 -3.043198e-003 6.975141e-002 1.034482e-001 2.819318e-002 2.078584e-002 2.372319e-002 -5.130417e-003 4.873173e-004 2.571586e-004 -1.254768e-003 -1.657475e-003 8.453960e-004 8.305560e-004 -3.932700e-004 1.444767e-003 1.192032e-003 -7.434617e-004 1.700047e-004 -2.030452e-004 -7.879136e-004 1.347179e-004
<VARIANCE> 39
 8.448342e+001 1.493542e+002 1.789500e+002 1.829646e+002 1.774373e+002 3.269192e+002 1.366249e+002 1.458241e+002 1.061933e+002 8.142191e+001 8.552225e+001 9.375867e+001 9.965280e+000 3.721028e+000 3.872390e+000 4.613666e+000 5.838894e+000 5.082834e+000 8.399475e+000 6.521143e+000 4.707101e+000 5.212253e+000 4.518982e+000 5.196894e+000 3.717762e+000 2.892412e-001 5.615388e-001 5.523919e-001 7.536428e-001 8.439741e-001 8.052760e-001 1.172204e+000 1.109386e+000 8.192392e-001 1.003324e+000 8.759382e-001 8.909188e-001 6.653901e-001 4.107061e-002
<GCONST> 1.451368e+002
<TRANSP> 5
 0.000000e+000 1.000000e+000 0.000000e+000 0.000000e+000 0.000000e+000
 0.000000e+000 7.600943e-001 2.399057e-001 0.000000e+000 0.000000e+000
 0.000000e+000 0.000000e+000 7.600944e-001 2.399056e-001 0.000000e+000
 0.000000e+000 0.000000e+000 0.000000e+000 7.600952e-001 2.399048e-001
 0.000000e+000 0.000000e+000 0.000000e+000 0.000000e+000 0.000000e+000
<ENDHMM>
~h "x"
<BEGINHMM>
<NUMSTATES> 5
<STATE> 2
<MEAN> 39
 -6.206792e+000 -1.638183e+001 -3.839795e+000 -1.492719e+001 5.282579e+000 -7.509371e+000 -2.027251e+000 -9.373811e+000 -4.553609e-001 -6.346761e+000 -8.681849e+000 -4.821166e+000 1.838416e+001 1.358151e-002 3.016979e-002 4.762169e-002 -1.254997e-002 -5.351591e-002 -2.950802e-002 2.360348e-002 -4.770473e-002 1.369163e-003 1.771687e-003 -1.780318e-002 -6.039438e-002 3.808583e-003 -1.016535e-003 1.902955e-003 8.632895e-004 -3.861128e-004 -2.009344e-003 1.154708e-003 1.048814e-003 3.075323e-005 1.366236e-003 5.361820e-004 1.325113e-003 8.954267e-004 -4.641892e-004
<VARIANCE> 39
 5.441732e+001 1.000368e+002 1.450397e+002 1.388742e+002 1.755754e+002 1.524276e+002 1.112812e+002 8.679202e+001 1.000085e+002 1.127126e+002 9.040840e+001 5.908907e+001 6.533623e+000 2.403450e+000 2.721163e+000 3.821688e+000 4.194983e+000 4.193993e+000 3.771652e+000 4.896757e+000 5.011156e+000 4.420535e+000 5.050910e+000 3.973716e+000 2.607229e+000 2.334800e-001 3.846006e-001 3.744042e-001 6.124216e-001 5.944293e-001 6.471952e-001 6.406988e-001 8.101807e-001 8.506601e-001 7.878098e-001 9.102831e-001 6.918951e-001 4.872123e-001 2.854341e-002
<GCONST> 1.347767e+002
<STATE> 3
<MEAN> 39
 -6.167497e+000 -1.623512e+001 -3.637134e+000 -1.497347e+001 5.052728e+000 -7.611516e+000 -1.926239e+000 -9.581313e+000 -4.283161e-001 -6.324839e+000 -8.736564e+000 -5.056922e+000 1.839359e+001 9.716090e-003 3.729978e-002 5.013960e-002 -1.381837e-002 -6.092465e-002 -2.428694e-002 2.684746e-002 -4.695516e-002 6.436686e-003 3.381996e-003 -1.274032e-002 -5.613418e-002 1.895227e-003 -9.999903e-004 1.787953e-003 7.203456e-004 -2.761263e-004 -1.842600e-003 1.213187e-003 8.694483e-004 2.087477e-004 1.334626e-003 4.750574e-004 1.292267e-003 1.056557e-003 -4.734728e-004
<VARIANCE> 39
 5.454521e+001 9.890236e+001 1.477682e+002 1.396481e+002 1.824447e+002 1.526746e+002 1.111019e+002 8.851157e+001 1.014564e+002 1.136130e+002 9.126189e+001 5.780530e+001 6.401323e+000 2.367887e+000 2.666354e+000 3.810760e+000 4.128405e+000 4.197151e+000 3.740562e+000 4.846028e+000 5.032818e+000 4.423302e+000 5.062098e+000 4.006266e+000 2.580498e+000 2.272024e-001 3.803207e-001 3.699811e-001 6.104386e-001 5.837609e-001 6.440679e-001 6.401077e-001 8.088388e-001 8.535877e-001 7.882762e-001 9.150736e-001 6.979727e-001 4.812825e-001 2.780524e-002
<GCONST> 1.346725e+002
<STATE> 4
<MEAN> 39
 -6.142596e+000 -1.606234e+001 -3.428742e+000 -1.502317e+001 4.796256e+000 -7.690181e+000 -1.816177e+000 -9.782804e+000 -3.832612e-001 -6.299061e+000 -8.771623e+000 -5.272666e+000 1.839514e+001 5.942200e-003 4.373515e-002 5.197456e-002 -1.452667e-002 -6.755208e-002 -1.896633e-002 2.941767e-002 -4.535503e-002 1.127919e-002 4.794459e-003 -7.718771e-003 -5.124208e-002 -4.351290e-005 -9.761123e-004 1.589636e-003 5.398352e-004 -1.380860e-004 -1.638554e-003 1.218338e-003 7.015040e-004 4.336349e-004 1.298155e-003 4.159116e-004 1.272094e-003 1.202245e-003 -4.772161e-004
<VARIANCE> 39
 5.469173e+001 9.829926e+001 1.501724e+002 1.406057e+002 1.894905e+002 1.531139e+002 1.112154e+002 9.048686e+001 1.030474e+002 1.144543e+002 9.237455e+001 5.658010e+001 6.312391e+000 2.336687e+000 2.619581e+000 3.802572e+000 4.068381e+000 4.206369e+000 3.720757e+000 4.805331e+000 5.062223e+000 4.430444e+000 5.075778e+000 4.043128e+000 2.559583e+000 2.216507e-001 3.767855e-001 3.662847e-001 6.092346e-001 5.742518e-001 6.416590e-001 6.413251e-001 8.089101e-001 8.572284e-001 7.893728e-001 9.203711e-001 7.050539e-001 4.761932e-001 2.714822e-002
<GCONST> 1.346301e+002
<TRANSP> 5
 0.000000e+000 1.000000e+000 0.000000e+000 0.000000e+000 0.000000e+000
 0.000000e+000 7.603592e-001 2.396408e-001 0.000000e+000 0.000000e+000
 0.000000e+000 0.000000e+000 7.603594e-001 2.396406e-001 0.000000e+000
 0.000000e+000 0.000000e+000 0.000000e+000 7.603599e-001 2.396401e-001
 0.000000e+000 0.000000e+000 0.000000e+000 0.000000e+000 0.000000e+000
<ENDHMM>
~h "z"
<BEGINHMM>
<NUMSTATES> 5
<STATE> 2
<MEAN> 39
 -9.449081e+000 -1.579096e+001 -4.525695e+000 -1.134035e+001 3.346127e+000 -7.379776e+000 1.932641e+000 -7.462916e+000 -1.425731e+000 -1.079204e+001 -4.391963e+000 -1.015232e+000 1.817018e+001 4.847326e-002 -2.165462e-002 -4.218872e-002 -1.393686e-002 3.617010e-002 9.747191e-005 -5.239131e-002 -1.127676e-004 -7.629942e-003 1.978171e-002 -3.620228e-002 1.047323e-002 2.731398e-003 9.539028e-004 2.517604e-003 2.741673e-004 2.274767e-003 1.645758e-003 1.013447e-003 -1.570358e-003 3.902694e-003 2.275800e-005 2.144712e-003 8.018158e-004 1.769259e-003 -5.227093e-004
<VARIANCE> 39
 8.605298e+001 1.437396e+002 1.251923e+002 1.577942e+002 1.593478e+002 2.115381e+002 1.150326e+002 1.012912e+002 1.115114e+002 9.916603e+001 1.010370e+002 6.247526e+001 1.452333e+001 2.348516e+000 2.345159e+000 3.463022e+000 4.057363e+000 3.845613e+000 4.462772e+000 4.931041e+000 4.842296e+000 3.976919e+000 4.257638e+000 3.469306e+000 3.046324e+000 2.128873e-001 3.719207e-001 3.078241e-001 5.324631e-001 6.001368e-001 5.919582e-001 7.310047e-001 8.231362e-001 8.113627e-001 6.988905e-001 7.387460e-001 5.917943e-001 5.551622e-001 2.574171e-002
<GCONST> 1.355383e+002
<STATE> 3
<MEAN> 39
 -9.234908e+000 -1.585759e+001 -4.697804e+000 -1.139315e+001 3.520193e+000 -7.377234e+000 1.695294e+000 -7.420774e+000 -1.454018e+000 -1.069147e+001 -4.533103e+000 -9.688212e-001 1.818180e+001 5.146561e-002 -1.290797e-002 -4.007277e-002 -8.276115e-003 4.376846e-002 3.657553e-003 -5.709460e-002 1.359628e-002 -4.848481e-003 2.622781e-002 -3.059197e-002 1.450508e-002 2.001813e-003 5.819740e-004 1.787885e-003 5.595800e-004 1.125231e-003 1.631235e-003 6.440147e-004 -1.022196e-003 3.020370e-003 5.569049e-004 1.310515e-003 1.468202e-003 8.982235e-004 -8.831067e-005
<VARIANCE> 39
 8.556128e+001 1.394902e+002 1.267702e+002 1.580834e+002 1.588815e+002 2.128971e+002 1.155883e+002 1.016293e+002 1.116705e+002 9.941777e+001 9.938815e+001 6.189451e+001 1.414551e+001 2.333968e+000 2.335924e+000 3.465179e+000 4.102331e+000 3.865750e+000 4.595215e+000 4.983790e+000 4.776416e+000 3.947670e+000 4.215354e+000 3.420099e+000 3.029571e+000 2.172428e-001 3.670297e-001 3.068359e-001 5.300281e-001 6.082690e-001 5.973180e-001 7.542317e-001 8.300164e-001 8.008942e-001 6.915166e-001 7.336161e-001 5.854791e-001 5.535876e-001 2.625980e-002
<GCONST> 1.355131e+002
<STATE> 4
<MEAN> 39
 -9.013103e+000 -1.589408e+001 -4.861070e+000 -1.143964e+001 3.724843e+000 -7.361775e+000 1.445713e+000 -7.337462e+000 -1.462390e+000 -1.057136e+001 -4.645403e+000 -9.194506e-001 1.819463e+001 5.272770e-002 -6.930908e-003 -3.803425e-002 -7.760324e-003 5.016818e-002 5.820812e-003 -5.962804e-002 2.218767e-002 -5.808625e-004 3.003243e-002 -2.346455e-002 1.476198e-002 2.611499e-003 1.673082e-004 1.176136e-003 4.666356e-004 -1.095982e-004 1.347077e-003 3.104731e-004 -5.111319e-004 1.764515e-003 9.310875e-004 7.218828e-004 1.768323e-003 -5.955220e-005 2.210695e-004
<VARIANCE> 39
 8.496708e+001 1.356686e+002 1.290062e+002 1.586342e+002 1.583683e+002 2.143831e+002 1.164395e+002 1.023270e+002 1.119728e+002 9.994184e+001 9.868273e+001 6.175394e+001 1.373269e+001 2.337401e+000 2.349571e+000 3.488756e+000 4.168400e+000 3.900058e+000 4.718355e+000 5.045834e+000 4.744447e+000 3.957019e+000 4.204950e+000 3.399818e+000 3.029187e+000 2.223475e-001 3.654193e-001 3.082384e-001 5.314782e-001 6.189093e-001 6.052846e-001 7.753797e-001 8.392463e-001 7.953376e-001 6.919928e-001 7.333330e-001 5.841616e-001 5.543123e-001 2.683565e-002
<GCONST> 1.356605e+002
<TRANSP> 5
 0.000000e+000 1.000000e+000 0.000000e+000 0.000000e+000 0.000000e+000
 0.000000e+000 7.603778e-001 2.396222e-001 0.000000e+000 0.000000e+000
 0.000000e+000 0.000000e+000 7.603781e-001 2.396220e-001 0.000000e+000
 0.000000e+000 0.000000e+000 0.000000e+000 7.603785e-001 2.396214e-001
 0.000000e+000 0.000000e+000 0.000000e+000 0.000000e+000 0.000000e+000
<ENDHMM>
~h "@@"
<BEGINHMM>
<NUMSTATES> 5
<STATE> 2
<MEAN> 39
 -5.166663e+000 -8.830609e+000 -9.854424e+000 -1.498439e+001 2.775836e+000 -7.589911e+000 -2.530916e+000 -6.370629e+000 6.688606e-001 -6.889109e+000 -5.564976e+000 -1.611493e+000 1.768264e+001 -1.088009e-002 5.413793e-003 -4.981664e-003 3.681372e-002 -1.395151e-002 3.957239e-003 -3.869104e-003 -7.709024e-003 6.047179e-004 -3.846047e-003 5.951873e-003 7.034502e-004 -8.273292e-003 2.125816e-004 1.314932e-003 9.307799e-004 -2.526610e-004 -2.410312e-004 -3.724965e-004 -9.614718e-004 -1.223164e-003 8.679705e-004 1.138839e-003 8.943931e-004 1.968834e-005 -1.827354e-004
<VARIANCE> 39
 1.015602e+002 1.847838e+002 1.676968e+002 1.967448e+002 1.778441e+002 2.350318e+002 1.276644e+002 1.217976e+002 1.390815e+002 9.533044e+001 9.683264e+001 7.054333e+001 1.183735e+001 2.838388e+000 3.449898e+000 3.757468e+000 4.808741e+000 4.715543e+000 5.942149e+000 5.829256e+000 4.948830e+000 5.454882e+000 4.385453e+000 4.621713e+000 3.453593e+000 2.321442e-001 3.978657e-001 4.636807e-001 5.782682e-001 7.097182e-001 7.759003e-001 9.310899e-001 9.442009e-001 8.583355e-001 9.542410e-001 7.876621e-001 8.035057e-001 6.216623e-001 3.071397e-002
<GCONST> 1.417829e+002
<STATE> 3
<MEAN> 39
 -5.210030e+000 -8.802050e+000 -9.875542e+000 -1.482657e+001 2.714331e+000 -7.578275e+000 -2.548983e+000 -6.399398e+000 6.779999e-001 -6.906006e+000 -5.538464e+000 -1.610504e+000 1.764730e+001 -9.595870e-003 1.058396e-002 -1.888396e-003 3.528982e-002 -1.472701e-002 3.489722e-003 -7.321054e-003 -1.156734e-002 4.166978e-003 6.331641e-004 9.367057e-003 1.019876e-003 -9.020409e-003 6.185176e-004 9.291772e-004 6.648754e-004 -1.151709e-003 -3.195231e-006 1.556747e-004 -3.870140e-004 1.234117e-004 7.916986e-004 9.219585e-004 5.736802e-004 6.469195e-004 -5.256787e-005
<VARIANCE> 39
 1.018782e+002 1.845211e+002 1.678334e+002 1.971683e+002 1.792615e+002 2.350504e+002 1.281547e+002 1.216841e+002 1.394083e+002 9.523732e+001 9.679417e+001 7.056908e+001 1.209332e+001 2.848678e+000 3.455870e+000 3.748598e+000 4.807620e+000 4.692165e+000 5.956309e+000 5.839347e+000 4.947131e+000 5.448452e+000 4.385993e+000 4.620988e+000 3.448816e+000 2.316237e-001 3.996943e-001 4.647629e-001 5.773388e-001 7.104369e-001 7.735788e-001 9.360427e-001 9.473020e-001 8.570184e-001 9.521670e-001 7.875172e-001 8.034803e-001 6.207059e-001 3.071954e-002
<GCONST> 1.418246e+002
<STATE> 4
<MEAN> 39
 -5.246177e+000 -8.753394e+000 -9.887338e+000 -1.467729e+001 2.650736e+000 -7.563963e+000 -2.579277e+000 -6.439130e+000 7.017151e-001 -6.905039e+000 -5.499115e+000 -1.607155e+000 1.760890e+001 -6.738124e-003 1.387703e-002 -3.361912e-005 3.012205e-002 -1.436728e-002 5.350225e-003 -8.286728e-003 -9.792835e-003 7.321137e-003 4.199909e-003 1.126559e-002 4.199509e-003 -9.238259e-003 6.727111e-004 3.592474e-004 -2.950778e-005 -1.576797e-003 2.524822e-004 8.199175e-004 7.170733e-004 1.513091e-003 7.868353e-004 2.934120e-004 -2.170653e-005 1.739003e-003 2.301432e-005
<VARIANCE> 39
 1.021406e+002 1.844382e+002 1.676543e+002 1.976329e+002 1.810835e+002 2.357972e+002 1.287410e+002 1.216988e+002 1.397914e+002 9.513721e+001 9.685792e+001 7.049670e+001 1.236653e+001 2.853669e+000 3.455594e+000 3.731360e+000 4.811135e+000 4.687029e+000 5.977891e+000 5.848925e+000 4.933906e+000 5.442984e+000 4.388322e+000 4.619958e+000 3.443944e+000 2.313482e-001 4.007555e-001 4.652599e-001 5.752351e-001 7.114688e-001 7.734255e-001 9.418169e-001 9.510912e-001 8.539035e-001 9.501476e-001 7.877161e-001 8.036852e-001 6.196852e-001 3.078157e-002
<GCONST> 1.418721e+002
<TRANSP> 5
 0.000000e+000 1.000000e+000 0.000000e+000 0.000000e+000 0.000000e+000
 0.000000e+000 7.599480e-001 2.400519e-001 0.000000e+000 0.000000e+000
 0.000000e+000 0.000000e+000 7.599506e-001 2.400494e-001 0.000000e+000
 0.000000e+000 0.000000e+000 0.000000e+000 7.599521e-001 2.400479e-001
 0.000000e+000 0.000000e+000 0.000000e+000 0.000000e+000 0.000000e+000
<ENDHMM>
~h "aa"
<BEGINHMM>
<NUMSTATES> 5
<STATE> 2
<MEAN> 39
 -8.054606e+000 -1.368215e+001 -5.097244e+000 -1.378268e+001 3.336041e+000 -8.663481e+000 5.864279e-001 -7.384606e+000 -4.487898e-001 -9.407692e+000 -4.864623e+000 -6.952564e-001 1.828957e+001 3.165678e-002 7.651499e-003 -1.092335e-002 -4.748273e-002 1.813691e-002 3.598553e-003 -2.701266e-002 3.715902e-003 1.006513e-002 2.471618e-002 -5.973807e-003 -1.534157e-002 5.522917e-003 -4.198624e-004 -2.641737e-004 4.697948e-004 -5.689061e-004 -3.076200e-004 -2.179834e-004 8.516218e-004 -7.162228e-004 5.997232e-004 -2.634035e-004 3.283376e-004 -1.013552e-003 2.203906e-004
<VARIANCE> 39
 8.125945e+001 1.488429e+002 1.534044e+002 1.803575e+002 1.694669e+002 2.143597e+002 1.276554e+002 1.087453e+002 1.211565e+002 1.135404e+002 1.062475e+002 6.772823e+001 1.142706e+001 2.464127e+000 2.671741e+000 3.575124e+000 4.525619e+000 4.200468e+000 4.999453e+000 5.291104e+000 4.746124e+000 4.488567e+000 4.489801e+000 4.023009e+000 3.258579e+000 2.305622e-001 3.688006e-001 3.538093e-001 5.270866e-001 6.513653e-001 6.619705e-001 8.023788e-001 8.800942e-001 8.163387e-001 7.891089e-001 7.939029e-001 6.873612e-001 5.973051e-001 2.832325e-002
<GCONST> 1.382457e+002
<STATE> 3
<MEAN> 39
 -7.926730e+000 -1.364395e+001 -5.136379e+000 -1.399018e+001 3.402268e+000 -8.646741e+000 4.864324e-001 -7.377086e+000 -3.977584e-001 -9.301579e+000 -4.893297e+000 -7.775920e-001 1.831209e+001 2.960075e-002 6.943728e-003 -9.159992e-003 -4.889791e-002 1.578938e-002 2.854408e-003 -2.314398e-002 7.796689e-005 1.244051e-002 2.342154e-002 -5.146857e-003 -1.949116e-002 6.115908e-003 -4.657104e-004 -3.746038e-004 3.208023e-004 -3.905678e-004 -5.045109e-004 -2.152637e-004 9.051118e-004 -8.964117e-004 4.914937e-004 -3.779241e-004 1.124988e-004 -9.837424e-004 1.679354e-004
<VARIANCE> 39
 8.071057e+001 1.475212e+002 1.552975e+002 1.801734e+002 1.698868e+002 2.148165e+002 1.286401e+002 1.093897e+002 1.211443e+002 1.139843e+002 1.072526e+002 6.831268e+001 1.116163e+001 2.470568e+000 2.694375e+000 3.611894e+000 4.572656e+000 4.233010e+000 5.024257e+000 5.321824e+000 4.763932e+000 4.532375e+000 4.533013e+000 4.045798e+000 3.280236e+000 2.324440e-001 3.695473e-001 3.566757e-001 5.333031e-001 6.576852e-001 6.667209e-001 8.049760e-001 8.868238e-001 8.200737e-001 7.978719e-001 8.013197e-001 6.915020e-001 6.016382e-001 2.851667e-002
<GCONST> 1.384457e+002
<STATE> 4
<MEAN> 39
 -7.808993e+000 -1.360683e+001 -5.168818e+000 -1.419855e+001 3.454556e+000 -8.632248e+000 4.033181e-001 -7.386234e+000 -3.383037e-001 -9.201367e+000 -4.920419e+000 -8.759439e-001 1.833562e+001 2.735188e-002 5.905701e-003 -7.968877e-003 -4.925985e-002 1.279209e-002 2.265244e-003 -1.924482e-002 -3.897712e-003 1.411930e-002 2.178001e-002 -5.175203e-003 -2.319558e-002 6.423536e-003 -4.938050e-004 -4.244832e-004 2.023363e-004 -1.111619e-004 -6.436603e-004 -1.626257e-004 9.011526e-004 -9.430291e-004 3.234288e-004 -4.485755e-004 -1.034265e-004 -8.543584e-004 8.746979e-005
<VARIANCE> 39
 8.015136e+001 1.464149e+002 1.571559e+002 1.796052e+002 1.703596e+002 2.149798e+002 1.295640e+002 1.099228e+002 1.210153e+002 1.143428e+002 1.081223e+002 6.890335e+001 1.090131e+001 2.477068e+000 2.716335e+000 3.649199e+000 4.611318e+000 4.258501e+000 5.035850e+000 5.347134e+000 4.780717e+000 4.575564e+000 4.574738e+000 4.069446e+000 3.301111e+000 2.335760e-001 3.704419e-001 3.592446e-001 5.395645e-001 6.628739e-001 6.701123e-001 8.051594e-001 8.929310e-001 8.237125e-001 8.065507e-001 8.083072e-001 6.959261e-001 6.058464e-001 2.862631e-002
<GCONST> 1.386147e+002
<TRANSP> 5
 0.000000e+000 1.000000e+000 0.000000e+000 0.000000e+000 0.000000e+000
 0.000000e+000 7.602903e-001 2.397097e-001 0.000000e+000 0.000000e+000
 0.000000e+000 0.000000e+000 7.602909e-001 2.397091e-001 0.000000e+000
 0.000000e+000 0.000000e+000 0.000000e+000 7.602921e-001 2.397079e-001
 0.000000e+000 0.000000e+000 0.000000e+000 0.000000e+000 0.000000e+000
<ENDHMM>
~h "ee"
<BEGINHMM>
<NUMSTATES> 5
<STATE> 2
<MEAN> 39
 -5.216364e+000 -9.822446e+000 -6.955746e+000 -1.319187e+001 2.068475e+000 -9.994527e+000 -3.235189e+000 -4.277501e+000 1.096635e+000 -6.500840e+000 -5.768384e+000 -1.902302e-001 1.748002e+001 -4.594007e-003 -3.044930e-002 -3.693280e-002 3.998726e-003 6.146224e-002 6.772727e-004 -2.558788e-002 1.122128e-002 -3.247391e-002 -8.722777e-003 1.081129e-002 1.371629e-003 7.078453e-003 2.123638e-004 -7.517196e-004 1.102236e-003 -1.189335e-003 -7.859177e-004 1.029170e-003 1.082939e-003 -1.211069e-003 9.130783e-004 2.128084e-004 -3.651626e-004 -5.666600e-004 1.692060e-004
<VARIANCE> 39
 9.625188e+001 2.052150e+002 1.424810e+002 1.901535e+002 2.230015e+002 2.400563e+002 1.291036e+002 1.270701e+002 1.781375e+002 1.167602e+002 1.063721e+002 7.978134e+001 1.050458e+001 2.968125e+000 3.342476e+000 3.787029e+000 4.688253e+000 5.459004e+000 5.502403e+000 5.431767e+000 5.352275e+000 5.771198e+000 5.271754e+000 4.572884e+000 3.465477e+000 2.717168e-001 4.192740e-001 4.303740e-001 5.891768e-001 6.869089e-001 8.326256e-001 9.379829e-001 8.789108e-001 8.928744e-001 9.929124e-001 9.188254e-001 7.746303e-001 6.177548e-001 3.301357e-002
<GCONST> 1.431820e+002
<STATE> 3
<MEAN> 39
 -5.232761e+000 -9.959901e+000 -7.095956e+000 -1.319295e+001 2.323666e+000 -9.971775e+000 -3.330908e+000 -4.237015e+000 9.657474e-001 -6.527768e+000 -5.726031e+000 -1.926891e-001 1.751191e+001 -3.729346e-003 -3.405793e-002 -3.247366e-002 -2.933103e-004 5.820330e-002 5.182914e-003 -2.112165e-002 6.253901e-003 -2.880123e-002 -7.901399e-003 9.213079e-003 -1.110942e-003 7.740977e-003 2.148249e-004 -6.880190e-004 9.906505e-004 -9.751077e-004 -8.509118e-004 1.060372e-003 1.066005e-003 -1.170256e-003 1.009352e-003 2.614404e-004 -3.001656e-004 -5.274171e-004 9.751042e-005
<VARIANCE> 39
 9.674152e+001 2.049149e+002 1.415448e+002 1.900486e+002 2.205526e+002 2.422105e+002 1.264675e+002 1.268376e+002 1.783503e+002 1.164776e+002 1.057356e+002 7.921177e+001 1.039217e+001 2.987735e+000 3.328600e+000 3.789586e+000 4.689654e+000 5.462641e+000 5.509022e+000 5.405820e+000 5.333695e+000 5.784009e+000 5.274090e+000 4.563568e+000 3.470458e+000 2.711904e-001 4.214403e-001 4.282201e-001 5.876724e-001 6.867054e-001 8.335949e-001 9.375115e-001 8.747506e-001 8.872289e-001 9.960715e-001 9.190118e-001 7.727756e-001 6.168582e-001 3.301670e-002
<GCONST> 1.431124e+002
<STATE> 4
<MEAN> 39
 -5.245905e+000 -1.011411e+001 -7.218074e+000 -1.320893e+001 2.565274e+000 -9.929486e+000 -3.407947e+000 -4.217120e+000 8.497820e-001 -6.551512e+000 -5.690407e+000 -2.060449e-001 1.754636e+001 -2.943617e-003 -3.723016e-002 -2.852290e-002 -3.708052e-003 5.474178e-002 9.744938e-003 -1.674554e-002 1.395782e-003 -2.473498e-002 -6.868990e-003 7.977375e-003 -3.364326e-003 8.105558e-003 1.754744e-004 -5.436884e-004 8.675557e-004 -8.074637e-004 -8.624579e-004 1.050923e-003 1.034798e-003 -1.128459e-003 1.078865e-003 3.254437e-004 -2.213732e-004 -4.605730e-004 3.053666e-005
<VARIANCE> 39
 9.695104e+001 2.042348e+002 1.410143e+002 1.900567e+002 2.183478e+002 2.446086e+002 1.238643e+002 1.267188e+002 1.782825e+002 1.161990e+002 1.050525e+002 7.877751e+001 1.025336e+001 3.008551e+000 3.318649e+000 3.793480e+000 4.692539e+000 5.474555e+000 5.523889e+000 5.385472e+000 5.315897e+000 5.800751e+000 5.279710e+000 4.556118e+000 3.478079e+000 2.703726e-001 4.240219e-001 4.264973e-001 5.865284e-001 6.865500e-001 8.362688e-001 9.381565e-001 8.718420e-001 8.817199e-001 1.000010e+000 9.200287e-001 7.709912e-001 6.162732e-001 3.300934e-002
<GCONST> 1.430580e+002
<TRANSP> 5
 0.000000e+000 1.000000e+000 0.000000e+000 0.000000e+000 0.000000e+000
 0.000000e+000 7.601467e-001 2.398534e-001 0.000000e+000 0.000000e+000
 0.000000e+000 0.000000e+000 7.601466e-001 2.398534e-001 0.000000e+000
 0.000000e+000 0.000000e+000 0.000000e+000 7.601482e-001 2.398518e-001
 0.000000e+000 0.000000e+000 0.000000e+000 0.000000e+000 0.000000e+000
<ENDHMM>
~h "j^"
<BEGINHMM>
<NUMSTATES> 5
<STATE> 2
<MEAN> 39
 -8.244259e+000 -1.379988e+001 -5.875779e+000 -1.250907e+001 2.671891e+000 -7.111085e+000 1.538152e+000 -7.029162e+000 -1.062529e+000 -9.451979e+000 -4.632843e+000 -2.123542e+000 1.805100e+001 1.385371e-002 -3.034062e-002 -9.477101e-003 -3.359606e-002 -7.297948e-004 -2.039250e-002 -1.205862e-002 -3.537541e-002 -5.283911e-003 -2.624612e-002 -1.616293e-002 -6.000832e-003 1.106923e-002 7.492439e-004 1.703456e-003 -3.444765e-003 1.824945e-003 1.654279e-003 -1.976809e-004 -3.796409e-003 6.738228e-004 -3.594439e-004 1.250452e-003 -1.273603e-003 5.753743e-004 -1.005951e-003
<VARIANCE> 39
 9.660712e+001 1.648720e+002 1.487184e+002 1.577843e+002 1.496957e+002 2.060299e+002 1.240949e+002 1.092136e+002 1.216478e+002 1.026353e+002 1.054181e+002 6.141930e+001 1.380114e+001 2.549962e+000 2.695029e+000 3.809821e+000 4.269451e+000 3.737869e+000 4.754839e+000 5.149652e+000 5.273520e+000 4.463647e+000 4.518149e+000 4.193044e+000 3.127443e+000 2.197488e-001 3.963550e-001 3.693432e-001 6.027631e-001 6.514190e-001 5.934855e-001 7.446138e-001 8.673108e-001 8.982179e-001 7.819660e-001 7.935255e-001 7.242349e-001 5.651060e-001 2.717508e-002
<GCONST> 1.381596e+002
<STATE> 3
<MEAN> 39
 -8.172807e+000 -1.391234e+001 -5.949089e+000 -1.262382e+001 2.681493e+000 -7.198287e+000 1.441800e+000 -7.157425e+000 -1.106675e+000 -9.544361e+000 -4.722725e+000 -2.132512e+000 1.808551e+001 1.860746e-002 -2.239804e-002 -1.852123e-002 -2.455566e-002 5.017755e-003 -1.843327e-002 -2.403112e-002 -2.817168e-002 -7.358725e-003 -1.823077e-002 -2.124581e-002 -1.077558e-003 7.311271e-003 1.152866e-003 1.820252e-003 -1.880532e-003 2.267618e-003 1.434659e-003 6.257209e-004 -2.655391e-003 1.902475e-003 -5.415344e-004 1.943673e-003 -9.433335e-004 1.403288e-003 -8.627529e-004
<VARIANCE> 39
 9.562171e+001 1.625656e+002 1.471070e+002 1.568144e+002 1.506259e+002 2.053651e+002 1.235054e+002 1.088211e+002 1.217363e+002 1.024187e+002 1.034197e+002 6.097703e+001 1.352388e+001 2.520272e+000 2.657917e+000 3.777772e+000 4.248654e+000 3.723229e+000 4.800519e+000 5.126400e+000 5.217674e+000 4.414104e+000 4.432667e+000 4.125196e+000 3.115462e+000 2.167351e-001 3.897931e-001 3.666179e-001 5.976311e-001 6.493498e-001 5.913050e-001 7.537903e-001 8.622963e-001 8.892398e-001 7.713004e-001 7.797278e-001 7.119128e-001 5.643168e-001 2.681830e-002
<GCONST> 1.378459e+002
<STATE> 4
<MEAN> 39
 -8.078374e+000 -1.399049e+001 -6.043272e+000 -1.270024e+001 2.716602e+000 -7.267862e+000 1.307938e+000 -7.241701e+000 -1.154111e+000 -9.598720e+000 -4.826570e+000 -2.117940e+000 1.810762e+001 2.388149e-002 -1.513057e-002 -2.256312e-002 -1.547130e-002 1.112876e-002 -1.403264e-002 -3.224805e-002 -1.741493e-002 -8.524113e-003 -9.541046e-003 -2.351212e-002 5.176845e-003 4.592441e-003 1.206982e-003 1.515771e-003 -7.735515e-004 2.151109e-003 1.448261e-003 1.082695e-003 -1.823430e-003 2.631010e-003 -3.729968e-004 1.988526e-003 -3.161499e-004 1.624095e-003 -5.987411e-004
<VARIANCE> 39
 9.474000e+001 1.608241e+002 1.455507e+002 1.564498e+002 1.514184e+002 2.052220e+002 1.231172e+002 1.086493e+002 1.217543e+002 1.022108e+002 1.013804e+002 6.040308e+001 1.326335e+001 2.498318e+000 2.636569e+000 3.755295e+000 4.246477e+000 3.727823e+000 4.871690e+000 5.130245e+000 5.158785e+000 4.363296e+000 4.368565e+000 4.061223e+000 3.098849e+000 2.163927e-001 3.844628e-001 3.656854e-001 5.941688e-001 6.501558e-001 5.925609e-001 7.676527e-001 8.614468e-001 8.803150e-001 7.603976e-001 7.697223e-001 7.010531e-001 5.629385e-001 2.682605e-002
<GCONST> 1.376391e+002
<TRANSP> 5
 0.000000e+000 1.000000e+000 0.000000e+000 0.000000e+000 0.000000e+000
 0.000000e+000 7.602883e-001 2.397117e-001 0.000000e+000 0.000000e+000
 0.000000e+000 0.000000e+000 7.602885e-001 2.397115e-001 0.000000e+000
 0.000000e+000 0.000000e+000 0.000000e+000 7.602889e-001 2.397111e-001
 0.000000e+000 0.000000e+000 0.000000e+000 0.000000e+000 0.000000e+000
<ENDHMM>
~h "k^"
<BEGINHMM>
<NUMSTATES> 5
<STATE> 2
<MEAN> 39
 -5.113444e+000 -9.973186e+000 -6.923534e+000 -1.476743e+001 2.065319e+000 -9.429532e+000 -2.795371e+000 -6.382208e+000 2.433005e+000 -6.891662e+000 -6.279834e+000 -1.420255e+000 1.782409e+001 3.878287e-003 -7.864356e-003 -7.066550e-003 5.333522e-003 -6.944214e-003 2.489141e-003 7.190662e-003 3.019572e-003 -5.844623e-003 -4.501041e-003 -1.723993e-003 8.790587e-003 -5.226915e-004 5.372977e-005 2.828979e-004 -2.493005e-004 4.345524e-004 3.787271e-005 -1.710773e-004 -3.366758e-004 2.443896e-004 4.104057e-005 1.131349e-004 8.723441e-005 2.090008e-004 -9.698589e-005
<VARIANCE> 39
 8.052503e+001 1.723629e+002 1.748564e+002 1.721147e+002 2.039685e+002 2.516973e+002 1.276527e+002 1.303667e+002 1.421746e+002 1.053723e+002 1.001442e+002 8.010761e+001 9.660564e+000 2.954752e+000 3.531512e+000 4.311984e+000 5.125739e+000 5.381560e+000 6.154267e+000 5.695800e+000 5.174139e+000 5.441987e+000 4.860266e+000 4.872211e+000 3.717599e+000 2.685557e-001 4.405428e-001 4.731813e-001 6.745830e-001 7.696282e-001 8.488960e-001 9.592829e-001 9.330529e-001 8.808227e-001 9.559340e-001 8.625868e-001 8.415411e-001 6.549120e-001 3.594562e-002
<GCONST> 1.434079e+002
<STATE> 3
<MEAN> 39
 -5.097241e+000 -9.998621e+000 -6.953013e+000 -1.474022e+001 2.033855e+000 -9.430717e+000 -2.768964e+000 -6.366340e+000 2.407606e+000 -6.912241e+000 -6.284276e+000 -1.379069e+000 1.782117e+001 4.037710e-003 -6.403480e-003 -8.023051e-003 7.095920e-003 -6.886316e-003 1.761524e-003 5.863742e-003 4.090126e-003 -5.543458e-003 -3.992116e-003 -1.130198e-003 9.560410e-003 -9.219002e-004 1.091337e-005 3.596576e-004 -2.328981e-004 4.125058e-004 4.838105e-005 -2.080176e-004 -3.412607e-004 2.549695e-004 7.829629e-005 1.146156e-004 1.432015e-004 1.776104e-004 -9.286295e-005
<VARIANCE> 39
 8.072662e+001 1.724713e+002 1.751823e+002 1.714375e+002 2.038385e+002 2.498586e+002 1.279298e+002 1.309145e+002 1.419781e+002 1.055330e+002 1.001838e+002 8.007262e+001 9.660593e+000 2.943667e+000 3.525587e+000 4.305498e+000 5.113995e+000 5.389459e+000 6.143744e+000 5.705849e+000 5.181775e+000 5.445228e+000 4.853504e+000 4.868527e+000 3.717508e+000 2.682339e-001 4.394202e-001 4.722520e-001 6.734439e-001 7.690074e-001 8.511115e-001 9.587576e-001 9.342575e-001 8.824318e-001 9.560553e-001 8.613391e-001 8.411340e-001 6.548245e-001 3.584934e-002
<GCONST> 1.433920e+002
<STATE> 4
<MEAN> 39
 -5.080710e+000 -1.001693e+001 -6.986102e+000 -1.470601e+001 2.002427e+000 -9.434772e+000 -2.747816e+000 -6.345860e+000 2.384058e+000 -6.930338e+000 -6.285178e+000 -1.335173e+000 1.781662e+001 4.012393e-003 -4.686906e-003 -8.870940e-003 8.739229e-003 -6.709427e-003 9.429389e-004 4.501678e-003 5.177759e-003 -5.096298e-003 -3.461210e-003 -3.446245e-004 1.018367e-002 -1.298427e-003 -3.378624e-005 4.207268e-004 -1.964845e-004 3.873527e-004 8.316409e-005 -2.357319e-004 -3.486268e-004 2.506121e-004 1.064656e-004 1.036794e-004 1.707241e-004 1.418065e-004 -8.553915e-005
<VARIANCE> 39
 8.099602e+001 1.726486e+002 1.756100e+002 1.708140e+002 2.037464e+002 2.482252e+002 1.281814e+002 1.314520e+002 1.418116e+002 1.057243e+002 1.002393e+002 8.004315e+001 9.667052e+000 2.933608e+000 3.519596e+000 4.297004e+000 5.103383e+000 5.394802e+000 6.135986e+000 5.714191e+000 5.189184e+000 5.449127e+000 4.847278e+000 4.867376e+000 3.717224e+000 2.679675e-001 4.384045e-001 4.713666e-001 6.719908e-001 7.685710e-001 8.530537e-001 9.586316e-001 9.352226e-001 8.840021e-001 9.561982e-001 8.602712e-001 8.410009e-001 6.547491e-001 3.576217e-002
<GCONST> 1.433815e+002
<TRANSP> 5
 0.000000e+000 1.000000e+000 0.000000e+000 0.000000e+000 0.000000e+000
 0.000000e+000 7.601649e-001 2.398352e-001 0.000000e+000 0.000000e+000
 0.000000e+000 0.000000e+000 7.601642e-001 2.398358e-001 0.000000e+000
 0.000000e+000 0.000000e+000 0.000000e+000 7.601662e-001 2.398338e-001
 0.000000e+000 0.000000e+000 0.000000e+000 0.000000e+000 0.000000e+000
<ENDHMM>
~h "kh"
<BEGINHMM>
<NUMSTATES> 5
<STATE> 2
<MEAN> 39
 -5.283382e+000 -1.525366e+001 -7.698183e+000 -1.450235e+001 7.611680e+000 -5.518048e+000 -1.668577e+000 -5.714083e+000 1.714969e+000 -4.875853e+000 -6.660181e+000 -1.792611e+000 1.825647e+001 1.615496e-003 -2.268225e-002 1.002974e-002 3.018070e-002 7.310632e-003 -3.779664e-002 -2.063368e-003 -4.481523e-002 -1.133556e-002 -2.105167e-002 -2.900966e-002 -3.025603e-002 5.746084e-003 -5.657858e-004 1.700791e-003 5.732449e-004 -1.097660e-004 -1.528755e-003 -1.844877e-004 5.200266e-004 -3.278666e-004 6.042262e-004 9.578950e-005 7.389796e-004 3.639490e-006 -2.510773e-004
<VARIANCE> 39
 7.673580e+001 1.294907e+002 1.644449e+002 1.753134e+002 1.601140e+002 1.948774e+002 1.023424e+002 1.223855e+002 1.163935e+002 1.111731e+002 8.823059e+001 6.543625e+001 7.893180e+000 2.859076e+000 2.763088e+000 3.946050e+000 4.321566e+000 4.980491e+000 4.345233e+000 5.243957e+000 4.766040e+000 5.073452e+000 4.874733e+000 3.885788e+000 2.943590e+000 2.275724e-001 4.144377e-001 3.545521e-001 5.319391e-001 6.147650e-001 8.052675e-001 6.960282e-001 8.826697e-001 8.168461e-001 9.305680e-001 8.761143e-001 6.600394e-001 5.398306e-001 2.856021e-002
<GCONST> 1.377569e+002
<STATE> 3
<MEAN> 39
