~o
<STREAMINFO> 1 39
<VECSIZE> 39<NULLD><MFCC_E_D_A><DIAGC>
~t "T_ng^"
<TRANSP> 5
 0.000000e+000 1.000000e+000 0.000000e+000 0.000000e+000 0.000000e+000
 0.000000e+000 8.142022e-001 1.857978e-001 0.000000e+000 0.000000e+000
 0.000000e+000 0.000000e+000 4.780245e-001 5.219755e-001 0.000000e+000
 0.000000e+000 0.000000e+000 0.000000e+000 6.879014e-001 3.120986e-001
 0.000000e+000 0.000000e+000 0.000000e+000 0.000000e+000 0.000000e+000
~t "T_h"
<TRANSP> 5
 0.000000e+000 1.000000e+000 0.000000e+000 0.000000e+000 0.000000e+000
 0.000000e+000 6.470897e-001 3.529103e-001 0.000000e+000 0.000000e+000
 0.000000e+000 0.000000e+000 6.016597e-001 3.983403e-001 0.000000e+000
 0.000000e+000 0.000000e+000 0.000000e+000 6.479797e-001 3.520203e-001
 0.000000e+000 0.000000e+000 0.000000e+000 0.000000e+000 0.000000e+000
~t "T_k"
<TRANSP> 5
 0.000000e+000 1.000000e+000 0.000000e+000 0.000000e+000 0.000000e+000
 0.000000e+000 9.013826e-001 9.861742e-002 0.000000e+000 0.000000e+000
 0.000000e+000 0.000000e+000 7.717079e-001 2.282921e-001 0.000000e+000
 0.000000e+000 0.000000e+000 0.000000e+000 4.969521e-001 5.030479e-001
 0.000000e+000 0.000000e+000 0.000000e+000 0.000000e+000 0.000000e+000
~t "T_n"
<TRANSP> 5
 0.000000e+000 1.000000e+000 0.000000e+000 0.000000e+000 0.000000e+000
 0.000000e+000 4.370278e-001 5.629722e-001 0.000000e+000 0.000000e+000
 0.000000e+000 0.000000e+000 2.956119e-001 7.043881e-001 0.000000e+000
 0.000000e+000 0.000000e+000 0.000000e+000 5.519975e-001 4.480025e-001
 0.000000e+000 0.000000e+000 0.000000e+000 0.000000e+000 0.000000e+000
~t "T_s"
<TRANSP> 5
 0.000000e+000 1.000000e+000 0.000000e+000 0.000000e+000 0.000000e+000
 0.000000e+000 8.332595e-001 1.667405e-001 0.000000e+000 0.000000e+000
 0.000000e+000 0.000000e+000 3.214337e-001 6.785663e-001 0.000000e+000
 0.000000e+000 0.000000e+000 0.000000e+000 5.574635e-001 4.425365e-001
 0.000000e+000 0.000000e+000 0.000000e+000 0.000000e+000 0.000000e+000
~t "T_v"
<TRANSP> 5
 0.000000e+000 1.000000e+000 0.000000e+000 0.000000e+000 0.000000e+000
 0.000000e+000 5.582964e-001 4.417036e-001 0.000000e+000 0.000000e+000
 0.000000e+000 0.000000e+000 6.997895e-001 3.002105e-001 0.000000e+000
 0.000000e+000 0.000000e+000 0.000000e+000 7.789796e-001 2.210204e-001
 0.000000e+000 0.000000e+000 0.000000e+000 0.000000e+000 0.000000e+000
~t "T_@@"
<TRANSP> 5
 0.000000e+000 1.000000e+000 0.000000e+000 0.000000e+000 0.000000e+000
 0.000000e+000 8.154371e-001 1.845629e-001 0.000000e+000 0.000000e+000
 0.000000e+000 0.000000e+000 5.593280e-001 4.406720e-001 0.000000e+000
 0.000000e+000 0.000000e+000 0.000000e+000 6.430363e-001 3.569637e-001
 0.000000e+000 0.000000e+000 0.000000e+000 0.000000e+000 0.000000e+000
~t "T_aa"
<TRANSP> 5
 0.000000e+000 1.000000e+000 0.000000e+000 0.000000e+000 0.000000e+000
 0.000000e+000 7.968707e-001 2.031293e-001 0.000000e+000 0.000000e+000
 0.000000e+000 0.000000e+000 6.026622e-001 3.973378e-001 0.000000e+000
 0.000000e+000 0.000000e+000 0.000000e+000 6.707639e-001 3.292361e-001
 0.000000e+000 0.000000e+000 0.000000e+000 0.000000e+000 0.000000e+000
~t "T_k^"
<TRANSP> 5
 0.000000e+000 1.000000e+000 0.000000e+000 0.000000e+000 0.000000e+000
 0.000000e+000 3.896433e-001 6.103567e-001 0.000000e+000 0.000000e+000
 0.000000e+000 0.000000e+000 3.157820e-001 6.842179e-001 0.000000e+000
 0.000000e+000 0.000000e+000 0.000000e+000 4.286870e-001 5.713130e-001
 0.000000e+000 0.000000e+000 0.000000e+000 0.000000e+000 0.000000e+000
~t "T_m^"
<TRANSP> 5
 0.000000e+000 1.000000e+000 0.000000e+000 0.000000e+000 0.000000e+000
 0.000000e+000 6.649832e-001 3.350168e-001 0.000000e+000 0.000000e+000
 0.000000e+000 0.000000e+000 5.992725e-001 4.007275e-001 0.000000e+000
 0.000000e+000 0.000000e+000 0.000000e+000 5.744405e-001 4.255595e-001
 0.000000e+000 0.000000e+000 0.000000e+000 0.000000e+000 0.000000e+000
~t "T_n^"
<TRANSP> 5
 0.000000e+000 1.000000e+000 0.000000e+000 0.000000e+000 0.000000e+000
 0.000000e+000 6.036589e-001 3.963411e-001 0.000000e+000 0.000000e+000
 0.000000e+000 0.000000e+000 5.087679e-001 4.912321e-001 0.000000e+000
 0.000000e+000 0.000000e+000 0.000000e+000 8.175256e-001 1.824744e-001
 0.000000e+000 0.000000e+000 0.000000e+000 0.000000e+000 0.000000e+000
~t "T_t^"
<TRANSP> 5
 0.000000e+000 1.000000e+000 0.000000e+000 0.000000e+000 0.000000e+000
 0.000000e+000 8.823491e-001 1.176509e-001 0.000000e+000 0.000000e+000
 0.000000e+000 0.000000e+000 9.377994e-001 6.220056e-002 0.000000e+000
 0.000000e+000 0.000000e+000 0.000000e+000 9.154690e-001 8.453101e-002
 0.000000e+000 0.000000e+000 0.000000e+000 0.000000e+000 0.000000e+000
~t "T_uu"
<TRANSP> 5
 0.000000e+000 1.000000e+000 0.000000e+000 0.000000e+000 0.000000e+000
 0.000000e+000 6.103038e-001 3.896962e-001 0.000000e+000 0.000000e+000
 0.000000e+000 0.000000e+000 7.272641e-001 2.727359e-001 0.000000e+000
 0.000000e+000 0.000000e+000 0.000000e+000 6.491151e-001 3.508849e-001
 0.000000e+000 0.000000e+000 0.000000e+000 0.000000e+000 0.000000e+000
~t "T_w^"
<TRANSP> 5
 0.000000e+000 1.000000e+000 0.000000e+000 0.000000e+000 0.000000e+000
 0.000000e+000 8.329214e-001 1.670786e-001 0.000000e+000 0.000000e+000
 0.000000e+000 0.000000e+000 7.649534e-001 2.350466e-001 0.000000e+000
 0.000000e+000 0.000000e+000 0.000000e+000 7.866829e-001 2.133171e-001
 0.000000e+000 0.000000e+000 0.000000e+000 0.000000e+000 0.000000e+000
~h "uu-k+oo"
<BEGINHMM>
<NUMSTATES> 5
<STATE> 2
<MEAN> 39
 2.051942e+000 -2.043713e+001 -1.572249e+001 -1.373830e+001 2.376029e+000 5.383144e+000 -2.978395e+000 -7.074786e+000 2.578473e+000 -3.067958e+000 -1.435197e+001 -2.614531e+000 1.834114e+001 3.104132e-001 2.585777e-001 -5.926437e-001 5.303108e-001 1.351639e-002 4.276769e-001 -3.942672e-001 3.444422e-001 -2.823439e-001 -4.097774e-003 -3.813314e-002 -1.442733e-001 -1.457990e-001 -4.000755e-002 4.460942e-002 -4.242719e-002 -2.166462e-003 -1.275596e-002 -6.650975e-002 5.043181e-002 -3.678338e-002 -2.477443e-002 8.832838e-003 5.308394e-002 2.925055e-002 -2.676927e-003
<VARIANCE> 39
 3.239994e+001 4.085499e+001 1.413553e+002 1.183247e+002 2.012462e+002 1.746243e+002 5.808779e+001 8.156387e+001 7.855428e+001 4.682530e+001 8.048169e+001 7.087127e+001 2.855829e+000 6.700411e-001 1.544803e+000 1.664898e+000 2.618457e+000 2.732292e+000 3.437985e+000 3.309743e+000 3.475823e+000 3.522701e+000 3.609162e+000 3.811354e+000 3.547921e+000 3.109732e-002 7.971068e-002 1.887154e-001 2.213610e-001 3.578171e-001 4.569909e-001 4.425752e-001 5.541821e-001 6.430168e-001 5.869373e-001 6.585448e-001 5.287313e-001 6.595058e-001 4.105858e-003
<GCONST> 1.164330e+002
<STATE> 3
<MEAN> 39
 1.419193e+000 -1.036698e+001 -2.728601e+001 -3.982655e+000 3.176012e+000 1.192860e+001 -2.869655e+000 -2.250557e+000 -3.115414e+000 -4.160799e+000 -7.661335e+000 -2.673786e+000 1.417161e+001 -4.583710e-001 9.545487e-001 4.459365e-002 2.534779e-001 -7.586344e-002 6.169168e-001 3.161170e-001 -3.182530e-001 -3.585944e-001 -1.438337e-002 -1.797843e-002 1.436000e-002 -3.443446e-001 -1.046086e-001 -1.490992e-002 1.896544e-001 3.844827e-002 1.061867e-002 -1.144141e-001 -7.204904e-002 -5.495144e-002 3.995543e-002 -1.029503e-001 -3.324948e-002 -3.860813e-002 -1.868548e-002
<VARIANCE> 39
 3.264737e+001 4.240324e+001 1.092998e+002 5.045641e+001 1.862316e+002 2.458811e+002 4.693607e+001 5.786266e+001 8.242149e+001 8.600460e+001 8.799650e+001 4.944517e+001 4.630523e+000 5.308190e-001 7.950475e-001 1.589610e+000 2.341769e+000 3.301240e+000 2.200041e+000 3.084785e+000 3.142222e+000 4.569962e+000 3.432372e+000 3.400565e+000 1.841500e+000 5.927042e-002 9.544297e-002 1.413584e-001 2.271102e-001 4.916553e-001 5.540531e-001 4.920851e-001 5.413377e-001 8.366577e-001 8.842432e-001 5.271379e-001 7.291686e-001 4.386227e-001 1.373727e-002
<GCONST> 1.166281e+002
<STATE> 4
<MEAN> 39
 -3.984638e+000 -4.035464e+000 -1.373328e+001 1.225077e+000 -2.658803e+000 9.667825e-001 -4.789439e+000 -2.471798e+000 -4.353385e+000 -2.079470e+000 -3.674105e+000 -1.726815e+000 1.181833e+001 -8.054965e-001 5.232325e-001 5.357384e-001 5.264641e-001 -4.780930e-001 -8.084224e-001 -1.484028e-001 4.333830e-001 3.679466e-002 3.600820e-001 7.192497e-001 4.288902e-001 -3.290687e-001 -1.879926e-001 1.873157e-002 -3.431630e-002 -1.504733e-001 2.482049e-001 -2.265140e-001 -1.026472e-001 2.080272e-002 3.161624e-001 -5.492359e-002 2.470282e-001 6.757638e-002 5.467555e-002
<VARIANCE> 39
 5.178580e+001 1.138764e+002 1.309898e+002 5.537028e+001 2.130181e+002 4.428470e+002 1.120587e+002 4.977074e+001 9.507488e+001 5.873950e+001 1.031208e+002 7.612992e+001 1.250856e+001 7.071091e-001 7.511743e-001 3.142066e+000 3.114500e+000 3.238224e+000 3.918372e+000 2.488829e+000 3.539918e+000 4.321741e+000 3.737512e+000 3.125661e+000 4.529174e+000 7.817467e-002 1.732251e-001 3.086688e-001 6.399025e-001 6.821777e-001 4.051679e-001 1.254039e+000 5.005028e-001 6.394413e-001 8.840690e-001 6.428755e-001 8.668783e-001 1.110665e+000 1.966619e-002
<GCONST> 1.285948e+002
~t "T_k"
<ENDHMM>
~h "s-a+j^"
<BEGINHMM>
<NUMSTATES> 5
<STATE> 2
<MEAN> 39
 -1.082035e+001 -8.183202e+000 -2.633762e+000 -7.467984e+000 3.222347e+000 -5.863901e+000 3.134896e+000 -4.229700e+000 2.809183e+000 -6.135831e+000 -1.061483e+000 5.624695e-001 1.603035e+001 -1.474889e-002 -1.137483e+000 4.448210e-001 -6.560102e-001 1.830717e-002 -5.259044e-001 2.687556e-001 -1.179010e+000 -1.517941e-001 -6.423463e-001 9.066003e-002 -7.559251e-002 4.170638e-001 2.228631e-001 -1.561442e-001 -2.499258e-001 -6.824054e-002 4.022826e-002 2.483307e-001 -1.015201e-001 -8.575019e-002 -1.319641e-001 -7.496200e-002 -2.256696e-001 -1.146393e-001 5.665466e-002
<VARIANCE> 39
 9.944785e+001 1.492288e+002 1.811102e+002 2.160032e+002 1.414286e+002 2.318166e+002 1.351813e+002 1.971588e+002 1.070579e+002 1.536155e+002 1.548888e+002 7.895323e+001 1.497325e+001 6.973557e+000 6.437372e+000 1.158495e+001 9.572601e+000 8.615338e+000 1.039969e+001 1.092070e+001 1.253513e+001 9.579532e+000 1.102545e+001 9.701848e+000 6.962000e+000 6.013747e-001 9.783025e-001 7.023738e-001 1.700512e+000 1.625827e+000 1.244184e+000 1.411942e+000 1.496387e+000 1.628782e+000 1.545991e+000 2.279380e+000 1.780168e+000 1.239993e+000 8.307399e-002
<GCONST> 1.622216e+002
<STATE> 3
<MEAN> 39
 -6.986672e+000 -1.445020e+001 -4.543968e+000 -1.501205e+001 3.723022e+000 -1.095399e+001 1.046079e+000 -9.498857e+000 4.407659e-001 -1.117806e+001 -4.689628e+000 -2.041542e+000 1.870507e+001 1.357481e+000 -8.800178e-001 -1.061884e+000 -5.677157e-001 -3.754282e-001 6.460512e-001 -5.808305e-001 -5.417959e-001 -9.752080e-001 -5.178934e-001 -1.105494e+000 -7.063330e-001 2.517822e-001 -2.481227e-001 1.347728e-001 1.461772e-001 2.635638e-002 1.034522e-001 2.103819e-001 1.392998e-001 4.185417e-001 5.551903e-002 3.818353e-001 1.150701e-001 1.014329e-001 -3.821932e-003
<VARIANCE> 39
 5.869431e+001 8.876414e+001 1.472072e+002 1.225854e+002 1.522547e+002 1.979163e+002 1.267969e+002 1.449899e+002 1.274178e+002 1.227487e+002 1.229831e+002 7.158426e+001 6.009459e+000 4.683055e+000 4.270936e+000 5.318569e+000 1.012334e+001 6.851087e+000 4.666861e+000 7.518810e+000 1.045084e+001 8.582229e+000 7.660582e+000 6.287826e+000 4.392597e+000 3.330455e-001 6.425803e-001 4.419968e-001 9.693556e-001 7.863059e-001 6.123263e-001 8.644872e-001 1.136717e+000 1.609012e+000 1.108377e+000 1.202899e+000 7.460757e-001 7.288375e-001 2.596493e-002
<GCONST> 1.463831e+002
<STATE> 4
<MEAN> 39
 -4.316296e+000 -1.774282e+001 -1.017259e+001 -1.384841e+001 5.823170e+000 -7.294755e+000 -1.780520e+000 -7.473850e+000 1.223783e+000 -9.696519e+000 -8.301782e+000 -2.786341e+000 1.875451e+001 3.154064e-001 -1.417080e-001 -4.303327e-001 6.204754e-002 -3.059126e-002 5.422146e-001 -1.628740e-001 2.203099e-001 -4.492879e-001 3.345988e-001 -1.731434e-001 -3.440882e-002 -2.541176e-002 -2.103313e-001 1.676654e-001 1.085540e-001 1.062339e-001 3.821877e-002 -1.234378e-002 7.642762e-002 1.348807e-001 1.364162e-001 1.680150e-001 1.733324e-001 1.669531e-001 -4.297524e-002
<VARIANCE> 39
 5.227425e+001 7.913264e+001 1.155597e+002 1.300747e+002 1.713783e+002 2.085150e+002 9.473158e+001 1.265991e+002 8.527113e+001 7.533299e+001 9.815353e+001 6.725896e+001 6.093748e+000 1.487269e+000 2.743760e+000 2.513186e+000 5.539578e+000 3.064029e+000 3.506973e+000 4.116343e+000 5.829135e+000 4.900151e+000 5.011871e+000 4.617706e+000 4.298258e+000 2.384184e-001 4.051236e-001 4.001461e-001 6.310002e-001 6.406149e-001 5.328153e-001 6.919715e-001 7.328158e-001 1.131361e+000 7.461522e-001 8.319280e-001 6.409761e-001 8.253975e-001 2.354861e-002
<GCONST> 1.344436e+002
<TRANSP> 5
 0.000000e+000 1.000000e+000 0.000000e+000 0.000000e+000 0.000000e+000
 0.000000e+000 5.363809e-001 4.636191e-001 0.000000e+000 0.000000e+000
 0.000000e+000 0.000000e+000 1.659127e-001 8.340873e-001 0.000000e+000
 0.000000e+000 0.000000e+000 0.000000e+000 5.139160e-001 4.860840e-001
 0.000000e+000 0.000000e+000 0.000000e+000 0.000000e+000 0.000000e+000
<ENDHMM>
~h "m^-w+i"
<BEGINHMM>
<NUMSTATES> 5
<STATE> 2
<MEAN> 39
 -5.035914e+000 1.370628e+000 1.292470e+001 -3.290315e+001 -6.928371e+000 -6.595722e+000 -9.651540e+000 -1.920905e+001 3.659899e+000 -7.242991e+000 -1.035279e+001 5.011189e+000 1.856249e+001 2.916477e-001 4.811506e-001 -3.588975e-001 3.090030e-001 -2.004087e-001 3.818267e-001 -7.070261e-001 2.203687e-001 9.905867e-002 -1.175138e-001 -2.210721e-003 1.187843e-001 -1.727149e-001 3.613667e-002 -2.356590e-002 -6.660938e-002 7.148629e-002 -4.972732e-002 -2.371762e-002 -2.361936e-002 2.473604e-002 -2.933894e-003 2.495687e-002 3.158929e-002 1.087319e-002 -1.746903e-002
<VARIANCE> 39
 3.898297e+001 7.639461e+001 7.909694e+001 1.138474e+002 1.000005e+002 8.737799e+001 1.112838e+002 7.570489e+001 4.368040e+001 1.171331e+002 8.251021e+001 1.148719e+002 7.079541e+000 5.569617e-001 1.036961e+000 1.438797e+000 2.704361e+000 2.174686e+000 3.508691e+000 2.740235e+000 3.538949e+000 2.949652e+000 2.483859e+000 2.423771e+000 2.404724e+000 4.836909e-002 6.946551e-002 1.479985e-001 2.503124e-001 3.663251e-001 3.791233e-001 6.783690e-001 5.130385e-001 5.888368e-001 4.981559e-001 4.332631e-001 3.827051e-001 4.047572e-001 5.343752e-003
<GCONST> 1.142376e+002
<STATE> 3
<MEAN> 39
 -2.128877e+000 1.029958e+001 -2.892281e+000 -1.315052e+001 -1.599116e+001 -1.163164e+000 -2.033307e+001 -7.782874e+000 5.548479e+000 -4.879387e+000 -3.691631e+000 4.785790e+000 1.199250e+001 -1.164740e+000 -3.143532e-001 -4.804954e-001 1.165479e+000 5.187024e-001 -3.666971e-001 1.130537e+000 7.526386e-001 -2.197682e-001 2.791581e-002 5.792910e-001 -3.007146e-001 -2.384788e-001 -1.860932e-001 -5.896713e-002 8.785062e-002 1.133381e-001 2.896232e-001 -2.949973e-001 3.827820e-001 6.735599e-002 1.223288e-001 -5.766514e-002 -2.532401e-002 -4.181405e-002 6.852853e-002
<VARIANCE> 39
 5.820053e+001 3.427351e+001 3.009206e+001 1.181729e+002 5.821613e+001 5.676694e+001 8.435751e+001 8.365436e+001 8.326232e+001 3.541221e+001 5.776122e+001 8.231945e+001 7.505284e+000 2.056260e+000 1.920557e+000 2.550719e+000 3.099278e+000 5.139901e+000 6.252328e+000 7.758647e+000 3.633132e+000 5.297338e+000 3.973987e+000 4.713475e+000 3.240504e+000 1.906759e-001 4.271045e-001 4.061714e-001 5.873534e-001 7.660826e-001 1.016605e+000 1.437468e+000 8.888240e-001 5.254159e-001 1.252040e+000 7.861122e-001 9.708385e-001 6.409369e-001 4.099638e-002
<GCONST> 1.306373e+002
<STATE> 4
<MEAN> 39
 -9.437272e+000 2.864512e+000 -5.294819e+000 -1.047825e+001 -2.878116e+000 -3.030940e+001 -7.274917e+000 -5.069536e+000 1.495857e+001 -8.370891e+000 -7.231552e+000 1.753274e+000 1.638616e+001 -1.520559e-001 1.226824e-002 -2.813539e-001 4.380786e-002 2.956167e-001 -1.875705e+000 -1.886577e-002 8.556114e-002 9.874846e-001 -1.909519e-002 -1.863937e-001 -2.133544e-001 4.534613e-001 8.178461e-002 7.971320e-002 3.374270e-002 -1.614341e-001 -1.477630e-001 2.589704e-001 -1.528195e-001 -7.708560e-002 -1.695157e-001 3.948287e-002 6.799302e-003 1.125373e-001 -1.395886e-002
<VARIANCE> 39
 1.143637e+002 6.602542e+001 9.826722e+001 1.554767e+002 1.086450e+002 1.652664e+002 9.368782e+001 7.026496e+001 1.217525e+002 8.166991e+001 1.398517e+002 5.459322e+001 7.445465e+000 1.119637e+001 5.065355e+000 6.397165e+000 1.439929e+001 7.414549e+000 1.084138e+001 9.688841e+000 6.253187e+000 9.563829e+000 9.425958e+000 1.145250e+001 5.295000e+000 8.786204e-001 1.757741e+000 7.888825e-001 1.308193e+000 2.244464e+000 9.637395e-001 1.615119e+000 1.826099e+000 1.352276e+000 1.881152e+000 1.883118e+000 1.521150e+000 8.867510e-001 1.442807e-001
<GCONST> 1.568890e+002
<TRANSP> 5
 0.000000e+000 1.000000e+000 0.000000e+000 0.000000e+000 0.000000e+000
 0.000000e+000 9.735225e-001 2.647755e-002 0.000000e+000 0.000000e+000
 0.000000e+000 0.000000e+000 9.289009e-001 7.109913e-002 0.000000e+000
 0.000000e+000 0.000000e+000 0.000000e+000 9.468159e-001 5.318405e-002
 0.000000e+000 0.000000e+000 0.000000e+000 0.000000e+000 0.000000e+000
<ENDHMM>
~h "a-j^+z"
<BEGINHMM>
<NUMSTATES> 5
<STATE> 2
<MEAN> 39
 -9.568539e+000 -2.275177e+001 -4.126549e+000 -2.108706e+001 3.778813e+000 -1.181651e+001 7.530210e+000 -9.140470e+000 1.547503e+000 -9.622665e+000 -2.562858e+000 -1.177706e+000 2.071247e+001 -3.974338e-001 -4.822739e-002 6.182778e-001 -6.148319e-001 -8.416765e-001 1.046797e-001 1.209344e+000 2.433196e-001 2.186520e-001 4.751364e-001 -4.403492e-001 -1.647338e-001 2.115276e-001 -1.777042e-001 4.641742e-001 3.168192e-001 3.457557e-001 -5.886141e-002 1.484936e-001 -1.973257e-001 2.724647e-001 -4.524108e-003 1.085703e-001 1.785813e-001 -4.005904e-003 -1.420757e-001
<VARIANCE> 39
 2.960647e+001 4.539493e+001 9.674427e+001 6.519408e+001 8.636466e+001 1.251983e+002 6.512048e+001 8.409684e+001 9.551495e+001 1.026789e+002 6.393049e+001 4.431971e+001 3.557860e+000 1.422722e+000 1.379560e+000 1.656825e+000 6.298212e+000 4.021988e+000 4.821276e+000 4.784347e+000 6.038990e+000 4.752627e+000 6.468857e+000 3.886331e+000 2.504414e+000 1.581686e-001 3.899931e-001 2.731211e-001 4.146991e-001 7.308077e-001 7.404817e-001 6.340044e-001 7.729034e-001 8.596810e-001 8.298612e-001 9.084964e-001 8.837676e-001 5.676793e-001 1.894964e-002
<GCONST> 1.276046e+002
<STATE> 3
<MEAN> 39
 -1.249853e+001 -1.910766e+001 4.146541e+000 -2.413480e+001 -3.726717e+000 -1.290525e+001 1.034003e+001 -1.244682e+001 -1.363514e+000 -8.413273e+000 -3.476873e+000 -3.888236e+000 2.148984e+001 -3.654343e-002 3.699110e-001 3.578085e-001 -5.836210e-001 -2.194022e-001 3.601208e-001 5.122039e-002 -1.240995e-001 -2.958062e-001 7.074378e-001 -2.189289e-001 -1.371315e-002 2.408021e-004 1.352041e-001 -6.245136e-002 -1.857226e-001 3.870620e-001 2.519054e-001 -4.079016e-002 -3.217474e-001 -1.230706e-001 -1.244755e-001 -2.470985e-001 4.275262e-002 8.330203e-002 -5.841757e-002
<VARIANCE> 39
 2.705877e+001 4.073496e+001 6.534000e+001 4.226059e+001 4.619714e+001 1.061814e+002 8.932430e+001 5.416066e+001 1.382502e+002 4.668181e+001 5.883517e+001 4.127832e+001 2.933494e+000 5.498141e-001 8.159215e-001 9.683677e-001 2.057053e+000 1.856395e+000 1.912898e+000 1.834181e+000 3.290314e+000 3.105880e+000 2.366226e+000 2.259775e+000 1.693322e+000 3.299099e-002 8.401427e-002 1.680496e-001 1.606554e-001 2.332800e-001 2.856731e-001 3.804051e-001 3.137342e-001 7.433302e-001 6.173384e-001 4.716774e-001 4.912340e-001 3.803718e-001 6.921379e-003
<GCONST> 1.050052e+002
<STATE> 4
<MEAN> 39
 -5.915781e+000 -2.119987e+001 -3.662729e+000 -1.798180e+001 9.195784e+000 -1.214061e+001 -1.442370e+000 -3.885593e+000 -4.950908e+000 -1.064806e+001 -6.678502e+000 -1.840168e+000 1.990809e+001 2.427651e-001 1.117438e-001 -1.292337e-001 2.672774e-001 1.263382e-001 1.300447e-001 -5.240004e-001 1.761218e-001 -2.680525e-001 8.788343e-003 -1.209954e-001 1.463389e-001 -9.118714e-002 -1.244721e-002 -2.883282e-003 -2.733763e-002 3.585698e-002 -4.267732e-002 -3.817161e-002 2.215281e-002 -2.206919e-002 3.674376e-002 -2.925918e-002 3.758488e-002 -1.068572e-002 -6.428428e-003
<VARIANCE> 39
 3.025121e+001 4.772027e+001 6.182662e+001 6.785904e+001 8.018350e+001 1.405315e+002 8.274025e+001 6.543017e+001 8.290670e+001 1.003346e+002 6.140909e+001 4.193484e+001 2.361953e+000 5.453237e-001 1.011716e+000 1.244753e+000 1.937942e+000 2.235271e+000 2.114613e+000 2.421988e+000 2.568925e+000 2.631344e+000 2.629760e+000 2.346993e+000 2.223930e+000 7.630024e-002 8.299123e-002 1.696321e-001 2.552302e-001 3.446600e-001 3.894646e-001 3.529658e-001 4.115869e-001 4.975175e-001 4.931486e-001 4.534843e-001 4.102441e-001 3.871724e-001 9.430232e-003
<GCONST> 1.093749e+002
<TRANSP> 5
 0.000000e+000 1.000000e+000 0.000000e+000 0.000000e+000 0.000000e+000
 0.000000e+000 5.536680e-001 4.463320e-001 0.000000e+000 0.000000e+000
 0.000000e+000 0.000000e+000 7.354065e-001 2.645936e-001 0.000000e+000
 0.000000e+000 0.000000e+000 0.000000e+000 8.785215e-001 1.214785e-001
 0.000000e+000 0.000000e+000 0.000000e+000 0.000000e+000 0.000000e+000
<ENDHMM>
~h "uu-h+u"
<BEGINHMM>
<NUMSTATES> 5
<STATE> 2
<MEAN> 39
 -6.474253e+000 -1.734048e+001 -1.677626e+001 3.407100e+000 1.487920e+001 5.308844e+000 -7.536188e+000 -1.319424e+000 1.260419e+000 -4.303445e+000 -4.811514e+000 4.864782e+000 1.496008e+001 -5.313634e-001 5.612430e-001 4.244278e-001 3.581216e-001 1.963199e-001 -4.266842e-001 -2.038666e-001 4.185587e-001 4.305996e-001 -5.483894e-001 5.187733e-001 -2.234145e-001 -9.974993e-002 -2.114316e-001 1.605036e-001 3.597611e-001 -3.998728e-001 3.901098e-002 -4.460174e-001 1.687600e-001 -2.047233e-001 1.771542e-001 -1.642589e-001 1.965596e-001 -1.750761e-001 5.442474e-002
<VARIANCE> 39
 5.398565e+001 8.355153e+001 1.495605e+002 1.374680e+002 2.020921e+002 2.210717e+002 1.607241e+002 8.388335e+001 9.492779e+001 1.066892e+002 1.040304e+002 6.046175e+001 6.804543e+000 1.239465e+000 2.839314e+000 2.693647e+000 3.720764e+000 3.338812e+000 7.315161e+000 5.703399e+000 4.335876e+000 3.578749e+000 5.519261e+000 4.434469e+000 3.190043e+000 3.050183e-001 5.366266e-001 3.274311e-001 7.640899e-001 8.484296e-001 6.786328e-001 1.146586e+000 1.520359e+000 9.390230e-001 8.337368e-001 8.881204e-001 8.829380e-001 5.878658e-001 2.014406e-002
<GCONST> 1.376098e+002
<STATE> 3
<MEAN> 39
 -1.213593e+001 -1.460205e+001 -3.309326e+000 -3.289344e+000 7.111395e+000 -9.977209e+000 2.129963e+000 -1.539923e+000 -2.407221e-001 -1.430997e+001 -2.368249e-001 5.627048e-001 1.656919e+001 -2.675028e+000 2.655776e-002 2.956197e+000 -1.921486e+000 2.256194e-001 -2.993696e+000 2.998780e+000 -4.954351e-001 1.239301e+000 -1.703269e+000 1.634148e+000 -9.106967e-001 6.901423e-001 2.337252e-001 -1.281502e-001 -1.631062e-001 -2.854032e-001 -2.635781e-001 2.521124e-001 -1.050566e-001 -3.640423e-001 -1.128233e-001 3.003341e-001 -2.975763e-001 -1.429480e-001 6.376519e-002
<VARIANCE> 39
 1.186343e+002 4.505336e+001 1.820308e+002 1.389724e+002 1.840999e+002 2.128003e+002 1.948672e+002 1.542131e+002 1.091693e+002 1.218697e+002 1.982405e+002 7.183934e+001 6.930516e+000 7.730052e+000 5.553294e+000 1.479289e+001 9.080305e+000 7.232176e+000 1.528248e+001 1.906811e+001 1.230518e+001 7.811386e+000 1.292981e+001 7.646626e+000 4.360097e+000 5.276873e-001 1.786203e+000 6.789948e-001 3.019486e+000 1.614098e+000 9.232778e-001 3.098585e+000 3.939695e+000 2.379719e+000 1.291106e+000 1.776484e+000 1.304209e+000 8.637419e-001 7.754117e-002
<GCONST> 1.620457e+002
<STATE> 4
<MEAN> 39
 -1.640182e+001 -1.506340e+001 1.540914e+000 -1.237564e+001 3.991163e+000 -1.151838e+001 1.078657e+001 -8.091287e+000 2.298019e+000 -1.495326e+001 -8.049273e-001 -4.233335e+000 1.900250e+001 5.409674e-001 -1.762861e-001 -3.780103e-002 -8.374499e-001 -6.545752e-001 2.340863e-001 6.911360e-002 -9.043726e-001 -4.175440e-001 2.717211e-001 -1.265909e-001 -5.357497e-001 1.899710e-001 6.550768e-001 2.710162e-002 -3.990990e-001 1.365058e-001 -2.552651e-001 2.585898e-001 -3.916911e-001 -3.084272e-001 -4.765085e-001 6.725559e-002 -2.521343e-001 8.733767e-002 -8.718442e-002
<VARIANCE> 39
 6.968352e+001 4.294444e+001 1.355813e+002 1.293616e+002 1.597411e+002 1.553809e+002 1.083382e+002 1.496411e+002 1.164562e+002 1.063432e+002 1.224790e+002 5.901421e+001 3.785743e+000 3.934659e+000 2.445964e+000 4.231820e+000 3.848415e+000 5.354063e+000 4.541359e+000 6.546158e+000 8.065033e+000 6.543080e+000 5.065840e+000 4.591224e+000 3.537020e+000 2.215720e-001 7.798664e-001 4.248409e-001 1.153367e+000 1.125648e+000 9.617569e-001 1.089119e+000 1.218397e+000 1.341780e+000 1.574057e+000 1.473416e+000 9.949018e-001 5.820699e-001 4.231848e-002
<GCONST> 1.427275e+002
~t "T_h"
<ENDHMM>
~h "j^-th+@@"
<BEGINHMM>
<NUMSTATES> 5
<STATE> 2
<MEAN> 39
 -8.907535e+000 -4.540911e+000 -9.638545e+000 -2.135859e+000 3.403945e+000 2.570152e+000 3.090391e+000 -9.998406e-001 1.043080e+000 -4.067023e+000 4.582787e-001 5.240243e+000 1.326643e+001 -1.590872e+000 1.061389e+000 1.329617e+000 -8.037522e-001 1.057173e+000 6.347726e-002 4.163786e-001 -5.284511e-001 1.114231e+000 3.327776e-001 3.241999e-001 -5.665318e-001 2.187833e-001 -4.134969e-001 -2.058194e-002 3.813545e-001 -5.063917e-001 1.185662e-001 -1.743428e-001 5.913326e-002 -4.434450e-001 1.270852e-001 -6.198492e-002 -2.552617e-001 -1.153738e-001 2.208239e-001
<VARIANCE> 39
 6.335215e+001 1.541427e+002 1.434212e+002 2.068998e+002 1.416433e+002 1.937742e+002 1.271323e+002 1.220278e+002 1.413251e+002 1.123826e+002 7.155618e+001 4.975058e+001 1.623280e+001 3.573951e+000 5.688272e+000 6.162699e+000 1.111826e+001 7.852411e+000 1.159160e+001 1.322583e+001 1.126993e+001 1.157059e+001 6.996641e+000 8.085327e+000 4.918710e+000 1.027599e+000 4.387169e-001 8.427358e-001 6.469273e-001 1.513319e+000 1.189670e+000 2.111308e+000 1.932533e+000 1.485512e+000 1.487351e+000 1.142177e+000 9.000624e-001 7.249860e-001 9.593486e-002
<GCONST> 1.552459e+002
<STATE> 3
<MEAN> 39
 -2.165291e+001 -2.570016e+000 3.459438e+000 -1.542826e+001 7.184719e+000 -1.343563e-001 6.913183e+000 -1.114208e+001 9.106719e+000 -3.842097e+000 -9.343567e-001 1.562855e+000 1.822759e+001 -8.959216e-001 2.100618e-001 1.932420e+000 -1.827745e+000 -1.985137e-001 2.532190e-001 -1.050066e+000 -1.149416e+000 -2.063718e-004 -1.001622e+000 -7.528087e-002 -7.658003e-001 4.375412e-001 9.390474e-001 1.958650e-001 -2.873056e-001 5.795474e-002 -5.598335e-001 -4.324453e-001 -7.566177e-001 1.362383e-001 -4.560158e-001 -2.721738e-001 -1.391668e-001 -2.493668e-003 -1.958624e-001
<VARIANCE> 39
 1.834911e+002 1.408176e+002 1.386562e+002 1.289272e+002 1.319023e+002 1.792179e+002 1.869466e+002 1.848001e+002 1.305871e+002 1.115122e+002 8.921448e+001 5.862208e+001 3.169057e+000 6.182454e+000 5.247272e+000 6.328819e+000 6.614689e+000 5.363534e+000 8.431026e+000 1.073740e+001 5.829051e+000 7.293637e+000 6.375599e+000 3.135999e+000 3.811666e+000 5.520606e-001 7.853724e-001 5.909531e-001 5.920605e-001 8.105987e-001 1.263076e+000 2.036553e+000 2.587527e+000 1.661206e+000 1.329639e+000 1.407948e+000 1.323013e+000 5.299186e-001 6.996055e-002
<GCONST> 1.508524e+002
<STATE> 4
<MEAN> 39
 -1.473216e+001 5.094403e-001 8.734814e+000 -2.365213e+001 7.905981e-001 -8.373975e+000 -2.614766e+000 -1.455740e+001 5.764779e+000 -9.199020e+000 -2.634093e+000 -7.688122e-001 1.832897e+001 1.664328e+000 -3.077024e-001 1.265201e+000 -2.110195e+000 -2.530696e+000 -3.083871e+000 -1.079393e+000 -9.432876e-001 -9.889666e-001 -5.373962e-001 -1.362870e+000 -5.249209e-001 3.291695e-001 -5.476273e-002 -7.415620e-001 -3.326574e-001 3.434945e-001 1.244197e-001 9.518544e-002 8.179464e-001 6.217826e-001 1.790561e-001 4.154788e-001 5.585334e-002 1.787308e-001 1.014284e-001
<VARIANCE> 39
 1.028448e+002 1.924258e+002 2.249950e+002 1.022337e+002 1.483207e+002 1.239591e+002 1.451227e+002 1.391466e+002 1.037650e+002 7.522381e+001 9.791938e+001 6.658844e+001 2.099080e+000 7.401865e+000 6.554617e+000 5.963928e+000 7.574413e+000 1.473223e+001 1.164459e+001 1.454757e+001 9.808137e+000 7.519447e+000 8.678703e+000 4.332367e+000 4.526145e+000 2.901095e-001 8.944853e-001 8.250672e-001 6.433402e-001 8.320789e-001 2.188431e+000 1.187105e+000 1.746918e+000 1.443678e+000 1.280057e+000 9.413841e-001 9.545015e-001 9.220145e-001 3.231812e-002
<GCONST> 1.511251e+002
<TRANSP> 5
 0.000000e+000 1.000000e+000 0.000000e+000 0.000000e+000 0.000000e+000
 0.000000e+000 6.564322e-001 3.435679e-001 0.000000e+000 0.000000e+000
 0.000000e+000 0.000000e+000 5.453085e-001 4.546915e-001 0.000000e+000
 0.000000e+000 0.000000e+000 0.000000e+000 5.208331e-001 4.791669e-001
 0.000000e+000 0.000000e+000 0.000000e+000 0.000000e+000 0.000000e+000
<ENDHMM>
~h "uua-n^+j"
<BEGINHMM>
<NUMSTATES> 5
<STATE> 2
<MEAN> 39
 -1.038233e+001 -6.647824e+000 -7.640809e+000 -1.208455e+001 3.249578e+000 -7.803999e+000 3.973898e+000 -5.904874e+000 2.585083e+000 -1.110830e+001 -3.693663e+000 -1.489415e+000 1.716346e+001 -4.866493e-001 -1.406698e-001 4.385505e-003 -3.880909e-001 5.519305e-001 -2.025773e-001 2.733138e-001 -6.619089e-001 1.057763e-001 -4.072599e-001 1.743466e-001 -2.064636e-002 3.012643e-001 7.186217e-002 -2.711614e-003 3.449486e-002 -1.772313e-002 5.470139e-002 3.426660e-002 -7.070322e-002 -6.935916e-002 -4.023545e-002 2.471140e-001 1.618317e-002 1.080952e-001 1.206066e-002
<VARIANCE> 39
 9.010114e+001 1.560446e+002 1.500957e+002 1.365231e+002 2.348802e+002 1.472312e+002 2.074339e+002 1.589524e+002 1.296020e+002 1.577789e+002 8.541399e+001 7.054244e+001 9.171315e+000 5.432772e+000 5.172045e+000 5.548750e+000 5.945155e+000 6.736851e+000 7.464920e+000 8.025904e+000 1.070450e+001 9.411465e+000 7.525100e+000 5.968790e+000 4.193590e+000 3.682974e-001 6.987499e-001 6.952242e-001 7.687699e-001 7.347295e-001 9.237890e-001 1.112212e+000 1.357439e+000 1.416780e+000 1.476591e+000 1.201952e+000 9.826235e-001 7.254175e-001 4.944400e-002
<GCONST> 1.511565e+002
<STATE> 3
<MEAN> 39
 -9.902015e+000 -1.288020e+001 -6.020440e+000 -1.501475e+001 1.661292e+000 -1.048526e+001 5.373569e+000 -1.138260e+001 2.234156e+000 -1.149342e+001 -4.828317e+000 -3.182716e+000 1.921934e+001 3.664323e-002 4.407922e-002 6.222098e-002 -1.044405e-001 -4.767363e-001 -1.762325e-001 2.001178e-001 9.393750e-003 2.772605e-002 8.215929e-001 3.090018e-001 9.380711e-002 2.264541e-002 1.666036e-001 1.983257e-001 1.721297e-002 -8.548626e-002 -2.955400e-002 1.115916e-001 -3.362371e-001 3.004033e-002 -2.775951e-002 1.794873e-001 1.063969e-003 -1.049514e-002 -1.069472e-001
<VARIANCE> 39
 6.876505e+001 1.765308e+002 1.650199e+002 9.442976e+001 1.747998e+002 1.694891e+002 1.682797e+002 1.205361e+002 1.647899e+002 1.295301e+002 1.494975e+002 5.451640e+001 3.871809e+000 1.249989e+000 1.688372e+000 2.521269e+000 4.228229e+000 3.754246e+000 3.918019e+000 6.237725e+000 4.278175e+000 5.385403e+000 4.563940e+000 3.264310e+000 3.025371e+000 1.431747e-001 2.630492e-001 4.503986e-001 5.176400e-001 5.834593e-001 8.833362e-001 6.519284e-001 9.714678e-001 1.056006e+000 1.037826e+000 9.099717e-001 7.513486e-001 6.537654e-001 2.230166e-002
<GCONST> 1.354839e+002
<STATE> 4
<MEAN> 39
 -6.501848e+000 -1.651748e+001 -5.808763e+000 -1.524525e+001 7.042766e+000 -1.542575e+001 2.167411e+000 -8.488050e+000 -4.898922e-001 -9.336031e+000 -4.737001e+000 6.146008e-001 1.905312e+001 2.098764e-001 3.118402e-001 9.465491e-002 -1.539041e-002 -2.483509e-001 -7.360082e-002 -2.727179e-001 -6.749006e-002 1.103751e-002 2.690867e-001 -3.534448e-002 1.861799e-001 -1.203854e-001 3.267175e-002 1.558371e-002 1.592772e-002 2.043155e-002 -1.464409e-002 5.059596e-002 -2.946015e-002 4.616342e-002 1.927241e-002 -6.865221e-002 -6.203557e-002 -3.323684e-002 -3.538812e-003
<VARIANCE> 39
 3.471439e+001 7.729579e+001 6.532493e+001 7.098419e+001 1.557729e+002 1.160986e+002 6.978624e+001 7.905805e+001 1.262997e+002 8.510018e+001 7.130244e+001 6.167587e+001 2.828731e+000 9.727665e-001 1.246232e+000 1.436459e+000 2.235229e+000 2.962069e+000 2.890244e+000 4.110137e+000 2.674981e+000 3.832272e+000 3.664696e+000 2.922709e+000 2.638073e+000 1.088494e-001 1.355889e-001 1.922856e-001 3.010477e-001 3.962379e-001 4.942890e-001 4.890184e-001 5.842351e-001 5.203972e-001 8.406754e-001 6.676107e-001 5.347660e-001 5.087681e-001 1.528779e-002
<GCONST> 1.190703e+002
~t "T_n^"
<ENDHMM>
~h "uu-m+a"
<BEGINHMM>
<NUMSTATES> 5
<STATE> 2
<MEAN> 39
 3.433924e+000 -1.008806e+001 -1.234506e+001 -1.934045e+001 7.385015e+000 -1.273925e+001 -8.450374e+000 -7.318470e+000 -8.034658e+000 -7.412369e+000 -1.200812e+001 -9.012012e+000 1.832860e+001 3.747834e-001 4.370032e-001 -2.345926e-001 2.137227e-001 -5.508231e-002 8.189351e-001 -3.223659e-001 -3.807292e-001 -4.110174e-001 2.798507e-001 -3.751945e-001 -3.226845e-001 -1.160161e-001 -1.061324e-001 -5.820578e-002 -9.083179e-002 -1.449823e-002 2.203797e-001 1.011594e-001 1.416859e-001 6.569864e-002 4.397239e-002 -1.232954e-001 9.311368e-002 5.414730e-002 1.251485e-002
<VARIANCE> 39
 5.773672e+001 5.053477e+001 6.230897e+001 8.392062e+001 1.317264e+002 1.266565e+002 3.029746e+001 2.965703e+001 5.823290e+001 5.886950e+001 1.376861e+002 4.866082e+001 1.539778e+000 5.777981e-001 1.195242e+000 1.420109e+000 1.829997e+000 2.491851e+000 3.922448e+000 2.060666e+000 2.442882e+000 3.012633e+000 2.615242e+000 3.072124e+000 3.086730e+000 3.941193e-002 1.002567e-001 1.512886e-001 1.826738e-001 3.557821e-001 4.475301e-001 8.361151e-001 3.019774e-001 4.386906e-001 5.014434e-001 5.330365e-001 6.927395e-001 6.571547e-001 9.316875e-003
<GCONST> 1.109740e+002
<STATE> 3
<MEAN> 39
 4.093667e+000 -8.977989e+000 -1.760619e+001 -2.074156e+001 1.024433e+001 -5.140008e+000 -7.166101e+000 -5.339612e+000 -5.836132e+000 -7.676567e+000 -7.765063e+000 -6.929152e+000 1.876576e+001 -9.028090e-001 -1.073818e+000 1.571815e-001 -1.348107e+000 1.057046e+000 3.299956e-001 2.181947e-001 7.515383e-001 9.983901e-001 -3.458438e-001 1.091218e+000 3.790864e-001 3.533672e-001 -1.092827e-001 -1.360516e-001 2.314837e-001 -1.009917e-002 -1.751714e-001 -9.465908e-002 4.873955e-002 -1.505355e-002 1.537071e-001 -5.618910e-002 1.934516e-002 5.352706e-002 3.258341e-002
<VARIANCE> 39
 7.529439e+001 7.294937e+001 8.058693e+001 1.170265e+002 1.876801e+002 1.703420e+002 6.559035e+001 6.637763e+001 8.423634e+001 6.325921e+001 1.059930e+002 4.809357e+001 1.964744e+000 1.827418e+000 2.451951e+000 2.995951e+000 6.847963e+000 5.371656e+000 1.041313e+001 4.315663e+000 3.909477e+000 7.555689e+000 5.827814e+000 6.303620e+000 3.861860e+000 1.625150e-001 2.810439e-001 3.780411e-001 4.344244e-001 1.340249e+000 5.840354e-001 1.702124e+000 8.853924e-001 8.094578e-001 1.212506e+000 8.999715e-001 1.170242e+000 7.799238e-001 3.077277e-002
<GCONST> 1.359082e+002
<STATE> 4
<MEAN> 39
 -3.741628e+000 -1.714421e+001 -8.921778e+000 -3.135298e+001 1.363542e+001 -2.620460e+000 -5.674845e+000 -3.109737e+000 -4.887075e+000 -5.575398e+000 -4.142509e+000 -4.682153e+000 2.047881e+001 1.776208e-003 -2.541199e-001 4.686194e-002 4.765857e-001 -1.802436e-001 -1.607464e-001 3.216197e-001 1.202103e-001 1.220949e-001 -1.843981e-001 -9.833516e-002 2.899438e-001 -4.785589e-002 8.324262e-002 1.096225e-001 -3.846915e-002 1.658224e-001 -1.512700e-001 -1.108215e-001 1.068961e-001 -2.264081e-003 -1.156201e-002 7.139569e-003 -2.721153e-002 -6.617039e-002 -3.767354e-002
<VARIANCE> 39
 2.388894e+001 2.483801e+001 2.399271e+001 1.009997e+002 1.019116e+002 2.005160e+002 4.176624e+001 4.951171e+001 1.054881e+002 5.138896e+001 5.580321e+001 3.076926e+001 1.978040e+000 5.952604e-001 9.035798e-001 1.187880e+000 2.236934e+000 2.073318e+000 2.989483e+000 3.323149e+000 2.276721e+000 3.106458e+000 1.819252e+000 2.571227e+000 1.918405e+000 3.130669e-002 7.872991e-002 1.517084e-001 1.992853e-001 2.818664e-001 3.910392e-001 3.830876e-001 3.600541e-001 3.923450e-001 6.211051e-001 2.916897e-001 5.059243e-001 4.966413e-001 7.314576e-003
<GCONST> 1.050426e+002
<TRANSP> 5
 0.000000e+000 1.000000e+000 0.000000e+000 0.000000e+000 0.000000e+000
 0.000000e+000 8.455105e-001 1.544895e-001 0.000000e+000 0.000000e+000
 0.000000e+000 0.000000e+000 8.020452e-001 1.979548e-001 0.000000e+000
 0.000000e+000 0.000000e+000 0.000000e+000 8.567683e-001 1.432317e-001
 0.000000e+000 0.000000e+000 0.000000e+000 0.000000e+000 0.000000e+000
<ENDHMM>
~h "uu-n+a"
<BEGINHMM>
<NUMSTATES> 5
<STATE> 2
<MEAN> 39
 -8.609958e+000 -6.260208e+000 -9.986539e-001 -1.529598e+001 4.184045e-001 -1.895819e+001 -7.481099e+000 -6.159642e+000 6.752505e+000 -5.587294e+000 -8.325891e+000 5.682570e-001 1.669038e+001 3.376605e-001 1.349600e-001 -1.537217e-001 2.402698e-001 1.009444e+000 -4.318518e-001 2.445506e-001 4.526399e-001 1.304174e-001 -9.343631e-002 -4.886245e-001 5.570583e-001 2.142987e-002 3.543977e-002 8.498494e-002 -1.672516e-001 4.466287e-002 7.144088e-002 9.039397e-002 2.706813e-001 -4.635306e-002 -3.443942e-002 1.137333e-001 4.525767e-001 -1.054457e-001 1.816640e-002
<VARIANCE> 39
 4.693385e+001 9.830219e+001 1.288349e+002 2.418061e+002 8.501436e+001 2.667046e+002 1.004247e+002 7.751958e+001 6.793206e+001 9.161097e+001 5.032143e+001 1.009702e+002 1.522301e+001 1.333570e+000 5.730230e+000 3.514713e+000 2.987355e+000 4.998823e+000 8.159151e+000 7.686412e+000 2.848874e+000 2.278768e+000 4.770258e+000 4.704346e+000 5.057317e+000 4.301866e-001 2.424593e-001 5.835660e-001 3.605412e-001 1.200653e+000 7.170483e-001 1.537385e+000 9.427114e-001 7.610157e-001 5.763053e-001 1.032768e+000 7.490296e-001 1.049188e+000 6.858358e-002
<GCONST> 1.388662e+002
<STATE> 3
<MEAN> 39
 -7.916954e+000 -9.370206e+000 -6.931265e+000 -1.751146e+001 5.866709e+000 -1.597616e+001 -9.989202e-001 -7.744770e+000 6.205671e+000 -5.159291e+000 -6.353651e+000 -5.656602e-001 1.817236e+001 5.489388e-001 -3.991288e-002 6.425406e-003 -1.637556e+000 3.226720e-001 6.772813e-001 -4.548048e-001 -2.637077e-001 7.287965e-002 7.185815e-001 2.671453e-001 -7.166198e-001 9.255083e-002 -2.407222e-002 4.183992e-002 -6.828528e-002 2.031725e-001 -2.558088e-001 4.823028e-001 -3.044125e-001 1.997731e-001 -2.908128e-001 -3.239747e-001 6.413857e-003 -1.069267e-001 -1.177579e-001
<VARIANCE> 39
 4.321817e+001 1.561602e+002 1.468507e+002 1.981335e+002 1.696550e+002 2.088920e+002 1.217550e+002 9.313017e+001 6.711118e+001 1.023645e+002 7.038076e+001 1.321641e+002 1.150618e+001 9.828712e-001 3.852128e+000 4.332592e+000 1.165248e+001 3.293056e+000 4.218847e+000 6.185144e+000 3.571661e+000 2.880538e+000 3.525704e+000 3.686292e+000 6.648837e+000 3.740371e-001 2.612292e-001 7.789215e-001 1.142771e+000 1.384383e+000 9.356669e-001 1.108860e+000 1.582138e+000 8.030750e-001 5.708583e-001 1.159811e+000 8.485395e-001 1.715501e+000 4.368450e-002
<GCONST> 1.424885e+002
<STATE> 4
<MEAN> 39
 -7.044262e+000 -1.355938e+000 -3.695145e+000 -1.874628e+001 -4.586707e+000 -9.784037e+000 -5.478091e+000 -8.481686e+000 5.943810e+000 -5.113805e+000 -5.887564e+000 -2.089744e+000 1.553989e+001 6.627355e-001 2.471241e-001 -1.112439e+000 4.413904e-001 -1.501692e-001 8.304745e-001 -5.449923e-001 8.670710e-001 -6.002238e-001 -2.309981e-001 3.344114e-001 -3.553184e-003 -3.741152e-001 -2.244112e-002 -8.965956e-002 -1.391349e-001 4.850860e-002 -1.037845e-002 2.106033e-001 7.040368e-002 1.481889e-001 -1.105220e-001 -1.517488e-001 -1.138622e-001 -1.624914e-001 2.175438e-002
<VARIANCE> 39
 4.877454e+001 1.028760e+002 1.542455e+002 1.517784e+002 1.976262e+002 1.673563e+002 9.432278e+001 8.928681e+001 6.842789e+001 1.271666e+002 7.190022e+001 8.588719e+001 1.441031e+001 1.254239e+000 1.413740e+000 2.263096e+000 5.439146e+000 3.157310e+000 4.657789e+000 6.966435e+000 3.108341e+000 2.601037e+000 4.325238e+000 2.836889e+000 3.627123e+000 1.444201e-001 1.845581e-001 2.632307e-001 2.874261e-001 6.097835e-001 6.323307e-001 7.516153e-001 1.029384e+000 5.086480e-001 6.473592e-001 1.050243e+000 6.194892e-001 4.592419e-001 1.587813e-002
<GCONST> 1.298920e+002
~t "T_n"
<ENDHMM>
~h "n^-j+aa"
<BEGINHMM>
<NUMSTATES> 5
<STATE> 2
<MEAN> 39
 -6.674060e+000 -1.970129e+001 -5.950005e+000 -2.367813e+001 3.965336e+000 -1.193606e+001 4.732125e+000 1.890559e+000 1.299640e-001 3.876448e-001 -1.193596e+001 3.476382e+000 1.924193e+001 -3.676990e-002 -3.969603e-001 -1.088096e-001 2.832115e-002 6.399111e-002 2.404276e-001 1.202813e-001 2.473870e-001 -7.189617e-002 -5.672137e-003 2.021732e-001 -1.270610e-001 3.055893e-002 1.286972e-002 5.724487e-002 1.888615e-002 4.674176e-003 -5.611839e-002 -1.556235e-002 -1.211842e-001 -7.698010e-002 1.059501e-002 -2.827294e-003 -7.072163e-003 -6.349000e-002 -9.385141e-003
<VARIANCE> 39
 2.112572e+001 3.886066e+001 1.562697e+002 2.759136e+001 9.890201e+001 6.115225e+001 5.156872e+001 8.418897e+001 6.269723e+001 1.139140e+002 1.493611e+002 4.228149e+001 1.842126e+000 1.467749e+000 3.076472e+000 4.642416e+000 2.982649e+000 4.709838e+000 3.120742e+000 3.256835e+000 4.099187e+000 4.964120e+000 4.876225e+000 1.283472e+001 4.329384e+000 6.900996e-002 2.020358e-001 3.139340e-001 4.810250e-001 4.916093e-001 5.535243e-001 5.148609e-001 5.316657e-001 6.078612e-001 7.438951e-001 9.169642e-001 2.185908e+000 6.803483e-001 9.073774e-003
<GCONST> 1.247485e+002
<STATE> 3
<MEAN> 39
 -7.513093e+000 -1.893579e+001 2.809565e+000 -2.150311e+001 1.900833e+000 -2.568184e+001 7.781971e+000 -6.307545e+000 -1.609119e+000 -1.765983e+001 -6.839395e+000 5.877492e+000 2.024767e+001 1.374778e-001 3.469368e-002 -2.525043e-001 2.786959e-001 -4.567062e-002 4.927929e-001 3.377568e-001 2.495132e-001 -3.320991e-001 -2.066289e-003 -1.703457e-001 -5.450774e-002 -6.886230e-002 4.244425e-002 1.611613e-002 -4.211178e-002 5.145543e-002 -1.240907e-002 3.874816e-002 -5.846296e-003 2.824488e-002 -8.016353e-003 2.848968e-002 -2.082624e-002 2.353019e-002 -1.850786e-002
<VARIANCE> 39
 1.057570e+001 1.472417e+001 2.063366e+001 1.852213e+001 2.961701e+001 5.020745e+001 4.977332e+001 4.126851e+001 3.555264e+001 4.225581e+001 4.051662e+001 3.607747e+001 2.114324e+000 4.837156e-001 7.935027e-001 1.244321e+000 1.108254e+000 1.321064e+000 2.022818e+000 2.328692e+000 2.706911e+000 4.090113e+000 3.513308e+000 2.072287e+000 2.058593e+000 5.702090e-002 7.488648e-002 1.141844e-001 2.490454e-001 2.070436e-001 2.560132e-001 4.382434e-001 4.165592e-001 5.352339e-001 9.425422e-001 7.206059e-001 4.290896e-001 3.410312e-001 3.657339e-003
<GCONST> 9.705876e+001
<STATE> 4
<MEAN> 39
 -1.135980e+001 -4.022477e+000 2.151496e+001 -3.198280e+001 -2.861319e+001 -1.355979e+001 -1.545890e+000 -9.855008e+000 5.528543e+000 1.569655e+001 -1.026510e+001 1.851062e+000 1.784808e+001 2.693802e-002 4.407587e-001 -3.192850e-001 4.607818e-001 -5.634558e-001 1.447248e-001 -6.982935e-001 -3.185165e-001 3.254841e-001 4.794895e-001 2.185324e-001 1.443838e-001 -2.514871e-001 -2.157730e-002 3.717378e-004 -3.078345e-002 2.757188e-002 3.187129e-002 -5.551546e-004 1.460629e-002 -1.593520e-002 -3.587642e-002 1.220126e-002 2.141603e-002 -7.482873e-003 -3.536175e-003
<VARIANCE> 39
 1.390525e+001 6.667656e+001 1.048760e+002 1.153124e+002 1.179497e+002 1.227453e+001 1.309334e+002 6.075177e+001 5.280092e+001 1.320991e+002 2.305432e+001 1.198790e+001 1.031349e+001 6.517053e-001 5.737022e-001 2.039045e+000 2.267827e+000 1.980039e+000 7.684508e-001 2.235549e+000 2.942870e+000 3.124644e+000 2.880548e+000 2.266275e+000 1.438040e+000 6.502800e-002 1.105627e-001 7.971858e-002 2.114389e-001 1.900325e-001 3.494178e-001 1.702487e-001 4.339682e-001 5.622367e-001 5.519336e-001 5.585005e-001 3.986226e-001 2.549275e-001 2.259668e-003
<GCONST> 1.027369e+002
<TRANSP> 5
 0.000000e+000 1.000000e+000 0.000000e+000 0.000000e+000 0.000000e+000
 0.000000e+000 9.301361e-001 6.986393e-002 0.000000e+000 0.000000e+000
 0.000000e+000 0.000000e+000 9.485829e-001 5.141712e-002 0.000000e+000
 0.000000e+000 0.000000e+000 0.000000e+000 8.979008e-001 1.020992e-001
 0.000000e+000 0.000000e+000 0.000000e+000 0.000000e+000 0.000000e+000
<ENDHMM>
~h "a-j^+ph"
<BEGINHMM>
<NUMSTATES> 5
<STATE> 2
<MEAN> 39
 -9.568539e+000 -2.275177e+001 -4.126549e+000 -2.108706e+001 3.778813e+000 -1.181651e+001 7.530210e+000 -9.140470e+000 1.547503e+000 -9.622665e+000 -2.562858e+000 -1.177706e+000 2.071247e+001 -3.974338e-001 -4.822739e-002 6.182778e-001 -6.148319e-001 -8.416765e-001 1.046797e-001 1.209344e+000 2.433196e-001 2.186520e-001 4.751364e-001 -4.403492e-001 -1.647338e-001 2.115276e-001 -1.777042e-001 4.641742e-001 3.168192e-001 3.457557e-001 -5.886141e-002 1.484936e-001 -1.973257e-001 2.724647e-001 -4.524108e-003 1.085703e-001 1.785813e-001 -4.005904e-003 -1.420757e-001
<VARIANCE> 39
 2.960647e+001 4.539493e+001 9.674427e+001 6.519408e+001 8.636466e+001 1.251983e+002 6.512048e+001 8.409684e+001 9.551495e+001 1.026789e+002 6.393049e+001 4.431971e+001 3.557860e+000 1.422722e+000 1.379560e+000 1.656825e+000 6.298212e+000 4.021988e+000 4.821276e+000 4.784347e+000 6.038990e+000 4.752627e+000 6.468857e+000 3.886331e+000 2.504414e+000 1.581686e-001 3.899931e-001 2.731211e-001 4.146991e-001 7.308077e-001 7.404817e-001 6.340044e-001 7.729034e-001 8.596810e-001 8.298612e-001 9.084964e-001 8.837676e-001 5.676793e-001 1.894964e-002
<GCONST> 1.276046e+002
<STATE> 3
<MEAN> 39
 -1.249853e+001 -1.910766e+001 4.146541e+000 -2.413480e+001 -3.726717e+000 -1.290525e+001 1.034003e+001 -1.244682e+001 -1.363514e+000 -8.413273e+000 -3.476873e+000 -3.888236e+000 2.148984e+001 -3.654343e-002 3.699110e-001 3.578085e-001 -5.836210e-001 -2.194022e-001 3.601208e-001 5.122039e-002 -1.240995e-001 -2.958062e-001 7.074378e-001 -2.189289e-001 -1.371315e-002 2.408021e-004 1.352041e-001 -6.245136e-002 -1.857226e-001 3.870620e-001 2.519054e-001 -4.079016e-002 -3.217474e-001 -1.230706e-001 -1.244755e-001 -2.470985e-001 4.275262e-002 8.330203e-002 -5.841757e-002
<VARIANCE> 39
 2.705877e+001 4.073496e+001 6.534000e+001 4.226059e+001 4.619714e+001 1.061814e+002 8.932430e+001 5.416066e+001 1.382502e+002 4.668181e+001 5.883517e+001 4.127832e+001 2.933494e+000 5.498141e-001 8.159215e-001 9.683677e-001 2.057053e+000 1.856395e+000 1.912898e+000 1.834181e+000 3.290314e+000 3.105880e+000 2.366226e+000 2.259775e+000 1.693322e+000 3.299099e-002 8.401427e-002 1.680496e-001 1.606554e-001 2.332800e-001 2.856731e-001 3.804051e-001 3.137342e-001 7.433302e-001 6.173384e-001 4.716774e-001 4.912340e-001 3.803718e-001 6.921379e-003
<GCONST> 1.050052e+002
<STATE> 4
<MEAN> 39
 -5.915781e+000 -2.119987e+001 -3.662729e+000 -1.798180e+001 9.195784e+000 -1.214061e+001 -1.442370e+000 -3.885593e+000 -4.950908e+000 -1.064806e+001 -6.678502e+000 -1.840168e+000 1.990809e+001 2.427651e-001 1.117438e-001 -1.292337e-001 2.672774e-001 1.263382e-001 1.300447e-001 -5.240004e-001 1.761218e-001 -2.680525e-001 8.788343e-003 -1.209954e-001 1.463389e-001 -9.118714e-002 -1.244721e-002 -2.883282e-003 -2.733763e-002 3.585698e-002 -4.267732e-002 -3.817161e-002 2.215281e-002 -2.206919e-002 3.674376e-002 -2.925918e-002 3.758488e-002 -1.068572e-002 -6.428428e-003
<VARIANCE> 39
 3.025121e+001 4.772027e+001 6.182662e+001 6.785904e+001 8.018350e+001 1.405315e+002 8.274025e+001 6.543017e+001 8.290670e+001 1.003346e+002 6.140909e+001 4.193484e+001 2.361953e+000 5.453237e-001 1.011716e+000 1.244753e+000 1.937942e+000 2.235271e+000 2.114613e+000 2.421988e+000 2.568925e+000 2.631344e+000 2.629760e+000 2.346993e+000 2.223930e+000 7.630024e-002 8.299123e-002 1.696321e-001 2.552302e-001 3.446600e-001 3.894646e-001 3.529658e-001 4.115869e-001 4.975175e-001 4.931486e-001 4.534843e-001 4.102441e-001 3.871724e-001 9.430232e-003
<GCONST> 1.093749e+002
<TRANSP> 5
 0.000000e+000 1.000000e+000 0.000000e+000 0.000000e+000 0.000000e+000
 0.000000e+000 5.536680e-001 4.463320e-001 0.000000e+000 0.000000e+000
 0.000000e+000 0.000000e+000 7.354065e-001 2.645936e-001 0.000000e+000
 0.000000e+000 0.000000e+000 0.000000e+000 8.785215e-001 1.214785e-001
 0.000000e+000 0.000000e+000 0.000000e+000 0.000000e+000 0.000000e+000
<ENDHMM>
~h "a-j^+th"
<BEGINHMM>
<NUMSTATES> 5
<STATE> 2
<MEAN> 39
 -9.568539e+000 -2.275177e+001 -4.126549e+000 -2.108706e+001 3.778813e+000 -1.181651e+001 7.530210e+000 -9.140470e+000 1.547503e+000 -9.622665e+000 -2.562858e+000 -1.177706e+000 2.071247e+001 -3.974338e-001 -4.822739e-002 6.182778e-001 -6.148319e-001 -8.416765e-001 1.046797e-001 1.209344e+000 2.433196e-001 2.186520e-001 4.751364e-001 -4.403492e-001 -1.647338e-001 2.115276e-001 -1.777042e-001 4.641742e-001 3.168192e-001 3.457557e-001 -5.886141e-002 1.484936e-001 -1.973257e-001 2.724647e-001 -4.524108e-003 1.085703e-001 1.785813e-001 -4.005904e-003 -1.420757e-001
<VARIANCE> 39
 2.960647e+001 4.539493e+001 9.674427e+001 6.519408e+001 8.636466e+001 1.251983e+002 6.512048e+001 8.409684e+001 9.551495e+001 1.026789e+002 6.393049e+001 4.431971e+001 3.557860e+000 1.422722e+000 1.379560e+000 1.656825e+000 6.298212e+000 4.021988e+000 4.821276e+000 4.784347e+000 6.038990e+000 4.752627e+000 6.468857e+000 3.886331e+000 2.504414e+000 1.581686e-001 3.899931e-001 2.731211e-001 4.146991e-001 7.308077e-001 7.404817e-001 6.340044e-001 7.729034e-001 8.596810e-001 8.298612e-001 9.084964e-001 8.837676e-001 5.676793e-001 1.894964e-002
<GCONST> 1.276046e+002
<STATE> 3
<MEAN> 39
 -1.249853e+001 -1.910766e+001 4.146541e+000 -2.413480e+001 -3.726717e+000 -1.290525e+001 1.034003e+001 -1.244682e+001 -1.363514e+000 -8.413273e+000 -3.476873e+000 -3.888236e+000 2.148984e+001 -3.654343e-002 3.699110e-001 3.578085e-001 -5.836210e-001 -2.194022e-001 3.601208e-001 5.122039e-002 -1.240995e-001 -2.958062e-001 7.074378e-001 -2.189289e-001 -1.371315e-002 2.408021e-004 1.352041e-001 -6.245136e-002 -1.857226e-001 3.870620e-001 2.519054e-001 -4.079016e-002 -3.217474e-001 -1.230706e-001 -1.244755e-001 -2.470985e-001 4.275262e-002 8.330203e-002 -5.841757e-002
<VARIANCE> 39
 2.705877e+001 4.073496e+001 6.534000e+001 4.226059e+001 4.619714e+001 1.061814e+002 8.932430e+001 5.416066e+001 1.382502e+002 4.668181e+001 5.883517e+001 4.127832e+001 2.933494e+000 5.498141e-001 8.159215e-001 9.683677e-001 2.057053e+000 1.856395e+000 1.912898e+000 1.834181e+000 3.290314e+000 3.105880e+000 2.366226e+000 2.259775e+000 1.693322e+000 3.299099e-002 8.401427e-002 1.680496e-001 1.606554e-001 2.332800e-001 2.856731e-001 3.804051e-001 3.137342e-001 7.433302e-001 6.173384e-001 4.716774e-001 4.912340e-001 3.803718e-001 6.921379e-003
<GCONST> 1.050052e+002
<STATE> 4
<MEAN> 39
 -5.915781e+000 -2.119987e+001 -3.662729e+000 -1.798180e+001 9.195784e+000 -1.214061e+001 -1.442370e+000 -3.885593e+000 -4.950908e+000 -1.064806e+001 -6.678502e+000 -1.840168e+000 1.990809e+001 2.427651e-001 1.117438e-001 -1.292337e-001 2.672774e-001 1.263382e-001 1.300447e-001 -5.240004e-001 1.761218e-001 -2.680525e-001 8.788343e-003 -1.209954e-001 1.463389e-001 -9.118714e-002 -1.244721e-002 -2.883282e-003 -2.733763e-002 3.585698e-002 -4.267732e-002 -3.817161e-002 2.215281e-002 -2.206919e-002 3.674376e-002 -2.925918e-002 3.758488e-002 -1.068572e-002 -6.428428e-003
<VARIANCE> 39
 3.025121e+001 4.772027e+001 6.182662e+001 6.785904e+001 8.018350e+001 1.405315e+002 8.274025e+001 6.543017e+001 8.290670e+001 1.003346e+002 6.140909e+001 4.193484e+001 2.361953e+000 5.453237e-001 1.011716e+000 1.244753e+000 1.937942e+000 2.235271e+000 2.114613e+000 2.421988e+000 2.568925e+000 2.631344e+000 2.629760e+000 2.346993e+000 2.223930e+000 7.630024e-002 8.299123e-002 1.696321e-001 2.552302e-001 3.446600e-001 3.894646e-001 3.529658e-001 4.115869e-001 4.975175e-001 4.931486e-001 4.534843e-001 4.102441e-001 3.871724e-001 9.430232e-003
<GCONST> 1.093749e+002
<TRANSP> 5
 0.000000e+000 1.000000e+000 0.000000e+000 0.000000e+000 0.000000e+000
 0.000000e+000 5.536680e-001 4.463320e-001 0.000000e+000 0.000000e+000
 0.000000e+000 0.000000e+000 7.354065e-001 2.645936e-001 0.000000e+000
 0.000000e+000 0.000000e+000 0.000000e+000 8.785215e-001 1.214785e-001
 0.000000e+000 0.000000e+000 0.000000e+000 0.000000e+000 0.000000e+000
<ENDHMM>
~h "uu-s+a"
<BEGINHMM>
<NUMSTATES> 5
<STATE> 2
<MEAN> 39
 -4.795282e+000 -1.533797e+001 -9.065659e+000 -2.485898e+001 1.277055e+001 -8.206781e+000 -3.025347e+000 -6.216752e+000 7.807719e-001 -8.416302e+000 -3.790836e+000 -3.327703e+000 2.018546e+001 3.472026e-001 -2.293442e-002 5.726377e-002 -2.491932e-002 -8.493780e-003 4.421429e-001 -6.611754e-002 9.028690e-002 -3.507759e-001 1.368806e-001 -5.321371e-002 5.464707e-002 -7.724214e-002 2.059705e-002 4.691830e-002 -3.958966e-002 9.194465e-002 -8.718718e-002 -8.043342e-002 -2.251240e-002 6.604835e-002 5.341467e-002 5.719381e-002 -6.416512e-002 5.888234e-002 -2.795139e-002
<VARIANCE> 39
 2.862550e+001 5.346189e+001 6.902412e+001 1.074069e+002 8.000976e+001 1.980463e+002 4.890130e+001 6.651183e+001 8.047493e+001 7.508408e+001 6.732778e+001 7.293875e+001 1.780422e+000 4.958567e-001 1.096536e+000 9.200549e-001 1.789786e+000 1.959814e+000 2.513274e+000 1.898539e+000 2.438613e+000 2.906400e+000 2.301653e+000 2.451018e+000 2.173470e+000 4.666759e-002 8.289295e-002 1.978677e-001 1.840596e-001 2.779423e-001 3.343120e-001 4.434227e-001 3.942892e-001 4.668143e-001 6.085007e-001 4.368865e-001 4.200943e-001 4.040337e-001 7.386425e-003
<GCONST> 1.082960e+002
<STATE> 3
<MEAN> 39
 -1.582026e+000 -1.219754e+001 -1.216927e+001 -1.848448e+001 5.847252e+000 -6.575485e+000 -1.288514e+000 -1.016404e+001 4.677752e+000 -8.957962e+000 -8.958494e+000 -7.166324e-001 1.871969e+001 3.945821e-002 -5.844985e-001 1.332693e-001 4.525071e-001 -4.358473e-001 2.920325e-001 3.772263e-001 4.238919e-001 1.703791e-001 6.740863e-001 -4.683540e-001 3.414407e-001 -2.858880e-002 -4.474081e-002 -1.274752e-001 4.359861e-003 6.741028e-002 -1.169367e-001 -4.754299e-002 -9.213557e-003 1.125011e-001 -1.613236e-002 7.880220e-002 1.209378e-001 4.121144e-002 1.822829e-002
<VARIANCE> 39
 4.789408e+001 8.931506e+001 1.483440e+002 1.817979e+002 1.287690e+002 2.051578e+002 7.903765e+001 2.042440e+002 1.524207e+002 1.193786e+002 8.407845e+001 6.370743e+001 2.843590e+000 1.209697e+000 2.727683e+000 2.939733e+000 4.906199e+000 3.709783e+000 5.477134e+000 4.040101e+000 5.619683e+000 4.198039e+000 4.161943e+000 4.261868e+000 2.066289e+000 1.776846e-001 1.628158e-001 4.507407e-001 4.195824e-001 7.708297e-001 5.940583e-001 6.018970e-001 6.092579e-001 8.958008e-001 9.181881e-001 9.176671e-001 8.110201e-001 4.049304e-001 2.683272e-002
<GCONST> 1.325793e+002
<STATE> 4
<MEAN> 39
 -4.152467e+000 -8.240452e+000 -3.612012e+000 -2.050039e+001 -1.419197e+000 -7.537044e+000 8.115675e-001 -1.355188e+001 6.048131e+000 -7.196994e+000 -9.027436e+000 6.782205e-001 1.804364e+001 2.948962e-001 -1.061149e-001 -2.497839e-001 5.079635e-001 -5.562597e-001 3.585613e-001 -5.699809e-001 4.394489e-001 -2.209418e-001 6.889496e-001 1.194755e-001 3.709088e-001 -1.616883e-001 9.141776e-003 2.569762e-002 -1.388256e-001 7.830717e-002 1.029963e-001 -2.084348e-002 -1.412631e-001 2.542148e-003 -1.189234e-001 -8.881827e-002 1.369490e-001 -9.297952e-002 -4.059156e-004
<VARIANCE> 39
 4.860070e+001 1.633477e+002 3.191161e+002 2.742066e+002 2.248197e+002 1.650371e+002 1.331855e+002 1.668358e+002 1.409877e+002 8.265359e+001 1.006208e+002 1.038550e+002 3.694786e+000 7.899235e-001 1.375521e+000 2.573645e+000 3.100747e+000 3.703514e+000 4.469291e+000 4.121761e+000 3.956917e+000 4.904980e+000 3.799643e+000 3.696283e+000 2.625741e+000 9.849303e-002 1.426509e-001 2.994823e-001 4.045500e-001 4.533632e-001 7.246570e-001 7.215717e-001 7.510539e-001 7.222297e-001 8.908162e-001 6.732498e-001 8.298141e-001 5.406653e-001 1.594078e-002
<GCONST> 1.315685e+002
~t "T_s"
<ENDHMM>
~h "a-l+aa"
<BEGINHMM>
<NUMSTATES> 5
<STATE> 2
<MEAN> 39
 -9.388931e+000 -3.286615e+000 -6.297842e+000 -2.499221e+000 2.060321e+000 -5.721475e-001 2.301297e+000 -3.205142e-001 2.878059e+000 -2.313398e+000 -1.330303e+000 4.198587e+000 1.362618e+001 -1.226304e-001 1.065703e+000 -2.053960e-002 4.279857e-001 -1.006538e-001 -1.479222e-002 4.820864e-001 1.249039e-002 -1.140804e-001 -9.444326e-002 2.970856e-001 9.587315e-003 -1.552509e-001 -6.023166e-002 7.544247e-002 -6.416377e-002 -3.123696e-001 -6.760911e-002 -2.459894e-002 3.435246e-002 -3.391838e-002 1.869005e-001 -3.673360e-002 -1.800775e-003 -6.789209e-002 3.337002e-002
<VARIANCE> 39
 6.749312e+001 1.784023e+002 2.561969e+002 1.577158e+002 1.367706e+002 2.651840e+002 9.796171e+001 1.441424e+002 1.076222e+002 1.116033e+002 7.517507e+001 9.661980e+001 1.797323e+001 1.425545e+000 1.769832e+000 4.688908e+000 5.305614e+000 3.331896e+000 1.030696e+001 5.099977e+000 6.718733e+000 3.958770e+000 4.181953e+000 3.332824e+000 3.277109e+000 1.850786e-001 3.465753e-001 2.607202e-001 5.826415e-001 1.004791e+000 7.906228e-001 1.783780e+000 1.150577e+000 1.070815e+000 7.820203e-001 7.766652e-001 8.148308e-001 6.919233e-001 4.797864e-002
<GCONST> 1.411320e+002
<STATE> 3
<MEAN> 39
 -8.124293e+000 -1.063402e-001 -1.359448e+001 -6.591977e+000 4.393966e-001 -1.490219e+001 5.434687e+000 -7.624359e+000 -7.961408e-002 -1.116235e+001 -6.916249e+000 -1.242618e+000 1.710095e+001 -8.944265e-001 1.186749e+000 -4.157449e-001 -6.975999e-001 6.111237e-001 -9.886120e-002 4.775037e-001 8.218707e-002 3.316994e-001 -2.145534e-001 1.387236e-001 -1.821459e-001 3.118633e-001 -1.942547e-001 -1.652229e-001 3.584191e-001 -2.772281e-001 -1.780504e-002 -3.149457e-002 -6.385560e-002 1.183674e-001 1.467314e-001 1.329539e-001 1.923484e-001 2.499559e-002 3.293181e-002
<VARIANCE> 39
 1.628214e+002 2.103613e+002 8.773112e+001 1.742406e+002 1.132112e+002 1.418034e+002 1.156559e+002 1.172035e+002 1.334403e+002 9.009132e+001 9.768626e+001 5.305649e+001 6.417849e+000 3.744893e+000 2.157111e+000 3.526393e+000 6.328147e+000 5.464499e+000 4.649177e+000 5.019463e+000 4.824630e+000 3.098050e+000 4.757336e+000 4.120692e+000 3.154287e+000 4.412360e-001 3.486198e-001 2.759162e-001 3.162495e-001 6.693944e-001 6.598598e-001 6.934966e-001 7.630095e-001 8.019402e-001 8.178803e-001 5.061246e-001 5.869877e-001 6.047491e-001 4.262955e-002
<GCONST> 1.365719e+002
<STATE> 4
<MEAN> 39
 -1.537544e+001 1.944702e+000 -9.136236e+000 -8.037040e+000 2.453836e+000 -1.632510e+001 6.182592e+000 -4.421599e+000 1.123473e+000 -1.208037e+001 -8.385633e-001 -3.581996e-002 1.851450e+001 -5.152093e-001 -3.371055e-002 1.043552e+000 -1.369922e+000 -6.540974e-001 -1.050219e+000 -1.965476e-001 8.424608e-001 3.866335e-001 9.945186e-001 7.866192e-001 2.117539e-001 1.806677e-001 4.150995e-001 -4.326816e-001 2.202951e-001 5.249418e-002 -2.268256e-001 -4.323100e-002 -2.559193e-001 -2.080594e-001 3.028170e-001 3.088792e-001 -1.657755e-001 -1.992502e-002 -8.267938e-002
<VARIANCE> 39
 1.879178e+002 1.869063e+002 1.231609e+002 2.321011e+002 1.138653e+002 1.414451e+002 1.484689e+002 1.306806e+002 1.312198e+002 1.060299e+002 1.211824e+002 4.354826e+001 5.478711e+000 4.671787e+000 1.947049e+000 4.703121e+000 5.206402e+000 3.793092e+000 4.429715e+000 4.905378e+000 4.807778e+000 6.128280e+000 7.838318e+000 3.840620e+000 3.217803e+000 1.993159e-001 5.915816e-001 5.071092e-001 5.347229e-001 9.656506e-001 9.182495e-001 6.254101e-001 1.170139e+000 7.465754e-001 1.220878e+000 1.183813e+000 4.763034e-001 4.174577e-001 3.999780e-002
<GCONST> 1.409180e+002
<TRANSP> 5
 0.000000e+000 1.000000e+000 0.000000e+000 0.000000e+000 0.000000e+000
 0.000000e+000 6.218809e-001 3.781191e-001 0.000000e+000 0.000000e+000
 0.000000e+000 0.000000e+000 4.561489e-001 5.438511e-001 0.000000e+000
 0.000000e+000 0.000000e+000 0.000000e+000 4.786061e-001 5.213939e-001
 0.000000e+000 0.000000e+000 0.000000e+000 0.000000e+000 0.000000e+000
<ENDHMM>
~h "a-l+ee"
<BEGINHMM>
<NUMSTATES> 5
<STATE> 2
<MEAN> 39
 -9.388931e+000 -3.286615e+000 -6.297842e+000 -2.499221e+000 2.060321e+000 -5.721475e-001 2.301297e+000 -3.205142e-001 2.878059e+000 -2.313398e+000 -1.330303e+000 4.198587e+000 1.362618e+001 -1.226304e-001 1.065703e+000 -2.053960e-002 4.279857e-001 -1.006538e-001 -1.479222e-002 4.820864e-001 1.249039e-002 -1.140804e-001 -9.444326e-002 2.970856e-001 9.587315e-003 -1.552509e-001 -6.023166e-002 7.544247e-002 -6.416377e-002 -3.123696e-001 -6.760911e-002 -2.459894e-002 3.435246e-002 -3.391838e-002 1.869005e-001 -3.673360e-002 -1.800775e-003 -6.789209e-002 3.337002e-002
<VARIANCE> 39
 6.749312e+001 1.784023e+002 2.561969e+002 1.577158e+002 1.367706e+002 2.651840e+002 9.796171e+001 1.441424e+002 1.076222e+002 1.116033e+002 7.517507e+001 9.661980e+001 1.797323e+001 1.425545e+000 1.769832e+000 4.688908e+000 5.305614e+000 3.331896e+000 1.030696e+001 5.099977e+000 6.718733e+000 3.958770e+000 4.181953e+000 3.332824e+000 3.277109e+000 1.850786e-001 3.465753e-001 2.607202e-001 5.826415e-001 1.004791e+000 7.906228e-001 1.783780e+000 1.150577e+000 1.070815e+000 7.820203e-001 7.766652e-001 8.148308e-001 6.919233e-001 4.797864e-002
<GCONST> 1.411320e+002
<STATE> 3
<MEAN> 39
 -8.124293e+000 -1.063402e-001 -1.359448e+001 -6.591977e+000 4.393966e-001 -1.490219e+001 5.434687e+000 -7.624359e+000 -7.961408e-002 -1.116235e+001 -6.916249e+000 -1.242618e+000 1.710095e+001 -8.944265e-001 1.186749e+000 -4.157449e-001 -6.975999e-001 6.111237e-001 -9.886120e-002 4.775037e-001 8.218707e-002 3.316994e-001 -2.145534e-001 1.387236e-001 -1.821459e-001 3.118633e-001 -1.942547e-001 -1.652229e-001 3.584191e-001 -2.772281e-001 -1.780504e-002 -3.149457e-002 -6.385560e-002 1.183674e-001 1.467314e-001 1.329539e-001 1.923484e-001 2.499559e-002 3.293181e-002
<VARIANCE> 39
 1.628214e+002 2.103613e+002 8.773112e+001 1.742406e+002 1.132112e+002 1.418034e+002 1.156559e+002 1.172035e+002 1.334403e+002 9.009132e+001 9.768626e+001 5.305649e+001 6.417849e+000 3.744893e+000 2.157111e+000 3.526393e+000 6.328147e+000 5.464499e+000 4.649177e+000 5.019463e+000 4.824630e+000 3.098050e+000 4.757336e+000 4.120692e+000 3.154287e+000 4.412360e-001 3.486198e-001 2.759162e-001 3.162495e-001 6.693944e-001 6.598598e-001 6.934966e-001 7.630095e-001 8.019402e-001 8.178803e-001 5.061246e-001 5.869877e-001 6.047491e-001 4.262955e-002
<GCONST> 1.365719e+002
<STATE> 4
<MEAN> 39
 -1.537544e+001 1.944702e+000 -9.136236e+000 -8.037040e+000 2.453836e+000 -1.632510e+001 6.182592e+000 -4.421599e+000 1.123473e+000 -1.208037e+001 -8.385633e-001 -3.581996e-002 1.851450e+001 -5.152093e-001 -3.371055e-002 1.043552e+000 -1.369922e+000 -6.540974e-001 -1.050219e+000 -1.965476e-001 8.424608e-001 3.866335e-001 9.945186e-001 7.866192e-001 2.117539e-001 1.806677e-001 4.150995e-001 -4.326816e-001 2.202951e-001 5.249418e-002 -2.268256e-001 -4.323100e-002 -2.559193e-001 -2.080594e-001 3.028170e-001 3.088792e-001 -1.657755e-001 -1.992502e-002 -8.267938e-002
<VARIANCE> 39
 1.879178e+002 1.869063e+002 1.231609e+002 2.321011e+002 1.138653e+002 1.414451e+002 1.484689e+002 1.306806e+002 1.312198e+002 1.060299e+002 1.211824e+002 4.354826e+001 5.478711e+000 4.671787e+000 1.947049e+000 4.703121e+000 5.206402e+000 3.793092e+000 4.429715e+000 4.905378e+000 4.807778e+000 6.128280e+000 7.838318e+000 3.840620e+000 3.217803e+000 1.993159e-001 5.915816e-001 5.071092e-001 5.347229e-001 9.656506e-001 9.182495e-001 6.254101e-001 1.170139e+000 7.465754e-001 1.220878e+000 1.183813e+000 4.763034e-001 4.174577e-001 3.999780e-002
<GCONST> 1.409180e+002
<TRANSP> 5
 0.000000e+000 1.000000e+000 0.000000e+000 0.000000e+000 0.000000e+000
 0.000000e+000 6.218809e-001 3.781191e-001 0.000000e+000 0.000000e+000
 0.000000e+000 0.000000e+000 4.561489e-001 5.438511e-001 0.000000e+000
 0.000000e+000 0.000000e+000 0.000000e+000 4.786061e-001 5.213939e-001
 0.000000e+000 0.000000e+000 0.000000e+000 0.000000e+000 0.000000e+000
<ENDHMM>
~h "oo-t^+f"
<BEGINHMM>
<NUMSTATES> 5
<STATE> 2
<MEAN> 39
 -7.749596e+000 -1.590283e+001 -7.901114e+000 -1.411742e+001 4.264931e+000 -1.687370e+001 1.426886e+000 -9.216222e+000 -1.512894e+000 -1.890028e+001 -5.208873e+000 -3.850934e+000 1.964145e+001 1.683610e-001 -2.192981e-001 -5.305206e-002 1.008657e-001 2.614085e-001 2.229286e-001 -3.221104e-001 9.149216e-002 5.340255e-002 3.685345e-002 1.054342e-001 -2.852859e-001 3.935878e-002 -1.982088e-002 1.203118e-001 1.501334e-002 7.666073e-002 -7.064899e-002 -6.142889e-002 -1.442251e-002 -5.736240e-002 4.016359e-002 8.140889e-002 -1.617310e-003 -4.189865e-002 -2.073771e-002
<VARIANCE> 39
 3.392962e+001 4.938871e+001 6.615085e+001 7.264967e+001 6.541135e+001 8.510245e+001 4.692250e+001 6.116133e+001 6.012928e+001 8.552174e+001 6.710758e+001 5.984552e+001 2.665090e+000 2.466606e+000 3.290971e+000 2.270439e+000 3.360303e+000 2.969928e+000 3.034964e+000 2.438589e+000 4.472715e+000 5.547756e+000 4.836480e+000 4.176265e+000 2.990694e+000 2.229348e-001 3.968790e-001 6.137384e-001 3.496660e-001 5.713560e-001 5.102770e-001 4.727408e-001 5.353708e-001 7.835318e-001 1.135877e+000 7.604938e-001 8.363944e-001 5.190794e-001 4.429217e-002
<GCONST> 1.256055e+002
<STATE> 3
<MEAN> 39
 -7.973516e+000 -2.137863e+001 -7.209531e+000 -1.277101e+001 1.195610e+001 -1.466292e+001 1.314632e+000 -6.868181e+000 -8.758210e-001 -1.213333e+001 -4.512963e+000 -2.028647e+000 2.072084e+001 6.735481e-002 -1.052198e-001 4.133015e-002 1.728917e-001 -5.478920e-003 3.300065e-001 1.912954e-001 -6.709895e-002 -5.022892e-002 2.016057e-001 -8.069098e-003 5.689356e-002 -5.931342e-002 1.092260e-002 4.303487e-002 -5.460239e-002 6.216550e-003 -5.074269e-002 2.019236e-002 5.058152e-002 5.001421e-002 2.572218e-002 4.568400e-003 2.066376e-002 5.760797e-002 -2.345457e-002
<VARIANCE> 39
 1.787561e+001 2.810262e+001 2.098920e+001 3.741460e+001 4.920534e+001 1.087795e+002 4.212069e+001 5.147455e+001 7.290473e+001 4.315522e+001 7.463763e+001 5.109953e+001 1.999673e+000 4.848756e-001 7.164113e-001 8.776209e-001 1.052980e+000 1.634676e+000 1.682324e+000 2.114900e+000 2.843457e+000 2.159249e+000 1.842042e+000 2.076253e+000 1.839767e+000 6.762366e-002 7.297531e-002 1.165911e-001 1.410841e-001 1.851112e-001 3.453931e-001 2.899902e-001 3.507477e-001 5.778562e-001 3.807034e-001 3.286603e-001 3.817038e-001 3.391085e-001 1.093795e-002
<GCONST> 9.857175e+001
<STATE> 4
<MEAN> 39
 -8.326310e+000 -2.390098e+001 -1.106542e+001 -8.472005e+000 1.096703e+001 3.191672e-001 2.810560e+000 -2.912839e+000 3.147368e+000 -8.722390e+000 -5.666846e+000 3.917061e-001 1.881659e+001 -1.294218e-002 9.866069e-002 -3.193601e-001 2.635527e-001 2.664433e-001 2.620504e-001 -3.461759e-001 1.065894e-001 -2.130398e-002 1.527281e-001 1.080764e-001 2.820788e-001 -1.289266e-001 -1.747389e-002 1.714331e-002 -1.729380e-002 1.619539e-002 3.373404e-002 -9.828944e-002 -8.188055e-002 -2.269942e-002 -3.780987e-002 -3.113004e-002 -1.376568e-002 2.670755e-002 1.134201e-003
<VARIANCE> 39
 3.332637e+001 4.117890e+001 5.040324e+001 1.025805e+002 8.793423e+001 9.250900e+001 9.787643e+001 6.716641e+001 8.296281e+001 7.862859e+001 9.044398e+001 5.003076e+001 2.109778e+000 1.420209e+000 1.048632e+000 1.462597e+000 2.971603e+000 2.399339e+000 2.677602e+000 3.316367e+000 2.885076e+000 3.339680e+000 4.214644e+000 3.294545e+000 2.084445e+000 7.724044e-002 2.326063e-001 1.738490e-001 2.590916e-001 4.731102e-001 3.159164e-001 3.771403e-001 4.995984e-001 4.871488e-001 5.622350e-001 6.454103e-001 5.530310e-001 2.624707e-001 9.318505e-003
<GCONST> 1.147236e+002
~t "T_t^"
<ENDHMM>
~h "n-@@+n^"
<BEGINHMM>
<NUMSTATES> 5
<STATE> 2
<MEAN> 39
 2.570222e+000 -1.453983e+001 -1.631037e+001 -1.478459e+001 5.349273e+000 1.147941e+000 -8.981739e+000 -5.908092e+000 -4.986114e+000 -4.458823e+000 -1.159788e+001 -4.783216e+000 1.775129e+001 3.289005e-001 5.342816e-001 -7.256201e-001 6.459269e-001 2.611643e-002 8.499873e-002 -3.150017e-001 -7.247235e-002 -3.083496e-001 -1.046203e-001 -1.514514e-001 -8.424739e-002 -1.809971e-001 -8.302423e-002 4.025079e-002 -7.181676e-003 -8.149843e-002 -1.548995e-002 5.740363e-003 1.242314e-001 2.579927e-002 1.500408e-001 -3.974706e-002 8.816171e-002 4.284489e-002 3.349631e-003
<VARIANCE> 39
 5.078170e+001 1.047657e+002 9.925009e+001 1.321008e+002 1.255457e+002 2.191596e+002 8.099911e+001 1.284959e+002 9.389507e+001 6.990709e+001 9.450743e+001 7.775732e+001 3.206560e+000 9.034644e-001 1.790912e+000 1.785500e+000 2.511134e+000 2.933790e+000 4.786908e+000 3.875723e+000 3.786215e+000 4.402389e+000 2.996272e+000 3.181452e+000 3.342081e+000 4.768839e-002 1.543183e-001 2.502649e-001 3.292906e-001 4.511767e-001 5.480134e-001 7.208018e-001 6.500154e-001 6.436771e-001 7.129688e-001 5.078260e-001 5.793843e-001 5.752499e-001 8.301803e-003
<GCONST> 1.234108e+002
<STATE> 3
<MEAN> 39
 -1.594177e-001 -2.676188e+000 -1.669618e+001 -8.808946e+000 -1.231389e+000 -2.752614e+000 -9.487635e+000 -8.660587e+000 -3.683134e+000 -5.444789e+000 -6.477396e+000 -2.476145e+000 1.456808e+001 -5.461139e-001 4.388783e-001 4.898798e-002 4.328564e-001 1.115979e-001 1.113830e-001 5.700598e-001 3.136500e-001 4.940876e-001 9.387305e-002 3.381482e-001 -8.314779e-002 -2.163687e-001 -2.179109e-001 -1.379848e-001 2.250867e-001 -1.507015e-001 5.675811e-002 -1.197107e-001 2.701601e-001 8.208878e-002 2.075902e-001 1.826935e-002 1.454405e-001 6.949818e-002 5.610652e-002
<VARIANCE> 39
 8.323592e+001 1.226166e+002 1.497731e+002 1.422235e+002 2.021063e+002 1.521037e+002 1.013901e+002 1.221531e+002 1.071108e+002 1.277500e+002 1.005424e+002 8.764903e+001 1.344524e+001 8.969213e-001 2.185852e+000 2.534889e+000 3.120495e+000 3.036830e+000 4.561959e+000 4.908652e+000 4.419678e+000 3.895210e+000 3.859626e+000 4.314209e+000 3.449459e+000 1.122426e-001 2.801091e-001 4.346027e-001 4.842740e-001 8.125846e-001 8.687889e-001 8.333697e-001 9.571196e-001 8.226740e-001 8.425667e-001 8.345538e-001 8.225128e-001 6.030845e-001 1.934294e-002
<GCONST> 1.349097e+002
<STATE> 4
<MEAN> 39
 -5.628407e+000 -1.877329e+000 -1.492954e+001 -1.607631e+001 2.724152e+000 -7.936249e+000 -2.066735e+000 -9.494999e+000 7.642078e-001 -6.893369e+000 -5.843050e+000 -1.938867e+000 1.755654e+001 -1.116926e+000 -9.812727e-001 8.124226e-001 -8.672304e-001 7.972319e-001 -4.970128e-001 8.225227e-001 6.297286e-001 6.846989e-001 -3.700879e-001 2.632785e-002 8.057922e-002 2.851214e-001 -2.809603e-002 -1.362409e-001 1.226876e-001 -7.507847e-002 4.823129e-002 3.569621e-002 -6.537739e-005 2.542669e-002 -8.752768e-002 -1.057813e-001 -1.054634e-002 3.740898e-002 6.434587e-002
<VARIANCE> 39
 9.776265e+001 2.537679e+002 1.190450e+002 2.380772e+002 1.534651e+002 1.913425e+002 1.004619e+002 1.201173e+002 1.054634e+002 1.164714e+002 8.337094e+001 7.000555e+001 9.023613e+000 4.949672e+000 1.065185e+001 7.255002e+000 1.189561e+001 1.129617e+001 1.155830e+001 9.671441e+000 6.715532e+000 7.509569e+000 6.548109e+000 7.835788e+000 5.408718e+000 2.874184e-001 6.624346e-001 1.185466e+000 1.166231e+000 1.708316e+000 1.802754e+000 1.887748e+000 1.423280e+000 1.063601e+000 1.397440e+000 1.023346e+000 1.046803e+000 7.900569e-001 5.121807e-002
<GCONST> 1.551685e+002
~t "T_@@"
<ENDHMM>
~h "m^-ph+a"
<BEGINHMM>
<NUMSTATES> 5
<STATE> 2
<MEAN> 39
 -1.777466e+001 -2.326120e+000 4.779796e+000 -1.481032e+001 4.917955e+000 -1.613791e+000 3.429894e+000 -8.487747e+000 7.879939e+000 -5.199470e+000 9.401730e-001 -8.035155e-002 1.753275e+001 -1.494735e-001 -2.203363e-001 1.329461e+000 -1.792193e+000 -8.823006e-001 -1.164672e+000 5.279448e-003 -1.424872e+000 1.555459e-001 -2.959761e-001 -9.936102e-002 -2.615573e-001 4.901071e-001 4.805224e-001 -1.274741e-001 -2.425544e-001 1.719315e-001 -4.237286e-001 -3.154758e-001 -2.117614e-001 8.553366e-002 -2.132502e-001 -4.644471e-002 -2.514091e-001 -1.093373e-001 -4.318078e-002
<VARIANCE> 39
 1.689653e+002 2.028520e+002 2.633606e+002 1.121638e+002 1.554945e+002 1.738533e+002 1.236626e+002 1.169984e+002 1.158553e+002 8.434724e+001 7.865826e+001 4.951918e+001 8.603158e+000 1.302947e+001 3.782885e+000 1.374255e+001 6.392599e+000 1.318624e+001 8.309487e+000 1.043332e+001 5.565703e+000 8.184916e+000 6.352503e+000 4.885592e+000 4.081046e+000 6.155074e-001 1.670599e+000 8.400669e-001 2.111156e+000 1.223591e+000 1.724470e+000 1.538323e+000 1.827619e+000 1.266333e+000 1.704890e+000 1.177011e+000 7.886909e-001 8.725851e-001 1.234903e-001
<GCONST> 1.567282e+002
<STATE> 3
<MEAN> 39
 -1.029177e+001 -6.498514e+000 8.609749e+000 -2.402643e+001 -9.290916e+000 -1.262502e+001 2.462086e+000 -1.363326e+001 4.820517e+000 -5.046833e+000 -5.333208e+000 -2.967903e+000 1.951398e+001 4.937812e-001 -1.289654e+000 -7.399300e-001 3.831358e-002 -9.259405e-001 -8.304892e-001 9.436949e-001 5.383182e-001 -4.408228e-001 1.685179e-001 -2.535077e-001 -5.048827e-001 2.311441e-001 -2.152684e-001 -3.522586e-002 -3.629462e-001 5.861438e-001 7.598746e-001 3.434160e-001 1.163814e-002 2.600079e-001 -7.115408e-002 -3.492870e-001 3.619216e-002 7.223356e-002 -8.486608e-002
<VARIANCE> 39
 5.276310e+001 1.655928e+002 2.891098e+002 1.201095e+002 2.770649e+002 1.722194e+002 1.402679e+002 9.800403e+001 9.605289e+001 1.087777e+002 9.697880e+001 3.968260e+001 5.122095e+000 3.234474e+000 5.970385e+000 5.917983e+000 5.712325e+000 8.023702e+000 7.674808e+000 8.560546e+000 4.941598e+000 5.275398e+000 7.353094e+000 5.162035e+000 4.507200e+000 2.365387e-001 5.089461e-001 5.835888e-001 9.600151e-001 7.749320e-001 1.665714e+000 1.171436e+000 1.740255e+000 1.085694e+000 1.244903e+000 1.239567e+000 1.043998e+000 7.677124e-001 3.678626e-002
<GCONST> 1.470674e+002
<STATE> 4
<MEAN> 39
 -7.415773e+000 -1.291138e+001 3.287804e-001 -2.126011e+001 -4.614045e+000 -1.370747e+001 3.794708e+000 -7.925677e+000 7.265574e+000 -9.657784e+000 -3.457449e-001 -1.066028e+000 1.959104e+001 4.010950e-001 8.994628e-002 -2.440678e-001 6.052249e-001 2.052567e-001 -3.146793e-001 -2.924385e-001 1.127664e-001 -4.264725e-001 -5.003882e-001 -4.956143e-001 -2.825477e-001 -1.297280e-001 5.557433e-002 1.406307e-001 1.686778e-002 1.578509e-001 1.191311e-001 1.328481e-001 -1.267857e-001 -9.965110e-002 -1.519811e-001 -4.417118e-003 -1.354454e-001 3.248839e-002 -6.796933e-002
<VARIANCE> 39
 4.290338e+001 1.265013e+002 1.604888e+002 1.361720e+002 2.223343e+002 2.554683e+002 8.119444e+001 7.886754e+001 9.418803e+001 1.099390e+002 9.375346e+001 6.562092e+001 5.224703e+000 1.015936e+000 2.748980e+000 3.318489e+000 2.544623e+000 4.113076e+000 3.408419e+000 4.571653e+000 3.372082e+000 3.837296e+000 3.797138e+000 3.220207e+000 2.752499e+000 1.105431e-001 1.640937e-001 3.227281e-001 3.168642e-001 4.860137e-001 4.411718e-001 5.915958e-001 7.299326e-001 5.489849e-001 6.866874e-001 9.267133e-001 6.710683e-001 5.668318e-001 2.139352e-002
<GCONST> 1.284686e+002
<TRANSP> 5
 0.000000e+000 1.000000e+000 0.000000e+000 0.000000e+000 0.000000e+000
 0.000000e+000 6.088611e-001 3.911389e-001 0.000000e+000 0.000000e+000
 0.000000e+000 0.000000e+000 5.088942e-001 4.911058e-001 0.000000e+000
 0.000000e+000 0.000000e+000 0.000000e+000 6.131827e-001 3.868173e-001
 0.000000e+000 0.000000e+000 0.000000e+000 0.000000e+000 0.000000e+000
<ENDHMM>
~h "a-w^+th"
<BEGINHMM>
<NUMSTATES> 5
<STATE> 2
<MEAN> 39
 -2.875225e+000 -2.121635e+001 -1.208473e+001 -2.303140e+001 8.589727e+000 -5.123335e+000 -4.836698e+000 -1.084997e+000 2.690413e+000 -4.125917e+000 -3.938947e+000 -5.041405e-001 1.935979e+001 5.110962e-001 1.737186e-001 -4.243804e-001 -9.797930e-002 -4.133399e-001 1.669931e-001 -5.852250e-001 6.782469e-001 1.006364e-001 3.389121e-001 4.748654e-001 2.308908e-001 -1.317666e-001 1.326837e-002 2.469156e-002 -2.322426e-002 1.296824e-001 -4.678155e-002 -2.743927e-002 5.617718e-002 2.765935e-002 -4.063066e-002 -1.910053e-002 -1.027432e-001 -3.348128e-002 -5.178052e-003
<VARIANCE> 39
 1.504764e+001 2.865349e+001 5.546866e+001 1.226327e+002 7.252292e+001 2.068373e+002 8.855588e+001 1.152529e+002 2.111185e+002 9.755096e+001 8.592053e+001 4.601103e+001 9.503756e-001 4.682043e-001 8.439674e-001 1.193763e+000 1.730371e+000 1.417456e+000 1.541436e+000 1.820837e+000 2.636748e+000 3.806394e+000 2.486663e+000 2.278402e+000 2.008739e+000 3.038084e-002 6.997400e-002 1.357123e-001 1.684316e-001 2.386824e-001 2.018262e-001 2.693328e-001 3.339565e-001 4.017751e-001 6.315559e-001 4.372627e-001 4.305640e-001 3.961866e-001 3.739362e-003
<GCONST> 1.045659e+002
<STATE> 3
<MEAN> 39
 6.242018e+000 -9.763153e+000 -2.001159e+001 -1.640788e+001 9.982180e+000 -3.159183e+000 -2.742276e+000 2.232381e+000 8.419166e+000 4.236289e+000 -5.908102e+000 3.541090e+000 1.783957e+001 5.986717e-001 8.050823e-001 -6.196525e-001 7.252717e-001 -3.683025e-001 3.936668e-001 4.057338e-003 2.775682e-001 -2.316164e-001 1.117668e-002 8.190789e-002 -2.409556e-001 -1.143580e-001 -6.755311e-002 1.612036e-002 1.081300e-001 6.989720e-002 2.479411e-002 -4.747795e-002 -1.266381e-002 -1.536626e-001 -2.543956e-001 -4.143613e-001 -1.496501e-001 -1.444468e-001 -4.258791e-003
<VARIANCE> 39
 4.199279e+001 8.097262e+001 9.928345e+001 1.114736e+002 1.399149e+002 1.203616e+002 8.088940e+001 1.990353e+002 9.808952e+001 1.059863e+002 6.233792e+001 5.435939e+001 1.765330e+000 4.912948e-001 1.160469e+000 1.133010e+000 2.330613e+000 2.389442e+000 3.529104e+000 2.779254e+000 5.022512e+000 5.937864e+000 5.340374e+000 3.035681e+000 3.114463e+000 2.696402e-002 8.556356e-002 2.919021e-001 1.624112e-001 3.891511e-001 5.166535e-001 5.235999e-001 5.798963e-001 8.928443e-001 1.038561e+000 7.106687e-001 5.143515e-001 4.731747e-001 5.585040e-003
<GCONST> 1.184302e+002
<STATE> 4
<MEAN> 39
 1.441890e+000 -6.930983e+000 -2.255789e+001 -1.659119e+001 4.958587e+000 2.453678e-001 -7.335242e+000 3.718408e+000 -5.777665e-001 -3.208211e+000 -2.453213e+000 -9.164637e-001 1.563350e+001 -4.500842e-001 1.440000e-001 1.390059e-001 7.812963e-001 -1.020870e-001 1.090928e-001 4.306661e-001 7.829916e-002 -3.657361e-001 -1.793534e-001 -6.534494e-002 -6.877716e-003 -2.109007e-001 -1.202508e-001 -3.364407e-002 7.879830e-002 -7.231557e-002 -1.206603e-002 7.320321e-002 1.762814e-001 1.385721e-001 8.513150e-002 1.527229e-001 3.694836e-002 7.883405e-003 1.713850e-003
<VARIANCE> 39
 7.279892e+001 1.019711e+002 8.464239e+001 2.515794e+002 1.220567e+002 1.415579e+002 9.693885e+001 9.095811e+001 8.917657e+001 7.990458e+001 6.275549e+001 6.126630e+001 9.662001e+000 1.706414e+000 2.711269e+000 2.708520e+000 4.283009e+000 4.317942e+000 3.738177e+000 4.294530e+000 5.422667e+000 5.939641e+000 5.755337e+000 5.056023e+000 4.900356e+000 1.298923e-001 2.416465e-001 2.834997e-001 3.757670e-001 6.865332e-001 6.997908e-001 5.500274e-001 5.561323e-001 8.415012e-001 1.048728e+000 9.451470e-001 8.414473e-001 8.447610e-001 1.991342e-002
<GCONST> 1.333881e+002
~t "T_w^"
<ENDHMM>
~h "iia-w^+ph"
<BEGINHMM>
<NUMSTATES> 5
<STATE> 2
<MEAN> 39
 -2.875225e+000 -2.121635e+001 -1.208473e+001 -2.303140e+001 8.589727e+000 -5.123335e+000 -4.836698e+000 -1.084997e+000 2.690413e+000 -4.125917e+000 -3.938947e+000 -5.041405e-001 1.935979e+001 5.110962e-001 1.737186e-001 -4.243804e-001 -9.797930e-002 -4.133399e-001 1.669931e-001 -5.852250e-001 6.782469e-001 1.006364e-001 3.389121e-001 4.748654e-001 2.308908e-001 -1.317666e-001 1.326837e-002 2.469156e-002 -2.322426e-002 1.296824e-001 -4.678155e-002 -2.743927e-002 5.617718e-002 2.765935e-002 -4.063066e-002 -1.910053e-002 -1.027432e-001 -3.348128e-002 -5.178052e-003
<VARIANCE> 39
 1.504764e+001 2.865349e+001 5.546866e+001 1.226327e+002 7.252292e+001 2.068373e+002 8.855588e+001 1.152529e+002 2.111185e+002 9.755096e+001 8.592053e+001 4.601103e+001 9.503756e-001 4.682043e-001 8.439674e-001 1.193763e+000 1.730371e+000 1.417456e+000 1.541436e+000 1.820837e+000 2.636748e+000 3.806394e+000 2.486663e+000 2.278402e+000 2.008739e+000 3.038084e-002 6.997400e-002 1.357123e-001 1.684316e-001 2.386824e-001 2.018262e-001 2.693328e-001 3.339565e-001 4.017751e-001 6.315559e-001 4.372627e-001 4.305640e-001 3.961866e-001 3.739362e-003
<GCONST> 1.045659e+002
<STATE> 3
<MEAN> 39
 6.242018e+000 -9.763153e+000 -2.001159e+001 -1.640788e+001 9.982180e+000 -3.159183e+000 -2.742276e+000 2.232381e+000 8.419166e+000 4.236289e+000 -5.908102e+000 3.541090e+000 1.783957e+001 5.986717e-001 8.050823e-001 -6.196525e-001 7.252717e-001 -3.683025e-001 3.936668e-001 4.057338e-003 2.775682e-001 -2.316164e-001 1.117668e-002 8.190789e-002 -2.409556e-001 -1.143580e-001 -6.755311e-002 1.612036e-002 1.081300e-001 6.989720e-002 2.479411e-002 -4.747795e-002 -1.266381e-002 -1.536626e-001 -2.543956e-001 -4.143613e-001 -1.496501e-001 -1.444468e-001 -4.258791e-003
<VARIANCE> 39
 4.199279e+001 8.097262e+001 9.928345e+001 1.114736e+002 1.399149e+002 1.203616e+002 8.088940e+001 1.990353e+002 9.808952e+001 1.059863e+002 6.233792e+001 5.435939e+001 1.765330e+000 4.912948e-001 1.160469e+000 1.133010e+000 2.330613e+000 2.389442e+000 3.529104e+000 2.779254e+000 5.022512e+000 5.937864e+000 5.340374e+000 3.035681e+000 3.114463e+000 2.696402e-002 8.556356e-002 2.919021e-001 1.624112e-001 3.891511e-001 5.166535e-001 5.235999e-001 5.798963e-001 8.928443e-001 1.038561e+000 7.106687e-001 5.143515e-001 4.731747e-001 5.585040e-003
<GCONST> 1.184302e+002
<STATE> 4
<MEAN> 39
 1.441890e+000 -6.930983e+000 -2.255789e+001 -1.659119e+001 4.958587e+000 2.453678e-001 -7.335242e+000 3.718408e+000 -5.777665e-001 -3.208211e+000 -2.453213e+000 -9.164637e-001 1.563350e+001 -4.500842e-001 1.440000e-001 1.390059e-001 7.812963e-001 -1.020870e-001 1.090928e-001 4.306661e-001 7.829916e-002 -3.657361e-001 -1.793534e-001 -6.534494e-002 -6.877716e-003 -2.109007e-001 -1.202508e-001 -3.364407e-002 7.879830e-002 -7.231557e-002 -1.206603e-002 7.320321e-002 1.762814e-001 1.385721e-001 8.513150e-002 1.527229e-001 3.694836e-002 7.883405e-003 1.713850e-003
<VARIANCE> 39
 7.279892e+001 1.019711e+002 8.464239e+001 2.515794e+002 1.220567e+002 1.415579e+002 9.693885e+001 9.095811e+001 8.917657e+001 7.990458e+001 6.275549e+001 6.126630e+001 9.662001e+000 1.706414e+000 2.711269e+000 2.708520e+000 4.283009e+000 4.317942e+000 3.738177e+000 4.294530e+000 5.422667e+000 5.939641e+000 5.755337e+000 5.056023e+000 4.900356e+000 1.298923e-001 2.416465e-001 2.834997e-001 3.757670e-001 6.865332e-001 6.997908e-001 5.500274e-001 5.561323e-001 8.415012e-001 1.048728e+000 9.451470e-001 8.414473e-001 8.447610e-001 1.991342e-002
<GCONST> 1.333881e+002
~t "T_w^"
<ENDHMM>
~h "iia-w^+th"
<BEGINHMM>
<NUMSTATES> 5
<STATE> 2
<MEAN> 39
 -2.875225e+000 -2.121635e+001 -1.208473e+001 -2.303140e+001 8.589727e+000 -5.123335e+000 -4.836698e+000 -1.084997e+000 2.690413e+000 -4.125917e+000 -3.938947e+000 -5.041405e-001 1.935979e+001 5.110962e-001 1.737186e-001 -4.243804e-001 -9.797930e-002 -4.133399e-001 1.669931e-001 -5.852250e-001 6.782469e-001 1.006364e-001 3.389121e-001 4.748654e-001 2.308908e-001 -1.317666e-001 1.326837e-002 2.469156e-002 -2.322426e-002 1.296824e-001 -4.678155e-002 -2.743927e-002 5.617718e-002 2.765935e-002 -4.063066e-002 -1.910053e-002 -1.027432e-001 -3.348128e-002 -5.178052e-003
<VARIANCE> 39
 1.504764e+001 2.865349e+001 5.546866e+001 1.226327e+002 7.252292e+001 2.068373e+002 8.855588e+001 1.152529e+002 2.111185e+002 9.755096e+001 8.592053e+001 4.601103e+001 9.503756e-001 4.682043e-001 8.439674e-001 1.193763e+000 1.730371e+000 1.417456e+000 1.541436e+000 1.820837e+000 2.636748e+000 3.806394e+000 2.486663e+000 2.278402e+000 2.008739e+000 3.038084e-002 6.997400e-002 1.357123e-001 1.684316e-001 2.386824e-001 2.018262e-001 2.693328e-001 3.339565e-001 4.017751e-001 6.315559e-001 4.372627e-001 4.305640e-001 3.961866e-001 3.739362e-003
<GCONST> 1.045659e+002
<STATE> 3
<MEAN> 39
 6.242018e+000 -9.763153e+000 -2.001159e+001 -1.640788e+001 9.982180e+000 -3.159183e+000 -2.742276e+000 2.232381e+000 8.419166e+000 4.236289e+000 -5.908102e+000 3.541090e+000 1.783957e+001 5.986717e-001 8.050823e-001 -6.196525e-001 7.252717e-001 -3.683025e-001 3.936668e-001 4.057338e-003 2.775682e-001 -2.316164e-001 1.117668e-002 8.190789e-002 -2.409556e-001 -1.143580e-001 -6.755311e-002 1.612036e-002 1.081300e-001 6.989720e-002 2.479411e-002 -4.747795e-002 -1.266381e-002 -1.536626e-001 -2.543956e-001 -4.143613e-001 -1.496501e-001 -1.444468e-001 -4.258791e-003
<VARIANCE> 39
 4.199279e+001 8.097262e+001 9.928345e+001 1.114736e+002 1.399149e+002 1.203616e+002 8.088940e+001 1.990353e+002 9.808952e+001 1.059863e+002 6.233792e+001 5.435939e+001 1.765330e+000 4.912948e-001 1.160469e+000 1.133010e+000 2.330613e+000 2.389442e+000 3.529104e+000 2.779254e+000 5.022512e+000 5.937864e+000 5.340374e+000 3.035681e+000 3.114463e+000 2.696402e-002 8.556356e-002 2.919021e-001 1.624112e-001 3.891511e-001 5.166535e-001 5.235999e-001 5.798963e-001 8.928443e-001 1.038561e+000 7.106687e-001 5.143515e-001 4.731747e-001 5.585040e-003
<GCONST> 1.184302e+002
<STATE> 4
<MEAN> 39
 1.441890e+000 -6.930983e+000 -2.255789e+001 -1.659119e+001 4.958587e+000 2.453678e-001 -7.335242e+000 3.718408e+000 -5.777665e-001 -3.208211e+000 -2.453213e+000 -9.164637e-001 1.563350e+001 -4.500842e-001 1.440000e-001 1.390059e-001 7.812963e-001 -1.020870e-001 1.090928e-001 4.306661e-001 7.829916e-002 -3.657361e-001 -1.793534e-001 -6.534494e-002 -6.877716e-003 -2.109007e-001 -1.202508e-001 -3.364407e-002 7.879830e-002 -7.231557e-002 -1.206603e-002 7.320321e-002 1.762814e-001 1.385721e-001 8.513150e-002 1.527229e-001 3.694836e-002 7.883405e-003 1.713850e-003
<VARIANCE> 39
 7.279892e+001 1.019711e+002 8.464239e+001 2.515794e+002 1.220567e+002 1.415579e+002 9.693885e+001 9.095811e+001 8.917657e+001 7.990458e+001 6.275549e+001 6.126630e+001 9.662001e+000 1.706414e+000 2.711269e+000 2.708520e+000 4.283009e+000 4.317942e+000 3.738177e+000 4.294530e+000 5.422667e+000 5.939641e+000 5.755337e+000 5.056023e+000 4.900356e+000 1.298923e-001 2.416465e-001 2.834997e-001 3.757670e-001 6.865332e-001 6.997908e-001 5.500274e-001 5.561323e-001 8.415012e-001 1.048728e+000 9.451470e-001 8.414473e-001 8.447610e-001 1.991342e-002
<GCONST> 1.333881e+002
~t "T_w^"
<ENDHMM>
~h "b-aa+n^"
<BEGINHMM>
<NUMSTATES> 5
<STATE> 2
<MEAN> 39
 -7.913989e+000 -1.748845e+001 9.428962e-002 -2.094168e+001 3.814853e+000 -1.163659e+001 6.865612e+000 -7.640153e+000 1.245794e+000 -6.578507e+000 -2.081805e+000 -2.028387e+000 2.015310e+001 1.929540e-001 2.697972e-001 1.208377e-001 -2.294449e-001 -3.915542e-001 1.068432e-001 -2.997146e-001 -2.501194e-001 -5.014576e-002 4.502654e-001 1.025020e-001 1.620761e-001 -1.072528e-001 2.712312e-002 2.644783e-002 -3.911639e-002 5.928118e-002 -7.829677e-003 -1.080993e-003 -1.049367e-001 3.194692e-002 -2.052874e-002 -3.557410e-002 -3.913319e-002 8.101478e-002 -1.978791e-002
<VARIANCE> 39
 2.581425e+001 4.821954e+001 6.678594e+001 1.027391e+002 1.435898e+002 1.580866e+002 1.002313e+002 5.941500e+001 7.298058e+001 4.923836e+001 7.804842e+001 6.562943e+001 2.638252e+000 4.604535e-001 7.270661e-001 1.330672e+000 1.629832e+000 2.950669e+000 2.218978e+000 2.523211e+000 2.160442e+000 2.689124e+000 2.505995e+000 2.183696e+000 2.503832e+000 5.013156e-002 8.146519e-002 1.086263e-001 2.094585e-001 2.515149e-001 3.961815e-001 3.113826e-001 4.332539e-001 4.123634e-001 4.643045e-001 4.370773e-001 3.897636e-001 4.360410e-001 8.744901e-003
<GCONST> 1.083343e+002
<STATE> 3
<MEAN> 39
 -5.698051e+000 -1.491454e+001 -1.656307e-001 -1.886843e+001 -2.509903e+000 -1.200346e+001 3.613707e+000 -8.634272e+000 2.326844e-001 -6.564282e+000 -3.468823e+000 9.137682e-001 1.800459e+001 3.878952e-001 2.718407e-001 -2.089034e-001 5.349397e-001 -1.365279e-001 4.004802e-001 -4.893899e-001 4.700902e-001 -3.070496e-001 -1.525698e-001 -2.962500e-001 3.673801e-003 -1.590461e-001 -2.699055e-002 -3.623228e-002 -6.790309e-002 2.262643e-001 1.335031e-001 1.365172e-001 1.689506e-001 4.938709e-002 -1.135192e-001 -2.440555e-001 -1.272600e-001 -1.002626e-001 1.438187e-002
<VARIANCE> 39
 3.756211e+001 6.423170e+001 7.763786e+001 1.492677e+002 1.636520e+002 1.077956e+002 1.576679e+002 6.920858e+001 7.756771e+001 7.889058e+001 9.284414e+001 9.113677e+001 1.789754e+000 9.325482e-001 9.791944e-001 1.578388e+000 2.555237e+000 2.462625e+000 2.912444e+000 4.430617e+000 2.852758e+000 3.066642e+000 3.855159e+000 2.999173e+000 3.096643e+000 5.903988e-002 1.220897e-001 1.413501e-001 3.234043e-001 3.949661e-001 4.471246e-001 5.623264e-001 7.512378e-001 4.784365e-001 4.998815e-001 6.123047e-001 5.645569e-001 5.573512e-001 6.515379e-003
<GCONST> 1.180286e+002
<STATE> 4
<MEAN> 39
 3.202489e-001 -1.738496e+001 -1.108450e+001 -4.352907e+000 2.859308e-001 -6.093379e+000 -6.007004e-001 -4.232119e+000 -7.222836e+000 -1.047178e+001 -9.632222e+000 1.769651e+000 1.675232e+001 1.465512e-001 6.192068e-001 -7.095306e-001 1.124308e+000 2.077803e-002 5.075878e-001 -2.225529e-001 1.382127e-001 -5.089231e-001 -4.548911e-001 -4.476922e-002 1.976826e-001 -2.064287e-001 -1.563884e-001 8.956131e-002 4.991411e-002 -7.899874e-002 7.923802e-002 -8.131241e-002 1.291354e-001 -3.814805e-002 2.249751e-001 1.965254e-002 1.121315e-001 1.394325e-002 4.472062e-003
<VARIANCE> 39
 4.810884e+001 6.988092e+001 1.319090e+002 1.400626e+002 2.203202e+002 1.128776e+002 1.663742e+002 1.835305e+002 1.146160e+002 8.032096e+001 1.367176e+002 8.571470e+001 3.494113e+000 1.089072e+000 1.353882e+000 2.543119e+000 2.714181e+000 2.292238e+000 3.073306e+000 3.853887e+000 4.145483e+000 3.641006e+000 3.335121e+000 3.416267e+000 2.617517e+000 5.629057e-002 1.855418e-001 2.069513e-001 3.862608e-001 5.041131e-001 5.025485e-001 5.674282e-001 8.473448e-001 7.475994e-001 7.578623e-001 8.011571e-001 6.092555e-001 4.945121e-001 1.061609e-002
<GCONST> 1.258200e+002
~t "T_aa"
<ENDHMM>
~h "@@-n^+d"
<BEGINHMM>
<NUMSTATES> 5
<STATE> 2
<MEAN> 39
 -1.038233e+001 -6.647824e+000 -7.640809e+000 -1.208455e+001 3.249578e+000 -7.803999e+000 3.973898e+000 -5.904874e+000 2.585083e+000 -1.110830e+001 -3.693663e+000 -1.489415e+000 1.716346e+001 -4.866493e-001 -1.406698e-001 4.385505e-003 -3.880909e-001 5.519305e-001 -2.025773e-001 2.733138e-001 -6.619089e-001 1.057763e-001 -4.072599e-001 1.743466e-001 -2.064636e-002 3.012643e-001 7.186217e-002 -2.711614e-003 3.449486e-002 -1.772313e-002 5.470139e-002 3.426660e-002 -7.070322e-002 -6.935916e-002 -4.023545e-002 2.471140e-001 1.618317e-002 1.080952e-001 1.206066e-002
<VARIANCE> 39
 9.010114e+001 1.560446e+002 1.500957e+002 1.365231e+002 2.348802e+002 1.472312e+002 2.074339e+002 1.589524e+002 1.296020e+002 1.577789e+002 8.541399e+001 7.054244e+001 9.171315e+000 5.432772e+000 5.172045e+000 5.548750e+000 5.945155e+000 6.736851e+000 7.464920e+000 8.025904e+000 1.070450e+001 9.411465e+000 7.525100e+000 5.968790e+000 4.193590e+000 3.682974e-001 6.987499e-001 6.952242e-001 7.687699e-001 7.347295e-001 9.237890e-001 1.112212e+000 1.357439e+000 1.416780e+000 1.476591e+000 1.201952e+000 9.826235e-001 7.254175e-001 4.944400e-002
<GCONST> 1.511565e+002
<STATE> 3
<MEAN> 39
 -9.902015e+000 -1.288020e+001 -6.020440e+000 -1.501475e+001 1.661292e+000 -1.048526e+001 5.373569e+000 -1.138260e+001 2.234156e+000 -1.149342e+001 -4.828317e+000 -3.182716e+000 1.921934e+001 3.664323e-002 4.407922e-002 6.222098e-002 -1.044405e-001 -4.767363e-001 -1.762325e-001 2.001178e-001 9.393750e-003 2.772605e-002 8.215929e-001 3.090018e-001 9.380711e-002 2.264541e-002 1.666036e-001 1.983257e-001 1.721297e-002 -8.548626e-002 -2.955400e-002 1.115916e-001 -3.362371e-001 3.004033e-002 -2.775951e-002 1.794873e-001 1.063969e-003 -1.049514e-002 -1.069472e-001
<VARIANCE> 39
 6.876505e+001 1.765308e+002 1.650199e+002 9.442976e+001 1.747998e+002 1.694891e+002 1.682797e+002 1.205361e+002 1.647899e+002 1.295301e+002 1.494975e+002 5.451640e+001 3.871809e+000 1.249989e+000 1.688372e+000 2.521269e+000 4.228229e+000 3.754246e+000 3.918019e+000 6.237725e+000 4.278175e+000 5.385403e+000 4.563940e+000 3.264310e+000 3.025371e+000 1.431747e-001 2.630492e-001 4.503986e-001 5.176400e-001 5.834593e-001 8.833362e-001 6.519284e-001 9.714678e-001 1.056006e+000 1.037826e+000 9.099717e-001 7.513486e-001 6.537654e-001 2.230166e-002
<GCONST> 1.354839e+002
<STATE> 4
<MEAN> 39
 -6.501848e+000 -1.651748e+001 -5.808763e+000 -1.524525e+001 7.042766e+000 -1.542575e+001 2.167411e+000 -8.488050e+000 -4.898922e-001 -9.336031e+000 -4.737001e+000 6.146008e-001 1.905312e+001 2.098764e-001 3.118402e-001 9.465491e-002 -1.539041e-002 -2.483509e-001 -7.360082e-002 -2.727179e-001 -6.749006e-002 1.103751e-002 2.690867e-001 -3.534448e-002 1.861799e-001 -1.203854e-001 3.267175e-002 1.558371e-002 1.592772e-002 2.043155e-002 -1.464409e-002 5.059596e-002 -2.946015e-002 4.616342e-002 1.927241e-002 -6.865221e-002 -6.203557e-002 -3.323684e-002 -3.538812e-003
<VARIANCE> 39
 3.471439e+001 7.729579e+001 6.532493e+001 7.098419e+001 1.557729e+002 1.160986e+002 6.978624e+001 7.905805e+001 1.262997e+002 8.510018e+001 7.130244e+001 6.167587e+001 2.828731e+000 9.727665e-001 1.246232e+000 1.436459e+000 2.235229e+000 2.962069e+000 2.890244e+000 4.110137e+000 2.674981e+000 3.832272e+000 3.664696e+000 2.922709e+000 2.638073e+000 1.088494e-001 1.355889e-001 1.922856e-001 3.010477e-001 3.962379e-001 4.942890e-001 4.890184e-001 5.842351e-001 5.203972e-001 8.406754e-001 6.676107e-001 5.347660e-001 5.087681e-001 1.528779e-002
<GCONST> 1.190703e+002
~t "T_n^"
<ENDHMM>
~h "@@-n^+f"
<BEGINHMM>
<NUMSTATES> 5
<STATE> 2
<MEAN> 39
 -1.038233e+001 -6.647824e+000 -7.640809e+000 -1.208455e+001 3.249578e+000 -7.803999e+000 3.973898e+000 -5.904874e+000 2.585083e+000 -1.110830e+001 -3.693663e+000 -1.489415e+000 1.716346e+001 -4.866493e-001 -1.406698e-001 4.385505e-003 -3.880909e-001 5.519305e-001 -2.025773e-001 2.733138e-001 -6.619089e-001 1.057763e-001 -4.072599e-001 1.743466e-001 -2.064636e-002 3.012643e-001 7.186217e-002 -2.711614e-003 3.449486e-002 -1.772313e-002 5.470139e-002 3.426660e-002 -7.070322e-002 -6.935916e-002 -4.023545e-002 2.471140e-001 1.618317e-002 1.080952e-001 1.206066e-002
<VARIANCE> 39
 9.010114e+001 1.560446e+002 1.500957e+002 1.365231e+002 2.348802e+002 1.472312e+002 2.074339e+002 1.589524e+002 1.296020e+002 1.577789e+002 8.541399e+001 7.054244e+001 9.171315e+000 5.432772e+000 5.172045e+000 5.548750e+000 5.945155e+000 6.736851e+000 7.464920e+000 8.025904e+000 1.070450e+001 9.411465e+000 7.525100e+000 5.968790e+000 4.193590e+000 3.682974e-001 6.987499e-001 6.952242e-001 7.687699e-001 7.347295e-001 9.237890e-001 1.112212e+000 1.357439e+000 1.416780e+000 1.476591e+000 1.201952e+000 9.826235e-001 7.254175e-001 4.944400e-002
<GCONST> 1.511565e+002
<STATE> 3
<MEAN> 39
 -9.902015e+000 -1.288020e+001 -6.020440e+000 -1.501475e+001 1.661292e+000 -1.048526e+001 5.373569e+000 -1.138260e+001 2.234156e+000 -1.149342e+001 -4.828317e+000 -3.182716e+000 1.921934e+001 3.664323e-002 4.407922e-002 6.222098e-002 -1.044405e-001 -4.767363e-001 -1.762325e-001 2.001178e-001 9.393750e-003 2.772605e-002 8.215929e-001 3.090018e-001 9.380711e-002 2.264541e-002 1.666036e-001 1.983257e-001 1.721297e-002 -8.548626e-002 -2.955400e-002 1.115916e-001 -3.362371e-001 3.004033e-002 -2.775951e-002 1.794873e-001 1.063969e-003 -1.049514e-002 -1.069472e-001
<VARIANCE> 39
 6.876505e+001 1.765308e+002 1.650199e+002 9.442976e+001 1.747998e+002 1.694891e+002 1.682797e+002 1.205361e+002 1.647899e+002 1.295301e+002 1.494975e+002 5.451640e+001 3.871809e+000 1.249989e+000 1.688372e+000 2.521269e+000 4.228229e+000 3.754246e+000 3.918019e+000 6.237725e+000 4.278175e+000 5.385403e+000 4.563940e+000 3.264310e+000 3.025371e+000 1.431747e-001 2.630492e-001 4.503986e-001 5.176400e-001 5.834593e-001 8.833362e-001 6.519284e-001 9.714678e-001 1.056006e+000 1.037826e+000 9.099717e-001 7.513486e-001 6.537654e-001 2.230166e-002
<GCONST> 1.354839e+002
<STATE> 4
<MEAN> 39
 -6.501848e+000 -1.651748e+001 -5.808763e+000 -1.524525e+001 7.042766e+000 -1.542575e+001 2.167411e+000 -8.488050e+000 -4.898922e-001 -9.336031e+000 -4.737001e+000 6.146008e-001 1.905312e+001 2.098764e-001 3.118402e-001 9.465491e-002 -1.539041e-002 -2.483509e-001 -7.360082e-002 -2.727179e-001 -6.749006e-002 1.103751e-002 2.690867e-001 -3.534448e-002 1.861799e-001 -1.203854e-001 3.267175e-002 1.558371e-002 1.592772e-002 2.043155e-002 -1.464409e-002 5.059596e-002 -2.946015e-002 4.616342e-002 1.927241e-002 -6.865221e-002 -6.203557e-002 -3.323684e-002 -3.538812e-003
<VARIANCE> 39
 3.471439e+001 7.729579e+001 6.532493e+001 7.098419e+001 1.557729e+002 1.160986e+002 6.978624e+001 7.905805e+001 1.262997e+002 8.510018e+001 7.130244e+001 6.167587e+001 2.828731e+000 9.727665e-001 1.246232e+000 1.436459e+000 2.235229e+000 2.962069e+000 2.890244e+000 4.110137e+000 2.674981e+000 3.832272e+000 3.664696e+000 2.922709e+000 2.638073e+000 1.088494e-001 1.355889e-001 1.922856e-001 3.010477e-001 3.962379e-001 4.942890e-001 4.890184e-001 5.842351e-001 5.203972e-001 8.406754e-001 6.676107e-001 5.347660e-001 5.087681e-001 1.528779e-002
<GCONST> 1.190703e+002
~t "T_n^"
<ENDHMM>
~h "@@-n^+l"
<BEGINHMM>
<NUMSTATES> 5
<STATE> 2
<MEAN> 39
 -1.038233e+001 -6.647824e+000 -7.640809e+000 -1.208455e+001 3.249578e+000 -7.803999e+000 3.973898e+000 -5.904874e+000 2.585083e+000 -1.110830e+001 -3.693663e+000 -1.489415e+000 1.716346e+001 -4.866493e-001 -1.406698e-001 4.385505e-003 -3.880909e-001 5.519305e-001 -2.025773e-001 2.733138e-001 -6.619089e-001 1.057763e-001 -4.072599e-001 1.743466e-001 -2.064636e-002 3.012643e-001 7.186217e-002 -2.711614e-003 3.449486e-002 -1.772313e-002 5.470139e-002 3.426660e-002 -7.070322e-002 -6.935916e-002 -4.023545e-002 2.471140e-001 1.618317e-002 1.080952e-001 1.206066e-002
<VARIANCE> 39
 9.010114e+001 1.560446e+002 1.500957e+002 1.365231e+002 2.348802e+002 1.472312e+002 2.074339e+002 1.589524e+002 1.296020e+002 1.577789e+002 8.541399e+001 7.054244e+001 9.171315e+000 5.432772e+000 5.172045e+000 5.548750e+000 5.945155e+000 6.736851e+000 7.464920e+000 8.025904e+000 1.070450e+001 9.411465e+000 7.525100e+000 5.968790e+000 4.193590e+000 3.682974e-001 6.987499e-001 6.952242e-001 7.687699e-001 7.347295e-001 9.237890e-001 1.112212e+000 1.357439e+000 1.416780e+000 1.476591e+000 1.201952e+000 9.826235e-001 7.254175e-001 4.944400e-002
<GCONST> 1.511565e+002
<STATE> 3
<MEAN> 39
 -9.902015e+000 -1.288020e+001 -6.020440e+000 -1.501475e+001 1.661292e+000 -1.048526e+001 5.373569e+000 -1.138260e+001 2.234156e+000 -1.149342e+001 -4.828317e+000 -3.182716e+000 1.921934e+001 3.664323e-002 4.407922e-002 6.222098e-002 -1.044405e-001 -4.767363e-001 -1.762325e-001 2.001178e-001 9.393750e-003 2.772605e-002 8.215929e-001 3.090018e-001 9.380711e-002 2.264541e-002 1.666036e-001 1.983257e-001 1.721297e-002 -8.548626e-002 -2.955400e-002 1.115916e-001 -3.362371e-001 3.004033e-002 -2.775951e-002 1.794873e-001 1.063969e-003 -1.049514e-002 -1.069472e-001
<VARIANCE> 39
 6.876505e+001 1.765308e+002 1.650199e+002 9.442976e+001 1.747998e+002 1.694891e+002 1.682797e+002 1.205361e+002 1.647899e+002 1.295301e+002 1.494975e+002 5.451640e+001 3.871809e+000 1.249989e+000 1.688372e+000 2.521269e+000 4.228229e+000 3.754246e+000 3.918019e+000 6.237725e+000 4.278175e+000 5.385403e+000 4.563940e+000 3.264310e+000 3.025371e+000 1.431747e-001 2.630492e-001 4.503986e-001 5.176400e-001 5.834593e-001 8.833362e-001 6.519284e-001 9.714678e-001 1.056006e+000 1.037826e+000 9.099717e-001 7.513486e-001 6.537654e-001 2.230166e-002
<GCONST> 1.354839e+002
<STATE> 4
<MEAN> 39
 -6.501848e+000 -1.651748e+001 -5.808763e+000 -1.524525e+001 7.042766e+000 -1.542575e+001 2.167411e+000 -8.488050e+000 -4.898922e-001 -9.336031e+000 -4.737001e+000 6.146008e-001 1.905312e+001 2.098764e-001 3.118402e-001 9.465491e-002 -1.539041e-002 -2.483509e-001 -7.360082e-002 -2.727179e-001 -6.749006e-002 1.103751e-002 2.690867e-001 -3.534448e-002 1.861799e-001 -1.203854e-001 3.267175e-002 1.558371e-002 1.592772e-002 2.043155e-002 -1.464409e-002 5.059596e-002 -2.946015e-002 4.616342e-002 1.927241e-002 -6.865221e-002 -6.203557e-002 -3.323684e-002 -3.538812e-003
<VARIANCE> 39
 3.471439e+001 7.729579e+001 6.532493e+001 7.098419e+001 1.557729e+002 1.160986e+002 6.978624e+001 7.905805e+001 1.262997e+002 8.510018e+001 7.130244e+001 6.167587e+001 2.828731e+000 9.727665e-001 1.246232e+000 1.436459e+000 2.235229e+000 2.962069e+000 2.890244e+000 4.110137e+000 2.674981e+000 3.832272e+000 3.664696e+000 2.922709e+000 2.638073e+000 1.088494e-001 1.355889e-001 1.922856e-001 3.010477e-001 3.962379e-001 4.942890e-001 4.890184e-001 5.842351e-001 5.203972e-001 8.406754e-001 6.676107e-001 5.347660e-001 5.087681e-001 1.528779e-002
<GCONST> 1.190703e+002
~t "T_n^"
<ENDHMM>
~h "@@-n^+n"
<BEGINHMM>
<NUMSTATES> 5
<STATE> 2
<MEAN> 39
 -1.038233e+001 -6.647824e+000 -7.640809e+000 -1.208455e+001 3.249578e+000 -7.803999e+000 3.973898e+000 -5.904874e+000 2.585083e+000 -1.110830e+001 -3.693663e+000 -1.489415e+000 1.716346e+001 -4.866493e-001 -1.406698e-001 4.385505e-003 -3.880909e-001 5.519305e-001 -2.025773e-001 2.733138e-001 -6.619089e-001 1.057763e-001 -4.072599e-001 1.743466e-001 -2.064636e-002 3.012643e-001 7.186217e-002 -2.711614e-003 3.449486e-002 -1.772313e-002 5.470139e-002 3.426660e-002 -7.070322e-002 -6.935916e-002 -4.023545e-002 2.471140e-001 1.618317e-002 1.080952e-001 1.206066e-002
<VARIANCE> 39
 9.010114e+001 1.560446e+002 1.500957e+002 1.365231e+002 2.348802e+002 1.472312e+002 2.074339e+002 1.589524e+002 1.296020e+002 1.577789e+002 8.541399e+001 7.054244e+001 9.171315e+000 5.432772e+000 5.172045e+000 5.548750e+000 5.945155e+000 6.736851e+000 7.464920e+000 8.025904e+000 1.070450e+001 9.411465e+000 7.525100e+000 5.968790e+000 4.193590e+000 3.682974e-001 6.987499e-001 6.952242e-001 7.687699e-001 7.347295e-001 9.237890e-001 1.112212e+000 1.357439e+000 1.416780e+000 1.476591e+000 1.201952e+000 9.826235e-001 7.254175e-001 4.944400e-002
<GCONST> 1.511565e+002
<STATE> 3
<MEAN> 39
