~o
<STREAMINFO> 1 39
<VECSIZE> 39<NULLD><MFCC_E_D_A><DIAGC>
~h "@"
<BEGINHMM>
<NUMSTATES> 5
<STATE> 2
<MEAN> 39
 -2.174433e+000 -5.704535e+000 -8.623154e+000 -5.164714e+000 2.900215e+000 -1.293927e+000 -4.655015e+000 -1.051256e+001 2.168278e+000 -1.566945e+000 -7.039618e+000 -6.119044e+000 1.646992e+001 -4.352099e-001 4.245975e-001 1.068408e-001 -2.802357e-001 -2.048799e-001 -6.544515e-001 4.724550e-002 -8.586665e-001 6.786528e-001 8.364884e-001 8.949575e-001 -3.700252e-001 1.007154e-001 -4.858158e-002 -1.453213e-001 1.101242e-001 -1.687792e-001 -2.750639e-002 -1.369312e-001 7.655066e-002 2.742558e-003 6.504548e-002 4.124337e-002 9.468268e-002 -8.553101e-002 6.337509e-002
<VARIANCE> 39
 9.047919e+001 1.104665e+002 2.577634e+002 1.189836e+002 2.064330e+002 2.250678e+002 1.106934e+002 1.079412e+002 8.826823e+001 1.410594e+002 1.061652e+002 1.133258e+002 5.377314e+000 5.324230e+000 4.697923e+000 6.018574e+000 5.388086e+000 9.466972e+000 1.175927e+001 8.104670e+000 6.546515e+000 8.296220e+000 9.776738e+000 5.261599e+000 3.943057e+000 2.900806e-001 9.725291e-001 8.730223e-001 9.367920e-001 9.178004e-001 1.647860e+000 1.891705e+000 1.216765e+000 1.130027e+000 1.472840e+000 1.745794e+000 8.842026e-001 7.554492e-001 4.700213e-002
<GCONST> 1.520567e+002
<STATE> 3
<MEAN> 39
 -3.511720e+000 -4.311856e+000 -6.395063e+000 -6.464215e+000 6.950173e-001 -3.547188e+000 -5.025293e+000 -1.297342e+001 4.241792e+000 1.601473e+000 -4.361941e+000 -8.207726e+000 1.712769e+001 -2.120010e-001 9.150397e-002 4.039045e-001 -2.742592e-001 -3.883893e-001 -5.670589e-001 -2.495231e-001 -4.150562e-001 3.415585e-001 2.839662e-001 5.166425e-001 -3.193941e-001 1.440031e-001 5.329758e-002 -8.776534e-002 1.648400e-002 5.772084e-003 -1.221261e-002 2.103849e-002 -4.361152e-002 1.358032e-001 -6.360847e-002 -1.317266e-001 -1.034111e-001 3.703918e-002 8.372342e-003
<VARIANCE> 39
 9.657422e+001 1.339279e+002 2.521689e+002 9.717396e+001 1.836591e+002 2.544671e+002 1.344839e+002 9.364895e+001 8.119986e+001 1.593904e+002 1.228497e+002 1.308501e+002 5.755347e+000 6.319344e+000 5.188972e+000 5.384257e+000 5.875080e+000 8.336637e+000 1.189589e+001 7.371902e+000 6.319995e+000 6.941360e+000 1.062337e+001 5.924020e+000 4.593668e+000 3.668807e-001 1.043209e+000 7.464060e-001 7.756594e-001 9.109375e-001 1.536029e+000 1.637467e+000 1.166351e+000 1.086255e+000 1.300219e+000 1.563542e+000 9.584168e-001 8.212492e-001 5.651050e-002
<GCONST> 1.524904e+002
<STATE> 4
<MEAN> 39
 -4.263555e+000 -2.785225e+000 -3.846802e+000 -7.133440e+000 -1.054634e+000 -5.824706e+000 -6.751998e+000 -1.354843e+001 4.893796e+000 1.515607e+000 -3.314208e+000 -8.789654e+000 1.743560e+001 -1.021856e-001 2.117602e-002 2.004473e-001 -1.619840e-001 -1.974653e-001 -4.903456e-001 -3.009062e-001 5.104869e-002 1.713249e-001 -2.007138e-001 1.146762e-001 4.622199e-002 7.723602e-002 6.127531e-003 -3.451218e-002 -4.654511e-002 -6.262043e-003 4.119734e-002 5.465198e-002 4.804796e-002 1.094483e-001 4.642162e-003 -5.231299e-002 -7.054717e-002 6.648889e-002 -1.459669e-004
<VARIANCE> 39
 9.998584e+001 1.438482e+002 2.127826e+002 1.084812e+002 1.585265e+002 2.613182e+002 1.416189e+002 9.215155e+001 8.044701e+001 1.607467e+002 1.290348e+002 1.481236e+002 5.476126e+000 5.831267e+000 4.242540e+000 4.296408e+000 5.818302e+000 7.062972e+000 9.042607e+000 6.070478e+000 5.676278e+000 5.567986e+000 7.183784e+000 5.628745e+000 4.978407e+000 3.291303e-001 9.080237e-001 5.761803e-001 6.107571e-001 8.524052e-001 1.283554e+000 1.239087e+000 1.043417e+000 1.048531e+000 1.031583e+000 1.102332e+000 8.967280e-001 7.641284e-001 4.740256e-002
<GCONST> 1.484211e+002
<TRANSP> 5
 0.000000e+000 1.000000e+000 0.000000e+000 0.000000e+000 0.000000e+000
 0.000000e+000 7.031043e-001 2.968957e-001 0.000000e+000 0.000000e+000
 0.000000e+000 0.000000e+000 7.320536e-001 2.679463e-001 0.000000e+000
 0.000000e+000 0.000000e+000 0.000000e+000 7.566047e-001 2.433953e-001
 0.000000e+000 0.000000e+000 0.000000e+000 0.000000e+000 0.000000e+000
<ENDHMM>
~h "a"
<BEGINHMM>
<NUMSTATES> 5
<STATE> 2
<MEAN> 39
 -4.419706e+000 -1.307461e+001 -5.394360e+000 -1.071943e+001 3.007361e+000 -1.527379e+000 1.161787e+000 -4.727288e+000 3.042587e+000 -7.034910e+000 -4.082060e+000 -8.360838e+000 1.845421e+001 5.065414e-002 -7.674210e-002 5.611353e-002 1.523913e-001 -1.554128e-001 -4.442687e-002 2.209276e-002 4.983553e-002 -7.707950e-002 -1.094463e-001 2.982455e-002 -2.244890e-002 -9.406573e-003 -2.471383e-002 2.395144e-002 1.261625e-002 -3.978003e-002 -2.548462e-002 -1.506548e-002 -1.042049e-002 -1.073679e-002 1.399394e-002 4.958996e-002 2.522807e-002 2.183991e-002 -2.313765e-003
<VARIANCE> 39
 5.250123e+001 9.506364e+001 1.343026e+002 1.262516e+002 1.328944e+002 1.711243e+002 1.002963e+002 9.931401e+001 1.080054e+002 1.111968e+002 8.659690e+001 7.625298e+001 7.036147e+000 2.056980e+000 2.809283e+000 3.767312e+000 4.027573e+000 3.798865e+000 4.241794e+000 4.222351e+000 4.671706e+000 4.619160e+000 4.002001e+000 3.721602e+000 3.343981e+000 2.212152e-001 3.188153e-001 3.993595e-001 5.980036e-001 5.632101e-001 6.430807e-001 6.726424e-001 7.334407e-001 7.882384e-001 8.192508e-001 6.950746e-001 6.360919e-001 5.870994e-001 2.836399e-002
<GCONST> 1.338282e+002
<STATE> 3
<MEAN> 39
 -4.371758e+000 -1.318814e+001 -4.924776e+000 -1.044502e+001 2.432498e+000 -1.801770e+000 1.219613e+000 -4.805983e+000 2.906238e+000 -7.029325e+000 -3.962257e+000 -8.466960e+000 1.844545e+001 6.930915e-002 1.689239e-002 4.649405e-002 3.277833e-002 -1.978766e-001 -2.345333e-002 -2.461693e-003 -2.642824e-003 -3.934385e-002 3.803262e-002 1.864970e-002 -2.984749e-002 -5.787445e-003 3.576217e-003 4.826368e-002 -4.276508e-003 -4.749352e-002 2.024279e-003 2.050063e-002 -1.800615e-002 -8.252230e-003 8.359339e-003 4.741470e-002 -6.426139e-003 1.101180e-002 -3.923126e-003
<VARIANCE> 39
 5.394760e+001 9.339104e+001 1.332570e+002 1.244566e+002 1.355043e+002 1.662430e+002 1.052876e+002 1.003474e+002 1.035047e+002 1.128475e+002 8.569967e+001 7.645104e+001 5.986868e+000 2.035180e+000 2.746096e+000 3.970091e+000 4.170681e+000 3.746275e+000 4.086619e+000 4.368864e+000 4.833237e+000 4.476834e+000 4.058433e+000 3.629275e+000 3.288151e+000 2.234493e-001 3.422892e-001 3.927555e-001 5.731279e-001 5.492666e-001 6.382040e-001 6.493737e-001 7.253963e-001 8.189139e-001 7.897987e-001 6.877921e-001 6.206782e-001 5.860742e-001 2.352113e-002
<GCONST> 1.333999e+002
<STATE> 4
<MEAN> 39
 -3.990718e+000 -1.280630e+001 -4.736582e+000 -1.037682e+001 1.840343e+000 -1.741676e+000 1.084956e+000 -4.965906e+000 2.677163e+000 -6.593176e+000 -4.085439e+000 -8.622323e+000 1.838770e+001 1.293531e-001 1.791911e-001 -4.432444e-003 -6.270878e-002 -1.781232e-001 7.197561e-002 -1.033933e-001 -8.565266e-003 -6.319509e-002 1.639173e-001 -4.220407e-002 -1.250347e-003 -2.668332e-002 -3.769494e-002 4.284784e-002 1.734144e-002 -3.704894e-002 2.864053e-002 -3.679096e-003 -3.154648e-002 -1.321603e-002 1.505472e-002 2.880653e-002 -2.991376e-003 3.464034e-002 -8.814384e-003
<VARIANCE> 39
 5.501352e+001 9.686257e+001 1.379301e+002 1.278082e+002 1.328918e+002 1.649764e+002 1.106165e+002 9.892581e+001 1.013341e+002 1.115159e+002 8.355785e+001 7.479716e+001 5.809933e+000 1.780483e+000 2.331200e+000 3.399067e+000 3.945322e+000 3.509191e+000 3.841766e+000 4.308133e+000 4.727192e+000 4.224535e+000 4.132481e+000 3.430323e+000 3.072586e+000 1.958303e-001 3.350092e-001 3.967610e-001 5.251458e-001 5.709276e-001 6.276901e-001 6.640126e-001 7.273211e-001 8.230640e-001 7.619070e-001 6.994423e-001 6.132875e-001 5.649428e-001 2.281360e-002
<GCONST> 1.323019e+002
<TRANSP> 5
 0.000000e+000 1.000000e+000 0.000000e+000 0.000000e+000 0.000000e+000
 0.000000e+000 5.825121e-001 4.174878e-001 0.000000e+000 0.000000e+000
 0.000000e+000 0.000000e+000 5.821596e-001 4.178404e-001 0.000000e+000
 0.000000e+000 0.000000e+000 0.000000e+000 5.828251e-001 4.171749e-001
 0.000000e+000 0.000000e+000 0.000000e+000 0.000000e+000 0.000000e+000
<ENDHMM>
~h "b"
<BEGINHMM>
<NUMSTATES> 5
<STATE> 2
<MEAN> 39
 -2.741107e+000 -1.080173e+001 -5.565679e+000 -1.327319e+001 -3.479833e+000 4.155827e+000 2.850616e+000 4.262576e-001 -1.274779e+000 2.135962e-001 -5.228022e-001 -7.845920e+000 1.765075e+001 -4.099559e-002 2.049826e-001 -4.521694e-001 3.607170e-001 -1.904591e-001 3.973168e-001 -1.313172e-001 1.913628e-001 2.931682e-003 -2.241248e-002 1.150191e-001 1.513149e-001 -1.561966e-001 -7.051442e-003 5.735406e-002 3.678226e-003 3.943416e-003 6.475532e-003 -5.583249e-003 -3.384465e-002 -6.805674e-002 8.319329e-003 -4.115585e-002 -3.017688e-002 -2.830335e-002 -3.661486e-003
<VARIANCE> 39
 3.340318e+001 1.211723e+002 3.818238e+002 9.723502e+001 1.186911e+002 1.576751e+002 8.053727e+001 1.134452e+002 7.224822e+001 8.000964e+001 7.576785e+001 7.108704e+001 5.668137e+000 4.207897e-001 8.184646e-001 1.361948e+000 1.686911e+000 1.782545e+000 1.703058e+000 2.350202e+000 2.649043e+000 2.289955e+000 2.384913e+000 1.913808e+000 1.463367e+000 3.052335e-002 5.510296e-002 1.314972e-001 1.837654e-001 2.663021e-001 2.730459e-001 2.838479e-001 4.487610e-001 5.054057e-001 3.836878e-001 4.201374e-001 3.587959e-001 2.482324e-001 4.001787e-003
<GCONST> 1.086441e+002
<STATE> 3
<MEAN> 39
 -2.348052e+000 -6.550305e+000 -1.116119e+001 -1.024480e+001 -4.499801e+000 7.448782e+000 1.706605e+000 9.333180e-001 2.717694e-001 -9.905588e-001 -3.587675e-001 -6.376451e+000 1.595024e+001 -1.312512e-001 4.798432e-001 -4.739383e-001 3.789209e-001 -1.532401e-001 4.006434e-001 7.144134e-002 1.104228e-001 2.566841e-002 -2.365919e-001 -2.109105e-002 7.753775e-002 -1.869021e-001 -1.797688e-002 1.811158e-002 3.586697e-002 5.536030e-003 2.026036e-002 -2.388502e-002 4.596569e-002 -4.094172e-002 -8.453541e-003 -4.196395e-002 -4.188728e-002 -4.554068e-002 3.277744e-003
<VARIANCE> 39
 4.594751e+001 1.478695e+002 4.806974e+002 1.508464e+002 1.492011e+002 1.736362e+002 8.578869e+001 1.144374e+002 7.307832e+001 9.139199e+001 7.339664e+001 7.896960e+001 6.788002e+000 5.023942e-001 8.838646e-001 1.527292e+000 2.008722e+000 2.227816e+000 2.015630e+000 2.712124e+000 3.084342e+000 2.732324e+000 2.607633e+000 1.995689e+000 1.514492e+000 3.504590e-002 6.993011e-002 1.443781e-001 2.226830e-001 3.095558e-001 3.681799e-001 3.327856e-001 4.689916e-001 5.970801e-001 4.922928e-001 4.593583e-001 3.629482e-001 2.647194e-001 5.369727e-003
<GCONST> 1.143886e+002
<STATE> 4
<MEAN> 39
 -3.139571e+000 -2.803103e+000 -1.548582e+001 -8.879579e+000 -5.225428e+000 8.960095e+000 1.704193e+000 3.946423e-001 1.029030e+000 -1.818383e+000 -1.053435e+000 -6.313688e+000 1.445170e+001 -3.029400e-001 4.011885e-001 -2.359863e-001 3.488926e-001 2.153596e-002 1.530880e-001 1.663687e-001 9.808251e-002 1.182305e-001 -2.638373e-001 -2.084103e-001 -8.542569e-002 -1.843711e-001 -4.542034e-002 -2.308601e-002 9.399585e-002 1.789715e-003 1.345618e-003 -8.485337e-002 -5.324110e-002 -6.976867e-002 7.459258e-003 1.122478e-002 2.790554e-002 7.561789e-003 1.616449e-003
<VARIANCE> 39
 4.945610e+001 1.501621e+002 4.225457e+002 1.716609e+002 1.670749e+002 1.674517e+002 7.200697e+001 8.587750e+001 6.624284e+001 7.364753e+001 6.229913e+001 7.272804e+001 1.022915e+001 5.451176e-001 9.218956e-001 1.672484e+000 2.096207e+000 2.331480e+000 2.164270e+000 2.915790e+000 3.417301e+000 3.500160e+000 3.031515e+000 2.526229e+000 2.005193e+000 4.866860e-002 9.186297e-002 1.827571e-001 3.334285e-001 3.926577e-001 3.622106e-001 3.440939e-001 4.683856e-001 5.728322e-001 5.890352e-001 5.519190e-001 4.271957e-001 3.790756e-001 1.010097e-002
<GCONST> 1.183753e+002
<TRANSP> 5
 0.000000e+000 1.000000e+000 0.000000e+000 0.000000e+000 0.000000e+000
 0.000000e+000 8.156597e-001 1.843403e-001 0.000000e+000 0.000000e+000
 0.000000e+000 0.000000e+000 7.043445e-001 2.956556e-001 0.000000e+000
 0.000000e+000 0.000000e+000 0.000000e+000 6.713058e-001 3.286942e-001
 0.000000e+000 0.000000e+000 0.000000e+000 0.000000e+000 0.000000e+000
<ENDHMM>
~h "d"
<BEGINHMM>
<NUMSTATES> 5
<STATE> 2
<MEAN> 39
 -3.530395e+000 -6.986571e+000 6.926361e+000 -1.248481e+001 -5.936593e+000 -8.692432e+000 -3.228246e-001 -5.354648e+000 -1.089481e+000 -2.893619e+000 -1.838711e+000 -8.273766e+000 1.810269e+001 -1.869638e-001 9.101013e-002 7.981467e-001 -3.587581e-002 -6.926917e-001 -3.835993e-001 1.519882e-001 -5.655939e-002 -2.135751e-002 1.413213e-001 2.147230e-001 -1.500668e-001 3.246303e-002 -3.424615e-002 -5.005435e-002 -1.141958e-002 -2.605952e-002 2.996165e-002 -2.518220e-003 4.646569e-002 -4.697312e-002 8.549333e-002 -1.148392e-002 -5.263964e-003 -3.071990e-002 3.025824e-002
<VARIANCE> 39
 3.682605e+001 6.546755e+001 1.748964e+002 1.027219e+002 1.516898e+002 1.606766e+002 1.033452e+002 1.061531e+002 9.957430e+001 9.266099e+001 8.605608e+001 9.837467e+001 4.904881e+000 2.131388e+000 3.361814e+000 5.953322e+000 4.096106e+000 6.209688e+000 7.407997e+000 6.738681e+000 6.386958e+000 5.931382e+000 4.751490e+000 3.700065e+000 4.073040e+000 2.715318e-001 3.189462e-001 5.718824e-001 8.048992e-001 5.770429e-001 1.031685e+000 1.272014e+000 1.132084e+000 1.046215e+000 1.153291e+000 8.586052e-001 6.763857e-001 6.232566e-001 3.736049e-002
<GCONST> 1.397429e+002
<STATE> 3
<MEAN> 39
 -4.748952e+000 -5.636254e+000 1.189604e+001 -1.184866e+001 -1.093136e+001 -1.009751e+001 4.170766e-002 -6.302877e+000 -1.334524e+000 -1.206733e+000 -1.932427e-001 -9.786058e+000 1.836972e+001 -1.323475e-001 1.228175e-001 2.100406e-001 -6.019127e-002 -1.603347e-001 -7.293328e-002 -2.352099e-002 -1.379494e-001 1.058189e-001 2.040946e-001 3.580986e-002 -1.156337e-001 2.759858e-002 2.400759e-003 1.601035e-002 -6.565796e-002 3.226993e-004 7.980820e-002 2.992860e-002 1.400839e-002 -2.858393e-002 2.992893e-003 -7.048942e-003 -1.227756e-002 5.883193e-003 4.550400e-003
<VARIANCE> 39
 4.200943e+001 7.871316e+001 1.553512e+002 9.663641e+001 1.573550e+002 1.181391e+002 8.522885e+001 1.153957e+002 1.026615e+002 9.739342e+001 8.725150e+001 6.983262e+001 5.749440e+000 2.580393e+000 3.116469e+000 4.911900e+000 3.856721e+000 6.604888e+000 5.524564e+000 5.471023e+000 5.740083e+000 5.234479e+000 4.714701e+000 3.296297e+000 3.644805e+000 2.944845e-001 4.043134e-001 4.991732e-001 7.576824e-001 5.535807e-001 1.066365e+000 1.023886e+000 9.416372e-001 1.026669e+000 9.440070e-001 8.500131e-001 5.776277e-001 6.464707e-001 4.065747e-002
<GCONST> 1.378125e+002
<STATE> 4
<MEAN> 39
 -6.213338e+000 -4.602191e+000 1.410148e+001 -1.254245e+001 -1.261329e+001 -9.059752e+000 -6.280443e-001 -6.211076e+000 -1.197986e+000 9.551762e-001 1.700446e-001 -1.043099e+001 1.831221e+001 3.068732e-002 -5.865317e-002 -1.954919e-001 -9.202956e-002 2.827133e-001 2.650277e-001 5.339091e-002 -3.000702e-002 -3.005763e-002 3.398092e-002 -8.709438e-002 -1.068713e-001 8.081806e-003 2.585781e-002 2.415771e-002 -1.675615e-002 2.526957e-003 4.498478e-003 2.714190e-002 7.552210e-003 -1.815336e-003 -4.743654e-002 5.893288e-003 -1.628917e-002 7.914654e-003 -8.530223e-003
<VARIANCE> 39
 4.187682e+001 1.050450e+002 1.743096e+002 1.003816e+002 1.998134e+002 1.279845e+002 8.174576e+001 1.191515e+002 1.078854e+002 9.674780e+001 8.240222e+001 6.575000e+001 6.673589e+000 2.755663e+000 4.024995e+000 4.758716e+000 3.643618e+000 7.573420e+000 5.032187e+000 4.171817e+000 5.400856e+000 5.352856e+000 5.069795e+000 3.414484e+000 3.861155e+000 3.122155e-001 4.605779e-001 6.170893e-001 7.638529e-001 5.524831e-001 1.195940e+000 8.352958e-001 7.506160e-001 8.995377e-001 9.470705e-001 8.906105e-001 5.640898e-001 6.729096e-001 4.047710e-002
<GCONST> 1.387882e+002
<TRANSP> 5
 0.000000e+000 1.000000e+000 0.000000e+000 0.000000e+000 0.000000e+000
 0.000000e+000 8.213034e-001 1.786965e-001 0.000000e+000 0.000000e+000
 0.000000e+000 0.000000e+000 8.588763e-001 1.411237e-001 0.000000e+000
 0.000000e+000 0.000000e+000 0.000000e+000 9.121940e-001 8.780596e-002
 0.000000e+000 0.000000e+000 0.000000e+000 0.000000e+000 0.000000e+000
<ENDHMM>
~h "f"
<BEGINHMM>
<NUMSTATES> 5
<STATE> 2
<MEAN> 39
 -3.902434e+000 1.999675e-001 -2.011773e+000 -9.630631e+000 -5.374385e+000 -3.516030e+000 -6.629117e+000 -7.087936e+000 9.546313e-001 -3.193383e+000 -3.286689e+000 -6.449481e+000 1.571015e+001 -7.794667e-002 -1.370281e-001 1.457546e-002 -6.043965e-001 1.891653e-001 -1.062516e+000 -3.637078e-001 -3.398126e-001 6.005793e-001 4.753430e-003 -2.771204e-001 7.212595e-002 1.570389e-001 3.138793e-002 -1.486298e-001 2.835318e-002 -1.151667e-001 1.193425e-001 -6.563996e-002 -4.053089e-002 -5.677708e-002 1.276281e-001 4.536796e-003 -3.352441e-002 -1.812222e-003 5.206239e-002
<VARIANCE> 39
 1.058233e+002 1.122784e+002 2.126321e+002 1.857457e+002 1.748098e+002 1.958425e+002 1.532938e+002 1.353892e+002 1.351041e+002 1.066321e+002 1.026247e+002 1.048282e+002 7.461288e+000 5.372349e+000 5.838318e+000 6.306470e+000 8.410594e+000 7.804093e+000 1.085070e+001 7.232948e+000 7.985995e+000 9.619478e+000 7.692197e+000 7.254877e+000 5.403899e+000 5.069543e-001 9.792258e-001 8.989765e-001 9.994054e-001 1.258075e+000 1.338936e+000 1.523744e+000 1.372588e+000 1.428766e+000 1.676501e+000 1.396262e+000 1.197682e+000 1.051688e+000 6.832713e-002
<GCONST> 1.559853e+002
<STATE> 3
<MEAN> 39
 -3.565112e+000 -5.854331e-001 -2.417752e+000 -1.146405e+001 -3.412352e+000 -5.981192e+000 -8.147191e+000 -7.774587e+000 3.305579e+000 -2.474788e+000 -4.291164e+000 -6.348705e+000 1.633974e+001 4.668574e-003 -2.590666e-001 1.864972e-002 -3.927876e-001 3.369434e-001 -6.989498e-001 -2.338396e-001 -4.046266e-001 5.782524e-001 2.180066e-002 -2.350854e-001 -2.333632e-002 1.819486e-001 -3.563950e-002 5.445212e-003 -1.491296e-002 9.080525e-002 2.945518e-002 5.515554e-002 7.159813e-002 -2.154371e-002 -2.654275e-002 -5.599897e-003 4.572760e-002 -9.719941e-003 -2.609895e-004
<VARIANCE> 39
 9.291757e+001 1.146828e+002 1.838663e+002 1.563100e+002 1.447220e+002 2.420618e+002 1.449549e+002 1.247302e+002 1.496349e+002 1.086241e+002 1.044947e+002 1.070118e+002 6.469987e+000 6.351358e+000 6.921737e+000 6.671263e+000 8.815044e+000 7.692095e+000 1.035577e+001 8.153315e+000 7.949941e+000 9.545150e+000 7.847435e+000 7.107126e+000 5.495437e+000 5.881970e-001 1.058095e+000 9.810138e-001 1.079687e+000 1.223366e+000 1.367704e+000 1.555199e+000 1.384473e+000 1.432992e+000 1.649695e+000 1.326029e+000 1.140283e+000 1.011657e+000 8.456823e-002
<GCONST> 1.564374e+002
<STATE> 4
<MEAN> 39
 -3.386920e+000 -1.010301e+000 -3.067747e+000 -1.117193e+001 -1.926925e+000 -7.330158e+000 -8.389717e+000 -8.503702e+000 4.732202e+000 -2.245701e+000 -4.995336e+000 -6.497118e+000 1.664650e+001 -2.328292e-001 -9.571380e-002 -1.566202e-001 5.815453e-002 3.602245e-001 -6.835610e-001 1.546052e-001 -3.724481e-001 4.309521e-001 -7.818259e-002 -3.917082e-002 3.943356e-002 1.329031e-001 -1.292231e-001 1.899624e-002 -1.731440e-002 9.510640e-002 2.643712e-002 -4.907352e-002 1.058661e-001 3.554502e-002 -1.809315e-002 -1.220596e-002 9.432492e-002 4.140060e-003 4.484427e-003
<VARIANCE> 39
 8.802704e+001 1.229010e+002 1.482891e+002 1.419464e+002 1.270367e+002 2.773948e+002 1.479418e+002 1.108472e+002 1.413563e+002 1.132440e+002 1.063984e+002 1.105707e+002 6.276235e+000 6.775359e+000 6.732160e+000 6.669609e+000 7.353862e+000 7.529378e+000 8.895622e+000 8.499334e+000 7.184023e+000 7.859124e+000 6.821486e+000 5.991592e+000 5.229755e+000 5.404359e-001 1.089400e+000 9.344220e-001 1.076571e+000 1.141276e+000 1.308045e+000 1.578401e+000 1.472651e+000 1.313645e+000 1.370768e+000 1.193217e+000 1.011589e+000 9.664724e-001 8.243474e-002
<GCONST> 1.544087e+002
<TRANSP> 5
 0.000000e+000 1.000000e+000 0.000000e+000 0.000000e+000 0.000000e+000
 0.000000e+000 7.324366e-001 2.675634e-001 0.000000e+000 0.000000e+000
 0.000000e+000 0.000000e+000 7.214270e-001 2.785729e-001 0.000000e+000
 0.000000e+000 0.000000e+000 0.000000e+000 7.125470e-001 2.874530e-001
 0.000000e+000 0.000000e+000 0.000000e+000 0.000000e+000 0.000000e+000
<ENDHMM>
~h "h"
<BEGINHMM>
<NUMSTATES> 5
<STATE> 2
<MEAN> 39
 -8.209130e+000 -1.613586e+001 -2.343323e+000 -1.056920e+001 3.357590e+000 -4.318773e+000 5.330462e+000 -3.960799e+000 4.476130e+000 -1.085413e+001 -2.580536e+000 -7.754192e+000 1.962135e+001 1.314062e-001 -1.389365e-002 3.167418e-002 6.104128e-003 -4.649709e-002 1.829072e-001 6.642003e-002 2.189737e-002 -1.461387e-001 6.270075e-002 -5.809721e-002 -4.677113e-002 1.395904e-002 1.506672e-003 6.276929e-002 1.205361e-002 6.044952e-002 -3.753692e-002 -2.695611e-002 -5.873239e-002 -5.940324e-003 -5.229898e-003 2.238731e-002 1.415837e-003 2.379708e-002 -3.637825e-002
<VARIANCE> 39
 3.829034e+001 7.301488e+001 6.679786e+001 1.008087e+002 9.815536e+001 1.135412e+002 6.419393e+001 6.696494e+001 8.220160e+001 9.499661e+001 6.833488e+001 5.722949e+001 8.770768e+000 8.332295e-001 1.356457e+000 1.745123e+000 2.456025e+000 2.208855e+000 2.054168e+000 2.695201e+000 2.732078e+000 2.527805e+000 2.528714e+000 2.078948e+000 1.926523e+000 1.305206e-001 1.591366e-001 2.614618e-001 2.770452e-001 3.588833e-001 3.622002e-001 3.393008e-001 4.382827e-001 4.873889e-001 4.672112e-001 4.577756e-001 3.672584e-001 3.618441e-001 1.469701e-002
<GCONST> 1.149033e+002
<STATE> 3
<MEAN> 39
 -7.483629e+000 -1.662461e+001 -2.156806e+000 -1.005418e+001 4.036408e+000 -4.518790e+000 5.240450e+000 -4.326650e+000 3.603931e+000 -1.082630e+001 -2.805466e+000 -7.703433e+000 1.956894e+001 1.899032e-001 6.715633e-002 -1.062638e-004 1.620640e-001 -7.849248e-002 1.253231e-001 -1.093946e-001 5.451821e-003 -1.884928e-001 8.742237e-002 -9.934591e-002 1.011291e-002 -6.679191e-002 1.998256e-002 2.923169e-002 -1.341379e-003 1.008421e-002 -2.741971e-002 -2.476603e-002 -5.332459e-002 -2.324283e-002 -1.323332e-002 1.797761e-002 -9.664065e-003 1.169315e-002 -1.959840e-002
<VARIANCE> 39
 4.080228e+001 6.547504e+001 6.961010e+001 1.133596e+002 8.579704e+001 1.166922e+002 6.541428e+001 6.452764e+001 8.468359e+001 8.920624e+001 6.433181e+001 5.771962e+001 6.458025e+000 6.740714e-001 1.135375e+000 1.525612e+000 1.937783e+000 2.008476e+000 1.852607e+000 2.376298e+000 2.425168e+000 2.355671e+000 2.348118e+000 1.943014e+000 1.807653e+000 9.494530e-002 1.401753e-001 2.076771e-001 2.468962e-001 3.165388e-001 3.419557e-001 3.177282e-001 4.109612e-001 4.572109e-001 4.371192e-001 4.149902e-001 3.473271e-001 3.359211e-001 1.115303e-002
<GCONST> 1.112808e+002
<STATE> 4
<MEAN> 39
 -6.348291e+000 -1.688151e+001 -2.688042e+000 -9.282105e+000 4.367311e+000 -4.174951e+000 4.250529e+000 -4.359610e+000 1.818983e+000 -1.022432e+001 -3.601922e+000 -7.099015e+000 1.905513e+001 2.206112e-001 1.332527e-001 -8.397246e-002 2.275321e-001 -1.394158e-001 1.257809e-001 -2.697664e-001 -3.899623e-003 -2.947517e-001 1.364522e-001 -1.834364e-001 6.135058e-002 -1.205513e-001 2.837082e-003 9.383182e-003 -1.342391e-002 -2.539518e-002 -1.009880e-002 -2.529953e-002 -3.391553e-002 -4.133173e-002 7.586186e-003 1.009975e-002 -3.134673e-004 7.972664e-003 -3.811158e-003
<VARIANCE> 39
 4.304000e+001 6.199257e+001 7.397033e+001 1.334861e+002 8.404860e+001 1.202369e+002 7.098778e+001 7.120290e+001 9.094508e+001 8.241713e+001 6.572630e+001 6.090411e+001 5.449976e+000 7.536595e-001 1.052294e+000 1.472356e+000 1.925425e+000 1.971032e+000 1.975957e+000 2.356181e+000 2.463120e+000 2.475230e+000 2.372169e+000 2.003671e+000 1.845098e+000 7.853268e-002 1.357816e-001 1.884826e-001 2.519506e-001 3.303832e-001 3.452572e-001 3.622898e-001 4.301400e-001 4.533228e-001 4.550185e-001 4.319073e-001 3.585350e-001 3.337040e-001 1.036336e-002
<GCONST> 1.117023e+002
<TRANSP> 5
 0.000000e+000 1.000000e+000 0.000000e+000 0.000000e+000 0.000000e+000
 0.000000e+000 7.127842e-001 2.872157e-001 0.000000e+000 0.000000e+000
 0.000000e+000 0.000000e+000 7.159040e-001 2.840960e-001 0.000000e+000
 0.000000e+000 0.000000e+000 0.000000e+000 7.796579e-001 2.203421e-001
 0.000000e+000 0.000000e+000 0.000000e+000 0.000000e+000 0.000000e+000
<ENDHMM>
~h "i"
<BEGINHMM>
<NUMSTATES> 5
<STATE> 2
<MEAN> 39
 -1.121942e+001 7.807233e-001 -8.584226e-001 -7.486463e+000 -1.920207e+000 -1.170623e+001 -1.481321e+000 -1.045416e+001 5.292471e+000 -7.440065e+000 -1.261490e+000 -4.296959e+000 1.879978e+001 -2.227966e-001 2.977880e-001 -3.339560e-001 4.982579e-002 3.611628e-001 2.387757e-001 -6.327983e-002 9.664004e-002 4.959885e-002 -7.873169e-002 7.044726e-002 3.274195e-001 -2.202644e-002 1.403151e-001 -1.433222e-001 3.499301e-002 -5.899359e-002 -3.170986e-002 2.121084e-002 -3.332988e-003 6.512624e-002 -2.384545e-002 1.216708e-001 -4.129675e-002 3.046252e-003 -3.608010e-002
<VARIANCE> 39
 1.089812e+002 1.511123e+002 9.089508e+001 1.966022e+002 1.110644e+002 1.965269e+002 7.739670e+001 9.000943e+001 8.096938e+001 8.641731e+001 7.520235e+001 8.211613e+001 7.639963e+000 1.959616e+000 2.812548e+000 2.560290e+000 3.990704e+000 3.465733e+000 4.360404e+000 3.418540e+000 3.627452e+000 3.358134e+000 3.493954e+000 3.834481e+000 3.564766e+000 1.424793e-001 3.089812e-001 4.124510e-001 4.067983e-001 6.476588e-001 5.786585e-001 7.229839e-001 6.180949e-001 6.252966e-001 6.386998e-001 6.481788e-001 7.435511e-001 6.680107e-001 2.369520e-002
<GCONST> 1.314850e+002
<STATE> 3
<MEAN> 39
 -1.015737e+001 -8.007310e-001 -2.188474e+000 -8.347125e+000 -5.168442e-001 -9.757683e+000 -1.248035e+000 -9.207772e+000 5.748041e+000 -7.118412e+000 -1.420909e+000 -3.577395e+000 1.851381e+001 4.253902e-001 -3.265947e-001 -4.118116e-001 -4.329912e-001 1.690432e-001 3.328032e-001 5.108905e-002 3.252501e-001 -2.046863e-002 5.786753e-002 -2.936086e-001 1.017397e-002 -5.986847e-002 1.146674e-001 -1.544919e-001 -3.288090e-002 -1.133550e-001 -1.654447e-002 3.063715e-002 2.112454e-002 6.243670e-002 -1.931935e-002 1.156490e-002 -1.008823e-001 -8.491472e-002 5.458780e-003
<VARIANCE> 39
 1.178232e+002 1.413504e+002 8.786054e+001 1.847972e+002 9.784829e+001 2.021646e+002 7.633648e+001 9.085649e+001 8.564515e+001 8.839863e+001 7.476358e+001 9.773376e+001 7.185458e+000 2.902237e+000 4.082782e+000 3.025005e+000 5.678158e+000 3.037425e+000 4.724551e+000 3.078298e+000 4.021904e+000 4.131191e+000 4.280869e+000 4.285859e+000 3.863894e+000 1.585145e-001 4.474288e-001 4.653008e-001 5.043226e-001 8.185875e-001 5.190464e-001 7.574494e-001 5.745821e-001 7.450352e-001 7.299769e-001 7.751945e-001 7.573732e-001 6.896666e-001 2.534741e-002
<GCONST> 1.348339e+002
<STATE> 4
<MEAN> 39
 -7.005304e+000 -4.214520e+000 -4.327723e+000 -1.168393e+001 7.319968e-001 -7.261557e+000 -8.835829e-001 -7.056830e+000 5.696314e+000 -7.137182e+000 -3.255923e+000 -4.348886e+000 1.852985e+001 7.318995e-001 -8.312920e-001 -5.408478e-001 -7.268997e-001 1.959637e-001 5.239400e-001 3.167479e-002 5.421922e-001 -3.086134e-001 -4.495977e-002 -6.611228e-001 -2.485595e-001 3.455150e-002 -1.509887e-001 -4.369614e-002 1.337035e-001 1.190282e-001 6.546259e-002 2.217683e-002 9.102670e-003 -6.653690e-002 -9.487143e-002 1.947384e-002 8.926884e-002 3.991371e-002 1.634353e-002
<VARIANCE> 39
 8.948577e+001 1.303121e+002 8.888710e+001 1.632097e+002 1.011475e+002 2.000277e+002 7.621558e+001 7.995948e+001 9.216336e+001 9.815675e+001 7.915514e+001 1.220710e+002 7.648186e+000 3.164255e+000 5.662919e+000 3.470309e+000 6.549265e+000 2.890295e+000 4.439218e+000 3.116629e+000 4.441676e+000 4.809713e+000 5.507021e+000 5.000558e+000 4.221424e+000 2.393807e-001 5.470278e-001 5.966357e-001 5.836941e-001 1.042906e+000 4.844379e-001 7.633036e-001 5.457221e-001 8.899325e-001 9.021628e-001 1.079737e+000 8.299723e-001 7.800178e-001 2.974916e-002
<GCONST> 1.383509e+002
<TRANSP> 5
 0.000000e+000 1.000000e+000 0.000000e+000 0.000000e+000 0.000000e+000
 0.000000e+000 6.802917e-001 3.197084e-001 0.000000e+000 0.000000e+000
 0.000000e+000 0.000000e+000 6.629339e-001 3.370661e-001 0.000000e+000
 0.000000e+000 0.000000e+000 0.000000e+000 6.623043e-001 3.376958e-001
 0.000000e+000 0.000000e+000 0.000000e+000 0.000000e+000 0.000000e+000
<ENDHMM>
~h "j"
<BEGINHMM>
<NUMSTATES> 5
<STATE> 2
<MEAN> 39
 -8.729696e+000 -9.038497e+000 6.950387e+000 -1.047532e+001 -7.155680e+000 -1.121618e+001 6.883462e-001 -4.269499e+000 4.311053e+000 -4.936512e+000 -3.084961e+000 -7.778364e+000 1.907185e+001 -2.661189e-001 -7.665991e-002 4.924863e-001 -4.153396e-001 6.385735e-002 -5.641904e-002 2.969354e-001 -3.955528e-001 6.927879e-002 2.404576e-002 5.901396e-001 1.118699e-001 1.701549e-001 1.110430e-001 -5.657811e-002 -2.912162e-002 5.938304e-002 -6.136864e-002 3.092984e-002 -5.543620e-002 5.556714e-002 -3.122693e-003 2.499048e-002 -1.529586e-003 -4.705612e-002 -4.471446e-003
<VARIANCE> 39
 1.070349e+002 7.550671e+001 1.092924e+002 7.907251e+001 7.744776e+001 9.437962e+001 9.463176e+001 1.226339e+002 8.658300e+001 1.176269e+002 9.692571e+001 1.024613e+002 5.915967e+000 1.020847e+001 3.820947e+000 6.628795e+000 4.254372e+000 6.208026e+000 5.450664e+000 7.353127e+000 8.487477e+000 5.065535e+000 4.263998e+000 5.529183e+000 3.480084e+000 3.432220e-001 1.660411e+000 5.327506e-001 8.260434e-001 7.761760e-001 1.107908e+000 9.740593e-001 1.282041e+000 1.342580e+000 9.006345e-001 6.593316e-001 9.178300e-001 5.563367e-001 5.568355e-002
<GCONST> 1.437943e+002
<STATE> 3
<MEAN> 39
 -7.153033e+000 -1.005235e+001 9.749013e+000 -1.197706e+001 -9.337790e+000 -1.149179e+001 1.706352e+000 -3.618977e+000 5.397732e+000 -4.084139e+000 9.340174e-001 -7.015408e+000 1.957271e+001 1.173942e-001 -6.946696e-002 1.376524e-001 -5.900238e-002 -1.715530e-001 1.374137e-002 6.981765e-002 1.742327e-001 5.289375e-002 1.452220e-002 2.184729e-001 -3.609691e-002 2.519881e-002 4.316599e-002 -1.555409e-002 -5.917364e-002 2.913494e-002 1.079160e-002 1.572897e-002 -3.842366e-002 4.169799e-002 -9.134808e-003 -1.175844e-002 -5.818907e-002 -2.362394e-002 -8.570518e-003
<VARIANCE> 39
 5.306339e+001 4.210826e+001 1.006351e+002 8.954904e+001 7.991293e+001 7.748795e+001 8.116477e+001 1.082299e+002 7.344482e+001 1.169241e+002 7.987887e+001 7.943786e+001 3.073936e+000 3.095491e+000 2.033820e+000 3.408525e+000 2.020093e+000 3.435790e+000 3.274697e+000 4.842017e+000 4.086595e+000 3.245175e+000 2.880704e+000 3.061160e+000 2.543432e+000 1.266814e-001 5.411985e-001 3.165338e-001 4.208114e-001 3.404889e-001 5.581195e-001 5.604747e-001 8.990899e-001 6.559891e-001 5.895986e-001 5.175558e-001 5.174580e-001 4.307804e-001 1.985055e-002
<GCONST> 1.246349e+002
<STATE> 4
<MEAN> 39
 -7.738296e+000 -7.797811e+000 1.354728e+001 -1.205876e+001 -1.456610e+001 -1.108271e+001 3.235927e+000 -1.552768e+000 5.139211e+000 -3.834531e+000 2.925788e+000 -5.823587e+000 1.889994e+001 8.831501e-002 6.774807e-002 -1.487644e-001 7.500319e-002 -7.337032e-003 1.874224e-001 5.335304e-002 2.172142e-001 -1.068272e-002 6.427023e-002 -8.049546e-002 -2.153870e-002 -3.946500e-002 1.478792e-003 2.160890e-002 -3.823311e-002 1.202325e-002 3.348080e-002 4.052687e-002 -1.211452e-002 -3.589535e-002 -2.244749e-004 2.859397e-002 -1.233711e-002 -1.001504e-002 -6.144328e-003
<VARIANCE> 39
 4.710157e+001 4.264567e+001 9.532739e+001 1.204985e+002 1.147521e+002 5.454178e+001 6.906254e+001 1.320378e+002 8.683889e+001 1.169639e+002 6.799450e+001 5.310677e+001 4.380808e+000 2.369732e+000 1.819541e+000 3.285276e+000 2.070458e+000 4.875422e+000 3.121534e+000 4.031693e+000 3.387551e+000 3.627994e+000 3.267901e+000 2.771790e+000 2.205535e+000 1.133571e-001 3.731253e-001 2.342421e-001 4.474831e-001 3.462022e-001 6.846005e-001 5.731262e-001 7.820683e-001 5.405539e-001 6.516345e-001 6.172500e-001 4.893461e-001 3.938598e-001 1.487505e-002
<GCONST> 1.233437e+002
<TRANSP> 5
 0.000000e+000 1.000000e+000 0.000000e+000 0.000000e+000 0.000000e+000
 0.000000e+000 9.212504e-001 7.874962e-002 0.000000e+000 0.000000e+000
 0.000000e+000 0.000000e+000 9.233428e-001 7.665718e-002 0.000000e+000
 0.000000e+000 0.000000e+000 0.000000e+000 9.494131e-001 5.058686e-002
 0.000000e+000 0.000000e+000 0.000000e+000 0.000000e+000 0.000000e+000
<ENDHMM>
~h "k"
<BEGINHMM>
<NUMSTATES> 5
<STATE> 2
<MEAN> 39
 -1.416016e+000 -8.887145e+000 -7.013209e+000 -1.142271e+001 1.242786e-002 9.773472e-001 -1.311790e+000 -3.389126e+000 5.385314e-001 -3.452346e+000 -4.670126e+000 -7.206432e+000 1.764945e+001 1.686483e-001 4.184973e-001 -3.008778e-001 4.394840e-001 -1.111053e-001 3.131233e-001 -3.420613e-001 1.047933e-001 -1.519002e-001 -4.313095e-002 -2.077729e-001 8.458836e-002 -1.710515e-001 5.543472e-003 -8.672466e-003 -1.477450e-002 2.232959e-002 1.348055e-003 1.409136e-004 -4.713979e-002 -3.634694e-002 2.284121e-003 -3.038769e-002 3.270912e-003 -9.068131e-003 -3.287850e-003
<VARIANCE> 39
 6.901840e+001 1.588386e+002 1.661631e+002 1.655980e+002 1.972020e+002 3.032235e+002 9.704298e+001 1.207527e+002 9.654721e+001 1.069331e+002 8.170254e+001 1.008611e+002 5.090431e+000 9.224994e-001 1.315547e+000 1.809283e+000 2.332855e+000 2.252733e+000 3.266916e+000 2.969121e+000 2.940616e+000 3.088462e+000 3.299684e+000 2.280242e+000 2.424902e+000 7.651342e-002 1.555268e-001 1.904588e-001 2.573965e-001 3.582668e-001 4.040120e-001 5.403088e-001 5.031219e-001 5.247421e-001 5.490293e-001 5.623489e-001 4.184258e-001 3.972351e-001 9.817650e-003
<GCONST> 1.223639e+002
<STATE> 3
<MEAN> 39
 -9.550156e-001 -7.567509e+000 -7.843676e+000 -1.001371e+001 -6.483090e-001 1.611672e+000 -2.238088e+000 -3.405068e+000 3.412183e-001 -3.643551e+000 -5.163879e+000 -7.140814e+000 1.716916e+001 1.080084e-001 3.728456e-001 -3.046689e-001 4.624913e-001 -8.156938e-002 2.376169e-001 -3.862287e-001 -4.678668e-003 -1.356590e-001 -9.286645e-003 -1.730518e-001 6.321121e-002 -1.705035e-001 -2.473561e-002 -3.109411e-002 -2.252037e-003 -2.320623e-002 2.744166e-002 2.716691e-003 -5.014435e-003 -4.418967e-002 3.341815e-002 1.377441e-002 3.182755e-002 -3.032961e-002 5.433005e-003
<VARIANCE> 39
 7.575183e+001 1.634839e+002 1.860952e+002 1.704767e+002 1.971336e+002 3.040588e+002 1.050913e+002 1.247845e+002 9.645484e+001 1.046060e+002 8.270202e+001 1.003285e+002 5.497321e+000 7.839169e-001 1.328708e+000 1.701451e+000 2.185197e+000 2.350138e+000 3.000683e+000 3.033673e+000 3.047114e+000 3.238778e+000 3.260057e+000 2.228039e+000 2.466618e+000 6.459105e-002 1.413259e-001 1.944249e-001 2.607432e-001 3.692068e-001 4.329050e-001 5.262356e-001 5.253345e-001 5.691920e-001 5.751250e-001 5.687886e-001 4.004507e-001 4.174830e-001 1.022600e-002
<GCONST> 1.226380e+002
<STATE> 4
<MEAN> 39
 -8.191240e-001 -6.373008e+000 -8.563629e+000 -8.604387e+000 -9.594079e-001 2.098634e+000 -2.995025e+000 -3.590363e+000 8.207751e-002 -3.457232e+000 -5.505532e+000 -7.058902e+000 1.668726e+001 -2.635635e-003 3.036471e-001 -2.720809e-001 4.031749e-001 2.976228e-003 1.917758e-001 -3.770456e-001 -7.861002e-002 -7.028144e-002 5.265734e-002 -6.373466e-002 -8.227009e-003 -1.574564e-001 -6.943417e-002 -3.616520e-002 2.405285e-002 -7.060640e-002 4.445156e-002 -7.630461e-002 3.831828e-002 -2.570329e-002 7.797401e-002 2.612135e-002 5.332528e-002 -5.127357e-002 1.406433e-002
<VARIANCE> 39
 7.997945e+001 1.711783e+002 2.064859e+002 1.693620e+002 2.016794e+002 2.947484e+002 1.101798e+002 1.286400e+002 9.809027e+001 1.019832e+002 8.159750e+001 9.963266e+001 5.977667e+000 9.109654e-001 1.539410e+000 1.757245e+000 2.401414e+000 2.816444e+000 3.275554e+000 3.385835e+000 3.349405e+000 3.409826e+000 3.292916e+000 2.544892e+000 2.511085e+000 6.584908e-002 2.016483e-001 2.423142e-001 3.431174e-001 4.534766e-001 5.705538e-001 6.133571e-001 6.439989e-001 6.466441e-001 6.751322e-001 6.284851e-001 4.460016e-001 4.590035e-001 1.289201e-002
<GCONST> 1.265993e+002
<TRANSP> 5
 0.000000e+000 1.000000e+000 0.000000e+000 0.000000e+000 0.000000e+000
 0.000000e+000 5.562279e-001 4.437722e-001 0.000000e+000 0.000000e+000
 0.000000e+000 0.000000e+000 5.556048e-001 4.443952e-001 0.000000e+000
 0.000000e+000 0.000000e+000 0.000000e+000 5.559821e-001 4.440179e-001
 0.000000e+000 0.000000e+000 0.000000e+000 0.000000e+000 0.000000e+000
<ENDHMM>
~h "l"
<BEGINHMM>
<NUMSTATES> 5
<STATE> 2
<MEAN> 39
 -2.102862e+000 -5.237113e+000 -7.917101e+000 -1.244927e+001 2.578698e+000 -8.960336e-001 -1.004198e+000 -6.012433e+000 9.736363e-001 -4.481313e+000 -4.721045e+000 -7.479176e+000 1.735611e+001 -3.933575e-001 4.486766e-001 2.285784e-001 5.807633e-002 2.438539e-001 -3.488495e-001 -1.774767e-001 -1.368779e-001 7.674147e-002 -1.199564e-001 -7.459049e-002 2.364709e-001 -9.284424e-003 -8.732855e-002 -6.841759e-002 1.024190e-001 -4.116495e-002 -2.095027e-002 -1.255759e-001 3.585368e-002 -1.373779e-002 7.407146e-002 -6.233229e-002 6.646545e-003 -1.931193e-002 4.026405e-002
<VARIANCE> 39
 1.025191e+002 1.491783e+002 1.316255e+002 2.026398e+002 1.376101e+002 2.126768e+002 1.183238e+002 1.000558e+002 1.240873e+002 1.211457e+002 8.278366e+001 8.145747e+001 5.648641e+000 4.669148e+000 3.203377e+000 6.228020e+000 4.289707e+000 7.316893e+000 6.877133e+000 6.976955e+000 5.223701e+000 5.051805e+000 4.520026e+000 4.031127e+000 3.525417e+000 2.020148e-001 6.073745e-001 4.490977e-001 7.603236e-001 6.621978e-001 1.121620e+000 1.054649e+000 1.082416e+000 8.330572e-001 8.311712e-001 7.288258e-001 6.714720e-001 6.378197e-001 2.922842e-002
<GCONST> 1.422178e+002
<STATE> 3
<MEAN> 39
 -3.663416e+000 -3.895709e+000 -6.683511e+000 -1.254854e+001 3.299401e+000 -2.274405e+000 -1.485997e+000 -6.303373e+000 1.398670e+000 -5.209375e+000 -5.058904e+000 -6.935201e+000 1.752901e+001 -3.290924e-001 6.592237e-002 3.880382e-001 -2.388496e-002 -6.999516e-002 -4.331153e-001 -1.604455e-001 -6.443798e-002 1.806127e-001 -2.657551e-001 -4.521806e-002 8.735045e-002 6.198840e-002 8.555682e-002 -1.138220e-001 1.491532e-002 -4.070506e-002 -1.258742e-001 1.613648e-002 2.302874e-002 2.888957e-002 1.184682e-002 -2.130598e-002 1.378454e-002 -5.084851e-002 1.665372e-002
<VARIANCE> 39
 1.307413e+002 1.741022e+002 1.243613e+002 2.129896e+002 1.266057e+002 2.061287e+002 1.227605e+002 1.013598e+002 1.255634e+002 1.224201e+002 9.431024e+001 8.195107e+001 4.909874e+000 5.369104e+000 3.866457e+000 5.792092e+000 4.900585e+000 7.296333e+000 7.424283e+000 7.360718e+000 5.371981e+000 5.614537e+000 5.307823e+000 4.176394e+000 3.732309e+000 2.439556e-001 7.448690e-001 5.319259e-001 7.812901e-001 7.282026e-001 1.142618e+000 1.059942e+000 1.148202e+000 8.625929e-001 9.297125e-001 8.311361e-001 7.394750e-001 6.753147e-001 2.754146e-002
<GCONST> 1.446036e+002
<STATE> 4
<MEAN> 39
 -4.050916e+000 -4.006089e+000 -5.499885e+000 -1.271746e+001 2.429176e+000 -3.077258e+000 -1.974424e+000 -6.261369e+000 1.776637e+000 -6.036361e+000 -5.209571e+000 -6.931668e+000 1.768539e+001 1.529841e-001 -3.074808e-001 2.461277e-001 1.879971e-002 -4.977984e-001 -1.504259e-001 -8.057462e-002 6.364621e-002 1.122361e-001 -2.394961e-001 -1.873225e-003 -4.078352e-002 4.908523e-002 9.146635e-002 -1.738218e-002 -6.272068e-002 1.273745e-002 -4.984058e-002 7.732939e-002 7.665949e-002 2.984739e-002 -3.286593e-002 5.233088e-002 2.737816e-002 2.280904e-003 -1.422565e-003
<VARIANCE> 39
 1.207362e+002 1.846874e+002 1.347643e+002 2.081502e+002 1.295922e+002 2.085580e+002 1.248071e+002 1.085814e+002 1.310121e+002 1.150011e+002 9.759283e+001 8.407555e+001 4.966241e+000 4.735286e+000 4.132406e+000 4.879681e+000 5.075985e+000 5.959819e+000 6.223303e+000 6.412650e+000 5.310750e+000 5.604621e+000 5.143662e+000 4.002561e+000 3.705154e+000 2.224792e-001 7.224249e-001 5.709883e-001 7.099243e-001 6.849352e-001 1.010258e+000 9.864865e-001 1.095057e+000 8.780679e-001 9.856730e-001 8.911341e-001 7.267175e-001 6.676647e-001 2.234619e-002
<GCONST> 1.434623e+002
<TRANSP> 5
 0.000000e+000 1.000000e+000 0.000000e+000 0.000000e+000 0.000000e+000
 0.000000e+000 6.022075e-001 3.977925e-001 0.000000e+000 0.000000e+000
 0.000000e+000 0.000000e+000 6.003172e-001 3.996828e-001 0.000000e+000
 0.000000e+000 0.000000e+000 0.000000e+000 6.010086e-001 3.989914e-001
 0.000000e+000 0.000000e+000 0.000000e+000 0.000000e+000 0.000000e+000
<ENDHMM>
~h "m"
<BEGINHMM>
<NUMSTATES> 5
<STATE> 2
<MEAN> 39
 1.313130e+000 -1.005331e+001 -5.651250e+000 -1.944439e+001 2.784687e+000 2.544223e+000 -3.266001e+000 -4.088865e+000 -3.812427e-001 -4.031801e+000 -4.122005e+000 -9.745397e+000 1.898764e+001 1.249815e-001 1.666247e-001 -1.698817e-001 -3.019407e-002 6.274214e-002 1.746283e-001 -1.338718e-001 1.027293e-001 -1.900622e-001 7.079367e-002 -4.384112e-002 8.746085e-003 -4.747073e-002 -1.088894e-002 -5.763225e-003 6.643800e-003 4.588896e-002 -1.506332e-002 -2.479998e-002 -6.570899e-003 -5.044823e-003 -6.481811e-003 1.578100e-002 -9.598978e-003 5.400737e-003 -7.420952e-003
<VARIANCE> 39
 4.158289e+001 6.552615e+001 8.165725e+001 1.483792e+002 1.337543e+002 1.980924e+002 8.882284e+001 5.495512e+001 1.005100e+002 1.162563e+002 8.938787e+001 5.080170e+001 2.856786e+000 5.352276e-001 1.230229e+000 1.465764e+000 3.328842e+000 2.453298e+000 3.009757e+000 2.297197e+000 2.696503e+000 3.846069e+000 2.839452e+000 2.466330e+000 2.193087e+000 7.065956e-002 7.709765e-002 1.619947e-001 2.188321e-001 4.729769e-001 3.828694e-001 4.978030e-001 3.802548e-001 5.107000e-001 6.217248e-001 4.684368e-001 4.038365e-001 4.142212e-001 9.005745e-003
<GCONST> 1.152440e+002
<STATE> 3
<MEAN> 39
 2.887369e+000 -8.063049e+000 -8.282097e+000 -1.737677e+001 1.346687e+000 5.057756e+000 -4.542881e+000 -3.295520e+000 -9.704102e-001 -3.638100e+000 -4.347601e+000 -9.217994e+000 1.826540e+001 3.937079e-002 1.203664e-001 -2.039061e-001 2.733455e-001 -2.038942e-002 3.222100e-002 -8.660111e-002 6.569803e-002 -1.533045e-001 1.396480e-001 -8.640467e-002 -3.007124e-002 -7.929260e-002 -2.925210e-002 -1.473959e-002 5.244382e-004 3.825831e-002 -1.510428e-002 -3.061531e-002 2.690949e-002 3.523473e-003 2.256581e-002 -5.973788e-003 8.945348e-004 -3.445488e-003 -3.869231e-003
<VARIANCE> 39
 4.891267e+001 9.541007e+001 1.244791e+002 1.500435e+002 1.434971e+002 1.994807e+002 9.428233e+001 6.214435e+001 1.133891e+002 1.230699e+002 7.801661e+001 5.173278e+001 4.537366e+000 4.906697e-001 1.474069e+000 1.705477e+000 2.879596e+000 2.403296e+000 2.926807e+000 2.329430e+000 2.654925e+000 3.752292e+000 3.003146e+000 2.633577e+000 2.437879e+000 5.629636e-002 7.332082e-002 1.832548e-001 2.412020e-001 3.995337e-001 3.506202e-001 4.760009e-001 3.948942e-001 4.978705e-001 5.860401e-001 4.988821e-001 4.522478e-001 4.600206e-001 6.587261e-003
<GCONST> 1.168132e+002
<STATE> 4
<MEAN> 39
 2.666488e+000 -5.292694e+000 -1.112361e+001 -1.386702e+001 -8.748531e-002 5.746099e+000 -4.946228e+000 -2.830608e+000 -8.175682e-001 -2.065356e+000 -4.370955e+000 -9.520781e+000 1.693768e+001 -1.909137e-001 1.241165e-001 -1.547370e-001 4.176214e-001 -1.741778e-001 -1.419965e-001 1.069150e-001 8.193460e-002 2.919554e-003 6.475959e-002 -3.614473e-002 -1.661053e-002 -1.142379e-001 -4.291436e-002 -2.487464e-002 1.830557e-002 1.974632e-002 -3.015405e-002 -5.291677e-002 2.927009e-002 2.827212e-002 4.954900e-002 -4.423542e-002 2.293304e-002 2.724035e-002 -1.813351e-003
<VARIANCE> 39
 6.127284e+001 1.304708e+002 1.627732e+002 1.457254e+002 1.457005e+002 1.884557e+002 1.054263e+002 7.465980e+001 1.319919e+002 1.445270e+002 6.915308e+001 5.444356e+001 1.014597e+001 5.956366e-001 1.689249e+000 1.908897e+000 2.798568e+000 2.572822e+000 3.159222e+000 2.872406e+000 3.063384e+000 3.855297e+000 3.096417e+000 2.706306e+000 2.769886e+000 5.756831e-002 8.331323e-002 2.250739e-001 2.994807e-001 4.021335e-001 3.886473e-001 5.166883e-001 5.224950e-001 5.647534e-001 6.437390e-001 5.095658e-001 4.918616e-001 5.058827e-001 7.187644e-003
<GCONST> 1.215669e+002
<TRANSP> 5
 0.000000e+000 1.000000e+000 0.000000e+000 0.000000e+000 0.000000e+000
 0.000000e+000 8.991572e-001 1.008428e-001 0.000000e+000 0.000000e+000
 0.000000e+000 0.000000e+000 8.319149e-001 1.680851e-001 0.000000e+000
 0.000000e+000 0.000000e+000 0.000000e+000 7.999883e-001 2.000116e-001
 0.000000e+000 0.000000e+000 0.000000e+000 0.000000e+000 0.000000e+000
<ENDHMM>
~h "n"
<BEGINHMM>
<NUMSTATES> 5
<STATE> 2
<MEAN> 39
 -6.890634e+000 -8.812557e+000 -3.613878e+000 -1.258671e+001 1.530512e+000 -1.386867e+000 1.844784e-001 -6.019209e+000 3.887193e+000 -4.232519e+000 -3.564752e+000 -7.473948e+000 1.758738e+001 -6.083058e-001 -8.328583e-001 -1.448033e-001 -4.634420e-001 7.393945e-001 -3.035179e-001 5.930239e-001 -3.266045e-001 5.678164e-001 -3.430948e-001 2.080183e-001 -2.251349e-001 2.748222e-001 7.195888e-002 -3.751088e-003 2.171246e-003 -2.306571e-002 2.702285e-002 4.401335e-003 1.677695e-003 -8.415533e-002 2.290443e-002 -1.734513e-003 3.150149e-002 -6.301228e-002 5.645027e-002
<VARIANCE> 39
 6.171161e+001 1.050390e+002 1.761868e+002 1.415984e+002 1.797190e+002 1.689189e+002 8.780576e+001 9.597968e+001 9.377150e+001 8.610733e+001 9.227235e+001 1.003378e+002 1.082147e+001 4.832678e+000 7.960986e+000 1.066133e+001 7.283608e+000 9.144681e+000 7.508519e+000 7.327519e+000 7.609012e+000 6.235636e+000 5.798727e+000 5.618128e+000 5.050185e+000 5.826163e-001 7.957905e-001 1.064320e+000 1.384338e+000 1.086536e+000 1.203080e+000 1.152056e+000 1.251171e+000 1.292337e+000 1.050120e+000 9.582778e-001 9.237605e-001 8.736687e-001 9.292410e-002
<GCONST> 1.515605e+002
<STATE> 3
<MEAN> 39
 -7.248638e+000 -1.129723e+001 -4.136369e+000 -1.471523e+001 3.051564e+000 -2.745126e+000 1.129783e+000 -7.445166e+000 5.253458e+000 -5.257515e+000 -3.108455e+000 -8.601012e+000 1.882146e+001 2.424631e-002 -4.536688e-001 -1.167427e-001 -2.136272e-001 2.476944e-001 -2.239418e-001 2.688988e-001 -1.809412e-001 3.093000e-001 -2.164050e-001 1.163796e-001 -2.773745e-001 2.385491e-001 1.266852e-001 1.292058e-001 2.970724e-002 1.112095e-001 -1.256186e-001 1.920975e-002 -9.750120e-002 4.277635e-002 -1.101602e-001 2.319368e-002 -2.871963e-002 2.158577e-002 -3.393921e-002
<VARIANCE> 39
 5.820028e+001 8.389784e+001 1.416711e+002 9.521154e+001 1.403571e+002 1.672035e+002 7.882738e+001 8.402565e+001 8.903120e+001 8.250072e+001 8.411772e+001 1.061925e+002 6.605182e+000 4.567508e+000 5.250461e+000 8.145505e+000 5.754294e+000 6.604504e+000 6.041502e+000 6.341765e+000 7.005756e+000 5.343204e+000 5.493228e+000 4.961638e+000 4.613433e+000 5.154133e-001 6.927880e-001 6.770033e-001 1.085027e+000 8.324203e-001 9.458861e-001 9.444695e-001 1.017005e+000 1.178775e+000 9.397928e-001 8.840140e-001 8.496944e-001 8.069256e-001 6.781552e-002
<GCONST> 1.447374e+002
<STATE> 4
<MEAN> 39
 -6.003191e+000 -1.242609e+001 -4.287789e+000 -1.517260e+001 2.818773e+000 -3.606664e+000 1.164110e+000 -7.359668e+000 5.392454e+000 -5.622323e+000 -3.263112e+000 -9.368050e+000 1.934749e+001 2.660875e-001 -1.016190e-001 2.301342e-003 1.710644e-001 -6.308253e-002 -8.925486e-002 1.014049e-002 1.081541e-001 -7.676527e-002 -1.151283e-001 -3.555500e-002 -9.357929e-002 3.150705e-002 2.864769e-002 1.039398e-001 1.506588e-002 1.067056e-001 -3.556425e-002 3.341371e-002 -1.070110e-001 6.037895e-002 -1.040619e-001 3.197375e-002 -3.657581e-002 7.026657e-002 -6.406990e-002
<VARIANCE> 39
 4.466441e+001 7.655565e+001 1.254345e+002 8.103017e+001 1.232633e+002 1.661317e+002 7.335438e+001 8.206265e+001 9.024682e+001 8.344808e+001 7.626439e+001 1.002965e+002 4.618522e+000 2.728474e+000 3.025804e+000 4.793192e+000 3.988632e+000 3.702965e+000 4.191129e+000 4.291329e+000 5.381443e+000 4.124396e+000 4.399380e+000 3.852051e+000 3.983434e+000 3.551742e-001 4.311759e-001 4.440762e-001 7.331880e-001 6.336641e-001 6.326416e-001 6.756920e-001 7.347584e-001 9.294997e-001 8.054907e-001 7.531857e-001 6.729723e-001 7.068853e-001 4.410301e-002
<GCONST> 1.345926e+002
<TRANSP> 5
 0.000000e+000 1.000000e+000 0.000000e+000 0.000000e+000 0.000000e+000
 0.000000e+000 6.521150e-001 3.478850e-001 0.000000e+000 0.000000e+000
 0.000000e+000 0.000000e+000 6.395209e-001 3.604791e-001 0.000000e+000
 0.000000e+000 0.000000e+000 0.000000e+000 6.374976e-001 3.625024e-001
 0.000000e+000 0.000000e+000 0.000000e+000 0.000000e+000 0.000000e+000
<ENDHMM>
~h "o"
<BEGINHMM>
<NUMSTATES> 5
<STATE> 2
<MEAN> 39
 -5.708276e+000 1.693515e+000 -1.189267e+001 -9.826082e+000 4.750917e+000 -5.674902e-001 -3.433463e+000 -9.381957e+000 7.396633e-001 -5.775502e+000 -8.190039e+000 -5.888233e+000 1.676160e+001 -1.276169e+000 1.206324e+000 3.949700e-001 -5.959437e-001 3.948180e-001 -9.332916e-001 8.461669e-001 -4.551907e-001 1.983502e-001 3.677482e-001 9.101319e-001 3.927895e-001 1.950723e-001 -1.766625e-001 3.014991e-002 1.628282e-001 -1.362744e-001 -1.327423e-002 -1.667570e-001 8.162843e-002 -1.059864e-002 6.064460e-002 3.581129e-002 1.389573e-001 5.777283e-002 6.338673e-002
<VARIANCE> 39
 2.564115e+002 1.184267e+002 1.414371e+002 1.932607e+002 9.625200e+001 1.552710e+002 1.268886e+002 1.076536e+002 1.075682e+002 8.435974e+001 1.006122e+002 7.396322e+001 8.076984e+000 1.212163e+001 7.153148e+000 6.356252e+000 6.170141e+000 6.071717e+000 1.158349e+001 1.055280e+001 6.484860e+000 5.318022e+000 6.165436e+000 6.067882e+000 5.705716e+000 4.293372e-001 1.627958e+000 1.120945e+000 8.416463e-001 9.739377e-001 8.621329e-001 1.916554e+000 1.766435e+000 1.127475e+000 8.680350e-001 9.825427e-001 1.090799e+000 9.468625e-001 7.142395e-002
<GCONST> 1.530933e+002
<STATE> 3
<MEAN> 39
 -8.999152e+000 8.153270e+000 -8.182294e+000 -1.486075e+001 2.902137e+000 -2.773669e+000 -2.320254e+000 -1.330495e+001 1.740300e+000 -4.984774e+000 -1.541843e+000 -5.892814e+000 1.812341e+001 -1.772079e-001 3.608864e-001 2.729364e-001 -5.789821e-001 -2.199030e-001 -2.429035e-001 -1.608172e-002 -2.999340e-001 6.397732e-002 6.943882e-002 5.234094e-001 -1.731776e-002 1.410731e-001 1.547056e-001 -1.112674e-001 -4.144534e-002 1.780074e-002 -7.280739e-002 9.789582e-002 -1.003648e-001 1.555978e-002 -2.130601e-002 -2.252938e-002 -5.867010e-002 -6.021075e-002 -1.285417e-002
<VARIANCE> 39
 2.866998e+002 1.000620e+002 1.217789e+002 1.616423e+002 1.118421e+002 1.674416e+002 1.110082e+002 9.192599e+001 9.597243e+001 7.199329e+001 6.648648e+001 6.054381e+001 5.856433e+000 1.182758e+001 6.779092e+000 4.701672e+000 4.924708e+000 4.359568e+000 8.691017e+000 9.246992e+000 5.516945e+000 5.277700e+000 4.313236e+000 4.792373e+000 4.289742e+000 3.500957e-001 1.386918e+000 9.325086e-001 6.319320e-001 7.007402e-001 6.253660e-001 1.358657e+000 1.466282e+000 9.907000e-001 8.811474e-001 7.415752e-001 8.272876e-001 7.506983e-001 4.818330e-002
<GCONST> 1.457165e+002
<STATE> 4
<MEAN> 39
 -3.460785e+000 1.058127e+001 -8.942223e+000 -1.811608e+001 -6.338289e-001 -3.340756e-001 -3.912843e+000 -1.538846e+001 1.119451e+000 -4.991840e+000 2.894661e-001 -7.009276e+000 1.799464e+001 3.479527e-001 -9.954091e-002 -2.200794e-002 -1.824988e-001 -2.042065e-001 9.055610e-002 -1.229838e-001 -9.455980e-002 -2.323520e-002 1.288126e-002 4.076327e-002 -1.442664e-001 6.569042e-003 1.717290e-002 -3.134552e-002 6.985582e-004 2.352761e-002 -1.059388e-002 2.067067e-002 6.450056e-003 3.812847e-002 8.257860e-003 -5.431349e-003 -4.296632e-002 2.456818e-004 -6.058043e-003
<VARIANCE> 39
 2.081412e+002 9.369868e+001 1.062041e+002 1.400740e+002 8.902232e+001 1.907558e+002 9.746301e+001 1.052552e+002 9.581651e+001 8.248608e+001 6.258044e+001 6.120741e+001 4.312302e+000 6.972575e+000 4.228100e+000 3.575784e+000 4.701786e+000 3.588759e+000 6.276142e+000 6.665604e+000 5.787727e+000 4.960289e+000 3.425560e+000 3.600397e+000 3.550188e+000 1.774106e-001 8.312515e-001 5.809211e-001 4.927886e-001 6.038098e-001 5.429507e-001 9.937930e-001 1.089899e+000 9.977288e-001 8.325593e-001 6.111353e-001 6.689854e-001 6.229885e-001 2.669417e-002
<GCONST> 1.378031e+002
<TRANSP> 5
 0.000000e+000 1.000000e+000 0.000000e+000 0.000000e+000 0.000000e+000
 0.000000e+000 8.474315e-001 1.525685e-001 0.000000e+000 0.000000e+000
 0.000000e+000 0.000000e+000 9.041610e-001 9.583905e-002 0.000000e+000
 0.000000e+000 0.000000e+000 0.000000e+000 9.502560e-001 4.974401e-002
 0.000000e+000 0.000000e+000 0.000000e+000 0.000000e+000 0.000000e+000
<ENDHMM>
~h "r"
<BEGINHMM>
<NUMSTATES> 5
<STATE> 2
<MEAN> 39
 -4.814780e+000 -1.318219e+000 -2.667380e+000 -7.216039e+000 -1.792301e+000 -7.690273e+000 -7.432889e+000 -1.326260e+001 5.258215e+000 5.407779e-001 -2.853452e+000 -8.220415e+000 1.754996e+001 -2.199464e-001 3.867972e-003 -6.432967e-003 -1.091405e-001 3.768418e-002 -3.796847e-001 4.427238e-002 2.448153e-001 2.741995e-001 -2.250547e-001 2.498193e-002 2.384705e-001 8.469844e-002 -2.266057e-002 -1.733974e-002 -1.526717e-002 -3.338415e-002 5.738319e-002 7.326511e-002 9.355837e-002 8.773569e-003 7.441520e-003 1.721466e-002 -3.060546e-002 1.756651e-002 1.217419e-002
<VARIANCE> 39
 9.992953e+001 1.401694e+002 1.925762e+002 1.372842e+002 1.587073e+002 2.455464e+002 1.422873e+002 9.811720e+001 9.355444e+001 1.503973e+002 1.333033e+002 1.504728e+002 5.629073e+000 5.393333e+000 4.006411e+000 4.247942e+000 5.297506e+000 7.047223e+000 8.215574e+000 5.592829e+000 5.887562e+000 5.223722e+000 5.086804e+000 5.449037e+000 4.774747e+000 2.902521e-001 7.294626e-001 5.442520e-001 5.650609e-001 7.958453e-001 1.247206e+000 1.206244e+000 9.127092e-001 1.092311e+000 9.639086e-001 8.324798e-001 8.823912e-001 7.215548e-001 4.262514e-002
<GCONST> 1.466047e+002
<STATE> 3
<MEAN> 39
 -6.309265e+000 4.408976e-001 -8.963153e-001 -6.673538e+000 -2.488377e+000 -9.426623e+000 -6.475216e+000 -1.318428e+001 5.941970e+000 2.780924e-001 -2.241503e+000 -7.182016e+000 1.782693e+001 -3.137489e-001 -8.078770e-002 3.905995e-002 -2.714340e-001 1.735423e-001 -1.085478e-001 3.801408e-001 2.045392e-001 2.627161e-001 -1.220163e-001 -1.618269e-002 1.479919e-001 1.317136e-001 3.478030e-002 -4.575317e-002 -1.056337e-002 -8.230061e-002 5.628704e-002 1.314336e-001 4.168807e-002 -5.598064e-002 -6.389589e-002 1.349049e-003 -1.042177e-002 -4.434417e-002 6.725386e-003
<VARIANCE> 39
 1.064069e+002 1.421383e+002 2.035226e+002 1.622100e+002 1.957189e+002 2.322644e+002 1.320704e+002 9.308281e+001 1.141666e+002 1.356197e+002 1.267439e+002 1.213864e+002 5.836025e+000 5.415154e+000 4.616532e+000 4.594894e+000 5.658035e+000 6.981085e+000 9.130592e+000 5.235632e+000 5.548229e+000 4.897546e+000 4.537232e+000 5.173640e+000 4.117754e+000 3.006839e-001 6.927342e-001 6.422035e-001 6.191848e-001 8.140925e-001 1.272599e+000 1.303772e+000 8.414366e-001 1.042472e+000 9.548722e-001 7.908965e-001 8.246195e-001 6.596001e-001 4.566128e-002
<GCONST> 1.467630e+002
<STATE> 4
<MEAN> 39
 -7.937284e+000 1.390765e+000 1.501072e+000 -7.775661e+000 -3.399427e+000 -9.255023e+000 -4.815438e+000 -1.276148e+001 7.196601e+000 7.727868e-001 -2.457151e+000 -7.027912e+000 1.828711e+001 2.345305e-001 -6.083273e-001 -2.118692e-001 -9.474773e-001 3.018846e-001 1.061138e+000 5.193428e-001 2.145000e-001 -1.524076e-002 -1.970999e-001 -1.929212e-003 -2.495462e-001 1.313380e-001 2.303793e-002 2.320981e-002 -3.331525e-002 2.285435e-002 6.737284e-002 1.242005e-001 1.398512e-002 -5.740036e-002 -1.093049e-001 -7.202732e-002 1.312376e-001 -1.552519e-002 -7.045396e-003
<VARIANCE> 39
 1.062820e+002 1.592649e+002 2.009468e+002 1.788959e+002 2.586197e+002 2.174810e+002 1.068673e+002 7.244794e+001 1.238250e+002 1.167086e+002 1.030364e+002 9.102878e+001 7.016995e+000 6.107223e+000 6.025038e+000 4.110663e+000 7.765280e+000 5.518135e+000 1.153772e+001 4.827192e+000 3.692491e+000 4.615907e+000 4.783507e+000 4.522035e+000 3.851785e+000 2.953951e-001 8.062417e-001 7.756139e-001 5.885509e-001 9.606134e-001 9.187497e-001 1.313942e+000 7.314072e-001 6.726461e-001 8.380579e-001 8.626296e-001 7.396485e-001 6.403021e-001 4.698750e-002
<GCONST> 1.456139e+002
<TRANSP> 5
 0.000000e+000 1.000000e+000 0.000000e+000 0.000000e+000 0.000000e+000
 0.000000e+000 7.829024e-001 2.170976e-001 0.000000e+000 0.000000e+000
 0.000000e+000 0.000000e+000 8.156606e-001 1.843394e-001 0.000000e+000
 0.000000e+000 0.000000e+000 0.000000e+000 8.568323e-001 1.431677e-001
 0.000000e+000 0.000000e+000 0.000000e+000 0.000000e+000 0.000000e+000
<ENDHMM>
~h "s"
<BEGINHMM>
<NUMSTATES> 5
<STATE> 2
<MEAN> 39
 -3.322121e+000 -6.657283e+000 -6.797390e+000 -1.723242e+001 3.135619e+000 -2.809808e-001 -8.567787e-001 -9.127863e+000 2.520885e+000 -4.762159e+000 -2.308091e+000 -8.949073e+000 1.889052e+001 1.479797e-001 1.028312e-001 -7.491618e-002 -1.040174e-001 -8.529051e-002 3.658596e-001 1.054165e-001 -7.909631e-003 -1.407650e-001 -3.689135e-004 -2.623901e-003 2.111537e-002 -1.539379e-002 -2.273637e-002 -3.999492e-003 2.354678e-002 7.348952e-002 -4.542801e-002 -8.529854e-002 -9.894672e-003 6.256175e-002 5.182826e-002 9.034559e-003 -5.019321e-002 -2.532232e-003 -1.011200e-002
<VARIANCE> 39
 7.196526e+001 1.168951e+002 1.308064e+002 1.740194e+002 1.376706e+002 1.994279e+002 9.414775e+001 9.488126e+001 9.050482e+001 1.115057e+002 8.257938e+001 8.505524e+001 4.805840e+000 2.387549e+000 2.488853e+000 2.446324e+000 4.068617e+000 3.769436e+000 4.329818e+000 3.916714e+000 3.882077e+000 4.169530e+000 3.675090e+000 3.291750e+000 2.728984e+000 1.546530e-001 3.310675e-001 3.615057e-001 3.601077e-001 5.911934e-001 6.500951e-001 6.713884e-001 6.565596e-001 6.853300e-001 7.191172e-001 6.136459e-001 5.838777e-001 4.825510e-001 2.203833e-002
<GCONST> 1.311667e+002
<STATE> 3
<MEAN> 39
 -2.707602e+000 -6.711504e+000 -6.676873e+000 -1.722915e+001 2.530935e+000 4.642677e-001 -8.590778e-001 -8.927458e+000 2.181830e+000 -4.629667e+000 -2.658658e+000 -8.942521e+000 1.880910e+001 1.723576e-001 -3.709236e-002 -7.786797e-002 7.331789e-002 -1.507926e-001 2.412021e-001 7.756107e-002 1.661787e-001 -5.344126e-002 3.583390e-002 -7.807387e-002 -2.870231e-002 -2.937600e-002 1.051866e-003 -9.264796e-003 -7.015177e-004 6.334264e-002 -1.043086e-002 -5.065591e-002 -9.103978e-003 5.817598e-002 6.408189e-003 -1.411535e-002 -2.539106e-002 -4.481972e-004 -9.356551e-003
<VARIANCE> 39
 6.621783e+001 1.164622e+002 1.399428e+002 1.808232e+002 1.446415e+002 2.089129e+002 9.347150e+001 9.946037e+001 8.885487e+001 1.156045e+002 8.567711e+001 8.285583e+001 4.866570e+000 2.372151e+000 2.756740e+000 2.328248e+000 3.800328e+000 3.690571e+000 4.119834e+000 3.734469e+000 3.907640e+000 3.930676e+000 3.687191e+000 3.222478e+000 2.732705e+000 1.462362e-001 3.052279e-001 3.368294e-001 3.366513e-001 5.725678e-001 6.258984e-001 6.405380e-001 6.238922e-001 6.982169e-001 6.976868e-001 6.259151e-001 5.950467e-001 4.860873e-001 1.991847e-002
<GCONST> 1.306428e+002
<STATE> 4
<MEAN> 39
 -2.057433e+000 -7.156202e+000 -6.741386e+000 -1.673477e+001 1.880013e+000 1.048691e+000 -8.659909e-001 -8.338665e+000 1.915086e+000 -4.435758e+000 -3.112967e+000 -9.091192e+000 1.868867e+001 1.842826e-001 -8.067435e-002 -1.274822e-001 2.262381e-001 -1.101003e-001 2.079152e-001 7.023218e-002 2.544260e-001 -1.096052e-001 -1.445686e-002 -1.013180e-001 -2.712939e-002 -4.492982e-002 -1.282675e-002 3.606465e-002 4.511760e-003 5.813017e-002 1.602264e-002 -2.353821e-002 -1.906271e-002 1.534478e-002 -4.014909e-002 -2.200145e-002 -5.358994e-003 2.674308e-002 -1.392394e-002
<VARIANCE> 39
 5.711791e+001 1.175886e+002 1.477477e+002 1.882033e+002 1.564716e+002 2.079062e+002 9.424177e+001 1.010417e+002 8.856022e+001 1.133882e+002 9.016946e+001 8.177035e+001 5.217103e+000 1.869705e+000 2.809367e+000 2.248186e+000 3.673199e+000 3.758292e+000 4.168626e+000 3.568153e+000 3.901187e+000 3.779556e+000 3.724333e+000 3.174414e+000 2.727676e+000 1.527721e-001 2.535076e-001 3.279856e-001 3.381672e-001 5.490221e-001 6.065326e-001 6.185721e-001 6.033441e-001 6.961628e-001 6.702223e-001 6.202763e-001 5.961434e-001 4.983201e-001 1.783856e-002
<GCONST> 1.299883e+002
<TRANSP> 5
 0.000000e+000 1.000000e+000 0.000000e+000 0.000000e+000 0.000000e+000
 0.000000e+000 5.414968e-001 4.585032e-001 0.000000e+000 0.000000e+000
 0.000000e+000 0.000000e+000 5.351596e-001 4.648404e-001 0.000000e+000
 0.000000e+000 0.000000e+000 0.000000e+000 5.294576e-001 4.705424e-001
 0.000000e+000 0.000000e+000 0.000000e+000 0.000000e+000 0.000000e+000
<ENDHMM>
~h "t"
<BEGINHMM>
<NUMSTATES> 5
<STATE> 2
<MEAN> 39
 -1.299793e+001 4.835381e+000 -1.218064e+001 -1.703739e+001 9.356648e+000 -1.005475e+001 -1.102083e+000 -9.833247e+000 6.219308e+000 -3.825275e+000 5.130041e-001 -3.645119e+000 1.839860e+001 4.490571e-001 -4.676427e-001 9.687245e-002 -1.400750e+000 -2.004350e-001 -1.014610e+000 -7.041753e-001 -3.535857e-001 6.418821e-001 -1.024973e-001 -2.083036e-001 -1.295870e-001 2.653647e-001 8.613737e-002 -8.022669e-002 -1.641267e-002 -3.531994e-002 -1.559911e-002 8.441623e-002 -1.493930e-002 4.814362e-003 -7.021028e-002 2.895247e-002 2.270992e-002 -3.027618e-002 3.993436e-004
<VARIANCE> 39
 1.583786e+002 1.306828e+002 7.971148e+001 2.527683e+002 8.985291e+001 2.666857e+002 1.919965e+002 9.768653e+001 1.872194e+002 6.686409e+001 1.027729e+002 6.072215e+001 7.719985e+000 7.421382e+000 7.098052e+000 3.923136e+000 7.556153e+000 6.021362e+000 1.106584e+001 1.329823e+001 6.814500e+000 1.074163e+001 5.410226e+000 5.792965e+000 4.511190e+000 5.589277e-001 8.731941e-001 9.591097e-001 6.195360e-001 1.084996e+000 1.085812e+000 1.762229e+000 1.901562e+000 1.284400e+000 1.921511e+000 8.984797e-001 1.048989e+000 8.366767e-001 7.590724e-002
<GCONST> 1.532748e+002
<STATE> 3
<MEAN> 39
 -2.843596e+000 2.610633e-001 -1.326211e+001 -2.890936e+001 7.591870e+000 -9.982413e+000 -7.947496e+000 -1.122957e+001 4.075284e+000 -5.358277e+000 -3.387809e+000 -3.671750e+000 1.896948e+001 2.629331e-001 -4.558496e-001 -2.658836e-002 -3.656257e-001 -1.321639e-001 1.397052e-001 1.640993e-001 3.472774e-002 -1.957540e-001 -4.198003e-002 6.825399e-002 -1.867655e-001 8.061687e-002 -6.583684e-002 -8.768195e-003 3.915979e-002 2.007918e-001 5.869996e-003 -2.298517e-002 8.505049e-002 8.573046e-002 -2.294706e-002 -1.077602e-002 -2.034166e-002 -2.985145e-002 -4.660547e-003
<VARIANCE> 39
 5.728744e+001 1.140818e+002 5.843616e+001 1.670300e+002 8.229005e+001 1.668862e+002 1.026953e+002 1.310528e+002 1.892199e+002 7.536650e+001 9.968025e+001 5.949742e+001 3.202235e+000 2.606459e+000 4.427736e+000 2.597868e+000 6.931283e+000 4.851042e+000 7.483812e+000 7.265600e+000 6.013029e+000 8.063718e+000 5.250909e+000 5.702890e+000 4.113986e+000 2.431627e-001 3.285869e-001 5.990891e-001 4.548793e-001 9.321813e-001 9.189807e-001 1.211155e+000 1.199864e+000 1.062394e+000 1.411617e+000 9.368202e-001 1.043030e+000 7.249113e-001 3.198443e-002
<GCONST> 1.407170e+002
<STATE> 4
<MEAN> 39
 -1.629603e-001 -2.825045e+000 -1.532383e+001 -2.153923e+001 8.673023e+000 -8.244109e+000 -6.778040e+000 -7.599010e+000 -2.149363e-001 -7.346887e+000 -7.147476e+000 -2.845242e+000 1.875069e+001 -1.358171e-001 -3.745593e-001 1.354361e-001 4.182709e-001 -1.460712e-001 -2.146626e-001 3.156795e-001 1.152102e-001 8.876567e-002 -8.861060e-002 -1.035003e-001 -4.451224e-002 3.928265e-002 -1.366774e-002 -1.705645e-002 4.187414e-002 5.654129e-002 -2.267097e-002 -4.804486e-002 1.299612e-002 3.586640e-002 -1.547452e-002 -3.225837e-002 -2.611762e-002 2.730912e-002 -6.913183e-003
<VARIANCE> 39
 6.660865e+001 1.870628e+002 6.060997e+001 2.348380e+002 1.097593e+002 1.476799e+002 1.089716e+002 1.181192e+002 1.210352e+002 7.065930e+001 9.957270e+001 6.451329e+001 3.708029e+000 2.361835e+000 5.236011e+000 2.596479e+000 5.303207e+000 4.861876e+000 6.519308e+000 6.722426e+000 5.441772e+000 6.738225e+000 4.429000e+000 4.478122e+000 4.159258e+000 1.668567e-001 2.960942e-001 6.958316e-001 4.396974e-001 7.856120e-001 8.571936e-001 1.100183e+000 1.016633e+000 1.005762e+000 1.263685e+000 8.068044e-001 8.578263e-001 7.582007e-001 2.552238e-002
<GCONST> 1.389242e+002
<TRANSP> 5
 0.000000e+000 1.000000e+000 0.000000e+000 0.000000e+000 0.000000e+000
 0.000000e+000 8.880944e-001 1.119056e-001 0.000000e+000 0.000000e+000
 0.000000e+000 0.000000e+000 8.565743e-001 1.434257e-001 0.000000e+000
 0.000000e+000 0.000000e+000 0.000000e+000 9.290069e-001 7.099310e-002
 0.000000e+000 0.000000e+000 0.000000e+000 0.000000e+000 0.000000e+000
<ENDHMM>
~h "u"
<BEGINHMM>
<NUMSTATES> 5
<STATE> 2
<MEAN> 39
 -4.876071e+000 3.419158e+000 -8.835144e+000 -1.562939e+001 5.943652e+000 1.511585e+000 -4.039785e+000 -1.193103e+001 1.402512e+000 -6.558345e+000 -1.938496e+000 -7.059866e+000 1.820809e+001 2.097063e-001 2.550574e-001 -1.550424e-001 -9.151515e-001 -1.595160e-001 5.128364e-002 -4.221862e-001 -2.114505e-001 -8.398846e-002 1.111214e-001 1.469692e-001 -2.034712e-001 1.653100e-002 -1.767143e-002 -2.064241e-002 7.180559e-003 -2.467924e-003 -4.473664e-003 -5.017627e-002 2.219276e-002 4.569896e-003 2.559647e-002 8.311639e-003 7.321467e-003 -6.412320e-002 8.134021e-003
<VARIANCE> 39
 1.647133e+002 1.420925e+002 9.543508e+001 2.916860e+002 1.491476e+002 1.987509e+002 1.109408e+002 9.064312e+001 1.049042e+002 6.785409e+001 8.104712e+001 4.913288e+001 5.466936e+000 9.748641e+000 5.132080e+000 2.717604e+000 4.829180e+000 4.729479e+000 8.556797e+000 7.061946e+000 4.263852e+000 5.389886e+000 3.191563e+000 3.810220e+000 2.365480e+000 1.892901e-001 1.379050e+000 7.244745e-001 4.602485e-001 7.024541e-001 7.392706e-001 1.232238e+000 1.038749e+000 7.182086e-001 9.523345e-001 5.297933e-001 7.234261e-001 4.212921e-001 3.224393e-002
<GCONST> 1.404923e+002
<STATE> 3
<MEAN> 39
 -2.546548e+000 4.912095e+000 -8.960599e+000 -2.011289e+001 2.372449e+000 4.219229e+000 -5.487219e+000 -1.068387e+001 -3.614804e-001 -6.808191e+000 -9.611266e-001 -8.237210e+000 1.807483e+001 2.542450e-001 1.385134e-002 -6.451100e-002 -3.591501e-001 -3.889597e-001 1.073723e-001 -1.857615e-001 -2.790178e-002 -1.858215e-001 3.002617e-002 5.707134e-002 -2.032666e-001 7.995517e-003 1.236173e-002 -2.018288e-002 5.213893e-003 6.765246e-002 -1.534520e-002 3.284368e-002 2.074296e-002 9.750809e-003 6.642014e-003 -1.379955e-002 -1.708661e-003 8.495966e-003 -8.061212e-004
<VARIANCE> 39
 1.596110e+002 1.227841e+002 9.085091e+001 2.314145e+002 1.904949e+002 2.021684e+002 8.750163e+001 9.452477e+001 1.083034e+002 8.185175e+001 1.013548e+002 7.632127e+001 4.174825e+000 6.906566e+000 3.752261e+000 2.868253e+000 5.289998e+000 5.107940e+000 8.077277e+000 5.128635e+000 4.511576e+000 5.300400e+000 3.371710e+000 3.830553e+000 3.199197e+000 2.263604e-001 8.377504e-001 4.447288e-001 4.562477e-001 6.615050e-001 8.012735e-001 1.167856e+000 7.665745e-001 7.313688e-001 8.702597e-001 5.676152e-001 6.663998e-001 5.173922e-001 2.937261e-002
<GCONST> 1.391766e+002
<STATE> 4
<MEAN> 39
 -1.109036e-001 2.279788e+000 -7.964354e+000 -2.304861e+001 -2.613715e+000 6.331212e+000 -7.127590e+000 -7.337025e+000 -2.768036e+000 -5.643695e+000 8.256060e-001 -8.104732e+000 1.812329e+001 1.812595e-001 -6.710492e-001 3.264050e-001 2.799801e-001 -1.864520e-001 8.143711e-002 -1.141147e-001 3.526483e-002 6.752224e-002 1.165760e-001 2.558267e-002 -1.775830e-001 6.799833e-002 -1.148200e-002 -9.179194e-003 3.267968e-002 6.281287e-002 2.097810e-002 -2.732792e-002 3.244384e-002 6.023229e-002 -8.616945e-003 -1.411870e-002 6.733976e-003 3.654984e-002 -2.434988e-003
<VARIANCE> 39
 1.211145e+002 1.301522e+002 1.002695e+002 2.631212e+002 1.676591e+002 1.938999e+002 7.394931e+001 1.332150e+002 1.159234e+002 9.474864e+001 1.170136e+002 1.213344e+002 4.328979e+000 4.558599e+000 4.244108e+000 4.919866e+000 7.552007e+000 6.121324e+000 9.775525e+000 4.010421e+000 5.204725e+000 6.329901e+000 4.391590e+000 4.530630e+000 4.632674e+000 2.219161e-001 5.846565e-001 5.058814e-001 7.914240e-001 8.761779e-001 1.063156e+000 1.394490e+000 6.558937e-001 9.555575e-001 1.060144e+000 7.386342e-001 7.920601e-001 8.386990e-001 2.913426e-002
<GCONST> 1.441622e+002
<TRANSP> 5
 0.000000e+000 1.000000e+000 0.000000e+000 0.000000e+000 0.000000e+000
 0.000000e+000 8.759710e-001 1.240290e-001 0.000000e+000 0.000000e+000
 0.000000e+000 0.000000e+000 8.777167e-001 1.222833e-001 0.000000e+000
 0.000000e+000 0.000000e+000 0.000000e+000 9.161745e-001 8.382553e-002
 0.000000e+000 0.000000e+000 0.000000e+000 0.000000e+000 0.000000e+000
<ENDHMM>
~h "v"
<BEGINHMM>
<NUMSTATES> 5
<STATE> 2
<MEAN> 39
 -8.015877e+000 3.494116e+000 -2.443440e+000 -9.872025e+000 -2.406442e-001 -1.669924e+001 -9.345708e+000 -1.035914e+001 8.339405e+000 3.983375e-001 -3.475846e+000 -5.597667e+000 1.699149e+001 -4.697784e-001 1.341703e-001 -2.208048e-001 -4.288901e-002 3.671118e-001 -7.507725e-001 1.578592e-001 -2.660812e-001 3.792607e-001 9.927219e-002 3.093172e-001 -9.201320e-002 2.413336e-001 6.160596e-002 2.098786e-002 2.872837e-002 2.172926e-002 -9.624700e-002 1.332060e-001 1.242477e-002 8.476670e-002 -6.773113e-002 -1.729664e-002 2.230404e-002 -1.338170e-002 -3.641035e-003
<VARIANCE> 39
 1.369447e+002 9.724735e+001 1.012629e+002 1.220728e+002 1.146806e+002 2.957048e+002 1.312045e+002 9.368346e+001 1.186158e+002 1.104398e+002 1.192197e+002 1.213024e+002 5.623341e+000 1.415907e+001 5.226384e+000 6.251886e+000 8.730943e+000 9.012705e+000 1.136215e+001 9.917815e+000 6.954177e+000 7.051024e+000 6.761114e+000 7.278674e+000 6.002215e+000 5.419458e-001 2.462094e+000 8.671920e-001 1.077509e+000 1.444131e+000 1.672530e+000 1.909913e+000 1.821292e+000 1.304882e+000 1.288731e+000 1.143901e+000 1.234435e+000 1.004180e+000 9.305989e-002
<GCONST> 1.568825e+002
<STATE> 3
<MEAN> 39
 -1.077507e+001 5.223773e+000 -4.568108e+000 -8.223866e+000 8.138810e-001 -2.032203e+001 -7.769288e+000 -1.029696e+001 1.032982e+001 3.892658e-001 -1.767907e+000 -5.894773e+000 1.813608e+001 -5.082697e-001 -1.548630e-001 -1.634715e-001 -4.214483e-002 1.205053e-001 -6.852815e-002 4.830055e-001 9.663602e-002 3.146726e-001 -1.904003e-001 2.525456e-001 -1.150028e-001 1.798297e-001 1.735562e-001 -1.857936e-001 -4.668088e-002 -1.335257e-001 -3.284587e-003 2.787429e-001 3.817371e-002 5.458559e-002 -2.782780e-002 -4.774562e-002 -7.061245e-002 -6.306257e-002 -1.538364e-002
<VARIANCE> 39
 1.383336e+002 1.063233e+002 9.043159e+001 1.106188e+002 1.111510e+002 2.859550e+002 1.179509e+002 8.372136e+001 1.004579e+002 9.238191e+001 1.043844e+002 1.051130e+002 4.658449e+000 9.926628e+000 5.838363e+000 5.503440e+000 8.373118e+000 6.336484e+000 1.213275e+001 6.807824e+000 5.204762e+000 5.187090e+000 5.650789e+000 6.299953e+000 5.116581e+000 4.213242e-001 1.421630e+000 8.579279e-001 9.526447e-001 1.294722e+000 1.193073e+000 1.724715e+000 1.216865e+000 9.797247e-001 9.747635e-001 1.008874e+000 1.074558e+000 8.470185e-001 7.475522e-002
<GCONST> 1.504139e+002
<STATE> 4
<MEAN> 39
 -1.303895e+001 2.758816e+000 -6.272544e+000 -1.007781e+001 2.033092e+000 -1.791905e+001 -3.572991e+000 -9.399976e+000 1.192544e+001 -1.339664e+000 -9.966164e-001 -7.327603e+000 1.910983e+001 8.846312e-001 -1.654809e+000 -5.932496e-001 -1.331282e+000 4.216519e-001 1.976684e+000 6.828362e-001 2.920131e-001 6.509954e-002 -5.814834e-001 -2.171582e-001 -6.516643e-001 1.571365e-001 1.887377e-001 -1.433351e-001 -6.853434e-002 -8.278424e-002 1.022244e-001 3.082207e-001 -1.350352e-002 -2.769150e-002 -1.554322e-001 -9.021451e-002 4.119656e-003 -5.831779e-002 1.552596e-002
<VARIANCE> 39
 1.085216e+002 1.312269e+002 9.253281e+001 1.146505e+002 9.400493e+001 2.526223e+002 9.139054e+001 7.249039e+001 7.546941e+001 8.363057e+001 8.662235e+001 8.967797e+001 2.820549e+000 9.315228e+000 9.413730e+000 6.468508e+000 9.002272e+000 6.417535e+000 1.315982e+001 5.358608e+000 4.116315e+000 4.667660e+000 6.291895e+000 6.125116e+000 5.728273e+000 2.731425e-001 1.189929e+000 1.302402e+000 9.917191e-001 1.284904e+000 9.399635e-001 1.550255e+000 9.537640e-001 7.574424e-001 8.695728e-001 1.114253e+000 1.095064e+000 9.100791e-001 5.417355e-002
<GCONST> 1.476186e+002
<TRANSP> 5
 0.000000e+000 1.000000e+000 0.000000e+000 0.000000e+000 0.000000e+000
 0.000000e+000 8.416668e-001 1.583333e-001 0.000000e+000 0.000000e+000
 0.000000e+000 0.000000e+000 8.260090e-001 1.739910e-001 0.000000e+000
 0.000000e+000 0.000000e+000 0.000000e+000 8.134530e-001 1.865470e-001
 0.000000e+000 0.000000e+000 0.000000e+000 0.000000e+000 0.000000e+000
<ENDHMM>
~h "w"
<BEGINHMM>
<NUMSTATES> 5
<STATE> 2
<MEAN> 39
 -2.404467e+000 -1.194249e+000 1.692463e+000 -2.143884e+001 -5.680188e+000 -3.319650e+000 -6.992324e+000 -1.558264e+001 4.973240e+000 -1.521067e+000 -6.290429e+000 -3.537143e+000 1.775481e+001 -5.082085e-001 -1.951353e-001 4.888493e-001 -4.408239e-001 -2.420982e-002 -6.542104e-001 -1.255364e-001 3.097613e-001 8.338929e-001 1.515074e-002 4.043335e-002 9.503408e-002 1.336155e-001 3.077863e-002 -4.593640e-002 9.590680e-002 9.127226e-002 -4.568879e-002 -3.285068e-002 1.131927e-001 -4.638897e-003 -4.886861e-002 6.829906e-003 -2.102388e-002 -3.191902e-002 1.962766e-002
<VARIANCE> 39
 6.712540e+001 7.217039e+001 2.078589e+002 2.269488e+002 1.256464e+002 1.604533e+002 1.131448e+002 1.762157e+002 8.365731e+001 9.452302e+001 7.595424e+001 2.009606e+002 7.066516e+000 4.088591e+000 3.306558e+000 9.199173e+000 6.339124e+000 8.597753e+000 7.898363e+000 8.512367e+000 6.930402e+000 6.712337e+000 5.581328e+000 4.632975e+000 5.323618e+000 3.265113e-001 6.390028e-001 4.954455e-001 1.225429e+000 8.410292e-001 1.596906e+000 1.384365e+000 1.536103e+000 1.279156e+000 1.150791e+000 1.076758e+000 8.320051e-001 9.332563e-001 4.758557e-002
<GCONST> 1.492404e+002
<STATE> 3
<MEAN> 39
 -2.595769e+000 -2.054060e+000 -3.416427e-001 -1.560971e+001 -6.358567e+000 -7.452663e+000 -9.319864e+000 -8.717775e+000 8.118553e+000 -1.998354e+000 -5.518172e+000 -6.077620e+000 1.772865e+001 -1.203177e-001 -1.132672e-001 8.663135e-002 4.384117e-001 -4.960444e-002 -6.771389e-001 1.622899e-001 3.065737e-001 3.465492e-001 -1.389489e-002 4.738981e-002 -3.727531e-002 9.027919e-002 2.631602e-002 1.945876e-002 8.636971e-003 -7.344134e-003 -1.754350e-002 6.665774e-002 6.259130e-002 -4.330704e-002 -4.916644e-002 -1.141312e-002 1.492379e-002 -1.846213e-002 2.626901e-003
<VARIANCE> 39
 6.196469e+001 9.847715e+001 1.370196e+002 1.902191e+002 1.082018e+002 2.520334e+002 1.103187e+002 1.777988e+002 9.155965e+001 1.031539e+002 8.350482e+001 1.796290e+002 7.133041e+000 3.924568e+000 3.596282e+000 7.073089e+000 6.576996e+000 6.429772e+000 9.627019e+000 8.044801e+000 6.296550e+000 6.341550e+000 5.704940e+000 5.229401e+000 5.073067e+000 4.337398e-001 6.320227e-001 5.527769e-001 1.110628e+000 1.027560e+000 1.176925e+000 1.412287e+000 1.510072e+000 1.133865e+000 1.121210e+000 1.057522e+000 8.948024e-001 9.162830e-001 6.757475e-002
<GCONST> 1.493658e+002
<STATE> 4
<MEAN> 39
 -3.269775e+000 -1.556049e+000 -3.227278e+000 -1.113123e+001 -5.110346e+000 -1.082112e+001 -8.594624e+000 -6.684650e+000 1.008114e+001 -1.539400e+000 -4.501163e+000 -7.526960e+000 1.809213e+001 -1.275589e-001 -1.458603e-001 -2.066083e-001 -1.394269e-003 2.151653e-001 3.072704e-003 3.902952e-001 -1.215574e-001 1.834748e-001 -1.569076e-001 1.154573e-001 -5.451290e-002 1.503397e-001 1.715675e-002 5.354506e-002 -2.666653e-002 -6.705201e-002 3.372744e-002 1.480544e-001 -9.873722e-003 2.051770e-002 -5.900593e-002 -5.422169e-002 -1.673479e-002 2.341735e-002 -7.705559e-003
<VARIANCE> 39
 9.334277e+001 1.160324e+002 9.467685e+001 1.339832e+002 1.031546e+002 2.894423e+002 1.054324e+002 1.212900e+002 9.268250e+001 1.195542e+002 9.139439e+001 1.428541e+002 6.097332e+000 5.282795e+000 5.762951e+000 7.443235e+000 7.577111e+000 6.458076e+000 9.857006e+000 6.847706e+000 6.275494e+000 5.443170e+000 6.373476e+000 5.525079e+000 5.941096e+000 4.168248e-001 7.783605e-001 8.461459e-001 1.245033e+000 1.091094e+000 1.031670e+000 1.232364e+000 1.301902e+000 1.095834e+000 1.046003e+000 1.162397e+000 9.532885e-001 1.102668e+000 6.832124e-002
<GCONST> 1.503448e+002
<TRANSP> 5
 0.000000e+000 1.000000e+000 0.000000e+000 0.000000e+000 0.000000e+000
 0.000000e+000 8.966455e-001 1.033545e-001 0.000000e+000 0.000000e+000
 0.000000e+000 0.000000e+000 8.741935e-001 1.258066e-001 0.000000e+000
 0.000000e+000 0.000000e+000 0.000000e+000 8.776056e-001 1.223943e-001
 0.000000e+000 0.000000e+000 0.000000e+000 0.000000e+000 0.000000e+000
<ENDHMM>
~h "x"
<BEGINHMM>
<NUMSTATES> 5
<STATE> 2
<MEAN> 39
 -5.098189e+000 -1.373962e+001 -3.068819e+000 -1.332262e+001 3.646934e+000 -2.189845e+000 3.201104e+000 -6.367392e+000 2.296444e+000 -4.244011e+000 -3.709395e+000 -1.209521e+001 1.870509e+001 9.496537e-002 6.606372e-002 2.465494e-001 1.126218e-001 -1.426257e-001 -2.104080e-002 1.995313e-002 -4.304970e-002 -1.194639e-001 5.442798e-002 1.901180e-002 -2.090314e-002 -2.737077e-002 -1.217910e-002 7.519948e-003 -1.056899e-002 -8.239798e-003 1.366469e-002 1.485194e-002 -7.152260e-003 -9.235721e-003 -4.650664e-004 1.834066e-002 -8.822596e-003 1.132057e-002 -3.340880e-003
<VARIANCE> 39
 2.383898e+001 6.408021e+001 9.188012e+001 6.417334e+001 8.395931e+001 8.599274e+001 4.570848e+001 6.732700e+001 6.320274e+001 5.757037e+001 6.389058e+001 5.550565e+001 3.621800e+000 1.355319e+000 2.516086e+000 2.519433e+000 3.310914e+000 3.088972e+000 2.532254e+000 3.527692e+000 3.463105e+000 3.758275e+000 3.687704e+000 2.594463e+000 2.241500e+000 2.299382e-001 2.393491e-001 4.283286e-001 3.491426e-001 4.979061e-001 5.383406e-001 4.569567e-001 6.394188e-001 6.225282e-001 6.525788e-001 6.814983e-001 4.468640e-001 4.303372e-001 2.860445e-002
<GCONST> 1.207304e+002
<STATE> 3
<MEAN> 39
 -5.692048e+000 -1.272799e+001 8.042535e-001 -1.220304e+001 -4.822160e-001 -4.400254e+000 4.278452e+000 -6.989185e+000 2.170860e+000 -2.797494e+000 -3.831412e+000 -1.063626e+001 1.843594e+001 -2.226532e-003 6.168797e-002 1.826592e-001 3.876994e-002 -1.481681e-001 -4.412743e-002 9.762909e-003 8.775668e-003 -5.225902e-002 8.674001e-002 -1.140600e-002 3.102062e-002 -9.758992e-003 -3.568396e-003 1.202523e-006 -6.422050e-003 -1.700083e-003 -2.867942e-003 4.353981e-004 -2.688935e-003 4.457257e-003 5.836010e-003 5.551928e-003 -9.939597e-004 4.548426e-003 8.999099e-004
<VARIANCE> 39
 2.736231e+001 4.714084e+001 9.870477e+001 8.618472e+001 1.166964e+002 8.518692e+001 4.994561e+001 6.720396e+001 6.861938e+001 6.382938e+001 7.021220e+001 5.123552e+001 3.534253e+000 1.183127e+000 1.679855e+000 2.382329e+000 2.996037e+000 3.758681e+000 2.767773e+000 3.551488e+000 3.071082e+000 3.704373e+000 3.334103e+000 2.473674e+000 2.161462e+000 1.614038e-001 2.110971e-001 2.900025e-001 3.759360e-001 4.500478e-001 6.143612e-001 5.067980e-001 6.278180e-001 5.508015e-001 6.181912e-001 5.905496e-001 4.246967e-001 4.084839e-001 1.984843e-002
<GCONST> 1.193189e+002
<STATE> 4
<MEAN> 39
 -6.372992e+000 -1.159511e+001 6.677405e+000 -1.229420e+001 -5.971328e+000 -6.756123e+000 4.620622e+000 -6.909602e+000 9.284092e-001 -4.177748e-001 -3.841382e+000 -1.027456e+001 1.865695e+001 7.375243e-002 5.001872e-002 7.830494e-002 8.897883e-002 -1.177472e-001 3.155916e-002 -3.187609e-002 3.700221e-002 -1.135155e-001 1.159961e-001 -5.978728e-002 2.090176e-002 -2.586637e-002 4.222597e-003 6.109849e-003 -1.985317e-002 1.267767e-002 7.578681e-003 -1.181493e-003 -1.490538e-003 -1.929252e-004 -1.653934e-003 5.325392e-003 -6.276993e-004 5.247770e-003 -3.094789e-003
<VARIANCE> 39
 2.619392e+001 4.157319e+001 1.156962e+002 8.899277e+001 1.219844e+002 7.120690e+001 5.762532e+001 7.584121e+001 7.362366e+001 7.407336e+001 1.005832e+002 4.393431e+001 3.268057e+000 8.671030e-001 1.473279e+000 2.456942e+000 2.362888e+000 4.088532e+000 2.599592e+000 3.423331e+000 2.984590e+000 3.354313e+000 3.198360e+000 2.474343e+000 1.779110e+000 1.138946e-001 1.380905e-001 2.685159e-001 4.205473e-001 3.542618e-001 6.499771e-001 4.789037e-001 5.766414e-001 5.599081e-001 5.574505e-001 5.988938e-001 4.356856e-001 3.535931e-001 1.373139e-002
<GCONST> 1.171657e+002
<TRANSP> 5
 0.000000e+000 1.000000e+000 0.000000e+000 0.000000e+000 0.000000e+000
 0.000000e+000 9.462234e-001 5.377666e-002 0.000000e+000 0.000000e+000
 0.000000e+000 0.000000e+000 9.598207e-001 4.017931e-002 0.000000e+000
 0.000000e+000 0.000000e+000 0.000000e+000 9.764333e-001 2.356673e-002
 0.000000e+000 0.000000e+000 0.000000e+000 0.000000e+000 0.000000e+000
<ENDHMM>
~h "z"
<BEGINHMM>
<NUMSTATES> 5
<STATE> 2
<MEAN> 39
 -7.732762e+000 -1.801444e+001 -1.373360e-001 -1.296980e+001 1.546430e+000 -4.765060e+000 6.004771e+000 -5.036022e+000 4.025252e+000 -1.028714e+001 -3.151481e+000 -7.922720e+000 2.059760e+001 1.358667e-001 -4.553341e-002 -4.651621e-002 3.447460e-001 2.467128e-001 1.070028e-001 -1.905210e-001 3.344952e-002 1.405378e-002 -5.879657e-002 -3.796536e-002 1.117848e-001 -6.763579e-002 9.574830e-004 2.207770e-002 -1.883509e-002 9.699745e-003 -2.116074e-003 -2.034553e-002 -4.224081e-002 3.121275e-003 -7.883528e-003 4.272811e-004 -2.496905e-005 7.847175e-003 -1.262249e-002
<VARIANCE> 39
 3.148506e+001 3.446430e+001 5.397812e+001 7.032471e+001 8.779581e+001 1.280522e+002 7.260377e+001 5.917868e+001 7.988123e+001 7.797581e+001 6.649741e+001 5.420385e+001 2.672051e+000 4.345896e-001 1.065856e+000 1.442632e+000 1.870880e+000 2.026996e+000 1.836605e+000 2.259705e+000 2.088973e+000 2.281233e+000 2.186052e+000 1.848187e+000 1.826244e+000 6.628332e-002 7.997609e-002 1.844163e-001 2.142284e-001 2.604358e-001 2.852500e-001 2.946155e-001 3.833382e-001 3.882926e-001 4.142619e-001 3.886816e-001 3.410241e-001 3.249770e-001 9.164844e-003
<GCONST> 1.055078e+002
<STATE> 3
<MEAN> 39
 -7.007434e+000 -1.794492e+001 -8.259366e-001 -1.158994e+001 2.961232e+000 -4.500727e+000 5.038213e+000 -5.014956e+000 3.973344e+000 -1.008207e+001 -3.750647e+000 -7.452554e+000 2.011647e+001 1.284664e-001 2.369464e-002 -1.123535e-001 3.132229e-001 1.913249e-001 6.867351e-002 -2.178147e-001 6.177673e-002 5.545097e-003 -6.048474e-002 -4.764491e-002 1.189607e-001 -9.520499e-002 -6.013257e-003 1.425523e-002 -2.100064e-002 -1.356405e-002 -1.288981e-002 -1.914776e-002 -2.094742e-002 -3.811711e-003 -2.081267e-003 1.124336e-003 -3.892967e-003 -4.706915e-003 -4.422022e-003
<VARIANCE> 39
 3.311192e+001 3.741375e+001 5.088473e+001 7.056521e+001 8.591100e+001 1.301438e+002 7.255069e+001 5.582242e+001 7.545115e+001 7.943896e+001 6.059904e+001 5.701114e+001 2.887559e+000 4.979692e-001 1.031028e+000 1.393942e+000 1.809972e+000 1.913892e+000 1.781487e+000 2.292651e+000 2.133957e+000 2.415599e+000 2.261827e+000 1.759337e+000 1.835019e+000 7.168561e-002 8.498074e-002 1.795318e-001 2.221684e-001 2.766322e-001 2.822351e-001 2.910930e-001 3.766546e-001 3.935647e-001 4.162211e-001 3.927242e-001 3.186424e-001 3.248844e-001 9.725856e-003
<GCONST> 1.057355e+002
<STATE> 4
<MEAN> 39
 -6.521276e+000 -1.769513e+001 -1.559730e+000 -1.045866e+001 3.835126e+000 -4.246081e+000 4.335040e+000 -4.760211e+000 4.042962e+000 -1.005895e+001 -4.160614e+000 -7.024496e+000 1.967470e+001 1.007436e-001 5.760989e-002 -1.338835e-001 2.145329e-001 1.122814e-001 2.249841e-002 -2.516498e-001 3.011012e-002 3.415158e-004 -3.827806e-002 -3.333608e-002 1.061199e-001 -9.162807e-002 -4.993903e-003 1.311221e-002 -7.159269e-003 -2.633929e-002 -9.973207e-003 -1.475238e-002 -8.560802e-003 -2.054827e-002 -3.663055e-003 1.428196e-002 3.927409e-003 -5.621800e-003 1.539694e-003
<VARIANCE> 39
 3.488908e+001 3.979356e+001 5.233820e+001 7.144183e+001 8.435115e+001 1.328678e+002 7.496391e+001 5.588079e+001 7.170165e+001 8.218008e+001 5.558019e+001 6.210078e+001 2.995966e+000 6.231219e-001 1.100216e+000 1.462662e+000 1.985099e+000 1.944931e+000 1.968556e+000 2.467673e+000 2.308317e+000 2.532957e+000 2.463858e+000 1.795695e+000 1.908861e+000 7.798836e-002 1.041851e-001 1.897954e-001 2.373698e-001 3.164718e-001 3.013531e-001 3.287896e-001 4.020109e-001 4.183629e-001 4.299198e-001 4.264113e-001 3.298190e-001 3.353065e-001 1.067269e-002
<GCONST> 1.079671e+002
<TRANSP> 5
 0.000000e+000 1.000000e+000 0.000000e+000 0.000000e+000 0.000000e+000
 0.000000e+000 7.338348e-001 2.661652e-001 0.000000e+000 0.000000e+000
 0.000000e+000 0.000000e+000 7.312454e-001 2.687546e-001 0.000000e+000
 0.000000e+000 0.000000e+000 0.000000e+000 7.356794e-001 2.643206e-001
 0.000000e+000 0.000000e+000 0.000000e+000 0.000000e+000 0.000000e+000
<ENDHMM>
~h "@@"
<BEGINHMM>
<NUMSTATES> 5
<STATE> 2
<MEAN> 39
 -2.250852e+000 -8.914747e+000 -1.070207e+001 -1.306974e+001 2.189809e+000 9.996745e-001 -1.829501e+000 -6.073617e+000 2.497748e+000 -4.611487e+000 -3.647115e+000 -8.012172e+000 1.785390e+001 -6.535108e-002 1.118514e-001 1.454317e-001 3.239716e-001 -4.427829e-002 -2.461964e-001 -1.140674e-001 1.290942e-001 -7.226370e-002 -2.822695e-003 -1.132079e-001 1.056419e-001 -9.458382e-002 -2.197171e-002 2.006520e-002 7.262170e-002 -3.067904e-002 1.214605e-002 -1.468646e-002 3.345424e-002 -2.886597e-002 -8.860230e-003 -1.832082e-002 -4.727362e-003 -9.815615e-003 7.774856e-003
<VARIANCE> 39
 7.427090e+001 1.188895e+002 1.655535e+002 1.512508e+002 1.472630e+002 2.082620e+002 8.915005e+001 1.130780e+002 8.692014e+001 8.464915e+001 8.142786e+001 9.438234e+001 7.733834e+000 2.521024e+000 3.435192e+000 3.845685e+000 4.268104e+000 4.278597e+000 5.501260e+000 4.643236e+000 5.286574e+000 4.687756e+000 4.312218e+000 3.794905e+000 3.468807e+000 1.909451e-001 3.566861e-001 4.689929e-001 6.039394e-001 6.859523e-001 6.689108e-001 8.651450e-001 7.967673e-001 9.255902e-001 8.666142e-001 7.433683e-001 6.732293e-001 6.305578e-001 2.798327e-002
<GCONST> 1.371876e+002
<STATE> 3
<MEAN> 39
 -2.678962e+000 -8.421607e+000 -1.014195e+001 -1.260544e+001 2.089262e+000 2.984363e-001 -1.802890e+000 -5.833810e+000 2.444008e+000 -4.787142e+000 -3.781667e+000 -7.869967e+000 1.771239e+001 -8.482776e-002 7.253554e-002 3.013810e-001 1.861777e-001 -6.729245e-002 -2.839398e-001 3.273843e-002 3.715920e-002 -1.000142e-001 -3.879834e-002 -1.551278e-001 6.908043e-002 -3.961119e-002 5.897830e-003 1.476197e-002 2.490756e-002 -5.232646e-002 6.138669e-003 3.851891e-002 5.605473e-002 -4.290701e-002 -2.036330e-002 -8.900702e-003 1.204961e-002 7.399988e-003 1.464542e-002
<VARIANCE> 39
 8.350304e+001 1.224261e+002 1.715584e+002 1.489849e+002 1.470674e+002 2.033583e+002 9.166429e+001 1.173906e+002 8.924422e+001 8.300397e+001 8.186131e+001 9.354211e+001 7.754439e+000 3.096413e+000 3.765644e+000 4.387212e+000 4.648732e+000 4.359511e+000 5.984061e+000 4.912087e+000 5.596205e+000 4.972520e+000 4.665839e+000 3.878514e+000 3.570997e+000 2.466935e-001 4.128848e-001 5.235621e-001 6.314450e-001 7.179691e-001 7.243609e-001 8.989992e-001 8.216628e-001 9.444616e-001 8.880567e-001 7.646466e-001 6.826488e-001 6.383282e-001 2.905739e-002
<GCONST> 1.392079e+002
<STATE> 4
<MEAN> 39
 -3.011601e+000 -8.260722e+000 -9.308739e+000 -1.254411e+001 1.850648e+000 -5.582838e-001 -1.492853e+000 -5.943438e+000 2.209294e+000 -4.999394e+000 -4.070030e+000 -7.683474e+000 1.775735e+001 -1.617834e-002 5.228777e-002 2.839451e-001 5.184810e-002 -8.126932e-002 -1.581824e-001 1.729119e-001 -7.693148e-002 -1.818352e-001 -4.953825e-002 -1.481299e-001 8.202384e-002 1.077970e-003 2.156343e-003 4.015689e-002 -3.837172e-002 -6.873465e-002 2.461801e-002 8.867965e-002 4.720465e-002 -2.403616e-002 -6.431294e-003 9.977518e-003 3.016864e-002 3.255389e-003 4.093224e-003
<VARIANCE> 39
 8.872881e+001 1.270851e+002 1.810211e+002 1.398946e+002 1.434767e+002 2.108334e+002 9.449507e+001 1.203270e+002 8.970810e+001 8.483231e+001 8.041184e+001 8.979794e+001 8.012535e+000 2.763683e+000 3.324236e+000 3.961320e+000 4.425101e+000 4.364483e+000 5.692447e+000 4.913341e+000 5.246087e+000 4.616134e+000 4.598805e+000 3.880242e+000 3.485265e+000 2.454505e-001 4.158907e-001 5.305044e-001 5.980051e-001 6.998890e-001 7.708898e-001 8.842672e-001 8.068302e-001 9.153466e-001 8.295038e-001 7.705891e-001 6.668773e-001 6.200694e-001 2.825558e-002
<GCONST> 1.385394e+002
<TRANSP> 5
 0.000000e+000 1.000000e+000 0.000000e+000 0.000000e+000 0.000000e+000
 0.000000e+000 5.269082e-001 4.730918e-001 0.000000e+000 0.000000e+000
 0.000000e+000 0.000000e+000 5.220657e-001 4.779344e-001 0.000000e+000
 0.000000e+000 0.000000e+000 0.000000e+000 5.157914e-001 4.842086e-001
 0.000000e+000 0.000000e+000 0.000000e+000 0.000000e+000 0.000000e+000
<ENDHMM>
~h "aa"
<BEGINHMM>
<NUMSTATES> 5
<STATE> 2
<MEAN> 39
 -5.672773e+000 -1.491200e+001 -2.311783e+000 -1.315519e+001 1.740468e+000 -4.030706e+000 3.103744e+000 -5.708074e+000 3.570497e+000 -8.127881e+000 -2.232354e+000 -7.200725e+000 1.930533e+001 1.153914e-001 9.779299e-002 -8.875362e-002 1.636135e-001 -1.802331e-002 1.722759e-001 -1.747895e-001 -5.017488e-002 -1.392987e-001 1.717694e-002 -7.284055e-003 9.258842e-002 -8.840434e-002 3.582626e-003 3.235561e-002 -4.467715e-003 1.845422e-002 -2.720607e-003 -1.512018e-002 -2.529109e-002 1.415225e-002 4.601063e-003 2.845320e-002 -7.427019e-003 1.628984e-002 -7.483361e-003
<VARIANCE> 39
 3.655426e+001 7.629707e+001 9.503671e+001 1.172984e+002 1.338982e+002 1.607795e+002 6.958307e+001 7.290674e+001 8.632188e+001 8.925791e+001 7.198693e+001 7.392686e+001 4.230577e+000 8.052074e-001 1.169576e+000 1.512446e+000 2.227432e+000 2.442706e+000 2.621044e+000 2.665021e+000 2.746093e+000 2.722789e+000 2.778459e+000 2.475910e+000 2.080003e+000 8.336257e-002 1.259810e-001 1.970876e-001 2.482057e-001 3.385412e-001 3.931530e-001 4.318067e-001 4.639410e-001 4.975173e-001 4.849603e-001 4.644673e-001 4.256375e-001 3.571182e-001 1.086308e-002
<GCONST> 1.152810e+002
<STATE> 3
<MEAN> 39
 -5.206236e+000 -1.491636e+001 -2.316025e+000 -1.243916e+001 1.482343e+000 -3.774698e+000 2.387705e+000 -5.699179e+000 2.948474e+000 -7.658251e+000 -2.566999e+000 -6.838179e+000 1.901217e+001 1.565234e-001 1.037228e-001 -6.092878e-002 2.200921e-001 -4.447607e-002 1.243124e-001 -2.304610e-001 7.011088e-002 -1.614094e-001 1.125318e-001 -9.946048e-002 1.231308e-001 -9.603938e-002 2.641392e-003 1.667808e-002 -9.223141e-003 1.215268e-002 4.000461e-003 3.291577e-003 -6.013748e-003 2.047614e-002 -7.640013e-003 1.772053e-002 -8.562018e-003 3.936353e-003 -3.104377e-004
<VARIANCE> 39
 3.773589e+001 8.092243e+001 1.025496e+002 1.180214e+002 1.434472e+002 1.634397e+002 6.929062e+001 7.630790e+001 8.857084e+001 8.797510e+001 6.925014e+001 7.604476e+001 4.299978e+000 8.059623e-001 1.190417e+000 1.586425e+000 2.385113e+000 2.390925e+000 2.640381e+000 2.696628e+000 2.988205e+000 2.693860e+000 2.815916e+000 2.385231e+000 2.092949e+000 8.636966e-002 1.162045e-001 1.873024e-001 2.534321e-001 3.630662e-001 3.880213e-001 4.271997e-001 4.622126e-001 5.243300e-001 4.776435e-001 4.858847e-001 4.051861e-001 3.609722e-001 1.041707e-002
<GCONST> 1.157550e+002
<STATE> 4
<MEAN> 39
 -4.474624e+000 -1.479047e+001 -2.166941e+000 -1.138581e+001 1.234174e+000 -3.517760e+000 1.397523e+000 -5.367887e+000 1.865562e+000 -6.738023e+000 -3.656431e+000 -6.351377e+000 1.859265e+001 1.952364e-001 1.828767e-001 -1.147327e-001 2.990372e-001 -6.766894e-002 1.587946e-001 -2.632909e-001 8.786833e-002 -2.413321e-001 1.482773e-001 -1.447910e-001 1.329937e-001 -1.099164e-001 -8.398431e-003 3.191642e-002 -2.141403e-002 1.507629e-003 -7.551285e-003 -3.400206e-003 -6.842738e-003 -1.584771e-003 -2.128721e-003 9.837861e-003 9.153820e-003 -1.057371e-003 -4.439902e-004
<VARIANCE> 39
 3.832947e+001 8.524541e+001 1.191912e+002 1.269993e+002 1.586978e+002 1.536653e+002 7.163284e+001 7.420634e+001 9.615362e+001 9.024624e+001 7.076804e+001 8.004788e+001 4.548061e+000 7.728921e-001 1.176703e+000 1.691765e+000 2.441011e+000 2.347251e+000 2.703144e+000 2.749704e+000 3.225501e+000 2.753865e+000 2.817951e+000 2.361863e+000 2.106738e+000 8.385558e-002 1.156863e-001 1.865752e-001 2.605033e-001 3.807417e-001 3.991937e-001 4.347030e-001 4.741934e-001 5.489942e-001 4.866068e-001 4.947167e-001 4.057052e-001 3.698358e-001 1.032977e-002
<GCONST> 1.166904e+002
<TRANSP> 5
 0.000000e+000 1.000000e+000 0.000000e+000 0.000000e+000 0.000000e+000
 0.000000e+000 6.493271e-001 3.506730e-001 0.000000e+000 0.000000e+000
 0.000000e+000 0.000000e+000 6.715935e-001 3.284064e-001 0.000000e+000
 0.000000e+000 0.000000e+000 0.000000e+000 6.983556e-001 3.016444e-001
 0.000000e+000 0.000000e+000 0.000000e+000 0.000000e+000 0.000000e+000
<ENDHMM>
~h "ee"
<BEGINHMM>
<NUMSTATES> 5
<STATE> 2
<MEAN> 39
 -1.107506e+000 -5.205536e+000 -5.713348e+000 -8.107386e+000 -1.143458e+000 -5.149661e+000 -5.716200e+000 -1.669308e+000 1.432797e+000 -3.141776e+000 -5.399291e+000 -5.754027e+000 1.692426e+001 -1.860942e-002 9.948969e-002 -6.148750e-003 2.075296e-001 -1.416902e-001 4.035421e-002 -2.011633e-003 1.177049e-001 2.181361e-001 1.499259e-001 7.959545e-002 7.363117e-002 -5.480047e-002 -4.913874e-002 4.438261e-003 2.820290e-002 -1.993505e-002 4.612519e-002 5.389768e-002 8.619527e-002 -4.903497e-002 -3.590671e-002 -3.915113e-002 4.813483e-002 4.969007e-003 6.879734e-003
<VARIANCE> 39
 8.295609e+001 1.982740e+002 1.205332e+002 2.233600e+002 1.915147e+002 3.038940e+002 1.013385e+002 1.363748e+002 1.423383e+002 1.075720e+002 8.800458e+001 1.333843e+002 4.907290e+000 2.714896e+000 3.408239e+000 3.410057e+000 3.795367e+000 5.391607e+000 3.914593e+000 5.396553e+000 5.048811e+000 7.168539e+000 5.785307e+000 3.570697e+000 3.407642e+000 1.693476e-001 4.045939e-001 4.618876e-001 5.297107e-001 5.868540e-001 8.632898e-001 6.482595e-001 9.047108e-001 8.083154e-001 1.184435e+000 1.045156e+000 6.098190e-001 6.155237e-001 2.676554e-002
<GCONST> 1.401508e+002
<STATE> 3
<MEAN> 39
 -1.108239e+000 -4.435772e+000 -5.912308e+000 -7.002189e+000 -9.117200e-001 -3.655242e+000 -5.142720e+000 -1.677358e+000 1.653079e+000 -2.660234e+000 -4.956133e+000 -5.500457e+000 1.668342e+001 -1.462318e-001 1.767934e-001 -1.174510e-002 1.412718e-001 3.058680e-003 1.203687e-001 1.142029e-001 -5.761615e-002 5.261874e-002 5.947391e-002 1.504481e-001 7.520740e-002 -5.706044e-002 -6.538302e-002 -7.855979e-003 3.481366e-003 -5.850134e-002 6.199763e-002 6.000813e-003 4.127301e-002 -6.009934e-002 -2.643751e-002 -3.736306e-002 2.274979e-002 -1.468685e-002 9.193656e-003
<VARIANCE> 39
 8.075097e+001 2.150132e+002 1.217162e+002 2.263567e+002 2.150686e+002 3.303792e+002 1.072837e+002 1.303686e+002 1.245368e+002 1.119842e+002 8.802436e+001 1.234071e+002 5.892842e+000 2.967223e+000 4.197719e+000 3.475380e+000 4.298994e+000 5.329700e+000 4.157712e+000 5.414479e+000 4.932219e+000 6.130989e+000 5.596212e+000 3.909007e+000 3.694755e+000 2.011836e-001 4.399478e-001 5.455331e-001 5.301570e-001 6.465335e-001 8.467122e-001 7.302783e-001 9.200748e-001 7.892209e-001 1.043720e+000 9.377496e-001 6.561871e-001 6.784851e-001 3.269409e-002
<GCONST> 1.416516e+002
<STATE> 4
<MEAN> 39
 -1.701711e+000 -3.630932e+000 -6.430227e+000 -6.363802e+000 -2.947337e-001 -2.299863e+000 -4.848641e+000 -1.781205e+000 1.905438e+000 -2.552566e+000 -4.416825e+000 -5.155771e+000 1.638630e+001 -4.167892e-001 7.850736e-002 -2.487430e-002 -1.868422e-001 1.207004e-001 -2.406101e-002 1.268317e-001 -3.166308e-001 4.813032e-003 -1.412958e-001 2.353971e-001 -5.194873e-003 -2.470269e-003 -1.211042e-001 -5.193027e-002 1.190369e-002 -1.229442e-001 7.037733e-002 -4.836392e-002 6.798471e-002 -8.438580e-002 1.653543e-004 -3.490549e-002 1.695375e-002 -9.179603e-003 2.876310e-002
<VARIANCE> 39
 8.090618e+001 2.203864e+002 1.309971e+002 2.149511e+002 2.366124e+002 3.584459e+002 1.095624e+002 1.264483e+002 1.242063e+002 1.177795e+002 8.445696e+001 1.140724e+002 7.372443e+000 4.355098e+000 5.924012e+000 4.184055e+000 5.407114e+000 5.598197e+000 5.395629e+000 5.483261e+000 5.422691e+000 6.307733e+000 5.709979e+000 4.142011e+000 3.964501e+000 3.568799e-001 6.245730e-001 7.481696e-001 5.634823e-001 8.124014e-001 9.942076e-001 9.468898e-001 9.256156e-001 9.070606e-001 1.054407e+000 9.405984e-001 7.210404e-001 6.899254e-001 5.001542e-002
<GCONST> 1.464001e+002
<TRANSP> 5
 0.000000e+000 1.000000e+000 0.000000e+000 0.000000e+000 0.000000e+000
 0.000000e+000 6.755930e-001 3.244071e-001 0.000000e+000 0.000000e+000
 0.000000e+000 0.000000e+000 6.700592e-001 3.299408e-001 0.000000e+000
 0.000000e+000 0.000000e+000 0.000000e+000 6.717788e-001 3.282212e-001
 0.000000e+000 0.000000e+000 0.000000e+000 0.000000e+000 0.000000e+000
<ENDHMM>
~h "j^"
<BEGINHMM>
<NUMSTATES> 5
<STATE> 2
<MEAN> 39
 -5.258821e+000 -1.485718e+001 -3.470878e+000 -1.481592e+001 1.768566e+000 -3.573625e+000 5.348805e+000 -5.093947e+000 4.634943e+000 -6.923758e+000 -2.377724e+000 -9.119361e+000 1.963262e+001 3.745856e-002 8.554472e-002 1.662442e-002 -8.319830e-003 -6.429965e-004 1.569274e-001 6.735957e-002 -8.186802e-002 -7.784310e-002 1.888264e-002 -3.952998e-002 1.016802e-001 -3.118504e-002 -1.280374e-003 3.192930e-002 -2.272138e-002 3.491652e-002 2.672269e-002 3.296719e-002 -7.732271e-002 -1.642115e-002 9.976530e-003 5.697908e-003 -2.968002e-002 5.692542e-003 -2.276039e-002
<VARIANCE> 39
 3.321893e+001 5.822256e+001 7.775884e+001 9.162960e+001 8.654764e+001 1.335795e+002 8.998142e+001 8.329652e+001 8.540440e+001 8.671908e+001 6.094316e+001 5.579409e+001 3.738031e+000 7.178297e-001 1.344738e+000 1.752065e+000 2.239811e+000 2.589026e+000 2.731383e+000 2.914495e+000 3.045371e+000 2.876351e+000 3.066054e+000 2.212812e+000 1.983588e+000 1.073168e-001 1.331830e-001 2.490693e-001 2.886258e-001 3.599287e-001 4.370586e-001 4.664488e-001 5.215135e-001 5.941656e-001 5.115770e-001 5.570256e-001 4.283365e-001 3.769011e-001 1.475183e-002
<GCONST> 1.159211e+002
<STATE> 3
<MEAN> 39
 -5.070372e+000 -1.479535e+001 -3.734808e+000 -1.412512e+001 2.685768e+000 -2.670678e+000 4.667110e+000 -5.633295e+000 4.084931e+000 -6.919561e+000 -3.390812e+000 -8.876625e+000 1.939365e+001 1.011691e-001 8.194634e-002 -5.409539e-002 9.263717e-002 1.878208e-002 1.715674e-001 -1.111099e-001 -1.375178e-002 -1.136752e-001 6.462482e-002 -9.603776e-002 4.750178e-002 -6.171810e-002 1.003535e-002 -3.519148e-003 -1.662950e-002 4.325963e-002 1.605546e-002 2.415628e-003 -3.541803e-002 1.412992e-002 7.951640e-003 3.098691e-003 -3.681327e-003 1.251297e-003 -1.319762e-002
<VARIANCE> 39
 3.504137e+001 6.391523e+001 8.688405e+001 9.312035e+001 9.736519e+001 1.410382e+002 8.639065e+001 7.330644e+001 9.053568e+001 8.571794e+001 5.666254e+001 5.609015e+001 4.404578e+000 6.224685e-001 1.254762e+000 1.535879e+000 1.954366e+000 2.122093e+000 2.306412e+000 2.631634e+000 2.621901e+000 2.616317e+000 2.762396e+000 2.196379e+000 1.848683e+000 7.746553e-002 1.044414e-001 2.054101e-001 2.419524e-001 3.072858e-001 3.484077e-001 4.007120e-001 4.395297e-001 4.999588e-001 4.536816e-001 4.895202e-001 4.143786e-001 3.353897e-001 1.076391e-002
<GCONST> 1.124325e+002
<STATE> 4
<MEAN> 39
 -4.303317e+000 -1.444315e+001 -4.536613e+000 -1.256644e+001 2.619424e+000 -1.871998e+000 3.380868e+000 -5.395287e+000 2.089451e+000 -6.531125e+000 -4.626829e+000 -8.849617e+000 1.882919e+001 1.565629e-001 1.003141e-001 -2.048097e-001 2.593658e-001 -2.672284e-003 1.966800e-001 -2.001380e-001 7.035989e-002 -1.374663e-001 7.056746e-002 -1.483175e-001 4.371832e-002 -1.050103e-001 -1.387432e-002 -4.957550e-003 -1.591882e-002 3.013262e-002 1.369032e-002 -9.534832e-003 -1.979946e-002 2.384205e-002 2.143184e-002 -8.748146e-003 4.048541e-003 2.251307e-003 -6.929649e-003
<VARIANCE> 39
 4.170650e+001 7.019379e+001 1.087692e+002 1.035554e+002 1.077904e+002 1.607029e+002 9.188434e+001 7.608936e+001 9.125237e+001 8.498652e+001 6.363466e+001 5.798242e+001 5.679138e+000 6.731721e-001 1.339972e+000 1.622548e+000 2.006061e+000 2.041785e+000 2.272496e+000 2.521175e+000 2.564246e+000 2.509793e+000 2.545363e+000 2.311693e+000 1.875172e+000 6.146267e-002 1.096840e-001 1.964257e-001 2.507263e-001 3.162270e-001 3.296154e-001 3.942177e-001 3.938770e-001 4.751038e-001 4.371630e-001 4.314515e-001 4.293462e-001 3.237453e-001 8.245834e-003
<GCONST> 1.129885e+002
<TRANSP> 5
 0.000000e+000 1.000000e+000 0.000000e+000 0.000000e+000 0.000000e+000
 0.000000e+000 7.486410e-001 2.513590e-001 0.000000e+000 0.000000e+000
 0.000000e+000 0.000000e+000 7.445128e-001 2.554872e-001 0.000000e+000
 0.000000e+000 0.000000e+000 0.000000e+000 7.197114e-001 2.802887e-001
 0.000000e+000 0.000000e+000 0.000000e+000 0.000000e+000 0.000000e+000
<ENDHMM>
~h "k^"
<BEGINHMM>
<NUMSTATES> 5
<STATE> 2
<MEAN> 39
 -5.398745e+000 -8.294585e+000 -5.583245e+000 -1.081696e+001 2.141106e+000 -2.143197e+000 -8.050796e-001 -6.741893e+000 5.632296e+000 -5.754066e+000 -4.643305e+000 -7.588557e+000 1.788326e+001 -1.761365e-001 -3.941679e-001 8.392168e-003 -9.243607e-001 3.883743e-001 4.826754e-001 2.315061e-001 -3.360277e-001 2.150450e-001 -4.032087e-001 3.368779e-001 -1.165073e-001 1.418678e-001 -1.482836e-001 2.638114e-002 7.430117e-002 -6.149265e-002 1.651709e-002 -1.622507e-001 5.905704e-002 -8.881089e-002 1.420549e-002 1.722331e-002 1.310903e-001 -8.659124e-003 5.268234e-002
<VARIANCE> 39
 5.929956e+001 1.185022e+002 1.572485e+002 1.660634e+002 1.632035e+002 1.780161e+002 1.108433e+002 1.140946e+002 1.169372e+002 1.098893e+002 9.975111e+001 1.080070e+002 7.680861e+000 5.247251e+000 5.835045e+000 6.480180e+000 7.157445e+000 7.113337e+000 8.744333e+000 5.852768e+000 5.602341e+000 6.978402e+000 6.416623e+000 5.833625e+000 4.288443e+000 3.132254e-001 7.596207e-001 9.861590e-001 9.734407e-001 1.128374e+000 1.074103e+000 1.242655e+000 1.013201e+000 1.011497e+000 1.186563e+000 1.160941e+000 9.786085e-001 8.293589e-001 5.449515e-002
<GCONST> 1.492713e+002
<STATE> 3
<MEAN> 39
