~o  
<STREAMINFO> 1 39  
<VECSIZE> 39<NULLD><MFCC_E_D_A><DIAGC>  
~h "kh"  
<BEGINHMM>  
<NUMSTATES> 5  
<STATE> 2  
<MEAN> 39  
 -6.014657e+000 -7.697478e+000 -4.272484e+000 -1.112085e+001 2.592123e-001 -2.540748e+000 -2.845747e-001 -5.439600e+000 2.644782e+000 -5.178292e+000 -2.615265e+000 -6.883596e+000 1.756991e+001 8.359806e-005 2.927379e-004 3.419751e-004 1.832846e-004 9.808606e-004 -2.711361e-004 1.162057e-003 5.969609e-004 8.760982e-004 9.557483e-004 -1.077637e-004 -1.742195e-004 4.857517e-004 -3.787556e-005 8.640400e-005 1.200044e-004 2.175995e-005 -3.422715e-005 3.583262e-005 7.112614e-005 -1.937849e-004 5.921759e-005 2.366691e-004 1.185617e-004 -3.269300e-006 5.444831e-005  
<VARIANCE> 39  
 9.521460e+001 1.462950e+002 1.512050e+002 1.624756e+002 1.509862e+002 2.010735e+002 1.065105e+002 1.067949e+002 1.033619e+002 1.059508e+002 8.644478e+001 8.780978e+001 1.308689e+001 2.826800e+000 2.958807e+000 3.530888e+000 3.982535e+000 4.294732e+000 4.996742e+000 4.567807e+000 4.437457e+000 4.462097e+000 4.098865e+000 3.623205e+000 3.128190e+000 2.170588e-001 4.224229e-001 4.240846e-001 5.211678e-001 5.952665e-001 7.082502e-001 7.815182e-001 7.742075e-001 7.819777e-001 7.918572e-001 7.150928e-001 6.392384e-001 5.615915e-001 2.877429e-002  
<GCONST> 1.373201e+002  
<STATE> 3  
<MEAN> 39  
 -6.014657e+000 -7.697478e+000 -4.272484e+000 -1.112085e+001 2.592123e-001 -2.540748e+000 -2.845747e-001 -5.439600e+000 2.644782e+000 -5.178292e+000 -2.615265e+000 -6.883596e+000 1.756991e+001 8.359806e-005 2.927379e-004 3.419751e-004 1.832846e-004 9.808606e-004 -2.711361e-004 1.162057e-003 5.969609e-004 8.760982e-004 9.557483e-004 -1.077637e-004 -1.742195e-004 4.857517e-004 -3.787556e-005 8.640400e-005 1.200044e-004 2.175995e-005 -3.422715e-005 3.583262e-005 7.112614e-005 -1.937849e-004 5.921759e-005 2.366691e-004 1.185617e-004 -3.269300e-006 5.444831e-005  
<VARIANCE> 39  
 9.521460e+001 1.462950e+002 1.512050e+002 1.624756e+002 1.509862e+002 2.010735e+002 1.065105e+002 1.067949e+002 1.033619e+002 1.059508e+002 8.644478e+001 8.780978e+001 1.308689e+001 2.826800e+000 2.958807e+000 3.530888e+000 3.982535e+000 4.294732e+000 4.996742e+000 4.567807e+000 4.437457e+000 4.462097e+000 4.098865e+000 3.623205e+000 3.128190e+000 2.170588e-001 4.224229e-001 4.240846e-001 5.211678e-001 5.952665e-001 7.082502e-001 7.815182e-001 7.742075e-001 7.819777e-001 7.918572e-001 7.150928e-001 6.392384e-001 5.615915e-001 2.877429e-002  
<GCONST> 1.373201e+002  
<STATE> 4  
<MEAN> 39  
 -6.014657e+000 -7.697478e+000 -4.272484e+000 -1.112085e+001 2.592123e-001 -2.540748e+000 -2.845747e-001 -5.439600e+000 2.644782e+000 -5.178292e+000 -2.615265e+000 -6.883596e+000 1.756991e+001 8.359806e-005 2.927379e-004 3.419751e-004 1.832846e-004 9.808606e-004 -2.711361e-004 1.162057e-003 5.969609e-004 8.760982e-004 9.557483e-004 -1.077637e-004 -1.742195e-004 4.857517e-004 -3.787556e-005 8.640400e-005 1.200044e-004 2.175995e-005 -3.422715e-005 3.583262e-005 7.112614e-005 -1.937849e-004 5.921759e-005 2.366691e-004 1.185617e-004 -3.269300e-006 5.444831e-005  
<VARIANCE> 39  
 9.521460e+001 1.462950e+002 1.512050e+002 1.624756e+002 1.509862e+002 2.010735e+002 1.065105e+002 1.067949e+002 1.033619e+002 1.059508e+002 8.644478e+001 8.780978e+001 1.308689e+001 2.826800e+000 2.958807e+000 3.530888e+000 3.982535e+000 4.294732e+000 4.996742e+000 4.567807e+000 4.437457e+000 4.462097e+000 4.098865e+000 3.623205e+000 3.128190e+000 2.170588e-001 4.224229e-001 4.240846e-001 5.211678e-001 5.952665e-001 7.082502e-001 7.815182e-001 7.742075e-001 7.819777e-001 7.918572e-001 7.150928e-001 6.392384e-001 5.615915e-001 2.877429e-002  
<GCONST> 1.373201e+002  
<TRANSP> 5  
 0.000000e+000 1.000000e+000 0.000000e+000 0.000000e+000 0.000000e+000  
 0.000000e+000 6.000000e-001 4.000000e-001 0.000000e+000 0.000000e+000  
 0.000000e+000 0.000000e+000 6.000000e-001 4.000000e-001 0.000000e+000  
 0.000000e+000 0.000000e+000 0.000000e+000 6.000000e-001 4.000000e-001  
 0.000000e+000 0.000000e+000 0.000000e+000 0.000000e+000 0.000000e+000  
<ENDHMM>  
