~o  
<STREAMINFO> 1 39  
<VECSIZE> 39<NULLD><MFCC_E_D_A><DIAGC>  
~h "oo"  
<BEGINHMM>  
<NUMSTATES> 5  
<STATE> 2  
<MEAN> 39  
 -6.272483e+000 -1.056599e+001 -7.266998e+000 -1.462006e+001 2.789279e+000 -8.156259e+000 -1.155784e+000 -6.596745e+000 8.670632e-001 -7.566459e+000 -5.358591e+000 -1.296931e+000 1.787716e+001 1.334462e-004 -6.991890e-004 -2.047349e-003 1.648079e-003 3.580544e-003 1.292358e-003 2.531844e-003 2.058344e-004 9.723758e-004 6.988734e-004 6.992500e-004 -7.825464e-004 1.865098e-004 -3.945926e-004 3.407907e-004 2.754061e-004 7.202201e-004 1.503898e-004 2.637075e-004 2.411136e-004 -5.693342e-004 -2.848950e-004 1.424031e-004 -2.647807e-005 5.741283e-006 -1.848445e-005  
<VARIANCE> 39  
 9.311577e+001 1.753087e+002 1.725305e+002 1.886623e+002 1.843605e+002 2.297427e+002 1.303773e+002 1.224891e+002 1.353156e+002 1.090663e+002 1.015116e+002 7.152085e+001 1.162788e+001 2.735449e+000 3.186389e+000 3.816269e+000 4.703551e+000 4.709227e+000 5.526370e+000 5.605807e+000 4.960401e+000 5.194450e+000 4.659193e+000 4.457855e+000 3.412871e+000 2.397933e-001 3.958697e-001 4.231924e-001 5.705836e-001 6.870320e-001 7.526807e-001 8.745232e-001 9.225944e-001 8.546247e-001 9.139640e-001 8.257021e-001 7.724339e-001 6.160980e-001 3.077745e-002  
<GCONST> 1.412774e+002  
<STATE> 3  
<MEAN> 39  
 -6.272483e+000 -1.056599e+001 -7.266998e+000 -1.462006e+001 2.789279e+000 -8.156259e+000 -1.155784e+000 -6.596745e+000 8.670632e-001 -7.566459e+000 -5.358591e+000 -1.296931e+000 1.787716e+001 1.334462e-004 -6.991890e-004 -2.047349e-003 1.648079e-003 3.580544e-003 1.292358e-003 2.531844e-003 2.058344e-004 9.723758e-004 6.988734e-004 6.992500e-004 -7.825464e-004 1.865098e-004 -3.945926e-004 3.407907e-004 2.754061e-004 7.202201e-004 1.503898e-004 2.637075e-004 2.411136e-004 -5.693342e-004 -2.848950e-004 1.424031e-004 -2.647807e-005 5.741283e-006 -1.848445e-005  
<VARIANCE> 39  
 9.311577e+001 1.753087e+002 1.725305e+002 1.886623e+002 1.843605e+002 2.297427e+002 1.303773e+002 1.224891e+002 1.353156e+002 1.090663e+002 1.015116e+002 7.152085e+001 1.162788e+001 2.735449e+000 3.186389e+000 3.816269e+000 4.703551e+000 4.709227e+000 5.526370e+000 5.605807e+000 4.960401e+000 5.194450e+000 4.659193e+000 4.457855e+000 3.412871e+000 2.397933e-001 3.958697e-001 4.231924e-001 5.705836e-001 6.870320e-001 7.526807e-001 8.745232e-001 9.225944e-001 8.546247e-001 9.139640e-001 8.257021e-001 7.724339e-001 6.160980e-001 3.077745e-002  
<GCONST> 1.412774e+002  
<STATE> 4  
<MEAN> 39  
 -6.272483e+000 -1.056599e+001 -7.266998e+000 -1.462006e+001 2.789279e+000 -8.156259e+000 -1.155784e+000 -6.596745e+000 8.670632e-001 -7.566459e+000 -5.358591e+000 -1.296931e+000 1.787716e+001 1.334462e-004 -6.991890e-004 -2.047349e-003 1.648079e-003 3.580544e-003 1.292358e-003 2.531844e-003 2.058344e-004 9.723758e-004 6.988734e-004 6.992500e-004 -7.825464e-004 1.865098e-004 -3.945926e-004 3.407907e-004 2.754061e-004 7.202201e-004 1.503898e-004 2.637075e-004 2.411136e-004 -5.693342e-004 -2.848950e-004 1.424031e-004 -2.647807e-005 5.741283e-006 -1.848445e-005  
<VARIANCE> 39  
 9.311577e+001 1.753087e+002 1.725305e+002 1.886623e+002 1.843605e+002 2.297427e+002 1.303773e+002 1.224891e+002 1.353156e+002 1.090663e+002 1.015116e+002 7.152085e+001 1.162788e+001 2.735449e+000 3.186389e+000 3.816269e+000 4.703551e+000 4.709227e+000 5.526370e+000 5.605807e+000 4.960401e+000 5.194450e+000 4.659193e+000 4.457855e+000 3.412871e+000 2.397933e-001 3.958697e-001 4.231924e-001 5.705836e-001 6.870320e-001 7.526807e-001 8.745232e-001 9.225944e-001 8.546247e-001 9.139640e-001 8.257021e-001 7.724339e-001 6.160980e-001 3.077745e-002  
<GCONST> 1.412774e+002  
<TRANSP> 5  
 0.000000e+000 1.000000e+000 0.000000e+000 0.000000e+000 0.000000e+000  
 0.000000e+000 6.000000e-001 4.000000e-001 0.000000e+000 0.000000e+000  
 0.000000e+000 0.000000e+000 6.000000e-001 4.000000e-001 0.000000e+000  
 0.000000e+000 0.000000e+000 0.000000e+000 6.000000e-001 4.000000e-001  
 0.000000e+000 0.000000e+000 0.000000e+000 0.000000e+000 0.000000e+000  
<ENDHMM>  
