~o
<STREAMINFO> 1 39
<VECSIZE> 39<NULLD><MFCC_E_D_A><DIAGC>
~t "T_ng^"
<TRANSP> 5
 0.000000e+000 1.000000e+000 0.000000e+000 0.000000e+000 0.000000e+000
 0.000000e+000 8.181946e-001 1.818054e-001 0.000000e+000 0.000000e+000
 0.000000e+000 0.000000e+000 5.707383e-001 4.292617e-001 0.000000e+000
 0.000000e+000 0.000000e+000 0.000000e+000 6.819804e-001 3.180196e-001
 0.000000e+000 0.000000e+000 0.000000e+000 0.000000e+000 0.000000e+000
~t "T_h"
<TRANSP> 5
 0.000000e+000 1.000000e+000 0.000000e+000 0.000000e+000 0.000000e+000
 0.000000e+000 6.805543e-001 3.194456e-001 0.000000e+000 0.000000e+000
 0.000000e+000 0.000000e+000 5.691379e-001 4.308622e-001 0.000000e+000
 0.000000e+000 0.000000e+000 0.000000e+000 6.508246e-001 3.491754e-001
 0.000000e+000 0.000000e+000 0.000000e+000 0.000000e+000 0.000000e+000
~t "T_k"
<TRANSP> 5
 0.000000e+000 1.000000e+000 0.000000e+000 0.000000e+000 0.000000e+000
 0.000000e+000 8.890896e-001 1.109104e-001 0.000000e+000 0.000000e+000
 0.000000e+000 0.000000e+000 7.990920e-001 2.009080e-001 0.000000e+000
 0.000000e+000 0.000000e+000 0.000000e+000 5.727863e-001 4.272136e-001
 0.000000e+000 0.000000e+000 0.000000e+000 0.000000e+000 0.000000e+000
~t "T_n"
<TRANSP> 5
 0.000000e+000 1.000000e+000 0.000000e+000 0.000000e+000 0.000000e+000
 0.000000e+000 5.372953e-001 4.627047e-001 0.000000e+000 0.000000e+000
 0.000000e+000 0.000000e+000 3.868535e-001 6.131465e-001 0.000000e+000
 0.000000e+000 0.000000e+000 0.000000e+000 5.420731e-001 4.579269e-001
 0.000000e+000 0.000000e+000 0.000000e+000 0.000000e+000 0.000000e+000
~t "T_s"
<TRANSP> 5
 0.000000e+000 1.000000e+000 0.000000e+000 0.000000e+000 0.000000e+000
 0.000000e+000 8.341610e-001 1.658390e-001 0.000000e+000 0.000000e+000
 0.000000e+000 0.000000e+000 4.826523e-001 5.173477e-001 0.000000e+000
 0.000000e+000 0.000000e+000 0.000000e+000 6.181715e-001 3.818285e-001
 0.000000e+000 0.000000e+000 0.000000e+000 0.000000e+000 0.000000e+000
~t "T_v"
<TRANSP> 5
 0.000000e+000 1.000000e+000 0.000000e+000 0.000000e+000 0.000000e+000
 0.000000e+000 5.687875e-001 4.312126e-001 0.000000e+000 0.000000e+000
 0.000000e+000 0.000000e+000 7.199301e-001 2.800699e-001 0.000000e+000
 0.000000e+000 0.000000e+000 0.000000e+000 7.470657e-001 2.529343e-001
 0.000000e+000 0.000000e+000 0.000000e+000 0.000000e+000 0.000000e+000
~t "T_@@"
<TRANSP> 5
 0.000000e+000 1.000000e+000 0.000000e+000 0.000000e+000 0.000000e+000
 0.000000e+000 7.893445e-001 2.106554e-001 0.000000e+000 0.000000e+000
 0.000000e+000 0.000000e+000 6.281646e-001 3.718354e-001 0.000000e+000
 0.000000e+000 0.000000e+000 0.000000e+000 6.342877e-001 3.657124e-001
 0.000000e+000 0.000000e+000 0.000000e+000 0.000000e+000 0.000000e+000
~t "T_aa"
<TRANSP> 5
 0.000000e+000 1.000000e+000 0.000000e+000 0.000000e+000 0.000000e+000
 0.000000e+000 7.939481e-001 2.060519e-001 0.000000e+000 0.000000e+000
 0.000000e+000 0.000000e+000 6.421106e-001 3.578894e-001 0.000000e+000
 0.000000e+000 0.000000e+000 0.000000e+000 6.685695e-001 3.314306e-001
 0.000000e+000 0.000000e+000 0.000000e+000 0.000000e+000 0.000000e+000
~t "T_k^"
<TRANSP> 5
 0.000000e+000 1.000000e+000 0.000000e+000 0.000000e+000 0.000000e+000
 0.000000e+000 4.370325e-001 5.629675e-001 0.000000e+000 0.000000e+000
 0.000000e+000 0.000000e+000 3.086549e-001 6.913451e-001 0.000000e+000
 0.000000e+000 0.000000e+000 0.000000e+000 4.680148e-001 5.319852e-001
 0.000000e+000 0.000000e+000 0.000000e+000 0.000000e+000 0.000000e+000
~t "T_m^"
<TRANSP> 5
 0.000000e+000 1.000000e+000 0.000000e+000 0.000000e+000 0.000000e+000
 0.000000e+000 6.651790e-001 3.348210e-001 0.000000e+000 0.000000e+000
 0.000000e+000 0.000000e+000 5.905449e-001 4.094551e-001 0.000000e+000
 0.000000e+000 0.000000e+000 0.000000e+000 5.990443e-001 4.009558e-001
 0.000000e+000 0.000000e+000 0.000000e+000 0.000000e+000 0.000000e+000
~t "T_n^"
<TRANSP> 5
 0.000000e+000 1.000000e+000 0.000000e+000 0.000000e+000 0.000000e+000
 0.000000e+000 6.427150e-001 3.572849e-001 0.000000e+000 0.000000e+000
 0.000000e+000 0.000000e+000 5.433245e-001 4.566756e-001 0.000000e+000
 0.000000e+000 0.000000e+000 0.000000e+000 8.097229e-001 1.902771e-001
 0.000000e+000 0.000000e+000 0.000000e+000 0.000000e+000 0.000000e+000
~t "T_t^"
<TRANSP> 5
 0.000000e+000 1.000000e+000 0.000000e+000 0.000000e+000 0.000000e+000
 0.000000e+000 8.821321e-001 1.178679e-001 0.000000e+000 0.000000e+000
 0.000000e+000 0.000000e+000 9.340965e-001 6.590355e-002 0.000000e+000
 0.000000e+000 0.000000e+000 0.000000e+000 9.080185e-001 9.198154e-002
 0.000000e+000 0.000000e+000 0.000000e+000 0.000000e+000 0.000000e+000
~t "T_uu"
<TRANSP> 5
 0.000000e+000 1.000000e+000 0.000000e+000 0.000000e+000 0.000000e+000
 0.000000e+000 6.835819e-001 3.164181e-001 0.000000e+000 0.000000e+000
 0.000000e+000 0.000000e+000 7.541887e-001 2.458113e-001 0.000000e+000
 0.000000e+000 0.000000e+000 0.000000e+000 6.730590e-001 3.269409e-001
 0.000000e+000 0.000000e+000 0.000000e+000 0.000000e+000 0.000000e+000
~t "T_w^"
<TRANSP> 5
 0.000000e+000 1.000000e+000 0.000000e+000 0.000000e+000 0.000000e+000
 0.000000e+000 8.428906e-001 1.571094e-001 0.000000e+000 0.000000e+000
 0.000000e+000 0.000000e+000 7.750656e-001 2.249344e-001 0.000000e+000
 0.000000e+000 0.000000e+000 0.000000e+000 7.853956e-001 2.146044e-001
 0.000000e+000 0.000000e+000 0.000000e+000 0.000000e+000 0.000000e+000
~h "uu-k+oo"
<BEGINHMM>
<NUMSTATES> 5
<STATE> 2
<MEAN> 39
 2.284329e+000 -1.565108e+001 7.834016e+000 -1.109627e+001 -1.547287e+001 -7.996478e+000 -1.855283e+000 -4.360038e+000 -6.973551e+000 1.182986e+000 -1.811899e+001 -1.354030e+001 1.701578e+001 3.753054e-001 7.282270e-001 -1.365267e-002 6.719751e-001 -2.824724e-001 9.795892e-001 1.661877e-001 -1.289481e-001 -7.507161e-001 5.606260e-001 -3.519150e-001 -7.374434e-001 -1.378076e-001 -1.188553e-002 -3.100258e-002 -1.529816e-001 5.703042e-002 -6.359078e-002 -8.389502e-002 -1.327232e-001 -1.666468e-001 -5.777068e-002 -1.468409e-001 -1.149676e-002 -6.161770e-002 1.141949e-002
<VARIANCE> 39
 1.411348e+001 6.406986e+001 7.990365e+001 2.719891e+001 5.689475e+000 3.308006e+001 4.444629e+001 4.268060e+001 6.297409e+001 2.721831e+001 8.451007e+001 5.097213e+001 6.042356e+000 2.367929e-001 4.650719e-001 1.885563e+000 7.664045e-001 5.897534e-001 3.684287e+000 2.048514e+000 1.853741e+000 3.452906e+000 2.587044e+000 3.315052e+000 3.707129e+000 1.791428e-002 2.724378e-002 9.910397e-002 4.395897e-001 2.075775e-001 1.728039e-001 4.135043e-001 5.071266e-001 4.204948e-001 4.504361e-001 7.242187e-001 3.641449e-001 7.614552e-001 4.538774e-003
<GCONST> 9.722543e+001
<STATE> 3
<MEAN> 39
 3.402961e+000 -6.148673e+000 -2.178115e+000 -5.654140e+000 -1.678618e+001 -3.488879e+000 -4.546672e-001 -3.745553e+000 -6.927817e+000 3.432341e+000 -9.173010e+000 -1.144929e+001 1.458724e+001 2.707604e-001 8.318868e-001 -4.430575e-001 2.570330e-001 -4.372469e-001 1.065259e+000 -9.961066e-001 -8.594331e-001 -3.552594e-001 -9.753612e-003 -5.276222e-001 -1.394448e+000 -1.260909e-001 -3.488790e-002 2.076511e-001 1.966324e-001 2.812568e-001 5.816012e-002 -6.897751e-001 -5.074819e-001 7.152928e-002 3.133689e-001 -3.421891e-001 -2.345509e-001 -1.049218e-001 -2.392605e-002
<VARIANCE> 39
 4.789484e+001 8.566592e+001 7.880550e+001 4.139039e+001 1.907809e+001 4.256327e+001 9.065939e+001 8.271999e+001 2.044151e+002 2.012956e+001 1.245583e+002 9.659330e+001 9.999089e+000 7.219187e-002 4.587213e-001 1.068511e+000 1.320477e+000 1.694059e+000 1.194054e+000 1.539494e+000 1.038895e+000 4.194687e+000 3.146245e+000 1.330923e+000 9.857648e-001 1.846025e-002 2.676054e-002 2.160975e-001 4.235879e-001 4.975293e-001 1.567867e-001 3.539059e-001 4.870233e-001 5.854719e-001 1.198636e+000 8.718675e-002 1.494390e-001 5.011589e-001 7.092228e-004
<GCONST> 9.774108e+001
<STATE> 4
<MEAN> 39
 -1.799301e+000 3.175614e+000 -4.264662e+000 2.919115e+000 -1.634937e+001 -1.375586e+001 -1.478353e+001 -3.494474e+000 -5.562014e+000 1.062900e+000 1.119007e+000 -4.050121e+000 1.104239e+001 -8.755710e-001 4.488025e-001 3.889680e-001 9.950110e-001 -3.084314e-001 -7.366424e-001 -5.183193e-001 2.116635e-001 9.172449e-002 1.156373e-001 1.494935e-001 -1.507262e-001 -3.317940e-001 -8.456985e-002 -1.060956e-001 -2.409070e-001 -7.470474e-002 7.348146e-002 -1.228924e-002 8.030299e-003 1.498343e-001 1.990065e-001 1.428280e-002 8.701272e-002 1.551595e-001 -2.597489e-003
<VARIANCE> 39
 4.643461e+001 3.633742e+001 3.895427e+001 4.715614e+001 1.567405e+001 5.155580e+001 5.143526e+001 2.518820e+001 4.714848e+001 1.774778e+001 8.751315e+001 5.261221e+001 8.344122e+000 7.709816e-001 6.518112e-001 1.993233e+000 3.400609e+000 2.171650e+000 1.118029e+000 1.955021e+000 2.142307e+000 4.050477e+000 3.602179e+000 1.908065e+000 3.808758e+000 7.013082e-002 1.139567e-001 1.173312e-001 2.898028e-001 6.190272e-001 3.412768e-001 3.458371e-001 3.818943e-001 3.702614e-001 5.809624e-001 9.476234e-001 3.489114e-001 9.689041e-001 1.032876e-002
<GCONST> 1.069424e+002
~t "T_k"
<ENDHMM>
~h "s-a+j^"
<BEGINHMM>
<NUMSTATES> 5
<STATE> 2
<MEAN> 39
 -1.781663e+000 -2.147016e+001 -1.471765e+001 2.154384e+000 1.641449e+001 -7.358118e+000 1.715993e+000 7.845422e+000 2.315594e+000 3.419008e+000 -4.254270e+000 3.040337e+000 1.752545e+001 6.911372e-002 2.528134e-001 -1.010529e+000 -1.715583e-001 -6.664621e-001 -4.177289e-001 -1.086277e+000 -6.751649e-001 1.782064e-002 -1.088042e+000 1.581729e-001 -3.645700e-001 8.943184e-003 -7.821914e-002 2.407182e-003 6.294662e-002 -3.182735e-001 5.868337e-002 3.600219e-002 -1.700096e-001 -4.905865e-001 -1.912451e-001 -4.280018e-001 5.464018e-002 -1.274821e-001 5.433737e-002
<VARIANCE> 39
 1.939211e+001 4.316787e+001 1.422771e+002 1.493044e+002 1.273047e+002 8.893843e+001 7.944057e+001 1.282280e+002 4.427305e+001 1.925323e+002 1.229798e+002 2.733318e+001 4.159237e-001 2.415922e+000 1.939276e+000 1.727302e+000 5.420511e+000 7.981036e+000 9.317271e+000 5.684433e+000 1.331670e+001 7.246472e+000 1.970077e+001 1.469605e+001 2.232009e+000 6.753222e-002 4.307774e-001 2.735371e-001 4.939294e-001 9.686339e-001 1.483081e+000 2.279364e+000 1.310391e+000 1.187378e+000 1.568603e+000 3.522026e+000 3.181681e+000 5.488252e-001 1.259266e-002
<GCONST> 1.380775e+002
<STATE> 3
<MEAN> 39
 -3.437341e+000 -1.493862e+001 -5.960769e+000 -1.361367e+001 6.359234e+000 -1.013694e+001 -7.812936e+000 -1.000840e+001 9.598269e-001 -1.813258e+001 -9.639523e+000 2.198207e+000 1.881881e+001 3.647142e-002 -1.261370e+000 9.191526e-001 -1.354388e+000 -4.858724e-001 -1.876041e-001 -7.504783e-002 1.084580e-001 -1.570500e+000 -2.331983e+000 8.918011e-001 -6.268905e-001 7.099091e-001 -6.700411e-001 -2.761627e-001 2.747461e-001 -1.517058e-001 7.503384e-001 1.731961e-001 1.085340e+000 2.310382e-001 4.960986e-001 5.505223e-001 9.237397e-001 -3.667733e-001 9.254246e-002
<VARIANCE> 39
 1.638149e+001 7.816820e+001 2.424955e+002 1.509207e+002 2.064264e+002 1.700403e+002 1.432696e+002 1.999975e+002 4.843335e+001 8.563468e+001 5.901829e+001 2.747569e+001 1.548058e+000 2.366163e+000 5.424356e-001 3.081778e+000 2.671479e+000 4.650467e+000 5.416118e+000 2.092553e+001 1.100992e+001 2.812902e+000 8.691313e+000 8.474908e+000 3.174292e+000 1.289870e-001 8.308987e-002 3.765273e-001 3.532253e-001 4.731554e-001 1.769302e-001 7.108967e-001 1.333722e+000 4.521210e+000 4.481317e-001 1.575224e+000 4.527498e-001 1.692948e-001 1.716259e-002
<GCONST> 1.291801e+002
<STATE> 4
<MEAN> 39
 -5.564046e+000 -1.816240e+001 -1.133047e-001 -1.921164e+001 2.566020e+000 -6.663216e+000 7.591928e-001 -6.606586e+000 8.902908e-002 -1.447553e+001 -8.997963e+000 -2.794684e+000 2.025138e+001 -1.125680e+000 -8.837907e-001 5.145444e-001 -9.909319e-001 -3.226582e-001 3.586015e-001 2.213279e+000 1.879077e-001 4.717175e-001 -1.778668e-001 2.077905e+000 -1.234948e+000 6.074133e-001 -4.648702e-001 3.589185e-001 -1.040336e-001 -2.531138e-001 2.872075e-001 -3.432390e-001 5.416044e-002 -1.016344e+000 9.342223e-001 4.588844e-001 2.053767e-001 6.796084e-002 -1.367731e-001
<VARIANCE> 39
 2.862234e+001 1.002544e+002 2.041203e+002 1.365343e+002 2.901652e+002 2.426232e+002 1.121656e+002 1.162725e+002 6.753890e+001 1.216768e+002 1.205803e+002 3.113868e+001 2.266165e+000 2.033228e+000 3.816070e-001 1.703463e+000 2.328564e+000 4.822260e+000 3.360188e+000 6.211630e+000 8.312422e+000 1.398209e+000 8.468590e-001 1.881397e+000 2.136363e+000 1.323780e-001 7.713206e-002 2.687226e-002 4.218358e-001 7.671131e-002 2.454720e-001 1.916902e-001 1.563559e+000 6.530961e-001 4.222540e-001 1.552342e+000 1.158050e+000 4.601144e-001 9.014018e-003
<GCONST> 1.175606e+002
<TRANSP> 5
 0.000000e+000 1.000000e+000 0.000000e+000 0.000000e+000 0.000000e+000
 0.000000e+000 7.916473e-001 2.083527e-001 0.000000e+000 0.000000e+000
 0.000000e+000 0.000000e+000 3.763365e-001 6.236635e-001 0.000000e+000
 0.000000e+000 0.000000e+000 0.000000e+000 3.260606e-008 1.000000e+000
 0.000000e+000 0.000000e+000 0.000000e+000 0.000000e+000 0.000000e+000
<ENDHMM>
~h "m^-w+i"
<BEGINHMM>
<NUMSTATES> 5
<STATE> 2
<MEAN> 39
 -5.535721e+000 7.176042e-001 1.335430e+001 -3.446892e+001 -5.953397e+000 -6.933540e+000 -8.850848e+000 -1.893372e+001 4.088212e+000 -7.077954e+000 -1.032422e+001 5.204782e+000 1.879392e+001 3.364037e-001 4.800923e-001 -3.371276e-001 3.052889e-001 -1.935382e-001 4.537681e-001 -6.800393e-001 2.113191e-001 8.730501e-002 -1.137433e-001 -9.057705e-002 1.634178e-001 -1.875424e-001 4.152543e-002 -2.902246e-002 -4.505121e-002 9.978215e-002 -6.320263e-002 -2.187327e-002 -1.672201e-002 -2.143312e-003 -2.448093e-002 1.654944e-002 3.713202e-002 2.084910e-002 -1.420377e-002
<VARIANCE> 39
 3.650524e+001 6.651251e+001 7.852315e+001 7.819387e+001 9.193907e+001 8.736073e+001 9.638276e+001 7.971676e+001 4.191046e+001 1.196667e+002 8.539030e+001 1.192461e+002 6.300184e+000 5.272917e-001 1.059542e+000 1.415300e+000 2.556087e+000 2.120417e+000 3.517724e+000 2.792165e+000 3.681160e+000 2.909419e+000 2.391028e+000 2.449751e+000 2.447685e+000 4.059874e-002 6.232971e-002 1.439689e-001 2.348783e-001 3.582473e-001 3.727963e-001 7.141532e-001 5.362176e-001 5.942020e-001 5.068057e-001 4.104080e-001 4.026700e-001 4.259439e-001 4.496228e-003
<GCONST> 1.128981e+002
<STATE> 3
<MEAN> 39
 -2.019255e-001 1.126337e+001 -1.066130e+000 -1.378408e+001 -1.739393e+001 -1.128290e+000 -2.209533e+001 -9.880549e+000 5.336365e+000 -5.682215e+000 -5.394914e+000 4.579724e+000 1.259242e+001 -7.895899e-001 -1.953686e-001 -6.036288e-001 1.056401e+000 5.452577e-002 -2.995589e-001 5.048625e-001 6.137758e-001 -3.314355e-001 -7.518938e-003 6.336554e-001 -2.994659e-001 -2.828459e-001 -2.211518e-001 -9.983262e-002 3.890521e-002 7.370470e-002 2.670578e-001 -1.225887e-001 3.478217e-001 6.026202e-002 5.565923e-003 -5.293561e-003 -3.420245e-002 -2.115572e-002 1.845525e-002
<VARIANCE> 39
 3.698957e+001 3.635773e+001 4.450268e+001 1.144277e+002 4.848272e+001 4.897432e+001 5.728656e+001 9.597401e+001 8.181473e+001 4.509299e+001 5.872720e+001 8.218251e+001 6.783716e+000 1.504325e+000 1.806384e+000 2.114220e+000 2.816683e+000 4.271015e+000 4.695416e+000 6.207737e+000 3.173167e+000 4.492992e+000 3.820988e+000 4.307079e+000 3.003729e+000 1.050375e-001 2.733746e-001 3.138814e-001 4.519730e-001 5.786044e-001 8.101522e-001 1.019531e+000 6.452740e-001 4.981123e-001 8.402323e-001 7.994857e-001 7.305003e-001 5.535445e-001 2.581150e-002
<GCONST> 1.242402e+002
<STATE> 4
<MEAN> 39
 -9.126937e+000 2.635293e+000 -5.191729e+000 -1.059510e+001 -3.239713e+000 -2.745778e+001 -7.523686e+000 -5.472390e+000 1.346969e+001 -8.294353e+000 -7.139511e+000 2.129796e+000 1.575101e+001 -1.936531e-001 -1.015060e-001 -3.783727e-001 2.997328e-001 5.306134e-001 -2.086476e+000 2.848979e-001 1.689505e-001 1.097665e+000 -5.654496e-002 -2.368116e-001 -2.765114e-001 4.330663e-001 1.227698e-002 1.403188e-001 6.694261e-002 -1.379970e-001 -1.510285e-001 7.868703e-002 -1.178828e-001 -1.667454e-002 -5.886424e-002 -9.447230e-004 8.816435e-002 7.301129e-002 3.700047e-002
<VARIANCE> 39
 1.113381e+002 6.231937e+001 8.780489e+001 1.553984e+002 1.123321e+002 2.222497e+002 1.051442e+002 7.434590e+001 1.412687e+002 7.706081e+001 1.450724e+002 5.669333e+001 9.790292e+000 1.114158e+001 4.700216e+000 6.293859e+000 1.445548e+001 7.973243e+000 1.042292e+001 1.106280e+001 6.463177e+000 9.713167e+000 9.157304e+000 1.100799e+001 5.132997e+000 8.808194e-001 1.686236e+000 7.521113e-001 1.301261e+000 2.335054e+000 1.093818e+000 1.885040e+000 1.915336e+000 1.299149e+000 2.167390e+000 1.789860e+000 1.559668e+000 9.038746e-001 1.458585e-001
<GCONST> 1.580364e+002
<TRANSP> 5
 0.000000e+000 1.000000e+000 0.000000e+000 0.000000e+000 0.000000e+000
 0.000000e+000 9.710336e-001 2.896644e-002 0.000000e+000 0.000000e+000
 0.000000e+000 0.000000e+000 9.338323e-001 6.616771e-002 0.000000e+000
 0.000000e+000 0.000000e+000 0.000000e+000 9.481242e-001 5.187580e-002
 0.000000e+000 0.000000e+000 0.000000e+000 0.000000e+000 0.000000e+000
<ENDHMM>
~h "a-j^+z"
<BEGINHMM>
<NUMSTATES> 5
<STATE> 2
<MEAN> 39
 -1.280481e+001 -2.288803e+001 2.344184e+000 -2.230187e+001 1.302704e+000 -1.265834e+001 8.825230e+000 -1.370207e+001 -3.394396e+000 -1.251531e+001 -1.732782e-001 -3.116485e+000 2.196738e+001 -8.067011e-001 4.695306e-001 1.021713e+000 -1.668555e+000 -8.826556e-001 7.764207e-001 1.415430e+000 4.033142e-001 -1.969910e-001 1.590878e+000 -7.148839e-001 -1.078398e-001 3.353922e-001 -2.659681e-001 5.582200e-001 3.013818e-001 8.258126e-001 2.473636e-002 7.724674e-002 -2.163469e-001 3.779472e-001 2.008691e-001 -1.202181e-001 3.468834e-001 2.823417e-002 -2.365209e-001
<VARIANCE> 39
 1.777538e+001 1.378752e+001 5.129004e+001 8.068501e+001 6.450067e+001 8.458150e+001 6.081733e+001 6.811745e+001 1.055057e+002 4.325206e+001 5.010398e+001 2.896970e+001 8.728860e-001 4.396724e-001 1.494885e+000 8.691674e-001 3.720771e+000 1.250319e+000 3.539472e+000 2.895420e+000 5.389938e+000 4.605427e+000 4.880553e+000 2.637148e+000 2.222984e+000 7.987998e-002 2.138530e-001 2.486532e-001 4.748445e-001 4.524167e-001 7.379457e-001 5.888093e-001 6.882232e-001 9.670323e-001 4.846484e-001 9.481342e-001 6.221709e-001 5.614688e-001 7.845967e-003
<GCONST> 1.129636e+002
<STATE> 3
<MEAN> 39
 -1.502237e+001 -1.940732e+001 5.078469e+000 -2.583196e+001 -3.727842e+000 -1.112309e+001 1.111992e+001 -1.497241e+001 -2.274189e+000 -1.049974e+001 -1.919979e+000 -4.935736e+000 2.223048e+001 -1.462799e-001 1.774113e-001 1.203389e-001 -2.097598e-001 -9.881970e-002 1.938183e-001 1.133839e-001 1.671453e-001 2.465455e-001 2.770804e-001 -1.710495e-001 1.373988e-002 2.301558e-002 1.144721e-001 -1.532833e-001 -1.515236e-001 4.508219e-001 2.026557e-001 -1.702177e-001 -1.124116e-001 -1.628852e-002 -1.134642e-001 -2.537453e-001 2.025100e-001 5.718684e-002 -4.289268e-002
<VARIANCE> 39
 7.826060e+000 1.608051e+001 3.247591e+001 3.261203e+001 2.709561e+001 5.870721e+001 5.254068e+001 3.873724e+001 1.124280e+002 3.844599e+001 6.188006e+001 3.489563e+001 8.650372e-001 3.176461e-001 7.545603e-001 6.569006e-001 2.288220e+000 1.199447e+000 1.759326e+000 1.415787e+000 2.453970e+000 1.950944e+000 1.645087e+000 1.822636e+000 1.370633e+000 9.786432e-003 7.169842e-002 1.290190e-001 1.081023e-001 1.972304e-001 2.019842e-001 3.061978e-001 3.142360e-001 6.321490e-001 4.558252e-001 3.897857e-001 3.315849e-001 3.662336e-001 3.201759e-003
<GCONST> 9.028744e+001
<STATE> 4
<MEAN> 39
 -1.330394e+001 -2.092721e+001 3.162494e+000 -2.110327e+001 -8.104261e-001 -8.546319e+000 1.132018e+001 -1.422854e+001 -3.007293e+000 -1.064837e+001 -1.412126e+000 -1.804815e+000 2.187097e+001 4.990735e-001 -5.790033e-001 -5.247136e-001 1.077629e+000 2.492051e-001 -7.482626e-001 -6.610230e-001 -4.998427e-001 -9.895492e-001 -7.719725e-001 1.584535e-001 1.533687e-001 -7.765020e-002 6.671096e-002 -1.166015e-001 -1.201357e-001 5.617484e-002 -6.560859e-002 -3.247258e-001 -2.690125e-001 1.066215e-001 -3.438533e-002 -1.715104e-001 -1.933002e-001 -1.141506e-001 -2.247861e-002
<VARIANCE> 39
 1.175250e+001 2.516169e+001 3.695803e+001 4.676409e+001 4.008604e+001 5.713968e+001 5.786271e+001 6.696622e+001 7.955878e+001 3.322231e+001 5.612911e+001 3.895776e+001 1.011649e+000 4.635068e-001 6.438178e-001 1.015616e+000 1.347497e+000 2.752222e+000 2.814431e+000 2.209801e+000 3.500427e+000 2.624303e+000 3.144059e+000 2.498353e+000 2.753608e+000 2.061755e-002 7.465872e-002 1.484679e-001 1.463134e-001 1.914390e-001 1.514377e-001 2.132182e-001 3.748189e-001 5.546510e-001 5.085819e-001 2.847515e-001 3.180720e-001 3.263028e-001 2.194315e-003
<GCONST> 9.635569e+001
<TRANSP> 5
 0.000000e+000 1.000000e+000 0.000000e+000 0.000000e+000 0.000000e+000
 0.000000e+000 4.325696e-001 5.674304e-001 0.000000e+000 0.000000e+000
 0.000000e+000 0.000000e+000 8.261259e-001 1.738741e-001 0.000000e+000
 0.000000e+000 0.000000e+000 0.000000e+000 5.985430e-001 4.014570e-001
 0.000000e+000 0.000000e+000 0.000000e+000 0.000000e+000 0.000000e+000
<ENDHMM>
~h "uu-h+u"
<BEGINHMM>
<NUMSTATES> 5
<STATE> 2
<MEAN> 39
 -3.111047e+000 -1.355933e+001 -2.035668e+001 -2.702248e+001 1.402004e+001 6.207792e+000 -1.064198e+000 -3.250125e+000 2.268227e+000 -7.037370e+000 -4.211839e+000 -1.529345e+000 1.894726e+001 -4.260678e-002 7.956644e-001 2.779525e-002 1.067587e+000 -3.997578e-002 6.566569e-001 7.634272e-002 2.383445e-001 -7.296475e-001 -1.893904e+000 -1.001375e+000 -1.061150e+000 -1.421413e-001 4.679963e-001 4.044596e-001 4.915730e-001 4.674533e-001 1.000699e-002 -1.815567e-001 -4.376757e-001 -2.585324e-002 -3.454967e-001 -3.239613e-001 -9.228498e-001 -4.681674e-001 -4.685704e-002
<VARIANCE> 39
 2.430761e+001 8.409298e+001 6.864551e+001 5.712600e+001 2.000201e+002 4.436946e+002 4.669621e+001 1.729797e+002 8.178468e+001 1.712682e+001 1.484249e+002 4.569631e+001 1.388268e+000 1.032061e+000 1.234683e+000 9.247893e-001 2.332557e+000 1.121665e+000 3.926634e-001 3.250815e-001 1.025563e+000 2.386399e-001 5.151061e-001 3.897403e+000 1.728837e+000 6.046273e-002 8.101025e-002 5.024338e-001 2.588371e-001 2.022832e-001 6.022847e-001 7.993886e-001 8.933184e-002 8.356235e-001 1.325068e-001 5.429348e-001 1.298884e+000 4.062920e-001 7.181418e-003
<GCONST> 1.027736e+002
<STATE> 3
<MEAN> 39
 -9.851847e-001 -9.317617e+000 -2.203044e+001 -2.293883e+001 1.013406e+001 4.225112e+000 4.294205e-001 -1.007953e+001 4.145178e+000 -1.073247e+001 -6.558743e+000 -5.525598e+000 1.901824e+001 7.738722e-001 9.867767e-001 7.467344e-001 1.401174e+000 -4.647169e-001 7.335666e-001 -2.676584e-001 6.370978e-001 -1.335364e+000 -1.263004e+000 -2.065701e+000 -1.877503e+000 -1.355079e-001 4.001544e-001 8.973619e-002 8.730013e-002 2.963849e-001 -8.642063e-003 1.574493e-001 -2.965207e-001 7.239448e-002 -8.076652e-002 1.928359e-001 -2.542302e-001 -1.782119e-001 -5.485050e-002
<VARIANCE> 39
 3.398446e+001 7.629080e+001 1.099144e+002 6.582642e+001 1.389393e+002 4.119728e+002 7.471087e+001 1.319485e+002 1.223762e+002 3.176340e+001 1.646516e+002 2.626843e+001 1.738209e+000 6.154338e-001 2.515516e+000 6.673322e-001 7.318794e-001 1.846015e+000 2.582275e+000 7.390338e-001 2.386378e+000 8.706905e-001 6.426470e-001 1.691137e+000 1.817774e+000 3.135893e-002 1.246631e-001 3.065502e-001 2.341285e-001 6.531299e-001 2.657720e-001 1.222066e-001 7.627482e-002 5.742859e-001 1.403228e-001 2.084026e-002 1.193056e+000 6.029464e-001 1.170365e-002
<GCONST> 1.023860e+002
<STATE> 4
<MEAN> 39
 1.922616e+000 -9.575607e+000 -1.691767e+001 -2.334022e+001 1.192080e+001 1.115900e+001 -4.761067e+000 -3.925359e+000 -2.393249e+000 -8.654206e+000 -1.414313e+001 -9.879679e+000 1.821869e+001 1.532665e+000 1.828042e+000 1.473366e-001 2.291124e+000 -3.706334e-001 1.231212e+000 -5.799559e-001 -6.385993e-001 -1.184167e+000 -1.451618e+000 -1.733787e+000 -2.096783e+000 -2.443635e-001 9.300484e-002 -3.685208e-001 -2.294318e-001 1.693890e-001 -1.571836e-001 1.350968e-002 -1.105876e-001 -2.876205e-001 -9.413806e-002 1.325302e-001 7.630551e-001 8.806775e-001 -1.414083e-002
<VARIANCE> 39
 3.159489e+001 4.037105e+001 7.108401e+001 6.011385e+001 1.640913e+002 5.858566e+002 4.861031e+001 5.857221e+001 8.929440e+001 1.718973e+001 1.370954e+002 7.736062e+001 1.322917e+000 6.750242e-001 1.877690e+000 1.891142e+000 1.676069e+000 6.377106e-001 1.840509e+000 5.861568e-001 4.930965e+000 6.871720e-001 1.023529e+000 2.706201e+000 4.754379e+000 4.680982e-002 8.282522e-002 1.849604e-001 3.041039e-001 4.733060e-001 2.755707e-001 1.129560e+000 3.077487e-001 1.025583e+000 2.029961e-001 8.546345e-002 4.388329e-001 6.413628e-001 1.210711e-002
<GCONST> 1.070812e+002
~t "T_h"
<ENDHMM>
~h "j^-th+@@"
<BEGINHMM>
<NUMSTATES> 5
<STATE> 2
<MEAN> 39
 -5.643725e+000 -2.553311e+001 1.046820e+000 -9.680394e+000 4.520849e+000 -7.334305e+000 -4.006236e+000 -6.243498e+000 -1.502918e+001 -1.425934e+001 -1.074548e+001 4.474271e+000 1.913275e+001 1.648112e-003 2.679874e-002 -1.425838e+000 1.514374e+000 -9.647831e-001 4.194970e-003 -7.995816e-002 -9.562507e-001 2.003104e+000 -4.639804e-001 9.830412e-001 -3.199689e-001 -2.447727e-001 -3.860210e-001 5.041975e-001 -7.415112e-001 7.719582e-002 -3.713340e-001 -2.345217e-001 1.001819e-001 -1.037497e+000 3.987843e-001 -5.423732e-001 2.018487e-001 2.907374e-002 3.566594e-002
<VARIANCE> 39
 1.496910e+001 4.339317e+001 1.152315e+001 6.006000e+001 5.718023e+001 1.717151e+002 2.522832e+002 2.451363e+001 9.398655e+001 2.552258e+001 5.965352e+001 5.224527e+001 1.381808e+000 6.053639e-001 7.869719e-001 2.419984e+000 1.486540e+000 9.082157e-001 1.738958e+000 8.292418e+000 6.344766e+000 1.091764e+001 1.299623e-001 6.399683e+000 5.110824e+000 1.178934e-002 2.185220e-001 3.157558e-001 2.511947e-001 2.573687e-001 1.183813e-001 4.365582e-001 1.279982e+000 2.153238e-001 5.039709e-001 1.991630e-001 1.607896e+000 3.444740e-001 8.462901e-003
<GCONST> 1.057956e+002
<STATE> 3
<MEAN> 39
 -6.823030e+000 -2.172349e+001 -1.386862e+000 -1.057643e+001 2.558252e+000 -1.370909e+001 7.965267e-001 -1.083262e+001 -7.473222e+000 -1.390593e+001 -6.193358e+000 6.753199e-001 1.908046e+001 -7.879957e-001 8.937812e-001 -1.622088e+000 2.012169e+000 -8.575937e-001 -6.347154e-001 -1.645391e+000 -2.014444e+000 1.224793e-001 -2.170139e+000 -1.055806e+000 -1.269443e+000 -1.715294e-001 -3.312628e-001 6.474408e-001 -6.009610e-001 -9.287971e-002 -1.770586e-001 -2.707295e-001 -3.795921e-002 -3.677399e-001 7.270198e-002 -2.606236e-001 -4.182685e-001 1.353544e-001 3.384060e-002
<VARIANCE> 39
 1.799255e+001 2.646823e+001 1.587462e+001 6.016330e+001 4.817923e+001 5.293795e+001 1.374976e+002 4.222091e+001 7.590618e+001 1.350044e+001 2.099889e+001 7.105774e+001 2.346218e+000 1.501770e+000 3.438324e+000 1.955387e+000 3.451847e-001 1.408720e+000 4.718267e+000 1.097548e+001 3.908305e+000 7.677555e+000 2.306908e+000 3.905828e+000 3.141913e+000 2.644602e-002 2.353407e-001 2.795024e-001 5.021070e-001 7.418151e-001 6.530061e-002 4.050374e-001 1.365625e+000 6.946509e-001 5.034838e-001 2.409231e-001 7.879246e-001 4.932125e-001 1.454985e-002
<GCONST> 1.102796e+002
<STATE> 4
<MEAN> 39
 -8.337983e+000 -1.979873e+001 -3.038911e+000 -6.958915e+000 -1.040809e+000 -1.291866e+001 -1.374610e+000 -1.527751e+001 -1.021424e+001 -2.124307e+001 -8.671519e+000 3.860836e-001 1.896102e+001 -1.134219e+000 1.856585e+000 -2.634330e+000 1.770880e+000 -9.351371e-001 -5.212305e-001 -1.149051e+000 -1.952894e+000 8.729866e-001 -1.260051e+000 -6.869541e-001 -4.380512e-001 -1.422131e-001 -1.155566e-001 3.661636e-001 -3.738804e-001 -3.669949e-001 2.142976e-001 -1.137332e-001 5.272139e-001 3.902927e-001 2.803760e-001 3.172244e-001 7.242827e-002 2.602732e-001 5.218026e-002
<VARIANCE> 39
 2.669059e+001 2.545787e+001 1.669131e+001 4.360389e+001 3.545828e+001 3.341793e+001 8.380854e+001 2.889816e+001 1.222941e+002 8.352628e+000 1.634349e+001 7.036221e+001 1.852819e+000 2.827964e+000 4.838712e+000 8.404573e-001 2.728050e+000 8.118752e-001 4.427257e+000 8.933716e+000 2.007826e+000 2.526223e+000 2.139089e+000 3.593429e+000 4.669929e-001 7.470829e-002 1.135526e-001 1.574830e-001 5.224744e-001 6.030793e-001 2.147890e-001 4.235249e-001 1.218274e+000 9.138135e-001 8.660700e-001 1.481166e-001 1.093475e+000 5.775390e-001 6.797020e-003
<GCONST> 1.065012e+002
<TRANSP> 5
 0.000000e+000 1.000000e+000 0.000000e+000 0.000000e+000 0.000000e+000
 0.000000e+000 3.665519e-001 6.334481e-001 0.000000e+000 0.000000e+000
 0.000000e+000 0.000000e+000 1.627000e-008 9.999999e-001 0.000000e+000
 0.000000e+000 0.000000e+000 0.000000e+000 3.020357e-008 9.999999e-001
 0.000000e+000 0.000000e+000 0.000000e+000 0.000000e+000 0.000000e+000
<ENDHMM>
~h "uua-n^+j"
<BEGINHMM>
<NUMSTATES> 5
<STATE> 2
<MEAN> 39
 -1.159127e+001 -7.298918e-001 -9.281853e+000 -6.712278e+000 -9.981592e+000 -1.129986e+001 5.639354e+000 3.818105e-001 -5.977483e+000 -1.605286e+001 -5.975974e+000 4.236766e+000 1.334589e+001 -6.367102e-001 9.792983e-001 1.152822e+000 -1.363260e+000 -3.286094e-001 -5.151694e-001 3.010360e-001 -8.211594e-001 1.831991e+000 1.284481e+000 -6.013180e-002 -6.714694e-001 1.243927e-001 1.189279e-001 -1.049469e-001 1.389324e-001 -1.109013e-001 -6.821220e-002 -4.993429e-002 -1.631343e-001 5.404288e-002 3.150435e-002 1.686898e-001 -7.387983e-002 -2.218024e-002 4.074000e-002
<VARIANCE> 39
 1.614907e+002 9.519617e+001 2.209083e+002 7.186736e+001 9.273828e+001 3.398781e+001 9.071593e+001 4.525420e+002 8.696126e+001 1.586971e+002 2.557825e+001 5.828499e+001 1.398172e+001 7.492640e+000 1.424346e+000 7.974518e+000 4.283935e+000 7.207620e+000 6.109326e+000 1.494594e+001 1.816174e+001 5.708798e+000 7.004161e+000 3.270784e+000 4.262018e+000 8.020578e-001 9.337871e-001 4.519561e-001 1.014743e+000 5.005004e-001 1.210294e+000 1.305646e+000 2.149825e+000 2.373704e+000 1.207825e+000 1.518032e+000 4.854467e-001 8.349106e-001 1.147311e-001
<GCONST> 1.486212e+002
<STATE> 3
<MEAN> 39
 -1.101684e+001 -3.075868e-001 1.894162e+001 -2.802611e+001 -1.474782e+001 -2.048625e+001 -2.646368e+000 -2.048438e+001 4.634803e+000 7.991434e-001 -9.661480e+000 -3.784561e+000 1.929936e+001 1.531681e-001 -1.304034e+000 2.600429e-001 -5.745935e-001 -1.109358e+000 -9.139683e-001 1.808771e+000 1.792496e+000 -4.833844e-002 5.521932e-001 6.239960e-001 4.058238e-001 3.373845e-001 -1.535325e-001 -1.919638e-001 -4.622465e-001 3.458515e-001 3.641184e-001 2.839929e-001 3.894618e-001 7.498807e-002 -5.227639e-001 -2.008838e-001 1.911378e-001 2.939471e-002 -5.499570e-003
<VARIANCE> 39
 1.981182e+001 1.298113e+002 1.772834e+002 7.719757e+001 9.194530e+001 2.205093e+001 4.137367e+001 2.146219e+001 5.758861e+001 2.094168e+002 3.380651e+001 1.902526e+001 1.227751e+000 1.072224e+000 2.299448e+000 4.075832e+000 2.448037e+000 2.177981e+000 3.078167e+000 5.110774e+000 2.372530e+000 1.201812e+001 5.604389e+000 1.830729e+000 1.775110e+000 5.029801e-002 3.787691e-001 4.522457e-001 3.363060e-001 2.624177e-001 7.643928e-001 2.820830e-001 7.493194e-001 8.293606e-001 3.321244e-001 6.313879e-001 9.124716e-001 3.017278e-001 1.122465e-002
<GCONST> 1.159826e+002
<STATE> 4
<MEAN> 39
 -4.182110e+000 -1.224142e+001 -7.386573e-001 -2.099484e+001 -7.053454e+000 -2.653461e+001 6.040489e+000 -1.528307e+001 1.153568e+001 -1.222775e+001 -8.027138e+000 4.342393e+000 1.911992e+001 -1.416030e-001 -1.447774e-001 -1.401538e-001 -7.774898e-001 6.319777e-001 -6.032888e-001 5.864971e-001 1.042718e+000 2.320537e-001 3.206749e-002 4.597029e-002 1.259598e+000 1.675510e-001 -1.062652e-001 -1.153723e-001 -2.857309e-002 1.809309e-001 3.763891e-001 4.034450e-001 -2.866724e-001 -3.229316e-001 -4.826115e-001 -9.964281e-002 -2.105591e-002 -1.667067e-001 -1.910083e-002
<VARIANCE> 39
 7.241432e+000 2.013398e+001 4.994302e+001 1.352777e+001 6.761387e+001 3.338301e+001 6.719537e+001 5.477094e+001 1.986450e+002 8.232019e+001 1.906101e+001 4.682902e+001 3.367927e-001 8.072851e-001 1.464472e+000 2.637357e+000 1.972346e+000 1.801839e+000 2.302431e+000 3.456532e+000 4.209192e+000 3.863020e+000 6.941933e+000 5.417828e+000 1.624894e+000 4.506867e-002 8.160432e-002 7.670629e-002 1.980996e-001 2.296585e-001 3.220493e-001 4.824132e-001 9.820930e-001 1.035048e+000 1.418133e+000 1.004924e+000 6.015356e-001 4.597176e-001 5.217070e-003
<GCONST> 1.066006e+002
~t "T_n^"
<ENDHMM>
~h "uu-m+a"
<BEGINHMM>
<NUMSTATES> 5
<STATE> 2
<MEAN> 39
 1.012795e+000 -1.400291e+001 -9.588943e+000 -2.148980e+001 9.795168e+000 -2.221117e+001 -7.048807e+000 -7.982342e+000 -1.280505e+001 -7.636320e+000 -8.620707e+000 -9.097897e+000 1.798491e+001 6.007686e-001 4.217961e-001 -6.420480e-001 1.057398e+000 -3.908554e-001 8.991364e-001 -5.779889e-001 -6.339536e-001 -4.157714e-001 9.458173e-001 -9.097217e-001 -3.113560e-001 -1.905745e-001 -4.701588e-002 -3.198105e-002 -1.532964e-001 1.478597e-001 6.059585e-002 1.068981e-001 4.705082e-002 1.314821e-001 1.401087e-001 3.702366e-002 9.987357e-003 1.662158e-001 6.002774e-003
<VARIANCE> 39
 3.001061e+001 1.567346e+001 2.778683e+001 2.432583e+001 1.735623e+001 4.438741e+001 2.329297e+001 2.609213e+001 4.921522e+001 3.878828e+001 5.130641e+001 2.256136e+001 5.325357e-001 6.848534e-001 7.905125e-001 1.365264e+000 1.196471e+000 1.707779e+000 2.316622e+000 1.882787e+000 2.113704e+000 1.877416e+000 2.356286e+000 3.933871e+000 3.008310e+000 1.448704e-002 1.074960e-001 9.698463e-002 2.220357e-001 2.089396e-001 3.869331e-001 7.123924e-001 3.856451e-001 4.215096e-001 4.083028e-001 5.907082e-001 9.692156e-001 6.667363e-001 4.341141e-003
<GCONST> 9.570094e+001
<STATE> 3
<MEAN> 39
 -2.345818e+000 -1.431442e+001 -1.241565e+001 -2.109518e+001 1.117539e+001 -1.373336e+001 -5.763543e+000 -8.724492e+000 -6.056561e+000 -6.847159e-001 -7.072384e+000 -7.644842e+000 1.863628e+001 -5.861216e-001 -5.397879e-001 2.155515e-001 -2.037570e+000 8.461022e-001 1.210060e+000 1.101471e+000 2.057162e-001 9.122935e-001 5.844605e-001 8.290859e-001 -5.647624e-002 4.888895e-001 -7.091428e-003 -7.618118e-003 4.199417e-001 -2.610924e-001 -2.658402e-001 2.253756e-001 2.149377e-002 3.066590e-002 -1.900847e-001 -1.969422e-001 4.533471e-002 -1.520566e-001 6.112282e-002
<VARIANCE> 39
 7.011819e+001 3.180380e+001 7.856045e+001 1.311940e+002 3.572484e+001 1.604048e+002 5.289185e+001 4.991087e+001 4.360147e+001 5.304924e+001 6.503697e+001 1.220930e+001 3.180132e+000 2.299624e+000 2.002962e+000 4.868095e+000 1.150368e+001 3.449967e+000 1.252040e+001 4.307343e+000 5.051910e+000 7.492813e+000 8.060394e+000 2.812913e+000 2.494653e+000 1.736953e-001 3.623648e-001 4.322177e-001 5.140033e-001 2.591615e+000 5.293618e-001 2.360255e+000 1.200911e+000 1.261255e+000 1.618799e+000 1.583625e+000 5.318305e-001 3.638913e-001 3.849277e-002
<GCONST> 1.325498e+002
<STATE> 4
<MEAN> 39
 -4.383749e+000 -1.762599e+001 -9.215705e+000 -3.259824e+001 1.051678e+001 3.440337e-001 -4.154809e+000 -5.485489e+000 -5.525366e+000 -2.545292e+000 -2.221091e+000 -3.877907e+000 2.053492e+001 2.276474e-001 -1.713131e-001 -4.730685e-002 3.395464e-001 -1.396903e-001 -2.768984e-002 -2.012023e-001 1.296839e-001 -1.494626e-001 -1.942693e-001 -1.853022e-001 2.765265e-001 -6.825890e-002 2.540354e-002 -1.701151e-002 -6.668480e-002 1.102446e-001 -2.753354e-002 -9.011202e-002 8.096900e-002 6.083596e-002 1.178266e-001 1.652944e-002 -5.554502e-002 -2.506523e-003 -1.870815e-002
<VARIANCE> 39
 1.361895e+001 1.897766e+001 1.456316e+001 8.762785e+001 6.992746e+001 1.318601e+002 2.222684e+001 2.799462e+001 9.913237e+001 3.192528e+001 4.194278e+001 1.606341e+001 1.546552e+000 3.786998e-001 8.285954e-001 7.258461e-001 1.584627e+000 1.298570e+000 2.864670e+000 1.884905e+000 2.250434e+000 2.810500e+000 1.445522e+000 2.493460e+000 1.556706e+000 2.136669e-002 4.678296e-002 1.027874e-001 1.403047e-001 2.325848e-001 1.977333e-001 3.092436e-001 3.715155e-001 4.287220e-001 4.536312e-001 2.776826e-001 3.785354e-001 2.893006e-001 4.530390e-003
<GCONST> 9.253477e+001
<TRANSP> 5
 0.000000e+000 1.000000e+000 0.000000e+000 0.000000e+000 0.000000e+000
 0.000000e+000 8.189443e-001 1.810557e-001 0.000000e+000 0.000000e+000
 0.000000e+000 0.000000e+000 7.847130e-001 2.152870e-001 0.000000e+000
 0.000000e+000 0.000000e+000 0.000000e+000 9.417474e-001 5.825258e-002
 0.000000e+000 0.000000e+000 0.000000e+000 0.000000e+000 0.000000e+000
<ENDHMM>
~h "uu-n+a"
<BEGINHMM>
<NUMSTATES> 5
<STATE> 2
<MEAN> 39
 -1.104532e+001 4.521294e+000 -9.935275e-002 3.648947e+000 -6.457089e+000 -6.050691e+000 -6.167210e+000 -6.006260e+000 3.482845e+000 -2.803475e+000 -5.953288e+000 1.906386e+000 1.049983e+001 -7.969729e-001 -2.607759e+000 -1.692450e+000 1.280617e+000 2.989705e+000 -1.945784e+000 2.294604e+000 8.252435e-001 2.500731e-001 -9.613409e-001 2.404761e-001 2.114411e+000 5.650008e-001 3.952969e-001 -1.472028e-001 -2.577247e-001 -3.389840e-001 3.490247e-001 -2.915855e-001 4.613012e-001 -2.366388e-001 3.104182e-002 -4.257400e-002 2.457630e-001 -3.073055e-002 2.530353e-001
<VARIANCE> 39
 3.328413e+001 9.545595e+001 3.677230e+001 2.934966e+002 1.321936e+002 1.082904e+002 7.175527e+001 6.425835e+001 4.138841e+001 6.966823e+001 1.190226e+002 4.506153e+001 1.294249e+001 8.799553e-001 4.236692e+000 1.826151e+000 4.148267e+000 5.436851e+000 1.097695e+001 1.521770e+001 3.111484e+000 1.505378e+000 4.979821e+000 1.118104e+000 4.535050e+000 9.147260e-001 1.538524e-001 2.040525e-001 2.297511e-001 1.770787e+000 3.173617e-001 2.264456e+000 2.278447e+000 1.081106e+000 2.704074e-001 4.754582e-001 3.620539e-002 1.216074e+000 4.675870e-002
<GCONST> 1.289572e+002
<STATE> 3
<MEAN> 39
 -9.462066e+000 -1.231003e+001 -7.450443e+000 -1.144835e+001 9.351789e+000 -1.458840e+001 6.423566e+000 -8.916394e+000 6.858229e+000 -2.458254e+000 -4.451517e+000 3.079847e-001 1.718192e+001 7.390384e-001 -8.561155e-001 2.648457e-001 -3.316049e+000 7.874863e-001 1.313224e+000 -1.257751e+000 -8.569364e-001 3.305730e-001 9.515693e-001 -2.778200e-001 -2.377737e+000 4.627102e-001 1.028745e-001 3.730283e-001 3.794324e-001 4.342215e-001 -3.259746e-001 4.618995e-001 -6.997441e-001 1.927926e-001 -2.394890e-001 -2.239885e-001 -2.578765e-001 -4.594681e-002 -2.140727e-001
<VARIANCE> 39
 2.711983e+001 2.300274e+002 1.102723e+002 3.255208e+002 2.917880e+002 1.955537e+002 9.536034e+001 4.753094e+001 4.800820e+001 8.343299e+001 1.091266e+002 1.264066e+002 1.919191e+001 9.937655e-001 6.670659e+000 9.601153e+000 1.988933e+001 3.973798e+000 3.670106e+000 9.579243e+000 4.921836e+000 1.051078e+000 3.249946e+000 1.367627e+000 8.148463e+000 6.529685e-001 3.507842e-001 8.397261e-001 2.220097e+000 2.924626e+000 1.240867e+000 1.821478e+000 3.016047e+000 8.997920e-001 3.700182e-001 1.142443e+000 4.243234e-001 2.987275e+000 5.292614e-002
<GCONST> 1.468462e+002
<STATE> 4
<MEAN> 39
 -5.172467e+000 4.346295e+000 9.290245e-001 -6.597035e+000 -1.351671e+000 1.617280e+000 -1.352238e+000 -7.844069e+000 8.634084e+000 5.865293e+000 -5.889514e+000 -2.081650e+000 1.329014e+001 8.046705e-001 -6.267068e-001 -5.719400e-001 5.759022e-001 3.973545e-001 4.565783e-001 -2.227048e-001 2.489404e-001 -1.005328e+000 -1.279035e+000 -7.682325e-001 6.004902e-002 -1.667013e-001 -1.807602e-001 -5.157054e-001 -1.215695e-001 -3.660102e-001 -2.729585e-001 -4.915836e-002 -1.697261e-002 -1.800587e-001 -3.952823e-001 -6.839108e-001 -6.803072e-001 3.848870e-001 -1.401502e-002
<VARIANCE> 39
 2.191365e+001 2.034184e+002 2.918167e+001 3.790670e+002 2.344313e+002 1.324281e+002 6.443966e+001 1.464892e+002 7.607246e+001 1.098399e+002 2.482330e+002 2.408976e+001 2.002354e+001 7.271757e-001 3.640488e+000 1.287189e+000 4.217075e+000 4.821032e+000 6.268657e+000 7.230675e+000 3.727346e+000 3.643245e-001 3.758066e+000 6.938817e+000 2.034664e+000 1.451536e-001 4.353836e-001 3.996024e-001 2.622967e-001 6.590076e-001 7.269407e-001 4.832063e-001 5.207366e-001 4.921719e-001 8.212947e-001 1.511622e+000 2.320003e+000 4.103163e-001 6.310967e-003
<GCONST> 1.291997e+002
~t "T_n"
<ENDHMM>
~h "n^-j+aa"
<BEGINHMM>
<NUMSTATES> 5
<STATE> 2
<MEAN> 39
 -6.597582e+000 -2.068167e+001 -7.699718e+000 -2.360045e+001 5.881734e+000 -1.078931e+001 4.167913e+000 3.766949e+000 3.200113e-001 1.263349e+000 -1.248462e+001 3.787714e+000 1.915967e+001 -4.635631e-002 -1.623535e-001 1.874222e-002 -2.446087e-002 1.576364e-001 1.916648e-001 -1.367541e-001 5.612434e-002 8.826332e-002 1.080449e-001 -4.722217e-002 -1.944585e-001 1.158961e-002 1.128601e-002 8.202732e-002 8.290435e-002 -2.294049e-002 -1.458221e-001 -2.187412e-002 -5.002452e-002 -1.053201e-001 -1.490840e-002 9.893958e-003 3.432412e-002 -5.031377e-002 -5.557193e-003
<VARIANCE> 39
 2.074102e+001 2.372753e+001 1.239189e+002 2.478090e+001 5.667301e+001 4.969989e+001 4.914586e+001 5.251913e+001 6.082321e+001 9.115089e+001 1.561466e+002 4.291375e+001 1.927235e+000 1.562527e+000 2.558343e+000 4.323047e+000 2.679732e+000 4.745371e+000 3.327267e+000 2.447850e+000 3.651923e+000 4.598979e+000 4.386318e+000 1.281556e+001 4.353419e+000 7.209914e-002 2.212487e-001 3.111682e-001 4.863442e-001 5.101653e-001 4.364558e-001 5.123280e-001 4.336665e-001 5.136535e-001 6.468917e-001 9.069435e-001 2.223959e+000 7.073824e-001 9.841842e-003
<GCONST> 1.212023e+002
<STATE> 3
<MEAN> 39
 -7.657300e+000 -1.905120e+001 2.996020e+000 -2.192228e+001 1.969245e+000 -2.598535e+001 7.704541e+000 -6.452481e+000 -1.575263e+000 -1.775854e+001 -6.872528e+000 5.824935e+000 2.034610e+001 1.384525e-001 1.622118e-003 -1.858570e-001 2.659013e-001 -6.330148e-002 4.801166e-001 3.579287e-001 1.804199e-001 -3.375136e-001 -4.776733e-003 -1.910451e-001 -8.990961e-002 -6.604528e-002 3.773554e-002 1.023693e-002 -5.350871e-002 6.808137e-002 -1.076800e-002 3.735007e-002 1.221459e-002 6.011075e-002 3.182440e-002 4.148917e-002 1.219446e-002 1.489994e-002 -1.783802e-002
<VARIANCE> 39
 1.006388e+001 1.410173e+001 1.906907e+001 1.489205e+001 2.888398e+001 4.840430e+001 4.987731e+001 3.974728e+001 3.436741e+001 4.051295e+001 4.419504e+001 3.566349e+001 1.902743e+000 4.810787e-001 9.103397e-001 1.233956e+000 1.037380e+000 1.296324e+000 2.134161e+000 2.334826e+000 2.804945e+000 4.236586e+000 3.603376e+000 2.058481e+000 2.189182e+000 5.799570e-002 7.478282e-002 1.138144e-001 2.503732e-001 2.037290e-001 2.524618e-001 4.556235e-001 4.015655e-001 5.743296e-001 9.629603e-001 7.120510e-001 4.562774e-001 3.532152e-001 3.639567e-003
<GCONST> 9.687282e+001
<STATE> 4
<MEAN> 39
 -1.143209e+001 -4.056563e+000 2.159823e+001 -3.212206e+001 -2.836855e+001 -1.346129e+001 -1.381160e+000 -9.857630e+000 5.561386e+000 1.578359e+001 -1.018363e+001 2.042197e+000 1.787059e+001 2.530262e-002 4.115528e-001 -3.355003e-001 5.022171e-001 -5.444457e-001 1.605284e-001 -7.040725e-001 -2.695141e-001 3.291737e-001 5.147724e-001 2.778140e-001 1.216051e-001 -2.512613e-001 -1.919791e-002 6.065374e-003 -4.157498e-002 3.834807e-002 2.046227e-003 -3.009175e-002 -6.019942e-003 -2.254528e-003 -9.944986e-003 2.059867e-003 3.984322e-002 -4.472820e-003 -5.991813e-003
<VARIANCE> 39
 1.250369e+001 6.628678e+001 9.947185e+001 1.095255e+002 1.288545e+002 1.233205e+001 1.349776e+002 5.999013e+001 5.220022e+001 1.260034e+002 2.099628e+001 1.500273e+001 1.030187e+001 6.414920e-001 7.436715e-001 2.071530e+000 2.290067e+000 2.072719e+000 7.775702e-001 2.215497e+000 3.073685e+000 3.088871e+000 2.822106e+000 2.417549e+000 1.453756e+000 6.439060e-002 1.098035e-001 8.104099e-002 2.127120e-001 1.864246e-001 3.521594e-001 1.783661e-001 4.342386e-001 5.884494e-001 5.999927e-001 5.468293e-001 3.784199e-001 2.666264e-001 2.346859e-003
<GCONST> 1.032873e+002
<TRANSP> 5
 0.000000e+000 1.000000e+000 0.000000e+000 0.000000e+000 0.000000e+000
 0.000000e+000 9.219021e-001 7.809782e-002 0.000000e+000 0.000000e+000
 0.000000e+000 0.000000e+000 9.464896e-001 5.351041e-002 0.000000e+000
 0.000000e+000 0.000000e+000 0.000000e+000 8.980806e-001 1.019194e-001
 0.000000e+000 0.000000e+000 0.000000e+000 0.000000e+000 0.000000e+000
<ENDHMM>
~h "a-j^+ph"
<BEGINHMM>
<NUMSTATES> 5
<STATE> 2
<MEAN> 39
 -7.907157e+000 -1.672771e+001 1.829010e+000 -1.930212e+001 8.106746e-001 -1.092395e+001 4.297265e+000 -7.805442e+000 5.643418e-001 -1.635995e+001 -5.043476e+000 -3.823969e+000 2.059270e+001 -1.252898e+000 2.296647e-001 -4.683844e-002 -1.568534e+000 -3.740732e-001 -1.400371e+000 1.188389e+000 -1.909912e+000 2.179836e+000 3.924001e-002 7.566047e-001 -1.957152e-001 2.418301e-001 2.075772e-001 3.393970e-001 -7.213569e-002 1.540013e-001 1.174619e-001 -4.409251e-001 -7.544315e-001 -2.033812e-001 4.525379e-001 4.414715e-001 -5.562515e-001 4.223940e-001 -1.985125e-001
<VARIANCE> 39
 1.454984e+001 7.677178e+001 1.087643e+002 1.173905e+002 2.803615e+002 2.836058e+002 5.948297e+001 1.027968e+002 3.830250e+001 7.710772e+001 6.265691e+001 2.744361e+001 2.524843e+000 1.053036e+000 9.068893e-001 1.068846e+000 1.109781e+000 2.182076e+000 2.724633e+000 2.315267e+000 8.181318e+000 3.165072e+000 2.188479e+000 3.307804e+000 1.219416e+000 2.607587e-002 2.753061e-001 3.918786e-002 1.964843e-001 1.902728e-001 2.191835e-001 2.727986e-001 1.405050e+000 4.150583e-001 5.697350e-001 3.429447e-001 5.686209e-001 7.784737e-001 9.889252e-003
<GCONST> 1.108152e+002
<STATE> 3
<MEAN> 39
 -7.170700e+000 -9.337397e+000 4.167963e+000 -2.533914e+001 -7.510026e+000 -1.624726e+001 2.426534e+000 -1.605333e+001 8.618719e+000 -1.153361e+001 -8.285186e+000 -4.605065e+000 1.935465e+001 -2.322820e-001 2.631627e-001 1.871257e-001 -9.832525e-001 4.637191e-002 5.109719e-001 -3.733155e-001 -5.829632e-001 1.037871e+000 1.367336e+000 7.535546e-001 3.374909e-001 -4.542262e-002 6.101350e-002 -8.152628e-002 -8.082193e-002 2.406552e-001 1.137238e-001 1.231549e-001 -8.756163e-002 2.324713e-002 -4.478889e-001 2.281023e-001 2.278647e-001 2.275158e-001 -5.245990e-002
<VARIANCE> 39
 5.147072e+000 5.550311e+001 4.343822e+001 4.855354e+001 1.519998e+002 1.580617e+002 3.465724e+001 2.790037e+001 2.165767e+001 3.452715e+001 3.703282e+001 1.931096e+001 1.787555e+000 2.810162e-001 6.038820e-001 1.093140e+000 1.217777e+000 1.110432e+000 2.216995e+000 1.615970e+000 2.054359e+000 2.125761e+000 1.379417e+000 2.997615e+000 2.259988e+000 6.305133e-003 8.808645e-002 2.000426e-002 1.591206e-001 2.733561e-001 1.878772e-001 4.811038e-001 2.688609e-001 5.330014e-001 5.038048e-001 1.052987e-001 3.392586e-001 2.467526e-001 9.087843e-003
<GCONST> 9.031281e+001
<STATE> 4
<MEAN> 39
 -7.923299e+000 -2.089326e+001 -1.772144e+000 -1.584814e+001 1.378037e+001 -1.545290e+001 -2.030096e+000 -8.645862e-001 4.789052e-001 -1.307469e+001 -3.223464e+000 1.072533e+000 1.950163e+001 4.612099e-001 2.602899e-001 -4.773679e-002 5.097452e-001 -2.490231e-001 -2.420991e-002 -9.930673e-002 5.375086e-002 -4.270678e-001 4.504413e-001 -3.141994e-002 -1.030314e-002 -2.116414e-001 7.286759e-002 3.530436e-002 -3.964347e-002 1.604766e-001 -7.979365e-002 2.425116e-002 2.407558e-002 3.448966e-003 -5.406023e-002 -1.401272e-002 -4.155767e-002 4.431570e-002 -1.520682e-002
<VARIANCE> 39
 1.120405e+001 3.555607e+001 8.140962e+001 3.121797e+001 5.985876e+001 2.651133e+002 4.361606e+001 7.987931e+001 3.278315e+001 7.592790e+001 3.040520e+001 4.217392e+001 1.925925e+000 4.560774e-001 8.394709e-001 8.768562e-001 1.380454e+000 1.653687e+000 2.082917e+000 1.713809e+000 4.377189e+000 2.829678e+000 2.643545e+000 2.849867e+000 2.458442e+000 8.305460e-002 5.031699e-002 1.275893e-001 1.209769e-001 2.406435e-001 2.723021e-001 3.833757e-001 3.274542e-001 7.575930e-001 6.140305e-001 4.704981e-001 3.063676e-001 4.160094e-001 1.025022e-002
<GCONST> 1.027976e+002
<TRANSP> 5
 0.000000e+000 1.000000e+000 0.000000e+000 0.000000e+000 0.000000e+000
 0.000000e+000 2.876519e-001 7.123482e-001 0.000000e+000 0.000000e+000
 0.000000e+000 0.000000e+000 6.941211e-001 3.058789e-001 0.000000e+000
 0.000000e+000 0.000000e+000 0.000000e+000 9.144367e-001 8.556332e-002
 0.000000e+000 0.000000e+000 0.000000e+000 0.000000e+000 0.000000e+000
<ENDHMM>
~h "a-j^+th"
<BEGINHMM>
<NUMSTATES> 5
<STATE> 2
<MEAN> 39
 -1.172991e+001 -2.294153e+001 2.630877e+000 -1.907561e+001 -3.771037e-001 -1.221429e+001 9.793509e+000 -1.357448e+001 -2.296932e+000 -9.726750e+000 -1.454450e+000 -1.695868e+000 2.146106e+001 -9.811066e-001 5.794305e-001 9.384951e-001 -2.040828e+000 1.454097e-001 2.315587e-001 1.753750e+000 1.606903e+000 5.815564e-001 1.204941e+000 -2.134911e-001 -4.849741e-001 4.208594e-001 -4.220211e-001 6.381787e-001 5.110945e-001 5.658230e-001 -2.674133e-001 2.497315e-001 1.195377e-001 4.917989e-001 -8.274040e-002 -5.046480e-001 4.669979e-001 -3.371542e-001 -2.212193e-001
<VARIANCE> 39
 1.781085e+001 1.294367e+001 4.046515e+001 1.450027e+001 7.595438e+001 1.313918e+002 5.173317e+001 8.292062e+001 1.547796e+002 1.826740e+001 3.488729e+001 3.581330e+001 7.680243e-001 1.377962e+000 8.330829e-001 9.505847e-001 7.752976e-001 9.081064e-001 1.802044e+000 2.076952e+000 7.859536e+000 5.016182e-001 5.611470e+000 1.578741e+000 3.246622e+000 2.430529e-002 1.969348e-001 2.621301e-001 5.162832e-001 3.336281e-001 7.129577e-001 1.062958e-001 4.343227e-001 1.129479e+000 3.566667e-001 4.580590e-001 4.331212e-001 6.687068e-001 9.635970e-003
<GCONST> 1.022404e+002
<STATE> 3
<MEAN> 39
 -1.434312e+001 -2.051476e+001 6.632447e+000 -2.521157e+001 -4.399362e+000 -1.137447e+001 1.298800e+001 -1.345205e+001 -4.837072e+000 -8.605687e+000 -3.023108e+000 -4.783900e+000 2.212624e+001 1.103056e-001 -1.009486e-001 -6.332589e-002 -2.915318e-001 2.205135e-001 4.554918e-001 1.682518e-001 -1.206697e-001 -7.076417e-001 -1.327268e-001 1.771387e-002 1.489289e-001 2.841445e-002 1.278186e-001 -1.252411e-001 -1.776698e-001 4.555685e-001 1.871808e-001 -1.350795e-001 -3.088035e-001 -2.526716e-002 -1.015763e-001 -1.824527e-001 9.998704e-002 6.396426e-002 -5.179574e-002
<VARIANCE> 39
 6.189497e+000 1.291916e+001 2.870257e+001 3.802893e+001 4.445916e+001 7.451775e+001 1.498011e+002 5.410994e+001 1.264816e+002 3.207690e+001 4.373248e+001 5.093998e+001 5.305899e-001 4.889810e-001 1.091522e+000 1.441998e+000 2.138903e+000 1.606976e+000 1.881007e+000 1.276287e+000 3.038846e+000 3.078514e+000 2.562125e+000 2.045846e+000 1.789150e+000 3.996097e-002 1.049977e-001 2.095180e-001 2.218825e-001 1.588301e-001 2.519005e-001 3.405209e-001 1.764034e-001 8.392543e-001 7.231501e-001 5.839653e-001 5.462981e-001 4.353266e-001 6.226631e-003
<GCONST> 9.974055e+001
<STATE> 4
<MEAN> 39
 -8.212924e+000 -2.410236e+001 8.476511e-001 -1.387062e+001 7.717582e+000 -1.303204e+001 -1.757872e+000 -6.803061e+000 -1.081156e+001 -1.725225e+001 -6.763574e+000 -2.601123e+000 2.065292e+001 2.032146e-001 4.055734e-002 -6.683663e-002 4.487079e-001 4.163612e-002 -6.043615e-002 -3.760287e-001 2.131038e-001 -2.310371e-001 -1.847523e-001 -2.835627e-001 2.820195e-001 -9.967829e-002 -1.733429e-002 1.700460e-002 2.930828e-002 4.588915e-003 -5.908325e-002 2.622539e-002 1.556220e-002 6.434710e-003 2.713204e-002 2.991701e-002 -3.161491e-002 -3.329512e-002 -7.414320e-003
<VARIANCE> 39
 2.228402e+001 3.001132e+001 2.733807e+001 3.849725e+001 5.811913e+001 1.448947e+002 8.085770e+001 3.308599e+001 6.050136e+001 3.534230e+001 6.273793e+001 4.374984e+001 1.219909e+000 4.449313e-001 9.453740e-001 9.786508e-001 1.348841e+000 1.791586e+000 2.185777e+000 2.344619e+000 2.086370e+000 2.188740e+000 2.524112e+000 2.648018e+000 2.888521e+000 8.379082e-002 9.711708e-002 1.524426e-001 1.975225e-001 2.167845e-001 2.547300e-001 3.304199e-001 4.340909e-001 3.729992e-001 4.180214e-001 4.434269e-001 4.830789e-001 5.223247e-001 1.158643e-002
<GCONST> 1.023048e+002
<TRANSP> 5
 0.000000e+000 1.000000e+000 0.000000e+000 0.000000e+000 0.000000e+000
 0.000000e+000 3.550247e-001 6.449754e-001 0.000000e+000 0.000000e+000
 0.000000e+000 0.000000e+000 8.686761e-001 1.313239e-001 0.000000e+000
 0.000000e+000 0.000000e+000 0.000000e+000 9.529536e-001 4.704642e-002
 0.000000e+000 0.000000e+000 0.000000e+000 0.000000e+000 0.000000e+000
<ENDHMM>
~h "uu-s+a"
<BEGINHMM>
<NUMSTATES> 5
<STATE> 2
<MEAN> 39
 -7.585776e+000 -2.631805e+001 -6.334275e+000 -1.785361e+001 9.540531e+000 7.374917e+000 -5.225790e+000 -9.991274e-001 1.427814e+000 -8.295024e+000 -6.469905e+000 1.684467e+000 2.117792e+001 -5.909486e-002 -4.395790e-001 -2.885056e-002 3.031080e-001 -1.853256e-001 -2.352368e-001 7.181967e-002 2.530652e-002 5.844762e-001 3.185887e-001 2.608209e-001 -2.949469e-001 -5.463714e-002 1.584618e-002 1.904296e-002 4.095575e-002 5.190659e-002 -5.407290e-002 -2.248608e-001 1.261574e-001 7.467425e-002 2.121663e-002 9.175587e-002 -2.018693e-001 -3.418513e-002 -2.345556e-002
<VARIANCE> 39
 1.604096e+001 5.767761e+001 1.297019e+001 6.671145e+001 1.793273e+001 4.433302e+001 1.433433e+001 2.272338e+001 6.595813e+001 2.052806e+001 2.849844e+001 3.139433e+001 7.399318e-001 5.304664e-001 9.521941e-001 1.013496e+000 1.583517e+000 7.360744e-001 1.935122e+000 8.773243e-001 2.890002e+000 1.653348e+000 1.265686e+000 1.511809e+000 1.686382e+000 1.116921e-002 9.431522e-002 1.470262e-001 1.324753e-001 1.915030e-001 1.332442e-001 3.720988e-001 2.370379e-001 2.592172e-001 5.279011e-001 2.503721e-001 4.387701e-001 3.668544e-001 7.793375e-003
<GCONST> 8.724370e+001
<STATE> 3
<MEAN> 39
 -1.676880e+000 -1.558169e+001 -7.364531e+000 -2.946069e+001 9.756948e+000 -6.226821e+000 -4.615173e+000 -8.739208e+000 2.069473e+001 -5.372478e+000 -6.684309e+000 -2.213335e+000 2.018563e+001 -3.263001e-001 -1.631399e+000 2.057880e+000 3.196535e+000 -1.736454e+000 -3.882126e+000 1.594873e+000 5.870091e-001 -1.430672e-001 1.069145e+000 -2.406423e+000 2.508883e-001 -1.385999e-001 1.238861e-001 4.137793e-001 4.288386e-001 1.175593e-001 -4.852204e-001 6.517862e-002 5.385088e-002 3.066132e-001 -1.389906e+000 -3.884195e-001 8.768692e-003 4.925842e-001 -2.437713e-002
<VARIANCE> 39
 1.152613e+001 7.176198e+001 2.606279e+001 1.065831e+002 7.491893e+001 9.365159e+001 3.824875e+001 1.264707e+002 6.710262e+001 3.976567e+001 1.127540e+002 9.152094e+001 1.060365e+000 5.882551e-001 2.299267e+000 1.973578e+000 7.406640e+000 4.550453e+000 7.524772e+000 2.385570e+000 4.773380e+000 2.716079e+000 1.546486e+000 5.169593e+000 2.420936e+000 4.581940e-002 1.654194e-001 5.338345e-001 4.330875e-001 4.884544e-001 1.027429e+000 1.050468e+000 6.094776e-001 1.790368e+000 7.759239e-001 1.489627e-001 1.148008e+000 6.652029e-001 2.281144e-002
<GCONST> 1.206590e+002
<STATE> 4
<MEAN> 39
 6.396999e-001 -1.489008e+001 -2.334060e+000 -2.166526e+001 2.298910e-001 -9.132211e+000 -1.109825e+001 -1.041834e+001 1.091821e+001 -4.858761e+000 -1.537030e+001 3.638277e+000 1.835739e+001 4.787397e-001 -1.760409e-001 3.631803e-001 1.639550e+000 -1.410460e+000 5.555032e-002 -4.301678e-001 1.024993e-001 -2.948702e+000 -3.533341e-001 6.470197e-001 1.715690e+000 -2.671218e-001 -1.630982e-001 -4.278245e-002 -6.081395e-001 -3.694680e-001 4.053692e-001 6.000710e-001 2.025077e-001 1.309703e-001 1.901541e-001 8.607649e-003 7.957599e-001 5.221432e-002 5.590877e-002
<VARIANCE> 39
 1.685336e+001 4.792776e+001 3.004686e+001 2.504236e+001 8.620063e+001 6.348215e+001 1.080315e+002 1.249931e+002 6.591187e+001 4.596268e+001 1.057643e+002 5.465538e+001 2.271121e+000 6.489345e-001 1.766744e+000 4.976257e+000 6.735601e-001 5.362680e+000 6.087844e+000 3.689057e+000 4.441710e+000 7.435136e+000 1.467302e+000 4.589781e+000 3.408012e+000 1.141933e-001 3.141447e-001 3.750727e-001 6.384733e-001 5.682587e-001 1.711785e-001 2.725945e+000 9.706029e-001 9.609649e-001 3.656137e+000 6.358433e-001 1.130094e+000 1.974524e-001 5.084691e-003
<GCONST> 1.212876e+002
~t "T_s"
<ENDHMM>
~h "a-l+aa"
<BEGINHMM>
<NUMSTATES> 5
<STATE> 2
<MEAN> 39
 -2.998910e+000 -1.774051e+001 4.831009e-001 -1.923803e+001 2.439928e+000 -1.144408e+001 5.844162e+000 -3.751833e+000 -1.610569e+000 -6.235543e+000 -2.022097e+000 4.005414e+000 1.977203e+001 -5.623643e-001 1.028918e+000 1.222863e+000 -1.878276e-001 5.336168e-001 -6.381595e-001 3.746072e-001 3.698498e-001 -2.530575e+000 -5.956250e-001 2.589980e-002 -8.130691e-001 7.179163e-002 -7.977449e-002 1.363691e-001 -1.396236e-001 -1.072488e-001 -3.952701e-001 -1.223511e-001 -3.988430e-001 -2.334618e-002 1.468084e+000 1.927813e-001 -1.409787e-001 3.473672e-002 -3.936950e-002
<VARIANCE> 39
 1.822182e+001 5.150211e+001 5.727654e+001 6.227946e+001 3.266900e+002 1.962930e+002 1.642267e+002 9.628764e+001 7.386507e+001 3.496776e+001 1.745167e+002 7.674552e+001 1.656959e+000 7.956627e-001 6.761594e-001 1.332867e+000 1.630140e+000 5.987311e-001 1.140505e+000 9.790202e+000 8.298903e+000 8.617092e-001 3.059460e+000 2.608651e+000 2.565572e+000 3.373704e-002 2.703955e-002 9.921660e-002 9.728300e-002 1.997733e-001 5.489291e-001 4.558535e-001 1.166417e+000 5.053404e-001 3.613526e-001 9.168921e-002 1.299166e+000 1.195750e+000 1.345411e-002
<GCONST> 1.099049e+002
<STATE> 3
<MEAN> 39
 -3.694157e+000 -1.649158e+001 2.718037e+000 -2.137723e+001 2.407055e+000 -1.516587e+001 8.223820e+000 -2.817167e+000 -1.283331e-001 -6.628018e+000 -1.296613e+000 4.447176e+000 1.984184e+001 -6.126178e-001 5.133505e-001 8.896618e-001 -5.568329e-001 -7.708144e-001 -1.271931e+000 3.819427e-001 -1.158939e-001 -3.657227e-001 -3.892868e-001 -9.553271e-002 -8.430566e-001 6.477527e-002 2.167448e-002 -1.005296e-001 -3.014058e-001 4.275304e-002 -5.223466e-001 2.898058e-001 -6.619458e-002 -3.450965e-001 1.474631e+000 4.683912e-001 -1.423360e-001 7.216217e-002 -3.550073e-002
<VARIANCE> 39
 1.337942e+001 3.665652e+001 6.622953e+001 8.409673e+001 3.724334e+002 1.785032e+002 2.640238e+002 8.116690e+001 7.207043e+001 7.954367e+000 1.431218e+002 5.357997e+001 2.031626e+000 6.434926e-001 4.812734e-001 7.328719e-001 1.536532e+000 8.631393e-001 1.612375e+000 4.578663e+000 5.653155e+000 1.797860e-001 2.953265e+000 1.216160e+000 4.703094e+000 2.088720e-002 1.070204e-002 1.477005e-001 2.881046e-001 5.906602e-002 4.559656e-001 3.524756e-001 1.466573e+000 1.001468e+000 5.006492e-001 2.213207e-001 7.480790e-001 4.986210e-001 6.346612e-003
<GCONST> 1.031397e+002
<STATE> 4
<MEAN> 39
 -4.646683e+000 -1.527755e+001 2.981563e+000 -1.908779e+001 1.900206e+000 -1.394570e+001 6.773508e+000 -2.479487e+000 -6.097816e-001 -6.950159e+000 -2.613419e+000 3.966335e+000 1.993951e+001 -3.625420e-001 2.184126e-001 5.789203e-001 -4.646950e-001 -1.156592e+000 -4.002827e-001 9.907080e-001 -1.892324e-001 1.634958e+000 4.263013e-001 -2.388887e-001 -7.560374e-001 2.261943e-002 1.354206e-001 -1.926544e-001 -2.565632e-001 6.774979e-002 -2.025769e-001 5.398212e-001 7.077747e-002 -4.226588e-001 1.010299e+000 4.278957e-001 -1.548173e-001 5.126148e-002 -4.290680e-002
<VARIANCE> 39
 1.408850e+001 5.598903e+001 5.872817e+001 7.012226e+001 3.236400e+002 1.944353e+002 2.650474e+002 6.051781e+001 3.581203e+001 6.880823e+000 1.102632e+002 1.705917e+001 1.956305e+000 3.452374e-001 8.580091e-001 1.075531e+000 8.088486e-001 1.596805e+000 4.688984e-001 6.556813e-001 2.713686e+000 1.553871e+000 2.572441e+000 2.327789e+000 7.626330e+000 1.891212e-002 4.517643e-002 6.865185e-002 1.514057e-001 1.674071e-001 1.782731e-001 6.808728e-001 1.464625e+000 1.236606e+000 2.406586e-001 6.555024e-001 4.656916e-002 2.366201e-001 2.777598e-003
<GCONST> 9.713927e+001
<TRANSP> 5
 0.000000e+000 1.000000e+000 0.000000e+000 0.000000e+000 0.000000e+000
 0.000000e+000 9.243622e-016 1.000000e+000 0.000000e+000 0.000000e+000
 0.000000e+000 0.000000e+000 2.165886e-011 1.000000e+000 0.000000e+000
 0.000000e+000 0.000000e+000 0.000000e+000 1.360963e-002 9.863904e-001
 0.000000e+000 0.000000e+000 0.000000e+000 0.000000e+000 0.000000e+000
<ENDHMM>
~h "a-l+ee"
<BEGINHMM>
<NUMSTATES> 5
<STATE> 2
<MEAN> 39
 -2.864498e-001 -7.240495e+000 -1.514203e+001 -1.679986e+001 6.032208e+000 -1.527985e+001 -1.025441e+001 8.785878e+000 1.646436e+000 -4.372534e+000 -5.874169e+000 -1.296869e+000 1.806161e+001 -4.265802e-001 -1.858087e-001 -5.630288e-001 1.289338e+000 1.067861e+000 5.742783e-001 -7.776145e-001 9.336566e-001 5.526589e-002 -1.199385e+000 -8.289877e-001 5.845399e-001 -8.692360e-003 -5.066552e-002 2.382316e-001 4.455042e-001 -9.439123e-001 -2.632177e-001 3.798518e-001 4.617419e-001 -6.492040e-001 3.939907e-001 -9.394496e-002 4.944067e-001 4.304759e-001 3.519889e-002
<VARIANCE> 39
 4.504356e+001 6.854063e+001 7.831705e+001 6.418096e+001 1.339384e+002 1.785317e+002 3.814571e+001 4.144795e+001 1.899097e+002 1.385907e+002 5.581438e+001 8.327523e+001 1.491063e+000 2.178996e+000 2.312759e+000 7.667547e+000 8.351455e-001 2.036523e+000 8.171414e-001 1.265288e+000 9.974672e-001 1.957107e+000 9.743259e+000 2.027573e+000 2.668881e+000 9.554283e-002 1.084418e-001 3.203507e-001 9.059147e-001 5.326638e-001 4.851283e-001 9.751757e-001 6.655117e-001 6.128286e-001 1.021292e+000 3.233180e-001 4.843942e-001 2.051299e+000 1.766675e-002
<GCONST> 1.203246e+002
<STATE> 3
<MEAN> 39
 3.726514e+000 -5.664188e+000 -1.777132e+001 -1.546275e+001 1.585379e+000 -1.414675e+001 -8.570457e+000 7.029623e+000 2.776153e-001 -8.671565e+000 -6.149135e+000 2.175475e+000 1.800510e+001 -1.973942e-001 9.567733e-001 7.104795e-002 -1.848926e+000 1.253425e-001 1.812046e+000 3.073930e-001 -8.105970e-001 1.219135e+000 1.974603e-001 -2.778205e-002 -5.382550e-002 2.434800e-001 -1.179296e-001 1.741469e-001 5.474504e-001 -7.960805e-001 -4.296539e-001 -5.473845e-002 2.405722e-002 -7.678601e-001 2.342178e-001 -4.464047e-002 2.972979e-001 3.000807e-002 -6.508052e-003
<VARIANCE> 39
 7.193125e+001 3.812371e+001 4.120787e+001 6.760748e+001 1.898377e+002 8.832563e+001 1.811369e+001 4.399347e+001 1.517822e+002 7.427970e+001 3.087725e+001 3.608471e+001 1.044676e+000 1.294942e+000 3.156629e+000 6.708205e+000 7.670014e+000 2.028786e+000 2.010411e+000 5.151938e+000 3.262605e+000 3.332816e+000 7.906914e+000 8.626164e-001 5.043512e+000 1.432837e-001 9.452564e-002 5.631233e-002 2.830513e-001 9.394609e-001 4.217192e-001 8.265553e-001 7.229227e-001 5.875386e-001 7.725858e-001 2.984725e-001 3.429456e-001 8.820198e-001 1.916428e-002
<GCONST> 1.176111e+002
<STATE> 4
<MEAN> 39
 -1.706413e-001 -5.236880e+000 -1.377591e+001 -1.989903e+001 5.836408e+000 -1.095255e+001 -1.080253e+001 6.156245e+000 4.065138e+000 -7.664009e+000 -6.642726e+000 -1.164834e+000 1.844878e+001 -5.130709e-001 3.965139e-001 1.140339e+000 -9.885793e-001 -9.413081e-001 -5.677873e-002 -1.077575e+000 -8.071143e-001 1.495684e+000 -3.285268e-001 9.556388e-001 2.885289e-001 6.392153e-003 1.832864e-001 1.041340e-001 -1.874467e-002 1.249524e-001 4.724873e-002 -7.156931e-001 1.868241e-001 -1.619305e-001 -2.848482e-001 2.011237e-001 2.124688e-001 2.229422e-003 -4.198193e-002
<VARIANCE> 39
 7.454790e+001 7.290903e+001 2.304352e+001 6.955399e+001 1.880200e+002 1.161665e+002 2.649889e+001 9.001208e+001 1.779402e+002 3.605544e+001 4.009284e+001 2.077597e+001 9.058111e-001 6.896244e-001 2.203437e+000 8.056068e+000 3.408051e+000 1.074178e+000 3.306569e+000 3.524481e+000 5.451753e+000 5.526771e+000 3.699210e+000 2.388457e+000 1.077670e+001 1.323916e-002 1.117591e-001 4.550905e-001 4.083769e-001 1.339170e+000 7.218722e-001 2.568774e-001 8.847701e-001 2.874583e-001 1.136838e+000 1.060594e+000 5.328634e-002 4.734001e-001 2.484567e-002
<GCONST> 1.168896e+002
<TRANSP> 5
 0.000000e+000 1.000000e+000 0.000000e+000 0.000000e+000 0.000000e+000
 0.000000e+000 1.723715e-006 9.999983e-001 0.000000e+000 0.000000e+000
 0.000000e+000 0.000000e+000 3.676494e-001 6.323506e-001 0.000000e+000
 0.000000e+000 0.000000e+000 0.000000e+000 6.516525e-002 9.348348e-001
 0.000000e+000 0.000000e+000 0.000000e+000 0.000000e+000 0.000000e+000
<ENDHMM>
~h "oo-t^+f"
<BEGINHMM>
<NUMSTATES> 5
<STATE> 2
<MEAN> 39
 -6.705588e+000 -1.443830e+001 -7.982215e+000 -1.471534e+001 3.952746e+000 -1.836526e+001 9.190789e-001 -1.023509e+001 -2.137609e+000 -1.894522e+001 -5.486484e+000 -4.133628e+000 1.957732e+001 6.138106e-002 1.191200e-003 -1.591925e-001 2.544085e-001 -1.028809e-001 1.075780e-001 -1.170806e-001 -4.420641e-002 1.173841e-001 -3.266482e-002 3.610999e-002 -1.901731e-001 -2.620435e-002 -3.666432e-003 3.735159e-002 2.913946e-002 6.065487e-002 -3.737522e-002 -2.590119e-002 1.577284e-002 2.268294e-002 7.004991e-003 3.021961e-002 1.418897e-002 3.195892e-003 -7.823654e-003
<VARIANCE> 39
 3.002189e+001 5.279795e+001 7.115125e+001 8.020081e+001 6.854329e+001 6.896715e+001 4.476562e+001 6.490051e+001 6.006845e+001 8.050077e+001 5.644481e+001 5.515085e+001 2.853224e+000 2.520320e+000 3.704823e+000 2.370477e+000 3.825720e+000 2.742646e+000 2.956119e+000 2.265905e+000 4.815086e+000 6.281834e+000 4.576122e+000 4.900011e+000 2.774935e+000 2.264503e-001 4.122547e-001 6.151965e-001 3.393072e-001 6.420872e-001 5.007499e-001 4.517544e-001 5.012596e-001 8.357577e-001 1.214249e+000 7.206938e-001 9.160392e-001 4.899848e-001 4.411903e-002
<GCONST> 1.258029e+002
<STATE> 3
<MEAN> 39
 -5.148827e+000 -1.599778e+001 -5.219380e+000 -1.235290e+001 1.127360e+001 -1.791032e+001 9.591952e-001 -1.922967e+000 -6.509970e+000 -1.085341e+001 -1.299567e+000 -5.471513e+000 2.006565e+001 -4.821682e-002 -6.909989e-002 2.408644e-001 8.892065e-002 -1.845621e-001 6.289566e-002 4.878106e-001 -1.542898e-001 -1.944982e-001 4.967394e-002 2.260846e-001 9.006014e-002 4.911855e-003 1.866976e-002 5.466004e-002 -1.779018e-002 -7.468790e-003 -6.534605e-002 1.042395e-002 8.706276e-002 -4.581533e-002 5.063052e-002 3.561502e-002 -1.560653e-002 3.546958e-002 -1.598231e-002
<VARIANCE> 39
 1.689526e+001 3.418680e+001 2.443380e+001 2.877730e+001 6.563284e+001 3.216145e+001 4.175976e+001 4.009914e+001 5.127597e+001 4.423858e+001 8.284339e+001 4.135571e+001 1.988581e+000 7.485742e-001 1.365060e+000 1.169325e+000 1.419057e+000 2.404746e+000 2.175764e+000 2.387504e+000 4.538753e+000 2.798578e+000 1.683198e+000 2.321231e+000 2.639050e+000 1.159866e-001 1.078887e-001 1.903238e-001 1.951312e-001 2.472140e-001 4.185603e-001 3.765052e-001 2.400371e-001 8.567665e-001 4.897730e-001 2.635434e-001 3.631827e-001 4.543634e-001 1.741659e-002
<GCONST> 1.037510e+002
<STATE> 4
<MEAN> 39
 -8.187235e+000 -1.904807e+001 -3.010461e+000 -8.963473e+000 1.114097e+000 -1.201175e+001 7.831646e+000 -1.042015e+001 -8.698325e-001 -1.306437e+001 -9.715069e+000 -7.769065e+000 1.907587e+001 -3.718679e-001 8.873146e-001 -1.719364e-001 -6.119546e-002 2.917788e-002 3.125680e-001 -7.006359e-001 7.897205e-001 3.655343e-001 5.055084e-001 2.793688e-001 -9.959331e-002 -3.119161e-001 -4.273924e-002 6.693125e-002 -1.702093e-001 1.237131e-001 1.500494e-001 -2.566175e-001 -3.639794e-001 1.526140e-001 1.821042e-002 -7.540189e-002 8.514567e-002 -1.161874e-001 -1.668451e-002
<VARIANCE> 39
 2.571873e+001 3.152087e+001 3.901418e+001 4.355316e+001 7.047662e+001 3.799576e+001 1.382625e+002 2.297867e+001 5.674242e+001 8.221013e+001 1.530665e+002 5.160814e+001 3.221302e+000 1.385204e+000 8.001202e-001 2.529885e+000 3.820494e+000 2.951438e+000 4.901613e+000 5.246132e+000 2.969573e+000 2.214503e+000 6.109813e+000 4.848136e+000 3.467835e+000 6.913651e-002 2.737873e-001 2.031344e-001 4.551592e-001 5.368559e-001 3.562633e-001 7.704169e-001 1.224576e+000 5.436700e-001 5.706354e-001 7.254168e-001 9.539781e-001 2.779600e-001 2.006047e-002
<GCONST> 1.187896e+002
~t "T_t^"
<ENDHMM>
~h "n-@@+n^"
<BEGINHMM>
<NUMSTATES> 5
<STATE> 2
<MEAN> 39
 -7.533506e+000 -3.350083e+000 -1.605110e+001 -2.389341e+001 3.197466e+000 -1.404799e+001 -1.189429e+001 -1.335877e+001 4.906044e+000 -1.686996e+001 -3.329981e+000 -9.372683e+000 1.914120e+001 5.487434e-001 4.154883e-001 -1.009651e-001 -6.389080e-001 1.984666e-001 1.307291e+000 -1.726986e-001 1.146485e+000 1.127791e+000 4.409145e-001 5.360950e-001 -1.091016e-001 -4.014811e-002 -2.404314e-001 -8.402988e-002 -3.425782e-002 8.216567e-002 -1.668750e-001 4.048607e-002 9.829049e-001 8.157210e-002 4.566694e-001 5.458226e-001 3.284436e-001 2.534100e-001 2.703933e-002
<VARIANCE> 39
 8.199672e-001 6.608409e+001 2.844183e+001 1.228999e+002 5.416209e+001 8.142484e+001 8.206102e+001 3.396960e+001 4.849982e+001 7.438148e+001 2.984971e+001 1.532983e+001 1.380702e+000 5.743423e-002 5.087628e-001 1.168722e+000 1.243406e+000 1.287946e+000 1.295763e+000 1.923669e+000 1.904550e+000 1.701955e+000 3.776613e+000 1.812043e+000 1.277607e+000 2.290474e-002 5.615878e-002 1.829057e-001 3.584468e-001 5.284520e-001 2.732551e-001 8.605578e-001 4.549200e-001 2.916025e-001 6.889272e-001 1.536080e+000 5.461933e-001 1.283819e-001 2.748237e-003
<GCONST> 9.416058e+001
<STATE> 3
<MEAN> 39
 -6.754462e+000 -6.598412e-001 -1.909080e+001 -2.556114e+001 2.441188e+000 -7.719398e+000 -1.326699e+001 -1.384525e+001 8.924953e+000 -1.435608e+001 -3.627380e-001 -8.906774e+000 1.862278e+001 4.351217e-001 -1.101798e+000 -9.477521e-001 -6.766330e-001 3.973790e-001 2.103639e+000 1.925932e+000 6.305878e-001 1.126526e+000 8.921936e-001 8.335651e-002 8.626434e-002 1.420491e-001 -1.362276e-001 -8.711952e-001 2.573191e-001 9.548108e-001 5.223155e-002 -6.046668e-001 4.380953e-001 1.751732e-001 -2.574101e-001 -5.672155e-001 -6.790126e-001 -4.228143e-002 6.476814e-002
<VARIANCE> 39
 3.121571e+000 7.048795e+001 3.267892e+001 1.611297e+002 4.787801e+001 1.055900e+002 3.742435e+001 1.727617e+001 2.573700e+001 6.456655e+001 4.800118e+001 8.348944e+000 1.810430e+000 1.796919e-001 2.135981e+000 3.428508e+000 2.712490e+000 2.574660e+000 2.200840e+000 3.761027e+000 2.208421e+000 2.125149e+000 6.281293e+000 3.191457e+000 1.429656e+000 2.581986e-002 3.060778e-002 5.775265e-001 8.291981e-001 7.169670e-001 6.901036e-001 8.209478e-001 8.749934e-001 3.040777e-001 2.630864e-001 7.582681e-001 6.713790e-001 3.733064e-001 4.368322e-003
<GCONST> 1.053421e+002
<STATE> 4
<MEAN> 39
 -7.061500e+000 -1.058568e+001 -1.588590e+001 -2.747353e+001 7.696846e+000 -5.133780e+000 -6.871647e+000 -1.000937e+001 1.420079e+001 -1.048903e+001 -2.332234e+000 -1.091781e+001 1.997939e+001 -3.371013e-001 -3.542022e+000 1.346126e+000 3.559500e+000 -1.484392e-001 -2.083158e+000 1.822557e+000 1.737564e+000 -5.327576e-001 -2.614876e+000 -2.510670e+000 9.355297e-001 1.754436e-001 -2.029054e-001 8.113267e-002 6.793734e-001 4.652252e-001 -9.832400e-001 -1.159857e+000 2.402018e-001 -2.247679e-001 -1.257929e+000 -8.175576e-001 3.148743e-001 8.361602e-001 -5.741123e-002
<VARIANCE> 39
 4.919806e+000 6.506831e+001 5.992049e+001 1.658621e+002 5.700452e+001 1.318779e+002 2.074092e+001 3.654985e+001 2.276247e+001 8.877396e+001 6.927954e+001 1.409971e+001 1.487478e+000 2.190921e-001 5.573786e+000 1.405299e+000 3.743179e+000 2.844981e+000 3.463301e+000 1.497257e+000 1.431541e+000 6.948594e+000 6.640936e+000 2.708942e+000 3.973713e+000 1.416993e-002 4.189204e-002 6.936677e-001 4.243813e-001 1.564405e+000 6.458002e-001 3.961850e-001 6.857879e-001 5.800368e-001 3.861183e-001 1.456661e+000 1.167478e+000 3.740277e-001 2.465255e-003
<GCONST> 1.103175e+002
~t "T_@@"
<ENDHMM>
~h "m^-ph+a"
<BEGINHMM>
<NUMSTATES> 5
<STATE> 2
<MEAN> 39
 -1.224705e+001 -1.640902e+001 -8.220171e+000 -1.822996e+001 2.115484e+001 -2.044644e+000 3.592237e-001 -1.318587e+001 8.900952e+000 -1.461654e+001 -5.800219e+000 -4.987929e-001 1.845391e+001 1.997223e+000 3.047293e-001 -1.917559e-002 -2.480433e+000 -2.688722e+000 -1.443982e-001 -1.473314e-001 -9.304027e-001 -4.018679e-001 8.500740e-001 -6.534539e-003 -3.042921e-001 4.305653e-001 6.235322e-001 2.004825e-002 -8.475767e-001 9.382518e-001 -9.847204e-001 3.852877e-001 -4.581115e-001 2.910959e-001 4.132931e-001 6.870015e-001 -2.752659e-001 6.190298e-002 -5.073712e-002
<VARIANCE> 39
 3.247721e+001 5.303350e+001 2.283056e+001 4.959885e+001 1.441539e+002 3.175490e+002 3.434420e+001 4.658020e+001 1.041411e+002 4.015415e+001 1.304886e+002 2.202479e+001 4.166417e+000 4.886731e+000 2.083758e+000 2.060287e+000 5.283808e-001 6.894769e+000 7.653028e-001 3.463286e+000 6.820673e-001 4.281284e+000 8.322635e-001 3.347510e+000 1.108617e+000 1.508963e-001 2.282970e+000 7.522292e-001 8.447177e-001 6.498863e-001 1.238411e+000 3.515676e-001 7.283008e-001 4.923555e-001 1.646621e+000 8.350790e-001 3.275735e-001 2.662750e-001 8.949712e-002
<GCONST> 1.211677e+002
<STATE> 3
<MEAN> 39
 -9.536404e+000 -1.618970e+001 -9.232512e+000 -2.019259e+001 1.359532e+001 -8.226064e+000 -1.554512e+000 -1.323139e+001 4.682391e+000 -1.479490e+001 -5.677106e+000 -3.719965e+000 1.976375e+001 1.312990e+000 -3.696602e-001 -1.889075e-001 -1.631200e+000 -2.339964e+000 5.156409e-001 -1.173304e-001 -2.026438e-001 6.065482e-001 1.774207e+000 -1.143303e+000 1.614466e-002 4.176397e-001 -4.808665e-002 -4.163954e-002 -1.627228e-001 7.944287e-001 -8.386149e-002 2.581045e-001 -5.642221e-001 4.407608e-001 -9.438703e-003 4.905924e-001 -5.651734e-002 2.014273e-001 -1.542786e-001
<VARIANCE> 39
 5.159204e+001 6.543652e+001 6.589046e+001 5.455255e+001 1.541997e+002 2.655777e+002 2.240930e+001 4.544149e+001 1.205840e+002 7.618870e+001 1.510193e+002 2.175295e+001 3.248603e+000 4.750555e+000 5.400127e-001 2.437533e+000 2.090097e+000 6.989316e+000 6.317411e-001 7.111460e+000 3.225704e+000 2.609281e+000 4.306137e+000 3.269230e-001 3.682095e+000 1.873647e-001 1.205755e+000 9.672408e-001 2.053770e-001 2.396398e-001 1.680314e-001 1.630225e-001 2.579105e-001 3.894330e-001 1.677620e+000 4.652037e-001 3.019914e-001 6.977853e-002 6.260972e-002
<GCONST> 1.164220e+002
<STATE> 4
<MEAN> 39
 -5.813305e+000 -4.676532e+000 4.168822e+000 -2.021253e+001 -1.215736e+001 -3.210818e+001 3.089897e-001 -7.219964e+000 5.307086e+000 -2.033024e+001 7.601095e+000 1.009569e+001 1.815964e+001 3.848984e-001 1.116026e-002 4.702485e-001 8.684823e-002 -6.718004e-001 -3.844625e-001 -2.851618e-001 -5.668743e-002 2.374946e-001 -2.579249e-002 -8.963886e-001 -3.485496e-002 1.972970e-002 3.850783e-002 4.326474e-004 1.053882e-002 1.755581e-001 5.042383e-002 9.633632e-002 -1.454255e-001 5.984923e-002 -2.083565e-001 -5.613250e-002 2.435224e-002 -6.072472e-002 -2.892205e-002
<VARIANCE> 39
 1.609079e+001 5.471380e+001 5.980822e+001 1.558287e+001 1.621753e+002 2.221164e+002 2.144134e+001 3.054161e+001 4.679319e+001 4.787537e+001 8.649131e+001 4.315650e+001 1.584240e+000 1.169147e+000 1.494985e+000 9.786609e-001 1.031153e+000 1.803424e+000 1.088939e+000 3.094328e+000 1.881554e+000 3.110906e+000 2.435221e+000 1.380216e+000 1.188376e+000 7.561389e-002 1.897941e-001 1.909228e-001 1.515675e-001 2.109253e-001 2.842701e-001 2.536608e-001 5.132575e-001 2.213307e-001 4.852390e-001 3.916873e-001 3.228627e-001 2.067682e-001 1.615618e-002
<GCONST> 1.015543e+002
<TRANSP> 5
 0.000000e+000 1.000000e+000 0.000000e+000 0.000000e+000 0.000000e+000
 0.000000e+000 2.857131e-001 7.142869e-001 0.000000e+000 0.000000e+000
 0.000000e+000 0.000000e+000 2.712712e-005 9.999729e-001 0.000000e+000
 0.000000e+000 0.000000e+000 0.000000e+000 8.258507e-001 1.741493e-001
 0.000000e+000 0.000000e+000 0.000000e+000 0.000000e+000 0.000000e+000
<ENDHMM>
~h "a-w^+th"
<BEGINHMM>
<NUMSTATES> 5
<STATE> 2
<MEAN> 39
 -2.498547e+000 -1.526311e+001 -1.240071e+001 -2.580641e+001 1.306622e+001 -8.024146e+000 -6.956161e-001 -8.370557e+000 8.165074e+000 -8.819376e+000 -9.735801e+000 8.096232e+000 1.891891e+001 4.571196e-001 3.677489e-001 -5.081739e-001 5.979355e-001 -7.258334e-001 -8.006272e-002 -4.576318e-001 7.171436e-001 5.558619e-001 2.328976e-001 5.510591e-001 8.706108e-001 -1.865585e-001 8.045842e-002 1.117628e-001 5.719586e-002 3.847331e-001 5.549859e-002 -1.777338e-001 -1.588481e-001 -3.057552e-001 -7.371468e-002 1.194379e-001 -6.795391e-002 -7.516885e-002 -1.010388e-002
<VARIANCE> 39
 1.068636e+001 2.550061e+000 4.810726e+001 1.571858e+002 9.708505e+001 1.035822e+002 2.737985e+001 1.080942e+002 6.297376e+001 2.407972e+001 3.729578e+001 1.295003e+001 1.962689e+000 1.902777e-001 6.803761e-001 9.159943e-001 1.299351e+000 1.653253e+000 8.970541e-001 2.094170e+000 2.930862e+000 5.121063e+000 3.097679e+000 8.012247e-001 6.142211e-001 1.878744e-002 6.215110e-002 2.064123e-001 1.783193e-001 2.493204e-001 2.079534e-001 1.634974e-001 5.155357e-001 3.363518e-001 3.785047e-001 5.777779e-001 2.023458e-001 2.185118e-001 3.882351e-003
<GCONST> 9.092612e+001
<STATE> 3
<MEAN> 39
 1.123066e+000 -1.013351e+001 -2.220491e+001 -1.603281e+001 1.989595e+001 -5.713525e-001 -1.289172e+000 -1.374353e+001 1.341192e+001 -7.025801e+000 -1.143945e+001 7.517457e+000 1.772853e+001 3.126250e-001 2.685261e-001 -6.738913e-001 1.692688e+000 -4.621219e-001 2.742790e-001 2.601916e-002 3.197852e-001 9.824939e-001 -6.002733e-002 5.659830e-001 -5.090752e-001 -1.198898e-001 -1.333468e-001 -2.743747e-001 8.778431e-002 4.361969e-002 -1.853644e-001 -3.046393e-001 -1.308284e-002 -1.530854e-001 -2.794958e-001 -5.247722e-001 2.582787e-002 9.624189e-003 1.575675e-002
<VARIANCE> 39
 1.598728e+001 1.613321e+001 1.037778e+002 1.228450e+002 1.049607e+002 1.152551e+002 3.694859e+001 1.299029e+002 7.963081e+001 2.463652e+001 3.972520e+001 2.908049e+001 1.100815e+000 5.510110e-001 1.123697e+000 9.179825e-001 1.103945e+000 1.476421e+000 6.226536e+000 3.716852e+000 6.848738e+000 4.540677e+000 6.808056e+000 1.242219e+000 1.357129e+000 2.246377e-002 8.589087e-002 3.778742e-001 2.211140e-001 2.356783e-001 4.754570e-001 8.200015e-001 1.072753e+000 1.609140e+000 9.111969e-001 4.816384e-001 1.932786e-001 5.626495e-001 3.744029e-003
<GCONST> 1.090286e+002
<STATE> 4
<MEAN> 39
 -4.159065e-002 -1.509149e+001 -1.964509e+001 -5.776613e+000 1.115733e+001 -4.744333e+000 -2.641275e+000 -7.650846e+000 1.085938e+001 -1.666298e+001 -7.433644e+000 1.012600e+001 1.728464e+001 -4.128698e-001 -1.837025e+000 3.604590e-001 7.511277e-001 -1.433222e+000 -6.367823e-001 4.210210e-001 1.547363e+000 -1.665547e+000 -5.355563e-001 4.768468e-001 2.337263e-001 -1.189733e-001 -4.242429e-002 -2.383782e-001 1.460520e-001 -3.298096e-001 5.200760e-002 6.739320e-001 1.626143e-001 2.009727e-001 -2.544641e-001 5.360518e-001 -4.375472e-002 -3.762133e-001 1.099734e-002
<VARIANCE> 39
 2.242329e+001 1.974667e+001 1.409733e+002 2.200064e+002 6.691078e+001 8.831246e+001 3.701593e+001 1.553179e+002 1.670347e+002 2.283289e+002 3.447331e+001 2.631681e+001 1.724376e+000 3.226011e-001 1.873113e+000 1.482921e+000 1.476946e+000 3.474757e+000 5.522166e+000 3.144632e+000 5.941339e+000 7.379506e+000 5.442389e+000 1.156250e+000 5.892408e+000 5.404446e-002 3.892757e-002 2.433995e-001 1.655835e-001 3.161544e-001 3.340697e-001 3.461920e-001 1.466397e-001 1.362528e+000 2.183539e+000 1.549621e+000 3.347211e-001 5.282598e-001 3.429337e-003
<GCONST> 1.146483e+002
~t "T_w^"
<ENDHMM>
~h "iia-w^+ph"
<BEGINHMM>
<NUMSTATES> 5
<STATE> 2
<MEAN> 39
 -2.725451e+000 -1.993026e+001 -1.558668e+001 -2.840340e+001 1.078544e+001 3.613495e+000 -5.276490e+000 -6.872383e-001 4.989506e+000 -1.060748e+000 -3.301468e+000 -3.511053e+000 1.907679e+001 6.901883e-001 4.236747e-001 -5.380813e-001 -4.967516e-001 -4.821850e-001 8.956153e-001 -8.731418e-001 1.155136e+000 4.682823e-001 4.541309e-001 9.314193e-002 -2.576095e-001 -1.612747e-001 3.916900e-002 1.512971e-002 2.019417e-004 8.617923e-002 1.685173e-003 -6.937610e-002 -8.507270e-002 2.922357e-002 -5.618391e-002 1.171927e-001 -7.336275e-002 -9.862456e-002 1.087129e-002
<VARIANCE> 39
 1.331452e+001 2.380703e+001 2.377429e+001 1.565230e+002 6.726018e+001 1.430763e+002 1.801113e+002 1.549883e+002 2.790922e+002 1.143595e+002 3.165774e+001 6.692616e+001 5.408671e-001 5.456777e-001 6.494111e-001 1.237919e+000 2.015356e+000 1.488924e+000 1.559147e+000 2.006155e+000 2.392061e+000 2.855438e+000 1.816380e+000 1.331926e+000 1.188243e+000 2.266646e-002 7.689597e-002 6.568453e-002 1.498134e-001 2.046693e-001 3.289582e-001 3.021380e-001 2.453185e-001 4.666282e-001 4.352517e-001 2.549816e-001 2.892883e-001 2.083440e-001 2.948996e-003
<GCONST> 9.900467e+001
<STATE> 3
<MEAN> 39
 1.052677e+001 -8.173312e+000 -2.712874e+001 -1.125749e+001 1.070121e+001 1.882175e+000 -4.297968e+000 1.044914e+001 1.177541e+001 8.916450e+000 -2.012264e+000 2.614356e+000 1.713682e+001 5.596908e-001 9.336368e-001 -5.637692e-001 4.141712e-001 -3.943084e-001 5.290157e-001 1.792783e-002 2.671242e-001 -1.839119e-001 1.717917e-001 2.092047e-002 -2.651883e-001 -1.151709e-001 -7.587133e-002 5.719348e-003 1.164316e-001 4.411433e-002 1.221321e-001 -5.295041e-002 -4.092141e-002 -1.815676e-001 -1.438384e-001 -2.981100e-001 -8.378907e-002 -7.753619e-002 -7.720807e-003
<VARIANCE> 39
 1.974730e+001 5.725497e+001 3.775709e+001 8.873603e+001 1.906045e+002 7.898524e+001 8.470306e+001 8.353839e+001 6.700357e+001 5.806499e+001 4.764477e+001 7.181136e+001 9.079765e-001 3.734301e-001 7.395245e-001 1.394438e+000 1.688955e+000 2.647207e+000 3.151186e+000 2.386490e+000 4.812247e+000 4.063467e+000 3.951525e+000 2.832798e+000 2.778915e+000 1.834347e-002 4.462605e-002 1.332044e-001 1.638265e-001 3.769903e-001 4.117534e-001 5.429357e-001 4.713304e-001 8.854764e-001 8.091663e-001 4.976207e-001 4.555672e-001 3.238429e-001 3.543794e-003
<GCONST> 1.078415e+002
<STATE> 4
<MEAN> 39
 3.004819e+000 -2.000032e+000 -2.535866e+001 -1.429265e+001 -6.712778e-001 6.562799e+000 -1.051559e+001 5.899377e+000 1.176276e+000 -3.456809e+000 -2.083914e-001 -3.839407e+000 1.347452e+001 -8.106976e-001 4.566320e-001 4.707780e-001 1.348974e+000 -2.036302e-001 -1.552015e-001 5.790035e-001 -1.510684e-001 -2.787522e-001 -9.563319e-002 1.529514e-001 2.098938e-001 -3.727487e-001 -1.880150e-001 -3.663498e-002 8.531724e-002 -4.214058e-002 -5.740760e-002 8.195671e-004 2.285413e-001 1.742773e-001 1.608547e-001 1.741096e-001 1.935763e-001 1.925699e-001 9.235415e-003
<VARIANCE> 39
 7.875491e+001 3.519064e+001 6.280224e+001 2.363027e+002 7.089646e+001 4.705698e+001 1.158988e+002 6.172820e+001 3.796554e+001 4.890282e+001 4.727588e+001 3.114829e+001 1.007891e+001 1.473945e+000 1.433021e+000 2.827826e+000 2.819719e+000 2.339205e+000 2.600539e+000 4.637677e+000 5.435072e+000 4.710963e+000 7.209435e+000 4.007134e+000 2.683653e+000 9.302483e-002 2.232864e-001 2.753247e-001 2.867802e-001 5.548132e-001 4.142432e-001 4.958168e-001 5.778997e-001 7.559213e-001 7.253658e-001 1.246378e+000 7.644910e-001 5.460871e-001 1.954844e-002
<GCONST> 1.227638e+002
~t "T_w^"
<ENDHMM>
~h "iia-w^+th"
<BEGINHMM>
<NUMSTATES> 5
<STATE> 2
<MEAN> 39
 -2.736116e+000 -1.322998e+001 -5.813520e+000 -2.712056e+001 4.674723e+000 -1.714075e+001 4.457808e-001 -1.116610e+001 4.068893e+000 -9.794443e+000 -7.953218e+000 -2.952683e+000 1.938864e+001 5.186670e-001 3.945244e-001 -4.259784e-001 -3.273697e-001 -2.478706e-001 -3.069056e-001 -5.606399e-001 3.869065e-001 -2.683374e-001 7.280460e-001 2.162692e-001 8.928612e-001 -1.481290e-001 2.574638e-002 -5.501830e-002 -1.035372e-002 1.568147e-001 -3.269143e-002 -5.643547e-002 1.925151e-001 1.513088e-001 2.026899e-001 1.307037e-001 -1.970514e-002 1.239317e-001 2.193801e-002
<VARIANCE> 39
 5.475175e+000 1.411455e+001 4.676893e+001 1.530794e+001 2.415725e+001 5.210755e+001 3.893710e+001 6.791049e+001 7.167058e+001 1.012992e+002 1.754136e+001 1.971653e+001 5.380881e-001 9.421148e-002 1.063631e+000 4.953895e-001 1.959985e+000 1.331983e+000 2.452508e+000 2.318175e+000 1.865203e+000 2.124031e+000 3.800812e+000 1.250578e+000 1.767563e+000 5.715832e-002 3.709094e-002 1.734720e-001 6.740964e-002 3.456892e-001 2.445692e-001 5.777491e-001 4.795999e-001 4.478320e-001 5.526049e-001 9.684925e-001 4.969179e-001 5.090395e-001 6.486150e-003
<GCONST> 9.273235e+001
<STATE> 3
<MEAN> 39
 6.540150e+000 -3.587129e+000 -1.099966e+001 -2.240185e+001 6.503362e+000 -8.934809e+000 1.565282e+000 -7.809632e+000 5.861352e+000 6.478529e+000 -1.177446e+001 5.023447e+000 1.847550e+001 8.157865e-001 8.518851e-001 -5.939336e-001 2.788304e-001 1.116933e-001 6.069191e-001 2.668625e-001 9.947048e-001 -5.377927e-002 1.201645e+000 5.285284e-003 8.175879e-003 -1.082409e-002 -5.299412e-002 2.467546e-002 1.820998e-002 2.213354e-002 -4.282075e-002 -1.199321e-001 -5.174308e-002 3.337652e-002 -3.475336e-001 -4.632382e-001 9.293733e-002 -1.130198e-001 7.072487e-003
<VARIANCE> 39
 3.732281e+001 6.844469e+001 3.181246e+001 2.723303e+001 1.756921e+001 8.353129e+001 2.221848e+001 4.591624e+001 8.743722e+001 5.864116e+001 2.831567e+001 2.491567e+001 4.449607e-001 7.760354e-001 2.052571e+000 4.434850e-001 3.282601e+000 2.364007e+000 2.964958e+000 3.713367e+000 2.137283e+000 7.636386e+000 4.272774e+000 2.873775e+000 2.219064e+000 3.098882e-002 1.558379e-001 5.607453e-001 1.176820e-001 6.431333e-001 6.489662e-001 4.450294e-001 5.437865e-001 3.685753e-001 1.591475e+000 1.166260e+000 6.137726e-001 4.665271e-001 8.428843e-003
<GCONST> 1.082452e+002
<STATE> 4
<MEAN> 39
 6.169950e+000 -3.562151e+000 -1.319496e+001 -2.377891e+001 3.885389e+000 -1.450705e+001 3.202590e+000 -3.450009e-002 -2.180540e-001 2.276929e+000 -6.355375e+000 8.148239e-001 1.891162e+001 -6.474565e-002 1.034161e+000 -1.058098e-001 1.984716e-001 -9.878214e-001 -3.029515e-003 2.087622e-001 5.340059e-001 -2.806963e+000 -2.900196e+000 1.112831e+000 -4.050952e-001 -1.167381e-001 -2.917127e-001 3.000767e-001 1.041417e-001 -3.721039e-002 -1.385965e-001 1.368637e-001 -1.425822e-001 -3.452964e-001 4.043859e-001 -1.475025e-001 1.061453e-001 1.357716e-001 -5.139123e-002
<VARIANCE> 39
 3.590244e+001 1.232446e+002 4.979376e+001 3.093499e+001 2.259084e+001 1.264297e+002 5.025087e+001 8.111549e+001 1.196250e+002 1.515507e+002 7.526915e+000 1.818604e+001 5.423914e-001 1.094203e+000 2.400977e+000 7.304296e-001 2.688963e+000 4.635659e+000 1.328483e+000 3.779139e+000 3.464494e+000 7.625897e+000 5.886820e+000 5.402186e+000 5.435558e-001 2.384081e-002 1.137233e-001 2.328923e-001 4.452676e-001 7.771961e-001 1.202647e+000 2.232051e-001 1.804336e-001 1.846006e-001 3.104417e+000 2.245157e+000 6.644096e-001 2.452200e-001 5.960851e-003
<GCONST> 1.105658e+002
~t "T_w^"
<ENDHMM>
~h "b-aa+n^"
<BEGINHMM>
<NUMSTATES> 5
<STATE> 2
<MEAN> 39
 -6.558554e+000 -8.282562e+000 -7.156790e+000 -1.327569e+001 -3.808912e+000 -8.812216e+000 7.048204e+000 -1.364571e+000 1.421728e+000 -1.186873e+001 -1.086429e+000 3.719983e+000 1.698043e+001 -1.103158e-001 6.153898e-001 4.560168e-001 -3.503848e-001 -9.177433e-001 9.594046e-002 -1.792260e-001 6.400699e-002 -6.006396e-001 -2.717482e-001 -7.595209e-001 2.029362e-001 5.001426e-002 2.580537e-001 -2.093623e-002 6.346261e-001 3.525633e-001 3.112801e-001 -7.853532e-001 -1.090737e-001 1.910821e-001 4.528061e-002 -2.525876e-001 1.974619e-001 8.870912e-002 1.115017e-001
<VARIANCE> 39
 4.816208e+001 1.456392e+002 1.426303e+002 1.759803e+002 6.255442e+001 1.383796e+002 6.012632e+000 8.692315e+001 2.437718e+001 1.260491e+002 1.402136e+002 3.830452e+001 6.833331e+000 5.119470e-001 5.983898e-001 1.758203e+000 2.388455e-001 2.665873e-001 9.690769e+000 4.066157e+000 4.813875e-001 2.709463e+000 1.137963e+000 1.676524e+000 1.004231e+000 1.929163e-002 1.728257e-002 7.818163e-002 1.039357e+000 2.951401e-001 1.347966e-001 5.384662e-001 3.656404e-001 3.828117e-001 1.352549e-001 4.695607e-001 3.848631e-001 6.871221e-001 9.880668e-003
<GCONST> 1.007166e+002
<STATE> 3
<MEAN> 39
 -5.481069e+000 -7.867568e+000 -3.319813e+000 -1.524643e+001 -3.378282e+000 -1.149695e+001 5.428810e+000 -3.327222e+000 -1.996453e+000 -1.614731e+001 -6.030159e+000 3.348166e+000 1.739395e+001 1.289040e-001 9.560449e-001 1.115889e+000 -3.997506e-001 -2.062488e-001 -5.220515e-001 -8.102835e-002 7.432002e-001 -4.500616e-001 -6.323180e-001 -3.259054e-001 -3.454579e-001 1.244497e-001 4.762152e-002 -1.280857e-001 -1.386867e-001 2.658904e-001 2.689324e-001 -4.907564e-001 2.804065e-001 7.300039e-002 2.805088e-001 1.674948e-001 4.640672e-001 -1.780841e-001 2.774442e-002
<VARIANCE> 39
 4.397932e+001 1.163233e+002 2.108689e+002 1.871417e+002 5.345844e+001 2.056435e+002 7.045705e+000 9.366438e+001 3.187318e+001 1.687246e+002 1.479014e+002 2.680599e+001 4.467631e+000 2.236713e-001 3.773322e-001 3.376703e+000 8.844191e-001 3.432643e-001 7.510274e+000 2.846960e+000 1.562306e+000 2.914898e+000 1.597959e+000 1.881166e+000 2.067738e+000 5.125571e-002 2.154379e-001 7.241312e-002 1.009025e+000 3.926760e-001 3.491304e-001 1.112654e+000 7.200016e-001 4.537630e-001 2.286732e-001 1.372030e-001 1.031778e-001 1.388644e-001 3.206152e-003
<GCONST> 1.053565e+002
<STATE> 4
<MEAN> 39
 -5.726891e+000 -5.583708e+000 -2.593888e+000 -1.365109e+001 -4.112187e+000 -9.702895e+000 6.261969e+000 2.627741e-001 -3.302166e+000 -1.488692e+001 -3.745590e+000 2.337609e+000 1.731718e+001 2.250482e-001 5.746727e-001 4.494357e-001 2.257714e-001 1.919924e-001 -6.859743e-001 2.375000e-001 5.056706e-001 1.239749e-002 -1.102716e-001 5.549152e-001 -5.969459e-001 8.425806e-002 -1.766291e-001 -5.696005e-001 -4.143727e-001 2.159759e-001 4.449962e-001 -3.559587e-001 6.293647e-001 -7.019984e-001 2.961666e-001 3.819870e-001 1.531856e-001 -1.066695e-001 4.103169e-002
<VARIANCE> 39
 5.532620e+001 1.402805e+002 1.825440e+002 2.253611e+002 7.251764e+001 3.075973e+002 1.701942e+001 7.539568e+001 5.082553e+001 2.171531e+002 1.675625e+002 5.102522e+001 4.605804e+000 1.718547e-001 4.292939e-001 3.804193e+000 2.054159e+000 1.945201e+000 1.004579e+000 1.819142e+000 2.800123e+000 1.197401e+000 2.043880e+000 1.498183e+000 1.555358e+000 3.684231e-002 7.360002e-001 2.710540e-001 9.345540e-001 2.103464e-001 9.004468e-001 1.924016e+000 7.973276e-001 5.540255e-001 1.121435e+000 1.879093e-001 2.527388e-001 1.446927e-001 3.990219e-003
<GCONST> 1.146098e+002
~t "T_aa"
<ENDHMM>
~h "@@-n^+d"
<BEGINHMM>
<NUMSTATES> 5
<STATE> 2
<MEAN> 39
 -7.703899e+000 -1.307601e+001 -1.552069e+001 -1.404167e+001 2.536704e+001 -3.511086e+000 -1.159118e+001 2.414998e-002 7.642787e+000 -9.530653e+000 1.005166e+000 8.130249e-001 1.763980e+001 -3.524550e-001 1.945189e-001 6.372936e-001 -1.602758e+000 -4.738464e-001 -1.046614e-001 -1.003644e+000 -1.687532e+000 -7.925689e-001 -2.329958e+000 6.862846e-001 -8.959041e-001 4.058611e-001 1.671528e-001 -1.093140e-001 4.431463e-002 -9.912224e-003 -7.834136e-002 -2.935677e-001 2.412845e-001 -2.174957e-001 -5.010823e-001 2.360337e-001 -7.337996e-001 8.403274e-002 4.309297e-002
<VARIANCE> 39
 3.105756e+001 1.279656e+001 1.067237e+002 9.353325e+001 1.390559e+002 8.271260e+001 1.314095e+002 1.185174e+002 1.171756e+002 1.010838e+002 5.061755e+001 5.544932e+001 2.384450e+000 4.272980e+000 1.271727e+000 2.219378e+000 5.417800e+000 4.936014e+000 4.195051e+000 1.235665e+001 9.213577e+000 1.177075e+001 5.639978e+000 9.350586e+000 5.072822e+000 2.025117e-001 7.714008e-001 1.319789e-001 5.004498e-001 1.025328e+000 9.960261e-001 5.926411e-001 1.671684e+000 1.332689e+000 2.461872e+000 8.957891e-001 8.470535e-001 9.143954e-001 2.353368e-002
<GCONST> 1.365736e+002
<STATE> 3
<MEAN> 39
 -3.726276e+000 -1.273784e+001 -2.202769e+000 -2.564030e+001 2.910898e+000 -1.011435e+001 5.813042e+000 -1.504889e+001 -2.709485e+000 -5.070790e+000 -1.199576e+001 -4.479202e+000 1.881631e+001 -1.062597e-001 3.162145e-001 2.640715e-001 -1.298035e-001 -7.060274e-001 -3.456909e-001 1.002979e+000 -7.030208e-001 -8.898791e-001 2.920286e-001 -1.089211e+000 -8.469310e-001 4.739361e-002 1.712478e-001 3.502123e-001 2.346877e-002 6.216171e-001 8.194510e-002 -1.126767e-001 -1.080480e+000 4.072389e-001 -7.952396e-002 2.610198e-001 7.906969e-002 2.910453e-001 -1.737326e-001
<VARIANCE> 39
 5.344912e+000 7.327198e+000 1.771291e+002 5.472171e+001 2.370741e+002 5.774694e+001 1.749209e+002 1.896953e+002 2.792089e+001 9.633450e+001 5.404773e+001 6.212513e+001 3.862243e+000 7.481149e-001 6.298679e-001 6.592183e-001 3.800805e+000 1.003599e+000 1.266668e+000 3.955410e+000 5.091440e+000 3.078172e+000 2.025014e+000 6.568922e-001 2.629152e+000 1.522970e-001 1.727692e-001 1.403120e-001 4.424028e-001 5.550126e-001 6.420087e-001 4.110976e-001 6.628530e-001 7.105482e-001 7.917480e-001 6.818410e-001 4.131301e-001 7.666530e-001 8.005726e-003
<GCONST> 1.119261e+002
<STATE> 4
<MEAN> 39
 -4.515227e+000 -1.431497e+001 -6.954636e+000 -1.817443e+001 8.563869e+000 -1.658640e+001 1.283770e+000 -9.726369e+000 2.040707e+000 -7.819205e+000 -2.697070e+000 1.851274e+000 1.902639e+001 8.323427e-002 1.723590e-001 4.276531e-001 -6.878579e-002 -1.103858e+000 -5.993282e-002 3.472034e-001 -3.847452e-001 1.732317e-001 5.484939e-001 7.790412e-002 -1.656566e-002 -9.367201e-002 1.796591e-002 4.615775e-002 6.285546e-002 -9.665571e-003 -3.937618e-002 8.034920e-002 -7.333232e-002 -6.957924e-002 -7.193357e-002 3.577996e-002 5.686150e-002 -4.552827e-002 -2.076451e-004
<VARIANCE> 39
 1.373759e+001 1.754032e+001 5.372339e+001 3.796358e+001 1.890414e+002 5.381002e+001 5.451455e+001 6.243653e+001 5.022784e+001 1.096144e+002 2.830826e+001 9.746187e+001 2.562937e+000 8.201189e-001 1.565370e+000 1.626723e+000 2.026145e+000 3.311772e+000 3.298972e+000 3.640479e+000 1.795986e+000 4.521475e+000 5.895680e+000 1.420413e+000 3.781205e+000 9.373197e-002 8.801723e-002 2.802774e-001 2.714661e-001 2.946193e-001 5.287680e-001 5.661316e-001 6.515956e-001 2.852653e-001 1.070092e+000 9.041676e-001 2.632981e-001 6.777227e-001 1.288188e-002
<GCONST> 1.127023e+002
~t "T_n^"
<ENDHMM>
~h "@@-n^+f"
<BEGINHMM>
<NUMSTATES> 5
<STATE> 2
<MEAN> 39
 -3.023921e+000 -5.862613e+000 -1.175676e+001 -1.667959e+001 1.275787e+001 -6.479489e+000 -1.147394e+001 -1.689465e+001 -6.838671e+000 -4.086987e+000 -8.038966e+000 -1.481079e+000 1.648567e+001 -1.008072e+000 8.156213e-001 6.037980e-001 1.870708e-002 -5.848551e-001 -2.046597e+000 9.325431e-001 2.088695e-001 9.227614e-001 -2.399357e-001 8.363823e-001 7.920695e-001 -4.478956e-002 1.382873e-001 5.719719e-002 2.537914e-001 5.835388e-001 -7.174276e-001 2.867442e-001 6.975152e-001 3.318809e-002 2.657563e-001 1.748867e-001 -2.825046e-001 -1.575433e-002 -5.841686e-002
<VARIANCE> 39
 4.993276e+001 2.351757e+002 1.322485e+002 1.829555e+002 2.737657e+002 4.520501e+001 1.628577e+002 5.544021e+002 1.279971e+002 7.716640e+001 1.036636e+002 1.914714e+001 1.428668e+001 2.574026e-001 3.459613e+000 3.195261e+000 7.305284e+000 7.363927e-001 2.989585e+000 8.586843e-001 3.468969e+000 5.459532e+000 2.555938e+000 3.554915e+000 1.818123e+000 9.553357e-002 2.762339e-001 3.351091e-001 2.750678e-001 1.461886e+000 2.915695e-001 3.228995e-001 9.808742e-001 6.555145e-001 1.179585e-001 9.909843e-001 3.082505e-001 2.749077e-001 2.897038e-002
<GCONST> 1.242441e+002
<STATE> 3
<MEAN> 39
 -6.217665e+000 -1.471520e+001 -7.420834e+000 -1.607030e+001 4.912733e+000 -1.287487e+001 3.410662e+000 -6.175762e+000 3.960246e+000 -9.874441e+000 -5.870660e+000 9.794707e-001 1.916037e+001 2.087147e-001 4.630471e-001 9.015149e-001 7.213176e-001 -2.487697e+000 -9.479511e-001 2.257922e+000 3.019268e-001 -2.196748e-001 -1.597649e-002 -5.713413e-002 1.053149e+000 -1.214198e-001 5.349948e-001 2.568178e-001 2.729481e-001 -3.657520e-001 1.406975e-001 3.624193e-001 -7.861300e-001 -4.836963e-001 -6.583610e-001 6.580293e-001 4.184520e-003 -3.236323e-001 -2.401350e-002
<VARIANCE> 39
 6.847252e+001 2.479963e+002 6.659345e+001 4.650301e+001 1.990850e+002 8.320757e+001 2.144416e+002 2.944471e+002 1.566451e+002 6.400810e+001 6.818312e+001 2.553896e+001 1.654372e+001 1.231036e+000 1.681113e+000 3.616992e+000 6.191215e+000 1.871393e+000 1.939352e+000 8.849425e+000 1.956571e+000 7.285789e+000 5.609953e+000 3.712893e+000 1.447408e+000 9.553728e-002 2.878793e-001 3.495848e-001 1.835891e-001 5.997795e-001 1.078184e+000 2.958464e-001 1.596277e+000 7.371233e-001 1.436585e+000 6.479422e-001 2.715497e-001 4.098265e-001 1.213628e-002
<GCONST> 1.285640e+002
<STATE> 4
<MEAN> 39
 -4.084317e+000 -1.351373e+001 -2.342620e+000 -1.854668e+001 4.710431e+000 -1.968746e+001 5.303409e+000 -1.285258e+001 -3.480063e+000 -1.058370e+001 -7.462284e+000 4.317348e+000 1.869099e+001 9.694053e-002 6.319630e-001 1.903811e-001 -3.218910e-001 1.152541e-001 -1.137831e-001 -2.603931e-001 -8.786329e-001 -6.956806e-002 1.149598e+000 1.861038e-001 -1.971041e-001 -7.182182e-002 -5.161145e-002 -2.106429e-001 4.889111e-002 7.790347e-002 -1.519346e-001 7.585182e-002 -6.006393e-002 -2.430967e-002 3.785151e-001 2.875008e-002 -8.953862e-002 -4.679989e-001 9.458207e-002
<VARIANCE> 39
 3.093724e+001 1.154765e+002 5.415502e+001 4.502706e+001 1.235629e+002 1.154031e+002 1.545558e+002 1.906350e+002 1.025306e+002 4.977304e+001 3.658541e+001 1.156940e+001 7.964779e+000 1.677598e+000 7.085285e-001 1.421127e+000 1.825172e+000 3.500047e+000 1.324561e+000 2.613153e+000 2.898966e+000 2.631747e+000 4.333740e+000 2.330793e+000 2.183022e+000 1.159009e-001 1.972083e-001 7.310562e-002 7.319508e-001 6.513689e-001 8.594833e-001 4.989942e-002 3.046744e-001 5.638167e-001 1.501348e+000 3.757709e-001 4.003902e-001 4.150687e-001 2.396967e-003
<GCONST> 1.124734e+002
~t "T_n^"
<ENDHMM>
~h "@@-n^+l"
<BEGINHMM>
<NUMSTATES> 5
<STATE> 2
<MEAN> 39
 -9.584786e+000 -1.241069e+001 -1.043834e+001 -1.159150e+001 1.389744e+001 -5.957417e+000 -7.028508e+000 -1.034957e+001 2.600926e+000 -2.296197e+001 -7.406617e+000 -2.103277e+000 1.846838e+001 -1.292917e+000 -6.728238e-001 1.056630e+000 -4.391679e-001 -8.070133e-001 -1.158588e+000 9.095241e-001 -7.345476e-001 5.113747e-001 -1.472511e+000 2.053406e-001 1.323332e+000 4.645193e-001 3.160283e-001 2.272404e-001 -9.665296e-002 3.041585e-002 -2.950370e-001 -1.216850e-001 -1.328288e-001 1.263862e-001 -1.884937e-001 4.784366e-001 1.488195e-001 -1.226000e-001 -3.494059e-002
<VARIANCE> 39
 4.693388e+001 1.109555e+002 5.340799e+001 7.194104e+001 2.392385e+002 6.368430e+001 4.518585e+002 5.845415e+001 9.676003e+001 1.280533e+002 5.424828e+001 5.441552e+001 3.347574e+000 8.231120e+000 1.879238e+000 1.754651e+000 4.150700e+000 4.281038e+000 4.581928e+000 6.174298e+000 3.775873e+000 1.711535e+001 8.254416e+000 5.316568e+000 3.304149e+000 2.589022e-001 8.717294e-001 6.554475e-001 3.939399e-001 6.973813e-001 9.778551e-001 5.109715e-001 1.100331e+000 3.879564e-001 3.098650e+000 1.533173e+000 1.350221e+000 6.240067e-001 4.628896e-002
<GCONST> 1.391575e+002
<STATE> 3
<MEAN> 39
 -1.256114e+001 -1.851111e+001 -6.204006e+000 -1.459737e+001 4.708236e+000 -1.384747e+001 5.316936e+000 -7.484394e+000 3.862314e+000 -1.824260e+001 -7.179596e+000 2.205415e+000 2.027479e+001 -3.324430e-002 3.120279e-001 1.077067e+000 -2.353196e-001 -2.386272e+000 -1.244182e+000 1.005810e+000 4.179117e-001 -3.126756e-001 1.004620e+000 1.466717e+000 -3.940749e-001 -1.653209e-001 4.403799e-001 4.442426e-001 -4.306421e-001 -4.560843e-001 4.755924e-002 3.336483e-001 -7.055715e-001 -4.949483e-002 8.416094e-002 4.925054e-001 7.115178e-002 -7.381713e-001 -1.923808e-001
<VARIANCE> 39
 6.544755e+001 1.531174e+002 4.833979e+001 5.628188e+001 1.134197e+002 1.048619e+002 1.045668e+002 4.496796e+001 9.039572e+001 1.227413e+002 3.405935e+001 5.040409e+001 1.119779e+000 5.234467e-001 1.394230e+000 9.237784e-001 2.733281e+000 3.978430e+000 1.674486e+000 8.330147e+000 1.898346e+000 4.030923e+000 2.896909e+000 2.061126e+000 2.449959e+000 1.193859e-001 1.738518e-001 4.033781e-001 2.683138e-001 4.101424e-001 1.225589e+000 4.748120e-001 8.717285e-001 6.587662e-001 9.615202e-001 1.074540e+000 5.394679e-001 6.268906e-001 9.784328e-003
<GCONST> 1.190946e+002
<STATE> 4
<MEAN> 39
 -8.639375e+000 -2.194672e+001 -3.581276e+000 -1.244120e+001 5.985828e+000 -1.562955e+001 1.529995e+000 -4.822302e+000 -2.335859e+000 -1.327974e+001 -3.760012e+000 4.269948e-001 1.902297e+001 2.743475e-001 3.500407e-001 6.973688e-002 6.087072e-001 1.151870e-002 1.423798e-001 -4.684698e-001 -1.253210e-001 -1.245575e-001 3.455741e-001 -6.424616e-002 1.350629e-001 -1.812769e-001 2.825753e-002 2.188188e-002 -4.699889e-002 7.312848e-002 6.273714e-002 2.860498e-002 4.254489e-002 1.606318e-002 2.233099e-002 -1.763842e-002 -9.625733e-002 1.049534e-001 1.181707e-002
<VARIANCE> 39
 3.583622e+001 6.521797e+001 5.179608e+001 8.811848e+001 7.393375e+001 5.509952e+001 4.896923e+001 5.190852e+001 6.355351e+001 5.370742e+001 7.151362e+001 4.825205e+001 2.512508e+000 1.336331e+000 1.203351e+000 1.314912e+000 1.655907e+000 2.553005e+000 2.021142e+000 2.947866e+000 2.771823e+000 3.995433e+000 3.531201e+000 3.455951e+000 2.321361e+000 1.470206e-001 1.230796e-001 1.857884e-001 2.649534e-001 3.802081e-001 4.278512e-001 3.807985e-001 4.679407e-001 4.124829e-001 7.217366e-001 6.467711e-001 6.778512e-001 3.590298e-001 1.374836e-002
<GCONST> 1.130278e+002
~t "T_n^"
<ENDHMM>
~h "@@-n^+n"
<BEGINHMM>
<NUMSTATES> 5
<STATE> 2
<MEAN> 39
 -1.408038e+001 -5.011132e+000 -1.452418e+001 -1.811694e+001 3.148628e+000 -1.503913e+001 2.368017e+000 -1.249869e+001 4.633089e+000 -1.115366e+001 -5.307721e+000 -9.890070e+000 1.983735e+001 -1.144634e+000 2.083526e+000 -2.904700e+000 9.223677e-001 -1.480604e+000 1.300225e+000 9.773484e-001 2.174200e-001 1.967461e+000 1.316732e-002 1.468894e+000 -1.803267e+000 3.811924e-002 3.887058e-001 -2.432012e-001 2.336380e-002 -2.803274e-001 4.109546e-001 -3.801350e-002 -7.001693e-001 -2.506275e-001 -1.914164e-001 6.044821e-003 -2.433770e-001 3.949181e-001 8.771622e-002
<VARIANCE> 39
 1.959555e+001 2.158711e+001 3.202593e+001 7.448528e+000 5.580671e+001 2.023751e+001 7.305434e+001 1.360151e+001 5.547229e+001 4.754820e+001 2.826503e+001 1.463324e+001 8.980691e-001 6.450049e+000 6.245909e+000 2.004015e+000 5.381769e+000 1.961422e+000 2.172572e+000 4.707420e+000 2.720093e+000 8.558768e+000 4.756196e+000 2.561436e+000 1.232290e+000 3.089601e-001 2.578474e-001 5.350169e-001 4.689828e-001 2.409896e-001 5.672418e-001 6.219571e-001 7.411303e-001 7.047095e-001 1.958608e+000 1.550452e+000 6.937489e-001 3.397305e-001 1.412708e-002
<GCONST> 1.142333e+002
<STATE> 3
<MEAN> 39
