~o
<STREAMINFO> 1 39
<VECSIZE> 39<NULLD><MFCC_E_D_A><DIAGC>
~h "@"
<BEGINHMM>
<NUMSTATES> 5
<STATE> 2
<MEAN> 39
 -5.810841e+000 -1.212531e+001 -1.493844e+001 3.663768e+000 1.342815e+001 -4.565690e+000 -9.461333e-001 -1.402695e+000 6.076644e+000 -4.254771e-001 2.733157e+000 6.158603e-001 1.544315e+001 -5.595901e-001 3.153241e-001 7.275473e-002 -1.511119e+000 1.684179e+000 -6.215706e-001 -1.046405e+000 -1.396038e+000 -8.860752e-001 -8.620653e-001 -2.819619e-001 6.586587e-001 2.065064e-001 -5.545657e-001 3.568406e-001 -8.631184e-002 4.441195e-001 7.622696e-002 1.468645e-001 6.270853e-001 4.540024e-002 -2.143692e-001 -3.871928e-001 9.213747e-003 -1.144949e-001 -3.624108e-002
<VARIANCE> 39
 3.008091e+001 5.140519e+000 2.387843e+002 4.034663e+002 1.532832e+002 8.865515e+002 5.886094e+001 3.537803e+001 2.293102e+001 3.230367e+001 7.393780e+001 4.336409e+001 1.446832e+001 2.506527e+000 1.453432e+000 1.784379e+000 9.525295e+000 1.685800e+000 4.454539e+000 2.452367e+000 4.691786e+000 2.458977e+000 2.490409e+000 3.604068e+000 1.291792e+000 3.738542e-001 4.922763e-001 1.084986e-001 2.559182e-001 1.606989e+000 3.224167e-001 1.670833e+000 5.561627e-001 6.737970e-001 8.290762e-001 7.285428e-001 1.172318e-001 2.095851e-001 5.556004e-002
<GCONST> 1.234395e+002
<STATE> 3
<MEAN> 39
 -1.029805e+001 -7.847109e+000 -1.074793e+001 -1.000302e+001 1.111563e+001 -1.949235e+001 -3.413851e+000 -1.022570e+001 3.801953e+000 -8.375104e+000 -4.335305e+000 2.292282e+000 1.720707e+001 -1.537209e+000 8.985324e-001 4.963329e-001 -4.217826e-001 9.142290e-001 -5.880150e-001 1.264660e+000 -6.671214e-001 -1.461964e-001 -1.075922e+000 -1.237383e+000 8.834019e-001 -1.365994e-001 -1.211158e-001 -1.858118e-001 5.187821e-001 5.890336e-002 -4.383530e-001 -4.053547e-001 2.914172e-001 6.544561e-001 1.046468e-002 3.388465e-001 3.466244e-001 5.577457e-002 8.606607e-003
<VARIANCE> 39
 4.418396e+001 1.328719e+001 3.223373e+002 2.680828e+002 1.402733e+002 4.641499e+002 3.388281e+001 2.738278e+001 1.354677e+001 1.644283e+001 1.489397e+002 7.619136e+001 1.232369e+001 6.729292e+000 2.016996e+000 2.470117e+000 1.206421e+000 1.089330e+001 1.091250e+001 2.211208e+000 3.204066e+000 8.533056e-001 9.943265e-001 3.747018e+000 1.016804e+000 5.336563e-001 3.614440e-001 3.250905e-001 5.137852e-001 4.587201e-001 1.047523e+000 1.029127e+000 3.189694e-001 2.063906e-001 2.826258e-001 1.279882e-001 1.135423e+000 2.942733e-001 8.111712e-002
<GCONST> 1.224119e+002
<STATE> 4
<MEAN> 39
 -1.394280e+001 -6.445192e+000 -9.911586e+000 -1.088011e+001 1.061833e+001 -1.891030e+001 -1.161278e+000 -1.367612e+001 2.289421e+000 -4.220006e+000 -6.750831e+000 -6.571589e-001 1.720424e+001 -3.032595e-001 4.881254e-001 2.087678e+000 -1.823522e+000 -5.320776e-001 -2.846117e+000 -6.326297e-001 5.045250e-001 -4.497067e-002 1.078497e+000 -2.640998e-001 -1.580028e-001 2.234541e-001 3.121437e-001 -1.488778e-001 -3.037645e-001 5.170456e-001 2.239020e-001 3.646775e-001 -4.917837e-001 1.232102e-002 7.928490e-002 4.898282e-001 5.140618e-001 -1.511086e-001 4.101618e-004
<VARIANCE> 39
 7.192347e+001 2.993812e+001 1.464553e+002 2.190363e+002 1.868255e+002 1.975768e+002 6.763016e+001 9.797880e+001 1.924099e+001 7.911816e+001 9.471456e+001 1.264468e+002 4.537674e+000 1.431388e+001 1.765453e+000 3.847586e+000 1.028029e+001 1.966097e+001 4.729284e+000 1.000897e+001 3.015176e+000 2.386250e+000 2.593363e+000 2.084473e+001 5.068885e+000 3.180289e-001 1.632782e+000 5.168672e-001 5.110132e-001 1.945482e+000 2.746627e+000 1.325037e+000 1.670654e+000 5.803213e-001 5.574552e-001 8.327629e-001 9.675181e-001 9.317016e-001 4.089695e-002
<GCONST> 1.444757e+002
<TRANSP> 5
 0.000000e+000 1.000000e+000 0.000000e+000 0.000000e+000 0.000000e+000
 0.000000e+000 7.828873e-001 2.171127e-001 0.000000e+000 0.000000e+000
 0.000000e+000 0.000000e+000 7.204875e-001 2.795126e-001 0.000000e+000
 0.000000e+000 0.000000e+000 0.000000e+000 7.158420e-001 2.841580e-001
 0.000000e+000 0.000000e+000 0.000000e+000 0.000000e+000 0.000000e+000
<ENDHMM>
~h "a"
<BEGINHMM>
<NUMSTATES> 5
<STATE> 2
<MEAN> 39
 -1.057932e+001 -6.663494e+000 -7.078897e+000 -3.572895e+000 4.080769e+000 1.278654e+000 8.509495e-001 -2.871654e+000 4.439219e+000 -3.604982e+000 -8.123515e-001 -1.164180e-002 1.444380e+001 -8.662764e-001 -8.733076e-001 1.263333e+000 -7.167347e-001 -1.910378e-001 -4.541847e-001 9.850037e-001 -7.721717e-001 -4.787372e-001 -8.471707e-001 5.609814e-002 -3.900358e-001 3.580382e-001 5.844959e-002 -1.407336e-001 -7.748006e-002 -7.584354e-002 1.136347e-001 -5.068653e-002 1.159744e-002 -1.141869e-001 -2.129729e-002 -3.724906e-002 -7.127936e-002 -8.448327e-002 6.454355e-002
<VARIANCE> 39
 9.065126e+001 1.361856e+002 2.062704e+002 2.489133e+002 2.262114e+002 2.131824e+002 1.358578e+002 1.599871e+002 8.530975e+001 1.469135e+002 1.552146e+002 6.714007e+001 1.764190e+001 5.650594e+000 5.691643e+000 8.263051e+000 9.751191e+000 8.589841e+000 8.806719e+000 8.111096e+000 8.503134e+000 6.986468e+000 1.083693e+001 9.508747e+000 6.356639e+000 8.394215e-001 9.510682e-001 5.393873e-001 1.808110e+000 1.306267e+000 1.067431e+000 1.082601e+000 1.714302e+000 1.309152e+000 1.364562e+000 2.184774e+000 1.563231e+000 1.128049e+000 9.516686e-002
<GCONST> 1.593986e+002
<STATE> 3
<MEAN> 39
 -1.076420e+001 -1.233080e+001 -6.025062e+000 -1.294781e+001 1.808190e+000 -3.280173e+000 3.972296e+000 -8.838469e+000 2.869720e+000 -7.075387e+000 -3.622924e+000 -3.738086e+000 1.734194e+001 5.471186e-001 -7.294424e-001 -5.326041e-001 -7.791280e-001 3.057097e-001 7.707192e-001 2.421935e-001 -5.476952e-001 -5.242844e-001 -3.323160e-001 -5.869833e-001 -8.083791e-001 2.135644e-001 1.100886e-001 1.599666e-001 -2.216627e-001 7.340425e-002 1.219416e-001 5.024712e-002 -2.331284e-001 2.745838e-001 8.049748e-002 1.419328e-001 5.494461e-002 2.113445e-001 -3.716590e-002
<VARIANCE> 39
 8.801337e+001 1.276894e+002 2.326464e+002 2.309173e+002 1.614576e+002 1.811435e+002 1.630162e+002 1.438404e+002 8.906900e+001 1.098939e+002 1.378750e+002 8.310278e+001 1.314096e+001 4.403038e+000 4.460243e+000 5.478837e+000 8.747400e+000 4.237622e+000 5.239091e+000 7.364579e+000 6.978248e+000 8.720243e+000 8.127871e+000 7.219883e+000 4.513652e+000 4.278579e-001 8.687174e-001 4.161536e-001 1.304179e+000 1.108441e+000 6.945218e-001 7.940916e-001 1.334432e+000 9.581465e-001 1.134647e+000 1.426769e+000 1.308754e+000 8.255781e-001 3.710349e-002
<GCONST> 1.504026e+002
<STATE> 4
<MEAN> 39
 -5.436652e+000 -1.284555e+001 -1.132328e+001 -1.327040e+001 3.836604e+000 2.780259e+000 -2.063456e-001 -9.007071e+000 1.050991e-001 -9.542667e+000 -9.470282e+000 -7.881714e+000 1.749452e+001 1.787594e-001 -1.821302e-001 -4.160797e-001 1.127399e-001 2.357795e-001 2.595160e-001 -2.409219e-001 3.962575e-003 -9.652922e-002 -1.591315e-001 -1.650857e-001 2.289045e-002 2.762656e-002 -9.007639e-002 8.559534e-002 7.493387e-002 6.854457e-002 -3.656546e-002 -1.022498e-001 -4.885447e-003 3.976826e-002 1.479673e-001 1.044770e-001 1.335599e-001 1.357794e-001 -1.452707e-002
<VARIANCE> 39
 7.255426e+001 1.613992e+002 1.372302e+002 2.235476e+002 1.028841e+002 1.722782e+002 1.398059e+002 1.106740e+002 1.694099e+002 9.182723e+001 1.165947e+002 8.122733e+001 1.149794e+001 3.143853e+000 5.179636e+000 4.437165e+000 6.151644e+000 3.281734e+000 4.392499e+000 5.756712e+000 6.023447e+000 5.689870e+000 6.005658e+000 4.730891e+000 3.603979e+000 3.048651e-001 4.712199e-001 5.823333e-001 5.379033e-001 8.355473e-001 5.567218e-001 7.727813e-001 9.928752e-001 1.005361e+000 9.824287e-001 1.059965e+000 8.407527e-001 6.864703e-001 3.234568e-002
<GCONST> 1.426689e+002
<TRANSP> 5
 0.000000e+000 1.000000e+000 0.000000e+000 0.000000e+000 0.000000e+000
 0.000000e+000 4.827938e-001 5.172061e-001 0.000000e+000 0.000000e+000
 0.000000e+000 0.000000e+000 2.556307e-001 7.443693e-001 0.000000e+000
 0.000000e+000 0.000000e+000 0.000000e+000 6.215340e-001 3.784660e-001
 0.000000e+000 0.000000e+000 0.000000e+000 0.000000e+000 0.000000e+000
<ENDHMM>
~h "b"
<BEGINHMM>
<NUMSTATES> 5
<STATE> 2
<MEAN> 39
 -2.223827e+000 -2.261600e+001 -9.354365e+000 -1.535073e+001 -1.124636e+001 -3.060242e+000 5.204969e+000 -1.164838e+001 1.115236e+000 -5.843361e+000 -7.741494e+000 -2.652151e+000 1.918557e+001 1.837497e-001 -1.216115e-001 -4.913759e-001 -5.849995e-001 9.519322e-002 3.665804e-001 -2.737691e-001 1.349654e+000 -1.506885e+000 -3.796361e-001 -2.817418e-001 9.640354e-001 -2.369023e-001 -3.193516e-002 1.281130e-001 -1.787018e-001 -3.157669e-001 6.105410e-001 2.473076e-001 5.300326e-002 8.297580e-002 6.482420e-002 4.027957e-001 1.675046e-001 9.645117e-002 -6.435391e-003
<VARIANCE> 39
 3.554175e+001 2.810976e+001 1.411984e+002 2.382294e+002 2.161226e+002 1.806573e+002 4.647260e+001 6.291749e+001 1.365205e+002 1.391747e+002 5.610973e+001 4.271079e+001 2.909750e+000 5.220809e-001 7.544203e-001 1.019781e+000 9.961590e+000 1.320069e+001 8.612087e+000 5.971926e+000 2.693774e+000 2.986083e+000 3.865283e+000 5.765346e+000 2.478266e+000 2.182369e-001 9.860718e-002 1.666684e-001 1.934153e-001 1.613437e+000 1.502170e+000 9.938036e-001 1.441786e+000 6.124412e-001 5.014924e-001 5.853305e-001 9.044176e-001 5.572026e-001 2.477523e-002
<GCONST> 1.281383e+002
<STATE> 3
<MEAN> 39
 -2.397827e+000 -2.562095e+001 -1.165312e+001 -2.547336e+001 1.149239e+000 4.297579e+000 1.252273e+000 1.915462e+000 -2.491321e+000 2.805226e+000 -5.648844e+000 4.461716e+000 1.892676e+001 1.299522e-001 3.867410e-002 -5.944786e-001 2.097271e-001 9.447683e-002 3.000436e-001 -2.254869e-001 1.028101e+000 6.794673e-002 3.383973e-001 1.014466e-001 3.673031e-001 -1.437482e-001 3.045018e-003 1.349834e-001 8.416137e-002 1.465605e-001 7.676445e-002 -5.733375e-002 -1.876472e-001 -1.292227e-001 -4.448878e-002 -2.173320e-001 -1.712859e-001 -1.225876e-001 -6.005989e-003
<VARIANCE> 39
 2.722555e+001 1.996284e+001 8.819366e+001 2.735689e+002 2.462594e+002 1.156756e+002 8.684534e+001 2.728345e+001 4.084341e+001 6.240117e+001 3.670176e+001 1.521114e+001 3.741854e+000 2.524443e-001 1.307530e+000 1.039854e+000 1.420236e+000 2.010202e+000 2.476841e+000 2.216567e+000 1.016888e+000 1.907911e+000 3.207415e+000 3.222819e+000 1.899954e+000 2.546516e-002 4.386386e-002 1.454616e-001 1.420465e-001 2.044971e-001 3.679305e-001 2.990489e-001 4.612391e-001 2.482530e-001 3.147197e-001 6.214849e-001 5.552461e-001 4.021061e-001 3.353417e-003
<GCONST> 1.014379e+002
<STATE> 4
<MEAN> 39
 -4.160993e-001 -1.418955e+001 -2.266870e+001 -9.486384e+000 -1.111629e+001 -1.137288e+000 5.544440e+000 5.539997e+000 -4.215614e+000 -3.044761e+000 -2.398553e+000 8.077165e+000 1.436020e+001 -4.535720e-001 1.025388e+000 3.672174e-002 4.307000e-001 1.238644e+000 1.093986e+000 -8.547636e-001 -3.163042e-001 -3.760847e-001 -5.434949e-001 -1.589618e-001 -8.189964e-002 -3.201485e-001 -1.929181e-003 -4.253948e-002 -9.770592e-002 2.621569e-001 7.985991e-002 3.322382e-003 -4.973470e-002 -4.979032e-001 2.378487e-002 -1.714861e-001 4.385607e-002 -2.483483e-001 1.895921e-002
<VARIANCE> 39
 2.048893e+001 8.121088e+001 1.007208e+002 9.289498e+001 1.242636e+002 7.598908e+001 4.667636e+001 3.552483e+001 3.195900e+001 5.457824e+001 8.650657e+001 2.618532e+001 1.045429e+001 8.834134e-001 7.118520e-001 1.009266e+000 2.537528e+000 2.376497e+000 3.683579e+000 2.050763e+000 3.013039e+000 5.323079e+000 4.581189e+000 4.854440e+000 2.059462e+000 8.046835e-002 1.219455e-001 1.545887e-001 2.638109e-001 4.109279e-001 4.772521e-001 9.209614e-001 3.657463e-001 5.332174e-001 1.242837e+000 1.023110e+000 1.090490e+000 3.840160e-001 1.651943e-002
<GCONST> 1.164015e+002
<TRANSP> 5
 0.000000e+000 1.000000e+000 0.000000e+000 0.000000e+000 0.000000e+000
 0.000000e+000 8.238996e-001 1.761004e-001 0.000000e+000 0.000000e+000
 0.000000e+000 0.000000e+000 8.722798e-001 1.277203e-001 0.000000e+000
 0.000000e+000 0.000000e+000 0.000000e+000 7.370608e-001 2.629392e-001
 0.000000e+000 0.000000e+000 0.000000e+000 0.000000e+000 0.000000e+000
<ENDHMM>
~h "d"
<BEGINHMM>
<NUMSTATES> 5
<STATE> 2
<MEAN> 39
 -3.003753e-001 -8.925105e+000 6.194503e+000 -1.797214e+001 -1.499986e+001 -1.462148e+001 1.637783e+000 -1.165780e+001 -1.112946e+001 5.215469e-001 -1.159984e+001 -6.091505e+000 1.740790e+001 -2.332833e-001 2.170046e-001 9.696960e-001 3.395614e-001 -1.478093e+000 -4.409848e-001 6.014475e-001 -4.554093e-001 -8.067850e-002 -7.029097e-002 4.381371e-001 -3.985449e-001 -3.439181e-002 -1.119385e-001 5.618469e-002 -3.781285e-002 -5.755869e-002 7.620765e-002 -1.409965e-001 -1.204038e-001 1.131019e-001 1.302550e-001 -8.102192e-002 1.593978e-001 1.391352e-001 2.987069e-002
<VARIANCE> 39
 3.345046e+001 5.403688e+001 1.722961e+002 8.722688e+001 1.440186e+002 9.661243e+001 1.233761e+002 2.246913e+002 9.182642e+001 4.944093e+001 3.479797e+001 4.031298e+001 3.557853e+000 3.235071e+000 3.673890e+000 9.538407e+000 5.052727e+000 4.823830e+000 1.249684e+001 1.330865e+001 7.216211e+000 2.295466e+000 3.939296e+000 3.076257e+000 4.861764e+000 3.323151e-001 5.409520e-001 5.996779e-001 1.451754e+000 7.301344e-001 8.074696e-001 2.437495e+000 2.028105e+000 1.330721e+000 3.187598e-001 6.897027e-001 7.233061e-001 5.323874e-001 5.694490e-002
<GCONST> 1.395887e+002
<STATE> 3
<MEAN> 39
 -1.043638e+001 -1.676377e+000 1.686925e+001 -2.238312e+001 -2.079844e+001 -1.673292e+001 4.629037e+000 -1.144724e+001 -1.740774e+000 -4.062477e-001 -5.383713e+000 -7.297371e+000 1.821532e+001 -7.837256e-001 1.444149e+000 3.069055e-001 -2.610423e-001 7.124655e-001 -4.661331e-001 -6.085364e-001 -3.861970e-001 1.211156e+000 -1.114828e-001 1.077272e+000 -7.518383e-002 2.457407e-001 7.656442e-002 -5.160012e-002 -1.995350e-002 -6.100672e-002 2.024201e-001 8.477550e-002 1.102756e-002 -3.360667e-001 8.159710e-002 2.629316e-001 7.486618e-002 1.994428e-001 8.331561e-002
<VARIANCE> 39
 4.603314e+001 7.501453e+001 1.703772e+002 1.148942e+002 8.750104e+001 1.262221e+002 5.458537e+001 7.076934e+001 5.572705e+001 1.373205e+002 6.166870e+001 3.786432e+001 6.829367e+000 3.877650e+000 4.724856e+000 3.281347e+000 7.657791e+000 5.003041e+000 6.850709e+000 5.719583e+000 8.891670e+000 6.084957e+000 9.428383e+000 5.384830e+000 4.603439e+000 4.188785e-001 6.573310e-001 7.270688e-001 6.408842e-001 1.139164e+000 1.101526e+000 1.423116e+000 9.576334e-001 1.825717e+000 7.165908e-001 2.004721e+000 1.060899e+000 1.064604e+000 5.776013e-002
<GCONST> 1.434680e+002
<STATE> 4
<MEAN> 39
 -9.842583e+000 1.734568e+000 1.356197e+001 -1.107978e+001 -1.427268e+001 -4.031642e+000 1.761109e+000 -1.635879e+001 5.422364e+000 2.057391e+000 -4.849898e+000 -3.744029e+000 1.629515e+001 -1.401452e-001 -5.189686e-001 -1.056782e-001 -2.080976e-001 -2.070635e-002 9.079445e-001 -2.043001e-002 2.323332e-001 1.010659e-001 1.345343e-001 1.577746e-001 -9.196739e-004 1.681820e-001 5.253312e-002 -8.353715e-002 6.761910e-002 -1.014542e-001 4.852400e-002 1.833230e-001 6.630847e-002 2.620367e-001 -3.039296e-001 -7.728063e-002 -1.468205e-001 -1.928094e-001 -9.887725e-003
<VARIANCE> 39
 4.720697e+001 1.626090e+002 1.902262e+002 2.633680e+002 1.447656e+002 4.299852e+002 6.627439e+001 1.144292e+002 1.076122e+002 9.401278e+001 9.115051e+001 8.563844e+001 1.602859e+001 2.830626e+000 6.244757e+000 5.752719e+000 8.921947e+000 6.757422e+000 6.742965e+000 4.332615e+000 8.133467e+000 6.147642e+000 4.586329e+000 1.013946e+001 6.495302e+000 4.354135e-001 3.636765e-001 8.611547e-001 1.206392e+000 1.240681e+000 1.542954e+000 1.149112e+000 6.219137e-001 1.188300e+000 9.429123e-001 9.960198e-001 1.495993e+000 1.022434e+000 5.281240e-002
<GCONST> 1.501972e+002
<TRANSP> 5
 0.000000e+000 1.000000e+000 0.000000e+000 0.000000e+000 0.000000e+000
 0.000000e+000 8.882189e-001 1.117811e-001 0.000000e+000 0.000000e+000
 0.000000e+000 0.000000e+000 7.912307e-001 2.087693e-001 0.000000e+000
 0.000000e+000 0.000000e+000 0.000000e+000 8.737183e-001 1.262817e-001
 0.000000e+000 0.000000e+000 0.000000e+000 0.000000e+000 0.000000e+000
<ENDHMM>
~h "f"
<BEGINHMM>
<NUMSTATES> 5
<STATE> 2
<MEAN> 39
 -5.688211e+000 -2.034239e+000 -1.104805e+001 -7.965652e+000 -1.623498e+000 3.209167e-001 -5.466107e+000 -6.699819e+000 -4.670050e-001 -2.654411e+000 -6.104005e+000 -6.166291e+000 1.300813e+001 -3.849746e-001 5.586674e-001 6.099618e-001 6.051076e-002 1.741657e-001 -7.710485e-001 -3.632375e-001 -4.191324e-001 2.405432e-001 5.479478e-001 -6.115823e-002 3.324972e-001 -8.642127e-002 -5.032685e-002 -1.059281e-001 1.568357e-001 -3.073305e-002 -1.520699e-001 -4.754313e-001 -1.611883e-002 -8.488870e-002 4.483330e-002 -1.711423e-001 1.328928e-001 6.837663e-005 1.202581e-001
<VARIANCE> 39
 6.337283e+001 1.493953e+002 1.307691e+002 1.297737e+002 1.139141e+002 1.395751e+002 1.011646e+002 1.139366e+002 1.101049e+002 7.112059e+001 6.774834e+001 5.845177e+001 2.043821e+001 2.176227e+000 1.663835e+000 3.746225e+000 3.730508e+000 2.695239e+000 6.499341e+000 5.871408e+000 5.619026e+000 6.638722e+000 3.126114e+000 7.077278e+000 2.653435e+000 2.057782e-001 3.019053e-001 3.027039e-001 4.823591e-001 6.478916e-001 6.206531e-001 9.478328e-001 1.355170e+000 1.233536e+000 7.822251e-001 1.023787e+000 1.186732e+000 9.712455e-001 5.429401e-002
<GCONST> 1.379678e+002
<STATE> 3
<MEAN> 39
 -5.269764e+000 -7.334535e+000 -7.608284e+000 -1.393322e+001 3.362629e+000 -2.621718e+000 -4.798574e+000 -8.701634e+000 3.630310e+000 -3.659888e+000 -7.349881e+000 -3.197651e+000 1.611759e+001 -2.382539e-001 3.485323e-001 1.099972e+000 -3.030069e-001 -9.070405e-001 -2.311535e+000 1.059190e-001 -3.110504e-001 -2.436595e-001 -2.550327e-001 -3.220988e-001 5.448539e-001 2.975025e-001 -1.434896e-001 -1.887410e-001 7.813855e-002 1.639186e-001 -2.345802e-001 7.076024e-002 4.350591e-001 8.500396e-002 -2.638990e-001 -3.032196e-001 4.023436e-001 1.752995e-001 7.684342e-002
<VARIANCE> 39
 1.119208e+002 1.382402e+002 1.946245e+002 1.294950e+002 1.091522e+002 2.573100e+002 9.580617e+001 1.235418e+002 1.057967e+002 1.158334e+002 1.462229e+002 6.725119e+001 1.236111e+001 5.514670e+000 2.872155e+000 4.385209e+000 3.348313e+000 4.230395e+000 7.973813e+000 1.001037e+001 6.961710e+000 5.794133e+000 5.844793e+000 1.070205e+001 4.781507e+000 4.933594e-001 3.748837e-001 2.375225e-001 5.824821e-001 3.815767e-001 5.558138e-001 6.984188e-001 1.142113e+000 7.132420e-001 7.096211e-001 1.063007e+000 1.221170e+000 7.751394e-001 2.870885e-002
<GCONST> 1.432039e+002
<STATE> 4
<MEAN> 39
 -7.984871e+000 -5.887431e+000 1.637285e+000 -1.657606e+001 9.439709e-001 -5.448066e+000 -3.763925e+000 -1.065324e+001 -2.520066e+000 -8.463740e+000 -8.807306e+000 2.817741e+000 1.710042e+001 -3.418472e-001 8.732963e-002 3.892418e-001 -3.492940e-002 -7.551329e-001 -1.284364e+000 3.089502e-001 2.556925e-001 -3.237981e-001 -2.806710e-001 4.120843e-001 8.918030e-001 1.205236e-001 -1.828758e-002 -7.232025e-002 -2.543362e-001 -1.825372e-002 1.480196e-001 1.252581e-001 1.305569e-001 6.999207e-002 1.375133e-001 -1.144336e-001 2.304315e-001 6.779876e-002 -3.023530e-002
<VARIANCE> 39
 1.666879e+002 1.001615e+002 3.576186e+002 1.567192e+002 9.656528e+001 2.836037e+002 1.006947e+002 1.253826e+002 1.369861e+002 9.770641e+001 2.107479e+002 1.531018e+002 6.771420e+000 1.962158e+000 2.134367e+000 4.145186e+000 2.477524e+000 5.720118e+000 7.512205e+000 8.735960e+000 5.032057e+000 4.201857e+000 5.289934e+000 4.994267e+000 6.182192e+000 4.685819e-001 6.992134e-001 2.463364e-001 6.373882e-001 6.001904e-001 9.342896e-001 1.815492e+000 1.362958e+000 7.973840e-001 8.577315e-001 1.011653e+000 1.317173e+000 1.133363e+000 2.845092e-002
<GCONST> 1.454612e+002
<TRANSP> 5
 0.000000e+000 1.000000e+000 0.000000e+000 0.000000e+000 0.000000e+000
 0.000000e+000 5.610963e-001 4.389037e-001 0.000000e+000 0.000000e+000
 0.000000e+000 0.000000e+000 2.838563e-001 7.161437e-001 0.000000e+000
 0.000000e+000 0.000000e+000 0.000000e+000 5.122398e-001 4.877602e-001
 0.000000e+000 0.000000e+000 0.000000e+000 0.000000e+000 0.000000e+000
<ENDHMM>
~h "h"
<BEGINHMM>
<NUMSTATES> 5
<STATE> 2
<MEAN> 39
 -6.585896e+000 -1.634692e+001 -1.172339e+001 -5.812819e+000 9.520009e+000 9.495524e-001 -5.596980e+000 2.234809e+000 2.795065e+000 -9.904714e+000 -4.892673e+000 3.290819e+000 1.583017e+001 -1.026846e+000 8.736947e-001 1.750036e+000 -5.010099e-001 3.284473e-001 -9.376280e-001 7.074862e-001 -1.998504e-001 4.068467e-001 -1.463496e+000 1.532560e+000 -8.865480e-001 1.249778e-001 -3.697422e-001 4.861031e-004 2.899156e-001 -2.846419e-001 3.176688e-002 -4.347084e-001 5.767721e-001 -4.939059e-001 1.615573e-002 1.054498e-002 4.565145e-003 -1.787843e-001 1.001023e-001
<VARIANCE> 39
 7.057564e+001 5.272512e+001 1.703167e+002 1.667995e+002 2.489754e+002 1.571879e+002 1.454956e+002 8.500605e+001 1.262588e+002 1.193408e+002 1.605641e+002 8.299625e+001 5.499289e+000 4.965503e+000 3.614460e+000 9.193856e+000 7.393332e+000 5.280690e+000 9.564680e+000 6.825415e+000 9.208665e+000 6.660264e+000 9.385927e+000 1.105767e+001 4.207570e+000 5.189634e-001 5.955297e-001 4.172712e-001 9.813676e-001 1.148208e+000 7.906798e-001 1.125721e+000 1.321327e+000 1.161628e+000 1.079541e+000 1.575770e+000 1.137114e+000 6.716958e-001 4.012845e-002
<GCONST> 1.495477e+002
<STATE> 3
<MEAN> 39
 -1.395130e+001 -1.571305e+001 -1.203125e+000 -8.116140e+000 7.889511e+000 -8.099021e+000 2.154070e+000 -2.161237e+000 3.248972e+000 -1.760143e+001 1.481470e+000 -7.003826e-001 1.757416e+001 -1.293422e+000 1.566900e-001 1.086617e+000 -3.339962e-001 -2.263997e-001 -1.217171e+000 1.982420e+000 -1.749822e+000 -7.078193e-003 -8.541622e-001 8.917333e-001 -7.771677e-001 4.418845e-001 5.437914e-001 -7.105774e-002 -6.046149e-001 -1.456229e-001 -3.924587e-001 5.680010e-001 -1.438300e-001 -1.600138e-001 -3.910761e-001 5.093957e-001 -5.852463e-001 6.391036e-002 -5.649240e-002
<VARIANCE> 39
 1.161550e+002 4.086125e+001 1.582932e+002 1.391461e+002 2.452379e+002 2.102278e+002 1.331505e+002 2.152331e+002 8.041999e+001 1.656478e+002 2.092153e+002 7.270109e+001 4.299441e+000 6.378758e+000 4.491126e+000 7.002729e+000 7.595220e+000 5.219599e+000 1.004780e+001 1.270849e+001 1.019937e+001 8.313010e+000 8.999096e+000 6.365816e+000 3.684776e+000 3.405619e-001 9.018955e-001 5.082417e-001 1.237742e+000 1.349166e+000 8.112429e-001 1.315893e+000 1.499989e+000 2.360554e+000 1.044641e+000 1.779447e+000 1.235485e+000 6.936665e-001 5.942554e-002
<GCONST> 1.530925e+002
<STATE> 4
<MEAN> 39
 -1.169875e+001 -1.361184e+001 -4.646133e+000 -8.849342e+000 1.564518e+000 -2.048058e+000 6.201601e+000 -1.363313e+001 9.332722e-001 -1.445495e+001 -5.579028e+000 -2.950432e+000 1.808693e+001 6.484839e-001 1.508972e-001 -4.368649e-001 -6.520400e-001 -9.791136e-001 2.881564e-001 1.141701e-001 -1.600747e-001 -4.216581e-001 4.191020e-001 -6.673684e-001 -4.723177e-001 1.342565e-001 2.347099e-001 -9.205587e-002 3.048099e-002 -1.256064e-001 -1.586287e-001 4.123718e-002 -2.008819e-001 1.322915e-001 -1.777771e-002 1.970185e-001 -1.556687e-001 7.980729e-002 -1.412623e-002
<VARIANCE> 39
 1.082662e+002 1.061555e+002 1.948014e+002 1.330182e+002 2.075497e+002 1.875479e+002 1.071151e+002 2.451185e+002 1.123669e+002 1.424480e+002 1.552995e+002 6.375898e+001 4.137405e+000 4.802305e+000 6.225042e+000 6.162447e+000 6.980925e+000 6.928043e+000 3.789379e+000 6.517401e+000 1.015158e+001 6.686083e+000 7.903090e+000 4.606123e+000 3.228396e+000 2.046037e-001 8.823042e-001 7.951352e-001 1.141369e+000 1.234571e+000 1.037670e+000 7.962942e-001 1.172757e+000 1.489699e+000 1.213146e+000 1.651000e+000 9.405094e-001 5.902534e-001 4.622900e-002
<GCONST> 1.493222e+002
<TRANSP> 5
 0.000000e+000 1.000000e+000 0.000000e+000 0.000000e+000 0.000000e+000
 0.000000e+000 5.072551e-001 4.927449e-001 0.000000e+000 0.000000e+000
 0.000000e+000 0.000000e+000 5.024918e-001 4.975082e-001 0.000000e+000
 0.000000e+000 0.000000e+000 0.000000e+000 6.074160e-001 3.925840e-001
 0.000000e+000 0.000000e+000 0.000000e+000 0.000000e+000 0.000000e+000
<ENDHMM>
~h "i"
<BEGINHMM>
<NUMSTATES> 5
<STATE> 2
<MEAN> 39
 -1.736948e+001 4.531169e+000 -9.950920e+000 -9.407562e+000 -1.666056e+000 -2.237294e+001 -2.586273e+000 -1.222632e+001 1.110648e+001 -3.638926e-001 2.082252e+000 -2.994731e+000 1.883182e+001 3.471296e-001 -1.043139e+000 -6.641362e-001 -1.124717e+000 1.623031e+000 1.759343e+000 1.394805e-001 3.408688e-001 3.141552e-001 3.271810e-001 2.788056e-001 4.373855e-001 1.418841e-001 2.840140e-002 -1.348176e-001 2.817680e-001 -1.650341e-001 -2.331595e-001 2.458604e-001 9.047192e-002 1.984045e-001 -1.219992e-001 -2.114736e-001 -1.706023e-001 -5.409919e-002 -1.490574e-003
<VARIANCE> 39
 6.630894e+001 2.194392e+002 8.640179e+001 8.828557e+001 6.754564e+001 1.101844e+002 5.793440e+001 7.464059e+001 4.153612e+001 5.903838e+001 5.612510e+001 4.214796e+001 3.679967e+000 3.316063e+000 6.845399e+000 4.939478e+000 7.077081e+000 5.235412e+000 8.156301e+000 5.788793e+000 4.338854e+000 4.821595e+000 2.221251e+000 4.963553e+000 5.042737e+000 1.253888e-001 6.724483e-001 7.339153e-001 1.127034e+000 1.415637e+000 6.679676e-001 8.640700e-001 9.726793e-001 8.595248e-001 9.113615e-001 4.917195e-001 7.860994e-001 5.701029e-001 2.208013e-002
<GCONST> 1.351487e+002
<STATE> 3
<MEAN> 39
 -1.121362e+001 -6.757375e+000 -1.263887e+001 -1.923297e+001 4.827941e+000 -7.922532e+000 5.770919e-001 -5.478212e+000 1.073393e+001 -3.626453e+000 -1.452112e+000 -3.904348e+000 1.915458e+001 1.654945e+000 -2.364472e+000 -1.212671e+000 -3.232856e+000 2.181751e-002 2.746202e+000 1.461186e-001 5.503439e-001 3.963134e-001 -9.018292e-001 -1.413713e+000 1.061555e-001 1.347566e-001 8.290434e-002 -9.867388e-002 2.828060e-001 2.835347e-001 -2.644555e-001 -6.530886e-001 -1.729415e-001 -3.057947e-001 -5.518117e-001 -2.901237e-001 -5.544960e-002 5.287189e-002 -8.928061e-003
<VARIANCE> 39
 9.125094e+001 1.605223e+002 6.890876e+001 1.017544e+002 8.961324e+001 1.176918e+002 5.156446e+001 6.234924e+001 7.865823e+001 4.937062e+001 7.126654e+001 5.932586e+001 1.055801e+001 3.743927e+000 1.081246e+001 6.136454e+000 9.894804e+000 4.121895e+000 6.968473e+000 8.718625e+000 5.942279e+000 7.073139e+000 4.231585e+000 7.704134e+000 2.407348e+000 1.146571e-001 6.378067e-001 1.424197e+000 8.520865e-001 1.564807e+000 6.627088e-001 8.256149e-001 9.560895e-001 9.376981e-001 1.674837e+000 4.117607e-001 6.866892e-001 4.919278e-001 2.621694e-002
<GCONST> 1.400813e+002
<STATE> 4
<MEAN> 39
 -4.213489e+000 -1.608922e+001 -1.438886e+001 -2.468336e+001 6.832808e+000 8.249215e+000 -3.757837e+000 -7.733249e+000 5.994963e+000 -3.915994e+000 -4.499438e+000 -7.458482e+000 1.956126e+001 8.279178e-001 -7.423608e-001 2.719885e-001 4.679047e-001 -1.787515e-001 1.048604e+000 -3.597317e-001 -9.869907e-001 -1.337234e+000 -8.350900e-001 -9.698704e-001 -3.267038e-001 -2.573512e-002 -1.880365e-001 3.190009e-001 1.187522e-001 5.315456e-001 7.195514e-002 -2.879421e-001 -4.970320e-002 -1.679224e-001 -1.160772e-001 8.710732e-002 8.127041e-003 -1.263190e-001 -2.273693e-002
<VARIANCE> 39
 2.847460e+001 3.085282e+001 1.562005e+001 6.639245e+001 5.292580e+001 2.544767e+002 4.259936e+001 7.452781e+001 4.651513e+001 4.941021e+001 4.843589e+001 7.837363e+001 4.013091e+000 8.072004e-001 4.897694e+000 1.724114e+000 3.774493e+000 2.677570e+000 3.167931e+000 2.741382e+000 4.036808e+000 5.351563e+000 3.100445e+000 3.435896e+000 3.838748e+000 1.326596e-001 2.086077e-001 3.866556e-001 5.092895e-001 1.072138e+000 4.078621e-001 7.098752e-001 7.276781e-001 9.004605e-001 9.262937e-001 5.108122e-001 6.474515e-001 5.930488e-001 1.410386e-002
<GCONST> 1.207481e+002
<TRANSP> 5
 0.000000e+000 1.000000e+000 0.000000e+000 0.000000e+000 0.000000e+000
 0.000000e+000 7.574022e-001 2.425978e-001 0.000000e+000 0.000000e+000
 0.000000e+000 0.000000e+000 4.376408e-001 5.623593e-001 0.000000e+000
 0.000000e+000 0.000000e+000 0.000000e+000 7.878804e-001 2.121196e-001
 0.000000e+000 0.000000e+000 0.000000e+000 0.000000e+000 0.000000e+000
<ENDHMM>
~h "j"
<BEGINHMM>
<NUMSTATES> 5
<STATE> 2
<MEAN> 39
 -6.262242e+000 -1.990650e+001 2.780918e+000 -1.876161e+001 4.589951e+000 -2.092343e+001 3.629428e+000 -3.725551e+000 -5.118386e+000 -1.391184e+001 -1.119455e+001 6.479313e+000 1.951173e+001 1.467260e-002 -1.015564e-003 -5.499321e-002 1.214458e-001 -1.272745e-001 2.981402e-001 2.432513e-001 4.954833e-001 -3.338785e-001 2.141377e-002 -4.556544e-001 8.361650e-002 -5.599870e-002 1.479303e-003 -8.171419e-003 -5.029824e-002 5.596326e-002 -2.694499e-002 5.650795e-002 8.083978e-003 6.122351e-002 1.659095e-002 -6.416505e-003 4.259152e-002 2.257050e-002 -2.724413e-003
<VARIANCE> 39
 1.399153e+001 1.466417e+001 2.157249e+001 3.314597e+001 3.207393e+001 8.948759e+001 5.956163e+001 1.154728e+002 4.832144e+001 4.395967e+001 8.316965e+001 6.485786e+001 3.235922e+000 5.744120e-001 4.896113e-001 1.407397e+000 1.431158e+000 1.982766e+000 3.407320e+000 1.977725e+000 1.867336e+000 3.974779e+000 3.901103e+000 3.556781e+000 4.012600e+000 6.159651e-002 7.576963e-002 5.989459e-002 1.617438e-001 2.803834e-001 4.000338e-001 4.405449e-001 3.473609e-001 3.201159e-001 6.791583e-001 7.373680e-001 7.158504e-001 7.155226e-001 4.611740e-003
<GCONST> 1.039003e+002
<STATE> 3
<MEAN> 39
 -4.150419e+000 -1.385626e+001 -9.383848e+000 -7.139634e+000 -8.689137e+000 -1.238970e+001 9.444396e+000 4.022471e+000 -4.106780e+000 -1.832528e+001 -1.209474e+001 6.896802e+000 1.612301e+001 1.722851e-001 8.703016e-001 -8.271693e-001 2.498259e-001 -4.529256e-001 -3.184963e-001 5.733837e-001 9.045776e-001 7.353899e-001 -6.411932e-001 4.159173e-001 3.036280e-001 -1.408094e-001 -2.073474e-002 4.171813e-002 -2.961032e-002 -1.033671e-001 5.295176e-002 -3.893731e-002 -4.832172e-002 -2.814501e-002 1.034248e-001 -5.285600e-002 1.512260e-002 -1.734276e-002 -2.040147e-002
<VARIANCE> 39
 2.005354e+001 2.593205e+001 5.010708e+001 9.963718e+001 3.732561e+001 7.533058e+001 1.089874e+002 7.158878e+002 2.945449e+002 9.861749e+001 4.297444e+001 1.001391e+002 5.071868e+000 5.771434e-001 5.798633e-001 1.129561e+000 4.557451e+000 1.567885e+000 2.223628e+000 5.271786e+000 6.589537e+000 6.649518e+000 6.081648e+000 1.469767e+000 4.027190e+000 1.066964e-001 8.481795e-002 9.807151e-002 1.863243e-001 4.753807e-001 2.788416e-001 4.474781e-001 9.321110e-001 1.093929e+000 1.265530e+000 8.398026e-001 2.353027e-001 7.924867e-001 1.598468e-002
<GCONST> 1.194719e+002
<STATE> 4
<MEAN> 39
 -6.212860e+000 -4.930212e+000 -2.011535e+001 -7.246591e-002 -1.147760e+001 -8.163788e+000 1.032408e+001 1.759363e+001 -7.884414e+000 -2.717672e+001 -6.657554e+000 1.065711e+001 1.129209e+001 -1.220027e+000 1.467327e+000 1.170190e+000 2.886640e-001 7.712306e-001 1.372320e+000 -5.255982e-001 -6.075460e-001 1.958678e+000 1.488854e+000 9.242327e-001 1.891452e-001 -6.068258e-001 -1.120771e-001 1.777178e-001 5.832573e-001 2.057283e-001 4.310786e-001 6.647661e-001 1.954640e-001 2.193591e-002 5.257248e-001 6.014956e-001 -2.156758e-001 -3.186384e-001 2.866918e-002
<VARIANCE> 39
 9.098297e+000 7.660351e+000 3.954329e+001 1.004792e+002 1.365099e+001 5.061611e+001 4.143372e+001 1.693169e+002 1.878969e+002 5.698296e+001 1.317356e+001 2.605815e+001 8.983240e+000 6.342690e-001 1.438926e+000 4.328789e+000 1.280839e+000 2.866198e+000 7.299690e+000 2.247694e+000 3.143695e+000 8.003469e+000 9.978208e+000 2.621208e+000 3.526117e+000 5.372637e-002 7.229850e-002 1.734187e-001 2.550479e-001 1.561769e-001 4.880604e-001 9.710329e-001 6.840657e-001 6.275532e-001 1.055641e+000 7.158987e-001 5.316897e-001 5.849158e-001 9.305373e-003
<GCONST> 1.118934e+002
<TRANSP> 5
 0.000000e+000 1.000000e+000 0.000000e+000 0.000000e+000 0.000000e+000
 0.000000e+000 9.669130e-001 3.308703e-002 0.000000e+000 0.000000e+000
 0.000000e+000 0.000000e+000 9.257514e-001 7.424853e-002 0.000000e+000
 0.000000e+000 0.000000e+000 0.000000e+000 7.386200e-001 2.613801e-001
 0.000000e+000 0.000000e+000 0.000000e+000 0.000000e+000 0.000000e+000
<ENDHMM>
~h "k"
<BEGINHMM>
<NUMSTATES> 5
<STATE> 2
<MEAN> 39
 -4.366934e+000 -8.380887e+000 -2.184306e+001 7.388678e-001 8.189374e+000 1.310736e+001 -8.297090e-001 -2.365089e+000 -9.763661e-001 -7.652349e+000 -9.303059e+000 -9.218616e-001 1.280390e+001 -7.656301e-001 8.214893e-001 5.909835e-001 4.244930e-001 -3.033260e-001 3.430117e-001 2.619883e-001 -3.172453e-001 6.066973e-001 3.969908e-001 4.464944e-002 -4.591054e-001 -3.783129e-001 -7.681471e-002 -3.385875e-002 1.466615e-001 -5.817971e-002 2.053448e-002 -1.019517e-001 -3.524654e-002 -1.046553e-002 -4.017808e-002 -6.852484e-003 2.888576e-002 -1.017425e-002 1.124913e-002
<VARIANCE> 39
 3.841102e+001 4.057386e+001 1.687682e+002 8.395988e+001 9.294096e+001 3.844419e+002 6.957706e+001 6.560064e+001 5.990138e+001 7.304723e+001 9.758535e+001 7.471489e+001 7.416001e+000 3.817382e-001 7.534355e-001 1.373465e+000 2.698272e+000 2.364999e+000 3.218377e+000 3.097527e+000 4.396288e+000 3.512671e+000 2.862474e+000 4.047153e+000 2.496502e+000 7.221014e-002 6.985843e-002 1.026895e-001 1.903997e-001 4.330935e-001 3.248107e-001 7.081277e-001 6.732062e-001 8.330566e-001 5.873646e-001 4.564371e-001 6.804321e-001 6.321056e-001 1.022705e-002
<GCONST> 1.172532e+002
<STATE> 3
<MEAN> 39
 -1.109893e+001 -5.880896e+000 -1.253949e+001 1.044364e+000 3.209021e+000 3.199565e+000 -1.964396e+000 -3.580960e+000 1.662429e+000 -4.330072e+000 -4.007205e+000 -4.464239e-001 1.144845e+001 -1.272961e+000 6.395491e-001 1.361332e+000 5.972304e-001 5.109304e-001 -1.039590e+000 4.578257e-001 5.127509e-001 2.426196e-001 -1.569517e-001 8.969645e-001 3.135179e-001 -1.127466e-001 -1.300958e-001 1.641070e-001 -7.547843e-002 -9.607322e-002 3.126915e-001 -4.280788e-001 6.105070e-001 3.698296e-001 -1.875329e-002 -2.325692e-001 3.811478e-001 1.903792e-001 1.738864e-001
<VARIANCE> 39
 4.158259e+001 6.970673e+001 1.283686e+002 1.165055e+002 1.069638e+002 5.060231e+002 1.404629e+002 8.547711e+001 4.527114e+001 8.118243e+001 1.038751e+002 6.564577e+001 1.306465e+001 4.951565e-001 8.966246e-001 3.374913e+000 5.171419e+000 6.362507e+000 1.169850e+001 4.160305e+000 7.647379e+000 2.768364e+000 2.929720e+000 4.593746e+000 5.832172e+000 1.423310e-001 1.277846e-001 4.074258e-001 4.544929e-001 7.373288e-001 1.359609e+000 2.237243e+000 9.091136e-001 1.859545e+000 6.722709e-001 8.811379e-001 1.257058e+000 5.550784e-001 5.160878e-002
<GCONST> 1.361514e+002
<STATE> 4
<MEAN> 39
 -2.027056e+001 -8.543780e-001 -4.427034e+000 2.034559e+000 3.023319e+000 -1.017279e+001 1.015437e+001 -1.288302e+000 2.102339e+000 -4.390623e+000 6.492234e+000 2.649938e-001 1.396753e+001 -7.836941e-001 5.225993e-001 8.921175e-001 -1.028743e+000 -7.972870e-001 -2.278414e+000 1.313130e+000 -1.754284e-001 8.442731e-001 1.666339e-001 1.043190e+000 -5.503442e-002 5.993369e-001 2.538759e-001 -1.466938e-001 2.344871e-003 -4.234046e-001 -1.167110e-001 1.626009e-001 -3.094485e-001 -2.894798e-001 -1.467267e-001 3.698072e-002 -3.999089e-001 -5.355373e-002 6.627948e-002
<VARIANCE> 39
 8.376982e+001 8.204429e+001 1.135785e+002 1.543223e+002 1.374482e+002 2.652650e+002 1.191095e+002 8.396033e+001 6.780807e+001 8.804811e+001 1.048961e+002 7.082516e+001 1.183315e+001 5.220667e+000 5.510870e+000 5.196320e+000 1.186570e+001 1.041529e+001 1.515641e+001 1.088441e+001 9.131617e+000 7.518350e+000 5.590955e+000 1.226349e+001 3.965960e+000 7.066279e-001 4.562680e-001 4.453076e-001 7.444895e-001 1.992132e+000 1.547134e+000 1.877207e+000 1.431902e+000 1.171476e+000 1.269300e+000 1.056240e+000 1.931589e+000 7.649374e-001 7.002455e-002
<GCONST> 1.529030e+002
<TRANSP> 5
 0.000000e+000 1.000000e+000 0.000000e+000 0.000000e+000 0.000000e+000
 0.000000e+000 7.868437e-001 2.131564e-001 0.000000e+000 0.000000e+000
 0.000000e+000 0.000000e+000 4.930324e-001 5.069677e-001 0.000000e+000
 0.000000e+000 0.000000e+000 0.000000e+000 7.680302e-001 2.319698e-001
 0.000000e+000 0.000000e+000 0.000000e+000 0.000000e+000 0.000000e+000
<ENDHMM>
~h "l"
<BEGINHMM>
<NUMSTATES> 5
<STATE> 2
<MEAN> 39
 -9.514701e+000 7.493051e+000 -2.966999e+000 4.642578e+000 -2.706682e-001 7.726357e+000 4.413508e+000 3.977624e+000 3.809769e+000 1.283294e+000 5.015608e+000 5.216442e+000 1.123818e+001 -5.980774e-001 7.536792e-001 1.955846e-001 2.920562e-001 4.625041e-001 -4.477101e-001 4.834785e-001 -2.234521e-002 -8.834971e-002 -8.925429e-002 3.680855e-002 -3.891154e-001 -1.425766e-002 -9.176809e-002 -4.541020e-002 4.561458e-002 -8.467055e-002 1.218062e-001 -1.758433e-001 1.659031e-001 -2.451075e-001 1.629195e-001 5.274392e-002 -4.205444e-002 3.693559e-002 9.557783e-002
<VARIANCE> 39
 8.692041e+001 9.618839e+001 1.552651e+002 1.287566e+002 7.676342e+001 1.629661e+002 1.091233e+002 8.911288e+001 4.044282e+001 1.044105e+002 8.808136e+001 8.030782e+001 9.356345e+000 1.707925e+000 2.134497e+000 4.369534e+000 5.161677e+000 3.880129e+000 5.839591e+000 6.652866e+000 4.126443e+000 1.923240e+000 4.279890e+000 4.337042e+000 1.761429e+000 2.845967e-001 4.344788e-001 4.919223e-001 4.255208e-001 6.540408e-001 8.806682e-001 1.308859e+000 1.340296e+000 8.398908e-001 4.136976e-001 1.309922e+000 7.744013e-001 2.943743e-001 8.212238e-002
<GCONST> 1.352513e+002
<STATE> 3
<MEAN> 39
 -1.515027e+001 7.233603e+000 -7.968788e+000 8.167055e-001 2.514447e+000 -5.071547e+000 5.534276e+000 -4.390878e+000 2.991356e+000 -5.853553e+000 -1.600313e+000 -4.130382e-001 1.279256e+001 -2.140673e+000 1.677584e+000 7.366330e-001 -8.848523e-001 1.280088e+000 -1.809919e+000 2.172731e+000 -2.178332e+000 1.079244e+000 3.273335e-001 2.279327e-001 2.853379e-002 9.309979e-001 -3.847071e-001 -3.978121e-001 7.337200e-002 -3.045978e-001 -5.405673e-002 2.652829e-001 3.967665e-002 -1.965677e-002 2.240121e-001 1.651886e-001 1.726654e-001 -5.242936e-002 2.227143e-001
<VARIANCE> 39
 1.275346e+002 1.381296e+002 7.803464e+001 1.291332e+002 5.806524e+001 1.684032e+002 9.158688e+001 9.269423e+001 5.723746e+001 6.715625e+001 6.448730e+001 4.071144e+001 1.795800e+001 3.869206e+000 5.252153e+000 6.227547e+000 3.871628e+000 5.458646e+000 5.983213e+000 1.046506e+001 7.640254e+000 4.323220e+000 6.898664e+000 1.910390e+000 2.167803e+000 1.156151e+000 5.012519e-001 8.205201e-001 4.793271e-001 4.330506e-001 8.379997e-001 8.517770e-001 1.679263e+000 1.626747e+000 7.022737e-001 9.827800e-001 6.926020e-001 4.483583e-001 1.653480e-001
<GCONST> 1.418120e+002
<STATE> 4
<MEAN> 39
 -2.369821e+001 9.058075e+000 -4.895584e+000 -4.449275e+000 4.889683e+000 -9.979189e+000 1.115248e+001 -9.272917e+000 7.268775e+000 -7.320228e+000 -1.725826e+000 -1.056166e+000 1.747484e+001 -1.921137e+000 -1.522330e-001 1.439027e+000 -1.184628e+000 -2.141158e-002 -2.201045e-001 8.749589e-002 -1.648260e-001 6.700521e-001 5.734159e-001 9.771572e-001 -2.383077e-001 7.694662e-001 6.011949e-001 -5.021954e-001 7.769385e-002 9.165591e-002 -5.577665e-001 2.440970e-001 -4.104187e-001 3.928034e-001 -2.808020e-001 6.100554e-002 1.389223e-001 -1.418236e-001 -1.814231e-001
<VARIANCE> 39
 1.022525e+002 1.360359e+002 1.121615e+002 1.532896e+002 4.916256e+001 1.255635e+002 1.116063e+002 6.012232e+001 6.680841e+001 1.069464e+002 8.644851e+001 3.233691e+001 1.274326e+001 4.511344e+000 4.296136e+000 3.912205e+000 3.975643e+000 3.834770e+000 2.976337e+000 6.144552e+000 6.956741e+000 4.859830e+000 7.991023e+000 3.727523e+000 2.303480e+000 7.008748e-001 3.722807e-001 4.298894e-001 4.624565e-001 4.050289e-001 6.458706e-001 6.690124e-001 1.271970e+000 8.979009e-001 7.696065e-001 8.299022e-001 6.468811e-001 4.918722e-001 8.304074e-002
<GCONST> 1.369214e+002
<TRANSP> 5
 0.000000e+000 1.000000e+000 0.000000e+000 0.000000e+000 0.000000e+000
 0.000000e+000 6.941987e-001 3.058013e-001 0.000000e+000 0.000000e+000
 0.000000e+000 0.000000e+000 4.805577e-001 5.194423e-001 0.000000e+000
 0.000000e+000 0.000000e+000 0.000000e+000 6.292796e-001 3.707204e-001
 0.000000e+000 0.000000e+000 0.000000e+000 0.000000e+000 0.000000e+000
<ENDHMM>
~h "m"
<BEGINHMM>
<NUMSTATES> 5
<STATE> 2
<MEAN> 39
 7.600131e+000 -1.065997e+001 -2.066107e+001 -2.106253e+001 5.193252e+000 7.655765e+000 -1.082461e+001 -5.006915e+000 -3.629204e+000 -4.001198e+000 -1.123445e+001 -7.646151e+000 1.824441e+001 2.648078e-001 6.054507e-001 -3.474474e-001 1.168452e-001 -1.491634e-001 2.469041e-001 -6.290106e-002 -2.387223e-001 -1.281575e-001 1.970120e-001 -1.049939e-001 -2.124199e-001 -1.070212e-001 -3.968984e-002 7.781545e-002 -3.811223e-002 1.654894e-002 -7.209159e-002 -6.721571e-002 1.175981e-001 2.290818e-002 3.937924e-003 1.666311e-002 1.442763e-001 -2.103057e-002 -1.285830e-002
<VARIANCE> 39
 5.048064e+001 8.115716e+001 9.303835e+001 9.809367e+001 2.029727e+002 7.915321e+001 5.329306e+001 4.575983e+001 1.133657e+002 8.116471e+001 1.248542e+002 7.332146e+001 1.967325e+000 8.141630e-001 2.447978e+000 2.185056e+000 3.335787e+000 2.262992e+000 4.211348e+000 3.018433e+000 3.108677e+000 5.106821e+000 3.763623e+000 4.356356e+000 4.767782e+000 6.156061e-002 1.566533e-001 3.158192e-001 3.669184e-001 4.975744e-001 3.738109e-001 8.258480e-001 4.072367e-001 6.536736e-001 8.204142e-001 7.269675e-001 9.922254e-001 1.059847e+000 1.154174e-002
<GCONST> 1.237607e+002
<STATE> 3
<MEAN> 39
 3.119803e+000 -6.682189e+000 -2.924622e+001 -1.367821e+001 4.924650e+000 1.263457e+001 -6.382705e+000 -2.035733e+000 7.232357e-001 4.749369e-001 -7.821712e+000 -9.249526e+000 1.512896e+001 -8.050171e-001 6.760658e-001 -2.304282e-001 3.969079e-001 -5.076453e-001 -1.121149e-002 3.751190e-002 1.540361e-001 4.025571e-001 -8.500208e-002 6.130207e-001 1.885912e-001 -3.838403e-001 -1.623383e-001 -1.085030e-001 3.392206e-001 1.759548e-001 2.250644e-001 -2.233574e-001 -5.957986e-002 -6.648426e-002 -1.324420e-001 -1.445243e-001 2.774080e-003 2.529379e-002 -1.320732e-002
<VARIANCE> 39
 4.642986e+001 2.229490e+001 5.773333e+001 4.256674e+001 1.313678e+002 1.421730e+002 7.949892e+001 8.111414e+001 1.563692e+002 1.178809e+002 8.049983e+001 6.235708e+001 4.435024e+000 8.843729e-001 1.745631e+000 2.344415e+000 1.719350e+000 3.786153e+000 4.652558e+000 4.762679e+000 4.046736e+000 4.601920e+000 3.384675e+000 4.057005e+000 2.285106e+000 1.632411e-001 1.233106e-001 3.158937e-001 2.313549e-001 3.793708e-001 4.996550e-001 7.686821e-001 8.853776e-001 8.125240e-001 8.744122e-001 5.945983e-001 5.667413e-001 5.534761e-001 2.613696e-002
<GCONST> 1.232588e+002
<STATE> 4
<MEAN> 39
 -7.478735e+000 -7.428393e+000 -1.489057e+001 -1.464321e+001 3.321407e+000 4.995036e+000 -5.204505e+000 -2.576901e+000 3.099869e+000 -1.850770e+000 -2.631593e+000 -1.013611e+001 1.477076e+001 -1.444000e+000 -1.134065e+000 2.413250e+000 -4.233717e-001 1.957875e-001 -3.476486e-001 8.300744e-001 -6.663073e-001 -2.164719e-001 -5.697060e-001 1.134835e+000 7.371717e-002 3.963743e-001 2.066437e-001 -2.738083e-001 -1.536921e-001 -8.066815e-003 1.608831e-001 1.539249e-001 2.422105e-001 -6.134081e-002 1.203065e-001 2.549426e-002 -3.178772e-001 -3.828499e-002 9.197755e-002
<VARIANCE> 39
 9.855692e+001 6.150562e+001 2.259808e+002 1.819696e+002 1.617570e+002 1.303392e+002 1.385097e+002 1.034761e+002 1.103033e+002 8.833223e+001 6.838467e+001 7.639336e+001 1.878002e+001 3.607548e+000 3.670674e+000 7.963841e+000 6.626565e+000 4.918735e+000 1.083953e+001 9.087291e+000 7.028975e+000 4.762189e+000 5.603287e+000 6.757359e+000 6.343563e+000 1.081911e+000 6.485513e-001 5.334598e-001 1.472042e+000 1.115562e+000 9.939164e-001 1.864365e+000 1.892854e+000 9.946544e-001 9.044287e-001 8.925644e-001 1.387303e+000 1.276954e+000 1.519914e-001
<GCONST> 1.521774e+002
<TRANSP> 5
 0.000000e+000 1.000000e+000 0.000000e+000 0.000000e+000 0.000000e+000
 0.000000e+000 8.927783e-001 1.072217e-001 0.000000e+000 0.000000e+000
 0.000000e+000 0.000000e+000 6.999645e-001 3.000355e-001 0.000000e+000
 0.000000e+000 0.000000e+000 0.000000e+000 6.342795e-001 3.657205e-001
 0.000000e+000 0.000000e+000 0.000000e+000 0.000000e+000 0.000000e+000
<ENDHMM>
~h "n"
<BEGINHMM>
<NUMSTATES> 5
<STATE> 2
<MEAN> 39
 -1.359166e+001 -3.746922e+000 -6.163499e+000 -4.884403e-001 -2.946272e-001 -1.383869e+001 -1.871009e-001 -4.220559e+000 5.654825e+000 -4.910244e+000 -9.302634e-001 2.812462e+000 1.455743e+001 -6.756062e-002 -1.488153e+000 -1.113293e+000 2.381985e-001 1.100825e+000 -7.003388e-001 1.497102e+000 -9.953506e-002 -1.621528e-001 -3.247848e-001 4.256157e-001 1.303570e+000 2.291572e-001 3.241285e-001 5.845292e-002 -1.496633e-001 -8.850359e-001 -1.728444e-001 2.607510e-001 -2.047451e-001 -4.653066e-002 5.805753e-002 5.185866e-002 5.270205e-002 -4.780603e-001 4.776172e-002
<VARIANCE> 39
 8.988274e+001 1.472453e+002 2.045150e+002 2.326244e+002 2.263960e+002 2.556907e+002 1.081082e+002 3.457406e+001 3.650331e+001 7.191498e+001 9.108399e+001 6.668614e+001 2.295534e+001 1.780700e+000 7.396557e+000 3.822822e+000 1.204036e+001 1.148802e+001 1.125715e+001 1.327642e+001 3.548284e+000 1.453904e+000 4.766107e+000 2.243645e+000 6.854158e+000 8.121509e-001 4.191233e-001 3.976834e-001 1.169240e+000 1.174966e+000 1.102038e+000 1.818356e+000 2.396599e+000 7.997625e-001 3.781444e-001 9.631183e-001 9.626516e-001 1.464252e+000 6.321509e-002
<GCONST> 1.468749e+002
<STATE> 3
<MEAN> 39
 -1.213176e+001 -6.651241e+000 -8.166058e+000 -9.522655e+000 -2.144201e-001 -1.371006e+001 1.270634e+000 -5.262878e+000 6.987925e+000 -2.449591e+000 1.169466e+000 3.383395e-001 1.647818e+001 7.123147e-001 1.920532e-001 -4.794615e-001 -1.867396e+000 -6.385733e-001 1.026621e+000 -4.847554e-001 -1.620748e-002 2.074314e-001 5.272776e-001 4.471807e-001 -5.495894e-001 -1.197834e-001 1.781721e-001 1.024828e-001 -8.287089e-002 -3.200032e-001 1.102236e-001 2.867197e-001 -2.773587e-001 1.581721e-001 1.456155e-002 -2.519696e-001 -5.040599e-001 -4.842026e-001 -2.997069e-002
<VARIANCE> 39
 1.105261e+002 1.925009e+002 2.446836e+002 1.612283e+002 2.263493e+002 2.756783e+002 1.137496e+002 4.112234e+001 2.259249e+001 7.552702e+001 1.654049e+002 3.672490e+001 1.809633e+001 3.114879e+000 4.491878e+000 7.850034e+000 1.295549e+001 5.645335e+000 5.322835e+000 6.260313e+000 3.266714e+000 1.621512e+000 2.884326e+000 3.108966e+000 5.709810e+000 3.292532e-001 5.231629e-001 8.625170e-001 1.273988e+000 1.150770e+000 6.454528e-001 8.454954e-001 1.812275e+000 6.083760e-001 3.572472e-001 7.385546e-001 1.117023e+000 6.763760e-001 2.557152e-002
<GCONST> 1.415562e+002
<STATE> 4
<MEAN> 39
 -1.008449e+001 -3.965160e+000 -9.577695e+000 -1.289479e+001 -1.510734e+000 -9.732622e+000 -1.647552e+000 -4.947812e+000 6.693979e+000 -1.059878e+000 -1.225454e+000 -9.943486e-001 1.543250e+001 9.081455e-001 -1.565607e-001 -1.231278e+000 -1.244005e+000 4.792675e-001 1.772211e+000 -1.316585e-001 3.564229e-001 -8.178310e-002 -3.418411e-001 -1.026375e+000 -1.145243e+000 -2.179273e-001 5.349319e-002 -2.706285e-001 2.442875e-002 7.562747e-002 4.846423e-001 2.200478e-001 2.831743e-002 1.420036e-001 -7.749273e-002 -4.389505e-001 -7.527956e-001 -3.256471e-001 3.688864e-002
<VARIANCE> 39
 8.863145e+001 1.765812e+002 1.684300e+002 1.385396e+002 2.793221e+002 2.757530e+002 9.756406e+001 3.897039e+001 3.239641e+001 9.202982e+001 2.986069e+002 3.462315e+001 1.893507e+001 4.368226e+000 4.041246e+000 6.820387e+000 6.559097e+000 4.159030e+000 4.303259e+000 5.444968e+000 4.343399e+000 2.458453e+000 3.621222e+000 7.586078e+000 3.120809e+000 1.714893e-001 4.501903e-001 7.046010e-001 4.501646e-001 9.140470e-001 7.830523e-001 8.594160e-001 1.127775e+000 4.932705e-001 4.699003e-001 7.826327e-001 1.502444e+000 5.790123e-001 2.332517e-002
<GCONST> 1.394637e+002
<TRANSP> 5
 0.000000e+000 1.000000e+000 0.000000e+000 0.000000e+000 0.000000e+000
 0.000000e+000 4.898567e-001 5.101434e-001 0.000000e+000 0.000000e+000
 0.000000e+000 0.000000e+000 3.188477e-001 6.811524e-001 0.000000e+000
 0.000000e+000 0.000000e+000 0.000000e+000 3.628465e-001 6.371534e-001
 0.000000e+000 0.000000e+000 0.000000e+000 0.000000e+000 0.000000e+000
<ENDHMM>
~h "r"
<BEGINHMM>
<NUMSTATES> 5
<STATE> 2
<MEAN> 39
 -7.535172e+000 -4.838566e+000 -7.604668e+000 -1.201163e+001 1.001130e+001 -2.733785e+001 -1.038072e+001 -1.132994e+001 5.368262e+000 2.947926e+000 -9.881041e+000 1.501894e+000 1.671583e+001 4.169268e-002 -1.804549e-001 -1.131696e+000 2.495614e+000 1.055132e+000 -4.366249e-001 -6.908247e-001 -4.948575e-001 6.109755e-001 1.425838e+000 1.865742e+000 -8.603196e-001 -5.751867e-003 8.213817e-002 -7.483093e-002 -5.330606e-001 3.746332e-001 -1.579296e-001 2.795849e-001 -3.567378e-002 -4.884706e-001 1.738590e-001 -2.132975e-001 1.519137e-001 -4.757509e-001 2.603930e-002
<VARIANCE> 39
 9.747672e+001 1.266135e+001 8.844068e+001 1.154728e+002 1.141784e+002 7.819051e+001 6.716158e+001 7.982990e+001 2.406154e+001 7.113235e+001 1.324377e+002 1.514212e+002 8.547129e-001 1.703983e+000 2.114952e+000 3.178786e+000 4.084457e+000 7.313950e+000 1.608039e+000 1.388448e+000 6.833070e+000 4.471342e+000 2.177966e+000 4.530303e+000 5.086833e+000 1.140936e-001 3.993283e-001 5.228556e-001 4.197189e-001 6.618542e-001 1.435409e+000 4.119943e-001 3.683935e-001 1.139380e+000 7.495325e-001 4.882996e-001 1.130690e+000 1.077499e+000 2.013013e-002
<GCONST> 1.257543e+002
<STATE> 3
<MEAN> 39
 -1.565506e+001 2.903332e+000 -1.438478e+001 2.426140e+000 7.531385e+000 -3.002888e+001 -7.801450e+000 -1.332765e+001 1.087261e+001 2.532502e+000 4.442547e+000 -2.916912e+000 1.835762e+001 -1.439896e+000 9.184368e-001 -1.864142e-001 6.694084e-001 7.586101e-002 8.285882e-001 2.961486e-001 2.742397e-001 4.842705e-001 -3.077697e-001 1.731861e+000 -2.791832e-001 2.171857e-001 3.499422e-001 -2.036600e-001 2.165602e-001 -7.542946e-001 1.357812e-001 2.671992e-001 3.097299e-002 3.680117e-001 9.045390e-002 -2.313201e-001 -6.125695e-001 1.218051e-001 -4.586903e-002
<VARIANCE> 39
 8.885709e+001 1.519140e+002 8.911974e+001 5.566009e+001 1.572557e+002 4.988758e+001 3.623772e+001 3.072309e+001 7.021584e+001 1.387632e+002 6.324914e+001 5.629812e+001 2.826352e+000 3.797886e+000 4.594449e+000 5.073172e+000 3.256057e+000 7.714268e+000 2.065561e+000 1.811431e+000 4.663680e+000 3.473560e+000 7.055938e+000 2.555851e+000 4.354961e+000 1.328325e-001 9.848731e-001 9.643878e-001 1.180191e+000 4.133776e-001 1.942445e+000 5.433937e-001 2.508035e-001 8.583074e-001 9.333330e-001 1.844931e+000 4.831105e-001 1.109792e+000 2.366750e-002
<GCONST> 1.321623e+002
<STATE> 4
<MEAN> 39
 -1.577557e+001 -6.366656e+000 -1.272373e+001 -1.145905e+001 1.734311e+001 -1.597812e+001 -4.114247e+000 -7.060585e+000 1.257182e+001 -2.870592e+000 2.629253e+000 -7.240069e+000 1.925650e+001 1.188595e+000 -2.388480e+000 2.882587e-001 -3.651860e+000 2.057059e+000 3.762113e+000 2.361805e-001 1.397321e-001 -8.490269e-001 -5.301968e-001 -1.680584e+000 -1.994232e+000 2.965077e-001 -2.311989e-001 3.204164e-001 2.712745e-001 2.423782e-001 -2.129626e-001 3.829934e-002 3.152091e-002 -1.619809e-001 -7.707886e-001 2.666664e-001 4.314140e-001 4.454238e-002 2.718241e-002
<VARIANCE> 39
 4.590380e+001 1.263247e+002 1.753254e+001 2.670730e+002 1.598402e+002 1.175521e+002 2.224150e+001 8.323375e+000 6.257280e+001 9.092773e+001 9.397200e+001 1.020136e+002 5.680645e+000 2.477661e+000 8.702123e+000 2.569265e+000 8.733723e+000 3.906718e+000 4.116696e+000 1.602130e+000 1.060592e+000 7.020201e+000 6.981660e+000 5.691388e+000 5.271164e+000 1.475682e-001 3.584194e-001 1.277793e+000 2.303215e-001 2.008365e+000 7.123722e-001 8.675482e-001 2.431186e-001 1.946364e-001 5.769795e-001 8.148537e-001 1.284541e+000 1.230867e+000 4.158784e-002
<GCONST> 1.297168e+002
<TRANSP> 5
 0.000000e+000 1.000000e+000 0.000000e+000 0.000000e+000 0.000000e+000
 0.000000e+000 7.862247e-001 2.137753e-001 0.000000e+000 0.000000e+000
 0.000000e+000 0.000000e+000 8.427149e-001 1.572851e-001 0.000000e+000
 0.000000e+000 0.000000e+000 0.000000e+000 7.882034e-001 2.117965e-001
 0.000000e+000 0.000000e+000 0.000000e+000 0.000000e+000 0.000000e+000
<ENDHMM>
~h "s"
<BEGINHMM>
<NUMSTATES> 5
<STATE> 2
<MEAN> 39
 -5.600360e+000 -1.007990e+001 -8.531133e+000 -1.713892e+001 4.017345e+000 -6.686044e+000 -7.675947e-002 -1.510588e+001 4.779563e+000 -8.278287e+000 -5.880611e+000 -6.527836e-001 1.861182e+001 -2.116889e-001 2.725718e-001 -2.903509e-001 1.504161e-001 -2.287298e-002 2.556466e-001 4.501829e-001 -2.078342e-001 -1.077579e-001 4.610037e-001 2.900620e-001 -3.016463e-001 -5.319080e-002 -8.285983e-003 -3.255678e-002 1.126541e-001 -6.737079e-002 -2.197819e-001 3.097033e-002 -1.023929e-001 2.382236e-001 2.202821e-002 1.054096e-001 -1.390493e-001 -4.519523e-002 -5.153378e-003
<VARIANCE> 39
 5.608882e+001 1.050966e+002 2.249701e+002 1.808817e+002 1.598345e+002 1.703598e+002 1.186974e+002 1.309769e+002 1.185556e+002 6.287646e+001 5.379977e+001 1.317531e+002 1.129730e+001 2.069892e+000 3.233458e+000 4.330559e+000 3.754780e+000 4.879013e+000 6.848651e+000 6.880212e+000 5.209063e+000 5.022623e+000 3.607392e+000 3.202446e+000 3.321453e+000 1.889406e-001 2.010694e-001 3.063659e-001 4.264932e-001 5.215877e-001 6.437335e-001 9.047370e-001 7.789525e-001 9.101763e-001 1.221364e+000 5.992523e-001 6.514932e-001 6.236131e-001 2.419382e-002
<GCONST> 1.363074e+002
<STATE> 3
<MEAN> 39
 -3.894107e+000 -1.241269e+001 -1.105048e+001 -1.614994e+001 1.234392e+000 -4.758255e+000 1.609093e+000 -1.535037e+001 5.632560e+000 -7.113420e+000 -6.814117e+000 -3.330304e+000 1.872655e+001 1.021639e-001 -5.700718e-002 -4.285743e-002 2.164017e-001 -4.691423e-001 -1.160699e-001 -9.545888e-002 5.215173e-001 -7.788201e-002 4.209000e-001 1.864239e-001 -7.874653e-002 -1.341835e-001 3.096522e-002 -8.311690e-003 -3.166847e-002 1.062083e-002 9.772351e-002 3.307827e-002 -1.702383e-001 1.157990e-001 1.271457e-003 -6.150182e-002 -8.081362e-002 1.063007e-002 -2.046129e-002
<VARIANCE> 39
 6.388470e+001 8.746468e+001 2.063244e+002 1.731535e+002 1.580518e+002 1.829389e+002 1.244437e+002 1.607208e+002 1.196423e+002 6.676694e+001 7.148532e+001 1.138834e+002 7.917868e+000 1.317229e+000 2.085031e+000 2.996704e+000 3.070170e+000 3.842134e+000 5.222006e+000 4.447524e+000 3.911735e+000 4.599347e+000 3.084492e+000 2.886715e+000 2.713344e+000 1.429862e-001 2.301425e-001 2.812670e-001 4.952345e-001 5.242015e-001 6.749900e-001 7.618184e-001 8.389555e-001 8.476046e-001 9.127140e-001 5.266329e-001 6.374590e-001 4.628013e-001 1.491357e-002
<GCONST> 1.316237e+002
<STATE> 4
<MEAN> 39
 -2.763640e+000 -1.299067e+001 -1.726011e+001 -9.786386e+000 5.621771e+000 4.976880e-001 -1.737217e+000 -1.094992e+001 5.187786e+000 -2.431804e+000 -6.910047e+000 -2.337576e+000 1.699260e+001 2.616584e-002 5.358147e-002 -2.617474e-001 2.389019e-001 3.613245e-001 7.309027e-001 -2.506899e-001 5.183115e-001 -3.112388e-001 6.620477e-001 2.454308e-001 -5.196402e-003 -1.427381e-001 -2.568967e-002 3.417238e-003 9.759176e-002 -5.236924e-002 -4.107481e-002 1.469232e-001 3.481224e-002 -1.471676e-002 -5.100343e-002 -1.199518e-001 -7.589734e-002 -1.697975e-002 -4.704960e-003
<VARIANCE> 39
 5.345913e+001 7.710178e+001 1.929146e+002 2.751000e+002 1.833597e+002 3.117161e+002 1.220860e+002 1.244957e+002 8.190742e+001 9.900642e+001 8.004757e+001 6.160827e+001 9.837441e+000 2.132138e+000 2.965704e+000 2.483093e+000 4.178944e+000 6.655781e+000 1.009416e+001 6.166060e+000 5.036842e+000 5.368225e+000 4.214469e+000 3.398354e+000 2.521067e+000 1.730370e-001 3.353215e-001 4.335647e-001 4.836360e-001 6.225157e-001 1.173392e+000 1.637311e+000 9.199773e-001 9.440683e-001 9.730536e-001 6.228927e-001 5.702767e-001 4.550996e-001 1.676611e-002
<GCONST> 1.380386e+002
<TRANSP> 5
 0.000000e+000 1.000000e+000 0.000000e+000 0.000000e+000 0.000000e+000
 0.000000e+000 4.796829e-001 5.203171e-001 0.000000e+000 0.000000e+000
 0.000000e+000 0.000000e+000 5.784056e-001 4.215944e-001 0.000000e+000
 0.000000e+000 0.000000e+000 0.000000e+000 6.183739e-001 3.816262e-001
 0.000000e+000 0.000000e+000 0.000000e+000 0.000000e+000 0.000000e+000
<ENDHMM>
~h "t"
<BEGINHMM>
<NUMSTATES> 5
<STATE> 2
<MEAN> 39
 -1.997525e+001 8.042069e+000 -9.077281e+000 -1.617793e+001 6.507143e+000 -2.078397e+001 -6.135817e-001 -1.277748e+001 1.450494e+001 -2.014519e+000 2.114301e-001 -3.129856e+000 2.008765e+001 2.739044e+000 -2.003937e+000 -5.508179e-002 -3.283476e+000 -2.892375e-001 9.538396e-002 -3.765714e+000 -9.601934e-001 2.156145e+000 3.655847e-001 -7.864576e-001 -4.060626e-001 6.432270e-002 -1.131750e-001 1.792209e-001 -5.114864e-004 7.886030e-002 1.962731e-001 6.375339e-001 3.589888e-001 -1.910545e-001 -5.945603e-001 -1.912631e-001 2.077971e-001 2.366891e-001 -2.256347e-002
<VARIANCE> 39
 9.083199e+001 1.244210e+002 4.675990e+001 1.394280e+002 5.640505e+001 7.300048e+001 2.588520e+002 3.677482e+001 1.885778e+002 5.104583e+001 1.118359e+002 2.992705e+001 1.291657e+000 5.785287e+000 4.582023e+000 2.637458e+000 6.548237e+000 5.677400e+000 1.134132e+001 1.538564e+001 6.530063e+000 1.335985e+001 5.044461e+000 7.471076e+000 3.834078e+000 2.326867e-001 1.304636e+000 1.100730e+000 4.951544e-001 1.303058e+000 1.028711e+000 1.632065e+000 3.389814e+000 8.947927e-001 3.063134e+000 9.530227e-001 1.440664e+000 7.257574e-001 4.435693e-002
<GCONST> 1.453811e+002
<STATE> 3
<MEAN> 39
 -3.154427e+000 6.598222e+000 -1.221059e+001 -3.140117e+001 4.849217e+000 -1.394843e+001 -1.198105e+001 -1.878177e+001 7.913575e+000 -7.104976e+000 -2.902333e+000 -2.279843e+000 1.883399e+001 3.809673e-001 4.120598e-001 -1.741800e-001 -1.333427e-001 -9.905551e-002 6.111083e-001 4.087223e-001 1.326056e-001 -1.185398e+000 -6.375193e-001 -2.669943e-001 9.439898e-002 -1.007530e-001 -8.350094e-002 -3.870825e-002 6.208207e-002 1.609243e-001 -1.136967e-001 -1.237454e-001 6.611164e-002 1.612300e-001 6.614511e-002 3.660449e-002 -7.663754e-002 -9.523623e-002 -6.950218e-003
<VARIANCE> 39
 4.030158e+001 5.646924e+001 4.154045e+001 1.123421e+002 6.741930e+001 7.142726e+001 8.165376e+001 9.452362e+001 1.415574e+002 6.770599e+001 6.980057e+001 4.414313e+001 2.312999e+000 1.978011e+000 2.540044e+000 1.491097e+000 4.037807e+000 3.713953e+000 3.846847e+000 4.744690e+000 5.373708e+000 5.658704e+000 4.635156e+000 4.398223e+000 2.060437e+000 1.108677e-001 2.412029e-001 4.380001e-001 2.849534e-001 4.808774e-001 6.912695e-001 5.390857e-001 7.684177e-001 1.005481e+000 1.095443e+000 7.879156e-001 7.057398e-001 3.502887e-001 1.568491e-002
<GCONST> 1.247249e+002
<STATE> 4
<MEAN> 39
 1.555492e+000 3.856026e+000 -1.046686e+001 -3.238295e+001 -4.357619e+000 -8.057808e+000 -7.092917e+000 -6.381244e+000 -4.762475e+000 -4.248131e+000 -4.266972e+000 -5.216441e-001 1.783352e+001 -9.168696e-002 -1.060781e+000 2.538654e-001 6.241247e-001 -4.207110e-001 -1.467877e-001 3.754798e-001 1.752206e-001 4.613911e-001 1.464735e-001 -2.768891e-001 -2.060993e-001 6.786875e-002 -2.684166e-002 -7.964225e-002 6.409498e-002 5.654667e-002 9.533698e-004 -3.679026e-002 1.707854e-002 1.900304e-002 -1.131635e-003 -3.681272e-002 -1.455905e-002 4.402837e-002 1.719823e-002
<VARIANCE> 39
 4.883434e+001 1.223655e+002 6.636514e+001 2.711878e+002 1.867840e+002 1.180341e+002 5.326869e+001 1.862770e+002 2.274133e+002 7.470640e+001 1.156089e+002 5.850446e+001 4.503076e+000 1.557134e+000 6.597890e+000 3.980041e+000 9.219426e+000 4.423390e+000 8.691254e+000 4.248951e+000 8.094780e+000 9.308943e+000 6.331241e+000 6.959239e+000 4.959196e+000 1.694800e-001 1.943693e-001 7.405465e-001 6.242867e-001 1.139769e+000 6.868599e-001 1.328258e+000 7.397621e-001 1.228839e+000 1.469369e+000 1.159558e+000 1.206538e+000 1.018214e+000 2.559002e-002
<GCONST> 1.430080e+002
<TRANSP> 5
 0.000000e+000 1.000000e+000 0.000000e+000 0.000000e+000 0.000000e+000
 0.000000e+000 8.200250e-001 1.799751e-001 0.000000e+000 0.000000e+000
 0.000000e+000 0.000000e+000 9.315757e-001 6.842434e-002 0.000000e+000
 0.000000e+000 0.000000e+000 0.000000e+000 9.128315e-001 8.716850e-002
 0.000000e+000 0.000000e+000 0.000000e+000 0.000000e+000 0.000000e+000
<ENDHMM>
~h "u"
<BEGINHMM>
<NUMSTATES> 5
<STATE> 2
<MEAN> 39
 1.057477e+001 -6.240192e+000 -2.682906e+001 -1.416011e+001 1.984735e+000 1.960580e+001 -2.855360e+000 -1.878501e+001 -3.317120e+000 -6.907386e+000 -1.188946e+001 -1.366344e+001 1.774021e+001 5.881897e-002 2.458676e-001 -2.751918e-001 4.314106e-001 -2.913634e-001 -1.445373e-001 -3.480291e-001 -3.093255e-001 -8.993478e-001 3.055075e-001 9.443881e-002 4.501597e-002 -1.660395e-001 -1.118194e-001 -1.328006e-002 -7.503875e-002 -1.362741e-001 3.762892e-002 -2.989973e-002 -2.432102e-002 -2.638362e-002 6.553670e-002 1.992980e-001 1.753341e-001 1.059073e-001 -8.092656e-003
<VARIANCE> 39
 1.567245e+001 2.987496e+001 4.728838e+001 5.282495e+001 4.265374e+001 8.280442e+001 5.024094e+001 1.194132e+002 2.078584e+002 4.705075e+001 4.807962e+001 5.052568e+001 3.820116e+000 7.105532e-001 1.753960e+000 2.236684e+000 2.106651e+000 1.603909e+000 4.127948e+000 2.303641e+000 4.915225e+000 4.854168e+000 4.248993e+000 4.277259e+000 2.852458e+000 7.105371e-002 8.825695e-002 3.660429e-001 3.142083e-001 2.768849e-001 3.141072e-001 6.685793e-001 3.827046e-001 7.594073e-001 7.751864e-001 8.315974e-001 7.114891e-001 6.482482e-001 1.299118e-002
<GCONST> 1.155860e+002
<STATE> 3
<MEAN> 39
 -2.884817e-001 -3.550395e+000 -3.024468e+001 -1.702954e+001 9.068010e+000 2.035832e+001 -4.546760e+000 -6.078574e+000 -1.501019e+001 -2.164971e+000 5.273300e-001 -3.318238e+000 1.376413e+001 -8.074298e-001 4.522333e-001 -3.041189e-001 -1.968767e-002 -1.788859e-001 9.330197e-001 3.596823e-002 -2.312549e-001 8.531467e-001 7.624133e-001 1.593176e+000 2.708043e-001 -3.245102e-001 1.645975e-003 3.167257e-002 2.776411e-001 2.932036e-001 3.369840e-003 -6.327400e-002 1.389401e-001 1.507718e-001 9.215983e-002 -3.124478e-001 -2.855458e-001 -1.730111e-001 -3.582349e-002
<VARIANCE> 39
 1.711485e+001 3.262113e+001 1.168847e+001 3.269338e+001 1.067576e+002 8.322739e+001 8.958058e+001 2.191794e+002 1.793534e+001 4.122707e+001 6.140575e+001 1.811286e+001 1.846243e+000 5.366347e-001 1.089696e+000 9.773008e-001 2.414072e+000 6.825444e-001 2.046576e+000 1.821961e+000 3.433760e+000 1.652973e+000 3.113741e+000 3.930771e+000 2.885244e+000 2.244347e-002 7.036487e-002 1.704994e-001 1.089691e-001 2.874466e-001 1.768294e-001 2.853513e-001 4.128208e-001 4.693268e-001 2.460807e-001 4.631831e-001 6.364375e-001 3.442062e-001 6.204977e-003
<GCONST> 9.863110e+001
<STATE> 4
<MEAN> 39
 -4.892666e+000 1.314086e+000 -2.741827e+001 -9.104537e+000 3.825986e+000 1.931215e+001 -5.652511e+000 -9.797541e+000 -9.070878e+000 4.405670e-001 5.762547e+000 -4.586845e+000 1.042779e+001 -1.200630e+000 6.398103e-001 1.350899e+000 1.532211e+000 2.819856e-001 -2.676428e-001 5.949838e-001 5.836133e-001 5.860026e-001 -4.272103e-001 -1.111315e+000 4.790132e-002 -5.232530e-001 1.933109e-003 1.125379e-001 1.824093e-001 -3.525364e-002 2.232798e-001 -2.188886e-001 3.777816e-001 -9.061105e-004 -8.968736e-003 -2.934618e-001 -4.207396e-001 4.257831e-001 4.301338e-002
<VARIANCE> 39
 1.020420e+001 1.447821e+001 1.028033e+001 1.330731e+001 8.289705e+001 1.062937e+002 4.565792e+001 1.154505e+002 2.464475e+001 2.030321e+001 3.225057e+001 1.137080e+001 2.416173e+000 5.021889e-001 7.935134e-001 7.740848e-001 6.846888e-001 1.246156e+000 2.636556e+000 4.350864e+000 3.475200e+000 4.147309e+000 2.145433e+000 3.850284e+000 2.740334e+000 6.432141e-002 1.939016e-001 2.059809e-001 3.189886e-001 1.142601e-001 3.245737e-001 6.872640e-001 1.204860e+000 1.244896e+000 5.050107e-001 1.091842e-001 4.342313e-001 4.940598e-001 2.370290e-002
<GCONST> 1.005895e+002
<TRANSP> 5
 0.000000e+000 1.000000e+000 0.000000e+000 0.000000e+000 0.000000e+000
 0.000000e+000 9.470929e-001 5.290712e-002 0.000000e+000 0.000000e+000
 0.000000e+000 0.000000e+000 8.733898e-001 1.266102e-001 0.000000e+000
 0.000000e+000 0.000000e+000 0.000000e+000 7.780418e-001 2.219581e-001
 0.000000e+000 0.000000e+000 0.000000e+000 0.000000e+000 0.000000e+000
<ENDHMM>
~h "v"
<BEGINHMM>
<NUMSTATES> 5
<STATE> 2
<MEAN> 39
 -1.310256e+001 -1.782118e+000 -1.910514e+000 -1.557542e+001 7.020875e-001 -1.942188e+001 -1.758657e+000 -5.378484e+000 3.000006e+000 -3.810904e+000 -2.548846e+000 2.004068e+000 1.627178e+001 2.765362e-001 -4.126691e-001 -5.693405e-001 -9.728146e-001 2.443832e-001 -1.785003e+000 -1.108782e-001 -8.897652e-001 8.290665e-001 5.536174e-002 1.182973e-001 3.678571e-001 3.154427e-001 5.535507e-002 3.446347e-002 2.353864e-001 -5.709874e-002 -8.428615e-002 3.503837e-001 -1.540321e-001 -1.693569e-001 1.172119e-001 -6.706541e-002 -3.000746e-002 -4.058880e-002 1.350808e-002
<VARIANCE> 39
 1.362140e+002 1.155003e+002 2.068023e+002 1.086509e+002 1.111969e+002 2.670052e+002 1.756552e+002 8.299654e+001 6.271831e+001 5.600597e+001 1.139847e+002 1.810419e+002 8.705302e+000 1.399862e+001 2.521215e+000 1.047882e+001 1.207933e+001 1.253176e+001 1.625847e+001 2.063055e+001 9.507487e+000 6.812337e+000 6.360495e+000 1.067648e+001 9.604375e+000 6.023200e-001 1.735750e+000 4.696173e-001 1.890681e+000 1.900950e+000 2.460113e+000 2.813902e+000 2.304456e+000 1.930046e+000 1.150695e+000 1.200722e+000 1.324596e+000 1.568162e+000 9.845562e-002
<GCONST> 1.616400e+002
<STATE> 3
<MEAN> 39
 -9.482428e+000 -7.340715e+000 -5.833891e+000 -2.151745e+001 1.147264e+000 -2.022957e+001 -1.034415e+000 -1.119733e+001 7.394918e+000 -6.076793e+000 -2.121716e+000 9.983892e-001 1.899236e+001 -6.429198e-001 5.000077e-001 2.007941e+000 -2.937228e-001 -1.003457e+000 1.390091e-001 5.236530e-001 -2.633380e-002 2.044056e-002 -1.099322e+000 2.485375e-002 2.969864e-002 1.908799e-001 1.892070e-001 2.814103e-001 2.546362e-001 5.512306e-002 -1.420212e-002 5.769690e-001 -2.213930e-001 3.065390e-001 -3.846417e-001 1.796059e-002 -5.125960e-001 -2.305667e-001 -1.199753e-001
<VARIANCE> 39
 7.066077e+001 1.491265e+002 1.364334e+002 1.168776e+002 4.428487e+001 2.016144e+002 1.729393e+002 1.117170e+002 7.829838e+001 6.411476e+001 1.728812e+002 6.900779e+001 3.495653e+000 3.972787e+000 2.605554e+000 7.698391e+000 5.788140e+000 5.998255e+000 7.232449e+000 8.774107e+000 7.305101e+000 4.499256e+000 4.150314e+000 8.565511e+000 6.795961e+000 2.409715e-001 1.047025e+000 4.170035e-001 1.504933e+000 1.282596e+000 1.066576e+000 1.172317e+000 1.934360e+000 1.693062e+000 7.411386e-001 8.199565e-001 2.218246e+000 1.021855e+000 4.893163e-002
<GCONST> 1.469164e+002
<STATE> 4
<MEAN> 39
 -1.230348e+001 3.035587e+000 3.227501e+000 -2.442626e+001 -3.481956e+000 -2.179369e+001 -3.957959e+000 -1.446369e+001 6.589601e+000 -1.087707e+001 -8.410405e+000 -1.520378e+000 1.833825e+001 1.982640e-001 1.718618e-001 4.209695e-001 -1.808848e-001 -6.653771e-002 1.025656e+000 -3.167261e-001 9.870721e-002 3.463789e-002 2.167881e-001 -5.979531e-001 2.360305e-001 -7.959271e-002 2.173296e-001 -1.703760e-001 -3.567177e-001 -2.275313e-002 2.399758e-001 2.042628e-001 -7.283761e-002 5.299290e-002 -5.313094e-004 8.448349e-002 -5.180695e-003 -4.397989e-002 -2.258997e-002
<VARIANCE> 39
 5.297597e+001 2.481621e+002 1.504299e+002 8.804722e+001 4.719590e+001 1.098067e+002 1.816397e+002 8.179345e+001 8.281901e+001 6.035040e+001 8.232048e+001 1.020461e+002 2.967269e+000 2.072641e+000 2.730783e+000 5.586876e+000 3.741166e+000 3.539111e+000 3.939578e+000 4.103052e+000 5.172519e+000 4.211981e+000 2.825475e+000 5.509513e+000 3.566962e+000 1.602221e-001 4.242849e-001 4.419594e-001 8.175446e-001 3.718156e-001 6.970044e-001 7.282800e-001 7.623901e-001 9.073512e-001 8.686199e-001 5.460231e-001 1.201040e+000 7.403547e-001 2.769731e-002
<GCONST> 1.331781e+002
<TRANSP> 5
 0.000000e+000 1.000000e+000 0.000000e+000 0.000000e+000 0.000000e+000
 0.000000e+000 7.660415e-001 2.339585e-001 0.000000e+000 0.000000e+000
 0.000000e+000 0.000000e+000 4.176666e-001 5.823334e-001 0.000000e+000
 0.000000e+000 0.000000e+000 0.000000e+000 7.897271e-001 2.102729e-001
 0.000000e+000 0.000000e+000 0.000000e+000 0.000000e+000 0.000000e+000
<ENDHMM>
~h "w"
<BEGINHMM>
<NUMSTATES> 5
<STATE> 2
<MEAN> 39
 -3.666085e+000 2.982818e+000 1.238248e+001 -2.833025e+001 -1.509401e+001 -5.148321e+000 -1.145530e+001 -2.150037e+001 1.819762e+000 -4.177280e-001 -1.457090e+001 3.267107e+000 1.685782e+001 5.634203e-003 4.793658e-001 -4.855050e-001 5.003865e-001 -2.145989e-001 1.292928e-001 -7.709273e-001 1.883468e-001 3.588306e-001 4.695987e-002 2.355900e-001 -1.114792e-001 -2.276548e-001 2.893784e-002 1.665007e-003 -1.025957e-001 1.299210e-001 4.505263e-002 2.726775e-002 -9.737246e-002 4.492851e-002 6.594713e-003 -2.573991e-002 4.528318e-002 -5.556737e-002 -2.753835e-002
<VARIANCE> 39
 3.733102e+001 6.371109e+001 1.207341e+002 2.020304e+002 4.580332e+001 5.687614e+001 1.443195e+002 1.101083e+002 5.856197e+001 1.166825e+002 4.733261e+001 1.811075e+002 1.087198e+001 1.209109e+000 1.212298e+000 2.830945e+000 3.321256e+000 2.425010e+000 3.488734e+000 4.428916e+000 3.344359e+000 3.311794e+000 2.916418e+000 2.237159e+000 2.836014e+000 1.046713e-001 1.143454e-001 1.788893e-001 4.316514e-001 3.449534e-001 4.572528e-001 6.887254e-001 8.130869e-001 6.650398e-001 5.317907e-001 5.787834e-001 2.949144e-001 5.160866e-001 9.322452e-003
<GCONST> 1.213764e+002
<STATE> 3
<MEAN> 39
 -9.245585e+000 7.087562e+000 -7.232562e+000 -1.009327e+001 -9.062910e+000 -7.259542e+000 -1.864259e+001 -7.314294e+000 6.915252e+000 -3.102647e+000 -2.448807e+000 3.135340e+000 1.141391e+001 -8.021495e-001 -1.356927e-001 -3.424719e-001 7.571477e-001 9.756083e-001 -4.585954e-002 1.665704e+000 9.922115e-001 -4.934319e-001 -3.235174e-002 5.350475e-001 -4.410360e-002 -4.520103e-002 -8.138758e-002 -2.050677e-002 4.908357e-002 1.135963e-001 5.577970e-002 -1.245417e-001 3.480082e-001 5.453622e-002 5.894723e-002 7.013275e-002 4.884551e-002 -6.091718e-002 7.782266e-002
<VARIANCE> 39
 8.338130e+001 3.248754e+001 3.314818e+001 8.337764e+001 1.715317e+002 1.084304e+002 1.556766e+002 7.422316e+001 8.142665e+001 3.204940e+001 1.041297e+002 9.490367e+001 1.061696e+001 5.092328e+000 3.249521e+000 4.212717e+000 5.714545e+000 6.405678e+000 6.411245e+000 1.374862e+001 4.326979e+000 5.565128e+000 5.429337e+000 7.519124e+000 3.594267e+000 3.982288e-001 6.829095e-001 5.310545e-001 1.044470e+000 6.862856e-001 9.819093e-001 1.507983e+000 1.858760e+000 7.859275e-001 9.688932e-001 9.708180e-001 1.328764e+000 5.255834e-001 6.377050e-002
<GCONST> 1.419440e+002
<STATE> 4
<MEAN> 39
 -1.477898e+001 8.367838e-001 -1.412737e-001 -8.788722e+000 -6.256444e+000 -3.077274e+001 -1.931925e+000 -9.386829e-001 1.451303e+001 -6.675895e+000 -2.473494e+000 2.942628e+000 1.687958e+001 -4.266881e-002 -2.875706e-001 -2.892654e-001 -6.706560e-001 2.235802e-001 -8.595693e-001 1.578990e-001 -4.875634e-001 6.242406e-001 -1.698582e-001 -1.260838e-001 -4.437546e-001 4.482213e-001 2.428776e-001 -1.346240e-001 -1.673465e-001 -2.359827e-001 7.062271e-002 3.435020e-001 -2.209007e-001 -2.070368e-001 -1.085109e-001 -2.009910e-002 -1.442365e-001 -4.809557e-002 -2.159720e-002
<VARIANCE> 39
 1.081329e+002 4.531645e+001 9.184750e+001 1.404636e+002 5.322775e+001 2.071689e+002 7.102312e+001 4.444539e+001 1.309143e+002 9.434721e+001 1.051477e+002 3.969795e+001 1.236593e+001 1.006862e+001 3.515984e+000 8.571356e+000 1.505525e+001 4.566145e+000 1.588666e+001 6.638783e+000 6.114546e+000 5.823904e+000 1.189362e+001 9.535453e+000 2.922922e+000 9.833263e-001 1.553867e+000 5.320510e-001 1.558238e+000 2.498982e+000 1.018237e+000 1.609945e+000 1.348067e+000 1.198794e+000 1.099640e+000 2.371766e+000 1.382174e+000 5.882257e-001 1.644594e-001
<GCONST> 1.523312e+002
<TRANSP> 5
 0.000000e+000 1.000000e+000 0.000000e+000 0.000000e+000 0.000000e+000
 0.000000e+000 9.690754e-001 3.092461e-002 0.000000e+000 0.000000e+000
 0.000000e+000 0.000000e+000 9.319527e-001 6.804733e-002 0.000000e+000
 0.000000e+000 0.000000e+000 0.000000e+000 9.532335e-001 4.676650e-002
 0.000000e+000 0.000000e+000 0.000000e+000 0.000000e+000 0.000000e+000
<ENDHMM>
~h "x"
<BEGINHMM>
<NUMSTATES> 5
<STATE> 2
<MEAN> 39
 -3.581030e+000 -2.334029e+001 -6.190932e+000 -1.661514e+001 4.975203e+000 -2.975997e+000 -1.232715e+000 -8.841023e+000 -2.119612e+000 -1.122424e+001 -1.405719e+001 -2.876475e+000 1.867040e+001 3.914120e-001 3.562186e-001 2.218700e-001 8.395421e-001 -4.476280e-002 2.241505e-001 -3.087472e-001 2.812418e-001 -7.422009e-001 -3.100742e-001 -4.423586e-001 -2.771324e-001 -1.631162e-001 -3.002648e-002 5.312373e-002 -1.097506e-001 5.181650e-002 5.721475e-002 2.380748e-002 4.124136e-002 5.251700e-002 2.268546e-001 2.759656e-002 -1.155081e-002 -4.357733e-002 9.704576e-004
<VARIANCE> 39
 3.227558e+001 3.542434e+001 5.976182e+001 5.731613e+001 4.545338e+001 8.616553e+001 6.694894e+001 3.705478e+001 6.903255e+001 4.397013e+001 4.209066e+001 1.882273e+001 3.461070e+000 1.131589e+000 3.370842e+000 2.374591e+000 2.249435e+000 2.572302e+000 2.358757e+000 4.351867e+000 4.474822e+000 4.901684e+000 4.089003e+000 2.848598e+000 1.537121e+000 2.057557e-001 2.030645e-001 5.127250e-001 2.375854e-001 2.609148e-001 5.541402e-001 4.670110e-001 7.805845e-001 9.108155e-001 5.619212e-001 6.840589e-001 4.625039e-001 2.936814e-001 2.935057e-002
<GCONST> 1.163447e+002
<STATE> 3
<MEAN> 39
 3.369870e+000 -1.795836e+001 -1.103420e+001 -5.226612e+000 -6.276398e-001 -1.124390e+000 -7.276258e-001 -8.761161e+000 -1.558776e+000 -1.096091e+001 -1.869235e+001 -9.879766e+000 1.766624e+001 8.180989e-002 3.524915e-001 -2.480029e-001 1.119121e-001 -5.029985e-002 5.191296e-002 -2.981054e-001 -8.831874e-002 1.044854e-001 3.194206e-001 -1.577337e-001 -3.517490e-001 -4.406187e-002 -2.282052e-002 -7.508838e-002 1.685947e-002 -3.222808e-002 -2.176894e-002 -3.848734e-003 -1.953135e-002 -8.041354e-003 2.486356e-002 3.816871e-002 6.709483e-002 5.282201e-002 1.416295e-002
<VARIANCE> 39
 4.405677e+001 3.523190e+001 1.395354e+002 1.116222e+002 1.060356e+002 9.898648e+001 5.887338e+001 2.892846e+001 5.962711e+001 5.484898e+001 2.577627e+001 5.014647e+001 2.383625e+000 9.921101e-001 2.483479e+000 2.513229e+000 2.118596e+000 5.398571e+000 2.890831e+000 4.894843e+000 3.390739e+000 4.767200e+000 3.047877e+000 3.186021e+000 1.882467e+000 1.270298e-001 1.822393e-001 3.052199e-001 4.168248e-001 3.974325e-001 8.140612e-001 4.915710e-001 8.851464e-001 6.782773e-001 9.554467e-001 4.831723e-001 6.099874e-001 3.714851e-001 1.697154e-002
<GCONST> 1.195912e+002
<STATE> 4
<MEAN> 39
 -8.406991e+000 -4.975204e+000 1.369562e+001 -2.799061e+001 -1.150794e+001 -4.415881e+000 6.034353e+000 -1.903675e+001 7.430208e+000 1.946349e+000 -1.875325e+001 -1.340668e+001 1.826458e+001 -2.097959e-001 3.869688e-002 5.407771e-001 -5.336274e-001 -4.894050e-001 9.796829e-003 3.809752e-001 -1.005529e-001 2.833329e-001 2.490549e-001 2.093148e-001 3.198251e-001 1.611595e-002 1.761553e-003 1.484923e-002 -4.147210e-002 7.700937e-002 -4.129524e-002 -2.755602e-002 1.326365e-001 -1.192696e-002 -1.513926e-001 -6.716365e-002 1.328211e-001 3.881446e-002 -7.335575e-003
<VARIANCE> 39
 3.964935e+001 7.064407e+001 1.531708e+002 2.412676e+002 1.343282e+002 9.562909e+001 1.554556e+002 5.360523e+001 3.267894e+001 1.333587e+002 3.157014e+001 3.200626e+001 3.601593e+000 3.092454e+000 3.018142e+000 6.219436e+000 5.005376e+000 3.261019e+000 3.697403e+000 7.843852e+000 4.924105e+000 3.939596e+000 4.181623e+000 4.103013e+000 2.655994e+000 6.613354e-002 4.652558e-001 4.583981e-001 7.404406e-001 4.439900e-001 4.466944e-001 4.070075e-001 1.428152e+000 8.579644e-001 8.260140e-001 7.782487e-001 5.608048e-001 5.645190e-001 5.588494e-003
<GCONST> 1.285517e+002
<TRANSP> 5
 0.000000e+000 1.000000e+000 0.000000e+000 0.000000e+000 0.000000e+000
 0.000000e+000 9.330183e-001 6.698170e-002 0.000000e+000 0.000000e+000
 0.000000e+000 0.000000e+000 9.492092e-001 5.079083e-002 0.000000e+000
 0.000000e+000 0.000000e+000 0.000000e+000 9.591250e-001 4.087504e-002
 0.000000e+000 0.000000e+000 0.000000e+000 0.000000e+000 0.000000e+000
<ENDHMM>
~h "z"
<BEGINHMM>
<NUMSTATES> 5
<STATE> 2
<MEAN> 39
 -1.194045e+001 -2.010921e+001 2.929239e+000 -1.945005e+001 2.149991e+000 -1.496686e+001 8.642658e+000 -7.359851e+000 -1.071557e+000 -1.575468e+001 6.235039e-001 -5.056882e+000 2.074222e+001 1.566330e-001 -2.325020e-002 -1.633103e-001 2.118231e-001 1.171149e-001 4.485179e-002 -2.896919e-001 -3.531473e-002 5.750082e-002 -1.114756e-001 -1.567096e-001 8.558691e-002 -5.656055e-002 2.819794e-002 -1.057927e-002 -1.317901e-002 -1.003300e-003 2.642631e-002 -1.006098e-004 -4.078339e-002 2.073651e-002 1.434079e-002 1.238879e-002 3.776765e-004 2.843459e-002 -6.892262e-005
<VARIANCE> 39
 2.416741e+001 2.553576e+001 2.913114e+001 4.779912e+001 7.775543e+001 5.203761e+001 6.481467e+001 4.134607e+001 5.240782e+001 6.759483e+001 5.053702e+001 3.738074e+001 3.093438e+000 1.069169e+000 1.468981e+000 1.381204e+000 2.617246e+000 3.327193e+000 1.786377e+000 3.515128e+000 3.025691e+000 2.981581e+000 3.728566e+000 2.430940e+000 2.663815e+000 1.414464e-001 1.699445e-001 2.414276e-001 2.218267e-001 3.934741e-001 5.371128e-001 3.136860e-001 5.223792e-001 5.616947e-001 5.768374e-001 6.126557e-001 4.524653e-001 5.070769e-001 2.029446e-002
<GCONST> 1.115408e+002
<STATE> 3
<MEAN> 39
 -7.366143e+000 -2.254787e+001 -9.751226e-001 -1.948724e+001 9.457804e+000 -1.032884e+001 6.476378e-001 -7.613301e+000 -6.110490e+000 -1.387209e+001 -4.790297e+000 -1.230333e+000 2.054154e+001 1.468622e-001 -1.020205e-001 -1.469370e-001 -1.150515e-002 2.683788e-001 4.982862e-002 -3.701083e-001 2.433375e-001 6.394372e-002 1.415198e-001 -8.172867e-002 1.325616e-001 -5.072671e-002 -9.250023e-003 -1.420241e-003 9.721746e-004 -1.343142e-003 -5.537731e-002 3.800825e-002 5.748131e-003 2.915460e-002 2.849764e-002 3.182741e-002 -7.283609e-003 -3.415180e-002 -2.033919e-003
<VARIANCE> 39
 1.697127e+001 2.692609e+001 3.120181e+001 8.418269e+001 7.417092e+001 1.141747e+002 3.598752e+001 3.965874e+001 1.019075e+002 6.301374e+001 6.220110e+001 4.196080e+001 1.563882e+000 6.131638e-001 1.234973e+000 9.673150e-001 1.755023e+000 2.576896e+000 3.506470e+000 2.840772e+000 2.194473e+000 2.297576e+000 2.454360e+000 2.172333e+000 2.301337e+000 6.328442e-002 9.691188e-002 1.690398e-001 1.592651e-001 2.808990e-001 4.537041e-001 4.621455e-001 5.922247e-001 3.772039e-001 4.696631e-001 3.916243e-001 4.443631e-001 3.876598e-001 7.156352e-003
<GCONST> 1.052546e+002
<STATE> 4
<MEAN> 39
 -3.440366e+000 -2.566286e+001 -6.329312e+000 -1.916230e+001 1.094054e+001 3.549176e+000 -5.308791e+000 -2.438324e+000 -4.290074e+000 -6.383096e+000 -1.301266e+001 2.278335e+000 1.947078e+001 2.020214e-001 1.159008e-001 -3.424419e-001 9.805457e-002 -2.374534e-002 2.507974e-001 -5.234457e-001 2.835294e-001 1.683131e-001 3.085213e-001 -4.598552e-001 4.422770e-001 -9.555454e-002 -2.990400e-003 2.635143e-002 -2.825831e-002 1.018739e-001 -3.621659e-002 -8.515345e-002 1.987295e-002 1.745730e-002 1.375381e-002 -4.518763e-002 -2.799485e-004 -3.070785e-002 -1.436309e-002
<VARIANCE> 39
 3.128592e+001 3.147242e+001 9.100785e+001 6.282280e+001 8.843949e+001 1.566026e+002 4.890854e+001 9.731116e+001 1.360853e+002 6.901061e+001 6.030770e+001 4.744437e+001 1.281759e+000 5.517652e-001 8.199535e-001 1.166236e+000 2.458389e+000 2.227759e+000 2.474747e+000 2.378787e+000 2.404080e+000 3.368215e+000 2.597872e+000 1.842780e+000 2.692088e+000 6.832200e-002 8.128622e-002 1.441776e-001 1.662960e-001 3.623609e-001 3.429565e-001 2.868845e-001 4.305542e-001 3.627108e-001 5.646775e-001 4.559644e-001 2.877438e-001 4.869319e-001 8.904994e-003
<GCONST> 1.079031e+002
<TRANSP> 5
 0.000000e+000 1.000000e+000 0.000000e+000 0.000000e+000 0.000000e+000
 0.000000e+000 9.546589e-001 4.534110e-002 0.000000e+000 0.000000e+000
 0.000000e+000 0.000000e+000 9.180112e-001 8.198877e-002 0.000000e+000
 0.000000e+000 0.000000e+000 0.000000e+000 8.820832e-001 1.179168e-001
 0.000000e+000 0.000000e+000 0.000000e+000 0.000000e+000 0.000000e+000
<ENDHMM>
~h "@@"
<BEGINHMM>
<NUMSTATES> 5
<STATE> 2
<MEAN> 39
 -4.018563e+000 -1.365184e+001 -9.590226e+000 -1.896861e+001 -1.118947e+000 -5.215009e+000 -2.681178e+000 -8.683096e+000 2.566146e+000 -7.253774e+000 -6.996501e+000 -3.635297e+000 1.847602e+001 2.026513e-001 -1.447429e-001 -8.339719e-002 6.712666e-001 8.044361e-002 5.656521e-002 -4.205937e-001 3.307154e-001 -7.362614e-001 -1.195934e-001 -2.977358e-002 3.038515e-001 -1.516441e-001 2.244364e-002 1.022527e-001 -1.314597e-001 -3.192949e-002 1.575055e-001 1.323324e-001 4.244428e-002 2.035209e-003 -3.025079e-003 3.137729e-002 1.146898e-001 2.828721e-002 -8.536280e-003
<VARIANCE> 39
 8.183311e+001 1.981463e+002 1.073352e+002 1.130989e+002 1.317335e+002 1.879380e+002 1.017345e+002 9.107663e+001 7.617681e+001 9.884123e+001 5.376038e+001 6.576051e+001 7.071701e+000 1.081731e+000 3.170748e+000 2.750386e+000 3.456344e+000 3.436181e+000 5.036290e+000 4.056469e+000 3.607278e+000 4.749269e+000 3.679668e+000 4.398926e+000 3.627354e+000 1.500886e-001 1.868675e-001 5.111232e-001 4.417332e-001 6.314988e-001 6.047547e-001 8.747425e-001 5.753706e-001 6.975515e-001 8.292397e-001 7.000793e-001 7.139575e-001 6.172468e-001 1.808405e-002
<GCONST> 1.312814e+002
<STATE> 3
<MEAN> 39
 -7.429233e-001 -1.372529e+001 -1.278044e+001 -1.561876e+001 -2.111335e+000 -3.638223e+000 -4.650798e+000 -7.651472e+000 -1.140343e+000 -4.960514e+000 -6.914376e+000 -3.168155e+000 1.770618e+001 2.514045e-001 2.212400e-001 -5.032104e-001 4.669778e-001 1.656800e-001 1.799819e-001 -1.877058e-001 4.402881e-001 -2.773611e-001 -3.678430e-002 1.077056e-001 1.313682e-002 -1.289985e-001 -3.322841e-002 2.518813e-002 -3.869355e-002 -6.149339e-002 1.217900e-002 -3.145634e-003 1.893382e-001 9.399340e-002 2.061921e-001 2.654236e-002 5.888170e-002 -2.704754e-002 8.876926e-003
<VARIANCE> 39
 9.952229e+001 1.640569e+002 1.270561e+002 1.297676e+002 1.494668e+002 1.526323e+002 1.126322e+002 1.224936e+002 9.686676e+001 9.824803e+001 6.756844e+001 8.271638e+001 8.261298e+000 8.411733e-001 1.998224e+000 2.472368e+000 3.267056e+000 3.302165e+000 3.781112e+000 3.356829e+000 3.505376e+000 4.379268e+000 3.151747e+000 3.690615e+000 3.681973e+000 7.721605e-002 1.723121e-001 3.334579e-001 4.200083e-001 4.865662e-001 6.028427e-001 6.501417e-001 6.399743e-001 6.690707e-001 7.644963e-001 5.093285e-001 6.144572e-001 6.359319e-001 1.255346e-002
<GCONST> 1.283376e+002
<STATE> 4
<MEAN> 39
 -8.192073e-001 -9.196015e+000 -1.617384e+001 -1.428917e+001 -3.461717e+000 -3.729869e+000 -5.183893e+000 -5.807203e+000 3.182157e-001 -2.642248e+000 -4.449460e+000 -2.510869e+000 1.621936e+001 -1.699851e-001 2.743005e-001 -1.725683e-001 2.975547e-001 2.397256e-001 2.382754e-001 6.269422e-001 6.540973e-001 2.391208e-001 7.245956e-003 3.721682e-002 -1.309317e-002 -9.733753e-002 -5.726146e-002 2.117711e-002 1.308839e-001 5.444931e-003 1.329092e-002 -2.484064e-002 1.434749e-001 -1.342829e-001 1.044564e-001 3.374534e-002 1.240145e-002 -5.645806e-002 2.005601e-002
<VARIANCE> 39
 1.034184e+002 1.917276e+002 1.334348e+002 1.310631e+002 1.765302e+002 1.408916e+002 1.210462e+002 1.270840e+002 1.031760e+002 1.235507e+002 1.175070e+002 8.560058e+001 1.391405e+001 1.285362e+000 3.144202e+000 3.363536e+000 3.552997e+000 4.028057e+000 4.795418e+000 4.911485e+000 4.980919e+000 5.710811e+000 3.701246e+000 3.973575e+000 3.168061e+000 9.428213e-002 2.169282e-001 4.239604e-001 5.259506e-001 6.342909e-001 7.553036e-001 8.703744e-001 7.896500e-001 7.870232e-001 1.032855e+000 6.585301e-001 7.632499e-001 5.369357e-001 1.705160e-002
<GCONST> 1.359357e+002
<TRANSP> 5
 0.000000e+000 1.000000e+000 0.000000e+000 0.000000e+000 0.000000e+000
 0.000000e+000 5.800674e-001 4.199326e-001 0.000000e+000 0.000000e+000
 0.000000e+000 0.000000e+000 6.393822e-001 3.606177e-001 0.000000e+000
 0.000000e+000 0.000000e+000 0.000000e+000 5.702865e-001 4.297135e-001
 0.000000e+000 0.000000e+000 0.000000e+000 0.000000e+000 0.000000e+000
<ENDHMM>
~h "aa"
<BEGINHMM>
<NUMSTATES> 5
<STATE> 2
<MEAN> 39
 -8.182120e+000 -1.733384e+001 -1.875950e+000 -2.339882e+001 4.839171e+000 -9.075388e+000 1.670550e+000 -5.890566e+000 1.680213e+000 -5.868412e+000 -3.020386e+000 -4.107370e+000 1.973932e+001 1.832073e-001 2.076248e-001 1.370024e-001 2.005034e-001 -1.322556e-001 -2.024654e-001 -2.527349e-001 -3.023139e-002 -1.100282e-001 7.135134e-003 -7.251493e-002 1.567418e-001 -1.202812e-001 6.209856e-003 2.605687e-002 -5.336981e-002 3.466149e-002 -4.369966e-002 -7.678550e-002 -2.349179e-002 2.336652e-002 2.855510e-003 -3.789458e-002 -7.342733e-003 7.857038e-002 -1.856665e-002
<VARIANCE> 39
 2.893790e+001 6.202703e+001 8.974265e+001 1.245422e+002 1.459923e+002 1.726722e+002 8.141507e+001 7.601210e+001 8.319591e+001 7.384664e+001 1.033411e+002 7.189543e+001 4.921693e+000 5.545365e-001 9.335502e-001 1.477600e+000 2.143082e+000 2.990149e+000 2.510284e+000 3.055169e+000 2.812826e+000 2.613121e+000 2.844512e+000 2.971325e+000 2.966570e+000 4.343804e-002 8.863970e-002 1.568453e-001 2.435713e-001 2.945173e-001 4.715678e-001 4.516031e-001 4.460380e-001 4.864056e-001 4.896989e-001 5.301275e-001 5.169483e-001 5.365234e-001 6.305890e-003
<GCONST> 1.146115e+002
<STATE> 3
<MEAN> 39
 -3.913423e+000 -1.551822e+001 -7.826652e+000 -1.771157e+001 9.128931e+000 -1.007248e+001 -6.499270e+000 -7.109194e-001 -1.349379e+000 -8.933490e+000 -8.151614e+000 1.939473e+000 1.764740e+001 1.200014e-001 5.154543e-001 -2.299943e-001 7.652429e-001 -2.716708e-001 -6.866948e-002 -5.183653e-001 4.519134e-001 -2.254440e-001 -3.007768e-001 -3.275958e-001 6.390700e-002 -1.797916e-001 -9.043598e-002 -7.952071e-004 -1.354908e-002 4.733203e-002 2.448092e-002 1.139529e-001 1.291065e-001 4.605245e-002 -5.001542e-002 -4.178441e-002 9.403881e-002 -1.200096e-001 6.181242e-003
<VARIANCE> 39
 5.767750e+001 7.560740e+001 1.412134e+002 1.970964e+002 2.444220e+002 2.394503e+002 9.093404e+001 1.228890e+002 8.548382e+001 6.534933e+001 1.303525e+002 6.450391e+001 5.605852e+000 9.157574e-001 1.023308e+000 2.324674e+000 3.428258e+000 2.731691e+000 2.940848e+000 3.544590e+000 3.400877e+000 3.212574e+000 3.414181e+000 3.135495e+000 4.367661e+000 6.042315e-002 1.067362e-001 1.622443e-001 3.658253e-001 5.178977e-001 5.391281e-001 5.953839e-001 6.447851e-001 7.995675e-001 5.649608e-001 8.130271e-001 7.536274e-001 6.816399e-001 7.952066e-003
<GCONST> 1.249716e+002
<STATE> 4
<MEAN> 39
 -4.951528e+000 -1.587215e+001 -1.036422e+001 -1.277168e+001 6.308595e+000 -6.218147e+000 -3.296262e+000 6.067658e-001 4.649131e-001 -8.394669e+000 -9.399924e+000 2.419511e+000 1.702604e+001 -1.374971e-001 4.060090e-001 -1.399091e-001 8.283653e-001 -1.613012e-001 4.221045e-001 3.333799e-002 5.014837e-001 -1.666869e-001 -1.560259e-001 3.261736e-001 -1.572108e-001 -1.736412e-001 -6.485303e-002 8.613738e-002 4.700357e-002 -1.384771e-001 -5.734896e-003 1.125729e-001 1.915868e-001 -1.360671e-001 -1.832357e-002 3.132126e-002 2.391101e-001 -2.648114e-002 9.030656e-003
<VARIANCE> 39
 7.266843e+001 8.081878e+001 1.615502e+002 1.822211e+002 2.109150e+002 1.902715e+002 1.258287e+002 1.341996e+002 7.773697e+001 6.462843e+001 1.514729e+002 6.888263e+001 6.450178e+000 1.268774e+000 1.810765e+000 3.263275e+000 3.556900e+000 3.093530e+000 4.055768e+000 3.958994e+000 3.676377e+000 3.853758e+000 4.817294e+000 5.518225e+000 3.487509e+000 6.485590e-002 2.375412e-001 2.384137e-001 5.862991e-001 8.282924e-001 7.049522e-001 8.677434e-001 9.431494e-001 9.174274e-001 8.154043e-001 9.017565e-001 1.262576e+000 5.725192e-001 1.872949e-002
<GCONST> 1.334128e+002
<TRANSP> 5
 0.000000e+000 1.000000e+000 0.000000e+000 0.000000e+000 0.000000e+000
 0.000000e+000 8.289341e-001 1.710659e-001 0.000000e+000 0.000000e+000
 0.000000e+000 0.000000e+000 5.599723e-001 4.400277e-001 0.000000e+000
 0.000000e+000 0.000000e+000 0.000000e+000 4.776849e-001 5.223151e-001
 0.000000e+000 0.000000e+000 0.000000e+000 0.000000e+000 0.000000e+000
<ENDHMM>
~h "ee"
<BEGINHMM>
<NUMSTATES> 5
<STATE> 2
<MEAN> 39
 -1.017287e+001 8.849152e+000 -1.269689e+000 -1.918609e+001 -1.436798e+001 -2.949220e+001 -2.959072e+000 -6.355679e-001 1.869075e+001 -8.715874e+000 -4.831094e+000 1.149981e+001 1.593098e+001 3.845616e-001 1.705620e-001 2.919297e-001 -4.582995e-001 -4.491382e-001 1.606329e-001 -4.367820e-001 -1.108791e-002 1.585600e-002 3.525069e-001 -1.167195e-001 3.637807e-001 -1.396258e-001 -3.515710e-002 -8.266257e-002 -2.901410e-002 1.082269e-001 1.024781e-001 9.759757e-002 4.096111e-002 -3.009762e-002 -7.397657e-002 -5.893899e-003 3.995302e-002 -8.183524e-002 9.751945e-003
<VARIANCE> 39
 6.263989e+001 6.835514e+001 9.146221e+001 1.838707e+002 8.299140e+001 2.419319e+002 7.979111e+001 1.078376e+002 1.839209e+002 1.328977e+002 8.944730e+001 1.438418e+002 8.807411e+000 1.790167e+000 1.871556e+000 3.624177e+000 3.939229e+000 2.571714e+000 4.484733e+000 3.478161e+000 3.140655e+000 4.363014e+000 4.560719e+000 3.380679e+000 2.931752e+000 1.437453e-001 2.521118e-001 2.425901e-001 5.369304e-001 4.684525e-001 3.138014e-001 6.831592e-001 6.955159e-001 6.066163e-001 7.265111e-001 7.922747e-001 4.701171e-001 3.372885e-001 1.863770e-002
<GCONST> 1.295735e+002
<STATE> 3
<MEAN> 39
 -1.330894e+001 9.978413e+000 -2.518147e+000 -4.413117e+000 -7.671866e+000 -1.243336e+001 -4.951863e+000 1.676348e+000 6.129372e+000 -9.894196e+000 -3.769591e+000 3.490013e+000 1.230874e+001 -7.817873e-001 -1.078468e+000 8.139035e-002 1.407165e+000 7.063065e-001 1.239336e+000 5.943422e-001 9.104897e-001 -4.476320e-002 -1.837453e-001 3.290217e-001 -3.261718e-001 -2.225812e-001 6.069256e-002 -1.070804e-001 -1.285883e-001 -1.822733e-001 -8.468176e-002 -1.773308e-001 3.196852e-001 -1.731502e-001 5.641776e-002 1.850614e-001 5.316121e-002 -2.893400e-001 3.619119e-002
<VARIANCE> 39
 1.187210e+002 6.072214e+001 6.130920e+001 1.652876e+002 1.793469e+002 3.345979e+002 1.234514e+002 1.063790e+002 1.068326e+002 1.580327e+002 1.235579e+002 6.511226e+001 2.125983e+001 3.068718e+000 2.101129e+000 2.487946e+000 4.888475e+000 4.526611e+000 6.202944e+000 5.700006e+000 5.846440e+000 4.417038e+000 8.652163e+000 3.141464e+000 3.751112e+000 1.996223e-001 5.454108e-001 3.639724e-001 4.758516e-001 9.673654e-001 9.933188e-001 2.115692e+000 1.317739e+000 1.128848e+000 8.416561e-001 1.660465e+000 5.764762e-001 6.680579e-001 5.995710e-002
<GCONST> 1.430682e+002
<STATE> 4
<MEAN> 39
 -2.051579e+001 3.608080e+000 5.074480e+000 -6.950041e+000 -2.254622e+000 -4.499563e+000 1.907194e+000 -1.659328e+000 5.895517e+000 -4.932125e+000 6.643794e-001 -6.449912e-001 1.352523e+001 -3.420185e-002 -1.457751e+000 1.148130e+000 -1.463453e+000 -9.871437e-001 2.352471e-001 1.113706e+000 -1.289349e+000 -2.876716e-001 9.424543e-001 -1.774330e-001 -1.294808e+000 4.094694e-001 2.016908e-001 -4.922343e-002 -1.496488e-001 2.618417e-002 2.014298e-001 -3.160459e-001 9.386069e-002 -1.121454e-001 -2.163014e-001 -2.826588e-001 -1.178890e-001 1.183110e-001 9.392496e-002
<VARIANCE> 39
 6.527477e+001 5.926953e+001 1.620620e+002 2.375026e+002 1.173129e+002 2.304612e+002 9.935130e+001 1.378962e+002 1.077855e+002 9.411401e+001 4.217782e+001 7.033814e+001 2.168608e+001 9.306799e+000 3.991524e+000 6.180269e+000 7.855352e+000 1.577141e+001 2.627420e+001 9.057859e+000 6.646291e+000 6.519839e+000 1.302727e+001 2.935045e+000 5.948241e+000 7.429542e-001 1.219880e+000 6.658402e-001 9.306263e-001 1.464223e+000 2.844181e+000 3.174327e+000 1.103533e+000 1.047267e+000 1.594235e+000 2.185445e+000 5.581586e-001 1.363654e+000 1.559192e-001
<GCONST> 1.567126e+002
<TRANSP> 5
 0.000000e+000 1.000000e+000 0.000000e+000 0.000000e+000 0.000000e+000
 0.000000e+000 8.785993e-001 1.214007e-001 0.000000e+000 0.000000e+000
 0.000000e+000 0.000000e+000 4.669195e-001 5.330805e-001 0.000000e+000
 0.000000e+000 0.000000e+000 0.000000e+000 7.128666e-001 2.871335e-001
 0.000000e+000 0.000000e+000 0.000000e+000 0.000000e+000 0.000000e+000
<ENDHMM>
~h "j^"
<BEGINHMM>
<NUMSTATES> 5
<STATE> 2
<MEAN> 39
 -1.008758e+001 -2.179719e+001 -4.722077e+000 -1.609279e+001 1.346831e+000 -6.503782e+000 1.173690e+001 -1.030864e+001 5.531260e+000 -1.013932e+001 8.912509e-001 -3.543261e+000 2.009411e+001 -4.180442e-002 -2.358298e-001 3.222204e-001 -1.063761e+000 -1.780445e-001 -4.790308e-002 8.888063e-001 -8.345543e-001 -8.889396e-002 9.260831e-001 -4.384887e-001 -7.377998e-001 3.962257e-001 -4.161566e-001 5.367748e-001 4.238578e-001 3.677272e-001 -3.397009e-001 -2.398061e-002 -3.365473e-004 5.369198e-001 5.072001e-002 -4.730346e-002 6.857105e-002 2.538343e-003 -1.470446e-001
<VARIANCE> 39
 3.294538e+001 6.002250e+001 1.689599e+002 9.879145e+001 1.024529e+002 1.532223e+002 6.506209e+001 1.331443e+002 1.645160e+002 9.104189e+001 5.888216e+001 6.472241e+001 9.502938e+000 2.972166e+000 2.550410e+000 3.897985e+000 9.664934e+000 3.448200e+000 4.692367e+000 5.494430e+000 9.407377e+000 4.863084e+000 5.848687e+000 5.608783e+000 3.936687e+000 2.177637e-001 5.505347e-001 4.082303e-001 7.940274e-001 1.176195e+000 5.937473e-001 5.451664e-001 1.294644e+000 1.176220e+000 1.274570e+000 9.260287e-001 7.603632e-001 9.502560e-001 2.304387e-002
<GCONST> 1.389327e+002
<STATE> 3
<MEAN> 39
 -1.074063e+001 -2.044736e+001 -1.722936e+000 -2.091719e+001 -5.867497e+000 -7.717942e+000 1.801188e+001 -1.053031e+001 4.657631e+000 -6.547936e+000 -2.271468e+000 -5.432942e+000 2.012526e+001 -2.001004e-001 5.429285e-001 8.128955e-001 -8.724760e-001 -3.325473e-001 -6.546798e-002 1.557919e-001 4.107305e-001 -5.010446e-001 4.069811e-001 -3.409016e-001 -9.530871e-002 -4.821083e-002 8.880835e-002 6.792761e-002 -7.664611e-002 1.275229e-001 1.152625e-001 7.291491e-002 -2.168959e-001 2.747693e-002 -5.436456e-002 -2.044978e-001 -5.678399e-002 1.317297e-001 -6.577107e-002
<VARIANCE> 39
 2.804441e+001 6.088128e+001 1.561732e+002 1.371551e+002 1.003196e+002 1.753350e+002 1.121555e+002 9.316788e+001 1.639453e+002 6.270137e+001 8.473622e+001 3.744346e+001 7.981524e+000 1.104324e+000 9.235615e-001 1.561777e+000 3.757243e+000 3.544055e+000 4.190410e+000 4.394017e+000 4.633923e+000 2.963534e+000 3.993184e+000 2.959177e+000 3.635321e+000 8.712672e-002 2.374631e-001 1.841618e-001 3.611321e-001 6.410722e-001 6.275359e-001 9.297786e-001 5.852861e-001 8.614214e-001 6.574709e-001 7.917324e-001 7.286582e-001 6.587225e-001 1.704247e-002
<GCONST> 1.261306e+002
<STATE> 4
<MEAN> 39
 -7.020153e+000 -2.175807e+001 -5.175385e+000 -2.040265e+001 8.079152e+000 -6.380334e-001 5.270995e-001 -5.235402e+000 -2.628166e-002 -6.320006e+000 -6.641102e+000 -5.188684e+000 1.971111e+001 8.992592e-002 1.516222e-001 -3.072012e-002 6.104116e-002 2.271887e-001 2.113162e-001 -2.424617e-001 -1.122471e-002 -1.902028e-001 -1.582944e-002 -4.013369e-001 2.254950e-002 -9.310682e-002 1.641311e-002 -3.641953e-002 -9.184385e-002 1.273610e-002 -5.482181e-002 -4.754132e-002 -2.237683e-002 1.457775e-002 2.799054e-002 -2.579084e-002 6.848517e-002 5.684022e-002 -7.352359e-003
<VARIANCE> 39
 2.752728e+001 4.726705e+001 7.187283e+001 7.054413e+001 8.915102e+001 2.424579e+002 1.151145e+002 6.963032e+001 7.185360e+001 9.208727e+001 5.778109e+001 3.201684e+001 5.406579e+000 8.655217e-001 1.601824e+000 1.309598e+000 1.889701e+000 2.321571e+000 2.605022e+000 2.803058e+000 3.689116e+000 2.979550e+000 2.501442e+000 2.320707e+000 1.840304e+000 6.597271e-002 1.484187e-001 2.141388e-001 2.087140e-001 3.155538e-001 3.945727e-001 4.180105e-001 4.742793e-001 5.845978e-001 4.771689e-001 4.271975e-001 4.189863e-001 3.890253e-001 9.085217e-003
<GCONST> 1.131085e+002
<TRANSP> 5
 0.000000e+000 1.000000e+000 0.000000e+000 0.000000e+000 0.000000e+000
 0.000000e+000 4.775337e-001 5.224663e-001 0.000000e+000 0.000000e+000
 0.000000e+000 0.000000e+000 6.891657e-001 3.108343e-001 0.000000e+000
 0.000000e+000 0.000000e+000 0.000000e+000 8.287992e-001 1.712008e-001
 0.000000e+000 0.000000e+000 0.000000e+000 0.000000e+000 0.000000e+000
<ENDHMM>
~h "k^"
<BEGINHMM>
<NUMSTATES> 5
<STATE> 2
<MEAN> 39
 -7.660162e+000 -1.393449e+001 -1.251043e+001 -1.373137e+001 1.130964e+001 1.796829e+000 -3.245594e+000 -8.997257e+000 7.302473e+000 -8.167789e+000 -8.879834e+000 -5.064810e-001 1.723789e+001 2.836345e-001 4.272365e-002 5.455961e-001 -2.310242e+000 2.389950e-002 6.951557e-001 -1.887839e-002 -8.024783e-002 9.971969e-001 1.938114e-001 2.594413e-001 2.874423e-002 2.425151e-001 1.976537e-001 -2.131195e-001 2.416408e-001 -3.153615e-001 -5.294455e-001 -3.608596e-001 -1.895628e-001 -2.236141e-001 -4.387126e-002 2.062471e-001 -1.767501e-001 -1.012038e-001 1.424142e-001
<VARIANCE> 39
 5.498785e+001 1.013578e+002 2.121244e+002 2.096174e+002 1.620912e+002 2.422870e+002 8.565372e+001 9.613458e+001 1.049363e+002 4.833120e+001 9.228806e+001 5.349321e+001 4.652614e+000 7.948795e+000 4.239056e+000 8.810998e+000 1.044405e+001 8.871512e+000 4.857330e+000 5.571253e+000 3.503196e+000 8.823915e+000 5.208950e+000 8.968740e+000 4.293420e+000 2.617858e-001 9.328271e-001 4.096535e-001 8.644473e-001 1.273149e+000 1.153752e+000 6.536037e-001 7.420095e-001 6.872222e-001 1.777182e+000 9.863626e-001 1.134754e+000 6.779950e-001 3.748630e-002
<GCONST> 1.452790e+002
<STATE> 3
<MEAN> 39
 -5.529553e+000 -1.251193e+001 -7.966036e+000 -2.379605e+001 6.305251e+000 -5.650775e-001 -3.225494e+000 -1.153776e+001 8.666548e+000 -5.327523e+000 -9.465651e+000 -9.086660e-001 1.863123e+001 1.156769e+000 -6.410792e-001 1.623638e-001 -1.437036e+000 -1.704391e+000 2.002569e-002 -7.822468e-001 -3.846198e-001 1.078714e-001 6.652147e-001 2.286974e-002 -1.823186e-001 4.937226e-001 -1.934745e-001 -1.483031e-001 3.399827e-002 6.044488e-001 -1.349207e-001 -3.473074e-001 -4.994786e-002 -2.408923e-002 -2.411543e-001 -2.752254e-001 -5.490570e-002 -1.932104e-001 5.051684e-003
<VARIANCE> 39
 6.479481e+001 1.218991e+002 2.259949e+002 9.140027e+001 1.907887e+002 2.672238e+002 9.348869e+001 1.135647e+002 1.024151e+002 4.676696e+001 6.548780e+001 5.025108e+001 4.204534e+000 5.504426e+000 4.099020e+000 5.278003e+000 8.947858e+000 8.662960e+000 5.686679e+000 4.196207e+000 4.290425e+000 5.639999e+000 5.547926e+000 9.904325e+000 4.026662e+000 4.267238e-001 9.301196e-001 6.023141e-001 1.372855e+000 1.094476e+000 1.208062e+000 7.979109e-001 8.056306e-001 1.021497e+000 9.433895e-001 9.284757e-001 1.191975e+000 5.854869e-001 4.940044e-002
<GCONST> 1.448389e+002
<STATE> 4
<MEAN> 39
 -1.830361e+000 -1.727035e+001 -8.118469e+000 -2.244044e+001 -7.777081e-002 -1.255326e+000 -4.929297e+000 -1.139913e+001 9.637006e+000 -6.734488e+000 -1.136335e+001 -2.359337e+000 1.980784e+001 1.180366e-001 -4.886867e-001 3.194259e-001 7.693352e-001 -8.198656e-001 -1.235233e+000 6.029675e-001 -3.276744e-001 -5.150147e-001 -7.859640e-001 -5.170450e-002 -5.466509e-001 1.862742e-001 -2.576239e-001 2.966616e-001 3.162398e-003 4.957541e-001 1.546230e-001 -3.537985e-001 4.697208e-001 -4.689255e-002 -3.936751e-001 -1.081688e-001 3.501751e-001 -2.221086e-002 -1.451293e-001
<VARIANCE> 39
 6.636820e+001 1.286115e+002 1.642018e+002 9.021472e+001 1.608229e+002 3.217845e+002 9.905093e+001 8.955164e+001 9.755755e+001 5.184613e+001 8.442294e+001 5.512985e+001 4.177393e+000 1.429459e+000 3.434597e+000 7.564251e+000 6.437317e+000 5.151117e+000 9.346404e+000 7.882759e+000 6.856983e+000 6.110840e+000 5.344401e+000 5.460496e+000 2.460637e+000 3.359554e-001 4.022867e-001 5.156543e-001 1.036935e+000 1.086152e+000 8.524168e-001 9.771669e-001 1.094816e+000 8.489667e-001 8.033528e-001 1.001940e+000 1.304999e+000 5.681081e-001 2.430503e-002
<GCONST> 1.410720e+002
<TRANSP> 5
 0.000000e+000 1.000000e+000 0.000000e+000 0.000000e+000 0.000000e+000
 0.000000e+000 4.275046e-001 5.724954e-001 0.000000e+000 0.000000e+000
 0.000000e+000 0.000000e+000 3.632539e-001 6.367461e-001 0.000000e+000
 0.000000e+000 0.000000e+000 0.000000e+000 4.454424e-001 5.545576e-001
 0.000000e+000 0.000000e+000 0.000000e+000 0.000000e+000 0.000000e+000
<ENDHMM>
~h "kh"
<BEGINHMM>
<NUMSTATES> 5
<STATE> 2
<MEAN> 39
 -7.041425e+000 -2.493903e+001 -1.084439e+001 -2.066351e+001 8.365293e+000 5.044384e+000 -7.959207e-001 -1.635721e+000 8.311542e-001 2.203941e+000 -6.842692e+000 -3.678854e+000 1.996805e+001 -2.364798e-002 -1.249174e-001 4.126209e-002 -9.823339e-002 2.854356e-001 5.461363e-002 -1.825262e-001 4.749647e-001 2.392623e-001 1.167328e-001 -2.005097e-001 5.329545e-001 -8.541699e-002 -6.420766e-003 1.171946e-002 1.193409e-002 8.295029e-002 3.249359e-002 -7.404499e-002 3.123135e-002 -5.140780e-002 -9.925375e-002 -3.947198e-002 3.694534e-003 6.790528e-002 -1.831794e-002
<VARIANCE> 39
 1.644735e+001 2.915369e+001 2.206834e+001 9.314853e+001 7.700288e+001 1.190752e+002 6.135076e+001 1.245919e+002 1.032826e+002 9.378041e+001 7.694746e+001 5.131695e+001 2.277095e+000 1.178781e+000 9.918504e-001 1.549133e+000 2.885835e+000 2.337184e+000 4.178383e+000 3.174368e+000 3.904080e+000 3.400028e+000 4.437676e+000 4.518908e+000 2.573872e+000 1.287013e-001 1.895194e-001 1.240511e-001 2.640961e-001 5.102186e-001 3.490367e-001 6.046936e-001 5.617598e-001 6.183718e-001 6.141150e-001 8.165528e-001 7.499538e-001 4.386463e-001 2.161160e-002
<GCONST> 1.173889e+002
<STATE> 3
<MEAN> 39
 -8.369358e+000 -2.504172e+001 -1.420090e+001 -1.995026e+001 1.292153e+001 -2.090410e-001 2.724059e-001 -5.445541e+000 1.073058e+001 -4.381899e+000 -9.443825e+000 4.178039e+000 1.861881e+001 -2.378604e-001 -7.860561e-002 1.602039e-002 6.654795e-002 5.833068e-001 -2.512557e-001 5.268037e-002 -3.745252e-001 2.314347e-001 -5.081150e-001 5.194135e-001 4.509701e-002 1.243286e-001 -2.698872e-003 1.374935e-002 1.888659e-002 6.231108e-002 -1.212064e-001 -1.649090e-002 4.616106e-002 -9.016266e-002 7.986110e-002 -3.405434e-002 1.353023e-001 -1.679818e-001 2.625957e-002
<VARIANCE> 39
