~o
<STREAMINFO> 1 39
<VECSIZE> 39<NULLD><MFCC_E_D_A><DIAGC>
~h "@"
<BEGINHMM>
<NUMSTATES> 5
<STATE> 2
<MEAN> 39
 -2.959720e+000 -1.761650e+001 -2.039103e+001 1.512278e+001 2.186186e+001 2.446006e+000 -8.946760e+000 -2.860731e+000 -5.752349e+000 -4.971770e+000 -8.634698e+000 1.760191e+000 1.485690e+001 -1.923068e-001 5.892775e-001 -2.805070e-001 1.378442e+000 7.065712e-002 -3.726674e-001 -1.190259e+000 -3.117953e-001 -1.165000e-001 -4.836866e-001 1.131307e+000 9.603685e-002 -2.187801e-001 -1.121643e-001 1.495234e-001 -5.777548e-002 -3.282288e-001 -1.818190e-003 -6.783367e-002 4.356610e-002 -6.857730e-002 -6.596022e-002 -1.340940e-001 1.006087e-001 -1.100414e-001 -5.041122e-003
<VARIANCE> 39
 3.452265e+001 2.473458e+001 2.771255e+001 6.869704e+001 3.779916e+001 2.460450e+002 1.543180e+002 4.669194e+001 2.517887e+002 1.152403e+002 1.241897e+002 3.782920e+001 4.527416e+000 8.047279e-001 7.263854e-001 7.546204e-001 4.526112e+000 3.088357e+000 1.102165e+000 2.433338e+000 2.256190e+000 3.022183e+000 2.014748e+000 1.321090e+000 2.216191e+000 9.165630e-002 1.087355e-001 8.498518e-002 2.043267e-001 3.636527e-001 2.864897e-001 3.252553e-001 4.756123e-001 6.888502e-001 7.262067e-001 4.748899e-001 3.386744e-001 2.593710e-001 1.344505e-002
<GCONST> 1.097712e+002
<STATE> 3
<MEAN> 39
 -9.333619e+000 -9.360864e+000 -2.545280e+001 9.807214e+000 1.839759e+001 1.635326e+000 -1.087010e+001 -6.890497e+000 -4.429094e+000 -7.031600e+000 -9.046720e-001 -1.230653e+000 1.331094e+001 -1.954890e+000 1.493288e+000 3.712772e-001 -8.681843e-001 -1.959632e-002 -2.036873e+000 1.812459e-001 -2.934544e+000 -3.939154e-001 -1.749111e+000 -1.149652e-001 1.184059e-001 1.634374e-001 -3.175042e-001 -2.434099e-001 6.195540e-001 2.166484e-001 2.363331e-001 -3.062426e-001 6.051434e-001 3.161925e-001 6.122549e-001 2.908141e-001 5.086302e-002 8.187950e-002 1.315523e-001
<VARIANCE> 39
 9.040624e+001 1.926226e+001 3.369712e+001 3.099160e+001 1.212731e+002 1.903198e+002 1.001577e+002 6.643321e+001 1.293647e+002 4.672506e+001 2.056280e+002 2.510511e+001 6.481400e+000 2.208143e+000 2.051873e+000 4.367938e+000 1.972926e+000 6.223769e+000 2.163827e+000 3.959543e+000 3.602052e+000 4.729807e+000 1.916947e+000 3.524701e+000 1.083011e+000 3.841927e-001 2.780109e-001 4.135748e-001 5.985818e-001 4.138384e-001 1.168930e+000 1.064686e+000 5.687527e-001 1.378758e+000 9.705608e-001 2.562920e-001 7.703897e-001 3.277297e-001 2.498111e-002
<GCONST> 1.255354e+002
<STATE> 4
<MEAN> 39
 -1.672354e+001 -6.729991e+000 -1.434294e+001 6.337657e+000 1.361808e+001 -9.060896e+000 -2.667884e+000 -9.762749e+000 -2.932721e+000 -7.982337e+000 -1.475412e+000 5.602080e-001 1.426552e+001 -9.078150e-001 1.027859e+000 2.302116e+000 -2.082081e+000 -7.973377e-001 -2.878396e+000 1.807681e+000 -1.180750e-001 3.435350e-001 5.872368e-001 1.814166e+000 -6.151167e-001 4.958467e-001 3.627162e-001 -7.549968e-002 -1.630420e-001 -4.719595e-001 -1.803579e-001 -1.566653e-001 -4.752439e-001 1.878745e-001 5.679701e-002 3.092320e-001 1.243987e-001 -4.266684e-001 1.223474e-001
<VARIANCE> 39
 1.286343e+002 2.660099e+001 6.511356e+001 9.072636e+001 6.103624e+001 1.117656e+002 1.959758e+002 1.196704e+002 1.043107e+002 5.246835e+001 1.165580e+002 5.189312e+001 1.290004e+001 1.526790e+001 2.993150e+000 4.920361e+000 9.996956e+000 2.028564e+001 6.916870e+000 2.188737e+001 7.491809e+000 7.246659e+000 5.047281e+000 1.958799e+001 3.455106e+000 3.015044e-001 1.334365e+000 5.880234e-001 4.782664e-001 1.000831e+000 1.470369e+000 7.933633e-001 2.452535e+000 6.933727e-001 1.196773e+000 8.110458e-001 2.528018e+000 6.015725e-001 4.491341e-002
<GCONST> 1.486307e+002
<TRANSP> 5
 0.000000e+000 1.000000e+000 0.000000e+000 0.000000e+000 0.000000e+000
 0.000000e+000 8.502196e-001 1.497804e-001 0.000000e+000 0.000000e+000
 0.000000e+000 0.000000e+000 6.524064e-001 3.475936e-001 0.000000e+000
 0.000000e+000 0.000000e+000 0.000000e+000 6.653064e-001 3.346936e-001
 0.000000e+000 0.000000e+000 0.000000e+000 0.000000e+000 0.000000e+000
<ENDHMM>
~h "a"
<BEGINHMM>
<NUMSTATES> 5
<STATE> 2
<MEAN> 39
 -1.048255e+001 -8.089154e+000 -3.834190e+000 -6.840578e+000 3.479562e+000 -5.381981e+000 2.424147e+000 -3.255381e+000 2.755353e+000 -6.194476e+000 -1.176854e+000 4.660752e-001 1.581427e+001 -1.410024e-001 -1.041401e+000 6.981192e-001 -6.235222e-001 -1.390094e-001 -5.919749e-001 5.327685e-001 -1.000354e+000 -1.634877e-001 -8.526166e-001 1.878564e-001 -1.324390e-001 4.036475e-001 1.573198e-001 -1.768569e-001 -1.954391e-001 -9.238073e-002 4.139167e-002 1.999752e-001 -6.482232e-002 -9.197611e-002 -6.083681e-002 -3.836419e-002 -1.447016e-001 -7.427996e-002 6.995659e-002
<VARIANCE> 39
 1.002724e+002 1.502434e+002 1.818144e+002 2.286748e+002 1.391657e+002 2.345641e+002 1.382174e+002 1.867766e+002 1.092546e+002 1.614614e+002 1.561217e+002 7.763011e+001 1.602012e+001 6.836913e+000 6.516876e+000 1.128944e+001 9.566575e+000 8.513753e+000 1.111247e+001 1.048584e+001 1.196945e+001 9.125157e+000 1.137131e+001 1.042943e+001 7.047250e+000 6.439139e-001 9.555852e-001 6.981407e-001 1.710462e+000 1.663679e+000 1.197860e+000 1.478227e+000 1.610730e+000 1.605623e+000 1.609105e+000 2.337841e+000 1.853924e+000 1.275028e+000 8.459369e-002
<GCONST> 1.626773e+002
<STATE> 3
<MEAN> 39
 -7.566271e+000 -1.403083e+001 -3.583629e+000 -1.511609e+001 3.524973e+000 -1.026834e+001 1.775069e+000 -9.182984e+000 1.945804e-001 -1.119469e+001 -4.121296e+000 -2.004619e+000 1.860039e+001 1.154374e+000 -9.124497e-001 -9.750196e-001 -4.809525e-001 -3.427131e-001 6.082467e-001 -4.779566e-001 -4.966078e-001 -7.632321e-001 -3.971815e-001 -8.532102e-001 -6.364230e-001 2.419408e-001 -1.329957e-001 1.674525e-001 2.122585e-003 1.739953e-002 3.466174e-002 1.531121e-001 4.937024e-002 3.582769e-001 7.527360e-002 3.972690e-001 5.641431e-002 9.188224e-002 -1.640895e-002
<VARIANCE> 39
 6.494363e+001 9.407497e+001 1.681769e+002 1.515163e+002 1.531923e+002 2.054608e+002 1.335829e+002 1.380838e+002 1.252645e+002 1.172179e+002 1.279205e+002 7.378413e+001 6.753920e+000 4.649608e+000 4.553425e+000 5.379303e+000 9.448415e+000 6.480879e+000 4.478263e+000 7.897383e+000 1.042875e+001 8.554140e+000 7.381151e+000 6.534056e+000 4.476877e+000 3.290106e-001 6.832172e-001 4.635179e-001 1.055855e+000 8.081396e-001 6.639246e-001 8.807231e-001 1.121688e+000 1.577304e+000 1.213021e+000 1.133647e+000 8.984966e-001 7.456592e-001 2.812295e-002
<GCONST> 1.476194e+002
<STATE> 4
<MEAN> 39
 -3.982330e+000 -1.655443e+001 -9.399675e+000 -1.414326e+001 4.589409e+000 -8.272173e+000 -1.191048e+000 -8.156157e+000 1.120229e+000 -9.782137e+000 -7.963576e+000 -2.628200e+000 1.870493e+001 4.109824e-001 -1.857018e-001 -4.551192e-001 -2.421496e-002 -1.856874e-001 4.952192e-001 -1.372012e-001 2.187186e-001 -4.749656e-001 4.631415e-001 -1.100712e-001 -7.865675e-002 1.921373e-003 -2.294152e-001 1.781189e-001 9.511689e-002 1.054683e-001 4.378803e-002 -2.596274e-002 9.406184e-002 1.584180e-001 1.656612e-001 2.070755e-001 1.585180e-001 1.676017e-001 -3.719164e-002
<VARIANCE> 39
 5.610363e+001 8.411400e+001 1.256298e+002 1.434702e+002 1.820579e+002 2.076254e+002 1.080752e+002 1.201390e+002 8.998492e+001 8.022174e+001 1.036695e+002 6.969952e+001 6.724912e+000 1.696977e+000 2.929023e+000 2.835612e+000 6.227651e+000 3.282712e+000 3.442524e+000 4.265006e+000 6.012854e+000 5.360129e+000 5.067826e+000 4.766190e+000 4.048099e+000 2.545916e-001 4.132513e-001 3.797978e-001 6.624033e-001 6.665075e-001 5.922717e-001 6.751223e-001 8.179140e-001 1.132015e+000 7.724424e-001 8.287846e-001 6.341463e-001 7.348959e-001 2.471270e-002
<GCONST> 1.360878e+002
<TRANSP> 5
 0.000000e+000 1.000000e+000 0.000000e+000 0.000000e+000 0.000000e+000
 0.000000e+000 5.297954e-001 4.702046e-001 0.000000e+000 0.000000e+000
 0.000000e+000 0.000000e+000 1.743468e-001 8.256532e-001 0.000000e+000
 0.000000e+000 0.000000e+000 0.000000e+000 4.390762e-001 5.609238e-001
 0.000000e+000 0.000000e+000 0.000000e+000 0.000000e+000 0.000000e+000
<ENDHMM>
~h "b"
<BEGINHMM>
<NUMSTATES> 5
<STATE> 2
<MEAN> 39
 -7.976295e-001 -1.649675e+001 -1.265851e+001 -3.159882e+001 1.455359e+001 -9.296316e-001 -9.525208e+000 -7.672570e-001 -6.653888e+000 -8.305875e+000 -7.034155e+000 -4.091763e+000 1.992726e+001 3.458129e-001 -6.682090e-003 -4.745424e-001 2.368928e-001 -7.035076e-001 3.183573e-001 -3.803766e-001 4.766644e-001 -2.770773e-001 3.074810e-001 2.528932e-001 6.815555e-002 -9.718411e-002 2.633872e-002 7.003810e-002 -1.121943e-002 -2.179967e-002 -7.550320e-002 -2.823451e-002 -1.942354e-002 -2.471861e-002 8.085828e-002 9.615105e-002 -4.985045e-002 -4.773584e-003 -4.808111e-003
<VARIANCE> 39
 1.309260e+001 3.241358e+001 5.812223e+001 1.190233e+002 1.022341e+002 2.599582e+002 7.255656e+001 2.868449e+001 4.662211e+001 1.849774e+002 5.787447e+001 3.358561e+001 1.737017e+000 5.307356e-001 7.543115e-001 1.543551e+000 2.146956e+000 3.960527e+000 1.312887e+000 1.393784e+000 1.852007e+000 3.474404e+000 1.516005e+000 2.035028e+000 1.852884e+000 4.255079e-002 8.140160e-002 7.923475e-002 1.808695e-001 3.298167e-001 6.346372e-001 2.424358e-001 2.555786e-001 4.522186e-001 5.695134e-001 1.906984e-001 3.057183e-001 3.922816e-001 3.819820e-003
<GCONST> 1.024955e+002
<STATE> 3
<MEAN> 39
 8.378977e-001 -1.405650e+001 -1.630487e+001 -3.579155e+001 5.719652e+000 9.323711e+000 -8.087694e+000 4.171525e+000 -5.037213e+000 4.215811e+000 8.394073e-001 -2.550146e+000 1.918663e+001 -6.157440e-002 3.554357e-001 -8.066988e-002 7.152994e-001 -3.997693e-001 -4.336572e-001 7.920486e-002 -1.352048e-001 -1.345201e-001 -2.807625e-001 -7.627615e-002 3.773941e-001 -1.319304e-001 -9.340799e-002 -3.657101e-002 3.894208e-002 1.346926e-001 2.853869e-002 -4.305398e-002 1.213384e-001 -9.510152e-002 7.585274e-002 3.186810e-002 -8.501098e-002 -5.964423e-002 1.271854e-002
<VARIANCE> 39
 2.905610e+001 7.055330e+001 1.852875e+002 1.244980e+002 1.062386e+002 1.111540e+002 6.136972e+001 3.339342e+001 3.597515e+001 1.284317e+002 5.843629e+001 3.435526e+001 6.130070e+000 6.530073e-001 1.491465e+000 9.689955e-001 1.187043e+000 2.312658e+000 1.868631e+000 2.589339e+000 1.737471e+000 1.009000e+000 1.785579e+000 2.348366e+000 1.519269e+000 4.964922e-002 6.934320e-002 9.928645e-002 1.262329e-001 2.063767e-001 2.290595e-001 2.458260e-001 4.926567e-001 2.334043e-001 3.186528e-001 2.422025e-001 3.068641e-001 2.557964e-001 5.375030e-003
<GCONST> 1.021476e+002
<STATE> 4
<MEAN> 39
 -9.323599e-001 6.756472e+000 -9.615291e+000 1.551787e-001 1.466898e+000 1.269916e+001 1.040993e+001 9.427779e+000 2.672735e+000 3.288344e+000 1.022095e+001 6.095039e+000 1.370490e+001 -3.085921e-001 3.704286e-001 8.458202e-001 1.149674e+000 4.493480e-001 3.157212e-001 3.483231e-001 -1.754015e-002 -1.323662e-001 -5.755453e-002 -2.810479e-001 3.516628e-002 -6.450399e-002 3.586846e-002 -5.258037e-002 -6.721682e-002 9.209357e-003 4.736232e-002 6.581700e-003 -1.123230e-002 -1.909225e-002 2.299350e-002 -5.864063e-002 -4.677542e-002 -1.262597e-001 1.879892e-002
<VARIANCE> 39
 1.993557e+001 1.710473e+002 1.527432e+002 3.289964e+002 7.052201e+001 1.681385e+002 1.198620e+002 7.001733e+001 3.641595e+001 8.977310e+001 1.284499e+002 2.411438e+001 8.397014e+000 4.686545e-001 5.457790e-001 1.832776e+000 2.474543e+000 3.351681e+000 4.074336e+000 4.399088e+000 1.998708e+000 1.819152e+000 2.081119e+000 2.107292e+000 1.227509e+000 6.766796e-002 7.658301e-002 8.034287e-002 1.423389e-001 1.625509e-001 4.276355e-001 8.063825e-001 1.045807e+000 4.625108e-001 4.209168e-001 4.018672e-001 3.210455e-001 2.015062e-001 1.333814e-002
<GCONST> 1.123555e+002
<TRANSP> 5
 0.000000e+000 1.000000e+000 0.000000e+000 0.000000e+000 0.000000e+000
 0.000000e+000 8.384292e-001 1.615708e-001 0.000000e+000 0.000000e+000
 0.000000e+000 0.000000e+000 8.027856e-001 1.972144e-001 0.000000e+000
 0.000000e+000 0.000000e+000 0.000000e+000 7.574826e-001 2.425174e-001
 0.000000e+000 0.000000e+000 0.000000e+000 0.000000e+000 0.000000e+000
<ENDHMM>
~h "d"
<BEGINHMM>
<NUMSTATES> 5
<STATE> 2
<MEAN> 39
 -4.626383e-001 -2.952875e+000 -1.380461e+000 -2.090978e+001 -1.024919e+001 -8.410389e+000 -8.771832e+000 -1.409165e+001 -1.047466e+000 4.586155e+000 -7.615559e+000 -4.321788e+000 1.633899e+001 -7.055944e-001 -8.944285e-002 1.608853e+000 -1.325965e-001 -1.133591e+000 -1.099986e+000 3.377129e-001 2.083201e-001 1.195495e-001 -6.605336e-001 5.570779e-001 5.210910e-001 2.188979e-001 -3.438527e-001 -6.917527e-002 3.402893e-001 1.301287e-001 5.751583e-003 -1.921614e-001 1.340153e-001 7.108991e-002 1.266073e-001 -2.204476e-001 1.445473e-001 -2.306725e-001 8.771591e-002
<VARIANCE> 39
 3.812967e+001 4.681101e+001 1.566796e+002 9.405742e+001 1.196609e+002 3.550526e+002 1.712781e+002 3.052652e+002 2.254606e+002 8.791996e+001 4.474958e+001 1.003535e+002 3.997872e+000 4.316645e+000 5.824192e+000 1.472215e+001 4.893953e+000 5.686628e+000 2.030686e+001 1.241034e+001 8.460103e+000 4.123443e+000 4.956856e+000 5.927388e+000 4.788241e+000 4.251206e-001 6.913167e-001 7.960097e-001 2.517996e+000 7.890165e-001 6.978195e-001 3.626466e+000 2.383937e+000 2.209608e+000 5.266883e-001 8.096256e-001 7.601913e-001 6.979263e-001 6.860277e-002
<GCONST> 1.509002e+002
<STATE> 3
<MEAN> 39
 -7.229192e+000 -2.923271e+000 1.340097e+001 -1.383958e+001 -1.878777e+001 -1.919406e+001 -3.376883e+000 -7.084818e+000 -3.039441e+000 -5.901013e+000 -2.688720e+000 -6.493687e+000 1.797368e+001 -7.913454e-001 8.382967e-001 9.012337e-001 -3.049793e-002 -3.709987e-001 3.298853e-001 -2.036158e-001 -6.319479e-001 8.222511e-001 -4.378719e-002 -1.003156e-001 -8.968102e-001 1.083797e-001 1.821443e-001 -1.805714e-001 -1.281490e-001 -2.277861e-001 3.261178e-002 2.254368e-001 8.481716e-002 7.548374e-002 -7.053734e-002 1.528728e-001 -3.073286e-001 1.880137e-001 -1.264028e-002
<VARIANCE> 39
 6.752097e+001 1.499491e+002 1.344827e+002 9.588371e+001 1.969584e+002 1.420110e+002 8.664968e+001 1.906595e+002 2.793918e+002 5.721299e+001 5.238101e+001 3.914658e+001 4.374948e+000 3.736427e+000 4.722100e+000 5.367918e+000 5.964520e+000 6.692961e+000 8.597229e+000 7.184119e+000 8.945112e+000 4.532292e+000 6.845362e+000 4.747519e+000 3.994693e+000 4.054634e-001 6.176196e-001 9.186396e-001 1.241698e+000 1.057706e+000 1.159232e+000 1.685727e+000 1.284899e+000 1.678795e+000 7.367749e-001 1.417738e+000 7.905650e-001 6.405101e-001 5.078819e-002
<GCONST> 1.466513e+002
<STATE> 4
<MEAN> 39
 -9.273172e+000 -1.412237e+000 2.297171e+001 -2.105792e+001 -2.084234e+001 -3.252241e+000 2.981067e+000 -1.365127e+001 -1.428614e+000 8.820093e+000 -8.398473e+000 -8.030955e+000 1.817733e+001 2.915292e-001 2.032551e-001 -1.156251e-001 5.603253e-001 2.002427e-001 4.574967e-001 2.919869e-002 8.996511e-002 -1.742460e-001 -1.250070e-001 -4.799424e-001 -3.433350e-002 -1.518370e-001 7.701873e-002 1.132813e-001 -1.938210e-001 1.569935e-001 1.308738e-001 -1.461883e-001 -5.075338e-002 5.240486e-002 -2.568310e-002 -2.258895e-001 5.017177e-002 2.427033e-002 -3.671744e-002
<VARIANCE> 39
 4.474806e+001 5.171298e+001 1.455749e+002 2.261200e+002 8.685123e+001 1.954415e+002 6.630942e+001 6.795011e+001 8.626451e+001 8.157294e+001 5.314451e+001 2.873090e+001 1.105314e+001 1.124784e+000 3.290808e+000 2.323984e+000 5.006461e+000 3.648463e+000 6.380445e+000 3.021985e+000 4.452323e+000 4.476004e+000 3.581695e+000 5.322656e+000 2.615074e+000 1.530298e-001 2.526929e-001 5.944306e-001 4.865518e-001 5.944267e-001 1.057130e+000 7.546793e-001 6.056072e-001 5.813184e-001 6.131718e-001 8.887951e-001 1.049364e+000 5.952482e-001 2.180539e-002
<GCONST> 1.303018e+002
<TRANSP> 5
 0.000000e+000 1.000000e+000 0.000000e+000 0.000000e+000 0.000000e+000
 0.000000e+000 7.717547e-001 2.282453e-001 0.000000e+000 0.000000e+000
 0.000000e+000 0.000000e+000 8.182544e-001 1.817456e-001 0.000000e+000
 0.000000e+000 0.000000e+000 0.000000e+000 8.291527e-001 1.708473e-001
 0.000000e+000 0.000000e+000 0.000000e+000 0.000000e+000 0.000000e+000
<ENDHMM>
~h "f"
<BEGINHMM>
<NUMSTATES> 5
<STATE> 2
<MEAN> 39
 -3.610797e+000 -4.860669e+000 -6.615754e+000 -7.766084e+000 -1.995045e+000 -5.583083e+000 -5.456002e+000 -1.946051e+000 8.488888e-001 -1.444685e+000 -3.370191e+000 -2.109112e+000 1.463429e+001 -1.093678e-001 -3.557346e-001 5.535960e-001 8.095080e-002 -8.456151e-001 -8.315116e-001 -4.985013e-001 2.684180e-001 1.928730e+000 5.834144e-001 -1.363744e-001 3.021167e-001 -4.085385e-004 1.120969e-002 -1.332312e-001 1.304317e-001 -3.446957e-001 8.525619e-002 -3.621113e-001 -1.811055e-001 -3.205785e-001 3.888969e-001 -1.217588e-001 -5.856301e-002 7.734015e-003 1.628223e-001
<VARIANCE> 39
 9.225082e+001 8.121312e+001 1.170469e+002 1.496354e+002 1.406806e+002 2.338526e+002 1.997697e+002 2.148399e+002 1.345734e+002 1.834928e+002 1.035051e+002 7.119635e+001 9.389039e+000 3.078806e+000 3.134500e+000 8.656904e+000 9.476836e+000 5.688176e+000 1.085930e+001 1.503001e+001 8.492599e+000 1.011072e+001 5.163529e+000 6.006433e+000 5.873944e+000 3.581013e-001 6.102236e-001 5.306549e-001 1.241935e+000 1.219211e+000 1.016399e+000 1.843931e+000 2.477535e+000 1.918578e+000 1.929417e+000 9.565247e-001 1.314915e+000 1.159310e+000 7.090000e-002
<GCONST> 1.546974e+002
<STATE> 3
<MEAN> 39
 -5.086138e+000 -1.767564e+000 3.508934e+000 -1.834842e+001 -2.482383e+000 -1.252419e+001 -1.544597e+001 -8.162056e+000 2.457892e+000 -7.267904e+000 -6.183710e+000 4.713527e+000 1.626198e+001 5.430877e-002 1.855243e-001 1.482969e-001 1.192505e-001 -7.217812e-001 -2.035235e-001 -3.499724e-002 -3.874398e-001 4.759957e-001 2.971385e-001 4.071845e-002 -2.602147e-001 -9.231048e-003 -1.471925e-001 -1.057239e-002 -1.117702e-001 1.276261e-001 1.945790e-001 1.473479e-001 3.835148e-001 -4.374686e-003 -1.113812e-001 -2.598220e-001 1.478089e-002 -1.889574e-001 1.885127e-002
<VARIANCE> 39
 8.467692e+001 8.411736e+001 4.073711e+002 6.733024e+001 9.597331e+001 1.913888e+002 1.863647e+002 1.344482e+002 1.505412e+002 8.092377e+001 9.190476e+001 1.869964e+002 7.002835e+000 2.406079e+000 2.552242e+000 6.435715e+000 8.207182e+000 6.805442e+000 9.419288e+000 9.961511e+000 7.698724e+000 6.577838e+000 4.554022e+000 7.058499e+000 9.120076e+000 3.606555e-001 2.878352e-001 2.710936e-001 4.279687e-001 6.381650e-001 1.083818e+000 1.291218e+000 9.398199e-001 1.385777e+000 8.902696e-001 9.543599e-001 1.074222e+000 1.244876e+000 2.380622e-002
<GCONST> 1.457891e+002
<STATE> 4
<MEAN> 39
 -4.747352e+000 -9.443159e+000 -8.240904e+000 -1.342860e+001 -1.147512e+000 -1.036719e+001 -5.001040e+000 -7.660926e+000 7.118567e+000 -3.882762e+000 -7.020275e+000 -1.327922e+000 1.660063e+001 -1.558907e+000 -2.414879e-002 5.871326e-001 2.836424e-001 2.539074e-001 -1.461220e+000 2.251126e+000 -6.106887e-001 9.296573e-001 -1.488707e+000 5.991725e-001 -5.119365e-001 4.733168e-001 -3.180663e-001 4.318460e-001 1.949702e-001 -2.928594e-001 2.726836e-001 -2.916003e-001 4.773954e-001 1.450389e-001 -2.192689e-001 -2.529678e-001 1.737619e-001 3.961980e-001 7.431429e-002
<VARIANCE> 39
 8.136122e+001 1.728383e+002 1.167564e+002 7.540845e+001 1.134828e+002 3.490594e+002 1.967413e+002 1.225992e+002 1.182773e+002 7.077768e+001 1.451446e+002 4.650324e+001 1.420679e+001 5.554432e+000 6.629384e+000 7.241899e+000 1.039060e+001 1.167574e+001 1.338576e+001 1.420217e+001 9.700761e+000 5.150172e+000 4.468692e+000 1.054064e+001 8.074187e+000 5.521438e-001 6.829833e-001 5.454262e-001 1.527382e+000 1.668225e+000 1.661007e+000 2.822068e+000 2.106180e+000 1.605596e+000 1.674701e+000 1.110237e+000 1.718453e+000 9.680000e-001 8.472133e-002
<GCONST> 1.577548e+002
<TRANSP> 5
 0.000000e+000 1.000000e+000 0.000000e+000 0.000000e+000 0.000000e+000
 0.000000e+000 5.618743e-001 4.381257e-001 0.000000e+000 0.000000e+000
 0.000000e+000 0.000000e+000 6.657258e-001 3.342742e-001 0.000000e+000
 0.000000e+000 0.000000e+000 0.000000e+000 3.398213e-001 6.601787e-001
 0.000000e+000 0.000000e+000 0.000000e+000 0.000000e+000 0.000000e+000
<ENDHMM>
~h "h"
<BEGINHMM>
<NUMSTATES> 5
<STATE> 2
<MEAN> 39
 -5.854102e+000 -1.770561e+001 -1.662269e+001 2.651630e+000 1.369467e+001 4.183630e+000 -7.135647e+000 -1.179034e+000 6.319114e-001 -4.689587e+000 -5.041514e+000 4.516048e+000 1.519569e+001 -5.021126e-001 5.733768e-001 3.881445e-001 4.665411e-001 3.977690e-001 -3.600486e-001 -2.347722e-001 3.579944e-001 3.143243e-001 -6.694804e-001 5.519912e-001 -1.732940e-001 -9.401866e-002 -2.332698e-001 1.609087e-001 3.724495e-001 -4.155456e-001 9.226385e-002 -3.637848e-001 1.422457e-001 -2.377404e-001 1.859977e-001 -1.788398e-001 1.707677e-001 -1.818350e-001 5.318735e-002
<VARIANCE> 39
 5.575024e+001 7.786856e+001 1.575939e+002 1.364398e+002 2.029177e+002 2.164510e+002 1.718173e+002 9.080598e+001 9.683871e+001 1.005823e+002 1.052641e+002 5.466283e+001 6.142845e+000 1.347624e+000 2.942770e+000 2.857358e+000 3.829702e+000 2.892275e+000 6.815641e+000 5.815876e+000 4.481817e+000 3.706427e+000 5.677713e+000 4.594447e+000 3.031749e+000 3.063063e-001 5.580925e-001 3.180646e-001 7.586601e-001 8.110564e-001 6.193154e-001 1.117840e+000 1.459283e+000 9.318319e-001 8.752331e-001 9.084406e-001 8.829268e-001 5.895492e-001 1.973061e-002
<GCONST> 1.374585e+002
<STATE> 3
<MEAN> 39
 -1.214294e+001 -1.490774e+001 -2.915112e+000 -4.321898e+000 7.211409e+000 -9.884066e+000 2.428142e+000 -1.953086e+000 -3.277175e-001 -1.484283e+001 -6.232911e-001 7.869461e-001 1.681675e+001 -2.595525e+000 8.185526e-002 2.847907e+000 -1.986935e+000 3.839403e-001 -2.654118e+000 2.704807e+000 -5.173978e-001 1.234101e+000 -1.379314e+000 1.439209e+000 -8.434511e-001 6.520710e-001 2.498841e-001 -1.075390e-001 -1.814750e-001 -2.485819e-001 -3.276156e-001 2.464294e-001 -1.398820e-001 -3.132427e-001 -1.281556e-001 3.893126e-001 -3.009507e-001 -1.309386e-001 3.917022e-002
<VARIANCE> 39
 1.197337e+002 4.157212e+001 1.841122e+002 1.279845e+002 1.897851e+002 2.188205e+002 2.076502e+002 1.506812e+002 1.129013e+002 1.230289e+002 1.873749e+002 7.122590e+001 5.974187e+000 7.906653e+000 5.302148e+000 1.474565e+001 8.875019e+000 6.502252e+000 1.553340e+001 1.880016e+001 1.219498e+001 7.372677e+000 1.171201e+001 7.395434e+000 4.313872e+000 4.673592e-001 1.749246e+000 6.652449e-001 2.956616e+000 1.646425e+000 8.954654e-001 3.091205e+000 3.909211e+000 2.419618e+000 1.336089e+000 1.748411e+000 1.187966e+000 8.104634e-001 7.180470e-002
<GCONST> 1.610644e+002
<STATE> 4
<MEAN> 39
 -1.599765e+001 -1.492782e+001 8.321419e-001 -1.192968e+001 5.201286e+000 -1.029932e+001 1.027485e+001 -7.605484e+000 3.211801e+000 -1.324303e+001 -4.766411e-001 -3.605463e+000 1.892571e+001 6.478469e-001 -1.892308e-001 -2.218781e-001 -6.582248e-001 -5.342764e-001 2.578489e-001 -1.330712e-001 -9.280267e-001 -4.749990e-001 1.740091e-001 -2.072897e-001 -5.454939e-001 1.449375e-001 6.207765e-001 2.760618e-002 -3.555645e-001 9.667332e-002 -3.090035e-001 1.973309e-001 -2.705264e-001 -3.035674e-001 -4.191866e-001 9.003758e-003 -2.521788e-001 6.689992e-002 -6.862271e-002
<VARIANCE> 39
 6.898624e+001 4.322606e+001 1.416926e+002 1.229661e+002 1.620428e+002 1.617719e+002 1.072358e+002 1.506645e+002 1.206283e+002 1.324334e+002 1.179053e+002 6.059151e+001 4.061135e+000 4.067738e+000 2.202693e+000 4.222632e+000 3.829074e+000 5.716810e+000 4.363735e+000 6.002203e+000 9.058009e+000 7.230562e+000 5.532018e+000 4.875574e+000 3.145120e+000 1.941840e-001 7.767003e-001 4.180394e-001 1.142002e+000 9.970142e-001 9.165041e-001 1.045285e+000 1.119228e+000 1.427373e+000 1.663490e+000 1.353247e+000 9.600474e-001 5.532503e-001 4.033735e-002
<GCONST> 1.426286e+002
<TRANSP> 5
 0.000000e+000 1.000000e+000 0.000000e+000 0.000000e+000 0.000000e+000
 0.000000e+000 6.449525e-001 3.550475e-001 0.000000e+000 0.000000e+000
 0.000000e+000 0.000000e+000 6.047982e-001 3.952018e-001 0.000000e+000
 0.000000e+000 0.000000e+000 0.000000e+000 6.503220e-001 3.496780e-001
 0.000000e+000 0.000000e+000 0.000000e+000 0.000000e+000 0.000000e+000
<ENDHMM>
~h "i"
<BEGINHMM>
<NUMSTATES> 5
<STATE> 2
<MEAN> 39
 -1.475860e+001 3.724668e+000 -8.520554e+000 -8.483315e+000 -2.263101e+000 -2.545071e+001 -3.956331e+000 -1.241015e+001 9.712567e+000 -6.696365e+000 -2.116385e+000 -7.735516e-001 1.879529e+001 -4.051246e-001 7.889343e-003 -1.065553e-001 3.765226e-002 1.208402e+000 9.690465e-003 3.692007e-001 3.828210e-001 1.703688e-002 5.772536e-001 1.125460e+000 7.824233e-001 1.414168e-001 -1.894793e-002 -1.850592e-001 9.561072e-002 4.785825e-003 -4.444543e-002 2.786844e-001 3.188404e-001 2.411058e-001 -8.619259e-002 2.967882e-001 2.276085e-001 -1.116823e-001 -5.099853e-002
<VARIANCE> 39
 7.460649e+001 2.002433e+002 8.018191e+001 1.037319e+002 9.275489e+001 1.098284e+002 4.444654e+001 6.855730e+001 5.218576e+001 1.279323e+002 9.507832e+001 7.027341e+001 1.257913e+000 1.658109e+000 4.051477e+000 4.459226e+000 3.455877e+000 4.016618e+000 4.613612e+000 5.170756e+000 3.138125e+000 3.654677e+000 1.985038e+000 7.662071e+000 4.890071e+000 1.501821e-001 3.728575e-001 7.519029e-001 7.127231e-001 9.021425e-001 9.720213e-001 5.201938e-001 7.892934e-001 6.346349e-001 4.999912e-001 5.462229e-001 1.364226e+000 9.306266e-001 2.972096e-002
<GCONST> 1.318022e+002
<STATE> 3
<MEAN> 39
 -1.480599e+001 -9.869333e-002 -1.118466e+001 -1.046384e+001 4.262728e+000 -2.329036e+001 2.194403e+000 -4.225784e+000 1.059383e+001 -8.019851e+000 6.340951e-002 1.482399e+000 1.881661e+001 1.099265e+000 -2.372228e+000 -7.083444e-001 -1.770157e+000 1.400804e+000 2.205808e+000 6.516111e-001 1.181906e+000 -1.022787e-001 -6.969293e-001 -1.410892e+000 -1.321934e-001 1.316037e-001 2.367975e-001 -2.717243e-001 1.147349e-001 -3.559866e-002 -5.481681e-002 1.885330e-001 -1.470886e-001 -2.025919e-001 -3.707490e-001 -2.442045e-001 -1.689959e-001 -2.393467e-002 5.305020e-002
<VARIANCE> 39
 7.180078e+001 1.680907e+002 8.156644e+001 1.521102e+002 4.664226e+001 1.644372e+002 4.386104e+001 1.113316e+002 7.535435e+001 8.540259e+001 7.963864e+001 2.669064e+001 1.325878e+000 4.845108e+000 1.176234e+001 5.130604e+000 1.042243e+001 3.018380e+000 5.804447e+000 4.762094e+000 2.695141e+000 7.075385e+000 5.182401e+000 4.514714e+000 2.896275e+000 1.565192e-001 8.221032e-001 1.390433e+000 9.937994e-001 2.041950e+000 4.609535e-001 8.302291e-001 9.772441e-001 9.386886e-001 1.674826e+000 7.899272e-001 1.066848e+000 6.846749e-001 2.686122e-002
<GCONST> 1.385526e+002
<STATE> 4
<MEAN> 39
 -2.622758e+000 -1.259372e+001 -1.315027e+001 -2.334946e+001 1.572352e+001 -2.298910e+000 -3.643810e+000 -2.337618e+000 5.004482e+000 -5.723790e+000 -2.586118e+000 -2.707061e+000 1.970159e+001 7.328604e-001 -1.209696e-001 -2.020674e-001 1.258801e-001 1.137719e-001 8.347074e-001 -4.260527e-001 -8.032040e-002 -9.523198e-001 4.106674e-001 -8.721630e-002 -3.460305e-001 -6.942487e-002 -3.788875e-002 1.694562e-001 -2.076480e-002 1.883695e-001 -9.141516e-002 -2.105164e-001 -5.939646e-002 1.310032e-002 3.638271e-002 -2.982392e-002 -8.532799e-003 1.052970e-002 -2.727407e-002
<VARIANCE> 39
 3.129338e+001 2.661603e+001 3.411919e+001 7.701911e+001 8.005280e+001 1.937180e+002 6.007615e+001 6.089071e+001 4.439157e+001 4.816808e+001 5.084903e+001 7.290578e+001 2.274117e+000 4.431948e-001 1.490229e+000 1.513107e+000 3.047082e+000 2.335348e+000 2.728592e+000 2.660757e+000 1.913522e+000 3.033988e+000 3.560380e+000 2.803101e+000 3.856330e+000 1.016684e-001 1.168575e-001 2.518256e-001 2.704560e-001 4.655682e-001 3.544028e-001 5.428761e-001 5.857187e-001 4.081206e-001 5.197497e-001 5.536551e-001 4.847316e-001 6.581001e-001 1.297644e-002
<GCONST> 1.124943e+002
<TRANSP> 5
 0.000000e+000 1.000000e+000 0.000000e+000 0.000000e+000 0.000000e+000
 0.000000e+000 6.560306e-001 3.439694e-001 0.000000e+000 0.000000e+000
 0.000000e+000 0.000000e+000 7.086808e-001 2.913192e-001 0.000000e+000
 0.000000e+000 0.000000e+000 0.000000e+000 8.543291e-001 1.456709e-001
 0.000000e+000 0.000000e+000 0.000000e+000 0.000000e+000 0.000000e+000
<ENDHMM>
~h "j"
<BEGINHMM>
<NUMSTATES> 5
<STATE> 2
<MEAN> 39
 -6.648396e+000 -1.939496e+001 -5.080266e+000 -2.365120e+001 3.687062e+000 -1.312841e+001 4.095439e+000 9.807695e-001 -1.486994e-001 7.266156e-002 -1.156326e+001 3.652195e+000 1.928709e+001 -6.940760e-002 -3.959577e-001 -7.772943e-002 -5.015496e-003 -1.081021e-002 1.249070e-001 1.780407e-001 3.415505e-001 1.665913e-002 1.852008e-002 2.948709e-001 -4.427891e-002 4.714049e-002 9.327148e-003 4.057702e-002 1.039729e-002 9.693068e-003 -3.987028e-002 2.596488e-002 -6.809485e-002 -3.558788e-002 2.195583e-003 -3.671277e-002 6.546602e-004 -6.047768e-002 -9.265864e-003
<VARIANCE> 39
 2.088009e+001 4.139668e+001 1.643150e+002 2.777614e+001 1.006344e+002 8.174250e+001 5.446187e+001 9.397826e+001 6.006949e+001 1.186139e+002 1.436758e+002 4.662357e+001 1.800452e+000 1.436373e+000 2.924379e+000 4.492834e+000 2.844728e+000 4.732542e+000 3.069817e+000 3.382228e+000 3.886194e+000 4.534586e+000 4.973872e+000 1.238639e+001 4.130108e+000 7.016718e-002 1.953231e-001 3.046124e-001 4.584319e-001 4.702243e-001 5.230466e-001 5.337915e-001 5.408808e-001 6.068500e-001 7.419517e-001 9.804713e-001 2.146616e+000 6.629820e-001 8.741098e-003
<GCONST> 1.248678e+002
<STATE> 3
<MEAN> 39
 -7.164919e+000 -1.850449e+001 2.299707e+000 -2.090567e+001 1.610550e+000 -2.507264e+001 8.257728e+000 -6.213986e+000 -2.128984e+000 -1.761213e+001 -6.839604e+000 5.818349e+000 2.007464e+001 1.619030e-001 7.264810e-002 -2.617787e-001 2.543884e-001 -8.979081e-002 4.851372e-001 3.397950e-001 2.656391e-001 -3.800576e-001 4.170381e-002 -1.088333e-001 -3.631965e-002 -7.409335e-002 2.794081e-002 5.336642e-003 -3.367869e-002 2.995497e-002 -1.293205e-002 2.958122e-002 -1.181405e-003 2.794736e-002 1.483828e-002 5.697130e-002 1.831340e-003 3.674157e-002 -1.676001e-002
<VARIANCE> 39
 1.275964e+001 1.831277e+001 2.504998e+001 2.506562e+001 3.081631e+001 5.050991e+001 4.661301e+001 4.029261e+001 4.032671e+001 3.962600e+001 3.957644e+001 3.426907e+001 2.573587e+000 4.772243e-001 7.712273e-001 1.195399e+000 1.142545e+000 1.301539e+000 1.928008e+000 2.233413e+000 2.634494e+000 4.094106e+000 3.438874e+000 2.079959e+000 1.989404e+000 5.372506e-002 7.565252e-002 1.131053e-001 2.455296e-001 2.115988e-001 2.549210e-001 4.216827e-001 4.065629e-001 5.204206e-001 9.125975e-001 7.103739e-001 4.158977e-001 3.246626e-001 3.477745e-003
<GCONST> 9.754250e+001
<STATE> 4
<MEAN> 39
 -1.133145e+001 -3.859730e+000 2.157566e+001 -3.207403e+001 -2.884548e+001 -1.359448e+001 -1.659577e+000 -9.945539e+000 5.440530e+000 1.585676e+001 -1.014392e+001 1.983669e+000 1.780880e+001 1.303053e-002 4.297962e-001 -3.159301e-001 4.559027e-001 -5.671999e-001 1.472080e-001 -6.924871e-001 -3.259363e-001 3.576812e-001 5.275556e-001 2.620553e-001 1.490745e-001 -2.543272e-001 -1.987753e-002 -5.610691e-004 -3.871538e-002 4.402711e-002 3.949175e-002 1.279212e-002 3.164648e-002 -6.869698e-003 -4.021569e-002 -1.688112e-002 1.300590e-002 -2.654713e-002 -2.986188e-003
<VARIANCE> 39
 1.457380e+001 6.539639e+001 1.051871e+002 1.140237e+002 1.121680e+002 1.275578e+001 1.308655e+002 6.052285e+001 5.600380e+001 1.291054e+002 2.435011e+001 1.214817e+001 1.037605e+001 6.494547e-001 5.671508e-001 2.014225e+000 2.237512e+000 1.949288e+000 7.660938e-001 2.269321e+000 2.931336e+000 3.048238e+000 2.849855e+000 2.293082e+000 1.428900e+000 6.486077e-002 1.100224e-001 7.610447e-002 2.120037e-001 1.878498e-001 3.450443e-001 1.715621e-001 4.340112e-001 5.677967e-001 5.476637e-001 5.635057e-001 4.056979e-001 2.461479e-001 2.301938e-003
<GCONST> 1.027162e+002
<TRANSP> 5
 0.000000e+000 1.000000e+000 0.000000e+000 0.000000e+000 0.000000e+000
 0.000000e+000 9.344631e-001 6.553680e-002 0.000000e+000 0.000000e+000
 0.000000e+000 0.000000e+000 9.505553e-001 4.944476e-002 0.000000e+000
 0.000000e+000 0.000000e+000 0.000000e+000 8.968923e-001 1.031077e-001
 0.000000e+000 0.000000e+000 0.000000e+000 0.000000e+000 0.000000e+000
<ENDHMM>
~h "k"
<BEGINHMM>
<NUMSTATES> 5
<STATE> 2
<MEAN> 39
 1.893485e+000 -2.029041e+001 -1.540104e+001 -1.362010e+001 1.910672e+000 6.599687e+000 -3.058673e+000 -6.847242e+000 2.259209e+000 -3.298795e+000 -1.398428e+001 -2.934871e+000 1.813252e+001 2.757872e-001 3.551290e-001 -6.312051e-001 5.155284e-001 3.028467e-002 5.358936e-001 -3.057710e-001 2.920999e-001 -3.064663e-001 -1.379955e-002 -1.247987e-001 -1.601335e-001 -1.614914e-001 -3.950834e-002 5.106639e-002 -4.123244e-002 8.212344e-003 -2.186939e-002 -5.955445e-002 6.080729e-002 -4.387348e-002 -2.787071e-002 2.742414e-003 5.613950e-002 1.635118e-002 -4.515151e-003
<VARIANCE> 39
 3.366186e+001 4.181929e+001 1.557944e+002 1.166247e+002 1.969171e+002 1.741039e+002 5.570346e+001 8.505542e+001 8.088032e+001 4.907001e+001 7.553436e+001 7.629317e+001 3.009605e+000 6.557831e-001 1.546619e+000 1.669264e+000 2.717107e+000 2.478346e+000 3.164540e+000 3.577948e+000 3.692518e+000 3.655149e+000 3.750642e+000 3.579424e+000 3.614016e+000 3.325501e-002 8.075427e-002 1.885166e-001 2.320274e-001 3.880190e-001 4.351752e-001 4.521590e-001 5.577574e-001 6.900856e-001 6.063942e-001 6.810058e-001 5.391461e-001 6.538214e-001 4.401962e-003
<GCONST> 1.171029e+002
<STATE> 3
<MEAN> 39
 1.103264e+000 -9.455032e+000 -2.666793e+001 -3.904856e+000 2.926811e+000 1.192666e+001 -2.874084e+000 -2.778582e+000 -3.411417e+000 -3.882439e+000 -7.558738e+000 -2.730668e+000 1.399224e+001 -4.276643e-001 9.633385e-001 1.593670e-001 2.851345e-001 -3.831109e-002 5.971833e-001 2.384827e-001 -4.443158e-001 -3.904310e-001 -7.313535e-002 -1.249646e-002 -2.462593e-002 -3.370109e-001 -1.196076e-001 -4.897212e-002 1.841245e-001 6.439354e-002 2.800109e-002 -1.629631e-001 -6.734817e-002 3.215905e-004 7.441359e-002 -9.211837e-002 1.956295e-002 1.477441e-002 -1.489891e-002
<VARIANCE> 39
 3.618056e+001 4.012548e+001 1.269850e+002 5.504605e+001 1.947797e+002 2.602685e+002 5.060111e+001 6.037105e+001 8.278457e+001 7.960867e+001 8.862467e+001 5.033023e+001 4.900323e+000 6.269597e-001 7.711872e-001 1.479396e+000 2.402467e+000 3.200784e+000 2.100357e+000 2.853412e+000 2.932979e+000 4.880430e+000 3.705153e+000 3.488329e+000 1.955371e+000 6.007532e-002 9.895117e-002 1.353818e-001 2.061073e-001 4.755266e-001 5.750738e-001 4.626617e-001 5.343714e-001 7.778874e-001 9.278710e-001 5.457311e-001 7.257664e-001 4.439902e-001 1.432996e-002
<GCONST> 1.171323e+002
<STATE> 4
<MEAN> 39
 -3.835054e+000 -3.511648e+000 -1.385746e+001 6.086339e-001 -3.140119e+000 9.250708e-001 -5.473193e+000 -3.092595e+000 -4.666069e+000 -1.988255e+000 -3.521671e+000 -1.775567e+000 1.189235e+001 -7.823661e-001 4.859866e-001 4.823909e-001 5.372283e-001 -4.199364e-001 -8.878691e-001 -2.001523e-001 5.455251e-001 3.000548e-001 3.909598e-001 8.535656e-001 5.748258e-001 -3.197029e-001 -2.245917e-001 -5.682156e-002 -1.648090e-002 -1.379950e-001 2.327869e-001 -2.388004e-001 -7.327681e-002 2.170477e-002 3.116669e-001 -3.123798e-002 2.530520e-001 1.020839e-001 5.437473e-002
<VARIANCE> 39
 6.177639e+001 9.523367e+001 1.585217e+002 7.147137e+001 2.112592e+002 4.123717e+002 1.178793e+002 4.999776e+001 8.790552e+001 4.758993e+001 1.129322e+002 8.003365e+001 1.269618e+001 7.511724e-001 7.912953e-001 2.859709e+000 3.170933e+000 3.027380e+000 3.819751e+000 2.368665e+000 2.958823e+000 4.061040e+000 3.670321e+000 3.163517e+000 4.884089e+000 7.463847e-002 1.897088e-001 2.433492e-001 6.478843e-001 6.382987e-001 4.317190e-001 9.838839e-001 5.818674e-001 6.676291e-001 8.303917e-001 6.734507e-001 8.144068e-001 9.842060e-001 1.769799e-002
<GCONST> 1.280652e+002
<TRANSP> 5
 0.000000e+000 1.000000e+000 0.000000e+000 0.000000e+000 0.000000e+000
 0.000000e+000 8.956440e-001 1.043560e-001 0.000000e+000 0.000000e+000
 0.000000e+000 0.000000e+000 7.547553e-001 2.452448e-001 0.000000e+000
 0.000000e+000 0.000000e+000 0.000000e+000 5.003618e-001 4.996382e-001
 0.000000e+000 0.000000e+000 0.000000e+000 0.000000e+000 0.000000e+000
<ENDHMM>
~h "l"
<BEGINHMM>
<NUMSTATES> 5
<STATE> 2
<MEAN> 39
 -9.338177e+000 -1.533109e+000 -4.955277e+000 -3.386445e+000 1.249039e-001 -2.164507e+000 2.866633e+000 -7.943689e-001 4.011226e+000 -3.143766e+000 -1.328993e+000 4.052337e+000 1.383925e+001 1.129446e-002 1.210735e+000 -2.779263e-001 4.058124e-001 -1.452881e-001 -1.947705e-001 5.309592e-001 5.840277e-002 -7.451169e-002 -8.330780e-002 2.674886e-001 4.541479e-003 -1.034654e-001 -5.549199e-002 4.484819e-002 -9.490038e-002 -2.683915e-001 2.239795e-002 -8.659671e-003 3.643962e-003 -5.721661e-002 8.368991e-002 -8.347906e-003 -5.294488e-002 -1.400115e-001 2.968633e-002
<VARIANCE> 39
 7.602151e+001 1.785616e+002 2.150583e+002 1.703305e+002 1.253957e+002 2.895673e+002 9.526809e+001 1.429328e+002 1.027633e+002 1.254857e+002 7.517184e+001 9.967279e+001 1.880211e+001 1.700450e+000 1.862382e+000 4.842175e+000 5.470105e+000 3.597587e+000 1.026982e+001 5.140816e+000 6.670464e+000 4.128609e+000 3.812205e+000 3.438093e+000 3.354050e+000 1.835183e-001 3.397386e-001 2.727474e-001 5.476068e-001 9.225396e-001 8.609220e-001 1.822414e+000 1.231520e+000 1.018673e+000 6.768669e-001 7.434666e-001 7.888532e-001 6.043664e-001 5.068408e-002
<GCONST> 1.413265e+002
<STATE> 3
<MEAN> 39
 -8.864928e+000 9.594846e-001 -1.369982e+001 -6.888990e+000 3.529787e-001 -1.427191e+001 5.793724e+000 -7.446435e+000 6.674978e-001 -1.029531e+001 -5.911613e+000 -6.412645e-001 1.731403e+001 -8.374234e-001 1.048811e+000 -5.005108e-001 -4.398264e-001 6.570385e-001 -2.804379e-001 4.241020e-001 -8.580154e-004 1.928362e-001 1.310523e-002 2.235586e-001 -2.516139e-001 2.981302e-001 -1.420213e-001 -2.020809e-001 3.358280e-001 -1.865143e-001 4.927768e-002 -6.955076e-002 -1.117741e-001 1.793385e-001 1.344979e-001 1.167274e-001 1.264403e-001 -7.712837e-002 -3.235655e-006
<VARIANCE> 39
 1.791499e+002 2.350627e+002 8.189487e+001 1.766843e+002 1.071086e+002 1.303658e+002 1.114984e+002 9.975030e+001 1.211551e+002 9.715038e+001 9.422489e+001 5.257170e+001 6.908531e+000 3.272636e+000 1.838075e+000 2.712263e+000 5.725914e+000 5.228284e+000 4.853998e+000 5.138225e+000 4.760338e+000 3.144273e+000 4.008075e+000 3.567818e+000 2.747085e+000 4.525625e-001 3.384596e-001 3.458422e-001 2.856092e-001 6.482080e-001 7.322369e-001 6.325864e-001 7.176861e-001 8.141385e-001 7.837490e-001 5.266724e-001 6.296431e-001 6.164948e-001 4.193123e-002
<GCONST> 1.354299e+002
<STATE> 4
<MEAN> 39
 -1.322857e+001 2.528514e+000 -1.031505e+001 -9.672599e+000 2.524092e+000 -1.500381e+001 6.391898e+000 -6.225339e+000 3.819519e-001 -1.123448e+001 -2.272915e+000 -1.029753e+000 1.844013e+001 -7.985931e-001 9.428417e-002 8.207152e-001 -8.978546e-001 -2.454925e-001 -8.010198e-001 -1.961866e-001 8.883748e-001 1.140908e-001 7.383968e-001 7.490402e-001 -9.669705e-002 1.620688e-001 3.456711e-001 -4.781465e-001 2.551740e-001 9.254947e-002 -1.618255e-001 -8.605788e-002 -2.630257e-001 -6.115719e-004 3.500169e-001 2.783050e-001 -1.463343e-001 -2.803776e-002 -9.659547e-002
<VARIANCE> 39
 2.060250e+002 2.076704e+002 1.295553e+002 2.381699e+002 1.046799e+002 1.156056e+002 1.482271e+002 1.099481e+002 1.301248e+002 1.213739e+002 1.222724e+002 4.337900e+001 5.990878e+000 3.590153e+000 2.193361e+000 4.354194e+000 4.383971e+000 4.343555e+000 3.516493e+000 5.407451e+000 4.768702e+000 4.988100e+000 7.356577e+000 4.053746e+000 2.509979e+000 1.998339e-001 5.865437e-001 4.975700e-001 5.908577e-001 8.618658e-001 9.823548e-001 5.679545e-001 1.116672e+000 8.066723e-001 1.229039e+000 1.158756e+000 4.834205e-001 4.895597e-001 3.948342e-002
<GCONST> 1.401992e+002
<TRANSP> 5
 0.000000e+000 1.000000e+000 0.000000e+000 0.000000e+000 0.000000e+000
 0.000000e+000 6.107200e-001 3.892801e-001 0.000000e+000 0.000000e+000
 0.000000e+000 0.000000e+000 4.275220e-001 5.724780e-001 0.000000e+000
 0.000000e+000 0.000000e+000 0.000000e+000 4.427456e-001 5.572544e-001
 0.000000e+000 0.000000e+000 0.000000e+000 0.000000e+000 0.000000e+000
<ENDHMM>
~h "m"
<BEGINHMM>
<NUMSTATES> 5
<STATE> 2
<MEAN> 39
 3.219393e+000 -1.099770e+001 -1.218529e+001 -1.968306e+001 8.816863e+000 -1.173715e+001 -7.842411e+000 -6.883175e+000 -7.535401e+000 -6.987623e+000 -1.283227e+001 -8.872682e+000 1.861757e+001 4.138710e-001 4.037360e-001 -2.516372e-001 8.570300e-002 -1.931158e-001 5.459697e-001 -2.286051e-001 -1.666404e-001 -4.148480e-001 3.502930e-001 -2.745543e-001 -2.461076e-001 -9.200984e-002 -7.787722e-002 -2.868139e-002 -8.154403e-002 -2.425392e-002 1.117801e-001 4.712025e-002 7.643610e-002 5.372107e-002 5.293567e-002 -1.005729e-001 1.001522e-001 7.226498e-002 8.619742e-003
<VARIANCE> 39
 5.489345e+001 5.098779e+001 6.176391e+001 9.045267e+001 1.328888e+002 1.420172e+002 3.411401e+001 3.029932e+001 5.710277e+001 5.560054e+001 1.478828e+002 5.534995e+001 2.154235e+000 5.752713e-001 1.269234e+000 1.410681e+000 2.090195e+000 3.144501e+000 3.847223e+000 2.478710e+000 2.539734e+000 3.439514e+000 2.969102e+000 3.108843e+000 3.297653e+000 5.147243e-002 1.001911e-001 1.735432e-001 1.854491e-001 3.683738e-001 5.253336e-001 7.808235e-001 3.748166e-001 4.722223e-001 4.845749e-001 5.414202e-001 6.773000e-001 7.189077e-001 1.092228e-002
<GCONST> 1.137201e+002
<STATE> 3
<MEAN> 39
 3.727988e+000 -8.786294e+000 -1.728347e+001 -2.193526e+001 1.092249e+001 -4.752072e+000 -6.951760e+000 -5.248740e+000 -6.186486e+000 -6.723687e+000 -6.729906e+000 -6.511806e+000 1.885843e+001 -8.471667e-001 -9.917331e-001 7.753718e-002 -1.356934e+000 8.242225e-001 3.842708e-001 1.722985e-001 6.653551e-001 9.595280e-001 -2.144649e-001 8.886034e-001 4.199854e-001 3.432594e-001 -1.211797e-001 -1.879495e-001 2.087742e-001 -7.717018e-003 -1.541859e-001 -4.530147e-002 2.080605e-003 -9.504413e-003 1.431343e-001 -1.271324e-001 -2.306798e-002 5.811359e-002 3.558339e-002
<VARIANCE> 39
 7.906187e+001 6.979882e+001 8.517049e+001 1.295417e+002 1.933373e+002 1.696510e+002 6.507147e+001 6.960416e+001 6.682225e+001 4.975826e+001 9.504266e+001 4.219091e+001 2.018133e+000 1.931404e+000 2.419621e+000 3.188001e+000 6.976094e+000 4.912667e+000 1.073242e+001 3.912879e+000 4.224612e+000 7.267820e+000 5.513302e+000 6.524848e+000 4.013844e+000 1.840290e-001 2.922532e-001 3.335426e-001 4.874910e-001 1.327153e+000 5.047026e-001 1.758140e+000 8.470889e-001 7.997009e-001 1.095918e+000 8.025354e-001 1.079711e+000 7.527233e-001 3.028779e-002
<GCONST> 1.350981e+002
<STATE> 4
<MEAN> 39
 -3.339504e+000 -1.756544e+001 -9.929342e+000 -3.035065e+001 1.219191e+001 -3.048643e+000 -5.523311e+000 -3.245523e+000 -4.397630e+000 -4.968669e+000 -3.848118e+000 -3.850997e+000 2.042862e+001 -6.299073e-002 -3.893786e-001 4.284776e-002 5.064418e-001 -1.931985e-001 -1.029560e-001 2.337279e-001 2.164672e-001 1.957333e-001 -2.964077e-001 4.384979e-002 4.428638e-001 -3.413872e-002 5.673638e-002 1.104962e-001 -4.561815e-003 1.899257e-001 -1.028058e-001 -8.311936e-002 1.242280e-001 -3.392901e-002 -3.174597e-002 -3.912964e-002 -1.772463e-002 -5.508629e-002 -3.992729e-002
<VARIANCE> 39
 2.749324e+001 2.538182e+001 3.651459e+001 1.107015e+002 9.512055e+001 1.867155e+002 3.858118e+001 4.901407e+001 1.176527e+002 5.121870e+001 4.921458e+001 2.682551e+001 1.800141e+000 7.207356e-001 1.110397e+000 1.125766e+000 2.254818e+000 2.167527e+000 3.255366e+000 3.627345e+000 2.306976e+000 3.610538e+000 1.839316e+000 3.137672e+000 1.877728e+000 3.754253e-002 6.974819e-002 1.643511e-001 2.024618e-001 3.030619e-001 3.933115e-001 3.467487e-001 3.973999e-001 4.426904e-001 7.211138e-001 3.224669e-001 5.324340e-001 4.550861e-001 7.558144e-003
<GCONST> 1.067571e+002
<TRANSP> 5
 0.000000e+000 1.000000e+000 0.000000e+000 0.000000e+000 0.000000e+000
 0.000000e+000 8.840501e-001 1.159500e-001 0.000000e+000 0.000000e+000
 0.000000e+000 0.000000e+000 7.836861e-001 2.163139e-001 0.000000e+000
 0.000000e+000 0.000000e+000 0.000000e+000 8.496534e-001 1.503466e-001
 0.000000e+000 0.000000e+000 0.000000e+000 0.000000e+000 0.000000e+000
<ENDHMM>
~h "n"
<BEGINHMM>
<NUMSTATES> 5
<STATE> 2
<MEAN> 39
 -8.339645e+000 -7.264904e+000 -1.009698e+000 -1.542369e+001 1.674254e+000 -1.938972e+001 -6.269212e+000 -5.008786e+000 6.702944e+000 -4.340513e+000 -8.224039e+000 1.452770e+000 1.682577e+001 2.021900e-001 6.661666e-002 -2.534483e-001 2.762956e-001 9.860793e-001 -2.587745e-001 3.101585e-001 3.907756e-001 8.019782e-002 -2.661820e-001 -4.237142e-001 5.666679e-001 3.326491e-002 6.639761e-003 8.433972e-002 -1.716044e-001 1.024378e-001 5.454438e-003 2.052889e-001 1.898359e-001 -1.185384e-001 -1.431970e-001 1.142809e-002 4.419392e-001 -1.467298e-001 2.456916e-002
<VARIANCE> 39
 4.419732e+001 9.480502e+001 1.206321e+002 2.416134e+002 1.005405e+002 2.531134e+002 1.000015e+002 8.030444e+001 6.447725e+001 1.036746e+002 5.275694e+001 1.042815e+002 1.467094e+001 1.484901e+000 6.117502e+000 3.606040e+000 3.652564e+000 5.565014e+000 8.266850e+000 7.365429e+000 3.074425e+000 2.338216e+000 5.336258e+000 4.244640e+000 5.152398e+000 4.567060e-001 2.454305e-001 5.886211e-001 4.023160e-001 1.255066e+000 7.651244e-001 1.571987e+000 1.073450e+000 7.551466e-001 6.915545e-001 1.167526e+000 7.824281e-001 1.115305e+000 6.955232e-002
<GCONST> 1.404387e+002
<STATE> 3
<MEAN> 39
 -8.191863e+000 -9.878546e+000 -6.735169e+000 -1.775162e+001 6.199561e+000 -1.574999e+001 -1.269715e+000 -7.239207e+000 6.056342e+000 -5.820961e+000 -6.104843e+000 -4.462144e-001 1.824032e+001 2.961713e-001 1.595432e-001 -1.429672e-001 -9.853225e-001 7.081956e-002 1.156836e+000 -5.388265e-001 -4.498594e-001 -2.473481e-001 3.109182e-001 2.459389e-001 -9.085194e-001 9.634382e-002 9.116545e-003 7.178472e-002 -8.315237e-002 2.698686e-001 -2.737911e-001 4.118969e-001 -2.568497e-001 8.109759e-002 -3.759374e-001 -1.940271e-001 -1.632231e-002 -1.423061e-001 -1.015536e-001
<VARIANCE> 39
 3.764898e+001 1.543475e+002 1.438414e+002 1.801074e+002 1.705989e+002 1.897121e+002 1.191500e+002 1.038680e+002 7.073958e+001 9.657929e+001 6.269966e+001 1.235868e+002 1.116369e+001 1.559306e+000 4.593012e+000 4.839850e+000 1.331940e+001 4.025793e+000 3.978079e+000 6.297041e+000 3.151877e+000 3.287635e+000 4.682210e+000 3.914580e+000 6.696717e+000 3.535534e-001 2.261296e-001 7.902325e-001 1.087157e+000 1.249362e+000 8.978068e-001 1.031437e+000 1.374964e+000 7.859506e-001 6.508089e-001 9.914494e-001 6.524807e-001 1.455651e+000 4.394873e-002
<GCONST> 1.423401e+002
<STATE> 4
<MEAN> 39
 -7.917742e+000 -2.215948e+000 -5.738232e+000 -1.825692e+001 -3.370558e+000 -9.156549e+000 -4.949418e+000 -9.562546e+000 4.149786e+000 -6.839549e+000 -6.331847e+000 -3.060377e+000 1.634478e+001 4.668472e-001 2.224079e-001 -1.106996e+000 6.273182e-001 -4.852256e-002 7.839867e-001 -4.509112e-001 6.635006e-001 -6.254153e-001 -1.975015e-001 2.355407e-001 -1.719885e-001 -3.360105e-001 5.793343e-002 -1.418556e-001 -7.901026e-002 -5.868759e-002 -8.608423e-003 6.578002e-003 2.667714e-003 1.966118e-001 5.061080e-002 -1.004601e-001 -9.106265e-002 -1.028539e-001 2.313495e-003
<VARIANCE> 39
 5.039732e+001 1.053424e+002 1.676811e+002 1.451305e+002 1.844884e+002 1.533615e+002 8.237190e+001 9.062951e+001 7.579944e+001 1.004316e+002 6.131568e+001 8.270680e+001 1.549378e+001 1.241709e+000 1.282595e+000 2.140760e+000 4.771137e+000 3.030219e+000 4.662008e+000 6.011320e+000 3.336365e+000 2.968373e+000 3.761921e+000 2.859420e+000 3.572378e+000 1.547358e-001 2.084370e-001 2.721114e-001 3.188143e-001 6.286275e-001 6.454297e-001 7.801117e-001 9.273320e-001 4.694425e-001 6.820819e-001 8.096241e-001 5.503087e-001 4.336001e-001 1.840174e-002
<GCONST> 1.290215e+002
<TRANSP> 5
 0.000000e+000 1.000000e+000 0.000000e+000 0.000000e+000 0.000000e+000
 0.000000e+000 4.607741e-001 5.392259e-001 0.000000e+000 0.000000e+000
 0.000000e+000 0.000000e+000 3.345070e-001 6.654930e-001 0.000000e+000
 0.000000e+000 0.000000e+000 0.000000e+000 5.923298e-001 4.076702e-001
 0.000000e+000 0.000000e+000 0.000000e+000 0.000000e+000 0.000000e+000
<ENDHMM>
~h "r"
<BEGINHMM>
<NUMSTATES> 5
<STATE> 2
<MEAN> 39
 -2.533176e+000 -6.401826e+000 -1.168652e+001 -9.291490e+000 1.006495e+001 -2.081279e+001 -1.628195e+001 -1.797691e+001 -5.815508e-001 1.990822e+000 -1.145589e+001 -2.675777e+000 1.709683e+001 1.533548e-001 1.807977e-001 -3.299538e-001 6.245337e-001 1.869768e-001 -7.463811e-001 -8.293862e-001 8.188037e-001 1.070574e+000 4.700868e-001 -6.750278e-002 -7.975163e-003 -4.110191e-002 -1.191470e-001 -1.270627e-001 -1.424740e-001 5.717725e-001 -1.860215e-001 2.832443e-001 1.672764e-001 2.605807e-001 1.610620e-001 -8.249629e-002 4.104266e-002 -6.584932e-002 -4.062726e-002
<VARIANCE> 39
 7.834643e+001 1.713327e+001 4.646189e+001 2.585212e+002 5.969035e+001 1.892997e+001 1.233181e+002 8.015457e+001 1.469367e+002 1.446315e+002 8.254565e+001 1.940053e+001 2.332673e+000 2.713351e+000 1.103594e+000 2.646364e+000 4.670231e+000 3.655108e+000 2.588649e+000 2.909442e+000 1.877838e+000 3.978360e+000 2.235755e+000 7.125522e+000 1.671387e+000 2.381347e-001 6.363270e-001 2.492612e-001 1.421126e-001 1.023650e+000 7.798660e-001 6.440185e-001 8.337559e-001 4.120514e-001 9.284351e-001 5.539758e-001 1.182711e+000 4.936414e-001 1.763926e-002
<GCONST> 1.227090e+002
<STATE> 3
<MEAN> 39
 -1.171980e+001 6.253575e+000 -2.069112e+001 7.947897e+000 1.236797e+001 -2.434518e+001 -1.089313e+001 -9.694760e+000 8.376668e+000 4.594742e+000 3.465144e+000 -8.425029e+000 1.698219e+001 -1.283306e+000 9.482276e-001 8.236543e-002 1.038045e+000 8.488623e-001 8.987457e-002 6.399825e-001 -1.780335e-001 9.193774e-001 5.292796e-001 1.378203e+000 -1.898645e-001 2.181590e-001 3.491105e-001 -1.087490e-001 3.779473e-003 -3.418994e-001 1.777447e-001 3.568648e-001 -6.290498e-002 -8.030473e-002 5.015994e-002 -7.584053e-002 -5.658183e-001 1.545122e-001 -5.615279e-002
<VARIANCE> 39
 1.332003e+002 1.585638e+002 4.798539e+001 3.422848e+001 1.800103e+002 2.355487e+001 1.144336e+002 3.979937e+001 1.653216e+002 2.179158e+002 8.526282e+001 3.256620e+001 1.718246e+000 1.142951e+000 4.740656e+000 3.958276e+000 2.767194e+000 4.992459e+000 1.636038e+000 1.946237e+000 1.792238e+000 6.031557e+000 9.202050e+000 4.639618e+000 3.695138e+000 8.494769e-002 4.791528e-001 5.299534e-001 8.171856e-001 4.299667e-001 9.773328e-001 2.712734e-001 5.120529e-001 6.245579e-001 1.519607e+000 2.638645e+000 6.720512e-001 6.763650e-001 1.714493e-002
<GCONST> 1.282530e+002
<STATE> 4
<MEAN> 39
 -1.296383e+001 -2.557331e+000 -9.173660e+000 -4.673231e+000 1.138407e+001 -2.082615e+001 -4.642820e-002 -5.073059e+000 1.179309e+001 -1.323088e+000 2.814158e-001 9.534716e-001 1.847312e+001 1.479219e+000 -2.649009e+000 1.029666e+000 -4.530365e+000 6.057994e-001 9.560549e-001 -4.619524e-001 -4.093966e-001 1.192284e-001 -1.223436e+000 -2.244532e+000 -1.393849e-001 4.391149e-001 -4.893353e-002 8.371696e-002 6.421211e-002 -2.768710e-003 7.176536e-002 1.881671e-001 -1.352219e-001 -2.165231e-001 -8.324797e-001 -2.093601e-003 1.755307e-001 -2.390726e-001 3.618062e-003
<VARIANCE> 39
 7.600256e+001 1.688607e+002 1.315183e+002 2.736619e+002 1.315789e+002 2.744980e+002 1.465305e+002 3.793468e+001 1.753763e+002 1.994490e+002 1.165976e+002 4.735206e+001 3.932480e+000 4.696818e+000 9.780637e+000 1.171882e+000 1.395928e+001 3.460257e+000 1.599697e+001 7.265635e+000 3.584540e+000 1.205798e+001 1.170490e+001 6.104958e+000 5.975945e+000 2.546189e-001 1.010237e+000 1.789991e+000 1.756678e-001 4.529697e+000 7.985589e-001 1.141092e+000 1.275897e+000 3.047594e-001 1.145769e+000 2.059934e+000 1.765345e+000 8.625079e-001 4.714537e-002
<GCONST> 1.498190e+002
<TRANSP> 5
 0.000000e+000 1.000000e+000 0.000000e+000 0.000000e+000 0.000000e+000
 0.000000e+000 7.476884e-001 2.523116e-001 0.000000e+000 0.000000e+000
 0.000000e+000 0.000000e+000 7.643489e-001 2.356511e-001 0.000000e+000
 0.000000e+000 0.000000e+000 0.000000e+000 6.944234e-001 3.055766e-001
 0.000000e+000 0.000000e+000 0.000000e+000 0.000000e+000 0.000000e+000
<ENDHMM>
~h "s"
<BEGINHMM>
<NUMSTATES> 5
<STATE> 2
<MEAN> 39
 -4.073408e+000 -1.394799e+001 -1.040652e+001 -2.501344e+001 1.230861e+001 -6.726300e+000 -2.780339e+000 -6.784127e+000 1.971475e+000 -7.646976e+000 -5.108730e+000 -2.772424e+000 1.998093e+001 3.716015e-001 -3.959996e-002 2.913613e-002 -5.715114e-002 -6.996652e-002 5.581208e-001 -1.050964e-001 1.386010e-001 -4.611651e-001 1.637741e-001 -7.831875e-002 4.631483e-004 -7.637764e-002 1.304040e-002 5.723834e-002 -8.600233e-003 9.657408e-002 -1.363351e-001 -6.394187e-002 -8.954959e-003 8.006490e-002 4.065185e-002 4.872644e-002 -8.280402e-002 6.235474e-002 -2.739703e-002
<VARIANCE> 39
 3.280928e+001 5.202702e+001 7.841408e+001 1.199183e+002 9.133023e+001 1.890750e+002 5.084739e+001 7.534517e+001 8.861903e+001 7.014743e+001 7.457381e+001 7.807874e+001 2.104863e+000 5.748197e-001 1.282073e+000 1.138602e+000 2.295929e+000 2.324843e+000 2.860723e+000 2.004985e+000 2.698798e+000 3.365115e+000 2.445695e+000 2.792429e+000 2.369013e+000 5.627602e-002 9.572614e-002 2.474393e-001 2.223787e-001 3.247277e-001 4.117698e-001 5.287396e-001 4.002759e-001 5.003106e-001 7.282557e-001 4.596634e-001 4.751177e-001 4.644854e-001 8.695985e-003
<GCONST> 1.129294e+002
<STATE> 3
<MEAN> 39
 -2.197777e+000 -1.109948e+001 -1.030148e+001 -1.912869e+001 5.606334e+000 -7.780419e+000 -2.270066e+000 -8.458282e+000 3.161036e+000 -7.838183e+000 -8.241904e+000 -4.954800e-001 1.851990e+001 1.105212e-001 -5.185850e-001 2.819588e-001 6.729684e-002 -4.453307e-001 5.183350e-001 2.875015e-001 3.474076e-001 2.533036e-002 6.732048e-001 -6.369544e-001 2.532530e-001 -9.501280e-003 -4.301215e-002 -1.084806e-001 -3.297657e-003 3.978287e-002 -6.928377e-002 -5.099863e-002 7.310885e-002 1.514173e-002 9.088147e-003 5.793320e-002 1.194383e-001 2.230760e-002 2.326992e-002
<VARIANCE> 39
 5.595127e+001 1.093673e+002 1.419293e+002 1.978575e+002 1.475972e+002 2.265506e+002 7.051151e+001 1.554052e+002 1.489716e+002 1.094939e+002 8.913887e+001 7.798859e+001 3.716471e+000 1.253223e+000 2.838103e+000 3.352910e+000 5.215265e+000 3.977780e+000 5.902946e+000 4.034725e+000 5.051912e+000 4.220953e+000 4.241369e+000 4.135782e+000 2.076179e+000 1.659432e-001 1.713940e-001 4.509549e-001 4.272877e-001 7.321779e-001 6.352795e-001 5.985845e-001 5.858256e-001 8.975280e-001 8.862196e-001 8.185859e-001 7.451303e-001 4.587838e-001 2.577478e-002
<GCONST> 1.333733e+002
<STATE> 4
<MEAN> 39
 -4.626606e+000 -7.383268e+000 -1.504548e+000 -2.271743e+001 -1.272394e+000 -8.210797e+000 -5.454459e-001 -1.197719e+001 3.805449e+000 -5.765566e+000 -1.073216e+001 -2.835249e-001 1.796510e+001 1.967696e-001 -1.785964e-001 -2.546076e-001 5.263131e-001 -4.765715e-001 4.196449e-001 -3.373056e-001 4.105335e-001 -3.463198e-001 4.984604e-001 7.401408e-002 3.206076e-001 -1.410809e-001 2.551418e-003 7.592154e-002 -1.680950e-001 1.132080e-001 1.055335e-001 -3.289957e-002 -8.561770e-002 2.977748e-002 -8.368845e-002 -1.485247e-001 1.864660e-001 -8.358341e-002 -9.952171e-003
<VARIANCE> 39
 5.549331e+001 1.675825e+002 2.722346e+002 2.507408e+002 2.411708e+002 1.854612e+002 1.215386e+002 1.630015e+002 1.237059e+002 9.080479e+001 9.695860e+001 1.049931e+002 4.906139e+000 9.794242e-001 1.724885e+000 2.849432e+000 3.331861e+000 4.264317e+000 5.136165e+000 4.140664e+000 3.973257e+000 5.501499e+000 3.668679e+000 3.905010e+000 2.760792e+000 1.366054e-001 1.600953e-001 3.468952e-001 4.370272e-001 5.531425e-001 7.928163e-001 7.631297e-001 6.909631e-001 7.011652e-001 8.916622e-001 7.024755e-001 8.668645e-001 5.410694e-001 2.030196e-002
<GCONST> 1.340880e+002
<TRANSP> 5
 0.000000e+000 1.000000e+000 0.000000e+000 0.000000e+000 0.000000e+000
 0.000000e+000 7.874047e-001 2.125953e-001 0.000000e+000 0.000000e+000
 0.000000e+000 0.000000e+000 2.486784e-001 7.513216e-001 0.000000e+000
 0.000000e+000 0.000000e+000 0.000000e+000 4.757907e-001 5.242093e-001
 0.000000e+000 0.000000e+000 0.000000e+000 0.000000e+000 0.000000e+000
<ENDHMM>
~h "t"
<BEGINHMM>
<NUMSTATES> 5
<STATE> 2
<MEAN> 39
 -2.130264e+001 9.510663e+000 -9.369380e+000 -1.185945e+001 4.699355e+000 -1.765096e+001 1.638158e+000 -1.172838e+001 8.973079e+000 -3.023858e+000 8.731392e-002 -4.595419e+000 1.995273e+001 1.437018e+000 -9.550015e-001 -4.905041e-002 -1.613491e+000 -1.171910e-001 3.251291e-001 -1.985135e+000 -7.727616e-001 4.278988e-001 6.073761e-002 -3.498362e-001 -2.631763e-001 8.150796e-002 2.388334e-002 1.383430e-001 -6.272104e-002 5.645711e-002 -2.823016e-002 2.508336e-001 1.889997e-001 -7.820702e-002 -1.988157e-001 -1.246475e-001 1.474957e-001 1.013843e-001 -7.328670e-002
<VARIANCE> 39
 1.333893e+002 1.448529e+002 7.399441e+001 1.612445e+002 5.592208e+001 8.562947e+001 2.737697e+002 4.233197e+001 1.389048e+002 4.216431e+001 7.178890e+001 3.590378e+001 1.375806e+000 4.726059e+000 4.320768e+000 1.795562e+000 5.987453e+000 3.655330e+000 9.887154e+000 1.407151e+001 3.796939e+000 9.246584e+000 3.479193e+000 5.393321e+000 2.530568e+000 1.600193e-001 9.374984e-001 1.008646e+000 3.508739e-001 1.015822e+000 5.728946e-001 1.672069e+000 2.896410e+000 6.153168e-001 1.808679e+000 6.570091e-001 9.793542e-001 5.227107e-001 3.484506e-002
<GCONST> 1.384168e+002
<STATE> 3
<MEAN> 39
 4.834023e-001 4.413778e+000 -1.244963e+001 -3.376724e+001 1.039379e+000 -1.142112e+001 -9.992214e+000 -8.317879e+000 -3.235333e+000 -5.479010e+000 -3.784200e+000 -1.749048e+000 1.878345e+001 5.779157e-001 5.624735e-001 -3.027020e-001 -1.634328e-001 -2.856410e-001 3.322341e-001 3.932371e-001 2.502537e-001 -9.112222e-001 -1.125434e-001 -1.538604e-001 2.429559e-001 -1.279804e-001 -4.622694e-002 -3.364034e-002 4.874773e-002 1.636661e-001 -9.043790e-002 -1.155066e-001 -9.284626e-003 4.396454e-002 9.610794e-002 2.765304e-002 -5.864913e-002 -4.255056e-002 -1.254493e-002
<VARIANCE> 39
 3.320091e+001 4.031496e+001 5.317414e+001 9.075719e+001 1.360020e+002 6.469888e+001 6.681336e+001 1.408106e+002 1.999818e+002 5.038327e+001 7.955244e+001 4.907763e+001 1.816628e+000 5.627556e-001 1.200748e+000 1.422981e+000 2.629430e+000 2.651369e+000 2.989607e+000 2.795499e+000 3.571920e+000 4.338311e+000 3.941850e+000 3.312077e+000 2.966732e+000 3.618137e-002 9.162809e-002 2.195028e-001 2.217722e-001 3.210551e-001 4.376294e-001 5.400879e-001 5.108375e-001 6.456273e-001 6.727581e-001 6.700708e-001 5.547193e-001 5.354037e-001 6.846901e-003
<GCONST> 1.146835e+002
<STATE> 4
<MEAN> 39
 4.242371e+000 5.709255e+000 -1.578512e+001 -2.104024e+001 -6.628715e+000 -7.506715e+000 -6.986826e+000 -1.334623e+001 -4.934173e-001 -4.281887e+000 -5.989573e+000 -1.787434e+000 1.676606e+001 -6.624499e-002 -1.091925e+000 3.090208e-001 1.683069e+000 -3.120686e-001 9.118215e-002 -5.438266e-002 -4.291165e-001 5.684708e-001 2.926767e-001 -5.550914e-001 -2.978132e-001 -1.255834e-002 -2.885327e-002 -7.530262e-002 8.201005e-003 -1.554993e-002 1.364522e-001 -7.834306e-002 9.886337e-003 1.567422e-001 -7.966062e-003 -2.712917e-002 4.487256e-002 5.198435e-002 1.835011e-002
<VARIANCE> 39
 4.538017e+001 1.058686e+002 1.063191e+002 1.122762e+002 2.368845e+002 1.250444e+002 6.492119e+001 1.264576e+002 1.241557e+002 1.145468e+002 8.862463e+001 6.212591e+001 4.090117e+000 2.273662e+000 6.924512e+000 5.490827e+000 5.194167e+000 7.699922e+000 8.526201e+000 5.218297e+000 7.557217e+000 1.235426e+001 9.514585e+000 5.881497e+000 4.577713e+000 1.701786e-001 3.203402e-001 9.543171e-001 8.506524e-001 8.199749e-001 1.302070e+000 1.327407e+000 7.333649e-001 1.346173e+000 2.240330e+000 1.673247e+000 9.692900e-001 9.809636e-001 2.541378e-002
<GCONST> 1.452784e+002
<TRANSP> 5
 0.000000e+000 1.000000e+000 0.000000e+000 0.000000e+000 0.000000e+000
 0.000000e+000 8.073752e-001 1.926248e-001 0.000000e+000 0.000000e+000
 0.000000e+000 0.000000e+000 9.260700e-001 7.393005e-002 0.000000e+000
 0.000000e+000 0.000000e+000 0.000000e+000 7.976804e-001 2.023196e-001
 0.000000e+000 0.000000e+000 0.000000e+000 0.000000e+000 0.000000e+000
<ENDHMM>
~h "u"
<BEGINHMM>
<NUMSTATES> 5
<STATE> 2
<MEAN> 39
 7.297513e+000 -3.917375e+000 -2.548013e+001 -1.248190e+001 6.715031e+000 1.850487e+001 -5.326162e+000 -1.269633e+001 -8.179244e+000 -6.665385e+000 -9.019674e+000 -9.194310e+000 1.606107e+001 -1.281676e-001 3.579611e-001 -1.537913e-001 6.879579e-001 -1.553311e-001 2.731735e-001 -1.746018e-001 -9.968323e-002 -3.560405e-001 1.086760e-001 3.668737e-001 -1.190352e-002 -2.182818e-001 -1.042851e-001 -5.325347e-002 4.251750e-002 -3.744511e-002 3.255659e-002 -8.426251e-002 2.792152e-002 2.589842e-002 5.834001e-002 6.105703e-002 4.432000e-002 9.300750e-002 -1.102862e-002
<VARIANCE> 39
 4.271364e+001 3.588144e+001 4.825814e+001 6.889530e+001 9.284010e+001 1.175016e+002 5.811809e+001 1.555586e+002 1.284085e+002 4.922554e+001 9.358562e+001 5.663793e+001 6.560864e+000 9.326673e-001 1.486120e+000 2.046395e+000 2.139498e+000 2.088260e+000 3.660513e+000 2.768435e+000 4.266738e+000 4.577030e+000 3.844688e+000 4.322330e+000 2.950988e+000 5.918361e-002 9.588123e-002 3.093389e-001 3.053977e-001 2.511200e-001 4.400506e-001 6.260670e-001 5.013533e-001 6.922951e-001 7.430528e-001 7.884668e-001 7.237892e-001 6.665793e-001 1.010328e-002
<GCONST> 1.193373e+002
<STATE> 3
<MEAN> 39
 -1.121995e+001 9.033623e+000 -1.565550e+001 4.455968e-001 6.026579e+000 1.082984e+001 4.515840e+000 -7.057401e+000 -2.918295e+000 -4.551939e+000 4.362262e-001 -2.301153e-001 1.179848e+001 -1.717042e+000 1.535965e+000 1.068517e+000 4.744874e-001 2.234617e-001 -2.463022e+000 2.226048e+000 -4.130859e-001 1.283568e+000 -5.812667e-002 2.472997e-001 7.075322e-001 3.618024e-001 -8.909180e-002 1.358989e-001 -6.870206e-002 -8.865846e-002 1.559761e-001 -3.404814e-001 1.124244e-001 -1.502605e-001 9.184554e-003 -5.023105e-002 -3.938051e-002 -1.669697e-001 1.818406e-001
<VARIANCE> 39
 5.610645e+001 9.105237e+001 7.712876e+001 1.190990e+002 1.616349e+002 1.355253e+002 1.631500e+002 7.221464e+001 5.769157e+001 3.489339e+001 4.499610e+001 3.898735e+001 1.514237e+001 4.438605e+000 4.867651e+000 8.495543e+000 4.649724e+000 9.887303e+000 8.318755e+000 1.157237e+001 1.115907e+001 4.979173e+000 6.017506e+000 8.575616e+000 4.000278e+000 1.115853e+000 7.110193e-001 9.270216e-001 1.425765e+000 8.626904e-001 1.950250e+000 8.145500e-001 2.855878e+000 1.679480e+000 1.164600e+000 1.077026e+000 1.780254e+000 6.343424e-001 1.067728e-001
<GCONST> 1.495016e+002
<STATE> 4
<MEAN> 39
 -1.453066e+001 8.104992e+000 -9.093330e+000 -2.084051e+001 1.100646e+001 -1.905028e+001 -4.264276e+000 -1.403846e+001 9.984443e+000 -7.780672e+000 -5.501901e-001 -1.445043e+000 1.956714e+001 3.949949e-001 -1.082652e+000 2.404712e-001 -9.287106e-001 -2.300592e-001 -7.903401e-001 -1.049755e+000 5.458599e-001 1.928704e-001 -4.272702e-001 -1.947329e-001 -2.570406e-001 1.686253e-001 1.496492e-001 -2.088562e-001 -8.202501e-002 -8.669366e-002 -1.093795e-002 2.764085e-001 2.937248e-002 1.070007e-001 -1.057668e-001 5.165298e-002 -4.635800e-003 5.544815e-002 -4.453488e-002
<VARIANCE> 39
 1.017918e+002 8.839947e+001 2.437936e+001 2.734466e+002 5.685715e+001 5.012125e+001 2.175912e+002 9.843589e+001 1.969711e+002 6.567391e+001 7.693324e+001 4.585347e+001 1.300963e+000 7.087216e+000 8.121856e+000 2.835140e+000 9.462839e+000 3.674081e+000 7.124845e+000 1.222604e+001 8.950330e+000 1.430648e+001 3.723885e+000 5.028359e+000 2.855291e+000 3.469988e-001 1.067109e+000 1.285919e+000 5.219943e-001 9.864053e-001 7.650868e-001 1.306438e+000 1.864634e+000 2.048792e+000 2.770063e+000 6.626610e-001 8.265980e-001 5.632002e-001 5.834393e-002
<GCONST> 1.442908e+002
<TRANSP> 5
 0.000000e+000 1.000000e+000 0.000000e+000 0.000000e+000 0.000000e+000
 0.000000e+000 9.559833e-001 4.401675e-002 0.000000e+000 0.000000e+000
 0.000000e+000 0.000000e+000 8.947462e-001 1.052538e-001 0.000000e+000
 0.000000e+000 0.000000e+000 0.000000e+000 9.310622e-001 6.893786e-002
 0.000000e+000 0.000000e+000 0.000000e+000 0.000000e+000 0.000000e+000
<ENDHMM>
~h "v"
<BEGINHMM>
<NUMSTATES> 5
<STATE> 2
<MEAN> 39
 -1.286877e+001 1.534372e-001 -4.422255e+000 -1.539254e+001 4.889377e+000 -1.789384e+001 -1.479994e+000 -6.652623e+000 8.524634e+000 -4.502694e+000 -5.081453e+000 -2.025842e+000 1.722379e+001 3.745455e-001 -3.241638e-001 -9.776322e-002 -1.477493e+000 5.743117e-001 -2.824579e+000 -7.103186e-001 -8.918939e-001 2.041312e+000 -9.069094e-001 -7.173838e-001 1.005364e+000 7.260786e-001 2.611389e-001 3.619398e-002 1.677978e-001 -1.159671e-001 -3.448817e-001 2.426879e-001 -3.708915e-001 2.021175e-001 -4.157737e-002 -5.174037e-003 -2.534621e-001 1.561619e-001 -9.886339e-002
<VARIANCE> 39
 1.443135e+002 1.543883e+002 1.219885e+002 7.426557e+001 1.121848e+002 1.414527e+002 2.219589e+002 7.710654e+001 1.206529e+002 5.424440e+001 1.076159e+002 5.948537e+001 6.857080e+000 1.430713e+001 4.881620e+000 1.415757e+001 7.797846e+000 1.756726e+001 1.458601e+001 1.914854e+001 5.070373e+000 1.018202e+001 4.065845e+000 8.441207e+000 5.178078e+000 5.306652e-001 2.145267e+000 6.578719e-001 2.362438e+000 1.826245e+000 3.229168e+000 2.726907e+000 2.842280e+000 1.230994e+000 2.222027e+000 6.568545e-001 1.432737e+000 1.068442e+000 1.176385e-001
<GCONST> 1.595334e+002
<STATE> 3
<MEAN> 39
 -4.260463e+000 -2.243971e+000 -6.128735e+000 -1.581474e+001 -9.612783e-001 -3.175695e+001 -1.215739e+001 -6.873721e+000 1.760255e+001 -6.438043e+000 -1.229137e+001 4.019417e+000 1.809062e+001 -4.243781e-001 1.148921e+000 5.274672e-002 4.734384e-001 -1.378747e+000 -6.385354e-001 9.799067e-001 4.827737e-001 1.019553e-001 2.101545e-001 7.239553e-001 -1.958586e-001 -3.849622e-002 1.349651e-003 2.620451e-001 -1.025398e-001 1.893018e-001 -1.418728e-001 3.554979e-001 -7.711054e-002 2.560788e-002 -3.676616e-001 3.252953e-001 1.817335e-001 -2.685142e-001 -9.246179e-002
<VARIANCE> 39
 4.799268e+001 1.359667e+002 6.643599e+001 7.554283e+001 6.487815e+001 1.518877e+002 3.073181e+002 5.531038e+001 1.189026e+002 1.258029e+002 8.746416e+001 3.428823e+001 4.311736e+000 4.175333e+000 1.714454e+000 3.711479e+000 4.141054e+000 3.857745e+000 7.392968e+000 4.410482e+000 3.305325e+000 4.691291e+000 4.086257e+000 4.522704e+000 2.656389e+000 2.406013e-001 6.619750e-001 4.128371e-001 5.380080e-001 7.672262e-001 9.919466e-001 1.682566e+000 1.474699e+000 6.216051e-001 1.101781e+000 6.370953e-001 7.487473e-001 7.039013e-001 6.763052e-002
<GCONST> 1.362992e+002
<STATE> 4
<MEAN> 39
 -1.216454e+001 5.306324e+000 -8.456851e+000 -1.179856e+001 -7.592259e+000 -2.963682e+001 -8.276875e-001 -7.183106e+000 1.183077e+001 -7.525333e+000 -3.133741e+000 -1.147750e+000 1.874328e+001 -3.298575e-001 7.525885e-001 4.926955e-002 4.493658e-002 -1.883387e-001 4.824903e-001 1.889072e-001 3.998311e-001 -6.235659e-001 3.083714e-001 4.193716e-001 -3.054065e-001 -6.088549e-002 3.835093e-001 -3.690605e-001 -2.143284e-001 -1.793742e-001 3.618404e-001 3.060555e-001 -2.314196e-001 1.214408e-002 3.009130e-002 -7.444017e-002 -2.979255e-001 -8.681715e-002 -4.262282e-002
<VARIANCE> 39
 9.175676e+001 2.849209e+002 9.158217e+001 1.048106e+002 6.036173e+001 1.633403e+002 1.025129e+002 7.049127e+001 9.475052e+001 1.885099e+002 1.024022e+002 6.724137e+001 1.628461e+000 3.463301e+000 2.322959e+000 2.719845e+000 5.640366e+000 4.067735e+000 4.606767e+000 4.828039e+000 3.718225e+000 5.878599e+000 3.273533e+000 4.785300e+000 2.655489e+000 1.574705e-001 6.006430e-001 7.458640e-001 4.918509e-001 9.132401e-001 6.858467e-001 1.123598e+000 7.384338e-001 6.952164e-001 1.128439e+000 1.083391e+000 1.048075e+000 5.461420e-001 2.507897e-002
<GCONST> 1.359263e+002
<TRANSP> 5
 0.000000e+000 1.000000e+000 0.000000e+000 0.000000e+000 0.000000e+000
 0.000000e+000 5.663605e-001 4.336395e-001 0.000000e+000 0.000000e+000
 0.000000e+000 0.000000e+000 6.741747e-001 3.258253e-001 0.000000e+000
 0.000000e+000 0.000000e+000 0.000000e+000 7.956997e-001 2.043003e-001
 0.000000e+000 0.000000e+000 0.000000e+000 0.000000e+000 0.000000e+000
<ENDHMM>
~h "w"
<BEGINHMM>
<NUMSTATES> 5
<STATE> 2
<MEAN> 39
 -4.806511e+000 1.507566e+000 1.245639e+001 -3.221778e+001 -7.455958e+000 -6.609300e+000 -9.915688e+000 -1.917871e+001 3.669429e+000 -6.989048e+000 -1.017098e+001 4.835905e+000 1.843039e+001 2.159770e-001 4.876576e-001 -3.229633e-001 2.766989e-001 -1.915467e-001 4.052840e-001 -7.271811e-001 2.214711e-001 1.435640e-001 -7.904471e-002 3.550146e-002 1.129467e-001 -1.782360e-001 3.260079e-002 -1.851457e-002 -7.924698e-002 7.560883e-002 -1.631287e-002 -1.630745e-002 -3.437459e-002 4.039659e-002 1.492465e-003 1.595760e-002 1.813621e-002 4.830010e-003 -2.005027e-002
<VARIANCE> 39
 3.974057e+001 7.851034e+001 8.325012e+001 1.223249e+002 1.053504e+002 8.691724e+001 1.166607e+002 7.392045e+001 4.447012e+001 1.170991e+002 8.018085e+001 1.134058e+002 7.639783e+000 6.724719e-001 1.028859e+000 1.539283e+000 2.700223e+000 2.153008e+000 3.568148e+000 2.723125e+000 3.459333e+000 2.904708e+000 2.477289e+000 2.367680e+000 2.364252e+000 5.850632e-002 7.683536e-002 1.531791e-001 2.668962e-001 3.607813e-001 3.923963e-001 6.722552e-001 5.316387e-001 5.912203e-001 4.847056e-001 4.570835e-001 3.765021e-001 3.986442e-001 5.903298e-003
<GCONST> 1.152292e+002
<STATE> 3
<MEAN> 39
 -2.760554e+000 1.036761e+001 -3.128286e+000 -1.287293e+001 -1.502868e+001 -9.494521e-001 -1.987774e+001 -6.888170e+000 5.498542e+000 -5.486385e+000 -3.252851e+000 5.312883e+000 1.177835e+001 -1.163660e+000 -4.014106e-001 -4.960622e-001 1.283708e+000 6.376114e-001 -4.574839e-001 1.384966e+000 7.467306e-001 -2.906104e-001 -4.053395e-002 5.594741e-001 -3.499248e-001 -1.937519e-001 -1.736246e-001 -4.295534e-002 9.213556e-002 7.779396e-002 2.408742e-001 -3.535050e-001 3.943141e-001 6.839857e-002 1.679982e-001 -2.380658e-002 2.351371e-003 -4.919844e-002 8.741938e-002
<VARIANCE> 39
 6.146785e+001 3.114146e+001 2.877677e+001 1.253141e+002 5.852697e+001 5.844106e+001 9.258080e+001 8.359346e+001 8.513233e+001 2.639579e+001 6.079669e+001 7.910222e+001 7.655936e+000 2.207843e+000 2.002037e+000 2.704071e+000 3.158979e+000 5.537737e+000 6.863271e+000 7.822797e+000 3.924985e+000 5.915874e+000 4.159375e+000 5.173644e+000 3.360888e+000 2.058461e-001 4.649999e-001 4.468147e-001 6.238887e-001 8.598741e-001 1.093913e+000 1.523249e+000 9.578835e-001 5.697768e-001 1.412005e+000 7.712329e-001 1.077089e+000 6.797161e-001 4.362442e-002
<GCONST> 1.322712e+002
<STATE> 4
<MEAN> 39
 -1.127835e+001 3.630843e+000 -5.946530e+000 -9.676590e+000 -2.723701e+000 -3.020615e+001 -5.605715e+000 -4.447557e+000 1.605633e+001 -7.483461e+000 -5.942539e+000 1.444369e+000 1.701141e+001 1.576561e-001 -4.448723e-001 -5.213580e-001 -4.416296e-001 7.091545e-001 -8.153650e-001 8.623210e-002 -1.821584e-001 6.213692e-001 -1.327419e-001 -3.521530e-001 -1.666155e-001 3.822660e-001 1.670833e-001 -6.739398e-002 -1.322590e-002 -1.393797e-001 -6.071951e-002 2.861188e-001 -2.125647e-001 -1.173521e-001 -1.675635e-001 -1.507699e-002 -1.020713e-001 1.173335e-002 -1.395011e-002
<VARIANCE> 39
 1.214747e+002 8.851299e+001 1.037063e+002 1.459509e+002 1.033602e+002 1.516272e+002 9.684187e+001 6.651395e+001 1.118272e+002 8.246077e+001 1.262608e+002 5.004906e+001 7.481772e+000 1.061301e+001 8.838370e+000 6.795951e+000 1.402123e+001 7.575655e+000 1.408935e+001 8.846876e+000 6.192776e+000 8.455189e+000 8.516797e+000 1.000919e+001 4.904131e+000 7.630907e-001 1.652495e+000 1.274390e+000 1.367752e+000 2.091285e+000 9.701405e-001 1.383323e+000 1.679083e+000 1.214673e+000 1.567407e+000 1.710094e+000 1.366888e+000 7.978041e-001 1.254237e-001
<GCONST> 1.563792e+002
<TRANSP> 5
 0.000000e+000 1.000000e+000 0.000000e+000 0.000000e+000 0.000000e+000
 0.000000e+000 9.747815e-001 2.521850e-002 0.000000e+000 0.000000e+000
 0.000000e+000 0.000000e+000 9.220524e-001 7.794765e-002 0.000000e+000
 0.000000e+000 0.000000e+000 0.000000e+000 9.567221e-001 4.327792e-002
 0.000000e+000 0.000000e+000 0.000000e+000 0.000000e+000 0.000000e+000
<ENDHMM>
~h "x"
<BEGINHMM>
<NUMSTATES> 5
<STATE> 2
<MEAN> 39
 -6.700975e+000 -2.226891e+001 -1.070889e+001 -1.750202e+001 1.272157e+001 -1.024748e+001 -5.972209e+000 -7.022310e+000 -4.184090e+000 -8.080018e+000 -9.717805e+000 -1.859834e+000 1.908649e+001 1.169316e-001 6.983644e-002 3.293889e-001 -1.080505e-001 -1.669386e-001 -1.935828e-001 1.091074e-001 -1.368114e-001 -8.338092e-002 -3.134448e-001 2.318378e-001 -2.214328e-001 5.851323e-002 2.022427e-002 2.558418e-002 1.539622e-002 1.108344e-001 2.313609e-002 -2.408539e-003 9.845593e-003 2.314311e-002 -4.177087e-002 1.824268e-003 -5.033916e-002 5.056499e-003 -1.188182e-002
<VARIANCE> 39
 1.585044e+001 3.066085e+001 3.361922e+001 5.070398e+001 3.951132e+001 1.316886e+002 7.235728e+001 6.052746e+001 8.251190e+001 7.531882e+001 6.562032e+001 2.377244e+001 4.109179e+000 1.338650e+000 3.098888e+000 2.828698e+000 3.431228e+000 3.929876e+000 3.218621e+000 3.137492e+000 6.182980e+000 3.482732e+000 5.323408e+000 2.894808e+000 2.330451e+000 2.845227e-001 2.339540e-001 5.169303e-001 4.558936e-001 5.307023e-001 6.809283e-001 6.097850e-001 4.610929e-001 1.127416e+000 6.535418e-001 8.420258e-001 5.436502e-001 4.494474e-001 3.819788e-002
<GCONST> 1.221806e+002
<STATE> 3
<MEAN> 39
 -2.050924e+000 -1.979291e+001 -6.970135e+000 -1.201424e+001 1.125904e+001 -1.495818e+001 -4.153652e+000 -8.661298e+000 -8.487216e+000 -1.178645e+001 -1.009042e+001 -5.159696e+000 1.863322e+001 7.944333e-002 1.874124e-001 2.383908e-002 3.641448e-001 -1.877359e-001 -1.149373e-002 5.650867e-003 -1.216676e-001 -1.303269e-001 -7.320521e-002 -2.851657e-001 -1.002610e-001 -7.074572e-002 -3.448445e-002 -2.278031e-002 -2.186927e-002 1.908626e-003 -2.242831e-002 3.773641e-002 2.239656e-002 3.800501e-003 7.923323e-002 4.265481e-002 1.398418e-002 4.721522e-003 1.596459e-002
<VARIANCE> 39
 3.087809e+001 1.423023e+001 4.930997e+001 4.949800e+001 6.538531e+001 7.558126e+001 5.425071e+001 4.100030e+001 5.685672e+001 4.905841e+001 6.151403e+001 2.629658e+001 2.244200e+000 1.253039e+000 1.062095e+000 2.149163e+000 3.610014e+000 4.219349e+000 2.272495e+000 3.127734e+000 3.696733e+000 5.308611e+000 4.855175e+000 3.783734e+000 1.744166e+000 1.473950e-001 1.717940e-001 2.005189e-001 3.304566e-001 5.846517e-001 7.542092e-001 4.713779e-001 4.868439e-001 6.224338e-001 8.768144e-001 1.031614e+000 6.719857e-001 3.319936e-001 1.972287e-002
<GCONST> 1.154037e+002
<STATE> 4
<MEAN> 39
 -1.035771e+001 -1.150200e+001 1.157924e+001 -2.258514e+001 -7.937394e+000 -1.094904e+001 3.448186e+000 -1.904782e+001 7.090282e+000 -1.642906e+000 -1.799569e+001 -9.352828e+000 1.951657e+001 1.288213e-001 8.498245e-002 4.550292e-003 2.021788e-001 -1.003930e-002 3.400584e-001 -4.339410e-001 1.451394e-002 4.211400e-002 4.524145e-001 -2.495837e-001 7.531388e-002 -7.829203e-002 -6.891849e-004 1.122120e-002 -7.237975e-002 5.174819e-003 8.621263e-002 1.634994e-003 -2.699060e-002 4.265202e-002 -4.522896e-002 -6.432372e-002 4.495118e-002 4.983668e-002 -1.038646e-002
<VARIANCE> 39
 2.132809e+001 1.869240e+001 6.599195e+001 7.333739e+001 6.172123e+001 5.774721e+001 9.998785e+001 3.576887e+001 4.369792e+001 2.316466e+002 4.846056e+001 2.046831e+001 3.869304e+000 5.864744e-001 9.425673e-001 1.598964e+000 2.645183e+000 1.810736e+000 2.326582e+000 3.246511e+000 2.263395e+000 2.074062e+000 3.963470e+000 2.750266e+000 2.041399e+000 6.149952e-002 7.949992e-002 1.514398e-001 1.615872e-001 3.703948e-001 2.529964e-001 3.825683e-001 5.391537e-001 4.385625e-001 4.170151e-001 7.143918e-001 5.514494e-001 4.408871e-001 6.186464e-003
<GCONST> 1.065879e+002
<TRANSP> 5
 0.000000e+000 1.000000e+000 0.000000e+000 0.000000e+000 0.000000e+000
 0.000000e+000 9.584438e-001 4.155620e-002 0.000000e+000 0.000000e+000
 0.000000e+000 0.000000e+000 9.656019e-001 3.439808e-002 0.000000e+000
 0.000000e+000 0.000000e+000 0.000000e+000 9.515769e-001 4.842299e-002
 0.000000e+000 0.000000e+000 0.000000e+000 0.000000e+000 0.000000e+000
<ENDHMM>
~h "z"
<BEGINHMM>
<NUMSTATES> 5
<STATE> 2
<MEAN> 39
 -1.334296e+001 -2.016169e+001 2.328201e+000 -1.832472e+001 -3.209774e-002 -1.589841e+001 7.445648e+000 -1.260860e+001 -2.235067e+000 -1.647099e+001 -2.522808e-001 -6.554100e+000 2.144369e+001 2.118355e-001 -1.369555e-001 -2.136566e-001 6.652176e-001 2.760629e-001 -2.891890e-001 -4.734536e-001 2.562710e-001 -5.798381e-002 -4.544400e-001 -4.872298e-002 -4.593996e-002 -8.461210e-002 3.959778e-002 -3.197803e-002 -3.063305e-002 6.808095e-002 1.461157e-002 -2.043895e-002 -2.379611e-002 1.230916e-002 4.873380e-003 -3.035936e-003 -6.996598e-003 2.410519e-002 -5.736356e-003
<VARIANCE> 39
 9.411632e+000 1.737822e+001 2.463647e+001 4.846378e+001 5.369588e+001 6.195961e+001 4.753229e+001 6.020619e+001 4.974868e+001 5.135670e+001 5.025559e+001 3.048194e+001 1.324835e+000 4.633738e-001 1.196947e+000 1.044440e+000 2.025249e+000 1.516978e+000 1.789635e+000 2.083273e+000 2.909495e+000 2.537531e+000 2.995892e+000 2.270356e+000 2.267438e+000 6.194449e-002 8.468159e-002 2.132528e-001 1.811876e-001 3.398729e-001 2.546086e-001 2.917815e-001 3.636855e-001 5.924650e-001 4.920020e-001 5.060307e-001 3.932157e-001 4.524601e-001 1.092202e-002
<GCONST> 1.006655e+002
<STATE> 3
<MEAN> 39
 -8.861052e+000 -2.198628e+001 -4.283116e-001 -9.236544e+000 3.623909e+000 -1.532352e+001 1.340765e+000 -1.253466e+001 -7.930141e+000 -2.087814e+001 -5.597092e+000 -2.702614e+000 2.040515e+001 3.901607e-001 -2.074133e-002 -9.326621e-002 6.253748e-002 -2.561461e-002 1.454439e-001 -1.109562e-001 -3.114617e-002 -2.237028e-001 1.601397e-001 -3.574562e-001 1.597932e-001 -1.169088e-001 3.916569e-004 3.684054e-002 5.353693e-002 -4.889281e-002 -1.500345e-002 2.608263e-002 -3.057493e-003 8.177923e-002 3.889827e-002 1.175359e-001 5.254281e-002 1.771374e-002 -1.919202e-002
<VARIANCE> 39
 1.217292e+001 1.379418e+001 1.515846e+001 2.995407e+001 4.031806e+001 7.530587e+001 3.247802e+001 5.027565e+001 7.610802e+001 3.063512e+001 4.234403e+001 4.099661e+001 1.315983e+000 7.181358e-001 9.756925e-001 7.453073e-001 1.628828e+000 1.889537e+000 2.083932e+000 2.374364e+000 3.134484e+000 1.939724e+000 2.439685e+000 2.360629e+000 2.451353e+000 1.177372e-001 1.172695e-001 1.478737e-001 1.340512e-001 3.175219e-001 3.513405e-001 3.915454e-001 4.877753e-001 5.131762e-001 3.831096e-001 4.480462e-001 4.702845e-001 5.012003e-001 1.319814e-002
<GCONST> 1.000949e+002
<STATE> 4
<MEAN> 39
 -5.024241e+000 -2.270935e+001 -3.294266e-001 -1.459523e+001 8.193110e+000 -1.184516e+001 -1.253334e+000 -6.735303e+000 -9.393414e+000 -1.259405e+001 -9.469179e+000 -2.424620e-001 1.940065e+001 2.268559e-001 9.499545e-002 7.399763e-003 1.547529e-002 -8.133949e-002 -7.261851e-002 -2.956670e-001 1.752299e-001 1.200835e-001 3.585908e-001 -2.383125e-001 1.978255e-001 -9.327592e-002 -3.101258e-002 -6.857957e-003 -2.763825e-002 -9.323512e-003 -6.888930e-002 -2.815843e-002 1.208019e-003 3.533190e-003 1.965966e-002 -1.058337e-002 1.361069e-002 -3.492895e-002 1.051892e-002
<VARIANCE> 39
 9.696667e+000 2.743644e+001 2.774069e+001 3.097398e+001 4.816952e+001 1.003968e+002 2.955598e+001 4.645374e+001 6.112068e+001 4.052076e+001 5.195163e+001 4.113594e+001 1.462682e+000 4.871152e-001 7.288939e-001 1.234730e+000 1.439561e+000 1.711147e+000 1.876910e+000 1.867291e+000 2.451458e+000 2.290407e+000 2.507996e+000 1.900620e+000 2.691740e+000 8.515971e-002 8.291191e-002 1.292989e-001 2.145602e-001 2.320567e-001 3.050297e-001 3.189274e-001 3.340609e-001 4.441534e-001 4.583953e-001 4.452971e-001 3.294523e-001 4.583390e-001 1.085610e-002
<GCONST> 9.895643e+001
<TRANSP> 5
 0.000000e+000 1.000000e+000 0.000000e+000 0.000000e+000 0.000000e+000
 0.000000e+000 9.219559e-001 7.804415e-002 0.000000e+000 0.000000e+000
 0.000000e+000 0.000000e+000 8.893910e-001 1.106090e-001 0.000000e+000
 0.000000e+000 0.000000e+000 0.000000e+000 9.078975e-001 9.210253e-002
 0.000000e+000 0.000000e+000 0.000000e+000 0.000000e+000 0.000000e+000
<ENDHMM>
~h "@@"
<BEGINHMM>
<NUMSTATES> 5
<STATE> 2
<MEAN> 39
 1.923506e+000 -1.464768e+001 -1.569731e+001 -1.487053e+001 5.325703e+000 7.822021e-001 -9.015251e+000 -6.662302e+000 -4.580328e+000 -5.052627e+000 -1.133733e+001 -4.950518e+000 1.779398e+001 2.955793e-001 5.077842e-001 -6.144770e-001 5.839070e-001 2.499092e-002 3.492713e-002 -3.166916e-001 -6.700078e-002 -2.778829e-001 -9.907572e-002 -1.416053e-001 -4.353638e-002 -1.856716e-001 -7.283628e-002 3.779182e-002 2.932670e-003 -8.431748e-002 -2.749961e-003 1.486427e-002 1.033175e-001 2.198849e-002 1.247401e-001 -2.875688e-002 7.205806e-002 2.471438e-002 1.707559e-003
<VARIANCE> 39
 5.578476e+001 1.063945e+002 9.824863e+001 1.295298e+002 1.245140e+002 2.190824e+002 8.087533e+001 1.258934e+002 9.496379e+001 7.902351e+001 9.626108e+001 7.681721e+001 3.771748e+000 9.820662e-001 1.821879e+000 1.835282e+000 2.580951e+000 2.809339e+000 4.343302e+000 3.767648e+000 3.848283e+000 4.204586e+000 3.039132e+000 3.237709e+000 3.314650e+000 5.194068e-002 1.633501e-001 2.752316e-001 3.139178e-001 4.412798e-001 5.281055e-001 6.797982e-001 6.438784e-001 6.605948e-001 6.850862e-001 5.294861e-001 6.098736e-001 5.938487e-001 8.762642e-003
<GCONST> 1.239699e+002
<STATE> 3
<MEAN> 39
 -6.303021e-001 -3.295168e+000 -1.653854e+001 -9.561063e+000 -8.267481e-001 -3.637174e+000 -8.669002e+000 -8.508270e+000 -3.280794e+000 -5.902364e+000 -7.004719e+000 -2.890125e+000 1.492563e+001 -4.981298e-001 3.712519e-001 9.358145e-003 3.681184e-001 1.868938e-001 1.305546e-001 6.047471e-001 3.797041e-001 4.993863e-001 1.935583e-002 2.798209e-001 -1.078388e-001 -1.923488e-001 -1.962599e-001 -1.544321e-001 2.294556e-001 -1.800798e-001 5.460331e-002 -1.452629e-001 2.599005e-001 1.256243e-001 2.001912e-001 3.644842e-002 1.627777e-001 9.351006e-002 6.048125e-002
<VARIANCE> 39
 8.321023e+001 1.313152e+002 1.419494e+002 1.551078e+002 2.057217e+002 1.530817e+002 1.078322e+002 1.218169e+002 1.043972e+002 1.227652e+002 8.800298e+001 8.326311e+001 1.456914e+001 1.018865e+000 2.301724e+000 2.676375e+000 3.340652e+000 3.330588e+000 4.737573e+000 5.268033e+000 4.487653e+000 4.204550e+000 3.978639e+000 4.267002e+000 3.420696e+000 1.155915e-001 2.926812e-001 4.485900e-001 4.919432e-001 8.311909e-001 9.113946e-001 8.311045e-001 9.703026e-001 8.222836e-001 8.636345e-001 8.453560e-001 8.115504e-001 5.807315e-001 1.920038e-002
<GCONST> 1.357100e+002
<STATE> 4
<MEAN> 39
 -6.102674e+000 -1.865604e+000 -1.459002e+001 -1.433805e+001 2.519713e+000 -7.088161e+000 -1.810502e+000 -8.967974e+000 4.188737e-001 -6.733093e+000 -5.522104e+000 -1.899971e+000 1.715908e+001 -1.091675e+000 -8.612307e-001 7.699060e-001 -7.716645e-001 8.695253e-001 -5.481408e-001 8.204496e-001 6.812451e-001 6.098794e-001 -2.896203e-001 1.262597e-001 1.679009e-001 2.684708e-001 -1.863354e-002 -1.415749e-001 1.108730e-001 -1.509923e-001 4.504998e-002 4.276470e-002 -2.475829e-002 2.455012e-002 -6.339132e-002 -7.104845e-002 -5.819469e-003 3.769772e-002 6.380581e-002
<VARIANCE> 39
 9.692815e+001 2.489375e+002 1.182993e+002 2.334596e+002 1.661844e+002 2.005369e+002 1.011930e+002 1.170635e+002 1.054536e+002 1.178637e+002 9.120624e+001 7.006772e+001 1.184725e+001 4.857985e+000 1.002393e+001 7.086963e+000 1.181137e+001 1.143049e+001 1.199304e+001 9.705078e+000 6.820446e+000 7.511111e+000 6.517276e+000 7.712304e+000 5.626805e+000 3.021303e-001 6.283510e-001 1.080851e+000 1.134322e+000 1.706784e+000 1.804464e+000 1.901196e+000 1.313886e+000 1.084150e+000 1.423093e+000 1.042498e+000 1.061011e+000 8.238031e-001 5.184116e-002
<GCONST> 1.555019e+002
<TRANSP> 5
 0.000000e+000 1.000000e+000 0.000000e+000 0.000000e+000 0.000000e+000
 0.000000e+000 8.296348e-001 1.703652e-001 0.000000e+000 0.000000e+000
 0.000000e+000 0.000000e+000 5.007999e-001 4.992001e-001 0.000000e+000
 0.000000e+000 0.000000e+000 0.000000e+000 6.350890e-001 3.649109e-001
 0.000000e+000 0.000000e+000 0.000000e+000 0.000000e+000 0.000000e+000
<ENDHMM>
~h "aa"
<BEGINHMM>
<NUMSTATES> 5
<STATE> 2
<MEAN> 39
 -7.755726e+000 -1.740595e+001 -6.386066e-001 -2.040157e+001 3.789028e+000 -1.117070e+001 7.246786e+000 -8.046158e+000 1.428354e+000 -6.607961e+000 -2.484040e+000 -1.774707e+000 2.013363e+001 1.511719e-001 2.299190e-001 9.388844e-002 -2.322595e-001 -3.643242e-001 7.109289e-002 -1.599923e-001 -1.977405e-001 1.061501e-002 3.442520e-001 8.930419e-002 1.351002e-001 -8.991507e-002 1.898942e-002 2.377638e-002 -3.575309e-002 5.388784e-002 4.568266e-003 -1.121153e-002 -9.916534e-002 2.776285e-002 -8.483614e-003 -3.465024e-002 -2.943489e-002 6.958404e-002 -1.626286e-002
<VARIANCE> 39
 2.683365e+001 4.543715e+001 7.292983e+001 1.029097e+002 1.498801e+002 1.498387e+002 9.909070e+001 5.776847e+001 7.241435e+001 4.717965e+001 7.515321e+001 6.635529e+001 2.627292e+000 5.021182e-001 7.537867e-001 1.305026e+000 1.706629e+000 2.880125e+000 2.243333e+000 3.172820e+000 2.221109e+000 2.877669e+000 2.541918e+000 2.199477e+000 2.522504e+000 5.583922e-002 8.598503e-002 1.144930e-001 2.079329e-001 2.528950e-001 3.857220e-001 3.196900e-001 4.785928e-001 4.123492e-001 4.987797e-001 4.421545e-001 4.012713e-001 4.337604e-001 8.862201e-003
<GCONST> 1.091930e+002
<STATE> 3
<MEAN> 39
 -5.546486e+000 -1.454403e+001 -1.535960e-001 -1.865688e+001 -1.325017e+000 -1.129408e+001 3.343158e+000 -8.908746e+000 3.603390e-001 -6.529136e+000 -3.590037e+000 7.788640e-001 1.808449e+001 2.872143e-001 2.708425e-001 -1.866039e-001 5.067394e-001 -2.165809e-001 2.952697e-001 -4.893222e-001 4.118232e-001 -2.116122e-001 -1.298298e-001 -3.023108e-001 7.994828e-002 -1.500643e-001 -2.667928e-002 -2.912165e-002 -5.300498e-002 2.332922e-001 1.247294e-001 1.059579e-001 1.446168e-001 7.735492e-002 -1.009743e-001 -2.243362e-001 -1.062343e-001 -9.959094e-002 4.658189e-003
<VARIANCE> 39
 3.845632e+001 6.538354e+001 8.841455e+001 1.606621e+002 1.721367e+002 1.220871e+002 1.485851e+002 7.688624e+001 8.055527e+001 7.971371e+001 1.010700e+002 9.333662e+001 1.999454e+000 9.491625e-001 9.105429e-001 1.561034e+000 2.505610e+000 2.489940e+000 2.950354e+000 4.141968e+000 2.848405e+000 2.819832e+000 3.922592e+000 2.967672e+000 3.118282e+000 5.546323e-002 1.176680e-001 1.276918e-001 3.015213e-001 3.887694e-001 4.584622e-001 5.500102e-001 7.296180e-001 5.254506e-001 5.023990e-001 6.174935e-001 5.681002e-001 5.403287e-001 6.786295e-003
<GCONST> 1.183712e+002
<STATE> 4
<MEAN> 39
 -1.124013e-001 -1.718774e+001 -1.037272e+001 -5.300854e+000 -3.010569e-001 -6.177519e+000 -6.974934e-001 -4.508293e+000 -6.205369e+000 -1.047121e+001 -9.243054e+000 1.929011e+000 1.679235e+001 1.549192e-001 5.806088e-001 -6.554143e-001 1.139076e+000 8.303436e-003 4.834116e-001 -2.598379e-001 2.076763e-001 -5.247637e-001 -4.382616e-001 -4.361278e-002 1.578547e-001 -2.087365e-001 -1.268397e-001 7.428580e-002 3.186963e-002 -2.663376e-002 8.872813e-002 -3.777771e-002 1.340334e-001 -1.144150e-002 1.573062e-001 3.515177e-002 9.225643e-002 7.801803e-003 2.565840e-003
<VARIANCE> 39
 5.095494e+001 7.039035e+001 1.375172e+002 1.548174e+002 2.172840e+002 1.212709e+002 1.646668e+002 1.815709e+002 1.219822e+002 8.060404e+001 1.437395e+002 8.601054e+001 3.575681e+000 1.067160e+000 1.360329e+000 2.542502e+000 2.810739e+000 2.306025e+000 3.235252e+000 3.980465e+000 4.230633e+000 3.866725e+000 3.200092e+000 3.475427e+000 2.781298e+000 6.023363e-002 1.774607e-001 2.050823e-001 3.936299e-001 5.191180e-001 5.075802e-001 6.055327e-001 8.334542e-001 7.735291e-001 7.493879e-001 7.906525e-001 6.288056e-001 5.079405e-001 1.089808e-002
<GCONST> 1.266465e+002
<TRANSP> 5
 0.000000e+000 1.000000e+000 0.000000e+000 0.000000e+000 0.000000e+000
 0.000000e+000 8.116054e-001 1.883946e-001 0.000000e+000 0.000000e+000
 0.000000e+000 0.000000e+000 5.704728e-001 4.295272e-001 0.000000e+000
 0.000000e+000 0.000000e+000 0.000000e+000 6.554825e-001 3.445175e-001
 0.000000e+000 0.000000e+000 0.000000e+000 0.000000e+000 0.000000e+000
<ENDHMM>
~h "ee"
<BEGINHMM>
<NUMSTATES> 5
<STATE> 2
<MEAN> 39
 -4.478327e+000 8.087406e+000 -4.385039e+000 -1.386690e+001 -1.495319e+001 -2.336102e+001 -6.426378e+000 9.448739e-001 1.756621e+001 -5.806387e+000 -5.457584e+000 1.184138e+001 1.484935e+001 -2.097161e-002 2.126180e-001 -6.684127e-002 2.928688e-001 -6.181441e-002 3.756402e-001 -4.054610e-001 2.503840e-001 -9.340526e-002 1.634474e-001 1.956724e-001 -3.552807e-002 -2.050644e-001 -1.008809e-001 -6.297195e-002 1.178241e-001 3.800183e-002 1.098177e-001 6.628986e-002 8.114317e-002 -6.662802e-002 -3.108690e-002 -1.112045e-001 -4.861008e-002 -8.583551e-002 6.425600e-003
<VARIANCE> 39
 6.281232e+001 8.871775e+001 8.959854e+001 1.752704e+002 1.564772e+002 2.957943e+002 8.593653e+001 1.153638e+002 2.360668e+002 1.612734e+002 1.184120e+002 1.320331e+002 8.147167e+000 1.263450e+000 1.886666e+000 2.921049e+000 3.698167e+000 3.719145e+000 3.717735e+000 3.912818e+000 4.118962e+000 6.308854e+000 4.662170e+000 4.686652e+000 4.024393e+000 1.304853e-001 2.566690e-001 2.762609e-001 5.594655e-001 4.492883e-001 5.464137e-001 7.904056e-001 8.211775e-001 6.718983e-001 8.533372e-001 9.163593e-001 7.724792e-001 6.555766e-001 1.620478e-002
<GCONST> 1.346375e+002
<STATE> 3
<MEAN> 39
 -1.122629e+001 1.876498e+000 -9.196306e+000 6.473565e+000 1.500716e+000 -1.286902e+001 -7.052649e+000 -2.253216e+000 -1.908577e+000 -1.155514e+001 1.170456e+000 -1.774365e+000 1.427539e+001 -1.175513e+000 3.746952e-001 7.418016e-001 2.038033e-001 1.187660e+000 1.107265e+000 9.254485e-001 -3.933446e-001 1.925722e-001 -8.947262e-002 2.300816e-001 -2.615969e-002 -8.535185e-002 -8.330258e-002 -2.790753e-001 9.097041e-002 -4.192551e-001 1.116682e-001 -1.119370e-001 1.583860e-001 -2.021657e-001 6.832783e-002 2.825034e-001 -1.170291e-001 -4.319903e-002 4.895673e-002
<VARIANCE> 39
 8.991740e+001 1.701333e+002 5.947240e+001 1.561560e+002 1.775024e+002 1.511050e+002 1.472972e+002 1.853356e+002 2.197613e+002 1.594505e+002 6.496674e+001 7.263539e+001 1.758100e+001 3.600103e+000 4.487051e+000 4.863771e+000 3.614187e+000 5.603128e+000 8.120226e+000 9.269287e+000 5.475864e+000 9.272785e+000 1.057265e+001 3.952460e+000 6.587274e+000 1.835738e-001 8.691596e-001 6.874986e-001 1.036214e+000 9.122104e-001 1.341120e+000 1.147610e+000 1.660122e+000 1.142125e+000 1.961773e+000 1.607334e+000 7.119070e-001 1.266941e+000 4.588116e-002
<GCONST> 1.506576e+002
<STATE> 4
<MEAN> 39
 -1.868166e+001 -2.974932e+000 -1.703676e+000 -3.892359e+000 8.303582e+000 -9.238706e+000 2.115046e-001 -4.203574e+000 3.715080e+000 -6.284476e+000 -1.994894e-001 1.363581e+000 1.564764e+001 -1.161165e+000 -2.929390e+000 1.614348e-001 -1.295414e+000 1.876795e+000 -7.198143e-001 7.239617e-001 -9.508435e-001 1.014893e+000 -3.021941e-001 -5.349635e-001 -3.612933e-001 7.027696e-001 7.062503e-001 -2.126479e-001 -3.059622e-001 -1.673366e-001 -5.687811e-001 -2.317652e-001 -4.075982e-001 -2.191385e-001 -1.508539e-001 -2.349516e-001 -2.773776e-001 -1.370861e-001 9.516504e-002
<VARIANCE> 39
 1.178673e+002 1.702613e+002 1.162125e+002 1.476086e+002 2.602055e+002 2.861625e+002 1.288789e+002 1.558327e+002 1.373327e+002 1.023761e+002 9.404713e+001 6.901273e+001 1.251398e+001 2.003035e+001 6.311702e+000 1.606879e+001 1.054063e+001 3.646382e+001 1.419997e+001 1.010267e+001 1.021542e+001 2.246982e+001 1.030619e+001 1.057402e+001 4.627481e+000 5.950663e-001 2.690562e+000 1.194096e+000 2.830917e+000 2.062145e+000 4.640218e+000 3.163960e+000 1.285874e+000 1.386712e+000 3.649992e+000 2.118503e+000 1.775486e+000 8.378834e-001 1.233029e-001
<GCONST> 1.695360e+002
<TRANSP> 5
 0.000000e+000 1.000000e+000 0.000000e+000 0.000000e+000 0.000000e+000
 0.000000e+000 8.673868e-001 1.326132e-001 0.000000e+000 0.000000e+000
 0.000000e+000 0.000000e+000 7.054294e-001 2.945705e-001 0.000000e+000
 0.000000e+000 0.000000e+000 0.000000e+000 6.833445e-001 3.166555e-001
 0.000000e+000 0.000000e+000 0.000000e+000 0.000000e+000 0.000000e+000
<ENDHMM>
~h "j^"
<BEGINHMM>
<NUMSTATES> 5
<STATE> 2
<MEAN> 39
 -9.818876e+000 -2.287009e+001 -3.607443e+000 -2.063680e+001 3.022041e+000 -1.177769e+001 7.872194e+000 -9.628277e+000 1.524018e+000 -9.415888e+000 -1.910682e+000 -1.450861e+000 2.069863e+001 -3.581493e-001 -6.955570e-002 5.590726e-001 -8.082210e-001 -7.185619e-001 1.555960e-001 1.114644e+000 2.867585e-001 1.757257e-001 4.933047e-001 -5.205702e-001 -1.669974e-001 2.457179e-001 -2.424362e-001 4.907760e-001 3.343854e-001 3.590630e-001 -2.328756e-002 1.531923e-001 -1.759105e-001 3.305506e-001 6.975711e-003 8.016613e-002 1.951802e-001 2.764611e-003 -1.408490e-001
<VARIANCE> 39
 2.925784e+001 4.760038e+001 9.547764e+001 6.755277e+001 8.096284e+001 1.313123e+002 6.319322e+001 8.768595e+001 9.945300e+001 1.053501e+002 5.823596e+001 4.359570e+001 3.700610e+000 1.442358e+000 1.494394e+000 1.738933e+000 6.402571e+000 3.892026e+000 4.990550e+000 4.522497e+000 6.263355e+000 4.919581e+000 6.777658e+000 3.895328e+000 2.657617e+000 1.687847e-001 4.236372e-001 2.809102e-001 4.444688e-001 7.114944e-001 7.682272e-001 6.594195e-001 8.315035e-001 9.262365e-001 8.450331e-001 9.493237e-001 8.702792e-001 5.902371e-001 1.949330e-002
<GCONST> 1.284923e+002
<STATE> 3
<MEAN> 39
 -1.173696e+001 -1.921195e+001 2.874260e+000 -2.319750e+001 -2.933055e+000 -1.329087e+001 9.123715e+000 -1.130956e+001 -7.586089e-001 -8.728655e+000 -3.947378e+000 -3.653244e+000 2.123574e+001 -7.107352e-002 3.624499e-001 3.770022e-001 -5.779800e-001 -4.063533e-001 3.495167e-001 1.512497e-001 -5.446336e-002 -1.912380e-001 8.301644e-001 -1.575327e-001 -9.472974e-002 -1.567647e-002 1.524191e-001 -1.602729e-002 -1.540688e-001 3.372157e-001 2.516131e-001 4.952932e-004 -3.208240e-001 -1.717457e-001 -1.604020e-001 -2.076277e-001 2.825616e-002 9.621052e-002 -6.692368e-002
<VARIANCE> 39
 3.062411e+001 4.609887e+001 7.985613e+001 4.400502e+001 5.852345e+001 1.207844e+002 8.353942e+001 5.287499e+001 1.378268e+002 5.189893e+001 5.970955e+001 4.573936e+001 3.191916e+000 5.994920e-001 7.519810e-001 1.085316e+000 2.291563e+000 2.365878e+000 1.966068e+000 2.221537e+000 3.264874e+000 2.704215e+000 2.140208e+000 2.322102e+000 1.850531e+000 4.073786e-002 8.439907e-002 1.393595e-001 1.875259e-001 2.770900e-001 3.172740e-001 3.995256e-001 3.228011e-001 6.734701e-001 5.535112e-001 4.562248e-001 5.181339e-001 3.869548e-001 8.174028e-003
<GCONST> 1.071638e+002
<STATE> 4
<MEAN> 39
 -5.372240e+000 -2.112561e+001 -5.074170e+000 -1.771319e+001 9.724358e+000 -1.161623e+001 -2.591669e+000 -2.890893e+000 -5.196225e+000 -9.903649e+000 -7.073417e+000 -1.269363e+000 1.966915e+001 2.101979e-001 9.377364e-002 -1.734667e-001 2.195541e-001 1.035104e-001 1.682900e-001 -4.831359e-001 1.462209e-001 -2.709922e-001 1.420670e-002 -6.945845e-002 8.964983e-002 -8.982382e-002 -1.476960e-002 -6.074719e-003 -2.684455e-002 4.422517e-002 -3.426914e-002 -2.133450e-002 2.338676e-002 -2.891481e-002 2.826844e-002 -3.423550e-002 3.300622e-002 -1.092568e-002 -7.479261e-003
<VARIANCE> 39
 2.957709e+001 4.684333e+001 7.192690e+001 8.013746e+001 8.527884e+001 1.400839e+002 8.314104e+001 7.135047e+001 8.292252e+001 8.981590e+001 5.778098e+001 4.132123e+001 2.621696e+000 5.800312e-001 1.000373e+000 1.384803e+000 2.078815e+000 2.203077e+000 2.198815e+000 2.387863e+000 2.616484e+000 2.586092e+000 2.688877e+000 2.385775e+000 2.300885e+000 7.462043e-002 8.610570e-002 1.724012e-001 2.752567e-001 3.706667e-001 3.951929e-001 3.862074e-001 4.039603e-001 5.361617e-001 4.951661e-001 4.526703e-001 4.106553e-001 4.047419e-001 8.983322e-003
<GCONST> 1.103696e+002
<TRANSP> 5
 0.000000e+000 1.000000e+000 0.000000e+000 0.000000e+000 0.000000e+000
 0.000000e+000 5.378595e-001 4.621405e-001 0.000000e+000 0.000000e+000
 0.000000e+000 0.000000e+000 6.869032e-001 3.130969e-001 0.000000e+000
 0.000000e+000 0.000000e+000 0.000000e+000 8.839615e-001 1.160385e-001
 0.000000e+000 0.000000e+000 0.000000e+000 0.000000e+000 0.000000e+000
<ENDHMM>
~h "k^"
<BEGINHMM>
<NUMSTATES> 5
<STATE> 2
<MEAN> 39
 -8.162702e+000 -5.437540e+000 -3.356926e+000 -9.899035e+000 2.968468e-001 -1.289670e+001 1.077446e+000 -2.238948e+000 2.390448e+000 -8.225559e+000 -2.737521e+000 -1.104809e-001 1.715848e+001 6.840556e-001 -5.205917e-001 -4.293216e-001 -8.386589e-001 5.352670e-001 1.630817e+000 -4.268083e-001 4.128460e-001 4.146567e-001 1.674095e-001 -2.748894e-001 -1.452960e-001 -1.424116e-001 -3.827784e-003 -4.671463e-001 -1.239180e-001 -3.946685e-001 3.279011e-001 2.701477e-001 -1.091904e-001 -2.651464e-001 9.651235e-002 2.203717e-003 -1.532098e-001 -9.045013e-003 9.930862e-002
<VARIANCE> 39
 9.050858e+001 2.250323e+002 1.407798e+002 1.793134e+002 2.448981e+002 2.116269e+002 1.301936e+002 1.307254e+002 1.236059e+002 1.141615e+002 9.346973e+001 5.309876e+001 1.111303e+001 4.357584e+000 8.369683e+000 3.484447e+000 5.780153e+000 1.030779e+001 4.904855e+000 6.601919e+000 4.518750e+000 5.000783e+000 7.133060e+000 5.982460e+000 4.571976e+000 3.308592e-001 6.476825e-001 1.191621e+000 7.071210e-001 1.074587e+000 1.616945e+000 1.079756e+000 1.025344e+000 1.221652e+000 8.851677e-001 1.075658e+000 1.035027e+000 7.601358e-001 8.737108e-002
<GCONST> 1.500231e+002
<STATE> 3
<MEAN> 39
 -8.627821e+000 -6.133669e+000 -4.257083e+000 -1.474019e+001 7.734092e-001 -9.168972e+000 -9.463536e-001 -4.989091e+000 6.279325e+000 -6.644189e+000 -5.069548e+000 4.569475e-001 1.697244e+001 5.335081e-001 -2.356470e+000 -9.059702e-001 -1.171041e+000 2.003557e+000 1.118685e+000 -3.503784e-001 2.401956e-001 -2.777759e-002 -6.159139e-001 -4.391397e-001 3.415293e-001 2.665846e-001 -1.965276e-001 -2.761687e-001 4.955613e-002 -9.201930e-002 8.018056e-002 -2.087814e-001 1.392260e-001 -2.576120e-001 -1.840935e-001 1.093490e-001 1.156160e-001 -2.056397e-001 1.748208e-001
<VARIANCE> 39
 8.074738e+001 1.370010e+002 1.739554e+002 1.153850e+002 1.981919e+002 2.037936e+002 1.037997e+002 1.291546e+002 1.007149e+002 9.022195e+001 7.654459e+001 5.815452e+001 1.065938e+001 7.398158e+000 1.268194e+001 1.079108e+001 1.180639e+001 2.237439e+001 1.615571e+001 7.072209e+000 1.498994e+001 6.337056e+000 1.425110e+001 1.011855e+001 7.029505e+000 4.295224e-001 8.047593e-001 7.248731e-001 1.065927e+000 9.119919e-001 2.701144e+000 1.508446e+000 1.413700e+000 1.950395e+000 8.985377e-001 1.179017e+000 1.159874e+000 9.669034e-001 5.797922e-002
<GCONST> 1.579290e+002
<STATE> 4
<MEAN> 39
 -5.067810e+000 -1.499372e+001 -7.518841e+000 -1.929026e+001 3.560745e+000 -1.068004e+001 1.129781e-001 -4.802878e+000 8.038311e+000 -9.890479e+000 -7.819275e+000 -8.681689e-001 1.945458e+001 2.000144e-001 -1.268513e+000 -8.046295e-001 -9.951817e-001 1.274464e+000 9.705118e-001 1.972456e-001 -5.778736e-001 -1.624214e-002 8.619871e-001 -1.478893e-001 -9.766762e-001 3.877968e-001 -2.542665e-001 6.066113e-001 1.692984e-001 3.403837e-001 -1.758964e-001 -2.357991e-001 2.347714e-001 -2.403620e-001 -4.405464e-001 3.556907e-001 4.754650e-001 -9.869347e-002 -4.585146e-002
<VARIANCE> 39
 4.498104e+001 9.314960e+001 1.517751e+002 7.875713e+001 1.537724e+002 1.944211e+002 7.499261e+001 9.244489e+001 9.316861e+001 8.310438e+001 9.526856e+001 5.437297e+001 4.060092e+000 2.532802e+000 6.747065e+000 6.299813e+000 6.894968e+000 8.109929e+000 8.257870e+000 5.674742e+000 6.418207e+000 8.327676e+000 4.679783e+000 5.242527e+000 3.823492e+000 3.800654e-001 4.140663e-001 8.538018e-001 1.292290e+000 9.359041e-001 1.224817e+000 9.234555e-001 1.017823e+000 1.048087e+000 1.059187e+000 1.316727e+000 1.272410e+000 8.927005e-001 1.923099e-002
<GCONST> 1.434138e+002
<TRANSP> 5
 0.000000e+000 1.000000e+000 0.000000e+000 0.000000e+000 0.000000e+000
 0.000000e+000 3.559095e-001 6.440905e-001 0.000000e+000 0.000000e+000
 0.000000e+000 0.000000e+000 3.610768e-001 6.389232e-001 0.000000e+000
 0.000000e+000 0.000000e+000 0.000000e+000 3.678774e-001 6.321226e-001
 0.000000e+000 0.000000e+000 0.000000e+000 0.000000e+000 0.000000e+000
<ENDHMM>
~h "kh"
<BEGINHMM>
<NUMSTATES> 5
<STATE> 2
<MEAN> 39
 -7.489161e+000 -2.349512e+001 -9.844048e+000 -1.854703e+001 5.725881e+000 1.944497e-001 -4.226887e+000 -4.937803e+000 1.304945e+000 -3.019166e+000 -7.983697e+000 -5.260527e+000 2.025936e+001 1.806316e-002 7.424800e-002 -1.334838e-001 -7.449064e-001 2.282294e-001 5.507167e-001 -2.935885e-001 6.475206e-001 -1.278380e-001 2.715310e-001 -2.956184e-001 4.768925e-002 6.594615e-002 -1.231021e-001 5.794567e-002 1.307852e-001 1.768738e-001 2.186726e-001 4.596250e-002 -1.389350e-002 -3.919385e-003 -3.994215e-002 6.158877e-002 2.850222e-001 8.317705e-002 -6.321371e-002
<VARIANCE> 39
 1.892420e+001 4.017816e+001 2.031029e+001 6.889807e+001 7.676750e+001 1.825858e+002 9.356855e+001 1.177391e+002 7.521021e+001 1.082177e+002 4.085143e+001 3.280991e+001 1.812062e+000 2.353929e+000 1.119938e+000 1.607499e+000 2.032192e+000 2.317312e+000 2.931712e+000 4.981553e+000 4.272233e+000 3.232589e+000 6.039732e+000 5.197042e+000 3.051365e+000 2.248976e-001 4.180902e-001 1.798044e-001 4.680038e-001 4.042235e-001 3.879721e-001 4.164478e-001 9.460025e-001 5.631512e-001 7.382026e-001 9.426361e-001 8.473189e-001 5.997753e-001 3.629782e-002
<GCONST> 1.215187e+002
<STATE> 3
<MEAN> 39
