~o
<STREAMINFO> 1 39
<VECSIZE> 39<NULLD><MFCC_E_D_A><DIAGC>
~h "@"
<BEGINHMM>
<NUMSTATES> 5
<STATE> 2
<MEAN> 39
 3.657692e+000 -7.251640e+000 -1.470128e+001 -7.051625e+000 3.410308e+000 -2.654703e+000 -6.859607e+000 -1.029805e+001 8.914528e-001 -8.851460e+000 -7.732338e+000 -1.441387e+000 1.657391e+001 -7.716871e-001 -6.421394e-001 -6.158740e-001 -8.551902e-002 6.369287e-001 -2.089756e+000 5.058601e-001 2.128984e-001 -2.267237e-001 8.528133e-001 1.220620e+000 1.199090e-001 1.526815e-001 -2.722609e-001 -5.209045e-001 3.346764e-001 -1.430073e-001 -9.346109e-002 -4.371218e-001 1.992599e-002 2.059932e-001 3.857699e-001 3.945558e-001 2.143843e-001 -3.566864e-001 1.886896e-001
<VARIANCE> 39
 2.971229e+001 8.421724e+001 1.687647e+002 6.619933e+001 1.060133e+002 2.617953e+002 8.263282e+001 7.331767e+001 9.527792e+001 2.238296e+002 9.801151e+001 9.176513e+001 1.250757e+000 1.584226e+000 4.546604e+000 4.000270e+000 4.821458e+000 1.076273e+001 9.273777e+000 1.200840e+001 1.025927e+001 7.771916e+000 1.040034e+001 5.809064e+000 4.182953e+000 1.094742e-001 5.494783e-001 7.049674e-001 5.775042e-001 9.298956e-001 1.929043e+000 3.020950e+000 1.589767e+000 1.591222e+000 1.600055e+000 2.329189e+000 1.169029e+000 1.042379e+000 2.126713e-002
<GCONST> 1.455643e+002
<STATE> 3
<MEAN> 39
 2.713263e+000 -9.835376e+000 -1.084546e+001 -8.255294e+000 1.218437e+000 -6.436688e+000 -7.635493e+000 -1.118899e+001 1.247707e+000 4.296647e+000 -2.727630e+000 -9.899518e+000 1.791961e+001 -4.780569e-001 -1.680121e+000 1.401346e+000 8.272011e-001 -9.083535e-001 -1.292394e+000 -9.290100e-001 4.976591e-001 1.246543e+000 7.366973e-001 7.003522e-001 -1.741597e+000 6.254002e-001 -3.247885e-001 3.369374e-001 5.535480e-001 -3.626905e-002 -3.320058e-001 2.728474e-001 4.344939e-001 1.344134e-001 -1.750530e-001 -1.016653e+000 -4.767523e-001 3.392109e-001 5.552180e-002
<VARIANCE> 39
 2.850029e+001 1.378071e+002 1.844675e+002 7.301308e+001 5.024162e+001 1.748001e+002 2.769427e+002 1.027253e+002 7.267633e+001 1.660932e+002 1.553448e+002 1.098249e+002 2.585984e+000 3.816535e+000 7.878830e+000 5.912967e+000 6.607167e+000 9.909424e+000 3.551747e+001 8.987191e+000 4.993740e+000 8.159687e+000 2.227495e+001 8.976945e+000 4.594786e+000 1.368245e-001 6.659947e-001 6.045334e-001 5.899463e-001 1.093891e+000 1.707303e+000 2.924820e+000 2.881395e+000 1.342029e+000 1.498337e+000 1.230246e+000 1.364799e+000 7.412216e-001 5.728482e-002
<GCONST> 1.519364e+002
<STATE> 4
<MEAN> 39
 7.400807e-001 -9.926583e+000 -1.193782e+001 -7.667706e+000 -1.331904e+000 -1.378080e+000 -6.353946e+000 -1.392558e+001 5.772024e+000 5.270510e+000 -1.010666e+001 -9.749494e+000 1.802304e+001 -1.553764e+000 2.377292e-001 8.823454e-001 -2.458569e-001 -3.476685e-002 -6.592013e-001 -2.175785e-002 3.905771e-001 5.333670e-001 -1.719802e+000 1.779458e-001 5.396605e-001 1.643925e-001 -3.792006e-001 2.385458e-001 5.111373e-002 -3.166238e-001 2.082098e-001 -1.053772e-001 4.190632e-001 -1.007183e-001 -2.449890e-001 -1.892151e-001 1.229913e-001 3.960833e-001 3.708408e-002
<VARIANCE> 39
 2.982870e+001 2.450331e+002 1.299012e+002 8.265214e+001 5.992025e+001 3.282070e+002 2.095733e+002 9.731782e+001 5.259966e+001 1.704148e+002 1.380510e+002 6.025766e+001 4.746038e+000 2.892840e+000 1.718566e+000 4.584183e+000 4.923195e+000 4.467546e+000 1.205202e+001 7.330561e+000 4.152953e+000 5.095202e+000 5.267923e+000 7.335226e+000 3.536424e+000 3.631142e-001 3.606943e-001 4.637326e-001 5.892029e-001 5.768632e-001 9.987108e-001 1.589772e+000 1.309505e+000 9.417419e-001 1.197831e+000 9.050322e-001 6.649823e-001 4.358365e-001 3.552135e-002
<GCONST> 1.403139e+002
<TRANSP> 5
 0.000000e+000 1.000000e+000 0.000000e+000 0.000000e+000 0.000000e+000
 0.000000e+000 5.900868e-001 4.099132e-001 0.000000e+000 0.000000e+000
 0.000000e+000 0.000000e+000 4.677858e-001 5.322142e-001 0.000000e+000
 0.000000e+000 0.000000e+000 0.000000e+000 5.784041e-001 4.215960e-001
 0.000000e+000 0.000000e+000 0.000000e+000 0.000000e+000 0.000000e+000
<ENDHMM>
~h "a"
<BEGINHMM>
<NUMSTATES> 5
<STATE> 2
<MEAN> 39
 -3.479348e+000 -1.348315e+001 -8.324446e+000 -9.465488e+000 5.034228e+000 -8.710218e-001 -9.914345e-001 -4.344620e+000 1.925297e+000 -6.214037e+000 -6.011390e+000 -6.578777e+000 1.778578e+001 -3.692684e-001 9.643686e-002 -8.105793e-002 3.285395e-001 1.543500e-001 -3.732904e-002 2.151838e-001 -1.182937e-001 1.750191e-001 -3.526221e-001 1.332361e-001 6.027326e-003 5.537963e-003 -1.529910e-001 1.027573e-002 6.895546e-002 -1.818827e-001 -7.481892e-002 -9.565905e-002 1.298004e-001 -7.349371e-003 1.284052e-001 -5.871658e-002 1.155054e-001 -2.287124e-002 4.819762e-002
<VARIANCE> 39
 4.506182e+001 9.171209e+001 1.261057e+002 1.246042e+002 1.270412e+002 1.853549e+002 1.061878e+002 9.560769e+001 1.083641e+002 1.028959e+002 8.269601e+001 9.589517e+001 4.867291e+000 2.867348e+000 3.128557e+000 4.209986e+000 4.868781e+000 4.544460e+000 5.524437e+000 4.835194e+000 5.309851e+000 5.886833e+000 4.915881e+000 4.852431e+000 4.153470e+000 2.167557e-001 3.645805e-001 4.092581e-001 6.537021e-001 7.436982e-001 7.304837e-001 8.259186e-001 8.448319e-001 8.764692e-001 9.509012e-001 8.373978e-001 7.735936e-001 6.849238e-001 3.436980e-002
<GCONST> 1.376981e+002
<STATE> 3
<MEAN> 39
 -7.875490e+000 -1.276253e+001 -5.086646e+000 -1.081095e+001 3.220878e+000 -4.686845e+000 3.516805e+000 -6.246183e+000 4.670711e+000 -8.682384e+000 -3.486443e+000 -7.952309e+000 1.882739e+001 2.145010e-001 -2.164369e-001 -5.852146e-002 -5.389431e-001 -3.021547e-001 1.044550e-001 2.938304e-001 1.999522e-002 1.386442e-001 1.241828e-001 1.431669e-001 -3.587350e-001 1.681301e-001 1.961703e-001 -3.720703e-002 -7.402749e-002 -8.873080e-002 -2.228036e-003 1.636789e-001 -1.480117e-001 8.751679e-002 -1.435546e-001 1.447991e-001 -4.756537e-002 3.678392e-002 -1.476951e-002
<VARIANCE> 39
 6.240540e+001 9.352125e+001 9.926389e+001 9.865277e+001 1.197905e+002 1.584825e+002 1.268399e+002 1.170695e+002 1.011196e+002 1.040123e+002 7.723486e+001 7.869366e+001 3.289331e+000 3.313163e+000 3.146456e+000 4.072697e+000 5.598336e+000 4.670783e+000 5.161347e+000 6.094345e+000 6.632370e+000 5.837555e+000 5.096910e+000 4.213096e+000 3.425294e+000 2.613928e-001 6.085581e-001 4.908904e-001 5.554124e-001 7.468225e-001 7.341161e-001 7.934647e-001 8.587579e-001 1.115037e+000 9.911808e-001 9.026085e-001 7.146513e-001 6.241284e-001 2.672463e-002
<GCONST> 1.380200e+002
<STATE> 4
<MEAN> 39
 -2.008358e+000 -1.459520e+001 -8.387115e+000 -1.109954e+001 3.911733e+000 1.010188e+000 -1.367342e+000 -5.813868e+000 2.873623e+000 -6.498023e+000 -5.509098e+000 -8.607392e+000 1.837305e+001 2.588252e-001 2.267767e-001 -3.650159e-001 1.345239e-001 -2.290434e-001 3.450043e-001 -3.217260e-001 4.164323e-002 -2.263373e-001 2.484512e-001 -1.194402e-001 1.153623e-001 -1.303248e-001 -1.005323e-001 7.629381e-002 5.986282e-003 -6.079428e-002 3.483950e-002 -4.605032e-002 1.608451e-002 -4.535893e-002 6.178366e-002 -5.216910e-002 3.126085e-002 4.338442e-002 -5.692244e-003
<VARIANCE> 39
 3.755998e+001 7.274899e+001 1.086167e+002 1.333423e+002 1.092777e+002 1.684043e+002 1.239092e+002 9.066353e+001 1.047092e+002 8.997494e+001 8.591152e+001 7.232713e+001 4.115384e+000 8.674400e-001 1.506738e+000 2.074275e+000 2.879155e+000 2.652885e+000 3.269975e+000 3.471088e+000 3.536751e+000 3.462177e+000 3.183467e+000 2.676253e+000 2.377382e+000 9.626741e-002 1.823029e-001 2.477474e-001 3.211345e-001 4.637457e-001 4.566636e-001 5.875832e-001 6.242363e-001 6.452301e-001 6.413963e-001 5.980910e-001 5.342503e-001 4.774290e-001 1.356825e-002
<GCONST> 1.223994e+002
<TRANSP> 5
 0.000000e+000 1.000000e+000 0.000000e+000 0.000000e+000 0.000000e+000
 0.000000e+000 5.243282e-001 4.756718e-001 0.000000e+000 0.000000e+000
 0.000000e+000 0.000000e+000 5.284913e-001 4.715087e-001 0.000000e+000
 0.000000e+000 0.000000e+000 0.000000e+000 6.803733e-001 3.196267e-001
 0.000000e+000 0.000000e+000 0.000000e+000 0.000000e+000 0.000000e+000
<ENDHMM>
~h "b"
<BEGINHMM>
<NUMSTATES> 5
<STATE> 2
<MEAN> 39
 -3.875052e+000 -1.269695e+001 7.277554e+000 -1.136522e+001 -5.726690e+000 -6.536257e+000 3.861546e-001 2.200088e+000 -2.270094e+000 1.371318e+000 7.904752e-001 -1.120965e+001 1.940824e+001 -1.644855e-002 1.084259e-001 -1.037499e-001 2.021051e-001 -1.920921e-001 6.399283e-002 1.075512e-001 2.238183e-001 -6.517146e-002 2.680071e-002 1.897475e-001 2.985314e-002 -9.080103e-002 4.468100e-003 1.852817e-002 -4.962092e-002 7.159107e-003 2.270716e-002 4.533349e-003 1.520180e-002 2.277860e-002 4.334701e-002 2.246451e-003 -1.995039e-002 4.886787e-003 -1.905466e-003
<VARIANCE> 39
 9.477080e+000 3.622879e+001 1.921425e+002 4.179819e+001 5.415980e+001 9.470760e+001 4.596512e+001 5.661646e+001 5.137069e+001 6.721484e+001 5.832153e+001 4.724647e+001 3.011220e+000 2.318763e-001 4.524247e-001 1.177461e+000 9.114410e-001 8.975634e-001 1.626525e+000 1.606525e+000 2.699669e+000 1.623583e+000 1.539503e+000 1.210344e+000 1.296077e+000 2.173969e-002 4.577825e-002 9.834813e-002 1.332995e-001 1.542036e-001 1.422500e-001 2.646750e-001 2.853912e-001 4.860556e-001 3.154659e-001 2.963582e-001 2.012662e-001 2.227659e-001 3.662278e-003
<GCONST> 9.165695e+001
<STATE> 3
<MEAN> 39
 -6.023690e-001 -1.240110e+001 -2.253466e+001 -1.135025e+001 2.025047e+000 1.188619e+001 -1.547156e+000 3.290484e+000 -1.116127e-001 -1.916112e+000 -4.745929e+000 -7.452498e+000 1.586648e+001 -1.445395e-002 6.486794e-001 -8.373949e-001 5.968101e-001 -3.800901e-002 5.190039e-001 1.801759e-001 1.494444e-001 1.575853e-001 -2.480370e-001 7.781444e-002 6.469142e-002 -1.945008e-001 -4.465938e-002 4.884660e-002 1.187291e-001 1.135442e-002 -2.743417e-002 -7.499702e-002 5.996896e-002 -1.275593e-002 3.746936e-002 -5.128440e-002 -5.313379e-002 4.031087e-002 -4.934594e-003
<VARIANCE> 39
 3.142752e+001 1.437201e+002 2.129552e+002 7.526013e+001 1.326437e+002 1.463646e+002 8.025056e+001 9.742096e+001 4.684728e+001 1.095084e+002 4.622109e+001 1.034247e+002 3.577472e+000 3.812862e-001 8.084695e-001 1.174767e+000 2.181326e+000 1.659626e+000 2.314133e+000 2.210711e+000 2.490716e+000 2.777618e+000 2.139859e+000 1.794098e+000 1.189898e+000 2.302223e-002 7.121289e-002 1.492761e-001 1.755971e-001 3.188858e-001 3.321611e-001 4.253235e-001 3.890991e-001 4.576214e-001 4.299308e-001 3.690764e-001 3.589453e-001 2.032530e-001 5.221818e-003
<GCONST> 1.076648e+002
<STATE> 4
<MEAN> 39
 -2.381654e+000 -4.268378e+000 -2.611888e+001 -1.279984e+001 -2.043104e+000 8.887825e+000 1.170917e+000 7.764211e-001 2.916419e+000 -1.607195e+000 -2.677383e+000 -6.400553e+000 1.409599e+001 -5.811298e-001 2.679108e-001 1.429636e-002 1.590552e-001 1.346564e-001 2.220930e-001 1.023356e-001 3.303950e-001 5.056137e-001 -4.420480e-004 -9.671552e-002 3.928450e-002 -2.027631e-001 -7.580969e-002 -4.099932e-002 1.224543e-001 1.231767e-002 3.787110e-002 -6.430796e-002 -1.596567e-002 -1.550500e-001 -5.923057e-002 2.071622e-002 6.829099e-002 6.425431e-002 8.467072e-003
<VARIANCE> 39
 5.390733e+001 8.963837e+001 2.382969e+002 1.372269e+002 1.015006e+002 1.233299e+002 6.745941e+001 5.895093e+001 5.515432e+001 7.596880e+001 5.896646e+001 7.748374e+001 8.871465e+000 5.431960e-001 8.359942e-001 1.704428e+000 2.198480e+000 2.070444e+000 2.198999e+000 2.421450e+000 4.100141e+000 4.557920e+000 4.244979e+000 2.643879e+000 2.912854e+000 6.517578e-002 1.082833e-001 1.837446e-001 3.586059e-001 4.398231e-001 3.972391e-001 3.748869e-001 4.284532e-001 7.108919e-001 9.182653e-001 7.976360e-001 5.728620e-001 5.976184e-001 1.416782e-002
<GCONST> 1.193476e+002
<TRANSP> 5
 0.000000e+000 1.000000e+000 0.000000e+000 0.000000e+000 0.000000e+000
 0.000000e+000 8.806579e-001 1.193422e-001 0.000000e+000 0.000000e+000
 0.000000e+000 0.000000e+000 7.301706e-001 2.698294e-001 0.000000e+000
 0.000000e+000 0.000000e+000 0.000000e+000 6.823390e-001 3.176611e-001
 0.000000e+000 0.000000e+000 0.000000e+000 0.000000e+000 0.000000e+000
<ENDHMM>
~h "d"
<BEGINHMM>
<NUMSTATES> 5
<STATE> 2
<MEAN> 39
 -1.615460e+000 -7.462612e+000 3.157671e+000 -1.567762e+001 -4.564365e+000 -1.333418e+000 -7.074130e+000 -6.604938e+000 -9.763887e-001 -5.924716e+000 -4.637045e+000 -6.014522e+000 1.731512e+001 -1.113286e+000 -4.223813e-001 1.711909e+000 -5.255374e-001 -1.133965e+000 -1.683149e+000 1.241034e+000 6.505296e-001 4.379830e-001 -5.483775e-001 1.099314e+000 1.562963e-001 3.324933e-001 -1.940469e-001 -1.130608e-001 -6.923840e-003 -1.386639e-001 -2.715115e-002 -3.073610e-001 4.512656e-001 -4.150508e-002 3.136244e-001 1.042135e-001 7.818370e-002 -1.135435e-001 1.155319e-001
<VARIANCE> 39
 2.968694e+001 6.812067e+001 1.208972e+002 1.012144e+002 1.165505e+002 2.058982e+002 1.688856e+002 1.703279e+002 1.217123e+002 1.239774e+002 1.295928e+002 7.669993e+001 4.122748e+000 2.589099e+000 4.520934e+000 8.914075e+000 4.451733e+000 6.365883e+000 1.346163e+001 1.449153e+001 1.062688e+001 6.541650e+000 7.235828e+000 5.430728e+000 5.232894e+000 3.055262e-001 4.274665e-001 7.819985e-001 1.516927e+000 7.596344e-001 1.035529e+000 2.355431e+000 2.353337e+000 1.808360e+000 1.227757e+000 1.014988e+000 9.691199e-001 7.755264e-001 4.984148e-002
<GCONST> 1.492653e+002
<STATE> 3
<MEAN> 39
 -2.111588e+000 -8.030075e+000 1.064130e+001 -1.008616e+001 -1.282102e+001 -9.875795e+000 4.820920e+000 -5.749785e+000 -4.565962e+000 -1.811473e+000 -6.920151e-001 -1.062025e+001 1.810219e+001 -3.110605e-001 7.803492e-001 2.192124e-001 1.998736e-001 -3.609933e-001 -2.664293e-001 4.400451e-001 -2.498317e-001 1.805858e-001 -1.663608e-001 2.760030e-001 1.286842e-001 -9.526140e-002 -7.052424e-002 1.364420e-001 4.333676e-004 -6.289559e-002 2.262635e-001 4.474078e-002 -1.753874e-001 -8.773812e-002 1.160507e-001 -4.092494e-002 -3.235148e-002 1.126500e-002 1.357561e-002
<VARIANCE> 39
 2.559571e+001 4.695879e+001 5.701131e+001 1.134539e+002 1.009434e+002 7.172354e+001 5.442837e+001 1.135771e+002 7.215365e+001 5.868730e+001 8.323449e+001 6.773253e+001 3.476639e+000 2.487094e+000 1.672174e+000 3.590686e+000 3.308906e+000 3.224258e+000 3.925900e+000 4.777328e+000 6.037542e+000 3.410380e+000 3.684391e+000 2.772307e+000 3.041549e+000 2.079239e-001 3.596645e-001 3.715603e-001 6.704887e-001 5.430854e-001 6.883234e-001 8.468009e-001 9.326673e-001 1.132708e+000 5.885549e-001 7.825794e-001 5.026042e-001 5.748676e-001 3.824772e-002
<GCONST> 1.274991e+002
<STATE> 4
<MEAN> 39
 -9.355153e+000 1.513348e+000 1.923770e+001 -1.773072e+001 -1.796577e+001 -1.168853e+001 2.317169e+000 -1.162184e+001 1.756806e+000 -1.088832e+000 8.730822e-001 -7.092559e+000 1.867732e+001 -2.667559e-001 -2.269585e-001 3.330607e-001 -5.613656e-001 -3.404393e-002 1.338211e-001 -1.558727e-001 -3.386364e-001 4.112483e-001 2.241620e-001 4.049360e-001 -2.864077e-001 3.041673e-001 2.268303e-001 -1.466434e-001 -2.214044e-001 9.331238e-002 -3.000090e-002 1.798996e-001 4.389608e-002 1.401590e-001 -1.364581e-001 1.436359e-001 -1.328513e-001 -6.931152e-002 -3.523635e-002
<VARIANCE> 39
 5.665472e+001 8.260844e+001 9.971084e+001 1.722901e+002 1.491101e+002 7.007413e+001 5.986802e+001 1.039187e+002 8.400951e+001 1.280581e+002 1.091783e+002 5.604725e+001 5.336738e+000 4.345619e+000 3.995908e+000 4.645093e+000 5.076495e+000 8.198335e+000 5.145942e+000 4.900470e+000 6.150366e+000 6.779391e+000 6.944719e+000 5.412483e+000 4.097774e+000 3.597167e-001 7.611214e-001 5.895234e-001 7.269410e-001 6.676337e-001 1.536022e+000 7.798659e-001 8.772224e-001 1.078113e+000 1.160131e+000 1.343908e+000 8.346700e-001 7.663276e-001 4.644576e-002
<GCONST> 1.421666e+002
<TRANSP> 5
 0.000000e+000 1.000000e+000 0.000000e+000 0.000000e+000 0.000000e+000
 0.000000e+000 7.053047e-001 2.946953e-001 0.000000e+000 0.000000e+000
 0.000000e+000 0.000000e+000 8.265933e-001 1.734066e-001 0.000000e+000
 0.000000e+000 0.000000e+000 0.000000e+000 8.157082e-001 1.842918e-001
 0.000000e+000 0.000000e+000 0.000000e+000 0.000000e+000 0.000000e+000
<ENDHMM>
~h "f"
<BEGINHMM>
<NUMSTATES> 5
<STATE> 2
<MEAN> 39
 -4.590335e+000 7.944859e+000 4.921285e+000 -6.483099e+000 -1.623903e+001 -5.658567e+000 -7.709859e+000 -7.185278e+000 -4.948236e+000 -2.380485e+000 -2.250201e+000 -3.469810e+000 1.375970e+001 -5.488535e-001 -3.104981e-002 -5.668349e-001 9.470177e-002 5.971365e-001 -8.982506e-001 -3.314503e-001 -2.374226e-002 7.166302e-001 -2.775993e-001 -3.931989e-002 3.704521e-001 -7.730582e-002 -2.127375e-001 -4.514177e-001 -1.291768e-001 -2.356851e-001 5.745131e-001 -2.295521e-001 9.801828e-002 9.674349e-003 5.866850e-001 1.161909e-002 -1.904234e-002 -1.527583e-002 1.420659e-001
<VARIANCE> 39
 7.554194e+001 8.721431e+001 2.392743e+002 2.020033e+002 2.018884e+002 1.127495e+002 2.058946e+002 1.934917e+002 1.444939e+002 1.105156e+002 1.112126e+002 8.753184e+001 7.575788e+000 3.630048e+000 3.893735e+000 6.909944e+000 7.266685e+000 8.744772e+000 8.256927e+000 6.999995e+000 7.218402e+000 8.553130e+000 6.340863e+000 6.552644e+000 4.095888e+000 2.383926e-001 7.465500e-001 7.880795e-001 1.089075e+000 1.089511e+000 1.547528e+000 1.274997e+000 1.395982e+000 1.463993e+000 1.685006e+000 1.254387e+000 1.227343e+000 1.040196e+000 5.362999e-002
<GCONST> 1.524867e+002
<STATE> 3
<MEAN> 39
 -1.055210e+001 -2.194681e+000 -2.246052e+000 -8.206779e+000 -4.373726e-001 -1.172484e+001 -6.351839e+000 -6.637147e+000 8.256163e+000 -1.323388e+000 -2.898011e+000 -4.358419e+000 1.581905e+001 6.115739e-001 -2.388536e+000 -2.156342e-001 -2.400774e+000 1.625043e+000 -1.278131e+000 -5.694401e-001 -8.355585e-001 2.144608e+000 2.609960e-001 -4.579700e-001 -7.443630e-001 9.843862e-001 4.450338e-001 2.969527e-001 2.845987e-001 2.002379e-001 -4.684866e-001 4.565799e-001 -9.140020e-002 -1.041738e-001 -5.962543e-001 -4.014649e-002 3.257770e-002 -2.106474e-001 1.112891e-002
<VARIANCE> 39
 1.249134e+002 1.028736e+002 1.028154e+002 1.300290e+002 1.093975e+002 2.450235e+002 1.255931e+002 1.133157e+002 1.296275e+002 9.885786e+001 1.143952e+002 8.167033e+001 6.361416e+000 1.988649e+001 9.456540e+000 1.407564e+001 1.459695e+001 1.686940e+001 1.921303e+001 1.478337e+001 1.359264e+001 1.495664e+001 1.211454e+001 1.203072e+001 7.971529e+000 5.169535e-001 3.144786e+000 1.600269e+000 1.951102e+000 2.249337e+000 2.710863e+000 2.300026e+000 2.231753e+000 1.902597e+000 2.342051e+000 1.704331e+000 1.686515e+000 1.099559e+000 1.257718e-001
<GCONST> 1.678984e+002
<STATE> 4
<MEAN> 39
 -1.277869e+000 -1.757005e+000 -1.104502e+000 -1.008872e+001 -2.572675e+000 -1.401001e+001 -1.244063e+001 -7.109182e+000 8.701208e+000 7.157918e-001 -5.692373e+000 -6.698278e+000 1.697783e+001 2.588459e-001 8.362185e-001 -2.934790e-001 1.132782e+000 -1.208117e-001 -4.646930e-001 -2.129146e-001 5.412764e-002 -2.674174e-001 2.564792e-001 -1.469752e-001 8.974779e-002 -2.343278e-001 -4.221145e-001 1.803766e-001 -1.901594e-001 2.856696e-001 1.583098e-001 -3.331680e-001 3.062162e-001 -7.250427e-002 8.895828e-002 -5.261308e-002 1.609786e-001 8.267272e-002 -2.599297e-002
<VARIANCE> 39
 4.137490e+001 7.517715e+001 6.188229e+001 1.346601e+002 7.298219e+001 3.623029e+002 9.572960e+001 7.240742e+001 8.919421e+001 1.138113e+002 1.329917e+002 1.630646e+002 4.625242e+000 3.146841e+000 2.393510e+000 3.469745e+000 4.055551e+000 4.961633e+000 6.431787e+000 4.959589e+000 4.409572e+000 4.534256e+000 4.385800e+000 4.302010e+000 4.112744e+000 3.628447e-001 5.406234e-001 5.329643e-001 6.962747e-001 9.504408e-001 9.168839e-001 1.398390e+000 9.909404e-001 1.080187e+000 8.609686e-001 9.212939e-001 7.911263e-001 8.099747e-001 1.142595e-001
<GCONST> 1.403898e+002
<TRANSP> 5
 0.000000e+000 1.000000e+000 0.000000e+000 0.000000e+000 0.000000e+000
 0.000000e+000 7.242222e-001 2.757778e-001 0.000000e+000 0.000000e+000
 0.000000e+000 0.000000e+000 7.020425e-001 2.979575e-001 0.000000e+000
 0.000000e+000 0.000000e+000 0.000000e+000 8.090391e-001 1.909609e-001
 0.000000e+000 0.000000e+000 0.000000e+000 0.000000e+000 0.000000e+000
<ENDHMM>
~h "h"
<BEGINHMM>
<NUMSTATES> 5
<STATE> 2
<MEAN> 39
 -1.025447e+001 -1.761987e+001 -5.004307e-001 -1.482064e+001 2.405737e+000 -1.125844e+001 7.298861e+000 -5.396067e+000 8.212636e-001 -1.162942e+001 -1.417417e+000 -7.324582e+000 2.005366e+001 -1.056993e-003 -1.420496e-001 1.199480e-002 -4.234359e-001 1.030561e-001 1.528476e-001 2.468416e-001 3.313651e-002 1.327077e-001 1.814962e-001 -2.328176e-002 -9.710082e-002 1.490130e-001 7.607120e-003 5.495436e-002 2.198520e-002 1.016534e-001 -3.527417e-002 2.974111e-002 -1.402488e-001 4.088116e-002 -3.987907e-002 -7.020614e-003 1.411402e-002 6.093322e-002 -5.061177e-002
<VARIANCE> 39
 3.433741e+001 5.656755e+001 6.930930e+001 9.764392e+001 8.161459e+001 1.114933e+002 8.205674e+001 7.041523e+001 6.596535e+001 8.494930e+001 7.963898e+001 6.306839e+001 3.835346e+000 1.391593e+000 1.644267e+000 2.257298e+000 3.274712e+000 3.228480e+000 3.180036e+000 4.199950e+000 3.966141e+000 3.283036e+000 3.505213e+000 2.724841e+000 2.769029e+000 1.802201e-001 2.761624e-001 3.277471e-001 3.365136e-001 5.066330e-001 4.895880e-001 4.830946e-001 6.618693e-001 7.321341e-001 5.984572e-001 5.905648e-001 4.538723e-001 5.622557e-001 2.780545e-002
<GCONST> 1.227381e+002
<STATE> 3
<MEAN> 39
 -8.368687e+000 -1.727394e+001 -5.647645e-001 -1.468948e+001 2.839601e+000 -6.940269e+000 7.110911e+000 -6.182799e+000 3.608537e+000 -1.046675e+001 -2.396434e+000 -9.121128e+000 2.043736e+001 1.620205e-001 8.317602e-002 1.015248e-001 1.772928e-001 -1.388261e-001 4.073364e-002 -5.832397e-002 1.595399e-001 -2.096569e-001 -1.265344e-002 -7.840040e-002 3.002752e-002 -1.029193e-001 5.607039e-002 5.730456e-002 -3.715527e-002 1.168446e-001 -3.843893e-002 -2.328046e-002 -1.019886e-001 -2.852207e-002 -9.515870e-002 1.201709e-002 -2.840038e-002 3.464239e-002 -5.153972e-002
<VARIANCE> 39
 2.538139e+001 5.243410e+001 5.755461e+001 1.033532e+002 1.041495e+002 1.014794e+002 6.908031e+001 7.470270e+001 5.680630e+001 8.033467e+001 5.837288e+001 5.980386e+001 2.484644e+000 4.421118e-001 8.023919e-001 9.833921e-001 1.643435e+000 1.755399e+000 1.501049e+000 1.794829e+000 1.940568e+000 1.695081e+000 1.967725e+000 1.546128e+000 1.450324e+000 6.455123e-002 9.020300e-002 1.440858e-001 1.709600e-001 2.553730e-001 3.476366e-001 2.931735e-001 3.809545e-001 3.906344e-001 3.252747e-001 3.808225e-001 3.031792e-001 2.809955e-001 8.083646e-003
<GCONST> 1.027700e+002
<STATE> 4
<MEAN> 39
 -5.390315e+000 -1.729235e+001 -2.729685e+000 -9.054612e+000 3.915658e+000 -4.578751e+000 2.573315e+000 -4.511455e+000 -2.367931e+000 -8.996880e+000 -6.210808e+000 -6.632814e+000 1.851957e+001 3.752801e-001 2.436476e-001 -1.117255e-001 4.809051e-001 -3.004004e-001 1.676266e-001 -5.690643e-001 2.515890e-002 -6.923690e-001 1.761680e-001 -3.654320e-001 1.732447e-001 -2.278778e-001 -5.360026e-002 -2.346912e-002 -6.000063e-002 -3.213035e-002 2.717394e-002 2.434033e-003 1.313191e-003 -3.752113e-002 8.231696e-002 8.429719e-003 5.794704e-002 1.368868e-002 1.190004e-002
<VARIANCE> 39
 3.031126e+001 5.567139e+001 6.847311e+001 8.551581e+001 8.382089e+001 1.228251e+002 7.591028e+001 7.673870e+001 8.797660e+001 7.905502e+001 5.213805e+001 6.476131e+001 2.793696e+000 5.561755e-001 7.016053e-001 1.316443e+000 1.611321e+000 1.643389e+000 2.009635e+000 2.434497e+000 2.396749e+000 2.495634e+000 2.362679e+000 2.079738e+000 1.865001e+000 4.620587e-002 1.062947e-001 1.250754e-001 2.144839e-001 2.588320e-001 3.381317e-001 4.085897e-001 4.824951e-001 4.574963e-001 4.953924e-001 4.628093e-001 3.839145e-001 3.403465e-001 6.485613e-003
<GCONST> 1.072689e+002
<TRANSP> 5
 0.000000e+000 1.000000e+000 0.000000e+000 0.000000e+000 0.000000e+000
 0.000000e+000 7.013103e-001 2.986898e-001 0.000000e+000 0.000000e+000
 0.000000e+000 0.000000e+000 6.877645e-001 3.122355e-001 0.000000e+000
 0.000000e+000 0.000000e+000 0.000000e+000 6.642444e-001 3.357556e-001
 0.000000e+000 0.000000e+000 0.000000e+000 0.000000e+000 0.000000e+000
<ENDHMM>
~h "i"
<BEGINHMM>
<NUMSTATES> 5
<STATE> 2
<MEAN> 39
 -1.244250e+001 4.013574e-001 5.681831e+000 -1.367200e+001 -1.243281e+000 -1.449098e+001 -1.610409e+000 -1.445371e+001 5.313947e+000 -9.400756e+000 -4.096284e-001 2.615767e-001 1.922119e+001 -3.812763e-001 5.617644e-001 -1.870899e-001 1.700820e-001 2.936254e-001 2.321712e-001 -2.821556e-001 -6.147677e-002 4.661480e-002 2.418944e-002 5.800949e-002 4.307739e-001 -6.933723e-002 5.999771e-002 -9.792675e-002 2.086949e-002 1.391977e-002 -2.124253e-002 6.952889e-002 -1.967260e-002 7.730305e-002 -1.192784e-002 2.733452e-002 -6.523275e-002 3.579630e-002 -3.982340e-002
<VARIANCE> 39
 5.604590e+001 1.017584e+002 8.378906e+001 2.904546e+002 7.660429e+001 1.309895e+002 7.979198e+001 5.528025e+001 8.963726e+001 7.418147e+001 6.632713e+001 9.990549e+001 3.487323e+000 1.237594e+000 1.787868e+000 2.100770e+000 2.494703e+000 2.496241e+000 2.820660e+000 2.726265e+000 3.059267e+000 2.946587e+000 2.976920e+000 3.072678e+000 2.540603e+000 1.088861e-001 1.622919e-001 2.513694e-001 3.319183e-001 3.984911e-001 4.520437e-001 5.342104e-001 5.467584e-001 5.540941e-001 5.308160e-001 5.217495e-001 6.025823e-001 4.844190e-001 1.725695e-002
<GCONST> 1.210021e+002
<STATE> 3
<MEAN> 39
 -1.109598e+001 1.545354e+000 3.774749e+000 -8.647960e+000 -2.852370e+000 -1.177710e+001 -4.136018e+000 -1.014482e+001 6.118884e+000 -6.027062e+000 -2.062023e+000 1.502514e+000 1.745450e+001 8.592264e-001 1.797976e-001 -5.730531e-001 -1.234248e-001 -4.677343e-001 1.888462e-001 -8.663346e-002 5.698497e-001 3.540072e-001 2.675973e-001 -4.848126e-001 -2.328129e-001 -2.694860e-001 4.100246e-001 -3.285806e-001 -4.850889e-001 -4.644369e-001 -1.871537e-001 -1.405614e-001 3.936731e-003 3.200575e-001 3.182155e-001 -1.007257e-001 -4.486756e-001 -4.091983e-001 4.320253e-002
<VARIANCE> 39
 1.414169e+002 9.927776e+001 8.112478e+001 2.326027e+002 9.465404e+001 1.937059e+002 1.152851e+002 7.733767e+001 9.472174e+001 1.218095e+002 1.464183e+002 1.610988e+002 4.562339e+000 1.786228e+000 2.859556e+000 3.151272e+000 4.772204e+000 4.290583e+000 6.571131e+000 3.793682e+000 4.128925e+000 5.061384e+000 3.982242e+000 3.604528e+000 3.361774e+000 1.295015e-001 5.361043e-001 6.578709e-001 7.783612e-001 9.799516e-001 8.352496e-001 1.130490e+000 6.640276e-001 9.158720e-001 8.882523e-001 1.005296e+000 8.063934e-001 7.214460e-001 3.331663e-002
<GCONST> 1.388857e+002
<STATE> 4
<MEAN> 39
 -6.816273e+000 -5.301402e+000 -3.721528e+000 -1.208353e+001 -2.097078e+000 -1.129046e+001 -1.949629e+000 -6.881495e+000 1.035476e+001 -5.748363e+000 -7.037903e+000 -5.014498e+000 1.842084e+001 1.563002e+000 -2.064210e+000 -1.470316e+000 -1.561344e+000 4.252080e-001 8.129246e-001 -2.580118e-001 1.226326e+000 -2.229544e-001 -2.020739e-001 -1.764877e+000 -1.027744e+000 2.234605e-001 -4.796730e-001 9.109925e-002 3.326881e-001 4.388654e-001 3.085126e-001 1.735825e-001 -4.497429e-002 -2.519762e-001 -4.729263e-001 1.648743e-002 3.756713e-001 2.357147e-001 4.452207e-002
<VARIANCE> 39
 5.946975e+001 1.088740e+002 1.012240e+002 1.469793e+002 6.969750e+001 1.191016e+002 1.229550e+002 6.523032e+001 1.216852e+002 1.552715e+002 1.506688e+002 1.321691e+002 6.282523e+000 4.470228e+000 8.476482e+000 4.776163e+000 1.121781e+001 3.890782e+000 5.397370e+000 4.988895e+000 6.122026e+000 7.472683e+000 7.829761e+000 6.003365e+000 5.661125e+000 4.201408e-001 5.199739e-001 9.072815e-001 6.466166e-001 1.320658e+000 5.417606e-001 9.381120e-001 8.898905e-001 1.008303e+000 1.130604e+000 1.508353e+000 9.458625e-001 9.274750e-001 4.717967e-002
<GCONST> 1.461201e+002
<TRANSP> 5
 0.000000e+000 1.000000e+000 0.000000e+000 0.000000e+000 0.000000e+000
 0.000000e+000 8.775024e-001 1.224976e-001 0.000000e+000 0.000000e+000
 0.000000e+000 0.000000e+000 6.109155e-001 3.890844e-001 0.000000e+000
 0.000000e+000 0.000000e+000 0.000000e+000 6.044134e-001 3.955866e-001
 0.000000e+000 0.000000e+000 0.000000e+000 0.000000e+000 0.000000e+000
<ENDHMM>
~h "j"
<BEGINHMM>
<NUMSTATES> 5
<STATE> 2
<MEAN> 39
 -1.038963e+001 -2.959721e+000 6.551877e+000 -9.335198e+000 -7.581953e+000 -1.350066e+001 1.723570e+000 -5.310116e+000 3.228225e+000 -6.907708e+000 -9.639866e+000 -2.563232e+000 1.731755e+001 -7.809926e-001 8.491606e-002 2.160434e+000 -1.227586e+000 2.900274e-002 -4.463728e-001 9.219921e-001 -1.057593e+000 -4.219269e-002 2.176964e-001 1.189509e+000 2.996743e-001 4.506482e-001 2.131164e-001 -2.757492e-001 -1.648463e-001 1.020107e-001 -9.128854e-002 3.419771e-002 -5.901800e-002 1.225945e-001 7.554041e-002 7.891759e-002 1.059621e-001 -1.326084e-001 3.568339e-002
<VARIANCE> 39
 1.829053e+002 8.356611e+001 1.883586e+002 1.386169e+002 1.404740e+002 1.336702e+002 9.152974e+001 1.518322e+002 9.416723e+001 1.183962e+002 1.122116e+002 9.284417e+001 6.166640e+000 1.511713e+001 7.123144e+000 7.869641e+000 8.910212e+000 1.393099e+001 1.084684e+001 9.394209e+000 1.300792e+001 9.592710e+000 6.258341e+000 7.854567e+000 6.412041e+000 4.841029e-001 2.562477e+000 1.000381e+000 1.774436e+000 1.665314e+000 2.614315e+000 1.664841e+000 1.806061e+000 2.272902e+000 1.452959e+000 8.780918e-001 1.385375e+000 8.289715e-001 1.017474e-001
<GCONST> 1.602976e+002
<STATE> 3
<MEAN> 39
 -6.331138e+000 -1.039895e+001 6.166313e+000 -1.354983e+001 -5.171140e+000 -1.289392e+001 1.572496e+000 -7.358362e+000 8.103367e+000 7.013447e-001 -1.889686e+000 -6.522597e+000 1.939655e+001 7.795107e-002 -3.690769e-001 -3.018466e-001 -1.800402e-002 1.474681e-001 1.392794e-001 6.118971e-002 2.511357e-001 2.139177e-001 -1.030631e-001 1.812366e-001 -1.144233e-001 4.476394e-002 -8.542462e-002 5.706235e-002 2.697436e-002 -2.158013e-003 -2.154348e-002 3.643509e-002 -1.992304e-002 3.464096e-003 -2.564319e-002 -4.669389e-002 3.173916e-002 4.221920e-002 -1.224282e-002
<VARIANCE> 39
 2.477439e+001 2.732563e+001 4.533454e+001 5.873006e+001 5.041559e+001 8.936103e+001 6.364886e+001 4.346572e+001 7.971394e+001 1.088581e+002 4.433054e+001 3.525620e+001 1.456477e+000 1.207801e+000 1.841651e+000 3.193658e+000 2.103754e+000 3.350146e+000 3.593504e+000 4.464077e+000 2.360002e+000 3.400416e+000 2.848945e+000 2.539778e+000 2.125546e+000 1.012197e-001 1.953279e-001 2.758800e-001 3.689538e-001 3.212541e-001 4.166922e-001 5.408935e-001 8.909960e-001 4.082402e-001 6.594872e-001 4.857004e-001 4.391462e-001 3.548743e-001 1.928223e-002
<GCONST> 1.139321e+002
<STATE> 4
<MEAN> 39
 -8.080772e+000 -8.707528e+000 1.718830e+001 -1.170451e+001 -1.967386e+001 -1.052849e+001 1.157076e+000 -1.881663e+000 4.022712e+000 -2.955315e+000 6.019721e+000 -7.971113e+000 1.881580e+001 -1.277617e-002 1.117297e-001 9.854092e-003 9.629924e-002 -4.508804e-001 1.955179e-001 -1.382151e-001 3.846713e-001 -1.397672e-001 6.575634e-002 4.711410e-002 2.138244e-002 -9.751453e-002 8.895151e-003 2.829406e-002 -4.959803e-002 -9.580323e-003 1.933493e-002 2.376486e-002 -1.750995e-003 -1.805368e-002 2.373784e-002 2.762441e-002 -6.503110e-002 1.820835e-002 -1.132857e-002
<VARIANCE> 39
 1.635273e+001 3.700572e+001 3.990332e+001 9.919116e+001 1.268005e+002 3.377603e+001 7.319830e+001 7.303611e+001 8.445425e+001 7.372408e+001 5.822736e+001 2.914089e+001 4.235191e+000 2.957837e-001 6.459414e-001 1.311409e+000 1.531363e+000 2.365043e+000 1.582923e+000 1.933692e+000 1.910375e+000 2.428769e+000 2.691874e+000 2.641905e+000 1.335772e+000 2.348384e-002 5.411337e-002 7.939898e-002 1.493969e-001 2.470119e-001 3.199256e-001 2.713807e-001 3.384351e-001 3.587202e-001 4.176758e-001 5.786489e-001 4.637433e-001 2.453828e-001 2.274260e-003
<GCONST> 9.900370e+001
<TRANSP> 5
 0.000000e+000 1.000000e+000 0.000000e+000 0.000000e+000 0.000000e+000
 0.000000e+000 8.249009e-001 1.750991e-001 0.000000e+000 0.000000e+000
 0.000000e+000 0.000000e+000 8.962242e-001 1.037758e-001 0.000000e+000
 0.000000e+000 0.000000e+000 0.000000e+000 9.119545e-001 8.804546e-002
 0.000000e+000 0.000000e+000 0.000000e+000 0.000000e+000 0.000000e+000
<ENDHMM>
~h "k"
<BEGINHMM>
<NUMSTATES> 5
<STATE> 2
<MEAN> 39
 -1.660185e+000 -9.015785e+000 -3.018258e+000 -1.669291e+001 2.008087e+000 -1.484019e+000 5.939975e-001 -4.400156e+000 2.337214e+000 -4.983807e+000 -3.183389e+000 -8.135497e+000 1.892854e+001 3.556386e-001 2.566679e-001 -8.415793e-003 4.270467e-001 5.406217e-002 2.377403e-001 -3.392163e-001 1.037800e-001 -4.519330e-001 -7.866216e-002 -3.344975e-001 8.843838e-002 -1.576955e-001 1.531873e-002 2.300137e-002 -1.961722e-002 7.872517e-002 -1.345821e-002 -3.218392e-002 -4.930256e-002 -5.572781e-002 1.862823e-002 8.433487e-002 -4.264654e-002 -3.201620e-002 -2.682032e-003
<VARIANCE> 39
 2.407177e+001 7.346237e+001 7.472186e+001 1.248570e+002 1.063743e+002 3.341794e+002 4.999861e+001 8.432063e+001 6.374017e+001 1.121796e+002 8.206731e+001 1.008188e+002 2.177329e+000 3.925399e-001 7.755606e-001 1.035760e+000 1.606572e+000 1.545199e+000 2.137195e+000 1.854339e+000 2.129288e+000 2.148365e+000 2.533552e+000 1.894327e+000 1.882423e+000 5.223894e-002 5.328876e-002 1.098317e-001 1.520695e-001 2.259624e-001 2.505072e-001 3.536461e-001 3.325140e-001 3.481036e-001 3.130710e-001 3.996051e-001 3.099340e-001 3.223438e-001 5.975608e-003
<GCONST> 1.051029e+002
<STATE> 3
<MEAN> 39
 3.349211e+000 -7.211258e+000 -6.960808e+000 -8.700607e+000 -2.666712e+000 3.042371e-001 -2.665413e+000 -5.170105e+000 -1.226856e+000 -1.392002e+000 -8.286301e+000 -8.793983e+000 1.718839e+001 3.690694e-001 4.518667e-001 -5.532456e-001 6.785608e-001 -3.171778e-001 3.888010e-001 -3.639510e-001 -1.716723e-001 -5.779535e-002 2.557652e-001 -2.667131e-001 6.426007e-002 -1.637845e-001 -1.011004e-001 -2.669514e-002 -5.269896e-002 -3.445754e-002 -2.337080e-002 -7.584674e-002 4.804440e-002 6.817399e-002 1.777510e-001 2.891582e-002 1.288894e-001 -4.654866e-002 1.703261e-002
<VARIANCE> 39
 4.310753e+001 1.045799e+002 1.693364e+002 1.285664e+002 1.389517e+002 2.906005e+002 6.922282e+001 1.076935e+002 8.656597e+001 8.828028e+001 7.258969e+001 1.021162e+002 1.871737e+000 4.355032e-001 9.985999e-001 1.485188e+000 1.655185e+000 2.061248e+000 2.526137e+000 3.069508e+000 2.576998e+000 2.596924e+000 2.494209e+000 2.278408e+000 2.090169e+000 3.462530e-002 6.709737e-002 1.584886e-001 2.093735e-001 2.374021e-001 3.590066e-001 4.050207e-001 4.704337e-001 4.218681e-001 4.827253e-001 4.228146e-001 3.636485e-001 3.271841e-001 5.235276e-003
<GCONST> 1.118709e+002
<STATE> 4
<MEAN> 39
 2.235910e+000 -2.756571e+000 -8.075197e+000 -8.294965e+000 -6.584991e+000 -5.422540e-001 -4.406658e+000 -7.138782e+000 2.569671e+000 1.634041e-001 -6.460255e+000 -4.475252e+000 1.621574e+001 4.575732e-002 4.954772e-001 -5.781661e-001 5.193064e-001 -3.193669e-001 -1.208158e-001 -3.698733e-001 4.096962e-001 2.379611e-002 1.398894e-001 1.576127e-001 -2.398611e-001 -1.666338e-001 -1.621856e-001 -7.637451e-002 5.978305e-002 -8.577130e-002 3.418290e-002 -2.232750e-001 9.237149e-002 2.286920e-002 6.617564e-002 -1.054430e-001 1.235808e-001 -1.926957e-002 3.341574e-002
<VARIANCE> 39
 3.655149e+001 1.710281e+002 2.086255e+002 1.660801e+002 2.531655e+002 3.049324e+002 1.250836e+002 1.204216e+002 1.179557e+002 1.178656e+002 9.816033e+001 1.243531e+002 3.724765e+000 5.808814e-001 1.602466e+000 1.428111e+000 2.486917e+000 3.232520e+000 3.650754e+000 4.446371e+000 3.679412e+000 3.521832e+000 3.132682e+000 2.589252e+000 2.601887e+000 3.424313e-002 1.547461e-001 2.134851e-001 2.584408e-001 3.992119e-001 6.203652e-001 6.335563e-001 7.965075e-001 7.425184e-001 7.473382e-001 6.608953e-001 5.755644e-001 4.574761e-001 1.090856e-002
<GCONST> 1.257038e+002
<TRANSP> 5
 0.000000e+000 1.000000e+000 0.000000e+000 0.000000e+000 0.000000e+000
 0.000000e+000 8.211803e-001 1.788197e-001 0.000000e+000 0.000000e+000
 0.000000e+000 0.000000e+000 6.883051e-001 3.116949e-001 0.000000e+000
 0.000000e+000 0.000000e+000 0.000000e+000 5.426659e-001 4.573341e-001
 0.000000e+000 0.000000e+000 0.000000e+000 0.000000e+000 0.000000e+000
<ENDHMM>
~h "l"
<BEGINHMM>
<NUMSTATES> 5
<STATE> 2
<MEAN> 39
 2.746785e+000 -5.677351e+000 -1.420674e+001 -2.799358e+000 1.647561e+000 5.640355e+000 -4.489134e+000 -5.430305e+000 -1.476009e+000 -5.210703e+000 -8.558370e+000 -6.967041e+000 1.562945e+001 -6.550149e-001 9.915540e-001 -9.516472e-002 2.715079e-002 6.616075e-001 -4.876271e-001 1.697526e-001 -1.315885e-001 1.000936e-001 -3.681376e-001 2.027254e-002 2.196439e-001 -1.251255e-001 -4.900818e-001 -2.577326e-002 4.215119e-001 -2.642015e-001 1.829847e-001 -5.290756e-001 1.712325e-001 -4.100856e-002 1.596354e-001 -1.356131e-001 1.023244e-001 8.192477e-002 7.544495e-002
<VARIANCE> 39
 5.108472e+001 1.127892e+002 1.511178e+002 1.630982e+002 1.466665e+002 1.785416e+002 1.124124e+002 1.309101e+002 1.008573e+002 1.769498e+002 8.712766e+001 8.244888e+001 3.672482e+000 2.181820e+000 2.769576e+000 5.134379e+000 4.174702e+000 4.569864e+000 6.044179e+000 4.494184e+000 5.978519e+000 4.787798e+000 4.926332e+000 4.215684e+000 3.714790e+000 8.852639e-002 4.522671e-001 4.968533e-001 8.900248e-001 8.087852e-001 8.381023e-001 1.119235e+000 8.914096e-001 1.069396e+000 8.582672e-001 9.399550e-001 7.814183e-001 6.536644e-001 2.024972e-002
<GCONST> 1.384293e+002
<STATE> 3
<MEAN> 39
 -1.030380e+001 6.834248e-001 -7.806710e+000 -4.704076e+000 7.814502e+000 -5.727247e+000 2.456500e+000 -6.439532e+000 2.488046e+000 -5.629014e+000 -3.575886e+000 -3.823505e+000 1.678419e+001 -2.260279e+000 6.474157e-002 1.863754e+000 -9.215784e-001 2.443082e-001 -1.943497e+000 5.219355e-001 -5.092215e-002 1.210568e+000 -5.771465e-001 6.277457e-001 3.907532e-001 4.788666e-001 3.305118e-001 -4.167820e-001 1.792163e-002 -4.623071e-002 -3.936028e-001 2.697861e-001 -1.532216e-001 5.092445e-002 2.301391e-002 -3.398659e-002 -6.226220e-002 -2.008553e-001 5.917337e-002
<VARIANCE> 39
 1.451156e+002 1.955968e+002 1.220394e+002 1.906224e+002 1.400664e+002 1.961527e+002 1.463653e+002 1.149094e+002 9.765231e+001 1.166014e+002 9.209707e+001 8.559574e+001 6.755538e+000 8.810784e+000 1.030441e+001 1.055265e+001 8.182261e+000 9.054216e+000 1.147995e+001 1.273914e+001 8.567725e+000 7.761806e+000 9.464517e+000 7.203825e+000 5.316901e+000 3.899261e-001 1.234534e+000 1.173979e+000 1.419406e+000 1.134159e+000 1.426702e+000 1.791184e+000 2.082528e+000 1.304315e+000 1.447268e+000 1.284623e+000 1.099536e+000 8.666332e-001 6.604806e-002
<GCONST> 1.581028e+002
<STATE> 4
<MEAN> 39
 -1.008676e+001 -3.457290e+000 -2.825369e+000 -1.156986e+001 2.502274e+000 -9.357352e+000 2.835069e-001 -8.622246e+000 6.619584e+000 -7.308324e+000 -4.660322e+000 -4.332229e+000 1.831746e+001 5.761492e-001 -7.849677e-001 2.609295e-001 -4.753151e-001 -8.524307e-001 7.331464e-003 -1.979819e-001 -8.939180e-002 1.560337e-001 -1.519909e-001 2.569664e-001 -4.448472e-001 1.161467e-001 3.751069e-001 1.272156e-001 -2.982923e-001 6.821980e-002 -8.639363e-002 1.269517e-001 1.252296e-001 -4.614557e-002 -3.954977e-001 1.512440e-001 4.401692e-002 -3.598755e-002 -4.494167e-002
<VARIANCE> 39
 1.318095e+002 1.542979e+002 1.560715e+002 2.422462e+002 1.276138e+002 1.997962e+002 1.239028e+002 1.706640e+002 1.134750e+002 1.451353e+002 1.015221e+002 8.382658e+001 3.938564e+000 5.224775e+000 4.356936e+000 4.138359e+000 5.933837e+000 6.267079e+000 6.522211e+000 9.282614e+000 7.642236e+000 6.883365e+000 5.417730e+000 4.722827e+000 4.084907e+000 2.415847e-001 7.862256e-001 7.290784e-001 8.884384e-001 1.021128e+000 1.164350e+000 1.162734e+000 1.286751e+000 1.281394e+000 1.342135e+000 1.132153e+000 9.436585e-001 7.897814e-001 2.865735e-002
<GCONST> 1.485500e+002
<TRANSP> 5
 0.000000e+000 1.000000e+000 0.000000e+000 0.000000e+000 0.000000e+000
 0.000000e+000 6.211657e-001 3.788343e-001 0.000000e+000 0.000000e+000
 0.000000e+000 0.000000e+000 6.050870e-001 3.949130e-001 0.000000e+000
 0.000000e+000 0.000000e+000 0.000000e+000 5.760986e-001 4.239013e-001
 0.000000e+000 0.000000e+000 0.000000e+000 0.000000e+000 0.000000e+000
<ENDHMM>
~h "m"
<BEGINHMM>
<NUMSTATES> 5
<STATE> 2
<MEAN> 39
 -5.663852e-002 -9.784745e+000 -3.625864e+000 -2.253625e+001 2.517320e+000 1.331563e+000 -3.044969e+000 -1.600575e+000 1.560132e+000 -3.816576e+000 -2.359075e-001 -1.091733e+001 1.952490e+001 1.261483e-001 2.130139e-001 -1.343500e-001 -1.830443e-001 1.573963e-001 1.374730e-001 1.341742e-002 1.960213e-001 -2.666754e-001 6.589934e-002 -2.164431e-002 2.608308e-001 -5.185172e-002 2.444856e-002 -2.395259e-003 6.892054e-002 1.853134e-001 -5.526817e-003 -3.532601e-002 -6.227483e-002 -3.766229e-002 -9.987161e-002 4.265434e-002 -1.115094e-001 -7.767058e-003 -2.647591e-002
<VARIANCE> 39
 1.459821e+001 4.853741e+001 3.126878e+001 1.008322e+002 1.495078e+002 2.144664e+002 6.685012e+001 6.492164e+001 9.500674e+001 1.156584e+002 8.097645e+001 6.079361e+001 1.619874e+000 4.029913e-001 1.006819e+000 1.100063e+000 3.004909e+000 2.133265e+000 2.466686e+000 1.847990e+000 2.800204e+000 2.880698e+000 2.561550e+000 2.193329e+000 2.068038e+000 6.694810e-002 4.986951e-002 1.102178e-001 1.663050e-001 3.019254e-001 3.407444e-001 3.851855e-001 2.936048e-001 5.031160e-001 4.986359e-001 3.972049e-001 3.902608e-001 3.706850e-001 6.272521e-003
<GCONST> 1.069786e+002
<STATE> 3
<MEAN> 39
 4.538052e+000 -8.501122e+000 -2.041422e+000 -1.201008e+001 4.847258e-001 7.623089e+000 -6.638246e+000 -2.432000e+000 -2.913384e+000 -2.654020e+000 -5.720056e+000 -9.440886e+000 1.760502e+001 2.633981e-001 2.058231e-001 -9.802178e-002 9.237261e-001 4.949336e-002 -6.807925e-002 -4.299745e-001 -1.759488e-001 -5.891510e-001 2.848807e-001 -6.248242e-001 -1.651285e-001 -1.217305e-001 -5.703683e-002 -2.284995e-002 -1.198716e-001 -4.370409e-002 -8.120065e-002 -5.435398e-003 6.556824e-002 -3.098859e-003 1.592434e-001 -5.400683e-002 3.550186e-002 -4.941336e-002 1.089133e-002
<VARIANCE> 39
 2.251023e+001 9.323535e+001 8.068081e+001 1.381786e+002 1.304845e+002 1.742927e+002 7.419456e+001 5.652765e+001 1.004436e+002 9.461720e+001 5.542891e+001 4.192971e+001 1.717731e+000 4.635673e-001 1.260029e+000 1.579633e+000 2.520455e+000 2.559458e+000 3.164185e+000 2.149776e+000 2.499985e+000 3.278607e+000 2.727192e+000 2.399629e+000 1.800139e+000 3.248806e-002 6.380633e-002 1.573958e-001 1.850092e-001 3.322540e-001 3.500511e-001 4.597237e-001 3.466847e-001 4.665570e-001 4.393995e-001 4.543243e-001 3.658185e-001 3.232749e-001 5.534417e-003
<GCONST> 1.093330e+002
<STATE> 4
<MEAN> 39
 8.160450e+000 2.437372e+000 -1.329708e+001 -1.152972e+001 -6.629536e+000 6.234272e+000 -6.165273e+000 -5.792922e+000 -2.769201e+000 -2.690009e+000 -5.913327e+000 -8.020272e+000 1.641705e+001 -1.495700e-001 3.390553e-001 -4.337114e-001 1.531789e-001 -3.719630e-001 -3.950438e-002 9.693044e-002 -4.863621e-002 6.105148e-002 -2.564685e-002 6.134397e-002 -4.748607e-002 -1.170529e-001 -6.430271e-002 -4.612670e-002 7.264852e-002 -4.868694e-002 3.919043e-003 -2.493274e-002 3.462385e-002 3.868518e-002 4.506508e-002 -4.920897e-002 2.925535e-002 3.444372e-002 9.746883e-004
<VARIANCE> 39
 4.228872e+001 1.461436e+002 1.464713e+002 1.164669e+002 1.271286e+002 1.313238e+002 8.307795e+001 7.837815e+001 1.121734e+002 1.097965e+002 5.771088e+001 6.607462e+001 3.988248e+000 4.765163e-001 2.030056e+000 2.765550e+000 2.723395e+000 2.616464e+000 3.507565e+000 2.717525e+000 3.249162e+000 4.596673e+000 3.428121e+000 2.874711e+000 3.455789e+000 4.276769e-002 6.698927e-002 2.202119e-001 3.943104e-001 3.913248e-001 4.303194e-001 5.870082e-001 5.023971e-001 5.485378e-001 6.664661e-001 4.838824e-001 5.264496e-001 6.532027e-001 5.230627e-003
<GCONST> 1.197830e+002
<TRANSP> 5
 0.000000e+000 1.000000e+000 0.000000e+000 0.000000e+000 0.000000e+000
 0.000000e+000 8.617917e-001 1.382083e-001 0.000000e+000 0.000000e+000
 0.000000e+000 0.000000e+000 7.525406e-001 2.474593e-001 0.000000e+000
 0.000000e+000 0.000000e+000 0.000000e+000 8.109102e-001 1.890898e-001
 0.000000e+000 0.000000e+000 0.000000e+000 0.000000e+000 0.000000e+000
<ENDHMM>
~h "n"
<BEGINHMM>
<NUMSTATES> 5
<STATE> 2
<MEAN> 39
 -8.635468e+000 -3.921993e+000 1.143612e-003 -6.702307e+000 -3.971958e+000 -1.442546e+000 -2.263468e-001 -5.155710e+000 2.525533e+000 -1.050734e+000 -3.029780e+000 -3.226380e+000 1.505664e+001 -1.252334e+000 -2.302745e+000 -1.286270e+000 -1.208924e+000 2.609135e+000 -7.563877e-002 1.457474e+000 -6.558815e-001 1.083023e+000 -6.949856e-001 3.922857e-001 -2.944645e-002 5.905218e-001 1.490915e-001 -3.976362e-001 -1.901743e-001 -1.723534e-001 1.516858e-001 7.423298e-002 8.551329e-002 -4.584600e-002 7.134330e-002 -2.072128e-001 -6.688860e-003 -3.357264e-001 1.707751e-001
<VARIANCE> 39
 9.424277e+001 1.247172e+002 1.597424e+002 1.635365e+002 2.407096e+002 1.762063e+002 1.083561e+002 1.247713e+002 1.062085e+002 9.265395e+001 1.015310e+002 1.046052e+002 1.238783e+001 6.568006e+000 1.148891e+001 1.376818e+001 1.148582e+001 1.554908e+001 1.323737e+001 9.396749e+000 1.149332e+001 1.073073e+001 9.639710e+000 7.965602e+000 8.239482e+000 7.021221e-001 1.348730e+000 1.744602e+000 2.060120e+000 1.917326e+000 2.989756e+000 2.119119e+000 1.876817e+000 1.588720e+000 1.828317e+000 1.575962e+000 1.468597e+000 1.488507e+000 8.993047e-002
<GCONST> 1.648338e+002
<STATE> 3
<MEAN> 39
 -8.945164e+000 -1.392326e+001 -6.760095e+000 -1.835703e+001 5.876956e+000 -2.735534e+000 3.727736e+000 -8.909553e+000 7.559244e+000 -5.708476e+000 -2.627709e+000 -9.042251e+000 1.957905e+001 5.794095e-001 -1.278367e+000 -8.077554e-001 -6.316162e-002 2.169281e-001 -1.122061e-002 3.502391e-001 1.241990e-001 3.748656e-001 -9.832159e-001 -2.348808e-001 -1.075345e+000 5.675442e-001 1.681282e-001 6.221436e-001 3.617672e-001 4.333302e-001 -4.121799e-001 -1.074547e-002 -3.967369e-001 7.042988e-002 -3.197807e-001 1.177463e-001 -1.176391e-002 1.651105e-001 -1.611398e-001
<VARIANCE> 39
 4.780391e+001 1.186827e+002 8.751477e+001 1.107628e+002 1.058621e+002 1.681181e+002 8.124501e+001 7.598968e+001 7.341314e+001 9.077689e+001 6.612018e+001 9.269740e+001 2.819321e+000 4.629647e+000 4.863368e+000 6.297418e+000 6.378443e+000 6.004785e+000 7.164145e+000 6.664074e+000 7.242777e+000 5.267853e+000 6.732566e+000 6.366418e+000 6.205386e+000 4.016673e-001 7.287444e-001 9.781645e-001 9.762335e-001 9.756182e-001 9.640241e-001 1.196704e+000 9.775792e-001 1.328599e+000 1.143273e+000 1.310804e+000 1.153614e+000 7.770232e-001 4.873993e-002
<GCONST> 1.446462e+002
<STATE> 4
<MEAN> 39
 -6.628798e+000 -1.588599e+001 -7.263659e+000 -1.703485e+001 8.333414e+000 -2.241975e+000 1.194120e+000 -7.980567e+000 7.405744e+000 -5.855986e+000 -2.411684e+000 -1.131380e+001 2.056775e+001 4.462772e-001 1.798832e-001 2.072470e-001 2.947468e-001 -1.925093e-001 -6.323954e-002 -1.912546e-001 3.321726e-001 -1.621983e-001 6.671406e-002 -8.467149e-002 -3.018594e-002 -1.678116e-001 5.936491e-002 2.176257e-001 1.045118e-001 2.031250e-001 -8.574226e-002 -4.185842e-002 -5.495772e-002 9.295511e-002 -2.161663e-001 8.457854e-002 -1.779146e-002 2.178017e-001 -1.514588e-001
<VARIANCE> 39
 1.636424e+001 7.075708e+001 4.710747e+001 4.158577e+001 6.477438e+001 1.665088e+002 6.724007e+001 5.440744e+001 6.133709e+001 6.037492e+001 5.572618e+001 7.995981e+001 2.089088e+000 7.701489e-001 1.402535e+000 1.754000e+000 2.398217e+000 1.980842e+000 3.480479e+000 2.455861e+000 3.316716e+000 2.427474e+000 2.660699e+000 2.669778e+000 2.749681e+000 2.026591e-001 1.839359e-001 2.791358e-001 3.913329e-001 3.772716e-001 4.516512e-001 6.187839e-001 4.408256e-001 6.194358e-001 5.391816e-001 4.581156e-001 5.732737e-001 5.572664e-001 3.684839e-002
<GCONST> 1.156672e+002
<TRANSP> 5
 0.000000e+000 1.000000e+000 0.000000e+000 0.000000e+000 0.000000e+000
 0.000000e+000 7.053348e-001 2.946653e-001 0.000000e+000 0.000000e+000
 0.000000e+000 0.000000e+000 5.608485e-001 4.391515e-001 0.000000e+000
 0.000000e+000 0.000000e+000 0.000000e+000 7.750693e-001 2.249307e-001
 0.000000e+000 0.000000e+000 0.000000e+000 0.000000e+000 0.000000e+000
<ENDHMM>
~h "o"
<BEGINHMM>
<NUMSTATES> 5
<STATE> 2
<MEAN> 39
 -8.023053e+000 -1.085005e+000 -1.451449e+001 -1.233361e+000 9.713182e+000 -8.110812e-001 -2.276248e+000 -6.041317e+000 -1.998398e-001 -6.907326e+000 -1.151217e+001 -6.789711e+000 1.469222e+001 -5.105932e+000 3.974871e+000 2.290478e+000 -2.109526e+000 1.458938e+000 -4.411840e+000 4.317749e+000 -3.899712e-001 1.226711e+000 1.571756e+000 2.936240e+000 2.034447e+000 7.144484e-001 -6.664939e-001 5.574301e-001 5.205063e-001 -4.882088e-001 -2.868616e-001 -1.973851e-001 2.252097e-001 -1.732837e-001 2.935783e-001 1.835468e-003 5.022237e-001 1.641713e-001 2.962375e-001
<VARIANCE> 39
 1.231497e+002 8.671902e+001 1.085930e+002 1.219423e+002 7.582175e+001 1.447233e+002 1.509397e+002 9.922070e+001 9.956660e+001 1.449249e+002 8.982465e+001 6.719690e+001 5.409592e+000 1.007974e+001 8.894083e+000 1.220165e+001 1.005973e+001 1.241994e+001 1.319639e+001 1.334088e+001 7.491718e+000 7.902714e+000 1.246849e+001 8.223405e+000 8.753253e+000 7.448689e-001 1.851183e+000 1.573852e+000 1.382276e+000 1.479033e+000 1.178452e+000 3.213010e+000 2.618409e+000 1.062922e+000 1.276636e+000 1.929247e+000 1.341506e+000 1.269716e+000 8.512785e-002
<GCONST> 1.600246e+002
<STATE> 3
<MEAN> 39
 -2.496783e+001 1.124585e+001 -3.264709e+000 -1.227693e+001 1.019403e+001 -1.281425e+001 3.491023e+000 -1.089444e+001 7.911930e+000 -2.187192e+000 -1.217057e+000 -2.439345e+000 1.959721e+001 1.331280e+000 -7.388390e-001 2.004828e-001 -1.233827e+000 -1.016819e+000 4.865278e-001 -1.701176e+000 -1.071793e+000 3.965735e-001 3.973209e-001 3.843352e-001 -5.749881e-001 1.870920e-001 6.674820e-001 -4.006757e-001 -3.543956e-001 9.743709e-002 -1.781228e-001 4.783131e-001 -2.774727e-001 -7.046372e-002 -3.058625e-001 -1.531614e-001 -1.739663e-001 -8.869011e-002 -1.067114e-001
<VARIANCE> 39
 1.577753e+002 8.785947e+001 9.047404e+001 1.006771e+002 4.500690e+001 7.062142e+001 1.375504e+002 9.081239e+001 4.636564e+001 4.917770e+001 4.222683e+001 4.360106e+001 2.822997e+000 1.394240e+001 6.586965e+000 4.197409e+000 4.305000e+000 3.689065e+000 6.484282e+000 9.674907e+000 7.064064e+000 4.228839e+000 4.191470e+000 3.198968e+000 3.353007e+000 3.593706e-001 1.899079e+000 1.235527e+000 7.006920e-001 8.074755e-001 6.328675e-001 1.282106e+000 2.508384e+000 1.368963e+000 9.075141e-001 9.266478e-001 7.740725e-001 8.981430e-001 4.620848e-002
<GCONST> 1.408505e+002
<STATE> 4
<MEAN> 39
 2.753107e+000 8.654504e+000 -1.150725e+001 -2.313647e+001 -4.456694e+000 2.939163e+000 -6.395046e+000 -1.447644e+001 -6.100463e-002 -6.347003e+000 4.260892e-001 -6.741644e+000 1.797377e+001 3.517991e-001 5.011412e-001 -2.009614e-001 2.339901e-001 -2.994325e-001 3.563888e-001 3.133108e-001 3.271297e-001 -6.447257e-001 -1.595330e-001 6.700566e-002 -7.549492e-002 -1.151082e-001 -9.201794e-002 -1.708067e-002 6.415524e-002 6.229809e-002 5.631532e-002 -9.074522e-002 -6.650092e-003 5.610459e-003 8.824679e-002 5.498242e-002 -2.946326e-002 1.315262e-002 -2.018471e-003
<VARIANCE> 39
 5.401236e+001 6.823274e+001 9.349152e+001 1.210902e+002 6.886982e+001 1.354990e+002 7.171520e+001 1.207828e+002 8.292266e+001 8.323179e+001 6.809614e+001 5.251812e+001 2.977217e+000 7.126139e-001 1.296115e+000 1.745110e+000 2.593043e+000 2.775692e+000 2.887991e+000 2.995614e+000 3.310374e+000 3.833617e+000 2.917205e+000 2.515193e+000 2.689381e+000 5.496567e-002 1.733939e-001 2.744857e-001 2.816142e-001 3.546696e-001 5.042022e-001 5.140753e-001 5.322811e-001 7.017556e-001 6.759595e-001 4.829948e-001 4.929614e-001 5.406278e-001 9.459055e-003
<GCONST> 1.179889e+002
<TRANSP> 5
 0.000000e+000 1.000000e+000 0.000000e+000 0.000000e+000 0.000000e+000
 0.000000e+000 6.468821e-001 3.531179e-001 0.000000e+000 0.000000e+000
 0.000000e+000 0.000000e+000 8.543779e-001 1.456221e-001 0.000000e+000
 0.000000e+000 0.000000e+000 0.000000e+000 9.426104e-001 5.738950e-002
 0.000000e+000 0.000000e+000 0.000000e+000 0.000000e+000 0.000000e+000
<ENDHMM>
~h "r"
<BEGINHMM>
<NUMSTATES> 5
<STATE> 2
<MEAN> 39
 -4.714454e+000 -8.858765e+000 -8.162743e+000 -1.059703e+001 3.599622e+000 -5.438181e+000 -6.246396e+000 -1.071881e+001 7.766376e+000 -8.220144e-001 -7.719565e+000 -5.650711e+000 1.792526e+001 -2.112375e+000 9.034988e-001 7.276884e-001 -1.295530e+000 4.291851e-001 -1.861596e+000 1.554830e+000 6.305435e-001 7.623869e-001 -9.829872e-001 7.326977e-001 9.623404e-001 4.489461e-001 -6.546893e-002 2.897415e-001 -1.092812e-001 -3.055093e-001 -3.307198e-002 6.202261e-001 1.575409e-001 -1.785480e-001 6.859784e-002 1.911599e-001 -2.425450e-002 -9.461930e-002 4.327821e-002
<VARIANCE> 39
 3.198473e+001 2.189104e+002 1.464425e+002 1.772669e+002 9.953186e+001 2.737409e+002 1.074392e+002 1.147975e+002 8.693250e+001 1.877685e+002 2.179373e+002 9.774449e+001 5.006155e+000 4.217015e+000 1.486485e+000 5.297826e+000 6.267698e+000 7.199273e+000 5.456596e+000 8.199856e+000 6.621026e+000 9.485793e+000 5.738200e+000 4.999061e+000 4.565018e+000 3.883771e-001 3.254970e-001 4.506144e-001 6.207069e-001 1.124708e+000 9.773598e-001 1.463875e+000 7.694396e-001 1.230631e+000 1.256424e+000 1.061518e+000 8.684488e-001 4.935690e-001 3.860372e-002
<GCONST> 1.449991e+002
<STATE> 3
<MEAN> 39
 -1.503602e+001 3.292701e+000 -2.935774e+000 -6.183124e+000 2.276138e+000 -1.847031e+001 -6.082961e+000 -1.127448e+001 1.137303e+001 -6.903136e-001 9.227606e-002 -3.954187e+000 1.982597e+001 -1.835917e+000 5.616835e-001 8.618078e-001 -7.318191e-001 1.300510e-004 4.563648e-001 9.556020e-001 -1.298334e-001 6.072274e-002 -3.253798e-001 4.413246e-001 4.429106e-001 4.578156e-001 5.380311e-001 -2.901743e-001 -1.352750e-001 -3.315010e-003 7.535412e-002 6.638169e-001 -2.058202e-001 -1.894218e-001 4.097445e-004 3.424457e-001 -1.931296e-001 -1.421594e-001 -1.494364e-001
<VARIANCE> 39
 6.552332e+001 2.349765e+002 1.551013e+002 1.813933e+002 9.663722e+001 1.923446e+002 4.853449e+001 7.709393e+001 1.591110e+002 1.300564e+002 1.583603e+002 1.161383e+002 2.003461e+000 3.027839e+000 2.122831e+000 3.704166e+000 1.894148e+000 4.641750e+000 3.237961e+000 4.273177e+000 4.725288e+000 4.299969e+000 4.850289e+000 2.064535e+000 1.598982e+000 2.342545e-001 3.183562e-001 5.384760e-001 6.800447e-001 8.050821e-001 6.757439e-001 8.258500e-001 7.774969e-001 1.107529e+000 7.896089e-001 1.391291e+000 7.691477e-001 5.547916e-001 2.423032e-002
<GCONST> 1.348016e+002
<STATE> 4
<MEAN> 39
 -1.363332e+001 -3.365589e+000 -3.732339e+000 -1.460843e+001 4.106966e+000 -9.505387e+000 -8.218620e-001 -9.735578e+000 1.268189e+001 1.660770e+000 -1.877125e+000 -8.695765e+000 2.019467e+001 1.510384e+000 -2.380351e+000 -7.162937e-001 -2.290935e+000 -1.196587e-002 2.995061e+000 1.230154e+000 1.685295e-001 -2.615478e-001 -3.724676e-001 -2.754747e-001 -1.153913e+000 1.093080e-001 1.518744e-001 5.984117e-002 -1.516070e-001 1.755964e-001 1.762504e-001 9.471913e-002 -1.168819e-002 -9.868571e-002 -2.318384e-001 -1.322164e-001 2.351349e-001 -3.933687e-003 -1.906049e-002
<VARIANCE> 39
 8.419226e+001 1.320969e+002 9.659486e+001 1.433598e+002 8.436324e+001 1.434705e+002 4.582806e+001 3.458367e+001 1.121796e+002 8.931503e+001 1.073859e+002 9.910161e+001 1.725810e+000 6.360548e+000 6.347037e+000 3.482034e+000 6.302890e+000 3.525151e+000 6.194745e+000 2.634670e+000 3.015237e+000 5.134824e+000 4.675116e+000 6.853424e+000 6.157641e+000 1.668626e-001 1.237452e+000 1.192936e+000 4.976576e-001 1.127191e+000 6.619188e-001 1.178819e+000 6.769215e-001 4.046750e-001 9.254767e-001 7.347010e-001 1.233313e+000 1.165135e+000 4.390682e-002
<GCONST> 1.385223e+002
<TRANSP> 5
 0.000000e+000 1.000000e+000 0.000000e+000 0.000000e+000 0.000000e+000
 0.000000e+000 4.384974e-001 5.615026e-001 0.000000e+000 0.000000e+000
 0.000000e+000 0.000000e+000 6.644296e-001 3.355704e-001 0.000000e+000
 0.000000e+000 0.000000e+000 0.000000e+000 7.270106e-001 2.729895e-001
 0.000000e+000 0.000000e+000 0.000000e+000 0.000000e+000 0.000000e+000
<ENDHMM>
~h "s"
<BEGINHMM>
<NUMSTATES> 5
<STATE> 2
<MEAN> 39
 -4.312812e+000 -1.033682e+001 -8.513897e+000 -2.014155e+001 7.420756e+000 3.534319e-001 -1.867640e+000 -8.022331e+000 4.362329e+000 -6.173573e+000 -1.243561e+000 -1.126574e+001 2.002387e+001 1.708664e-001 -1.280193e-002 -2.112096e-001 -3.134063e-001 9.441610e-002 8.942091e-001 5.336106e-001 -1.016018e-001 -4.952367e-001 -5.531105e-001 4.616371e-001 1.562491e-001 4.546733e-002 -6.033703e-002 2.448505e-001 6.696609e-002 2.046814e-001 -1.158773e-001 -3.453984e-001 -2.493960e-002 8.059171e-002 2.519951e-002 4.614966e-002 -7.085524e-002 1.250147e-001 -8.658981e-002
<VARIANCE> 39
 2.709246e+001 8.539273e+001 7.157533e+001 1.109586e+002 9.805154e+001 1.539816e+002 8.575007e+001 6.893549e+001 7.646188e+001 7.179650e+001 6.409631e+001 8.059531e+001 4.316148e+000 8.607401e-001 1.305706e+000 1.792672e+000 2.963275e+000 2.570167e+000 3.048139e+000 3.084672e+000 2.882324e+000 3.530996e+000 3.532676e+000 2.869061e+000 2.313903e+000 1.259443e-001 1.804648e-001 3.135251e-001 3.004192e-001 5.139261e-001 4.716821e-001 5.138400e-001 5.339912e-001 5.909576e-001 6.113572e-001 5.326399e-001 4.711705e-001 4.203551e-001 1.920968e-002
<GCONST> 1.197038e+002
<STATE> 3
<MEAN> 39
 -3.916464e+000 -9.733936e+000 -9.154823e+000 -2.131834e+001 5.711857e+000 2.191900e+000 1.250560e+000 -9.451027e+000 4.658218e+000 -6.668691e+000 -6.796240e-001 -1.088554e+001 1.989074e+001 3.537287e-001 1.745927e-001 1.120605e-001 1.985821e-001 -2.903129e-001 2.235129e-001 1.266064e-001 1.858692e-001 -3.761159e-001 -2.263152e-001 4.203395e-002 2.188894e-001 -1.323756e-001 3.144933e-002 8.565066e-002 9.343454e-002 1.938402e-001 -6.121859e-002 -1.872995e-001 -1.239958e-001 7.345431e-002 -2.521353e-002 1.002639e-001 -1.632347e-001 -2.779447e-002 -4.912230e-002
<VARIANCE> 39
 1.881087e+001 7.929087e+001 7.031115e+001 1.111941e+002 9.480014e+001 1.251737e+002 8.100427e+001 7.360190e+001 6.821648e+001 7.890594e+001 6.736295e+001 7.436208e+001 3.566393e+000 5.090388e-001 1.083626e+000 1.120679e+000 2.136317e+000 1.964591e+000 2.357524e+000 2.117481e+000 2.535215e+000 2.793319e+000 2.867323e+000 2.205582e+000 1.988552e+000 7.536452e-002 8.401722e-002 1.787463e-001 1.740597e-001 3.491978e-001 3.366062e-001 3.792689e-001 4.080930e-001 5.125415e-001 5.596437e-001 5.006475e-001 4.260282e-001 3.326976e-001 1.169135e-002
<GCONST> 1.105733e+002
<STATE> 4
<MEAN> 39
 -2.283509e-001 -1.082510e+001 -7.231491e+000 -1.759369e+001 4.946339e+000 6.828362e+000 -2.338968e+000 -6.724309e+000 2.129697e+000 -6.633159e+000 -2.795658e+000 -9.044377e+000 1.883325e+001 3.796377e-001 2.589616e-001 3.355265e-002 5.625306e-001 -2.139671e-001 2.308462e-001 -3.486828e-001 -5.899922e-002 -5.122761e-001 2.230749e-001 -4.245034e-001 1.695026e-002 -1.895013e-001 -2.237256e-002 1.361467e-002 -6.362586e-002 -1.214860e-002 2.170354e-002 -5.094363e-004 -3.522576e-002 -3.983667e-004 6.223395e-002 4.110216e-002 -4.570743e-003 -1.250107e-002 2.873370e-003
<VARIANCE> 39
 2.130929e+001 7.325097e+001 1.111668e+002 9.847578e+001 9.985442e+001 1.893748e+002 7.355147e+001 7.969453e+001 6.645526e+001 8.046111e+001 6.803161e+001 6.340311e+001 3.087481e+000 4.300522e-001 8.758282e-001 1.298233e+000 2.158655e+000 1.896729e+000 2.317607e+000 1.966871e+000 2.817576e+000 2.435201e+000 2.839606e+000 2.225338e+000 1.922871e+000 5.888905e-002 6.123498e-002 1.385351e-001 1.960958e-001 3.232163e-001 3.299484e-001 3.826043e-001 3.581964e-001 4.939742e-001 4.490854e-001 4.597563e-001 3.811505e-001 3.607673e-001 8.697679e-003
<GCONST> 1.091021e+002
<TRANSP> 5
 0.000000e+000 1.000000e+000 0.000000e+000 0.000000e+000 0.000000e+000
 0.000000e+000 4.870320e-001 5.129681e-001 0.000000e+000 0.000000e+000
 0.000000e+000 0.000000e+000 5.589204e-001 4.410795e-001 0.000000e+000
 0.000000e+000 0.000000e+000 0.000000e+000 7.810167e-001 2.189833e-001
 0.000000e+000 0.000000e+000 0.000000e+000 0.000000e+000 0.000000e+000
<ENDHMM>
~h "t"
<BEGINHMM>
<NUMSTATES> 5
<STATE> 2
<MEAN> 39
 -2.467519e+001 1.020038e+001 -8.770492e+000 -6.701868e+000 9.928719e+000 -1.498926e+001 9.405542e+000 -8.325658e+000 7.031087e+000 -3.844450e+000 4.724127e+000 -4.343938e+000 1.939518e+001 6.578084e-001 -1.049698e+000 3.974641e-001 -1.671926e+000 -2.162771e-001 -1.529438e+000 -1.605599e+000 9.190669e-002 9.999981e-001 2.868516e-001 -4.846591e-001 -4.620943e-001 4.364776e-001 4.264599e-001 -3.168313e-001 -2.802208e-002 -1.364432e-001 3.279902e-003 4.283751e-001 -5.115101e-001 -1.601597e-002 -7.031175e-002 9.147161e-002 -1.353165e-001 4.018036e-002 -1.475113e-001
<VARIANCE> 39
 8.926400e+001 1.330753e+002 8.251464e+001 1.564981e+002 9.292107e+001 1.620378e+002 1.353166e+002 6.122878e+001 1.171174e+002 6.487175e+001 1.039281e+002 5.542763e+001 2.973382e+000 8.508834e+000 7.342441e+000 3.740756e+000 6.509002e+000 5.422654e+000 8.317276e+000 1.373825e+001 6.013979e+000 9.709141e+000 4.630284e+000 5.214814e+000 3.710790e+000 5.669387e-001 8.494509e-001 8.188106e-001 5.907510e-001 9.567543e-001 1.115693e+000 1.708700e+000 1.866300e+000 1.294164e+000 1.924838e+000 8.388856e-001 1.041006e+000 6.806204e-001 6.651375e-002
<GCONST> 1.476206e+002
<STATE> 3
<MEAN> 39
 -4.337012e+000 1.560448e+000 -1.117519e+001 -3.529269e+001 8.658818e+000 -1.320051e+001 -1.027237e+001 -1.291370e+001 7.513201e+000 -4.129251e+000 -8.669572e-001 -3.627930e+000 1.942266e+001 3.441319e-001 -1.635039e-001 -1.118494e-001 -6.396712e-002 1.683785e-001 5.919430e-001 1.584314e-001 -3.397743e-001 -8.116173e-001 -3.474607e-001 -8.647948e-002 -5.513319e-002 -3.197600e-002 -1.324940e-001 8.234943e-002 6.404159e-002 3.738451e-001 -1.162301e-001 -1.233700e-001 2.367870e-001 1.593698e-001 -7.854060e-002 -7.622685e-002 -3.451327e-002 -2.002113e-002 -2.994510e-002
<VARIANCE> 39
 2.208529e+001 7.232743e+001 4.268651e+001 1.203766e+002 5.331877e+001 1.240735e+002 7.775574e+001 1.445689e+002 2.284315e+002 6.992571e+001 9.789244e+001 5.237509e+001 2.775847e+000 1.342539e+000 3.040893e+000 1.929658e+000 7.421215e+000 4.210351e+000 5.842749e+000 4.961312e+000 6.530822e+000 7.140295e+000 4.732011e+000 5.378076e+000 3.708658e+000 1.344633e-001 2.702424e-001 5.288104e-001 4.028599e-001 8.700140e-001 8.221609e-001 9.815835e-001 1.151361e+000 1.156119e+000 1.378654e+000 8.824548e-001 1.059491e+000 6.518946e-001 2.525499e-002
<GCONST> 1.334451e+002
<STATE> 4
<MEAN> 39
 1.065825e+000 -5.143370e+000 -1.505581e+001 -2.497570e+001 7.403462e+000 -1.077346e+001 -6.760355e+000 -9.124084e+000 -5.363399e-001 -8.213082e+000 -9.725320e+000 -3.312789e-001 1.910607e+001 6.181412e-003 -3.271393e-001 1.670176e-001 7.794406e-001 -3.636172e-001 -5.359063e-001 4.893776e-001 3.197057e-001 -1.190022e-001 1.006013e-001 1.034242e-002 7.142661e-002 -1.917238e-002 7.374093e-003 3.260242e-002 7.493627e-002 -9.479868e-003 -8.966666e-002 -8.382124e-002 -2.910785e-002 3.446222e-002 7.362789e-002 2.777678e-002 4.419880e-002 -4.463837e-003 -1.242757e-002
<VARIANCE> 39
 5.036069e+001 1.259462e+002 5.528354e+001 7.361902e+001 7.350454e+001 1.387448e+002 9.877905e+001 8.418355e+001 8.693237e+001 6.218353e+001 9.429485e+001 7.835176e+001 1.998847e+000 1.630402e+000 2.610692e+000 1.673604e+000 3.709409e+000 5.098806e+000 6.101409e+000 5.235704e+000 3.982330e+000 6.891090e+000 3.105647e+000 3.449492e+000 4.293936e+000 6.135873e-002 1.977354e-001 3.526607e-001 3.027925e-001 5.658382e-001 8.039483e-001 9.629096e-001 9.179172e-001 7.959554e-001 1.247813e+000 5.614153e-001 7.113923e-001 7.181194e-001 1.464519e-002
<GCONST> 1.276637e+002
<TRANSP> 5
 0.000000e+000 1.000000e+000 0.000000e+000 0.000000e+000 0.000000e+000
 0.000000e+000 8.559279e-001 1.440721e-001 0.000000e+000 0.000000e+000
 0.000000e+000 0.000000e+000 8.860266e-001 1.139735e-001 0.000000e+000
 0.000000e+000 0.000000e+000 0.000000e+000 8.313261e-001 1.686740e-001
 0.000000e+000 0.000000e+000 0.000000e+000 0.000000e+000 0.000000e+000
<ENDHMM>
~h "u"
<BEGINHMM>
<NUMSTATES> 5
<STATE> 2
<MEAN> 39
 -1.270323e+001 5.576308e+000 -3.987359e+000 -3.518264e+000 7.223489e+000 -6.335803e+000 -2.040115e-001 -1.072291e+001 4.121841e-001 -7.829105e+000 -4.164360e+000 -7.657256e+000 1.692216e+001 -3.537098e-001 -5.400506e-001 -2.985594e-001 -1.107791e+000 1.383199e-002 -4.911413e-001 -9.785332e-001 -5.084504e-001 4.881236e-001 -2.076331e-001 2.877450e-001 -4.896736e-001 2.335505e-001 1.347862e-001 -8.058304e-002 -1.291067e-001 -1.307630e-001 -8.651982e-002 9.144565e-002 -9.652838e-002 2.503383e-002 -2.494654e-002 5.284762e-002 8.862330e-002 -9.857908e-002 3.111900e-002
<VARIANCE> 39
 2.424103e+002 1.634987e+002 1.026382e+002 1.794791e+002 1.354083e+002 1.765435e+002 1.213720e+002 7.445661e+001 2.232958e+002 6.029764e+001 5.109158e+001 5.992716e+001 9.558780e+000 1.821312e+001 9.429750e+000 5.257313e+000 7.209441e+000 6.588048e+000 1.469818e+001 1.186702e+001 6.097301e+000 9.024922e+000 4.119722e+000 4.649293e+000 6.608968e+000 6.157370e-001 2.202928e+000 1.293863e+000 7.956378e-001 1.199171e+000 9.892311e-001 2.470668e+000 1.800669e+000 1.029926e+000 1.277609e+000 7.023123e-001 9.672949e-001 8.422381e-001 1.114021e-001
<GCONST> 1.552643e+002
<STATE> 3
<MEAN> 39
 1.037684e+000 4.389011e+000 -9.552192e+000 -2.134820e+001 -3.714066e+000 3.038684e+000 -1.171834e+001 -1.403869e+001 -3.215137e+000 -1.135909e+001 -3.319006e-002 -1.419548e+001 1.804578e+001 4.991508e-001 7.992999e-001 -7.750602e-001 -2.696654e-001 -2.664535e-001 2.606831e-001 -2.023288e-001 4.335276e-001 -6.323820e-001 -1.688039e-001 1.248366e-001 3.453114e-001 -2.259330e-001 -2.303803e-001 -2.929890e-002 8.812660e-002 5.993694e-002 1.737343e-001 -1.393888e-001 8.454781e-002 1.260651e-001 1.602169e-001 2.955020e-002 1.096624e-001 9.901655e-002 7.491605e-003
<VARIANCE> 39
 3.009351e+001 1.055390e+002 4.153211e+001 5.440504e+001 9.307289e+001 8.793450e+001 6.966434e+001 5.635071e+001 6.091983e+001 3.379970e+001 9.258511e+001 1.498945e+002 4.489192e+000 6.958081e-001 1.266825e+000 1.690678e+000 2.316072e+000 3.847798e+000 4.988417e+000 3.227264e+000 2.429644e+000 3.664949e+000 3.191101e+000 3.280177e+000 3.013113e+000 1.368156e-001 2.491701e-001 2.346316e-001 2.708947e-001 4.579415e-001 5.140234e-001 7.154099e-001 6.175416e-001 4.538645e-001 6.079181e-001 5.307736e-001 6.855295e-001 7.683989e-001 2.507941e-002
<GCONST> 1.197757e+002
<STATE> 4
<MEAN> 39
 2.871547e+000 1.984319e+000 -7.833091e+000 -2.526508e+001 -5.965049e+000 8.120684e+000 -1.003612e+001 -4.608676e+000 -1.205290e+000 -6.124514e+000 3.060967e+000 -8.645450e+000 1.829309e+001 -3.097372e-001 -1.475959e+000 8.495335e-001 2.613237e-001 5.749685e-002 -2.142009e-001 -2.294985e-002 4.513664e-001 6.488066e-001 3.845548e-001 2.581316e-001 -1.717672e-001 2.664751e-001 1.050722e-002 -2.768155e-002 1.065231e-001 6.123717e-002 -3.072649e-002 -5.301858e-002 1.210848e-001 -2.391992e-002 2.765606e-003 -2.344909e-002 -3.462289e-002 6.577440e-002 1.663337e-003
<VARIANCE> 39
 2.232260e+001 1.683873e+002 9.300038e+001 2.693494e+002 1.466219e+002 1.974976e+002 8.521558e+001 1.109114e+002 1.323553e+002 1.017710e+002 1.280660e+002 1.431982e+002 4.555619e+000 1.388683e+000 3.042565e+000 6.308978e+000 1.147338e+001 1.180213e+001 1.202839e+001 5.993918e+000 4.776972e+000 8.687944e+000 6.004605e+000 7.047187e+000 5.969672e+000 2.305418e-001 2.483664e-001 5.108401e-001 1.176141e+000 1.387796e+000 2.279000e+000 1.577700e+000 8.101113e-001 7.657239e-001 1.561869e+000 1.008844e+000 1.273498e+000 1.013243e+000 3.624290e-002
<GCONST> 1.471859e+002
<TRANSP> 5
 0.000000e+000 1.000000e+000 0.000000e+000 0.000000e+000 0.000000e+000
 0.000000e+000 8.159857e-001 1.840143e-001 0.000000e+000 0.000000e+000
 0.000000e+000 0.000000e+000 7.897030e-001 2.102969e-001 0.000000e+000
 0.000000e+000 0.000000e+000 0.000000e+000 8.835778e-001 1.164222e-001
 0.000000e+000 0.000000e+000 0.000000e+000 0.000000e+000 0.000000e+000
<ENDHMM>
~h "v"
<BEGINHMM>
<NUMSTATES> 5
<STATE> 2
<MEAN> 39
 -5.791038e+000 5.921306e+000 -6.276587e+000 -3.822032e+000 2.010181e+000 -2.038421e+001 -1.035505e+001 -1.224770e+001 9.040926e+000 3.448250e+000 -4.008591e+000 -6.332747e+000 1.626127e+001 -2.602503e+000 5.047291e-001 -8.781993e-001 6.216696e-001 1.537460e+000 -2.568503e+000 1.640094e+000 -1.330533e+000 1.162104e+000 -1.042715e+000 1.200450e+000 -1.591327e-002 6.601892e-001 -3.920515e-001 1.001606e-001 3.524645e-001 -3.205433e-001 -2.735535e-001 3.104521e-001 2.857500e-002 1.676292e-001 -1.435810e-001 -1.591018e-001 1.801969e-001 5.350234e-002 1.500239e-001
<VARIANCE> 39
 1.176451e+002 7.787764e+001 1.144267e+002 1.094516e+002 1.463300e+002 2.255576e+002 1.411099e+002 1.047943e+002 7.089905e+001 1.185424e+002 1.000234e+002 1.100511e+002 3.078866e+000 1.187148e+001 5.431364e+000 8.532357e+000 1.215994e+001 9.313856e+000 1.178785e+001 1.324507e+001 8.136103e+000 5.104022e+000 8.967673e+000 1.050306e+001 9.377090e+000 4.587266e-001 1.940728e+000 9.256032e-001 1.455672e+000 1.569275e+000 1.934282e+000 1.726835e+000 2.665870e+000 1.748519e+000 9.823797e-001 1.302103e+000 1.587520e+000 1.363646e+000 7.870235e-002
<GCONST> 1.581636e+002
<STATE> 3
<MEAN> 39
 -1.719261e+001 9.348730e+000 -5.462740e+000 -4.957534e+000 6.663334e-001 -2.969650e+001 -5.841599e+000 -1.126237e+001 1.337328e+001 -2.281806e+000 -1.198302e+000 -3.856962e+000 1.918980e+001 -1.959659e+000 7.192363e-001 7.956188e-001 5.070752e-002 -4.024673e-001 -1.986594e-001 5.574549e-001 3.112111e-001 -6.705713e-002 -2.647711e-003 8.560664e-001 9.655515e-002 3.695999e-001 6.230770e-001 -2.335639e-001 1.355018e-002 -2.212317e-001 -7.087989e-002 6.010220e-001 -1.215896e-001 2.141559e-001 -1.622586e-001 1.763267e-001 -2.502761e-001 -6.034794e-002 -1.656293e-001
<VARIANCE> 39
 7.484850e+001 9.099181e+001 9.898792e+001 9.181555e+001 1.115221e+002 1.210399e+002 7.958277e+001 8.914201e+001 8.426044e+001 8.574039e+001 8.129678e+001 5.810737e+001 1.990181e+000 3.889127e+000 3.319791e+000 3.579142e+000 4.302363e+000 3.394961e+000 5.498479e+000 4.792832e+000 3.934822e+000 3.962023e+000 4.262321e+000 3.963954e+000 3.069116e+000 3.293959e-001 5.288103e-001 6.136433e-001 7.415809e-001 9.018235e-001 8.202056e-001 1.082104e+000 9.421692e-001 7.394711e-001 8.673527e-001 8.479557e-001 7.626833e-001 7.045519e-001 4.329517e-002
<GCONST> 1.353238e+002
<STATE> 4
<MEAN> 39
 -2.176983e+001 7.399109e+000 -2.616040e+000 -6.371593e+000 2.219484e+000 -2.302256e+001 -5.886917e-001 -9.661774e+000 1.189438e+001 -1.698900e+000 1.143362e+000 -4.711069e+000 1.951494e+001 2.397377e+000 -2.727381e+000 -1.427916e+000 -2.788161e+000 8.860419e-001 3.065763e+000 7.993536e-001 5.102932e-001 3.629915e-001 -3.871755e-001 -1.231424e+000 -1.032139e+000 -1.732052e-001 1.009994e+000 -8.801911e-001 -7.105228e-001 -6.744338e-001 2.398376e-001 9.068298e-001 -9.797111e-002 -4.577618e-002 4.040585e-002 -1.478492e-001 -2.794117e-001 -4.461059e-001 4.532810e-002
<VARIANCE> 39
 5.198719e+001 1.003381e+002 8.199836e+001 7.789851e+001 8.611666e+001 8.826176e+001 5.884700e+001 5.673186e+001 5.414591e+001 6.356537e+001 6.335092e+001 4.510029e+001 1.271441e+000 6.806292e+000 9.646530e+000 7.307953e+000 6.178546e+000 5.977819e+000 7.199466e+000 4.766861e+000 3.685024e+000 4.751450e+000 7.046894e+000 4.880903e+000 6.046652e+000 9.514986e-002 6.823629e-001 1.153362e+000 8.984821e-001 9.934175e-001 8.376597e-001 1.052133e+000 8.501656e-001 6.481252e-001 7.942146e-001 1.048849e+000 9.548801e-001 7.232755e-001 4.181357e-002
<GCONST> 1.367529e+002
<TRANSP> 5
 0.000000e+000 1.000000e+000 0.000000e+000 0.000000e+000 0.000000e+000
 0.000000e+000 6.665417e-001 3.334583e-001 0.000000e+000 0.000000e+000
 0.000000e+000 0.000000e+000 8.106961e-001 1.893039e-001 0.000000e+000
 0.000000e+000 0.000000e+000 0.000000e+000 7.456107e-001 2.543894e-001
 0.000000e+000 0.000000e+000 0.000000e+000 0.000000e+000 0.000000e+000
<ENDHMM>
~h "w"
<BEGINHMM>
<NUMSTATES> 5
<STATE> 2
<MEAN> 39
 -2.860541e+000 -3.412233e+000 7.254201e+000 -3.034263e+001 -1.114051e+001 -4.135854e+000 -2.890088e+000 -2.618202e+001 5.364442e+000 3.126216e+000 -1.069585e+001 -2.844578e+000 1.870593e+001 -2.608186e-001 -4.862978e-001 1.147219e+000 -9.708125e-002 -1.008727e+000 -5.276034e-001 -4.068920e-002 -4.663947e-002 3.921576e-001 -5.719016e-002 1.541718e-001 -6.920024e-002 1.508720e-001 1.851360e-001 3.541861e-002 -2.274248e-001 1.849799e-001 5.985298e-003 1.449556e-001 -7.088241e-002 2.122085e-001 -2.038405e-001 -8.356348e-002 1.547200e-001 -7.473271e-002 -2.021214e-002
<VARIANCE> 39
 3.621822e+001 2.710398e+001 1.147753e+002 1.677954e+002 9.298658e+001 9.720543e+001 1.345944e+002 1.234676e+002 3.989611e+001 4.131892e+001 3.728385e+001 7.750523e+001 2.946444e+000 3.820236e+000 2.374746e+000 1.055883e+001 8.942424e+000 5.299067e+000 5.723572e+000 1.084407e+001 7.243357e+000 3.846886e+000 5.176786e+000 4.211114e+000 4.356285e+000 2.452608e-001 2.126496e-001 2.638789e-001 8.147211e-001 6.751699e-001 9.797175e-001 9.929941e-001 1.683910e+000 1.240121e+000 5.114045e-001 7.834238e-001 7.170789e-001 7.574129e-001 1.149767e-002
<GCONST> 1.339810e+002
<STATE> 3
<MEAN> 39
 -1.239340e+000 -1.093529e+001 1.797894e+000 -1.213736e+001 -7.227804e+000 -9.176867e+000 -1.178645e+001 2.402809e+000 5.153345e+000 -1.651720e+000 -6.179539e+000 -1.375194e+001 1.896521e+001 1.095155e-001 -3.582593e-001 9.535421e-001 4.728160e-001 -9.312867e-001 -8.473018e-001 1.889590e-001 7.341421e-001 3.704394e-001 -2.406491e-001 1.281434e-001 2.565031e-001 1.161596e-001 -1.925723e-002 2.446056e-001 -3.042170e-001 -5.581114e-002 2.209700e-001 3.957831e-001 9.827733e-002 -2.133453e-001 9.765830e-002 2.460552e-002 2.410625e-001 -4.221531e-002 -2.566086e-002
<VARIANCE> 39
 1.833611e+001 6.307973e+001 4.417377e+001 5.242115e+001 8.710844e+001 6.772964e+001 7.713093e+001 1.042081e+002 7.879453e+001 8.912920e+001 6.635245e+001 1.631906e+002 8.356397e+000 1.751262e+000 2.962688e+000 4.502776e+000 4.786876e+000 5.773813e+000 4.525015e+000 8.080544e+000 6.420236e+000 4.721694e+000 4.868650e+000 3.464701e+000 3.122305e+000 5.683747e-001 2.815580e-001 4.943870e-001 8.734493e-001 7.791602e-001 8.686637e-001 8.366458e-001 1.518542e+000 1.132866e+000 7.631364e-001 8.204756e-001 5.549555e-001 8.144736e-001 1.072033e-001
<GCONST> 1.356738e+002
<STATE> 4
<MEAN> 39
 -2.102444e+000 -1.308849e+001 -5.901836e-001 -5.084074e+000 -1.008367e+001 -8.274386e+000 -2.078560e+000 -3.604743e+000 1.635193e+001 -8.685984e+000 -2.477248e+000 -9.796976e+000 2.000141e+001 -3.110050e-001 1.773898e-001 1.972327e-002 -4.947495e-001 2.740165e-002 2.039482e-001 6.857986e-001 -3.396046e-001 2.879770e-001 2.903767e-001 7.003281e-001 -3.185268e-002 1.983836e-001 6.179078e-002 3.780008e-001 -1.623573e-001 -2.871611e-001 4.619694e-001 3.137753e-001 4.133417e-003 -1.379456e-001 -5.191345e-001 1.857845e-001 -1.306663e-001 2.791340e-001 -1.290719e-001
<VARIANCE> 39
 3.180653e+001 5.956660e+001 3.345038e+001 8.766729e+001 5.029061e+001 1.045339e+002 1.249042e+002 7.259515e+001 1.066204e+002 1.392622e+002 8.056477e+001 1.001526e+002 3.172276e+000 1.888815e+000 1.943613e+000 5.160739e+000 3.889111e+000 7.460783e+000 4.220352e+000 4.583140e+000 5.512414e+000 6.653257e+000 5.797914e+000 4.305025e+000 4.359740e+000 2.916291e-001 3.039426e-001 2.133655e-001 6.947289e-001 8.774957e-001 1.225778e+000 6.776729e-001 8.175322e-001 9.791462e-001 1.074544e+000 1.198220e+000 6.687545e-001 7.543379e-001 3.591616e-002
<GCONST> 1.335777e+002
<TRANSP> 5
 0.000000e+000 1.000000e+000 0.000000e+000 0.000000e+000 0.000000e+000
 0.000000e+000 7.778994e-001 2.221007e-001 0.000000e+000 0.000000e+000
 0.000000e+000 0.000000e+000 7.750292e-001 2.249708e-001 0.000000e+000
 0.000000e+000 0.000000e+000 0.000000e+000 7.270040e-001 2.729960e-001
 0.000000e+000 0.000000e+000 0.000000e+000 0.000000e+000 0.000000e+000
<ENDHMM>
~h "x"
<BEGINHMM>
<NUMSTATES> 5
<STATE> 2
<MEAN> 39
 -5.019819e+000 -1.187865e+001 -5.794115e+000 -1.232929e+001 8.221053e+000 -2.483118e+000 4.215798e+000 -7.582406e+000 1.763244e+000 -4.969907e+000 -2.206079e+000 -1.549238e+001 1.844769e+001 -1.817511e-001 -1.617123e-001 1.291404e-001 -3.054562e-002 2.096045e-001 -2.290403e-001 3.983910e-001 1.517390e-001 1.509568e-001 -6.518167e-002 -2.782559e-003 -2.119972e-001 1.022761e-001 7.174589e-002 -1.481346e-002 1.527250e-001 4.154482e-002 -1.160394e-001 -2.003658e-002 -4.673118e-002 4.875968e-002 -7.203960e-002 3.530842e-002 -6.124609e-002 5.743337e-002 2.783675e-003
<VARIANCE> 39
 2.014544e+001 7.108474e+001 3.359931e+001 3.926619e+001 5.269660e+001 6.934608e+001 3.926688e+001 3.591984e+001 7.304903e+001 7.550378e+001 7.826218e+001 6.135107e+001 3.992492e+000 2.064205e+000 3.166251e+000 2.260617e+000 2.491616e+000 3.547898e+000 2.444416e+000 3.104575e+000 3.169519e+000 4.329358e+000 4.442875e+000 2.279289e+000 2.494199e+000 2.539650e-001 3.863428e-001 5.583351e-001 3.622231e-001 4.626412e-001 7.293240e-001 4.637030e-001 4.887936e-001 4.953731e-001 8.091369e-001 8.037073e-001 4.346580e-001 4.618435e-001 3.544068e-002
<GCONST> 1.202387e+002
<STATE> 3
<MEAN> 39
 -4.337913e+000 -1.410582e+001 8.810325e-001 -1.150350e+001 1.379001e+000 -4.022476e+000 4.805515e+000 -7.265338e+000 2.463091e+000 -4.122350e+000 -5.095928e+000 -9.993143e+000 1.854550e+001 -1.937850e-001 1.535535e-001 7.960050e-001 -2.733419e-001 -1.106451e+000 -2.835177e-001 7.108923e-002 -1.358680e-002 7.662483e-002 3.774941e-001 3.003510e-001 2.632119e-001 5.647862e-002 -5.781254e-002 2.704014e-002 -4.975181e-002 -7.012626e-002 6.793040e-002 -4.122183e-004 5.887245e-002 -3.670819e-002 5.829066e-002 5.016746e-002 2.493322e-002 -9.849960e-002 2.793238e-002
<VARIANCE> 39
 1.959164e+001 2.307139e+001 4.446010e+001 5.156189e+001 6.367615e+001 9.806535e+001 4.993883e+001 9.479970e+001 4.120707e+001 8.584084e+001 7.399857e+001 5.075616e+001 1.602668e+000 9.274707e-001 9.775642e-001 2.201174e+000 2.699126e+000 3.238439e+000 4.210547e+000 4.535596e+000 3.564955e+000 3.659265e+000 4.172177e+000 4.105331e+000 2.958643e+000 1.536862e-001 1.394450e-001 2.141389e-001 3.670557e-001 3.372480e-001 4.656146e-001 7.738164e-001 8.323674e-001 6.830595e-001 4.993947e-001 7.719740e-001 6.217599e-001 5.481958e-001 1.146857e-002
<GCONST> 1.163502e+002
<STATE> 4
<MEAN> 39
 -8.810507e+000 -9.382629e+000 1.274421e+001 -1.658377e+001 -1.155315e+001 -1.123001e+001 6.238458e+000 -7.595434e+000 3.295205e+000 -1.317219e+000 -3.463042e+000 -1.061658e+001 1.937369e+001 1.355323e-001 2.583424e-001 1.040475e-001 1.038842e-001 -2.057609e-001 1.643887e-001 -1.927791e-001 -4.946087e-002 -2.324365e-001 1.442771e-001 -2.678542e-001 -3.363123e-002 -1.098411e-001 2.501988e-002 -8.723218e-003 -5.050750e-002 4.809748e-002 3.121006e-002 4.662145e-002 -2.303483e-002 8.543613e-003 -1.573021e-002 -6.826200e-003 -1.432537e-002 3.883114e-002 -1.708081e-002
<VARIANCE> 39
 1.959584e+001 1.472828e+001 2.753625e+001 7.909775e+001 5.075983e+001 6.689728e+001 5.063243e+001 8.609033e+001 7.929631e+001 1.003927e+002 1.364224e+002 3.559599e+001 3.701046e+000 3.236285e-001 6.169282e-001 9.656915e-001 9.867573e-001 1.499168e+000 1.903044e+000 2.271452e+000 1.611139e+000 1.621615e+000 2.199455e+000 2.091226e+000 1.386279e+000 3.345982e-002 5.034159e-002 1.011567e-001 1.599779e-001 1.658102e-001 2.499272e-001 3.189354e-001 4.194902e-001 3.214744e-001 3.228423e-001 4.515522e-001 4.110862e-001 2.636603e-001 3.670487e-003
<GCONST> 9.674486e+001
<TRANSP> 5
 0.000000e+000 1.000000e+000 0.000000e+000 0.000000e+000 0.000000e+000
 0.000000e+000 8.909169e-001 1.090831e-001 0.000000e+000 0.000000e+000
 0.000000e+000 0.000000e+000 8.850285e-001 1.149715e-001 0.000000e+000
 0.000000e+000 0.000000e+000 0.000000e+000 9.506484e-001 4.935160e-002
 0.000000e+000 0.000000e+000 0.000000e+000 0.000000e+000 0.000000e+000
<ENDHMM>
~h "z"
<BEGINHMM>
<NUMSTATES> 5
<STATE> 2
<MEAN> 39
 -1.006510e+001 -1.824693e+001 3.606959e+000 -1.578724e+001 -2.497021e+000 -9.343927e+000 8.768456e+000 -6.398637e+000 2.608474e+000 -1.228494e+001 -2.397469e+000 -8.697169e+000 2.146106e+001 1.558090e-001 -1.325760e-001 -2.183481e-001 5.291175e-001 4.092268e-001 6.135295e-002 -1.715486e-001 1.039008e-001 1.937957e-001 -1.532920e-001 -4.930727e-002 1.759282e-001 -5.473690e-002 4.476588e-002 1.347109e-002 -8.040398e-002 1.259315e-001 1.092261e-001 2.526625e-002 -7.989540e-002 3.449350e-002 9.449724e-003 -5.481324e-002 -3.583272e-003 2.174911e-002 -2.115165e-002
<VARIANCE> 39
 1.825186e+001 1.870631e+001 3.002995e+001 7.287320e+001 6.986526e+001 1.143641e+002 4.913247e+001 5.841273e+001 6.684635e+001 8.895219e+001 7.155146e+001 3.263684e+001 1.128037e+000 2.685784e-001 6.805313e-001 9.143221e-001 1.594518e+000 1.744776e+000 1.272497e+000 1.473707e+000 1.623903e+000 1.737851e+000 1.544753e+000 1.900925e+000 1.549298e+000 2.501951e-002 4.669302e-002 1.259564e-001 1.251648e-001 1.855408e-001 2.173218e-001 1.973661e-001 2.525723e-001 3.118049e-001 2.973926e-001 2.474062e-001 2.902933e-001 2.843365e-001 4.591390e-003
<GCONST> 9.236683e+001
<STATE> 3
<MEAN> 39
 -5.851396e+000 -1.670160e+001 -2.846628e-001 -6.998021e+000 5.969094e+000 -2.990646e+000 5.090727e+000 -4.299384e+000 8.574340e+000 -1.276243e+001 -2.576196e+000 -9.163990e+000 2.017536e+001 1.569597e-001 1.489154e-001 -7.082791e-002 2.654031e-001 3.150489e-001 1.668275e-001 -2.190354e-001 9.252502e-002 9.928946e-002 -2.970238e-003 1.888030e-002 -9.130042e-002 -1.009743e-001 -2.901943e-002 -9.409216e-003 3.897063e-002 -7.288693e-002 -1.418488e-001 -5.721041e-002 2.865881e-003 -8.230852e-003 -4.192724e-002 3.032753e-002 2.173653e-003 -3.547235e-003 3.618582e-003
<VARIANCE> 39
 1.042747e+001 2.202796e+001 1.894772e+001 4.166358e+001 5.648321e+001 7.483199e+001 4.604224e+001 3.912883e+001 5.804260e+001 9.005747e+001 3.625352e+001 2.871139e+001 1.436570e+000 3.144806e-001 1.059468e+000 1.140929e+000 1.399919e+000 1.844109e+000 1.205597e+000 1.508440e+000 1.550858e+000 1.552025e+000 1.482600e+000 1.055936e+000 1.145875e+000 6.756031e-002 5.742620e-002 1.635693e-001 2.162008e-001 2.251676e-001 2.136419e-001 2.170468e-001 2.734702e-001 3.101495e-001 2.734414e-001 2.621206e-001 2.104852e-001 2.181338e-001 8.831951e-003
<GCONST> 9.117529e+001
<STATE> 4
<MEAN> 39
 -4.518321e+000 -1.613322e+001 -1.253116e+000 -9.750954e+000 4.561128e+000 -2.641849e+000 3.605945e+000 -5.451143e+000 5.438202e+000 -1.149519e+001 -3.761277e+000 -6.713848e+000 1.944181e+001 9.562223e-002 -1.567362e-002 -1.664081e-001 6.818994e-002 -1.931690e-001 -1.808477e-001 -3.755443e-001 -7.869206e-002 -9.142288e-002 2.129284e-002 -2.114324e-002 9.214883e-002 -7.586196e-002 -4.761389e-004 -2.380732e-002 9.811923e-003 -4.500532e-002 -1.939078e-002 -1.026940e-002 -1.106886e-002 -5.969009e-002 -6.816693e-002 7.312202e-002 7.122417e-003 -5.061497e-003 5.207726e-003
<VARIANCE> 39
 1.806326e+001 2.468748e+001 2.873261e+001 8.195640e+001 5.681224e+001 1.203284e+002 5.639702e+001 4.968363e+001 8.073109e+001 1.109497e+002 4.585680e+001 4.732358e+001 1.506358e+000 3.913393e-001 8.521114e-001 1.157393e+000 1.870017e+000 2.069287e+000 1.722866e+000 2.646450e+000 2.073767e+000 2.572755e+000 2.051902e+000 1.553153e+000 1.777170e+000 7.152106e-002 7.891617e-002 1.428373e-001 2.117836e-001 3.201617e-001 3.068388e-001 3.559709e-001 4.022388e-001 4.155087e-001 4.680372e-001 4.052131e-001 3.515841e-001 3.205368e-001 8.542746e-003
<GCONST> 1.024029e+002
<TRANSP> 5
 0.000000e+000 1.000000e+000 0.000000e+000 0.000000e+000 0.000000e+000
 0.000000e+000 8.029366e-001 1.970634e-001 0.000000e+000 0.000000e+000
 0.000000e+000 0.000000e+000 8.163688e-001 1.836312e-001 0.000000e+000
 0.000000e+000 0.000000e+000 0.000000e+000 6.345267e-001 3.654733e-001
 0.000000e+000 0.000000e+000 0.000000e+000 0.000000e+000 0.000000e+000
<ENDHMM>
~h "@@"
<BEGINHMM>
<NUMSTATES> 5
<STATE> 2
<MEAN> 39
 3.296923e+000 -9.019773e+000 -1.410579e+001 -1.087221e+001 -1.025613e-001 4.990396e+000 -3.080228e+000 -1.057581e+001 3.081119e-001 -3.967252e+000 -7.037508e+000 -9.980147e+000 1.777671e+001 3.396849e-001 2.924636e-001 -1.673528e-001 6.140152e-001 -1.669053e-001 2.969647e-002 -3.745101e-001 1.629918e-001 -3.602542e-001 1.541674e-001 -2.470660e-001 1.247964e-001 -1.533768e-001 -1.152944e-001 5.588594e-002 4.570316e-002 -1.174341e-001 2.251067e-002 -9.582741e-002 1.139128e-001 6.283114e-002 2.162798e-004 -4.878050e-002 4.065596e-002 8.829285e-002 1.956697e-003
<VARIANCE> 39
 5.915226e+001 1.048451e+002 1.494555e+002 1.053993e+002 1.114717e+002 1.865926e+002 8.709148e+001 1.218750e+002 1.027701e+002 7.573990e+001 9.462022e+001 9.994335e+001 4.120017e+000 1.193719e+000 2.097363e+000 2.774254e+000 2.895464e+000 3.608519e+000 4.940389e+000 4.021889e+000 5.206076e+000 4.014779e+000 3.940901e+000 3.823714e+000 3.745074e+000 8.994777e-002 1.741129e-001 3.254153e-001 4.210259e-001 4.842346e-001 6.390283e-001 7.134819e-001 6.319213e-001 9.027560e-001 7.314524e-001 7.282732e-001 7.223303e-001 6.911244e-001 1.332819e-002
<GCONST> 1.293054e+002
<STATE> 3
<MEAN> 39
 -1.630444e+000 -5.923322e+000 -9.970164e+000 -1.219467e+001 9.322321e-001 -1.128391e+000 -2.235378e+000 -6.794366e+000 1.467939e+000 -5.030727e+000 -4.690073e+000 -8.195735e+000 1.741858e+001 -4.017786e-001 -1.810303e-001 6.439974e-001 -2.911891e-001 -2.349354e-001 -4.477434e-001 4.613145e-001 4.620214e-001 4.982266e-002 -3.807139e-001 -1.162268e-001 2.656642e-001 1.990272e-002 -1.325602e-001 -1.738748e-002 3.855896e-002 -1.929747e-001 2.341881e-002 5.259668e-002 1.953595e-001 -8.140238e-002 4.876518e-002 -1.106130e-002 1.594236e-001 6.568105e-002 3.471183e-002
<VARIANCE> 39
 6.548543e+001 1.608996e+002 1.508923e+002 1.082596e+002 1.265798e+002 1.983225e+002 8.846156e+001 1.310584e+002 9.605087e+001 9.476005e+001 8.414334e+001 8.717521e+001 7.776902e+000 3.235375e+000 5.290208e+000 5.354685e+000 5.697087e+000 6.173385e+000 8.564989e+000 5.828266e+000 6.128273e+000 5.762784e+000 5.439043e+000 5.189306e+000 4.142724e+000 2.699799e-001 4.164436e-001 6.101317e-001 7.893970e-001 8.529093e-001 9.146074e-001 1.209524e+000 9.103187e-001 1.042353e+000 1.000852e+000 1.001083e+000 8.684671e-001 7.390562e-001 3.278100e-002
<GCONST> 1.436262e+002
<STATE> 4
<MEAN> 39
 -2.046332e+000 -8.989032e+000 -7.412659e+000 -1.328937e+001 1.136500e-001 -3.045643e+000 -7.177202e-001 -4.729697e+000 4.834289e-001 -6.190964e+000 -4.453168e+000 -7.109424e+000 1.808305e+001 -9.392856e-002 1.509512e-001 1.541314e-001 -1.788075e-001 -1.168590e-001 6.780946e-002 3.795695e-001 1.542060e-001 -6.743443e-002 9.520380e-002 2.339572e-001 1.127535e-001 -4.666216e-002 -1.320768e-001 6.164332e-002 -5.379836e-002 -8.313503e-002 1.351904e-001 2.246998e-002 1.618735e-002 -1.131726e-001 1.246588e-001 1.251784e-001 1.702751e-001 6.486682e-003 9.474307e-003
<VARIANCE> 39
 6.973512e+001 1.132595e+002 1.430985e+002 1.110240e+002 1.031301e+002 2.027892e+002 1.120026e+002 1.318028e+002 9.201928e+001 8.854230e+001 9.569632e+001 7.947229e+001 7.801805e+000 1.595154e+000 2.187354e+000 2.628302e+000 3.570750e+000 4.234971e+000 4.952374e+000 4.588148e+000 4.241267e+000 4.164540e+000 4.166890e+000 3.556103e+000 3.044873e+000 1.649554e-001 3.517327e-001 4.972275e-001 5.128475e-001 6.802384e-001 8.027388e-001 1.070917e+000 1.017915e+000 9.163429e-001 8.620178e-001 7.887430e-001 7.511557e-001 6.144704e-001 3.047648e-002
<GCONST> 1.351362e+002
<TRANSP> 5
 0.000000e+000 1.000000e+000 0.000000e+000 0.000000e+000 0.000000e+000
 0.000000e+000 6.692467e-001 3.307533e-001 0.000000e+000 0.000000e+000
 0.000000e+000 0.000000e+000 4.246731e-001 5.753269e-001 0.000000e+000
 0.000000e+000 0.000000e+000 0.000000e+000 3.813007e-001 6.186993e-001
 0.000000e+000 0.000000e+000 0.000000e+000 0.000000e+000 0.000000e+000
<ENDHMM>
~h "aa"
<BEGINHMM>
<NUMSTATES> 5
<STATE> 2
<MEAN> 39
 -7.912678e+000 -1.739591e+001 -1.819033e+000 -1.836314e+001 4.013872e+000 -9.317681e+000 4.063512e+000 -6.608478e+000 4.515017e+000 -9.488605e+000 -4.707965e-001 -4.621531e+000 2.032731e+001 2.591152e-002 7.164759e-002 3.826662e-002 5.618944e-002 -1.046661e-001 3.398990e-002 -1.640216e-002 -9.480502e-002 -1.372270e-001 9.994813e-002 2.506919e-002 6.228503e-002 -7.199492e-002 4.755938e-002 2.886393e-002 1.312642e-002 3.346883e-002 -6.176582e-003 -9.390380e-003 -4.599051e-002 2.167468e-002 -4.128985e-002 3.808450e-002 -6.486167e-002 1.235703e-002 -1.695505e-002
<VARIANCE> 39
 2.742549e+001 6.006222e+001 9.499238e+001 1.037806e+002 1.689676e+002 1.862349e+002 6.071239e+001 7.250697e+001 8.726414e+001 9.173054e+001 7.555710e+001 7.651311e+001 2.549012e+000 4.836586e-001 9.030083e-001 1.025012e+000 1.576371e+000 2.060058e+000 2.248597e+000 2.623132e+000 2.342075e+000 2.816524e+000 2.428531e+000 2.358499e+000 2.169767e+000 5.452434e-002 6.846637e-002 1.488324e-001 1.621015e-001 2.433369e-001 3.477928e-001 3.731369e-001 4.431672e-001 4.032449e-001 5.102876e-001 4.484328e-001 4.106825e-001 3.597748e-001 6.174740e-003
<GCONST> 1.092013e+002
<STATE> 3
<MEAN> 39
 -4.222952e+000 -1.324039e+001 1.335511e-001 -1.266805e+001 -1.002376e+000 -3.901634e+000 2.166710e+000 -8.600193e+000 6.998379e-001 -6.130840e+000 -2.586844e+000 -9.046890e+000 1.890969e+001 3.874061e-001 1.960447e-001 2.663032e-001 5.699584e-001 -1.083593e-001 6.451914e-002 -3.045458e-001 1.878599e-001 -4.544511e-001 4.085423e-001 -4.155544e-001 2.121825e-001 -2.011295e-001 1.284291e-002 4.786261e-003 2.487118e-002 3.436712e-002 1.307746e-002 6.425668e-002 -1.371250e-002 1.044468e-001 -1.642827e-002 -6.483914e-003 -2.752846e-002 2.617713e-002 8.371118e-003
<VARIANCE> 39
 2.653642e+001 7.094755e+001 1.088152e+002 9.594373e+001 1.149382e+002 1.192536e+002 5.911200e+001 1.012638e+002 9.392220e+001 8.737180e+001 6.054259e+001 8.846932e+001 2.636143e+000 6.321985e-001 8.207861e-001 1.398169e+000 1.829495e+000 2.170658e+000 2.713709e+000 2.471623e+000 2.661496e+000 2.704966e+000 3.018889e+000 2.430604e+000 2.225712e+000 6.912139e-002 7.500057e-002 1.241101e-001 2.224928e-001 3.179961e-001 3.580501e-001 4.488389e-001 4.232240e-001 4.596009e-001 4.785377e-001 5.140113e-001 3.759926e-001 3.655787e-001 7.784516e-003
<GCONST> 1.112850e+002
<STATE> 4
<MEAN> 39
 -2.470143e+000 -1.414596e+001 -2.343273e+000 -6.318990e+000 -2.971586e-001 -3.743762e+000 -1.377038e+000 -3.829787e+000 -4.631961e+000 -5.247093e+000 -7.467933e+000 -3.718849e+000 1.708738e+001 2.135772e-001 3.860687e-001 -2.757186e-001 6.160945e-001 -3.991795e-001 3.038374e-001 -4.107824e-001 3.216195e-001 -3.587158e-001 1.427882e-001 -1.569648e-001 2.202825e-001 -1.959337e-001 -5.321475e-002 3.793002e-002 -7.420437e-002 -5.120461e-002 -1.185942e-002 -1.311402e-002 5.077771e-002 -9.352156e-003 9.718096e-002 -1.695587e-002 7.874393e-002 -1.180735e-002 5.460809e-003
<VARIANCE> 39
 3.071832e+001 8.940578e+001 1.852225e+002 1.228299e+002 2.530220e+002 1.017433e+002 1.249438e+002 1.197098e+002 1.005444e+002 1.140556e+002 9.053733e+001 1.274935e+002 2.760290e+000 5.188203e-001 9.323359e-001 1.583814e+000 2.053033e+000 2.328416e+000 2.492706e+000 2.679667e+000 2.987490e+000 2.950595e+000 2.996418e+000 2.545939e+000 2.386833e+000 3.079080e-002 7.914551e-002 1.368717e-001 2.407177e-001 3.406751e-001 3.991992e-001 4.060213e-001 4.557914e-001 5.346989e-001 5.236539e-001 5.284576e-001 4.731869e-001 4.128312e-001 5.172408e-003
<GCONST> 1.154682e+002
<TRANSP> 5
 0.000000e+000 1.000000e+000 0.000000e+000 0.000000e+000 0.000000e+000
 0.000000e+000 7.768661e-001 2.231339e-001 0.000000e+000 0.000000e+000
 0.000000e+000 0.000000e+000 5.556197e-001 4.443803e-001 0.000000e+000
 0.000000e+000 0.000000e+000 0.000000e+000 7.496938e-001 2.503062e-001
 0.000000e+000 0.000000e+000 0.000000e+000 0.000000e+000 0.000000e+000
<ENDHMM>
~h "ee"
<BEGINHMM>
<NUMSTATES> 5
<STATE> 2
<MEAN> 39
 -5.467213e-001 1.989640e+000 -7.203576e+000 -1.698220e+001 -5.753347e+000 -7.544311e+000 -4.424164e+000 -2.455742e+000 9.182938e+000 -1.418424e+000 -4.159268e+000 1.010516e+000 1.663758e+001 3.514605e-001 3.806919e-001 -9.196244e-002 2.821635e-001 -3.729028e-001 1.939845e-001 -3.152799e-001 1.195971e-001 -2.001277e-001 1.986516e-001 -4.803641e-003 1.967000e-001 -1.214929e-001 -2.994383e-002 5.023722e-003 2.856356e-002 9.137000e-002 3.685583e-002 5.971682e-002 4.458489e-002 -1.932494e-002 -7.964755e-002 -9.079412e-002 1.211102e-002 -4.454214e-002 -8.947684e-003
<VARIANCE> 39
 1.061397e+002 1.323943e+002 1.933811e+002 2.672597e+002 2.199187e+002 5.566443e+002 7.398384e+001 1.376144e+002 1.697840e+002 1.315649e+002 1.140774e+002 1.341379e+002 2.468758e+000 1.127783e+000 1.848136e+000 2.482040e+000 3.152432e+000 2.901839e+000 3.245991e+000 3.716699e+000 3.089585e+000 4.674967e+000 4.197612e+000 3.167706e+000 3.004671e+000 6.455610e-002 1.225709e-001 2.165386e-001 3.538997e-001 4.004823e-001 4.160988e-001 5.349312e-001 5.923598e-001 5.517370e-001 7.203417e-001 6.779049e-001 4.466372e-001 4.733520e-001 9.063943e-003
<GCONST> 1.283648e+002
<STATE> 3
<MEAN> 39
 1.463547e+000 6.771491e+000 -5.173888e+000 -1.812553e+000 -7.681479e+000 -5.586531e+000 -7.948636e+000 -2.246110e-001 9.034585e-001 -4.351845e+000 -3.408444e+000 -2.388556e+000 1.424686e+001 -1.679682e-001 8.208004e-001 6.838688e-003 6.675718e-001 -2.261502e-001 2.796518e-001 -3.737811e-001 -1.809307e-001 -5.432953e-001 -2.682878e-001 1.700966e-001 8.791630e-002 -2.796101e-001 -1.797848e-001 -9.559385e-002 -8.905564e-005 -9.177673e-002 1.829974e-001 -2.917943e-002 2.194794e-001 1.974065e-002 1.010114e-002 5.166218e-002 6.139409e-002 2.570164e-002 4.942789e-003
<VARIANCE> 39
 6.494693e+001 1.392437e+002 1.370059e+002 2.146143e+002 1.734610e+002 4.464261e+002 1.338518e+002 1.216738e+002 9.928043e+001 1.329307e+002 9.721301e+001 7.633607e+001 5.228617e+000 1.234158e+000 1.851926e+000 2.942434e+000 3.744591e+000 3.474957e+000 4.043409e+000 4.558491e+000 4.167646e+000 4.483308e+000 4.757878e+000 3.135474e+000 3.277637e+000 1.049529e-001 1.935760e-001 3.679892e-001 4.523109e-001 6.643929e-001 6.918808e-001 8.101929e-001 8.717407e-001 8.278499e-001 7.501991e-001 7.505604e-001 6.515080e-001 6.097333e-001 1.875893e-002
<GCONST> 1.338114e+002
<STATE> 4
<MEAN> 39
 -5.746593e+000 5.267230e+000 -3.577832e+000 1.476369e+000 -3.992727e+000 -9.471493e+000 -5.411140e+000 -4.692923e+000 3.703948e-002 -7.715440e+000 -2.071048e+000 -2.615267e+000 1.500085e+001 -5.398732e-001 -8.480197e-001 -3.091513e-002 -9.209376e-001 -4.646595e-002 2.312722e-002 8.729954e-001 -6.080846e-003 3.433388e-001 4.125785e-003 6.047642e-001 -3.004258e-001 9.312018e-002 -2.112345e-001 -4.615740e-001 -1.215732e-001 -3.317490e-001 3.076631e-001 5.351580e-002 3.214461e-001 -8.454368e-002 1.589413e-001 1.230893e-002 5.723661e-002 -2.947427e-002 1.141173e-001
<VARIANCE> 39
 9.552263e+001 1.609585e+002 1.593388e+002 2.245010e+002 2.818580e+002 3.436390e+002 1.198326e+002 1.465793e+002 1.464623e+002 1.496109e+002 8.589622e+001 9.217795e+001 7.321739e+000 4.646393e+000 1.072065e+001 6.447333e+000 7.121608e+000 1.194395e+001 6.597337e+000 6.454210e+000 1.103428e+001 1.078457e+001 8.188862e+000 5.740519e+000 6.633745e+000 4.333552e-001 1.062312e+000 2.074514e+000 1.134813e+000 1.374081e+000 2.238557e+000 1.556336e+000 1.436970e+000 1.667174e+000 2.105777e+000 1.604600e+000 1.086706e+000 1.275347e+000 7.657881e-002
<GCONST> 1.600027e+002
<TRANSP> 5
 0.000000e+000 1.000000e+000 0.000000e+000 0.000000e+000 0.000000e+000
 0.000000e+000 8.026056e-001 1.973944e-001 0.000000e+000 0.000000e+000
 0.000000e+000 0.000000e+000 7.015159e-001 2.984842e-001 0.000000e+000
 0.000000e+000 0.000000e+000 0.000000e+000 5.521535e-001 4.478466e-001
 0.000000e+000 0.000000e+000 0.000000e+000 0.000000e+000 0.000000e+000
<ENDHMM>
~h "j^"
<BEGINHMM>
<NUMSTATES> 5
<STATE> 2
<MEAN> 39
 -4.740250e+000 -1.513146e+001 -2.673012e+000 -1.505546e+001 1.741320e+000 -5.010750e+000 3.633279e+000 -3.700277e+000 5.214420e+000 -5.674650e+000 -2.288410e+000 -9.906142e+000 1.961275e+001 3.613070e-002 -2.277075e-002 -1.860491e-002 -7.872783e-002 2.326166e-001 4.325405e-001 -7.180355e-002 -2.271979e-001 -4.704232e-002 -6.596770e-002 -1.161745e-002 6.698908e-002 1.126326e-002 -5.810170e-002 4.689756e-002 -4.166714e-002 8.346228e-002 4.637466e-002 2.214613e-002 -2.847411e-002 -2.331978e-002 -7.276535e-003 -6.100108e-002 -4.808852e-002 -7.047812e-003 -1.402259e-002
<VARIANCE> 39
 2.358678e+001 3.657624e+001 4.311399e+001 6.506464e+001 5.701730e+001 1.082010e+002 7.785458e+001 6.012436e+001 8.280072e+001 8.484898e+001 5.530283e+001 5.847729e+001 2.564134e+000 6.981183e-001 1.524490e+000 2.138296e+000 2.702632e+000 2.747094e+000 2.789214e+000 3.088709e+000 2.824013e+000 3.302698e+000 3.534456e+000 2.763470e+000 2.321224e+000 1.341743e-001 1.146027e-001 2.873167e-001 3.590079e-001 4.448011e-001 4.914900e-001 5.158670e-001 5.720111e-001 5.866420e-001 5.707206e-001 6.739748e-001 5.441105e-001 4.357273e-001 2.076190e-002
<GCONST> 1.157800e+002
<STATE> 3
<MEAN> 39
 -5.200878e+000 -1.538338e+001 -5.073049e+000 -1.703184e+001 6.250406e+000 -1.709935e+000 4.489629e+000 -7.530556e+000 6.170432e+000 -7.279202e+000 -1.206416e+000 -9.896647e+000 2.030061e+001 1.568342e-001 7.074308e-002 9.537761e-002 9.668113e-002 -4.741165e-002 -4.322849e-002 -1.470808e-001 7.199284e-002 -3.338646e-001 2.550362e-002 -2.229502e-002 -2.306744e-002 -8.714701e-002 4.347388e-002 3.263416e-002 9.203414e-003 5.911841e-002 -3.190366e-002 -3.892395e-002 -4.302023e-002 6.148872e-002 -2.960789e-002 3.779839e-002 -4.012804e-002 -9.665536e-003 -2.493561e-002
<VARIANCE> 39
 1.606335e+001 4.643707e+001 4.752311e+001 7.196113e+001 9.130982e+001 1.186080e+002 6.252148e+001 5.353048e+001 6.880408e+001 7.452530e+001 4.515239e+001 6.354316e+001 2.076823e+000 3.106237e-001 5.719354e-001 7.794229e-001 1.415875e+000 1.685106e+000 1.328274e+000 1.741106e+000 1.647564e+000 1.728311e+000 1.905418e+000 1.397459e+000 1.588055e+000 3.321195e-002 4.357765e-002 9.467468e-002 1.318920e-001 2.016874e-001 3.005420e-001 2.239568e-001 2.727796e-001 2.915767e-001 3.366527e-001 3.434777e-001 2.695279e-001 2.768805e-001 4.926310e-003
<GCONST> 9.547128e+001
<STATE> 4
<MEAN> 39
 -4.826250e-001 -1.440988e+001 -9.805442e+000 -1.010961e+001 2.707832e+000 1.888934e+000 -1.041265e+000 -3.813298e+000 -1.444479e+000 -5.124617e+000 -6.400216e+000 -9.086873e+000 1.753366e+001 2.308535e-001 3.330547e-001 -5.237544e-001 4.970964e-001 -1.578839e-001 4.475349e-001 -2.867069e-001 1.745535e-001 -2.145524e-001 2.088193e-001 -3.333881e-001 -7.395132e-003 -1.787713e-001 -3.300348e-002 1.058457e-002 -5.233015e-002 -7.468495e-004 5.425563e-003 2.036574e-002 -3.550510e-003 -1.158742e-002 1.082251e-001 3.566218e-003 3.268001e-002 6.822906e-003 -1.933147e-003
<VARIANCE> 39
 3.357360e+001 5.113260e+001 1.619603e+002 9.867925e+001 1.233268e+002 1.462564e+002 8.840956e+001 8.860712e+001 6.430316e+001 7.505741e+001 6.751022e+001 7.963897e+001 4.005907e+000 4.248225e-001 7.928162e-001 1.575409e+000 1.893794e+000 2.124210e+000 2.340762e+000 2.775892e+000 2.596103e+000 2.484390e+000 2.412427e+000 2.399670e+000 2.131207e+000 2.843188e-002 5.896065e-002 1.322190e-001 2.316512e-001 3.029939e-001 3.467343e-001 4.122111e-001 4.275250e-001 4.625913e-001 4.503152e-001 4.177292e-001 4.344703e-001 4.234754e-001 4.365134e-003
<GCONST> 1.096020e+002
<TRANSP> 5
 0.000000e+000 1.000000e+000 0.000000e+000 0.000000e+000 0.000000e+000
 0.000000e+000 7.846946e-001 2.153054e-001 0.000000e+000 0.000000e+000
 0.000000e+000 0.000000e+000 8.175285e-001 1.824715e-001 0.000000e+000
 0.000000e+000 0.000000e+000 0.000000e+000 7.906139e-001 2.093861e-001
 0.000000e+000 0.000000e+000 0.000000e+000 0.000000e+000 0.000000e+000
<ENDHMM>
~h "k^"
<BEGINHMM>
<NUMSTATES> 5
<STATE> 2
<MEAN> 39
 -5.098735e+000 -9.424587e+000 -1.382885e+001 -6.273311e+000 6.074753e+000 -1.220514e+000 -1.885003e+000 -5.404968e+000 3.242363e+000 -5.081240e+000 -7.683807e+000 -7.184621e+000 1.641431e+001 -2.943167e-001 -6.929704e-001 -1.302234e-001 -1.809854e+000 8.293848e-001 6.666830e-001 4.288722e-001 -2.012790e-001 1.018433e+000 -1.049613e+000 5.828027e-001 -1.366989e-001 1.843788e-001 -4.073296e-001 4.465928e-002 5.018442e-001 -1.825008e-001 7.575351e-003 -5.138687e-002 2.133313e-002 -1.753923e-001 8.667905e-002 -1.953245e-001 3.038215e-001 1.087063e-002 1.551000e-001
<VARIANCE> 39
 5.238881e+001 9.086897e+001 1.199580e+002 1.666490e+002 1.323418e+002 1.424453e+002 1.265243e+002 1.244939e+002 1.323572e+002 1.397235e+002 1.219533e+002 9.425947e+001 8.205083e+000 9.715082e+000 8.656759e+000 7.879241e+000 7.446123e+000 8.220583e+000 1.343362e+001 7.766889e+000 7.220137e+000 8.245448e+000 7.877903e+000 8.164151e+000 6.677869e+000 1.959958e-001 7.304853e-001 6.778237e-001 8.999402e-001 1.051286e+000 1.089833e+000 1.185772e+000 1.166973e+000 1.115252e+000 1.518114e+000 1.451700e+000 1.233952e+000 9.414711e-001 3.005902e-002
<GCONST> 1.518118e+002
<STATE> 3
<MEAN> 39
 -1.047606e+001 -9.859197e+000 -1.028674e+001 -1.728846e+001 9.308455e+000 -7.014867e-002 -1.555863e+000 -7.627822e+000 1.072845e+001 -9.591020e+000 -2.855397e+000 -8.586969e+000 1.832955e+001 6.829928e-001 -5.323185e-001 2.868527e-001 -1.890769e+000 -2.192074e-001 1.435547e+000 3.699139e-001 -8.011301e-001 -3.054347e-001 -7.061086e-001 4.520808e-001 -9.081709e-001 5.571409e-001 3.011382e-001 1.821049e-001 1.603918e-002 4.752688e-001 -3.105595e-001 -1.408555e-001 -1.316704e-002 -1.291184e-002 -6.115561e-001 3.061190e-001 1.486182e-002 -2.504836e-002 5.370949e-002
<VARIANCE> 39
