~o
<STREAMINFO> 1 39
<VECSIZE> 39<NULLD><MFCC_E_D_A><DIAGC>
~h "@"
<BEGINHMM>
<NUMSTATES> 5
<STATE> 2
<MEAN> 39
 -7.551099e+000 -1.008395e+001 -1.075178e+001 -1.181754e+001 7.561054e+000 -6.160441e+000 -3.447675e+000 -8.371823e+000 5.358677e+000 -3.917307e+000 -6.118365e+000 -1.950734e+000 1.777531e+001 -6.992153e-003 1.363686e-001 9.525334e-002 -7.917746e-002 -5.493828e-002 -7.091706e-002 -5.028994e-002 -6.273936e-002 -3.916601e-002 -1.225865e-002 -1.276090e-002 -2.702111e-002 -2.460299e-004 5.171036e-004 3.584340e-004 1.719627e-003 -2.450578e-003 -1.476537e-003 6.621172e-004 5.477913e-005 -9.860045e-004 -5.145560e-004 -1.039283e-004 -4.042562e-004 5.232267e-004 8.235405e-005
<VARIANCE> 39
 9.850611e+001 1.743550e+002 2.004859e+002 2.863592e+002 1.907836e+002 3.108672e+002 9.702415e+001 1.065458e+002 1.265895e+002 6.853728e+001 1.081603e+002 1.027109e+002 1.053128e+001 3.031125e+000 2.693732e+000 3.855237e+000 5.760610e+000 5.587283e+000 5.698064e+000 4.963323e+000 4.543565e+000 4.383111e+000 4.024912e+000 5.101776e+000 3.690937e+000 2.633440e-001 4.192160e-001 3.729571e-001 5.705723e-001 7.611974e-001 8.700171e-001 7.924877e-001 7.710768e-001 8.191125e-001 8.172442e-001 7.665249e-001 7.794229e-001 6.536286e-001 3.257422e-002
<GCONST> 1.415195e+002
<STATE> 3
<MEAN> 39
 -7.577154e+000 -9.515058e+000 -1.033978e+001 -1.218131e+001 7.304901e+000 -6.451769e+000 -3.662364e+000 -8.649118e+000 5.190469e+000 -3.966763e+000 -6.185671e+000 -2.065449e+000 1.777505e+001 -4.893415e-003 1.372950e-001 1.021523e-001 -8.832773e-002 -6.112906e-002 -6.810077e-002 -5.024362e-002 -6.637275e-002 -4.111408e-002 -1.261941e-002 -1.450551e-002 -2.452708e-002 5.027698e-006 5.532822e-004 8.460397e-005 1.547008e-003 -2.126887e-003 -1.511077e-003 7.730572e-004 2.680863e-005 -9.032366e-004 -3.558910e-004 -9.132641e-006 -4.517937e-004 6.932035e-004 5.367959e-005
<VARIANCE> 39
 9.910450e+001 1.757031e+002 2.060793e+002 2.870019e+002 1.913571e+002 3.093096e+002 9.692400e+001 1.072820e+002 1.255208e+002 6.892636e+001 1.081765e+002 1.060064e+002 1.061823e+001 3.062155e+000 2.709397e+000 3.961384e+000 5.765059e+000 5.571137e+000 5.736647e+000 4.965349e+000 4.588629e+000 4.370286e+000 4.010025e+000 5.112202e+000 3.712597e+000 2.668145e-001 4.239672e-001 3.750214e-001 5.917544e-001 7.587371e-001 8.663585e-001 7.973846e-001 7.693453e-001 8.307167e-001 8.156129e-001 7.625727e-001 7.810999e-001 6.586143e-001 3.307797e-002
<GCONST> 1.417581e+002
<STATE> 4
<MEAN> 39
 -7.594627e+000 -8.944721e+000 -9.900451e+000 -1.257920e+001 7.022368e+000 -6.732050e+000 -3.877121e+000 -8.939246e+000 5.015574e+000 -4.017636e+000 -6.259953e+000 -2.168468e+000 1.777557e+001 -2.694059e-003 1.370616e-001 1.081789e-001 -9.609756e-002 -6.746050e-002 -6.503617e-002 -5.006776e-002 -6.969932e-002 -4.223239e-002 -1.270946e-002 -1.623956e-002 -2.128321e-002 1.987062e-004 5.686380e-004 -1.958237e-004 1.335390e-003 -1.754067e-003 -1.551620e-003 8.584198e-004 6.681719e-005 -8.750237e-004 -1.965181e-004 8.023731e-006 -4.532790e-004 8.727041e-004 4.392565e-005
<VARIANCE> 39
 9.964151e+001 1.766050e+002 2.115163e+002 2.871804e+002 1.919785e+002 3.072163e+002 9.686359e+001 1.081891e+002 1.243077e+002 6.936339e+001 1.080963e+002 1.093594e+002 1.071653e+001 3.090702e+000 2.725011e+000 4.070340e+000 5.762917e+000 5.553966e+000 5.774907e+000 4.972450e+000 4.632356e+000 4.360166e+000 3.998734e+000 5.113895e+000 3.732288e+000 2.702746e-001 4.282349e-001 3.768257e-001 6.131216e-001 7.552324e-001 8.631778e-001 8.026234e-001 7.685809e-001 8.419714e-001 8.141412e-001 7.591661e-001 7.816532e-001 6.632084e-001 3.356970e-002
<GCONST> 1.419825e+002
<TRANSP> 5
 0.000000e+000 1.000000e+000 0.000000e+000 0.000000e+000 0.000000e+000
 0.000000e+000 7.596269e-001 2.403731e-001 0.000000e+000 0.000000e+000
 0.000000e+000 0.000000e+000 7.596269e-001 2.403731e-001 0.000000e+000
 0.000000e+000 0.000000e+000 0.000000e+000 7.596281e-001 2.403720e-001
 0.000000e+000 0.000000e+000 0.000000e+000 0.000000e+000 0.000000e+000
<ENDHMM>
~h "a"
<BEGINHMM>
<NUMSTATES> 5
<STATE> 2
<MEAN> 39
 -7.525000e+000 -1.196736e+001 -6.016872e+000 -1.451905e+001 1.545607e+000 -4.794493e+000 1.040015e+000 -6.975173e+000 2.722772e+000 -6.971131e+000 -4.673162e+000 -2.312544e+000 1.767604e+001 4.270440e-003 -1.370346e-002 3.101526e-002 -2.776827e-002 -2.259025e-002 -1.192150e-002 2.197447e-002 -2.463668e-002 -7.893096e-003 -1.418317e-002 -1.002113e-003 -2.657686e-003 1.148422e-002 6.979466e-004 -8.652976e-004 -3.476109e-003 -1.619726e-003 -5.632810e-005 9.093831e-004 -1.987580e-003 -5.346414e-004 1.743244e-003 1.712925e-004 1.935352e-004 -1.184981e-003 -2.396708e-004
<VARIANCE> 39
 8.971761e+001 1.837918e+002 1.918178e+002 2.096710e+002 1.903595e+002 2.193040e+002 1.353335e+002 1.316104e+002 1.140048e+002 1.102134e+002 1.072128e+002 7.317143e+001 1.348050e+001 2.653478e+000 3.352303e+000 3.966563e+000 5.204172e+000 4.749424e+000 5.406481e+000 5.608713e+000 5.433078e+000 4.892113e+000 5.103607e+000 4.661636e+000 3.544721e+000 3.082478e-001 3.932315e-001 4.234959e-001 5.923445e-001 7.209454e-001 7.668246e-001 8.529243e-001 9.149836e-001 9.059803e-001 8.554037e-001 8.902553e-001 8.166835e-001 6.292866e-001 3.725731e-002
<GCONST> 1.426615e+002
<STATE> 3
<MEAN> 39
 -7.506341e+000 -1.202925e+001 -5.940805e+000 -1.463795e+001 1.464679e+000 -4.843399e+000 1.094876e+000 -7.085161e+000 2.707512e+000 -7.032956e+000 -4.675674e+000 -2.334453e+000 1.771799e+001 4.139246e-003 -1.406551e-002 1.700623e-002 -3.063236e-002 -1.874792e-002 -1.386341e-002 1.153012e-002 -2.760590e-002 -3.738521e-003 -1.489263e-002 -8.030417e-004 -7.286272e-003 1.021821e-002 1.910233e-005 1.599935e-004 -3.342112e-003 -5.191278e-004 1.249532e-003 -5.635220e-004 -2.609821e-003 -7.060758e-004 1.045895e-003 -1.480255e-004 9.480926e-006 -1.073108e-003 -2.975789e-004
<VARIANCE> 39
 8.915213e+001 1.830486e+002 1.908000e+002 2.084539e+002 1.895377e+002 2.195753e+002 1.353602e+002 1.306758e+002 1.142305e+002 1.097250e+002 1.061932e+002 7.334506e+001 1.329259e+001 2.655810e+000 3.341290e+000 3.932638e+000 5.196344e+000 4.721681e+000 5.329795e+000 5.555944e+000 5.419380e+000 4.871428e+000 5.024537e+000 4.635836e+000 3.546024e+000 3.049389e-001 3.921131e-001 4.206972e-001 5.885711e-001 7.183891e-001 7.617348e-001 8.409806e-001 9.053741e-001 9.012633e-001 8.488905e-001 8.786225e-001 8.108930e-001 6.284623e-001 3.689239e-002
<GCONST> 1.424308e+002
<STATE> 4
<MEAN> 39
 -7.491371e+000 -1.208139e+001 -5.912564e+000 -1.475450e+001 1.405984e+000 -4.911149e+000 1.108706e+000 -7.205741e+000 2.696444e+000 -7.094265e+000 -4.684579e+000 -2.366378e+000 1.775329e+001 3.681393e-003 -1.090913e-002 5.999742e-003 -2.949400e-002 -1.242788e-002 -1.835198e-002 1.751228e-003 -2.988225e-002 -2.490475e-003 -1.438901e-002 -2.345399e-003 -9.183495e-003 8.671070e-003 -1.644763e-006 9.191181e-004 -2.520354e-003 3.988100e-004 1.712766e-003 -1.068542e-003 -2.313326e-003 -4.834436e-004 3.622788e-004 2.122691e-004 -3.869145e-004 -3.125348e-004 -3.605693e-004
<VARIANCE> 39
 8.867710e+001 1.821493e+002 1.892025e+002 2.067856e+002 1.889548e+002 2.198956e+002 1.348516e+002 1.296234e+002 1.145801e+002 1.095103e+002 1.053189e+002 7.349319e+001 1.311236e+001 2.656406e+000 3.318521e+000 3.904609e+000 5.181495e+000 4.701492e+000 5.289408e+000 5.504776e+000 5.395276e+000 4.864628e+000 4.951013e+000 4.615191e+000 3.549651e+000 3.015648e-001 3.902402e-001 4.173613e-001 5.849096e-001 7.157516e-001 7.584369e-001 8.343723e-001 8.962981e-001 8.966300e-001 8.459733e-001 8.671777e-001 8.061172e-001 6.286095e-001 3.652854e-002
<GCONST> 1.422166e+002
<TRANSP> 5
 0.000000e+000 1.000000e+000 0.000000e+000 0.000000e+000 0.000000e+000
 0.000000e+000 7.597163e-001 2.402838e-001 0.000000e+000 0.000000e+000
 0.000000e+000 0.000000e+000 7.597184e-001 2.402816e-001 0.000000e+000
 0.000000e+000 0.000000e+000 0.000000e+000 7.597176e-001 2.402824e-001
 0.000000e+000 0.000000e+000 0.000000e+000 0.000000e+000 0.000000e+000
<ENDHMM>
~h "b"
<BEGINHMM>
<NUMSTATES> 5
<STATE> 2
<MEAN> 39
 -6.035549e+000 -1.340866e+001 -9.059324e+000 -2.073792e+001 -2.743653e+000 -3.208451e-001 4.278599e+000 -4.607849e+000 1.705172e+000 -4.177122e+000 -7.156104e+000 -1.423763e-001 1.750726e+001 -8.506003e-002 5.922410e-002 -1.390178e-001 1.767100e-001 6.845493e-002 1.498988e-001 -3.864379e-003 2.223754e-001 -1.252134e-001 -7.312129e-002 -3.740229e-003 -3.283313e-003 -8.727234e-002 -6.440272e-003 1.863855e-002 -4.218138e-004 6.109658e-003 -1.479594e-003 -4.027671e-003 -4.606292e-003 -9.861422e-003 -7.223971e-004 -2.483051e-004 1.475152e-002 -5.551638e-003 -3.270165e-003
<VARIANCE> 39
 5.366197e+001 1.484283e+002 3.136357e+002 2.252707e+002 1.911675e+002 2.579866e+002 1.053242e+002 1.767342e+002 9.886844e+001 1.267918e+002 6.357049e+001 5.456195e+001 1.197905e+001 1.375114e+000 2.210894e+000 2.600407e+000 4.243845e+000 5.401837e+000 4.862408e+000 4.482066e+000 4.414482e+000 4.137866e+000 4.019281e+000 3.287602e+000 2.906062e+000 2.111043e-001 1.869996e-001 2.839295e-001 3.184515e-001 5.834303e-001 8.033738e-001 7.472821e-001 8.220384e-001 7.219223e-001 6.265327e-001 7.129443e-001 5.596841e-001 4.944277e-001 2.645736e-002
<GCONST> 1.344397e+002
<STATE> 3
<MEAN> 39
 -6.400702e+000 -1.315817e+001 -9.651825e+000 -2.002131e+001 -2.388013e+000 2.773247e-001 4.215837e+000 -3.693588e+000 1.212868e+000 -4.506456e+000 -7.146619e+000 -1.609795e-001 1.715406e+001 -1.118195e-001 1.361607e-001 -1.398978e-001 2.077599e-001 5.903080e-002 1.275774e-001 -2.155510e-002 1.773454e-001 -1.237501e-001 -7.533885e-002 5.526027e-002 -2.720197e-002 -1.009380e-001 -7.928444e-003 1.686116e-002 6.118241e-003 4.705553e-003 -5.386331e-004 -5.570003e-003 -4.407608e-003 -1.705423e-002 2.715452e-003 2.137939e-003 1.557728e-002 -4.360138e-003 -2.578518e-003
<VARIANCE> 39
 5.172106e+001 1.465220e+002 3.221553e+002 2.346560e+002 1.781270e+002 2.611212e+002 1.122778e+002 1.740947e+002 9.001087e+001 1.207419e+002 6.371388e+001 5.409932e+001 1.344034e+001 1.395564e+000 2.225407e+000 2.585823e+000 4.009003e+000 4.898306e+000 4.616514e+000 4.299760e+000 4.434806e+000 3.916005e+000 3.844561e+000 3.228858e+000 2.865855e+000 2.085804e-001 1.890234e-001 2.896878e-001 3.105693e-001 5.529640e-001 7.428094e-001 7.285403e-001 7.764458e-001 7.179075e-001 6.011568e-001 6.838718e-001 5.392817e-001 4.810253e-001 2.659127e-002
<GCONST> 1.336857e+002
<STATE> 4
<MEAN> 39
 -6.875308e+000 -1.258746e+001 -1.024691e+001 -1.914979e+001 -2.087100e+000 7.593433e-001 4.085334e+000 -2.981683e+000 7.455602e-001 -4.850008e+000 -6.902483e+000 -2.851242e-001 1.674331e+001 -1.423827e-001 2.054911e-001 -1.149135e-001 2.310065e-001 5.430903e-002 1.020461e-001 -3.920744e-002 1.062135e-001 -1.092639e-001 -6.676741e-002 1.163521e-001 -4.715106e-002 -1.115523e-001 -5.685572e-003 1.318900e-002 1.239107e-002 -5.149014e-004 1.654402e-003 -3.845789e-003 -6.000981e-003 -1.787453e-002 4.471587e-003 5.129082e-003 1.370269e-002 -3.960575e-003 -1.043538e-003
<VARIANCE> 39
 5.132659e+001 1.422890e+002 3.286298e+002 2.428320e+002 1.691374e+002 2.639864e+002 1.203889e+002 1.696933e+002 8.383052e+001 1.144295e+002 6.503315e+001 5.380016e+001 1.525632e+001 1.440663e+000 2.262716e+000 2.601416e+000 3.846313e+000 4.418593e+000 4.454898e+000 4.145774e+000 4.532873e+000 3.762581e+000 3.723205e+000 3.214112e+000 2.820812e+000 2.069460e-001 1.945530e-001 2.975622e-001 3.083223e-001 5.366565e-001 6.863666e-001 7.278653e-001 7.352675e-001 7.269679e-001 5.890279e-001 6.633781e-001 5.330449e-001 4.704024e-001 2.693366e-002
<GCONST> 1.333070e+002
<TRANSP> 5
 0.000000e+000 1.000000e+000 0.000000e+000 0.000000e+000 0.000000e+000
 0.000000e+000 7.592472e-001 2.407528e-001 0.000000e+000 0.000000e+000
 0.000000e+000 0.000000e+000 7.592476e-001 2.407523e-001 0.000000e+000
 0.000000e+000 0.000000e+000 0.000000e+000 7.592481e-001 2.407519e-001
 0.000000e+000 0.000000e+000 0.000000e+000 0.000000e+000 0.000000e+000
<ENDHMM>
~h "d"
<BEGINHMM>
<NUMSTATES> 5
<STATE> 2
<MEAN> 39
 -6.125033e+000 -8.600333e+000 -4.162500e+000 -1.598476e+001 -4.884870e+000 -7.679156e+000 1.363870e+000 -5.944289e+000 4.230103e+000 -4.132866e+000 -6.100551e+000 -3.678342e+000 1.718372e+001 -1.374933e-002 3.561717e-002 7.534812e-002 3.373252e-003 -7.836871e-003 -1.146081e-002 2.678342e-003 -4.522521e-002 -1.833587e-002 -2.221781e-002 -1.257095e-002 -5.805225e-003 3.465956e-003 2.161827e-004 -1.010463e-003 -4.250449e-004 1.183532e-003 1.385286e-003 4.972459e-004 -8.857361e-004 2.725353e-004 -5.712424e-004 -1.155861e-003 2.970352e-004 5.444966e-004 2.725545e-005
<VARIANCE> 39
 8.189128e+001 1.572966e+002 2.531364e+002 1.870697e+002 1.928141e+002 2.576831e+002 1.126707e+002 1.673455e+002 1.401565e+002 1.067657e+002 9.748308e+001 6.774503e+001 1.389323e+001 3.129143e+000 3.611775e+000 4.705874e+000 5.696860e+000 5.135520e+000 7.060112e+000 5.852953e+000 5.639759e+000 4.919641e+000 4.585538e+000 5.172256e+000 3.739208e+000 3.457249e-001 4.619505e-001 4.744590e-001 7.600319e-001 8.153833e-001 8.622569e-001 1.067889e+000 9.582295e-001 9.220424e-001 8.426726e-001 8.304911e-001 8.790785e-001 6.388090e-001 4.827449e-002
<GCONST> 1.452542e+002
<STATE> 3
<MEAN> 39
 -6.180516e+000 -8.471176e+000 -3.868202e+000 -1.594233e+001 -4.894054e+000 -7.707352e+000 1.367243e+000 -6.120691e+000 4.149364e+000 -4.241209e+000 -6.154539e+000 -3.694873e+000 1.719578e+001 -1.297368e-002 3.106015e-002 7.267669e-002 8.213754e-003 -1.766238e-003 -9.452011e-003 -7.843588e-004 -4.375349e-002 -2.037137e-002 -2.697520e-002 -1.136795e-002 -3.338361e-003 3.563570e-003 2.105924e-004 -1.100587e-003 -7.384172e-004 1.199770e-003 1.425135e-003 5.809843e-004 -8.193878e-004 4.000726e-004 -4.649499e-004 -1.096682e-003 2.891055e-004 5.644818e-004 4.448450e-006
<VARIANCE> 39
 8.133767e+001 1.594954e+002 2.515457e+002 1.887205e+002 1.924049e+002 2.581790e+002 1.126052e+002 1.639806e+002 1.399070e+002 1.079854e+002 9.887245e+001 6.830651e+001 1.395815e+001 3.128881e+000 3.613214e+000 4.658971e+000 5.737785e+000 5.111886e+000 6.978014e+000 5.815256e+000 5.598750e+000 4.908449e+000 4.549216e+000 5.175307e+000 3.741828e+000 3.442912e-001 4.606682e-001 4.705872e-001 7.515681e-001 8.161758e-001 8.565091e-001 1.054172e+000 9.501761e-001 9.177856e-001 8.399379e-001 8.258023e-001 8.765439e-001 6.391443e-001 4.800529e-002
<GCONST> 1.451628e+002
<STATE> 4
<MEAN> 39
 -6.233221e+000 -8.362214e+000 -3.588723e+000 -1.587994e+001 -4.876833e+000 -7.728409e+000 1.356620e+000 -6.289512e+000 4.061423e+000 -4.369037e+000 -6.203359e+000 -3.700194e+000 1.720813e+001 -1.213870e-002 2.623432e-002 6.873442e-002 1.312255e-002 4.379759e-003 -7.284357e-003 -4.157856e-003 -4.181920e-002 -2.201539e-002 -3.139571e-002 -1.008303e-002 -7.613892e-004 3.551164e-003 2.270259e-004 -1.154210e-003 -1.023976e-003 1.207330e-003 1.424004e-003 6.444724e-004 -8.130766e-004 5.054915e-004 -3.823235e-004 -1.019869e-003 3.117406e-004 6.062764e-004 -2.452154e-005
<VARIANCE> 39
 8.077805e+001 1.618531e+002 2.493140e+002 1.904059e+002 1.919984e+002 2.584675e+002 1.125622e+002 1.603788e+002 1.395166e+002 1.092311e+002 1.001878e+002 6.895893e+001 1.401136e+001 3.127838e+000 3.615414e+000 4.611524e+000 5.775528e+000 5.087640e+000 6.893777e+000 5.777429e+000 5.557259e+000 4.897373e+000 4.516337e+000 5.177605e+000 3.746670e+000 3.428060e-001 4.593026e-001 4.667553e-001 7.428582e-001 8.166887e-001 8.504938e-001 1.040172e+000 9.421482e-001 9.136611e-001 8.372681e-001 8.213329e-001 8.742443e-001 6.400818e-001 4.771541e-002
<GCONST> 1.450644e+002
<TRANSP> 5
 0.000000e+000 1.000000e+000 0.000000e+000 0.000000e+000 0.000000e+000
 0.000000e+000 7.596853e-001 2.403147e-001 0.000000e+000 0.000000e+000
 0.000000e+000 0.000000e+000 7.596856e-001 2.403144e-001 0.000000e+000
 0.000000e+000 0.000000e+000 0.000000e+000 7.596865e-001 2.403136e-001
 0.000000e+000 0.000000e+000 0.000000e+000 0.000000e+000 0.000000e+000
<ENDHMM>
~h "f"
<BEGINHMM>
<NUMSTATES> 5
<STATE> 2
<MEAN> 39
 -5.619634e+000 -9.313870e+000 -7.610864e+000 -1.551196e+001 -4.403961e-001 -7.987074e+000 -2.654366e+000 -7.374959e+000 3.808584e+000 -4.895752e+000 -5.772233e+000 -3.076994e+000 1.744898e+001 2.126810e-002 -3.191977e-002 -7.367195e-003 -3.970773e-003 3.294800e-003 -4.578026e-003 9.544032e-003 5.153976e-003 -1.582967e-002 -2.587603e-002 -4.696792e-003 5.263205e-003 6.398949e-003 -2.012089e-004 7.947249e-004 -8.145216e-005 4.156153e-004 -6.981685e-004 2.781448e-004 2.684535e-004 3.958073e-004 2.395935e-004 3.916880e-004 2.905914e-004 4.738077e-004 -3.572114e-004
<VARIANCE> 39
 1.005914e+002 1.605223e+002 1.750455e+002 1.790086e+002 1.650198e+002 2.637978e+002 1.269065e+002 1.355803e+002 1.161824e+002 1.009482e+002 1.054757e+002 8.474779e+001 1.268308e+001 3.417259e+000 3.275208e+000 4.475500e+000 5.465004e+000 5.148976e+000 7.060791e+000 5.525641e+000 5.258706e+000 4.923102e+000 4.433447e+000 5.761574e+000 3.558248e+000 3.236050e-001 4.798329e-001 4.470914e-001 7.092201e-001 7.864046e-001 8.712800e-001 1.032891e+000 8.619412e-001 8.900241e-001 8.598607e-001 7.847492e-001 9.497173e-001 6.252410e-001 4.442183e-002
<GCONST> 1.441896e+002
<STATE> 3
<MEAN> 39
 -5.541039e+000 -9.434867e+000 -7.634994e+000 -1.552289e+001 -4.373529e-001 -8.014010e+000 -2.609714e+000 -7.350216e+000 3.747945e+000 -5.002724e+000 -5.785164e+000 -3.049733e+000 1.747209e+001 2.014687e-002 -2.831815e-002 -7.853130e-003 -2.234517e-003 4.838994e-004 -3.657913e-003 1.054955e-002 6.996832e-003 -1.457563e-002 -2.401031e-002 -3.279023e-003 7.190277e-003 4.906718e-003 -3.346782e-004 9.808776e-004 -1.041967e-004 5.498536e-004 -7.275323e-004 2.611763e-004 2.089289e-004 5.293673e-004 3.061438e-004 5.127699e-004 3.644821e-004 4.663008e-004 -4.099477e-004
<VARIANCE> 39
 1.002829e+002 1.603208e+002 1.751616e+002 1.778544e+002 1.638632e+002 2.602524e+002 1.267042e+002 1.359323e+002 1.159336e+002 1.013881e+002 1.043802e+002 8.457181e+001 1.255844e+001 3.381822e+000 3.264583e+000 4.459352e+000 5.418796e+000 5.117582e+000 7.039948e+000 5.528481e+000 5.255283e+000 4.916637e+000 4.428986e+000 5.722291e+000 3.557057e+000 3.200679e-001 4.743310e-001 4.459020e-001 7.050241e-001 7.825497e-001 8.674234e-001 1.030849e+000 8.618461e-001 8.889872e-001 8.581539e-001 7.822137e-001 9.455024e-001 6.255314e-001 4.397853e-002
<GCONST> 1.440322e+002
<STATE> 4
<MEAN> 39
 -5.468184e+000 -9.539429e+000 -7.661881e+000 -1.552672e+001 -4.454458e-001 -8.037835e+000 -2.561619e+000 -7.317316e+000 3.693393e+000 -5.100807e+000 -5.791313e+000 -3.014771e+000 1.748902e+001 1.849071e-002 -2.390902e-002 -8.405959e-003 -2.224025e-005 -2.378768e-003 -2.709613e-003 1.122589e-002 9.229030e-003 -1.316342e-002 -2.163679e-002 -1.585782e-003 9.016122e-003 3.214435e-003 -4.829445e-004 1.177480e-003 -1.002977e-004 6.381816e-004 -7.192665e-004 2.583543e-004 1.202239e-004 6.042734e-004 3.464168e-004 6.235574e-004 4.193726e-004 4.359839e-004 -4.519275e-004
<VARIANCE> 39
 9.997855e+001 1.601546e+002 1.755950e+002 1.768082e+002 1.628938e+002 2.567667e+002 1.265846e+002 1.364856e+002 1.156707e+002 1.018035e+002 1.033183e+002 8.444482e+001 1.244967e+001 3.345803e+000 3.253462e+000 4.442682e+000 5.371417e+000 5.086137e+000 7.017420e+000 5.532788e+000 5.254223e+000 4.909908e+000 4.425778e+000 5.682166e+000 3.555954e+000 3.165080e-001 4.688824e-001 4.445631e-001 7.007384e-001 7.784685e-001 8.634344e-001 1.028616e+000 8.619333e-001 8.881894e-001 8.563499e-001 7.800206e-001 9.410435e-001 6.257633e-001 4.350704e-002
<GCONST> 1.438802e+002
<TRANSP> 5
 0.000000e+000 1.000000e+000 0.000000e+000 0.000000e+000 0.000000e+000
 0.000000e+000 7.595819e-001 2.404181e-001 0.000000e+000 0.000000e+000
 0.000000e+000 0.000000e+000 7.595826e-001 2.404174e-001 0.000000e+000
 0.000000e+000 0.000000e+000 0.000000e+000 7.595835e-001 2.404165e-001
 0.000000e+000 0.000000e+000 0.000000e+000 0.000000e+000 0.000000e+000
<ENDHMM>
~h "h"
<BEGINHMM>
<NUMSTATES> 5
<STATE> 2
<MEAN> 39
 -9.158766e+000 -1.478322e+001 -6.571431e+000 -1.404598e+001 3.819292e+000 -3.864426e+000 2.059845e+000 -6.242829e+000 1.431344e+000 -9.492684e+000 -3.378692e+000 -2.021638e+000 1.792811e+001 -2.600809e-002 -9.860987e-004 9.297261e-002 1.914217e-002 4.558338e-002 -6.022729e-002 -1.056590e-002 -1.749390e-002 -7.113305e-002 1.283530e-003 -3.193448e-003 -8.176808e-003 2.266178e-002 3.331233e-003 -3.068407e-003 4.662988e-003 -1.258627e-002 -6.158582e-003 -1.116679e-003 1.309419e-002 -1.580264e-003 -4.252126e-003 -8.158238e-003 -4.730720e-003 4.199847e-003 3.627328e-003
<VARIANCE> 39
 7.992262e+001 1.469061e+002 1.507758e+002 1.743238e+002 1.699433e+002 2.026568e+002 1.288099e+002 1.192947e+002 1.197972e+002 1.207384e+002 1.142045e+002 7.220716e+001 1.475512e+001 2.467883e+000 2.901930e+000 3.856607e+000 4.891565e+000 4.023855e+000 5.320174e+000 5.422002e+000 5.249263e+000 4.899842e+000 5.608952e+000 4.556411e+000 3.516648e+000 2.829219e-001 3.782448e-001 3.827572e-001 5.951085e-001 7.169799e-001 6.540865e-001 8.227862e-001 9.034246e-001 9.019436e-001 9.007221e-001 9.101224e-001 8.161654e-001 6.361677e-001 3.218562e-002
<GCONST> 1.408446e+002
<STATE> 3
<MEAN> 39
 -9.163093e+000 -1.482856e+001 -6.183181e+000 -1.410446e+001 3.944496e+000 -4.016685e+000 2.162781e+000 -6.317312e+000 1.201328e+000 -9.498945e+000 -3.451036e+000 -2.012794e+000 1.804522e+001 -7.977631e-005 -1.598093e-002 9.245691e-002 -1.992082e-002 2.635078e-002 -3.726893e-002 3.048498e-002 -1.873913e-002 -5.267520e-002 -5.164071e-003 -1.770247e-002 2.789444e-003 2.939286e-002 6.626698e-003 -4.020327e-003 -8.644527e-004 -8.832542e-003 -5.013322e-003 6.600676e-003 8.741715e-003 -7.688195e-004 4.786920e-003 4.006466e-005 -3.471919e-003 2.742387e-003 1.121693e-003
<VARIANCE> 39
 8.256178e+001 1.502177e+002 1.522949e+002 1.794436e+002 1.692992e+002 2.051928e+002 1.315453e+002 1.182136e+002 1.174370e+002 1.187348e+002 1.164537e+002 7.268254e+001 1.408172e+001 2.511968e+000 3.051412e+000 3.860408e+000 5.003743e+000 4.093108e+000 5.207900e+000 5.493227e+000 5.416492e+000 4.844960e+000 5.555330e+000 4.517413e+000 3.521497e+000 2.876804e-001 3.905028e-001 3.974254e-001 5.906970e-001 7.283024e-001 6.621587e-001 7.964194e-001 9.155129e-001 9.295593e-001 8.881927e-001 9.146122e-001 8.097681e-001 6.411051e-001 3.280825e-002
<GCONST> 1.411327e+002
<STATE> 4
<MEAN> 39
 -9.079300e+000 -1.494612e+001 -5.872908e+000 -1.428289e+001 4.004944e+000 -4.050826e+000 2.335741e+000 -6.407579e+000 1.094138e+000 -9.487794e+000 -3.532699e+000 -2.003395e+000 1.816614e+001 2.056749e-002 -3.399590e-002 7.035018e-002 -4.726653e-002 1.048235e-002 -7.104592e-003 4.205530e-002 -2.399740e-002 -2.370335e-002 1.892362e-003 -1.991641e-002 1.498348e-003 2.902522e-002 4.782501e-003 -4.395516e-003 -6.134538e-003 -6.238339e-003 -3.718052e-003 7.579277e-003 1.609202e-003 -1.533347e-003 6.903937e-003 2.144866e-003 -5.229098e-004 -7.740161e-004 -3.400148e-004
<VARIANCE> 39
 8.312078e+001 1.509562e+002 1.544782e+002 1.825899e+002 1.683615e+002 2.064806e+002 1.341008e+002 1.177756e+002 1.161316e+002 1.161048e+002 1.166362e+002 7.296829e+001 1.350346e+001 2.510161e+000 3.135123e+000 3.779310e+000 5.098478e+000 4.058857e+000 4.936754e+000 5.470471e+000 5.498903e+000 4.718868e+000 5.405772e+000 4.436262e+000 3.504771e+000 2.849227e-001 3.949382e-001 4.032981e-001 5.787818e-001 7.350956e-001 6.501740e-001 7.536253e-001 9.110392e-001 9.368736e-001 8.555660e-001 9.065312e-001 7.955893e-001 6.393792e-001 3.266452e-002
<GCONST> 1.408822e+002
<TRANSP> 5
 0.000000e+000 1.000000e+000 0.000000e+000 0.000000e+000 0.000000e+000
 0.000000e+000 7.598370e-001 2.401629e-001 0.000000e+000 0.000000e+000
 0.000000e+000 0.000000e+000 7.598371e-001 2.401629e-001 0.000000e+000
 0.000000e+000 0.000000e+000 0.000000e+000 7.598373e-001 2.401627e-001
 0.000000e+000 0.000000e+000 0.000000e+000 0.000000e+000 0.000000e+000
<ENDHMM>
~h "i"
<BEGINHMM>
<NUMSTATES> 5
<STATE> 2
<MEAN> 39
 -8.458696e+000 -1.071294e+001 -6.866297e+000 -1.668484e+001 2.647651e+000 -9.032575e+000 -1.938425e+000 -8.875889e+000 5.091547e+000 -5.173192e+000 -5.194192e+000 -7.939048e-002 1.811318e+001 4.387201e-002 -1.012043e-001 -1.416449e-001 4.827062e-002 6.968769e-002 1.198348e-001 2.650116e-002 8.006605e-002 4.287020e-003 5.137771e-003 -8.420447e-003 1.844967e-002 -8.839834e-003 -7.363525e-004 1.736053e-003 1.479779e-003 1.836874e-003 -3.385395e-003 -2.896254e-003 -1.002963e-003 2.594778e-003 -2.388014e-003 -2.158712e-003 2.757743e-003 -8.436287e-004 -5.796964e-004
<VARIANCE> 39
 8.558091e+001 1.869682e+002 1.453212e+002 1.539578e+002 2.200871e+002 2.354928e+002 1.267135e+002 1.056075e+002 8.369186e+001 8.148965e+001 9.992312e+001 8.795525e+001 1.118840e+001 3.176378e+000 2.924100e+000 3.977877e+000 5.379117e+000 4.804143e+000 6.331472e+000 5.447698e+000 4.185850e+000 4.536133e+000 4.319023e+000 5.321690e+000 3.349396e+000 2.531846e-001 4.599004e-001 3.684941e-001 6.386988e-001 7.831998e-001 7.967817e-001 9.222567e-001 8.451124e-001 7.571347e-001 8.203841e-001 7.663163e-001 8.531482e-001 5.734851e-001 3.453622e-002
<GCONST> 1.406032e+002
<STATE> 3
<MEAN> 39
 -8.288298e+000 -1.112683e+001 -7.432348e+000 -1.648433e+001 2.902621e+000 -8.589742e+000 -1.844132e+000 -8.516437e+000 5.082731e+000 -5.171710e+000 -5.182871e+000 -1.596993e-002 1.807779e+001 4.038256e-002 -9.419794e-002 -1.328349e-001 5.209461e-002 5.670884e-002 1.057321e-001 2.378723e-002 8.903109e-002 -5.047036e-003 -2.412249e-003 4.126432e-003 1.456398e-002 -1.058212e-002 -1.103405e-003 2.358737e-003 2.425731e-003 9.094728e-004 -3.680748e-003 -3.764961e-003 -5.666870e-004 1.983202e-003 -2.052483e-003 -1.597462e-003 3.322535e-003 -1.112732e-003 -4.486461e-004
<VARIANCE> 39
 8.544465e+001 1.845618e+002 1.438310e+002 1.554619e+002 2.199750e+002 2.334069e+002 1.293786e+002 1.077799e+002 8.417686e+001 8.223471e+001 9.932143e+001 8.801987e+001 1.110667e+001 3.123688e+000 2.885804e+000 3.942849e+000 5.305891e+000 4.746680e+000 6.322444e+000 5.514697e+000 4.208552e+000 4.543545e+000 4.348295e+000 5.361081e+000 3.372400e+000 2.517499e-001 4.527595e-001 3.635605e-001 6.301117e-001 7.697430e-001 7.887415e-001 9.191645e-001 8.497603e-001 7.561401e-001 8.209450e-001 7.746896e-001 8.628429e-001 5.750841e-001 3.421785e-002
<GCONST> 1.405377e+002
<STATE> 4
<MEAN> 39
 -8.132571e+000 -1.151212e+001 -7.949353e+000 -1.628321e+001 3.105004e+000 -8.211675e+000 -1.755332e+000 -8.128099e+000 5.036804e+000 -5.197398e+000 -5.120034e+000 2.968100e-002 1.803736e+001 3.586650e-002 -8.467973e-002 -1.199503e-001 5.193991e-002 4.180086e-002 8.873772e-002 2.283339e-002 9.514181e-002 -1.304007e-002 -7.929684e-003 1.764071e-002 9.558989e-003 -1.183726e-002 -1.301051e-003 2.832847e-003 3.367941e-003 -1.362754e-004 -4.088215e-003 -4.418968e-003 -1.406387e-004 1.290900e-003 -1.708625e-003 -1.102879e-003 3.504014e-003 -1.381392e-003 -2.973749e-004
<VARIANCE> 39
 8.553789e+001 1.806618e+002 1.425499e+002 1.572440e+002 2.186998e+002 2.313717e+002 1.323406e+002 1.101832e+002 8.539864e+001 8.372516e+001 9.963438e+001 8.822860e+001 1.108600e+001 3.075762e+000 2.841536e+000 3.923338e+000 5.249432e+000 4.708425e+000 6.319700e+000 5.595926e+000 4.257183e+000 4.556408e+000 4.411005e+000 5.417406e+000 3.402797e+000 2.509252e-001 4.464388e-001 3.591282e-001 6.245714e-001 7.592079e-001 7.834308e-001 9.177154e-001 8.567954e-001 7.593741e-001 8.228737e-001 7.895707e-001 8.748250e-001 5.783548e-001 3.394635e-002
<GCONST> 1.405785e+002
<TRANSP> 5
 0.000000e+000 1.000000e+000 0.000000e+000 0.000000e+000 0.000000e+000
 0.000000e+000 7.596613e-001 2.403387e-001 0.000000e+000 0.000000e+000
 0.000000e+000 0.000000e+000 7.596620e-001 2.403380e-001 0.000000e+000
 0.000000e+000 0.000000e+000 0.000000e+000 7.596625e-001 2.403375e-001
 0.000000e+000 0.000000e+000 0.000000e+000 0.000000e+000 0.000000e+000
<ENDHMM>
~h "j"
<BEGINHMM>
<NUMSTATES> 5
<STATE> 2
<MEAN> 39
 -7.927238e+000 -1.264458e+001 -1.820152e+000 -1.749607e+001 -5.169937e+000 -1.215138e+001 5.597017e+000 -5.671669e+000 9.655324e-001 -8.203794e+000 -6.966527e+000 1.532488e+000 1.801967e+001 -2.174069e-002 7.253702e-002 5.126175e-002 -6.193082e-002 -6.244597e-002 2.405975e-003 3.206927e-002 1.683772e-002 2.785230e-002 3.160086e-002 1.028635e-002 -3.140303e-002 -6.969060e-003 -5.390875e-004 7.650176e-004 6.813629e-004 -1.512560e-003 1.063070e-003 3.338620e-004 -6.380033e-004 -1.743365e-003 7.718333e-004 7.107074e-004 3.475953e-004 -9.053022e-004 2.037808e-004
<VARIANCE> 39
 7.436058e+001 1.264551e+002 2.099612e+002 1.674365e+002 1.707496e+002 1.386142e+002 9.148492e+001 2.355056e+002 1.075826e+002 1.592274e+002 8.464544e+001 6.980579e+001 1.328506e+001 2.194623e+000 2.307643e+000 3.364474e+000 3.846393e+000 4.265613e+000 5.017868e+000 4.803570e+000 5.038195e+000 4.778761e+000 5.163427e+000 4.515211e+000 3.511369e+000 3.032973e-001 2.750002e-001 2.620397e-001 3.539964e-001 5.354234e-001 6.685081e-001 8.725299e-001 7.844436e-001 7.833763e-001 8.005424e-001 9.183693e-001 8.185931e-001 6.068555e-001 3.772977e-002
<GCONST> 1.379677e+002
<STATE> 3
<MEAN> 39
 -8.020149e+000 -1.233959e+001 -1.600232e+000 -1.776700e+001 -5.420326e+000 -1.213556e+001 5.713600e+000 -5.623088e+000 1.090539e+000 -8.052114e+000 -6.918778e+000 1.395451e+000 1.799312e+001 -2.345133e-002 7.547781e-002 5.353520e-002 -6.780437e-002 -5.805066e-002 3.710316e-003 2.932434e-002 9.979208e-003 3.047706e-002 3.406344e-002 1.155829e-002 -3.502827e-002 -6.169335e-003 -4.136914e-004 6.795099e-004 6.246876e-004 -1.528745e-003 1.073595e-003 2.277239e-004 -6.659194e-004 -1.760026e-003 6.627591e-004 6.272358e-004 3.076648e-004 -8.929998e-004 2.223327e-004
<VARIANCE> 39
 7.438864e+001 1.284154e+002 2.140612e+002 1.702982e+002 1.708492e+002 1.397567e+002 9.227089e+001 2.358936e+002 1.068344e+002 1.615638e+002 8.501380e+001 6.998120e+001 1.342060e+001 2.198351e+000 2.320632e+000 3.374708e+000 3.863278e+000 4.314590e+000 5.063680e+000 4.824886e+000 5.053146e+000 4.758314e+000 5.144025e+000 4.488403e+000 3.497469e+000 3.061079e-001 2.761904e-001 2.631854e-001 3.536341e-001 5.367267e-001 6.764858e-001 8.814435e-001 7.877376e-001 7.836677e-001 7.961234e-001 9.158852e-001 8.105641e-001 6.040637e-001 3.806551e-002
<GCONST> 1.381200e+002
<STATE> 4
<MEAN> 39
 -8.118111e+000 -1.202346e+001 -1.373886e+000 -1.806030e+001 -5.651272e+000 -1.211442e+001 5.818022e+000 -5.600978e+000 1.223707e+000 -7.892650e+000 -6.866323e+000 1.244134e+000 1.796973e+001 -2.470140e-002 7.805833e-002 5.552324e-002 -7.368664e-002 -5.331801e-002 4.695435e-003 2.638299e-002 3.042259e-003 3.273946e-002 3.613160e-002 1.264122e-002 -3.858841e-002 -5.289637e-003 -2.862034e-004 6.044272e-004 5.719868e-004 -1.528888e-003 1.124444e-003 1.683244e-004 -7.107863e-004 -1.785167e-003 6.090717e-004 5.647511e-004 2.412804e-004 -8.674377e-004 2.330866e-004
<VARIANCE> 39
 7.439204e+001 1.303348e+002 2.180351e+002 1.731787e+002 1.709840e+002 1.410893e+002 9.319693e+001 2.358621e+002 1.060412e+002 1.636023e+002 8.533884e+001 7.009818e+001 1.354250e+001 2.201504e+000 2.336299e+000 3.385076e+000 3.880594e+000 4.365763e+000 5.108088e+000 4.848479e+000 5.067032e+000 4.737205e+000 5.122416e+000 4.459104e+000 3.484986e+000 3.087060e-001 2.772924e-001 2.648833e-001 3.535595e-001 5.380672e-001 6.849347e-001 8.897973e-001 7.912034e-001 7.843108e-001 7.915848e-001 9.132951e-001 8.022677e-001 6.019248e-001 3.838389e-002
<GCONST> 1.382690e+002
<TRANSP> 5
 0.000000e+000 1.000000e+000 0.000000e+000 0.000000e+000 0.000000e+000
 0.000000e+000 7.597122e-001 2.402878e-001 0.000000e+000 0.000000e+000
 0.000000e+000 0.000000e+000 7.597124e-001 2.402876e-001 0.000000e+000
 0.000000e+000 0.000000e+000 0.000000e+000 7.597132e-001 2.402868e-001
 0.000000e+000 0.000000e+000 0.000000e+000 0.000000e+000 0.000000e+000
<ENDHMM>
~h "k"
<BEGINHMM>
<NUMSTATES> 5
<STATE> 2
<MEAN> 39
 -7.242722e+000 -9.704687e+000 -8.705599e+000 -1.259729e+001 8.104844e-001 -4.703347e+000 5.310389e-001 -6.211623e+000 3.099192e+000 -5.266265e+000 -4.710527e+000 -8.637623e-001 1.696398e+001 -1.044605e-001 1.546111e-001 4.060193e-002 5.037583e-002 7.512982e-003 -1.062439e-001 -1.641854e-002 -6.616927e-003 -3.065910e-002 -2.131504e-002 9.288569e-002 -1.904525e-002 -1.003823e-002 7.690773e-004 5.419411e-004 2.290270e-003 -8.161586e-003 2.868632e-003 -3.314683e-003 -2.854096e-003 -2.840607e-003 1.578564e-003 -9.491817e-004 -1.506726e-003 -9.390094e-004 1.852101e-003
<VARIANCE> 39
 1.052225e+002 1.894060e+002 1.772258e+002 2.145628e+002 2.223235e+002 3.157211e+002 1.388545e+002 9.865228e+001 1.232754e+002 9.065872e+001 1.253152e+002 9.162796e+001 1.405988e+001 2.564289e+000 2.787333e+000 3.587458e+000 5.420883e+000 4.841903e+000 6.289853e+000 6.126598e+000 4.916480e+000 5.004286e+000 4.452293e+000 4.820181e+000 3.542075e+000 2.931943e-001 3.276540e-001 3.460385e-001 5.272415e-001 7.328725e-001 7.758825e-001 9.735252e-001 9.697132e-001 8.871285e-001 8.938361e-001 7.935256e-001 7.739764e-001 6.093418e-001 3.278155e-002
<GCONST> 1.425189e+002
<STATE> 3
<MEAN> 39
 -7.672298e+000 -9.065203e+000 -8.522820e+000 -1.243188e+001 8.582249e-001 -5.150430e+000 4.525804e-001 -6.261485e+000 2.972760e+000 -5.356472e+000 -4.339602e+000 -9.516004e-001 1.693397e+001 -9.916157e-002 1.548230e-001 4.863241e-002 1.601705e-002 1.905091e-002 -1.178197e-001 -2.892278e-002 -1.794988e-002 -2.412079e-002 -2.489226e-002 8.561768e-002 -2.216178e-002 -2.392895e-003 2.502210e-003 -1.019730e-003 1.540198e-003 -8.857976e-003 2.230711e-003 -1.921837e-003 -3.010057e-003 -2.743949e-003 1.795903e-003 -9.142396e-004 -2.663163e-003 -7.938593e-004 1.880784e-003
<VARIANCE> 39
 1.090716e+002 1.951140e+002 1.742053e+002 2.142118e+002 2.179276e+002 3.122992e+002 1.414194e+002 9.881512e+001 1.245773e+002 9.160225e+001 1.254528e+002 9.190677e+001 1.447066e+001 2.675931e+000 2.814521e+000 3.617176e+000 5.458972e+000 4.809696e+000 6.324775e+000 6.235676e+000 4.944254e+000 5.114327e+000 4.446158e+000 4.850485e+000 3.535811e+000 3.045278e-001 3.393093e-001 3.500583e-001 5.356382e-001 7.373294e-001 7.716730e-001 9.858071e-001 9.849472e-001 8.940830e-001 9.142656e-001 7.930508e-001 7.808162e-001 6.085881e-001 3.400785e-002
<GCONST> 1.429263e+002
<STATE> 4
<MEAN> 39
 -8.070694e+000 -8.433289e+000 -8.313146e+000 -1.241147e+001 9.519367e-001 -5.636628e+000 3.190450e-001 -6.355761e+000 2.873526e+000 -5.459978e+000 -4.002614e+000 -1.048952e+000 1.693547e+001 -8.665953e-002 1.486026e-001 5.328603e-002 -2.071350e-002 2.774360e-002 -1.233945e-001 -4.194025e-002 -2.852359e-002 -1.684253e-002 -2.831679e-002 7.373734e-002 -2.468504e-002 5.193505e-003 4.165635e-003 -2.674177e-003 5.409474e-004 -9.026769e-003 1.440795e-003 -8.496459e-005 -2.901827e-003 -2.304506e-003 1.702844e-003 -8.058246e-004 -3.633518e-003 -6.938025e-004 1.766995e-003
<VARIANCE> 39
 1.121039e+002 2.008109e+002 1.700241e+002 2.152783e+002 2.126942e+002 3.075127e+002 1.440757e+002 9.944044e+001 1.260630e+002 9.251323e+001 1.251144e+002 9.191412e+001 1.481735e+001 2.787667e+000 2.839188e+000 3.637854e+000 5.497208e+000 4.767096e+000 6.367122e+000 6.347350e+000 4.973511e+000 5.237451e+000 4.445844e+000 4.885512e+000 3.531843e+000 3.145859e-001 3.514829e-001 3.538272e-001 5.433965e-001 7.420652e-001 7.660736e-001 9.989270e-001 9.998125e-001 9.001291e-001 9.363123e-001 7.934020e-001 7.894745e-001 6.083408e-001 3.513049e-002
<GCONST> 1.432989e+002
<TRANSP> 5
 0.000000e+000 1.000000e+000 0.000000e+000 0.000000e+000 0.000000e+000
 0.000000e+000 7.594978e-001 2.405022e-001 0.000000e+000 0.000000e+000
 0.000000e+000 0.000000e+000 7.594978e-001 2.405022e-001 0.000000e+000
 0.000000e+000 0.000000e+000 0.000000e+000 7.594998e-001 2.405002e-001
 0.000000e+000 0.000000e+000 0.000000e+000 0.000000e+000 0.000000e+000
<ENDHMM>
~h "l"
<BEGINHMM>
<NUMSTATES> 5
<STATE> 2
<MEAN> 39
 -7.312842e+000 -7.569183e+000 -7.957317e+000 -1.453020e+001 9.581088e-001 -7.072813e+000 -2.330239e-001 -7.045078e+000 2.986680e+000 -5.962949e+000 -3.626739e+000 -5.437616e-001 1.727639e+001 -1.087939e-002 4.124977e-002 1.308030e-002 -8.182647e-002 -2.464485e-003 -3.108709e-002 -3.315254e-002 -1.736809e-002 -4.652626e-003 -1.970839e-002 5.251846e-003 3.587235e-004 1.046309e-002 1.050563e-003 -2.496746e-003 9.988279e-004 -3.283506e-003 4.795415e-004 4.055446e-005 1.089892e-003 -1.571987e-003 1.116355e-003 -5.006644e-005 -1.351741e-003 -7.585036e-004 8.259464e-004
<VARIANCE> 39
 1.069508e+002 2.230830e+002 1.594568e+002 2.592419e+002 1.942916e+002 2.093657e+002 1.465074e+002 1.468330e+002 1.285940e+002 9.897279e+001 9.566168e+001 7.392670e+001 1.449665e+001 2.800149e+000 3.467719e+000 3.363108e+000 5.129409e+000 4.655441e+000 5.581250e+000 6.152297e+000 5.206295e+000 5.336624e+000 4.897128e+000 4.497677e+000 3.416350e+000 3.203855e-001 3.553995e-001 4.152010e-001 4.784844e-001 6.801335e-001 7.489234e-001 9.117789e-001 9.470950e-001 8.785193e-001 9.197357e-001 8.726339e-001 7.892593e-001 6.112901e-001 3.739613e-002
<GCONST> 1.428317e+002
<STATE> 3
<MEAN> 39
 -7.350703e+000 -7.415881e+000 -7.900321e+000 -1.488371e+001 9.519069e-001 -7.187617e+000 -3.644428e-001 -7.117825e+000 2.969494e+000 -6.033563e+000 -3.612750e+000 -5.447806e-001 1.732184e+001 -6.600373e-003 3.018160e-002 1.723438e-002 -9.407936e-002 -2.399699e-004 -3.024021e-002 -2.870279e-002 -2.349595e-002 -3.432451e-004 -1.978319e-002 -4.479206e-004 -2.934777e-003 1.368082e-002 1.266923e-003 -2.951261e-003 9.489492e-004 -2.681315e-003 3.716024e-004 3.599514e-004 1.230604e-003 -1.368388e-003 9.764614e-004 5.130448e-005 -1.404575e-003 -7.776104e-004 7.190382e-004
<VARIANCE> 39
 1.081940e+002 2.237563e+002 1.557666e+002 2.578978e+002 1.903672e+002 2.110837e+002 1.454840e+002 1.466431e+002 1.302507e+002 9.859294e+001 9.551513e+001 7.405217e+001 1.434422e+001 2.850608e+000 3.497507e+000 3.353005e+000 5.163861e+000 4.691573e+000 5.595685e+000 6.132479e+000 5.228849e+000 5.382818e+000 4.903338e+000 4.526176e+000 3.441335e+000 3.207268e-001 3.609531e-001 4.179125e-001 4.779252e-001 6.855468e-001 7.551692e-001 9.149637e-001 9.422275e-001 8.823171e-001 9.270647e-001 8.736486e-001 7.964066e-001 6.156134e-001 3.757882e-002
<GCONST> 1.429315e+002
<STATE> 4
<MEAN> 39
 -7.371264e+000 -7.311626e+000 -7.825747e+000 -1.528216e+001 9.556485e-001 -7.296289e+000 -4.774955e-001 -7.214500e+000 2.968942e+000 -6.104032e+000 -3.622812e+000 -5.602803e-001 1.737976e+001 -1.502250e-003 1.741190e-002 2.117842e-002 -1.037157e-001 1.412926e-003 -2.819114e-002 -2.368555e-002 -2.879212e-002 3.450846e-003 -1.946490e-002 -6.298861e-003 -6.304004e-003 1.642027e-002 1.444397e-003 -3.297498e-003 8.487673e-004 -1.949380e-003 2.055153e-004 6.953637e-004 1.322307e-003 -1.076537e-003 8.017801e-004 1.729718e-004 -1.396411e-003 -7.577464e-004 5.665039e-004
<VARIANCE> 39
 1.089708e+002 2.240824e+002 1.524902e+002 2.560946e+002 1.865661e+002 2.129729e+002 1.442696e+002 1.464931e+002 1.319208e+002 9.813043e+001 9.547898e+001 7.427715e+001 1.413294e+001 2.892071e+000 3.520534e+000 3.343483e+000 5.198926e+000 4.723886e+000 5.604924e+000 6.106199e+000 5.248200e+000 5.426226e+000 4.908153e+000 4.554531e+000 3.466127e+000 3.198452e-001 3.656788e-001 4.198824e-001 4.775411e-001 6.910608e-001 7.605766e-001 9.173285e-001 9.366793e-001 8.853422e-001 9.338108e-001 8.744342e-001 8.032840e-001 6.195915e-001 3.763938e-002
<GCONST> 1.429965e+002
<TRANSP> 5
 0.000000e+000 1.000000e+000 0.000000e+000 0.000000e+000 0.000000e+000
 0.000000e+000 7.595493e-001 2.404507e-001 0.000000e+000 0.000000e+000
 0.000000e+000 0.000000e+000 7.595499e-001 2.404501e-001 0.000000e+000
 0.000000e+000 0.000000e+000 0.000000e+000 7.595512e-001 2.404488e-001
 0.000000e+000 0.000000e+000 0.000000e+000 0.000000e+000 0.000000e+000
<ENDHMM>
~h "m"
<BEGINHMM>
<NUMSTATES> 5
<STATE> 2
<MEAN> 39
 -4.636200e+000 -1.223100e+001 -9.702075e+000 -1.831347e+001 3.455738e+000 -3.793622e+000 -3.486104e+000 -5.096728e+000 4.650339e-001 -6.201099e+000 -4.053805e+000 -4.538014e+000 1.786562e+001 -5.986840e-002 -4.851253e-002 1.455652e-002 8.693824e-002 -8.767031e-002 4.505361e-002 1.320305e-001 -4.498086e-002 4.304304e-002 1.313328e-002 2.173604e-002 6.697087e-004 -7.340384e-003 -2.456996e-003 6.587858e-004 3.685633e-003 1.269922e-003 -1.499249e-003 -4.792478e-003 1.956404e-003 -9.497975e-004 -2.240538e-003 -3.132969e-003 2.303532e-004 7.160729e-004 1.383336e-004
<VARIANCE> 39
 1.154764e+002 1.129273e+002 2.042432e+002 1.610365e+002 1.967937e+002 2.523848e+002 1.531787e+002 1.061689e+002 1.103758e+002 1.124685e+002 1.269551e+002 7.530776e+001 1.201961e+001 2.455304e+000 2.619456e+000 4.078737e+000 4.994018e+000 4.678961e+000 6.647208e+000 5.787159e+000 4.975099e+000 4.471811e+000 4.923166e+000 4.772301e+000 3.889488e+000 3.062264e-001 3.489642e-001 3.473976e-001 5.694733e-001 7.286441e-001 7.880310e-001 9.609984e-001 9.339204e-001 8.657241e-001 7.242245e-001 8.226399e-001 8.426005e-001 7.096062e-001 3.628962e-002
<GCONST> 1.418156e+002
<STATE> 3
<MEAN> 39
 -4.896631e+000 -1.244826e+001 -9.601710e+000 -1.794409e+001 3.080207e+000 -3.657727e+000 -2.925238e+000 -5.294186e+000 6.217452e-001 -6.187259e+000 -3.972171e+000 -4.509494e+000 1.783955e+001 -6.881397e-002 -4.457114e-002 2.829050e-002 9.179359e-002 -9.207580e-002 2.601613e-002 1.385754e-001 -4.776718e-002 3.233385e-002 8.658344e-004 2.243403e-002 4.151661e-003 -6.881427e-003 -2.240011e-003 1.228560e-003 3.461704e-003 2.648094e-004 -5.733686e-004 -4.822085e-003 1.293787e-003 -6.847313e-004 -2.795884e-003 -2.784069e-003 3.698528e-004 5.974790e-004 1.964999e-004
<VARIANCE> 39
 1.150574e+002 1.114360e+002 2.069402e+002 1.585326e+002 1.935218e+002 2.520947e+002 1.552183e+002 1.038593e+002 1.095184e+002 1.139574e+002 1.248019e+002 7.456504e+001 1.232581e+001 2.497634e+000 2.596735e+000 4.131588e+000 4.957878e+000 4.676279e+000 6.572507e+000 5.846161e+000 4.993280e+000 4.417121e+000 4.864239e+000 4.729412e+000 3.841666e+000 3.120062e-001 3.531903e-001 3.452865e-001 5.745327e-001 7.217714e-001 7.900258e-001 9.493840e-001 9.417516e-001 8.691931e-001 7.202402e-001 8.127193e-001 8.337497e-001 7.012264e-001 3.684579e-002
<GCONST> 1.417449e+002
<STATE> 4
<MEAN> 39
 -5.189706e+000 -1.264381e+001 -9.450722e+000 -1.755604e+001 2.693459e+000 -3.597045e+000 -2.342981e+000 -5.498147e+000 7.293920e-001 -6.219885e+000 -3.888662e+000 -4.464907e+000 1.781490e+001 -7.699795e-002 -3.813236e-002 4.093956e-002 9.239805e-002 -9.264183e-002 7.164945e-003 1.424689e-001 -4.942110e-002 1.983130e-002 -9.482693e-003 2.385532e-002 7.063304e-003 -6.165342e-003 -2.052180e-003 1.817502e-003 3.227732e-003 -8.322268e-004 4.601165e-004 -4.789102e-003 6.368344e-004 -5.132832e-004 -3.071688e-003 -2.321340e-003 5.040882e-004 5.018243e-004 3.038921e-004
<VARIANCE> 39
 1.146018e+002 1.104963e+002 2.088646e+002 1.559105e+002 1.900185e+002 2.510260e+002 1.565002e+002 1.015158e+002 1.088113e+002 1.150604e+002 1.220848e+002 7.375371e+001 1.262000e+001 2.537479e+000 2.572256e+000 4.164497e+000 4.926330e+000 4.667539e+000 6.465587e+000 5.892121e+000 5.005899e+000 4.375875e+000 4.786811e+000 4.680863e+000 3.787184e+000 3.167725e-001 3.565962e-001 3.425467e-001 5.772975e-001 7.155853e-001 7.900509e-001 9.343390e-001 9.469288e-001 8.719555e-001 7.187874e-001 8.010656e-001 8.236771e-001 6.915486e-001 3.729661e-002
<GCONST> 1.416071e+002
<TRANSP> 5
 0.000000e+000 1.000000e+000 0.000000e+000 0.000000e+000 0.000000e+000
 0.000000e+000 7.595896e-001 2.404104e-001 0.000000e+000 0.000000e+000
 0.000000e+000 0.000000e+000 7.595904e-001 2.404096e-001 0.000000e+000
 0.000000e+000 0.000000e+000 0.000000e+000 7.595912e-001 2.404087e-001
 0.000000e+000 0.000000e+000 0.000000e+000 0.000000e+000 0.000000e+000
<ENDHMM>
~h "n"
<BEGINHMM>
<NUMSTATES> 5
<STATE> 2
<MEAN> 39
 -8.130430e+000 -1.157383e+001 -4.410625e+000 -1.506113e+001 1.593809e+000 -5.876432e+000 9.827135e-001 -8.879738e+000 3.436581e+000 -5.706069e+000 -6.029103e+000 -1.374292e+000 1.769899e+001 -1.423018e-004 2.034297e-002 1.128518e-002 1.107118e-002 -3.693316e-003 1.229024e-003 -1.067101e-002 2.706233e-003 7.249585e-004 1.341981e-002 -7.797881e-003 1.078088e-002 -4.422688e-003 3.663557e-005 -4.785701e-005 -2.556299e-004 9.912470e-005 -2.394857e-004 -4.563630e-004 3.203283e-005 5.429949e-004 3.719605e-004 -3.342955e-004 1.315068e-004 -4.869927e-004 8.393991e-005
<VARIANCE> 39
 7.624772e+001 1.883382e+002 2.192751e+002 2.120960e+002 1.905616e+002 2.226700e+002 1.179744e+002 1.146895e+002 9.850536e+001 9.514413e+001 1.040367e+002 8.035490e+001 1.336511e+001 2.532057e+000 3.204233e+000 4.203393e+000 5.855096e+000 4.879010e+000 5.529564e+000 5.573741e+000 4.944314e+000 4.514833e+000 4.769039e+000 4.589994e+000 3.884381e+000 3.110747e-001 3.731976e-001 3.867038e-001 5.904391e-001 8.193824e-001 7.740573e-001 8.717399e-001 9.087789e-001 8.333008e-001 7.761045e-001 8.810629e-001 8.147572e-001 6.769289e-001 3.846823e-002
<GCONST> 1.420589e+002
<STATE> 3
<MEAN> 39
 -8.130668e+000 -1.149129e+001 -4.373204e+000 -1.501887e+001 1.576953e+000 -5.881960e+000 9.426140e-001 -8.864153e+000 3.450387e+000 -5.652895e+000 -6.059408e+000 -1.333864e+000 1.768218e+001 8.037373e-005 1.985857e-002 1.014859e-002 1.127974e-002 -4.686412e-003 -6.397715e-004 -1.039632e-002 4.734401e-003 2.267024e-003 1.210802e-002 -7.324451e-003 8.774114e-003 -4.047706e-003 7.550514e-005 -1.694338e-004 -2.680039e-004 -1.255991e-005 -2.345132e-004 -5.138671e-004 1.220020e-004 4.575364e-004 3.579323e-004 -3.469193e-004 1.174863e-004 -5.368682e-004 1.224859e-004
<VARIANCE> 39
 7.639279e+001 1.893424e+002 2.198945e+002 2.132631e+002 1.911322e+002 2.235712e+002 1.182138e+002 1.140763e+002 9.768363e+001 9.496922e+001 1.040865e+002 8.029778e+001 1.343351e+001 2.537600e+000 3.194257e+000 4.205816e+000 5.842001e+000 4.887331e+000 5.510361e+000 5.571136e+000 4.929815e+000 4.533225e+000 4.760814e+000 4.617750e+000 3.874741e+000 3.110673e-001 3.736573e-001 3.851547e-001 5.898329e-001 8.150432e-001 7.745619e-001 8.686103e-001 9.070508e-001 8.336517e-001 7.786130e-001 8.801613e-001 8.184916e-001 6.768165e-001 3.837376e-002
<GCONST> 1.420615e+002
<STATE> 4
<MEAN> 39
 -8.129649e+000 -1.141173e+001 -4.340542e+000 -1.497662e+001 1.555903e+000 -5.895248e+000 9.039722e-001 -8.840871e+000 3.470184e+000 -5.604787e+000 -6.087756e+000 -1.301651e+000 1.766704e+001 3.936023e-004 1.893533e-002 9.075722e-003 1.099943e-002 -5.719384e-003 -2.795370e-003 -9.793477e-003 6.514622e-003 3.671132e-003 1.077354e-002 -6.812430e-003 6.611635e-003 -3.510690e-003 8.657322e-005 -2.796520e-004 -2.565973e-004 -1.406680e-004 -2.637505e-004 -5.812886e-004 2.195316e-004 3.968673e-004 3.324303e-004 -3.552951e-004 1.250864e-004 -5.706837e-004 1.599027e-004
<VARIANCE> 39
 7.657227e+001 1.902322e+002 2.201523e+002 2.142870e+002 1.916141e+002 2.246616e+002 1.184295e+002 1.134988e+002 9.703883e+001 9.479173e+001 1.041844e+002 8.027071e+001 1.349922e+001 2.546660e+000 3.185850e+000 4.209476e+000 5.830134e+000 4.898184e+000 5.492612e+000 5.569431e+000 4.914061e+000 4.553084e+000 4.754278e+000 4.648917e+000 3.863376e+000 3.112004e-001 3.745790e-001 3.838180e-001 5.895204e-001 8.108413e-001 7.753846e-001 8.657300e-001 9.055679e-001 8.338091e-001 7.815000e-001 8.794107e-001 8.227528e-001 6.764815e-001 3.831599e-002
<GCONST> 1.420737e+002
<TRANSP> 5
 0.000000e+000 1.000000e+000 0.000000e+000 0.000000e+000 0.000000e+000
 0.000000e+000 7.597384e-001 2.402616e-001 0.000000e+000 0.000000e+000
 0.000000e+000 0.000000e+000 7.597392e-001 2.402608e-001 0.000000e+000
 0.000000e+000 0.000000e+000 0.000000e+000 7.597400e-001 2.402600e-001
 0.000000e+000 0.000000e+000 0.000000e+000 0.000000e+000 0.000000e+000
<ENDHMM>
~h "r"
<BEGINHMM>
<NUMSTATES> 5
<STATE> 2
<MEAN> 39
 -7.603496e+000 -8.377083e+000 -9.437432e+000 -1.300358e+001 6.714982e+000 -7.000314e+000 -4.091946e+000 -9.243458e+000 4.836670e+000 -4.070205e+000 -6.342165e+000 -2.257026e+000 1.777664e+001 -5.008114e-004 1.358756e-001 1.132889e-001 -1.024490e-001 -7.361164e-002 -6.144815e-002 -5.001464e-002 -7.299123e-002 -4.284274e-002 -1.286708e-002 -1.816274e-002 -1.744842e-002 3.053531e-004 5.933411e-004 -4.226685e-004 1.125931e-003 -1.425609e-003 -1.525633e-003 8.827366e-004 7.768295e-006 -8.275484e-004 -4.120958e-005 -4.612003e-006 -4.743490e-004 1.010723e-003 2.688815e-005
<VARIANCE> 39
 1.000956e+002 1.770370e+002 2.166897e+002 2.868474e+002 1.926331e+002 3.046530e+002 9.687785e+001 1.092182e+002 1.229656e+002 6.984356e+001 1.079316e+002 1.127827e+002 1.082496e+001 3.116524e+000 2.739898e+000 4.180718e+000 5.754849e+000 5.534471e+000 5.811453e+000 4.984332e+000 4.673364e+000 4.352449e+000 3.991016e+000 5.107244e+000 3.749690e+000 2.736809e-001 4.319415e-001 3.783720e-001 6.344492e-001 7.509062e-001 8.602843e-001 8.079861e-001 7.689396e-001 8.526977e-001 8.126708e-001 7.563385e-001 7.811362e-001 6.673926e-001 3.404284e-002
<GCONST> 1.421895e+002
<STATE> 3
<MEAN> 39
 -7.602639e+000 -7.816981e+000 -8.955235e+000 -1.345086e+001 6.380411e+000 -7.254492e+000 -4.306069e+000 -9.557938e+000 4.656673e+000 -4.123501e+000 -6.430681e+000 -2.328688e+000 1.777799e+001 2.085893e-003 1.334486e-001 1.173879e-001 -1.071383e-001 -8.005594e-002 -5.805667e-002 -4.983840e-002 -7.588842e-002 -4.274886e-002 -1.286901e-002 -2.001956e-002 -1.316247e-002 3.498000e-004 6.607045e-004 -7.457570e-004 8.366356e-004 -1.029935e-003 -1.575945e-003 9.164580e-004 7.617975e-005 -6.954631e-004 1.204464e-004 6.749056e-005 -4.666542e-004 1.077726e-003 2.381516e-006
<VARIANCE> 39
 1.005221e+002 1.770071e+002 2.215867e+002 2.858851e+002 1.932920e+002 3.016400e+002 9.696896e+001 1.103941e+002 1.215028e+002 7.036592e+001 1.076755e+002 1.162484e+002 1.093808e+001 3.140458e+000 2.755475e+000 4.291335e+000 5.742455e+000 5.515611e+000 5.849089e+000 5.001031e+000 4.712236e+000 4.347344e+000 3.986249e+000 5.092275e+000 3.764516e+000 2.769794e-001 4.353345e-001 3.797577e-001 6.555309e-001 7.458609e-001 8.581320e-001 8.139090e-001 7.702848e-001 8.628506e-001 8.114232e-001 7.541795e-001 7.795309e-001 6.709861e-001 3.449840e-002
<GCONST> 1.423821e+002
<STATE> 4
<MEAN> 39
 -7.591274e+000 -7.269437e+000 -8.458810e+000 -1.391299e+001 6.019796e+000 -7.494986e+000 -4.519054e+000 -9.881957e+000 4.478584e+000 -4.176785e+000 -6.526240e+000 -2.382236e+000 1.777926e+001 4.812902e-003 1.299356e-001 1.200830e-001 -1.103239e-001 -8.617200e-002 -5.415320e-002 -4.947897e-002 -7.830574e-002 -4.203374e-002 -1.261177e-002 -2.187117e-002 -8.618044e-003 2.683527e-004 7.012236e-004 -9.996268e-004 4.902841e-004 -6.317713e-004 -1.459011e-003 1.059751e-003 1.055860e-004 -5.627146e-004 2.141222e-004 1.099470e-004 -4.899408e-004 1.142746e-003 -3.338334e-005
<VARIANCE> 39
 1.008713e+002 1.765304e+002 2.260901e+002 2.842910e+002 1.939336e+002 2.982841e+002 9.716704e+001 1.116726e+002 1.199187e+002 7.091896e+001 1.073338e+002 1.197539e+002 1.105800e+001 3.161727e+000 2.771412e+000 4.401779e+000 5.726285e+000 5.495189e+000 5.886423e+000 5.023746e+000 4.747764e+000 4.345521e+000 3.984541e+000 5.070097e+000 3.776625e+000 2.800655e-001 4.382753e-001 3.809466e-001 6.763415e-001 7.403424e-001 8.564059e-001 8.199187e-001 7.727794e-001 8.723273e-001 8.103058e-001 7.526783e-001 7.769758e-001 6.739983e-001 3.491075e-002
<GCONST> 1.425570e+002
<TRANSP> 5
 0.000000e+000 1.000000e+000 0.000000e+000 0.000000e+000 0.000000e+000
 0.000000e+000 7.596242e-001 2.403758e-001 0.000000e+000 0.000000e+000
 0.000000e+000 0.000000e+000 7.596242e-001 2.403758e-001 0.000000e+000
 0.000000e+000 0.000000e+000 0.000000e+000 7.596255e-001 2.403746e-001
 0.000000e+000 0.000000e+000 0.000000e+000 0.000000e+000 0.000000e+000
<ENDHMM>
~h "s"
<BEGINHMM>
<NUMSTATES> 5
<STATE> 2
<MEAN> 39
 -6.538002e+000 -9.762248e+000 -8.662709e+000 -1.668769e+001 2.490535e+000 -6.197099e+000 -7.751657e-001 -8.963976e+000 3.044004e+000 -5.954920e+000 -5.028529e+000 -2.107666e+000 1.791366e+001 1.845275e-003 -3.806984e-002 2.051661e-004 3.205291e-002 -4.167395e-002 2.154324e-002 3.442028e-002 3.006886e-002 -1.915404e-003 6.684181e-003 -1.321770e-003 9.802911e-003 -8.676714e-003 -1.508111e-003 2.455048e-003 2.764067e-004 9.023221e-004 -2.520212e-004 -1.240745e-003 -2.137443e-004 1.401000e-003 -3.247831e-004 -1.914938e-004 4.246880e-004 6.300404e-004 -5.851461e-004
<VARIANCE> 39
 9.027930e+001 1.822332e+002 1.814438e+002 2.239919e+002 1.884587e+002 2.284502e+002 1.317928e+002 1.286575e+002 1.237072e+002 9.681145e+001 1.000282e+002 7.665064e+001 1.218142e+001 2.631901e+000 3.122839e+000 3.560479e+000 4.981753e+000 4.547844e+000 6.138864e+000 5.701144e+000 5.026430e+000 5.187723e+000 4.627804e+000 4.976090e+000 3.307964e+000 2.603661e-001 3.666360e-001 4.065948e-001 5.320753e-001 6.839579e-001 7.522809e-001 9.282590e-001 8.930343e-001 8.582463e-001 9.100971e-001 8.187568e-001 8.537357e-001 5.816463e-001 3.252723e-002
<GCONST> 1.415832e+002
<STATE> 3
<MEAN> 39
 -6.534296e+000 -9.910250e+000 -8.658027e+000 -1.656850e+001 2.317301e+000 -6.113629e+000 -6.367462e-001 -8.838547e+000 3.036707e+000 -5.922124e+000 -5.030019e+000 -2.066715e+000 1.787808e+001 -3.866389e-003 -2.812063e-002 9.043485e-004 3.473713e-002 -4.159347e-002 1.716017e-002 3.291155e-002 3.585561e-002 -3.421732e-003 5.888540e-003 -1.487731e-004 1.237456e-002 -1.091766e-002 -1.117272e-003 2.847032e-003 -9.756376e-006 2.607667e-004 5.276118e-005 -9.281922e-004 -7.708725e-004 1.627859e-003 -7.407020e-004 -1.969688e-004 3.036605e-004 2.923305e-004 -5.497983e-004
<VARIANCE> 39
 8.987335e+001 1.804392e+002 1.835454e+002 2.229265e+002 1.903416e+002 2.287205e+002 1.329099e+002 1.296055e+002 1.230903e+002 9.779777e+001 1.002604e+002 7.672378e+001 1.229130e+001 2.617005e+000 3.097064e+000 3.556945e+000 4.971772e+000 4.608794e+000 6.139648e+000 5.734338e+000 5.041005e+000 5.166715e+000 4.647630e+000 4.959893e+000 3.300701e+000 2.606724e-001 3.655494e-001 4.046202e-001 5.315337e-001 6.825463e-001 7.620244e-001 9.287978e-001 8.986691e-001 8.603463e-001 9.058484e-001 8.230809e-001 8.496356e-001 5.793129e-001 3.247117e-002
<GCONST> 1.416223e+002
<STATE> 4
<MEAN> 39
 -6.552189e+000 -1.001789e+001 -8.652695e+000 -1.644199e+001 2.149359e+000 -6.045008e+000 -5.074084e-001 -8.688983e+000 3.022526e+000 -5.892917e+000 -5.028669e+000 -2.015110e+000 1.783396e+001 -7.953878e-003 -1.666796e-002 2.638291e-004 3.513950e-002 -4.023203e-002 1.408994e-002 2.913175e-002 4.255795e-002 -6.565482e-003 5.002026e-003 6.308479e-004 1.358906e-002 -1.302817e-002 -7.641789e-004 3.123585e-003 -3.806164e-004 -1.554579e-004 2.724739e-004 -5.553859e-004 -1.217643e-003 1.655161e-003 -1.006761e-003 -1.554904e-004 3.276218e-004 -1.093508e-004 -5.012024e-004
<VARIANCE> 39
 8.962561e+001 1.793598e+002 1.851707e+002 2.219062e+002 1.913164e+002 2.291348e+002 1.340741e+002 1.307058e+002 1.223407e+002 9.860566e+001 1.005157e+002 7.667795e+001 1.242853e+001 2.608847e+000 3.074375e+000 3.552374e+000 4.962942e+000 4.665536e+000 6.139757e+000 5.767754e+000 5.057483e+000 5.146107e+000 4.661884e+000 4.943728e+000 3.293555e+000 2.618393e-001 3.650386e-001 4.028907e-001 5.308244e-001 6.813763e-001 7.714012e-001 9.295064e-001 9.040767e-001 8.627435e-001 9.018312e-001 8.265749e-001 8.452421e-001 5.771747e-001 3.252197e-002
<GCONST> 1.416684e+002
<TRANSP> 5
 0.000000e+000 1.000000e+000 0.000000e+000 0.000000e+000 0.000000e+000
 0.000000e+000 7.594758e-001 2.405242e-001 0.000000e+000 0.000000e+000
 0.000000e+000 0.000000e+000 7.594758e-001 2.405243e-001 0.000000e+000
 0.000000e+000 0.000000e+000 0.000000e+000 7.594772e-001 2.405228e-001
 0.000000e+000 0.000000e+000 0.000000e+000 0.000000e+000 0.000000e+000
<ENDHMM>
~h "t"
<BEGINHMM>
<NUMSTATES> 5
<STATE> 2
<MEAN> 39
 -6.287660e+000 -3.267435e+000 -1.010287e+001 -2.020682e+001 3.094218e+000 -7.598087e+000 -3.326297e+000 -9.850368e+000 2.375733e+000 -4.502866e+000 -2.850164e+000 -2.527025e+000 1.786897e+001 1.047711e-001 -1.544347e-001 5.189013e-003 -1.136741e-001 -1.939763e-002 7.113609e-002 7.313474e-003 -3.045854e-002 1.575352e-002 2.400840e-003 -6.185737e-002 -3.943649e-002 2.973457e-002 2.520295e-004 -6.801570e-003 -4.042722e-003 9.354608e-003 -1.572178e-003 7.625304e-003 4.560335e-003 3.339892e-003 -1.171097e-003 2.353215e-003 -5.884144e-004 1.113690e-003 -1.280102e-003
<VARIANCE> 39
 1.191372e+002 1.972669e+002 1.220366e+002 2.582098e+002 1.538656e+002 2.251115e+002 1.320958e+002 1.249901e+002 1.489462e+002 7.781866e+001 1.016062e+002 6.171563e+001 1.228743e+001 3.036254e+000 3.580153e+000 2.875295e+000 5.546920e+000 4.472252e+000 6.952543e+000 6.526400e+000 5.617384e+000 6.835529e+000 4.471992e+000 5.448735e+000 3.382037e+000 2.787420e-001 3.702512e-001 4.517488e-001 4.611383e-001 7.449687e-001 7.692851e-001 1.081725e+000 9.806454e-001 9.795637e-001 1.196747e+000 7.807256e-001 9.243284e-001 6.052529e-001 3.404273e-002
<GCONST> 1.430158e+002
<STATE> 3
<MEAN> 39
 -5.853204e+000 -3.925415e+000 -1.009309e+001 -2.063112e+001 3.005772e+000 -7.277327e+000 -3.282207e+000 -9.967031e+000 2.433914e+000 -4.486244e+000 -3.111211e+000 -2.688555e+000 1.798296e+001 1.041196e-001 -1.799845e-001 -1.106717e-002 -7.447340e-002 -2.604476e-002 1.005089e-001 2.640338e-002 -1.735302e-002 1.164613e-002 1.201036e-002 -6.341157e-002 -3.432264e-002 2.434214e-002 -1.617060e-003 -5.089945e-003 -3.583095e-003 1.063072e-002 -1.048649e-003 5.731317e-003 4.717112e-003 2.770922e-003 -4.943286e-004 1.994164e-003 -4.692070e-006 1.930462e-003 -1.424751e-003
<VARIANCE> 39
 1.128599e+002 1.981211e+002 1.261343e+002 2.560273e+002 1.581101e+002 2.274255e+002 1.289386e+002 1.240981e+002 1.482337e+002 7.860673e+001 1.008946e+002 6.204786e+001 1.175408e+001 2.902629e+000 3.528808e+000 2.887940e+000 5.478267e+000 4.437954e+000 6.915326e+000 6.342370e+000 5.544433e+000 6.677269e+000 4.509588e+000 5.408914e+000 3.373390e+000 2.663037e-001 3.580774e-001 4.458704e-001 4.640881e-001 7.376911e-001 7.594624e-001 1.072057e+000 9.594190e-001 9.607792e-001 1.167713e+000 7.847053e-001 9.208217e-001 6.022210e-001 3.268553e-002
<GCONST> 1.425810e+002
<STATE> 4
<MEAN> 39
 -5.428673e+000 -4.678080e+000 -1.014842e+001 -2.089136e+001 2.888858e+000 -6.844077e+000 -3.158053e+000 -1.003221e+001 2.478081e+000 -4.430472e+000 -3.374953e+000 -2.826651e+000 1.807421e+001 9.596749e-002 -1.984077e-001 -2.517231e-002 -3.085882e-002 -3.052267e-002 1.219759e-001 4.575544e-002 -6.545526e-003 1.031078e-002 1.994882e-002 -6.263023e-002 -2.582406e-002 1.842961e-002 -3.127467e-003 -3.058142e-003 -2.886517e-003 1.107355e-002 -5.792186e-004 3.476772e-003 4.445344e-003 2.245334e-003 1.257379e-004 1.296267e-003 3.566256e-004 2.743628e-003 -1.566147e-003
<VARIANCE> 39
 1.067931e+002 1.978564e+002 1.313869e+002 2.540846e+002 1.643979e+002 2.304762e+002 1.261320e+002 1.228712e+002 1.471778e+002 7.939500e+001 1.000739e+002 6.235510e+001 1.130752e+001 2.768455e+000 3.472112e+000 2.900744e+000 5.393099e+000 4.423913e+000 6.883138e+000 6.173535e+000 5.465026e+000 6.498798e+000 4.536825e+000 5.341650e+000 3.356833e+000 2.544398e-001 3.455798e-001 4.397159e-001 4.663151e-001 7.284515e-001 7.530999e-001 1.062666e+000 9.409647e-001 9.424527e-001 1.135080e+000 7.868412e-001 9.119915e-001 5.976408e-001 3.134116e-002
<GCONST> 1.421327e+002
<TRANSP> 5
 0.000000e+000 1.000000e+000 0.000000e+000 0.000000e+000 0.000000e+000
 0.000000e+000 7.592205e-001 2.407795e-001 0.000000e+000 0.000000e+000
 0.000000e+000 0.000000e+000 7.592204e-001 2.407796e-001 0.000000e+000
 0.000000e+000 0.000000e+000 0.000000e+000 7.592234e-001 2.407766e-001
 0.000000e+000 0.000000e+000 0.000000e+000 0.000000e+000 0.000000e+000
<ENDHMM>
~h "u"
<BEGINHMM>
<NUMSTATES> 5
<STATE> 2
<MEAN> 39
 -4.266644e+000 -2.450209e+000 -1.623745e+001 -2.126454e+001 8.247543e+000 1.682434e+000 -3.074562e+000 -1.047969e+001 -1.189025e+000 -6.165661e+000 -4.318636e+000 -3.759883e+000 1.757833e+001 -8.831690e-002 9.756673e-004 2.486706e-002 5.096294e-002 1.042078e-002 -8.746947e-002 8.139024e-004 3.084342e-002 3.333488e-002 -3.098264e-003 6.949747e-003 3.449263e-002 -1.049597e-002 -1.629409e-003 -9.630910e-004 3.212872e-003 -2.275615e-004 -8.105838e-004 -6.616746e-003 -2.687440e-004 -2.051627e-003 4.700145e-003 -2.062497e-003 4.888815e-004 6.818293e-004 1.213951e-003
<VARIANCE> 39
 1.175229e+002 1.631946e+002 1.232620e+002 2.107948e+002 1.130799e+002 2.843658e+002 1.087448e+002 1.387256e+002 1.577447e+002 5.334768e+001 8.268871e+001 6.116617e+001 1.463287e+001 2.988689e+000 3.911865e+000 3.357212e+000 4.145870e+000 3.253806e+000 5.940916e+000 5.451160e+000 5.306405e+000 6.015266e+000 3.830262e+000 4.616881e+000 2.980749e+000 2.706819e-001 3.864702e-001 5.774971e-001 5.096776e-001 4.922226e-001 5.910296e-001 7.825695e-001 8.566389e-001 9.417016e-001 1.041655e+000 7.063506e-001 8.249148e-001 5.479034e-001 3.311122e-002
<GCONST> 1.394471e+002
<STATE> 3
<MEAN> 39
 -4.629626e+000 -2.473130e+000 -1.611531e+001 -2.106256e+001 8.293390e+000 1.288882e+000 -3.072921e+000 -1.035242e+001 -1.036803e+000 -6.195252e+000 -4.302481e+000 -3.603389e+000 1.754443e+001 -9.421738e-002 -4.643443e-003 3.751702e-002 5.097321e-002 7.364365e-003 -1.124731e-001 -9.579655e-005 2.249482e-002 5.185126e-002 -1.158954e-002 8.459242e-003 3.669542e-002 -5.455105e-003 -1.049858e-003 -1.850891e-003 2.923702e-003 -2.114775e-004 -6.357916e-004 -6.020955e-003 -1.471825e-004 -2.250384e-003 4.563234e-003 -2.169432e-003 2.528472e-004 3.276310e-004 1.363832e-003
<VARIANCE> 39
 1.169028e+002 1.675288e+002 1.207626e+002 2.095119e+002 1.115333e+002 2.860356e+002 1.112343e+002 1.392074e+002 1.612368e+002 5.382766e+001 8.379145e+001 6.011095e+001 1.490487e+001 3.045227e+000 3.971746e+000 3.312142e+000 4.172566e+000 3.282527e+000 6.011967e+000 5.531619e+000 5.361785e+000 6.131567e+000 3.844889e+000 4.662816e+000 2.963745e+000 2.769279e-001 3.971229e-001 5.911393e-001 5.021255e-001 4.899594e-001 5.995889e-001 7.909162e-001 8.675121e-001 9.592442e-001 1.065982e+000 7.116744e-001 8.315426e-001 5.464756e-001 3.414980e-002
<GCONST> 1.397812e+002
<STATE> 4
<MEAN> 39
 -5.012753e+000 -2.526557e+000 -1.594323e+001 -2.085590e+001 8.327194e+000 8.028038e-001 -3.075132e+000 -1.025875e+001 -8.118391e-001 -6.259297e+000 -4.282856e+000 -3.440621e+000 1.753093e+001 -9.755161e-002 -1.378986e-002 4.891677e-002 5.119224e-002 4.860285e-003 -1.346306e-001 -6.920338e-004 1.344946e-002 6.964497e-002 -2.030960e-002 8.802701e-003 3.737688e-002 -5.886269e-006 -3.627735e-004 -2.711665e-003 2.527346e-003 -1.070369e-004 -5.400006e-004 -5.148332e-003 -5.494486e-005 -2.365445e-003 4.249860e-003 -2.141488e-003 -6.264048e-005 -8.657517e-006 1.419032e-003
<VARIANCE> 39
 1.158490e+002 1.728499e+002 1.181847e+002 2.083377e+002 1.100756e+002 2.875813e+002 1.137595e+002 1.393450e+002 1.646673e+002 5.450394e+001 8.484816e+001 5.888523e+001 1.511581e+001 3.106225e+000 4.039516e+000 3.264811e+000 4.207724e+000 3.313157e+000 6.064577e+000 5.612458e+000 5.420169e+000 6.258248e+000 3.856225e+000 4.698961e+000 2.946613e+000 2.821485e-001 4.080392e-001 6.050662e-001 4.949737e-001 4.889690e-001 6.080798e-001 7.983952e-001 8.785837e-001 9.778075e-001 1.093562e+000 7.159424e-001 8.359650e-001 5.450004e-001 3.511443e-002
<GCONST> 1.401008e+002
<TRANSP> 5
 0.000000e+000 1.000000e+000 0.000000e+000 0.000000e+000 0.000000e+000
 0.000000e+000 7.593212e-001 2.406787e-001 0.000000e+000 0.000000e+000
 0.000000e+000 0.000000e+000 7.593220e-001 2.406780e-001 0.000000e+000
 0.000000e+000 0.000000e+000 0.000000e+000 7.593237e-001 2.406763e-001
 0.000000e+000 0.000000e+000 0.000000e+000 0.000000e+000 0.000000e+000
<ENDHMM>
~h "v"
<BEGINHMM>
<NUMSTATES> 5
<STATE> 2
<MEAN> 39
 -5.938167e+000 -8.388096e+000 -8.409334e+000 -1.686533e+001 -2.748091e-001 -8.839752e+000 -2.181136e+000 -7.774702e+000 4.507584e+000 -4.537668e+000 -5.606646e+000 -2.875301e+000 1.757219e+001 1.882477e-002 -1.670661e-002 -9.150072e-003 -5.841682e-003 -1.048024e-002 7.379573e-003 1.469343e-002 7.235673e-004 -8.801198e-003 -1.656047e-002 -4.119906e-003 5.882395e-003 1.322799e-003 -2.770592e-004 1.278609e-003 -3.920855e-004 1.058744e-003 -7.085715e-004 2.023603e-004 -3.430494e-004 9.337859e-004 2.455873e-004 5.899992e-004 3.318597e-004 6.456602e-004 -5.277628e-004
<VARIANCE> 39
 9.915139e+001 1.504133e+002 1.745068e+002 1.695237e+002 1.500094e+002 2.692721e+002 1.286573e+002 1.342263e+002 1.130941e+002 9.557080e+001 1.055695e+002 9.100556e+001 1.273544e+001 3.597149e+000 2.974533e+000 4.517985e+000 5.602950e+000 5.087849e+000 7.406470e+000 5.804983e+000 4.995698e+000 4.848884e+000 4.188909e+000 5.801758e+000 3.577028e+000 3.121568e-001 4.949816e-001 3.987730e-001 7.072139e-001 8.152431e-001 8.720046e-001 1.052687e+000 8.907776e-001 8.568284e-001 8.580071e-001 7.579026e-001 9.594899e-001 6.238253e-001 4.354274e-002
<GCONST> 1.438191e+002
<STATE> 3
<MEAN> 39
 -5.867937e+000 -8.442813e+000 -8.447372e+000 -1.688065e+001 -3.253047e-001 -8.821605e+000 -2.124339e+000 -7.766967e+000 4.474762e+000 -4.605497e+000 -5.617400e+000 -2.843051e+000 1.757436e+001 1.756114e-002 -1.120812e-002 -1.101800e-002 -1.623083e-003 -1.320238e-002 8.156448e-003 1.317255e-002 4.526155e-003 -7.685113e-003 -1.402864e-002 -2.509759e-003 8.320604e-003 -8.099598e-004 -4.041761e-004 1.406893e-003 -4.061738e-004 1.108405e-003 -6.521888e-004 1.722626e-004 -4.055315e-004 9.699517e-004 2.667939e-004 6.524210e-004 3.963361e-004 5.632894e-004 -5.436869e-004
<VARIANCE> 39
 9.892441e+001 1.505814e+002 1.755299e+002 1.681485e+002 1.493361e+002 2.651497e+002 1.291718e+002 1.350357e+002 1.127357e+002 9.628490e+001 1.048633e+002 9.085329e+001 1.265083e+001 3.555612e+000 2.965253e+000 4.503613e+000 5.553143e+000 5.058833e+000 7.368134e+000 5.819576e+000 5.010433e+000 4.844842e+000 4.189999e+000 5.755510e+000 3.568929e+000 3.085079e-001 4.894012e-001 3.972767e-001 7.039886e-001 8.105522e-001 8.676061e-001 1.049406e+000 8.933842e-001 8.580767e-001 8.567666e-001 7.571153e-001 9.541912e-001 6.221424e-001 4.296939e-002
<GCONST> 1.436868e+002
<STATE> 4
<MEAN> 39
 -5.803475e+000 -8.474010e+000 -8.493738e+000 -1.687910e+001 -3.863751e-001 -8.800480e+000 -2.074184e+000 -7.743776e+000 4.446861e+000 -4.662548e+000 -5.620546e+000 -2.801680e+000 1.756798e+001 1.577683e-002 -5.292231e-003 -1.273503e-002 2.788867e-003 -1.575898e-002 8.794420e-003 1.142849e-002 8.473865e-003 -6.495708e-003 -1.126922e-002 -7.020012e-004 1.041743e-002 -2.973499e-003 -5.427792e-004 1.485080e-003 -3.334095e-004 1.129378e-003 -6.058848e-004 1.085146e-004 -4.494887e-004 1.002075e-003 3.110819e-004 6.997055e-004 4.389338e-004 4.735554e-004 -5.377241e-004
<VARIANCE> 39
 9.879211e+001 1.508435e+002 1.767969e+002 1.669706e+002 1.488111e+002 2.613734e+002 1.297449e+002 1.360374e+002 1.124139e+002 9.698842e+001 1.042299e+002 9.069279e+001 1.259702e+001 3.516225e+000 2.956961e+000 4.488732e+000 5.506622e+000 5.030659e+000 7.331936e+000 5.833705e+000 5.027941e+000 4.841783e+000 4.193268e+000 5.713056e+000 3.560990e+000 3.051228e-001 4.842564e-001 3.959118e-001 7.007401e-001 8.062217e-001 8.633870e-001 1.046512e+000 8.958237e-001 8.596832e-001 8.555314e-001 7.569140e-001 9.491262e-001 6.204734e-001 4.240975e-002
<GCONST> 1.435730e+002
<TRANSP> 5
 0.000000e+000 1.000000e+000 0.000000e+000 0.000000e+000 0.000000e+000
 0.000000e+000 7.595266e-001 2.404735e-001 0.000000e+000 0.000000e+000
 0.000000e+000 0.000000e+000 7.595271e-001 2.404728e-001 0.000000e+000
 0.000000e+000 0.000000e+000 0.000000e+000 7.595287e-001 2.404713e-001
 0.000000e+000 0.000000e+000 0.000000e+000 0.000000e+000 0.000000e+000
<ENDHMM>
~h "w"
<BEGINHMM>
<NUMSTATES> 5
<STATE> 2
<MEAN> 39
 -5.746074e+000 -4.014888e+000 -4.015768e+000 -1.919432e+001 -3.418609e+000 -9.101032e+000 -6.243359e+000 -1.113818e+001 5.075029e+000 -4.076247e+000 -7.003567e+000 -7.239996e-001 1.731504e+001 1.929764e-002 -6.797377e-002 -7.706882e-002 4.242639e-003 -3.652524e-002 2.569601e-003 5.432095e-002 1.010743e-001 5.286479e-002 1.088895e-002 3.135832e-002 -1.165114e-002 -1.003219e-003 1.376355e-004 -9.457571e-004 -2.107234e-003 1.780095e-004 1.080529e-003 1.091476e-004 1.710295e-003 1.483801e-003 3.941817e-004 -1.518808e-004 2.546541e-004 -9.816167e-004 1.853541e-004
<VARIANCE> 39
 9.348834e+001 1.429662e+002 1.972518e+002 1.883688e+002 1.441463e+002 3.090151e+002 1.361042e+002 1.707102e+002 9.636540e+001 7.828308e+001 8.984578e+001 1.276031e+002 1.389692e+001 3.793708e+000 3.212819e+000 5.328811e+000 6.245376e+000 4.787312e+000 8.727385e+000 7.060569e+000 4.879250e+000 4.875271e+000 4.910593e+000 5.306682e+000 3.571634e+000 3.558209e-001 5.433641e-001 4.186292e-001 8.800123e-001 8.454013e-001 8.401413e-001 1.227189e+000 1.121012e+000 8.760390e-001 8.827234e-001 9.471209e-001 8.876122e-001 6.224386e-001 4.802002e-002
<GCONST> 1.461543e+002
<STATE> 3
<MEAN> 39
 -5.663240e+000 -4.314006e+000 -4.364911e+000 -1.917317e+001 -3.549955e+000 -9.089841e+000 -6.001825e+000 -1.070537e+001 5.291847e+000 -4.034284e+000 -6.869213e+000 -7.698398e-001 1.731319e+001 2.008885e-002 -7.145529e-002 -8.531410e-002 4.467738e-003 -3.216646e-002 2.763784e-003 6.121156e-002 1.068561e-001 5.414265e-002 1.044438e-002 3.215674e-002 -1.534077e-002 -2.324024e-004 1.884740e-004 -7.219167e-004 -1.962941e-003 2.850719e-005 1.036740e-003 9.876413e-005 1.642307e-003 1.257539e-003 2.665197e-004 -1.186011e-004 1.458683e-004 -8.602479e-004 1.725841e-004
<VARIANCE> 39
 9.318932e+001 1.428949e+002 1.948347e+002 1.852595e+002 1.418555e+002 3.119138e+002 1.379376e+002 1.735896e+002 9.694705e+001 7.832262e+001 8.909671e+001 1.232925e+002 1.385691e+001 3.824278e+000 3.221014e+000 5.310062e+000 6.255640e+000 4.792958e+000 8.889860e+000 7.133987e+000 4.891783e+000 4.910213e+000 4.964790e+000 5.371417e+000 3.557989e+000 3.578493e-001 5.497439e-001 4.203334e-001 8.793760e-001 8.546442e-001 8.441665e-001 1.251087e+000 1.136059e+000 8.746606e-001 8.924795e-001 9.568131e-001 9.056976e-001 6.202452e-001 4.872533e-002
<GCONST> 1.462934e+002
<STATE> 4
<MEAN> 39
 -5.576751e+000 -4.625989e+000 -4.745129e+000 -1.915293e+001 -3.664155e+000 -9.077708e+000 -5.732591e+000 -1.025056e+001 5.511844e+000 -3.993857e+000 -6.732810e+000 -8.299186e-001 1.731438e+001 2.095520e-002 -7.395680e-002 -9.271754e-002 4.332661e-003 -2.832305e-002 3.221833e-003 6.770828e-002 1.115469e-001 5.475473e-002 9.996741e-003 3.244165e-002 -1.869952e-002 4.056710e-004 2.180846e-004 -4.896581e-004 -1.781721e-003 9.094605e-006 8.471364e-004 1.515077e-004 1.564434e-003 9.972475e-004 1.331431e-004 -1.300715e-004 5.067350e-007 -7.595281e-004 1.343795e-004
<VARIANCE> 39
 9.293636e+001 1.426967e+002 1.925627e+002 1.820634e+002 1.397512e+002 3.142468e+002 1.396243e+002 1.762291e+002 9.756184e+001 7.843300e+001 8.833492e+001 1.188898e+002 1.379973e+001 3.850962e+000 3.227304e+000 5.291613e+000 6.254994e+000 4.803257e+000 9.039958e+000 7.199183e+000 4.907370e+000 4.945299e+000 5.014184e+000 5.433976e+000 3.543770e+000 3.592900e-001 5.555482e-001 4.218915e-001 8.785505e-001 8.626216e-001 8.487687e-001 1.273598e+000 1.149897e+000 8.736651e-001 9.023890e-001 9.651347e-001 9.237791e-001 6.182159e-001 4.934859e-002
<GCONST> 1.464094e+002
<TRANSP> 5
 0.000000e+000 1.000000e+000 0.000000e+000 0.000000e+000 0.000000e+000
 0.000000e+000 7.595945e-001 2.404055e-001 0.000000e+000 0.000000e+000
 0.000000e+000 0.000000e+000 7.595949e-001 2.404051e-001 0.000000e+000
 0.000000e+000 0.000000e+000 0.000000e+000 7.595957e-001 2.404043e-001
 0.000000e+000 0.000000e+000 0.000000e+000 0.000000e+000 0.000000e+000
<ENDHMM>
~h "x"
<BEGINHMM>
<NUMSTATES> 5
<STATE> 2
<MEAN> 39
 -6.351313e+000 -1.580743e+001 -2.229115e+000 -1.534858e+001 1.192811e+000 -2.466127e+000 1.528699e+000 -9.786448e+000 3.495019e+000 -4.970151e+000 -9.157610e+000 -6.198402e+000 1.812569e+001 1.017926e-002 7.433370e-002 8.221860e-002 -2.753896e-002 -1.005089e-001 -3.857955e-002 3.546963e-002 -4.350424e-002 8.745247e-003 1.718124e-003 -7.975140e-003 -7.919008e-002 2.758692e-003 -1.643041e-003 2.032647e-003 6.317558e-004 -4.782587e-004 -1.694328e-003 6.638056e-004 1.217118e-004 2.986978e-004 1.044896e-003 1.438461e-003 2.368013e-003 7.824978e-004 -6.479002e-004
<VARIANCE> 39
 6.057683e+001 1.181214e+002 1.765827e+002 1.903436e+002 1.910874e+002 1.142338e+002 9.197143e+001 8.478149e+001 7.587202e+001 1.061052e+002 1.101792e+002 6.686172e+001 8.213429e+000 2.104236e+000 2.817443e+000 3.923935e+000 4.726750e+000 3.771793e+000 3.840499e+000 5.332075e+000 4.718658e+000 4.448645e+000 4.932642e+000 4.002049e+000 2.937368e+000 2.574911e-001 3.406483e-001 3.796976e-001 5.793060e-001 5.867000e-001 5.443648e-001 6.073990e-001 9.605719e-001 7.943962e-001 7.734272e-001 8.902410e-001 6.886288e-001 5.193417e-001 2.903588e-002
<GCONST> 1.352843e+002
<STATE> 3
<MEAN> 39
 -6.327620e+000 -1.548201e+001 -1.894581e+000 -1.545599e+001 7.784334e-001 -2.607034e+000 1.661534e+000 -9.970971e+000 3.540986e+000 -4.939475e+000 -9.159406e+000 -6.502216e+000 1.812827e+001 3.980551e-003 8.139700e-002 8.314496e-002 -2.865800e-002 -1.058079e-001 -3.520992e-002 3.483136e-002 -4.162746e-002 1.204777e-002 6.689908e-003 1.311540e-003 -7.516939e-002 1.330175e-004 -1.557369e-003 1.685034e-003 2.494650e-004 -1.961242e-004 -1.250100e-003 8.127171e-004 -1.396838e-004 4.653512e-004 8.058225e-004 1.239486e-003 2.261424e-003 1.015502e-003 -6.474290e-004
<VARIANCE> 39
 6.130541e+001 1.185604e+002 1.799188e+002 1.919082e+002 1.973470e+002 1.159662e+002 9.407074e+001 8.614403e+001 7.592386e+001 1.063748e+002 1.120269e+002 6.577706e+001 8.021086e+000 2.114981e+000 2.816351e+000 3.951899e+000 4.616810e+000 3.793175e+000 3.799745e+000 5.373127e+000 4.752454e+000 4.472266e+000 4.915225e+000 4.035641e+000 2.886872e+000 2.499832e-001 3.432159e-001 3.816531e-001 5.843323e-001 5.684947e-001 5.439655e-001 6.032403e-001 9.732571e-001 7.999625e-001 7.804728e-001 8.850076e-001 6.932427e-001 5.089874e-001 2.823952e-002
<GCONST> 1.353179e+002
<STATE> 4
<MEAN> 39
 -6.326655e+000 -1.513321e+001 -1.563118e+000 -1.556400e+001 3.488304e-001 -2.731214e+000 1.786996e+000 -1.014474e+001 3.595889e+000 -4.892824e+000 -9.124591e+000 -6.786271e+000 1.812023e+001 -1.763486e-003 8.674944e-002 8.251770e-002 -2.849744e-002 -1.093421e-001 -3.129986e-002 3.317471e-002 -3.885918e-002 1.429060e-002 1.086969e-002 1.025681e-002 -7.019458e-002 -2.465461e-003 -1.438067e-003 1.198632e-003 -1.547000e-004 1.198468e-004 -7.918535e-004 9.362728e-004 -3.849354e-004 7.374884e-004 5.580351e-004 1.074563e-003 2.170616e-003 1.264616e-003 -6.359509e-004
<VARIANCE> 39
 6.205392e+001 1.195287e+002 1.827311e+002 1.935242e+002 2.035396e+002 1.178366e+002 9.641133e+001 8.777195e+001 7.610188e+001 1.065651e+002 1.141305e+002 6.464362e+001 7.897228e+000 2.129402e+000 2.824602e+000 3.985632e+000 4.513939e+000 3.819911e+000 3.769172e+000 5.417144e+000 4.800038e+000 4.496310e+000 4.901161e+000 4.072782e+000 2.844511e+000 2.438142e-001 3.463128e-001 3.843252e-001 5.910847e-001 5.517269e-001 5.442640e-001 6.007122e-001 9.864907e-001 8.069817e-001 7.877453e-001 8.803681e-001 6.987889e-001 4.998804e-001 2.758929e-002
<GCONST> 1.354134e+002
<TRANSP> 5
 0.000000e+000 1.000000e+000 0.000000e+000 0.000000e+000 0.000000e+000
 0.000000e+000 7.598497e-001 2.401503e-001 0.000000e+000 0.000000e+000
 0.000000e+000 0.000000e+000 7.598498e-001 2.401502e-001 0.000000e+000
 0.000000e+000 0.000000e+000 0.000000e+000 7.598504e-001 2.401496e-001
 0.000000e+000 0.000000e+000 0.000000e+000 0.000000e+000 0.000000e+000
<ENDHMM>
~h "z"
<BEGINHMM>
<NUMSTATES> 5
<STATE> 2
<MEAN> 39
 -8.354055e+000 -1.753493e+001 -5.046193e+000 -1.497452e+001 3.364644e+000 -4.933502e+000 2.961472e+000 -7.490542e+000 1.715380e+000 -1.048741e+001 -4.716168e+000 -2.099237e+000 1.869184e+001 7.518864e-002 2.251350e-002 -8.301565e-002 1.366123e-002 2.498925e-002 1.129171e-002 -1.114113e-001 -6.248659e-003 -2.895332e-002 3.542564e-002 -6.684942e-002 1.293402e-002 -1.264601e-002 -1.104828e-003 5.388079e-003 6.672365e-004 5.993815e-003 -3.475828e-005 2.790220e-003 -2.052954e-003 6.805195e-003 -1.331131e-003 3.702380e-003 1.058181e-003 3.509269e-003 -1.789372e-003
<VARIANCE> 39
 6.738754e+001 1.074044e+002 1.452001e+002 1.669724e+002 1.690574e+002 1.974355e+002 1.253091e+002 1.093152e+002 1.120098e+002 1.106804e+002 1.027009e+002 7.003926e+001 1.034804e+001 2.130579e+000 2.482524e+000 3.144408e+000 4.828615e+000 3.826188e+000 4.374356e+000 4.807553e+000 5.061020e+000 4.005785e+000 4.454016e+000 3.687649e+000 3.368280e+000 2.315945e-001 3.320143e-001 3.179744e-001 4.813276e-001 6.967623e-001 6.016709e-001 7.072454e-001 7.996157e-001 8.212280e-001 6.966699e-001 7.777830e-001 6.524540e-001 6.059499e-001 2.699413e-002
<GCONST> 1.358085e+002
<STATE> 3
<MEAN> 39
 -8.068041e+000 -1.738641e+001 -5.379701e+000 -1.487029e+001 3.466174e+000 -4.855961e+000 2.483415e+000 -7.434396e+000 1.588428e+000 -1.030803e+001 -4.968867e+000 -2.028261e+000 1.862455e+001 6.829823e-002 4.168072e-002 -7.943955e-002 3.193959e-002 2.519057e-002 2.207650e-002 -1.166950e-001 1.842166e-002 -2.983748e-002 4.537731e-002 -5.774448e-002 2.109394e-002 -1.765100e-002 -1.940453e-003 4.252496e-003 9.107540e-004 4.107150e-003 -1.674027e-004 2.322712e-003 -1.084426e-003 5.649121e-003 -2.570236e-004 2.034281e-003 2.438168e-003 1.779704e-003 -1.072491e-003
<VARIANCE> 39
 6.920728e+001 1.077706e+002 1.473289e+002 1.684547e+002 1.712824e+002 2.043833e+002 1.243565e+002 1.088852e+002 1.127440e+002 1.102713e+002 1.016396e+002 6.872591e+001 1.035438e+001 2.092262e+000 2.455311e+000 3.142054e+000 4.861118e+000 3.815059e+000 4.473675e+000 4.801858e+000 4.940008e+000 3.976940e+000 4.379912e+000 3.649527e+000 3.310464e+000 2.290114e-001 3.214491e-001 3.135382e-001 4.774845e-001 7.056605e-001 6.003715e-001 7.230927e-001 8.017198e-001 8.068322e-001 6.883473e-001 7.668037e-001 6.462233e-001 5.968376e-001 2.669456e-002
<GCONST> 1.356812e+002
<STATE> 4
<MEAN> 39
 -7.818573e+000 -1.717112e+001 -5.700251e+000 -1.471867e+001 3.573192e+000 -4.740892e+000 1.998715e+000 -7.300014e+000 1.475898e+000 -1.010389e+001 -5.168696e+000 -1.947338e+000 1.854535e+001 5.843407e-002 5.622116e-002 -7.649747e-002 4.205282e-002 2.575263e-002 2.989134e-002 -1.174614e-001 3.567981e-002 -2.653693e-002 5.003923e-002 -4.425715e-002 2.259906e-002 -1.998315e-002 -2.629129e-003 3.173922e-003 6.560961e-004 2.131323e-003 -9.388232e-006 1.609741e-003 1.844857e-005 3.784430e-003 7.840434e-004 8.345730e-004 3.438917e-003 1.334466e-004 -4.378815e-004
<VARIANCE> 39
 7.176739e+001 1.093909e+002 1.502894e+002 1.706023e+002 1.738562e+002 2.117294e+002 1.236468e+002 1.090838e+002 1.135338e+002 1.100242e+002 1.017630e+002 6.792155e+001 1.043174e+001 2.078712e+000 2.460224e+000 3.169826e+000 4.922019e+000 3.824341e+000 4.579372e+000 4.818038e+000 4.867746e+000 3.992952e+000 4.351927e+000 3.645042e+000 3.270354e+000 2.287276e-001 3.155152e-001 3.125354e-001 4.784954e-001 7.179682e-001 6.023679e-001 7.391166e-001 8.077050e-001 7.986856e-001 6.887858e-001 7.629254e-001 6.459275e-001 5.898865e-001 2.658379e-002
<GCONST> 1.358264e+002
<TRANSP> 5
 0.000000e+000 1.000000e+000 0.000000e+000 0.000000e+000 0.000000e+000
 0.000000e+000 7.598665e-001 2.401335e-001 0.000000e+000 0.000000e+000
 0.000000e+000 0.000000e+000 7.598665e-001 2.401335e-001 0.000000e+000
 0.000000e+000 0.000000e+000 0.000000e+000 7.598672e-001 2.401328e-001
 0.000000e+000 0.000000e+000 0.000000e+000 0.000000e+000 0.000000e+000
<ENDHMM>
~h "@@"
<BEGINHMM>
<NUMSTATES> 5
<STATE> 2
<MEAN> 39
 -6.361616e+000 -9.178532e+000 -9.641380e+000 -1.618931e+001 2.026585e+000 -5.341586e+000 -8.505765e-001 -7.538171e+000 2.764335e+000 -5.399510e+000 -4.873233e+000 -2.063340e+000 1.756349e+001 4.633639e-004 -1.780660e-002 -1.268627e-002 2.368069e-002 -3.138794e-003 1.437582e-002 1.527098e-003 6.202135e-004 2.090152e-003 -3.855772e-003 5.414532e-003 2.029644e-003 -5.176151e-003 6.677713e-005 2.838281e-004 9.853790e-004 9.491708e-004 -3.930739e-004 8.778341e-004 -2.699138e-004 -4.459561e-004 1.055702e-003 8.427092e-004 3.920202e-004 4.302216e-004 -2.329990e-004
<VARIANCE> 39
 9.899851e+001 1.968315e+002 1.794712e+002 2.159973e+002 1.789731e+002 2.454695e+002 1.285923e+002 1.363475e+002 1.264820e+002 9.101537e+001 9.892865e+001 7.235647e+001 1.319720e+001 2.738713e+000 3.223311e+000 3.709825e+000 5.193106e+000 4.562305e+000 6.206421e+000 5.739488e+000 5.230199e+000 5.382351e+000 4.421412e+000 4.884223e+000 3.339144e+000 2.813958e-001 3.694898e-001 4.172590e-001 5.668001e-001 7.284416e-001 7.607861e-001 9.627301e-001 9.169531e-001 8.957334e-001 9.310423e-001 7.840921e-001 8.366143e-001 5.846421e-001 3.547892e-002
<GCONST> 1.423330e+002
<STATE> 3
<MEAN> 39
 -6.357529e+000 -9.243459e+000 -9.694373e+000 -1.608036e+001 2.005952e+000 -5.285380e+000 -8.474078e-001 -7.533848e+000 2.781402e+000 -5.415043e+000 -4.852666e+000 -2.055877e+000 1.754001e+001 1.354887e-003 -1.657611e-002 -9.266939e-003 2.708392e-002 -4.829724e-003 1.860419e-002 3.089998e-004 -2.426815e-004 6.384315e-003 -5.080205e-004 6.876459e-003 3.692270e-003 -6.138268e-003 7.789677e-004 6.234107e-005 6.444200e-004 6.049751e-005 -6.459802e-004 1.311099e-003 -4.107482e-004 1.049982e-003 9.638068e-004 4.790363e-004 -3.551151e-005 5.895406e-004 -9.312413e-005
<VARIANCE> 39
 9.866052e+001 1.947316e+002 1.802183e+002 2.164476e+002 1.812235e+002 2.456203e+002 1.286000e+002 1.366255e+002 1.268244e+002 9.105042e+001 9.878288e+001 7.232626e+001 1.342321e+001 2.723006e+000 3.205535e+000 3.693582e+000 5.178859e+000 4.530140e+000 6.210530e+000 5.733484e+000 5.223247e+000 5.372648e+000 4.430834e+000 4.863420e+000 3.327179e+000 2.792482e-001 3.680416e-001 4.156521e-001 5.645400e-001 7.283736e-001 7.568268e-001 9.663432e-001 9.168161e-001 8.938558e-001 9.293889e-001 7.855512e-001 8.341495e-001 5.829055e-001 3.532193e-002
<GCONST> 1.422902e+002
<STATE> 4
<MEAN> 39
 -6.347023e+000 -9.303293e+000 -9.736481e+000 -1.595996e+001 1.978206e+000 -5.208963e+000 -8.494392e-001 -7.528940e+000 2.815964e+000 -5.417102e+000 -4.826718e+000 -2.041916e+000 1.751259e+001 5.030646e-003 -1.638202e-002 -7.539987e-003 2.670259e-002 -7.560133e-003 2.462724e-002 -1.152770e-003 5.173380e-003 1.024614e-002 1.346976e-003 6.622852e-003 6.318629e-003 -6.532935e-003 1.134358e-003 1.601173e-006 -3.264643e-004 -5.380173e-004 -1.386702e-003 1.352531e-003 3.194400e-005 2.473059e-003 9.933815e-004 -7.984730e-005 -4.630077e-004 1.040389e-003 -4.180833e-005
<VARIANCE> 39
 9.834654e+001 1.927485e+002 1.805511e+002 2.168569e+002 1.839564e+002 2.465335e+002 1.284885e+002 1.370078e+002 1.272590e+002 9.121131e+001 9.884556e+001 7.228362e+001 1.365284e+001 2.704411e+000 3.177763e+000 3.674770e+000 5.173834e+000 4.520571e+000 6.222925e+000 5.744222e+000 5.209669e+000 5.369513e+000 4.446104e+000 4.842243e+000 3.317731e+000 2.773001e-001 3.662117e-001 4.131158e-001 5.619241e-001 7.293046e-001 7.559830e-001 9.707937e-001 9.202869e-001 8.909820e-001 9.287752e-001 7.884027e-001 8.316905e-001 5.817419e-001 3.520242e-002
<GCONST> 1.422737e+002
<TRANSP> 5
 0.000000e+000 1.000000e+000 0.000000e+000 0.000000e+000 0.000000e+000
 0.000000e+000 7.594494e-001 2.405505e-001 0.000000e+000 0.000000e+000
 0.000000e+000 0.000000e+000 7.594516e-001 2.405484e-001 0.000000e+000
 0.000000e+000 0.000000e+000 0.000000e+000 7.594532e-001 2.405468e-001
 0.000000e+000 0.000000e+000 0.000000e+000 0.000000e+000 0.000000e+000
<ENDHMM>
~h "aa"
<BEGINHMM>
<NUMSTATES> 5
<STATE> 2
<MEAN> 39
 -8.006778e+000 -1.399456e+001 -6.064294e+000 -1.543790e+001 3.108762e+000 -5.952789e+000 7.686827e-001 -6.952710e+000 1.750498e+000 -8.222313e+000 -5.041592e+000 -1.359282e+000 1.815478e+001 2.104493e-002 5.082352e-002 -1.827467e-002 -2.618645e-002 7.702770e-003 1.646942e-002 -4.611045e-002 1.234870e-002 7.449075e-004 4.374820e-002 -2.547492e-003 -1.213914e-002 -6.671764e-003 -1.028820e-003 -7.568330e-004 1.310074e-003 -8.387021e-004 -2.545171e-004 1.481083e-004 2.239021e-003 -8.911537e-004 1.103132e-003 -1.837887e-004 1.030869e-003 -8.325308e-004 3.912637e-004
<VARIANCE> 39
 8.325699e+001 1.496084e+002 1.734525e+002 2.006936e+002 1.970233e+002 2.286554e+002 1.330238e+002 1.231167e+002 1.137955e+002 1.150310e+002 1.110847e+002 7.522102e+001 1.173075e+001 2.281171e+000 2.673066e+000 3.467575e+000 5.165640e+000 4.343755e+000 5.211636e+000 5.100447e+000 4.983911e+000 4.367558e+000 4.707333e+000 4.414033e+000 3.470509e+000 2.581658e-001 3.313346e-001 3.362053e-001 5.105467e-001 7.336094e-001 6.915825e-001 8.118497e-001 8.251224e-001 8.399512e-001 7.568776e-001 8.326537e-001 7.516104e-001 6.221351e-001 3.009670e-002
<GCONST> 1.395577e+002
<STATE> 3
<MEAN> 39
 -7.933097e+000 -1.379059e+001 -6.122783e+000 -1.556413e+001 3.137533e+000 -5.881691e+000 6.102075e-001 -6.914723e+000 1.770049e+000 -8.041600e+000 -5.047203e+000 -1.428768e+000 1.813188e+001 1.699071e-002 4.665642e-002 -1.314651e-002 -2.946994e-002 6.300946e-003 1.664205e-002 -3.622884e-002 7.205927e-003 5.374517e-003 4.197701e-002 7.968242e-004 -1.576380e-002 -4.934821e-003 -9.594923e-004 -1.249246e-003 1.161974e-003 -7.691755e-004 -2.996380e-004 6.748849e-005 2.434167e-003 -1.242856e-003 1.046631e-003 -4.855591e-004 7.598735e-004 -8.506700e-004 4.284706e-004
<VARIANCE> 39
 8.481989e+001 1.505167e+002 1.759053e+002 2.015867e+002 1.973089e+002 2.309672e+002 1.334603e+002 1.240393e+002 1.137418e+002 1.150316e+002 1.128699e+002 7.538982e+001 1.184360e+001 2.281641e+000 2.700850e+000 3.524107e+000 5.223051e+000 4.386152e+000 5.254534e+000 5.133540e+000 5.004221e+000 4.410742e+000 4.762262e+000 4.451666e+000 3.486244e+000 2.610342e-001 3.314068e-001 3.390680e-001 5.191914e-001 7.425616e-001 6.974841e-001 8.163990e-001 8.327105e-001 8.441815e-001 7.645270e-001 8.423420e-001 7.583215e-001 6.256196e-001 3.036481e-002
<GCONST> 1.398729e+002
<STATE> 4
<MEAN> 39
 -7.875195e+000 -1.360755e+001 -6.160719e+000 -1.570116e+001 3.158834e+000 -5.811503e+000 4.940810e-001 -6.901992e+000 1.807848e+000 -7.871171e+000 -5.043168e+000 -1.512290e+000 1.811619e+001 1.336219e-002 4.065501e-002 -8.511253e-003 -3.193951e-002 4.742984e-003 1.661264e-002 -2.588427e-002 1.225496e-003 9.468983e-003 3.930265e-002 2.857192e-003 -1.898124e-002 -3.196519e-003 -8.410332e-004 -1.646895e-003 1.056739e-003 -5.372504e-004 -3.240115e-004 3.594956e-005 2.523168e-003 -1.402767e-003 9.118976e-004 -6.852722e-004 4.330499e-004 -7.351468e-004 4.142043e-004
<VARIANCE> 39
 8.609499e+001 1.513977e+002 1.782707e+002 2.019429e+002 1.974568e+002 2.323498e+002 1.339546e+002 1.248741e+002 1.135146e+002 1.150007e+002 1.144751e+002 7.560164e+001 1.195234e+001 2.280983e+000 2.728735e+000 3.578841e+000 5.269381e+000 4.421341e+000 5.283414e+000 5.162890e+000 5.023843e+000 4.450836e+000 4.813133e+000 4.486016e+000 3.503154e+000 2.637259e-001 3.315937e-001 3.418994e-001 5.275371e-001 7.498108e-001 7.022022e-001 8.187380e-001 8.398730e-001 8.481216e-001 7.716843e-001 8.510247e-001 7.647230e-001 6.292663e-001 3.062402e-002
<GCONST> 1.401492e+002
<TRANSP> 5
 0.000000e+000 1.000000e+000 0.000000e+000 0.000000e+000 0.000000e+000
 0.000000e+000 7.597820e-001 2.402181e-001 0.000000e+000 0.000000e+000
 0.000000e+000 0.000000e+000 7.597827e-001 2.402173e-001 0.000000e+000
 0.000000e+000 0.000000e+000 0.000000e+000 7.597840e-001 2.402160e-001
 0.000000e+000 0.000000e+000 0.000000e+000 0.000000e+000 0.000000e+000
<ENDHMM>
~h "ee"
<BEGINHMM>
<NUMSTATES> 5
<STATE> 2
<MEAN> 39
 -6.470246e+000 -8.360426e+000 -6.266669e+000 -1.342906e+001 -1.473445e+000 -7.874691e+000 -2.307366e+000 -3.635369e+000 3.858683e+000 -6.064322e+000 -4.105879e+000 -6.112753e-002 1.689302e+001 -2.818241e-002 -1.590165e-002 -2.038387e-002 -4.444226e-002 7.662144e-002 -1.121400e-002 -1.768249e-002 -8.221261e-003 1.042518e-003 -2.164011e-002 -6.416210e-003 -1.145561e-002 1.391014e-002 1.546277e-003 -2.793158e-003 1.070850e-003 -2.621578e-003 6.712503e-004 1.416720e-003 9.393871e-004 -2.007356e-003 9.925360e-005 3.158575e-004 -1.833928e-003 -1.081115e-003 5.344794e-004
<VARIANCE> 39
 1.050809e+002 2.376471e+002 1.469912e+002 2.154599e+002 2.079212e+002 2.795258e+002 1.306633e+002 1.277272e+002 1.407820e+002 1.054124e+002 9.987218e+001 8.412637e+001 1.400970e+001 2.953928e+000 3.409590e+000 3.692235e+000 5.188199e+000 4.962329e+000 5.892813e+000 5.647600e+000 5.205306e+000 4.917606e+000 5.337294e+000 4.549901e+000 3.583556e+000 3.470406e-001 3.809739e-001 4.306443e-001 5.553563e-001 7.171304e-001 7.471987e-001 9.968643e-001 8.897018e-001 8.302047e-001 8.108168e-001 9.499475e-001 7.619989e-001 6.234004e-001 4.145643e-002
<GCONST> 1.436451e+002
<STATE> 3
<MEAN> 39
 -6.576534e+000 -8.450090e+000 -6.340831e+000 -1.363133e+001 -1.149287e+000 -7.894931e+000 -2.374130e+000 -3.678892e+000 3.850724e+000 -6.142474e+000 -4.140513e+000 -1.209424e-001 1.695368e+001 -2.169487e-002 -2.790473e-002 -1.616123e-002 -5.410066e-002 7.912806e-002 -4.956507e-003 -1.385230e-002 -1.621841e-002 1.295764e-003 -2.028126e-002 -1.389892e-002 -1.592936e-002 1.598513e-002 1.772738e-003 -2.946226e-003 8.646418e-004 -2.014123e-003 3.873929e-004 1.729286e-003 8.731066e-004 -1.723147e-003 -6.960567e-006 4.829627e-004 -1.745689e-003 -9.921937e-004 3.916734e-004
<VARIANCE> 39
 1.050760e+002 2.376859e+002 1.456913e+002 2.144400e+002 2.067440e+002 2.819814e+002 1.274866e+002 1.282953e+002 1.429513e+002 1.044774e+002 9.904316e+001 8.365896e+001 1.395237e+001 2.975215e+000 3.395932e+000 3.696295e+000 5.211731e+000 4.971717e+000 5.921375e+000 5.586181e+000 5.204577e+000 4.922779e+000 5.343796e+000 4.551860e+000 3.582495e+000 3.480187e-001 3.839126e-001 4.303312e-001 5.554720e-001 7.215498e-001 7.501653e-001 1.003647e+000 8.801830e-001 8.277943e-001 8.113115e-001 9.521410e-001 7.641516e-001 6.212542e-001 4.169670e-002
<GCONST> 1.436309e+002
<STATE> 4
<MEAN> 39
 -6.656075e+000 -8.590973e+000 -6.398170e+000 -1.386851e+001 -8.160184e-001 -7.887984e+000 -2.424940e+000 -3.754366e+000 3.843425e+000 -6.214890e+000 -4.205567e+000 -1.994410e-001 1.702238e+001 -1.444080e-002 -4.027078e-002 -1.283477e-002 -6.124314e-002 8.050723e-002 2.503533e-003 -1.026255e-002 -2.307899e-002 1.162059e-003 -1.822123e-002 -2.093701e-002 -2.000341e-002 1.746993e-002 1.902898e-003 -2.939130e-003 6.059253e-004 -1.360761e-003 1.366242e-004 2.031619e-003 8.133480e-004 -1.413879e-003 -1.411712e-004 6.836259e-004 -1.604057e-003 -8.692117e-004 2.364569e-004
<VARIANCE> 39
 1.045058e+002 2.370945e+002 1.447526e+002 2.134806e+002 2.058012e+002 2.842584e+002 1.242421e+002 1.290206e+002 1.448613e+002 1.034704e+002 9.829798e+001 8.332476e+001 1.384402e+001 2.985846e+000 3.378842e+000 3.700354e+000 5.237134e+000 4.985747e+000 5.948988e+000 5.522663e+000 5.203880e+000 4.932397e+000 5.351443e+000 4.551700e+000 3.582531e+000 3.480899e-001 3.859694e-001 4.295813e-001 5.556897e-001 7.259209e-001 7.542894e-001 1.009991e+000 8.709496e-001 8.254513e-001 8.129204e-001 9.547579e-001 7.655163e-001 6.189392e-001 4.185438e-002
<GCONST> 1.435985e+002
<TRANSP> 5
 0.000000e+000 1.000000e+000 0.000000e+000 0.000000e+000 0.000000e+000
 0.000000e+000 7.596435e-001 2.403565e-001 0.000000e+000 0.000000e+000
 0.000000e+000 0.000000e+000 7.596434e-001 2.403565e-001 0.000000e+000
 0.000000e+000 0.000000e+000 0.000000e+000 7.596449e-001 2.403551e-001
 0.000000e+000 0.000000e+000 0.000000e+000 0.000000e+000 0.000000e+000
<ENDHMM>
~h "j^"
<BEGINHMM>
<NUMSTATES> 5
<STATE> 2
<MEAN> 39
 -8.731946e+000 -1.507292e+001 -5.246857e+000 -1.467475e+001 1.889511e+000 -4.716738e+000 3.729383e+000 -6.853466e+000 2.182773e+000 -8.799780e+000 -3.795277e+000 -3.040272e+000 1.827235e+001 3.706106e-002 -3.034586e-002 -2.426214e-002 -5.975829e-002 -3.020605e-003 -3.359023e-002 -4.178178e-002 -5.810241e-002 3.304227e-003 -3.474898e-002 -2.906152e-002 -2.131212e-002 1.476725e-002 1.109045e-003 4.437431e-003 -6.166605e-003 4.993317e-003 3.617193e-003 -2.512865e-004 -6.097196e-003 9.595950e-004 -5.462219e-004 2.543180e-003 -1.951668e-003 1.873505e-003 -1.997008e-003
<VARIANCE> 39
 7.768793e+001 1.457246e+002 1.654716e+002 1.738769e+002 1.647785e+002 1.876706e+002 1.300924e+002 1.175989e+002 1.091935e+002 1.193771e+002 1.110131e+002 7.137383e+001 1.273393e+001 2.538146e+000 2.799480e+000 3.751082e+000 4.871734e+000 3.851400e+000 4.553287e+000 5.236000e+000 5.642170e+000 4.457053e+000 4.738152e+000 4.588363e+000 3.394804e+000 2.658816e-001 3.907968e-001 3.640618e-001 5.949569e-001 7.025969e-001 6.203755e-001 6.986555e-001 8.709089e-001 9.302273e-001 7.828747e-001 8.141779e-001 7.962555e-001 5.943042e-001 3.060631e-002
<GCONST> 1.392846e+002
<STATE> 3
<MEAN> 39
 -8.568355e+000 -1.515100e+001 -5.403373e+000 -1.484878e+001 1.903898e+000 -4.847121e+000 3.493594e+000 -7.059137e+000 2.163041e+000 -8.900343e+000 -3.945819e+000 -3.086647e+000 1.830640e+001 4.214144e-002 -1.264971e-002 -3.993151e-002 -3.778152e-002 6.645374e-003 -2.873243e-002 -5.996874e-002 -4.702843e-002 -2.232788e-003 -1.995769e-002 -3.735116e-002 -9.309174e-003 6.848737e-003 1.203979e-003 4.150972e-003 -3.387113e-003 5.442028e-003 2.283880e-003 1.416071e-003 -4.072146e-003 2.990332e-003 -1.454638e-003 3.644885e-003 -1.747388e-003 3.215443e-003 -1.879336e-003
<VARIANCE> 39
 7.685697e+001 1.439215e+002 1.622053e+002 1.719436e+002 1.667911e+002 1.888265e+002 1.290538e+002 1.165415e+002 1.099482e+002 1.192280e+002 1.084753e+002 7.048139e+001 1.236835e+001 2.484954e+000 2.724573e+000 3.679566e+000 4.809392e+000 3.792501e+000 4.570295e+000 5.142919e+000 5.548300e+000 4.393683e+000 4.606771e+000 4.494173e+000 3.371804e+000 2.582336e-001 3.788235e-001 3.575156e-001 5.837932e-001 6.956087e-001 6.116007e-001 7.037814e-001 8.574119e-001 9.180488e-001 7.691617e-001 7.933132e-001 7.797166e-001 5.925655e-001 2.986884e-002
<GCONST> 1.387404e+002
<STATE> 4
<MEAN> 39
 -8.385870e+000 -1.516121e+001 -5.595878e+000 -1.493544e+001 1.944810e+000 -4.936755e+000 3.202441e+000 -7.195877e+000 2.121177e+000 -8.935797e+000 -4.121911e+000 -3.080951e+000 1.831161e+001 4.625665e-002 2.591167e-003 -4.740880e-002 -1.682797e-002 1.265771e-002 -1.847517e-002 -7.230757e-002 -2.974922e-002 -8.108417e-003 -4.729008e-003 -4.241110e-002 3.964629e-003 1.732942e-004 8.744548e-004 3.411883e-003 -1.555621e-003 5.025288e-003 1.337484e-003 2.556651e-003 -2.771201e-003 4.324246e-003 -1.541972e-003 3.554667e-003 -9.823579e-004 3.336271e-003 -1.549991e-003
<VARIANCE> 39
 7.660922e+001 1.436119e+002 1.592773e+002 1.712616e+002 1.688433e+002 1.909791e+002 1.282814e+002 1.156953e+002 1.106935e+002 1.187595e+002 1.060256e+002 6.944080e+001 1.210245e+001 2.439590e+000 2.677087e+000 3.624687e+000 4.773725e+000 3.754805e+000 4.607011e+000 5.088902e+000 5.447566e+000 4.333702e+000 4.505077e+000 4.409169e+000 3.334475e+000 2.531008e-001 3.681426e-001 3.535304e-001 5.751439e-001 6.926320e-001 6.059954e-001 7.123098e-001 8.501400e-001 9.061068e-001 7.563877e-001 7.770579e-001 7.650321e-001 5.883308e-001 2.945683e-002
<GCONST> 1.383355e+002
<TRANSP> 5
 0.000000e+000 1.000000e+000 0.000000e+000 0.000000e+000 0.000000e+000
 0.000000e+000 7.597800e-001 2.402199e-001 0.000000e+000 0.000000e+000
 0.000000e+000 0.000000e+000 7.597800e-001 2.402200e-001 0.000000e+000
 0.000000e+000 0.000000e+000 0.000000e+000 7.597806e-001 2.402194e-001
 0.000000e+000 0.000000e+000 0.000000e+000 0.000000e+000 0.000000e+000
<ENDHMM>
~h "k^"
<BEGINHMM>
<NUMSTATES> 5
<STATE> 2
<MEAN> 39
 -6.204860e+000 -1.004078e+001 -6.379148e+000 -1.521225e+001 -2.409462e-001 -7.024437e+000 -1.069813e+000 -7.191503e+000 4.057484e+000 -5.290210e+000 -5.971792e+000 -2.394265e+000 1.746964e+001 1.295934e-002 -1.965082e-002 -2.635644e-002 8.966402e-003 6.700959e-003 7.263565e-003 5.508614e-004 2.559496e-003 -9.417680e-003 -5.406668e-003 -5.315125e-003 1.259362e-002 -3.253763e-004 -5.243043e-005 5.780107e-004 -9.095051e-005 5.167359e-004 -4.344296e-004 -2.047293e-004 -2.667701e-004 3.842253e-004 5.720586e-005 1.998316e-004 9.054660e-005 3.332317e-004 -1.672563e-004
<VARIANCE> 39
 8.921222e+001 1.839448e+002 1.911206e+002 1.913137e+002 1.918851e+002 2.575161e+002 1.245418e+002 1.365904e+002 1.147107e+002 9.866193e+001 1.031783e+002 8.573254e+001 1.283667e+001 3.028085e+000 3.282281e+000 4.479752e+000 5.574524e+000 5.108808e+000 6.382208e+000 5.726147e+000 5.250721e+000 4.874266e+000 4.755149e+000 5.148898e+000 3.626440e+000 3.210892e-001 4.342146e-001 4.235826e-001 6.978127e-001 7.944418e-001 8.240061e-001 9.846821e-001 9.303397e-001 8.736403e-001 8.466094e-001 8.539352e-001 8.696772e-001 6.266605e-001 4.200624e-002
<GCONST> 1.439489e+002
<STATE> 3
<MEAN> 39
 -6.152600e+000 -1.011054e+001 -6.484153e+000 -1.517178e+001 -2.233156e-001 -7.007180e+000 -1.069033e+000 -7.177507e+000 4.019952e+000 -5.313145e+000 -5.990646e+000 -2.336718e+000 1.746734e+001 1.255079e-002 -1.679864e-002 -2.645225e-002 1.096739e-002 4.718780e-003 6.298148e-003 -4.510736e-004 4.155372e-003 -8.992344e-003 -4.503266e-003 -4.681411e-003 1.387971e-002 -1.032005e-003 -1.564518e-004 7.306003e-004 3.729351e-005 4.654741e-004 -4.687676e-004 -2.716337e-004 -2.516255e-004 4.023834e-004 1.129169e-004 2.317802e-004 1.771261e-004 3.063205e-004 -1.698178e-004
<VARIANCE> 39
 8.950765e+001 1.839914e+002 1.916386e+002 1.902597e+002 1.917125e+002 2.554679e+002 1.247892e+002 1.373164e+002 1.147192e+002 9.887759e+001 1.028487e+002 8.556696e+001 1.279737e+001 3.006253e+000 3.278264e+000 4.469172e+000 5.560143e+000 5.099590e+000 6.366468e+000 5.729868e+000 5.255573e+000 4.870773e+000 4.752856e+000 5.131007e+000 3.624850e+000 3.198323e-001 4.312939e-001 4.232744e-001 6.955574e-001 7.935517e-001 8.230973e-001 9.832407e-001 9.306052e-001 8.742730e-001 8.445422e-001 8.537509e-001 8.674765e-001 6.260630e-001 4.178436e-002
<GCONST> 1.438922e+002
<STATE> 4
<MEAN> 39
 -6.102857e+000 -1.016686e+001 -6.588508e+000 -1.512371e+001 -2.144100e-001 -6.994020e+000 -1.071909e+000 -7.156891e+000 3.985047e+000 -5.331809e+000 -6.005755e+000 -2.274385e+000 1.746210e+001 1.169943e-002 -1.343536e-002 -2.603528e-002 1.272517e-002 2.681429e-003 5.142914e-003 -1.370988e-003 5.814008e-003 -8.308228e-003 -3.466131e-003 -3.765052e-003 1.498153e-002 -1.732831e-003 -2.666656e-004 8.515972e-004 1.689199e-004 4.017508e-004 -4.746778e-004 -3.237917e-004 -2.299765e-004 4.092978e-004 1.760205e-004 2.363045e-004 2.147776e-004 2.532913e-004 -1.646967e-004
<VARIANCE> 39
 8.990301e+001 1.840622e+002 1.923789e+002 1.893234e+002 1.916259e+002 2.537245e+002 1.250216e+002 1.380836e+002 1.147679e+002 9.909229e+001 1.025763e+002 8.539802e+001 1.276802e+001 2.986522e+000 3.273858e+000 4.456952e+000 5.546743e+000 5.089306e+000 6.352922e+000 5.731248e+000 5.260123e+000 4.867694e+000 4.750265e+000 5.116193e+000 3.622800e+000 3.186139e-001 4.286130e-001 4.229891e-001 6.929775e-001 7.927672e-001 8.221448e-001 9.820594e-001 9.304460e-001 8.748670e-001 8.423878e-001 8.536476e-001 8.655474e-001 6.254388e-001 4.156589e-002
<GCONST> 1.438425e+002
<TRANSP> 5
 0.000000e+000 1.000000e+000 0.000000e+000 0.000000e+000 0.000000e+000
 0.000000e+000 7.596622e-001 2.403378e-001 0.000000e+000 0.000000e+000
 0.000000e+000 0.000000e+000 7.596616e-001 2.403384e-001 0.000000e+000
 0.000000e+000 0.000000e+000 0.000000e+000 7.596636e-001 2.403364e-001
 0.000000e+000 0.000000e+000 0.000000e+000 0.000000e+000 0.000000e+000
<ENDHMM>
~h "kh"
<BEGINHMM>
<NUMSTATES> 5
<STATE> 2
<MEAN> 39
 -6.370955e+000 -1.605730e+001 -7.795231e+000 -1.487489e+001 4.680176e+000 -1.520231e+000 4.328198e-001 -6.671333e+000 4.348373e+000 -3.907811e+000 -6.611301e+000 -2.956876e+000 1.799580e+001 5.271390e-003 2.756417e-003 2.816218e-002 4.076631e-002 -9.639498e-003 -3.782827e-002 1.536037e-002 -4.402157e-002 1.011877e-002 -1.575456e-002 -3.756475e-002 -3.959693e-002 6.742868e-003 -7.858953e-004 2.406570e-003 7.186953e-004 -3.837977e-004 -1.663166e-003 -2.285728e-004 -1.087142e-004 -2.059223e-004 7.680196e-004 7.243988e-004 1.256634e-003 2.503832e-005 -3.882204e-004
<VARIANCE> 39
 7.703220e+001 1.330541e+002 1.831712e+002 2.143620e+002 1.809837e+002 1.710035e+002 9.542483e+001 1.121221e+002 1.010689e+002 9.184187e+001 1.014351e+002 6.673547e+001 1.053252e+001 2.305222e+000 2.712801e+000 3.477654e+000 4.788820e+000 4.846212e+000 4.635256e+000 5.272304e+000 4.298619e+000 4.652527e+000 5.067364e+000 3.836661e+000 3.219277e+000 2.757722e-001 3.202430e-001 3.491156e-001 4.556916e-001 6.326156e-001 7.855507e-001 7.300779e-001 8.930166e-001 7.126549e-001 8.210378e-001 9.526304e-001 6.628970e-001 5.711739e-001 3.235365e-002
<GCONST> 1.375924e+002
<STATE> 3
<MEAN> 39
